~o
<STREAMINFO> 1 25
<VECSIZE> 25<NULLD><MFCC_D_N_Z_0><DIAGC>
~h "b"
<BEGINHMM>
<NUMSTATES> 5
<STATE> 2
<MEAN> 25
 6.179672e+00 -2.823828e-01 -2.057339e+00 -1.221306e-01 -1.581766e+00 -1.661387e+00 3.166097e-01 -2.452089e+00 6.512489e-01 -3.133121e+00 -1.867300e+00 -4.836066e-01 -1.090659e+00 -4.790566e-02 -4.545008e-02 8.649769e-02 1.046732e+00 4.427879e-01 1.435726e-01 1.168678e+00 6.873142e-01 -5.456993e-01 4.051695e-02 6.845220e-01 -7.993705e-01
<VARIANCE> 25
 9.860921e+01 6.172070e+01 4.936086e+01 4.845155e+01 4.291039e+01 3.165950e+01 2.358280e+01 2.911110e+01 4.854640e+01 2.037890e+01 3.807632e+01 3.309998e+01 1.792940e+00 1.569929e+00 1.249964e+00 2.149564e+00 3.380849e+00 8.328119e-01 2.665429e+00 1.955715e+00 2.336712e+00 1.287502e+00 1.406357e+00 1.149639e+00 1.671001e+00
<GCONST> 9.702725e+01
<STATE> 3
<MEAN> 25
 4.403113e+00 -2.145974e-01 -2.164669e+00 3.720057e-02 -7.040284e-01 -9.354554e-01 5.570973e-01 -7.118347e-01 9.663947e-01 -3.854905e+00 -1.146156e+00 5.499531e-01 -8.318249e-01 -1.813331e-01 1.267362e-01 1.325526e-01 4.968010e-01 7.186180e-01 3.169640e-01 7.109646e-01 1.690042e-01 -2.109810e-01 9.487005e-02 4.956935e-01 -6.875555e-01
<VARIANCE> 25
 1.154727e+02 5.658657e+01 4.416387e+01 5.031206e+01 4.066135e+01 2.911348e+01 2.056948e+01 3.609034e+01 4.105287e+01 2.063983e+01 3.952598e+01 4.000786e+01 1.720016e+00 1.511421e+00 1.133746e+00 1.533187e+00 3.175490e+00 1.221226e+00 1.527130e+00 1.256605e+00 1.631031e+00 1.148211e+00 1.432768e+00 9.525058e-01 8.306187e-01
<GCONST> 9.450047e+01
<STATE> 4
<MEAN> 25
 2.818547e+00 -4.644828e-01 -2.218130e+00 -1.653411e-01 -4.317110e-01 5.579582e-01 6.722851e-01 7.518673e-02 9.983401e-01 -3.212958e+00 -1.577404e-01 1.454960e+00 -4.268661e-01 -2.401636e-01 2.874469e-01 3.467506e-01 3.535922e-01 7.831832e-01 1.321089e-01 2.532855e-01 2.429295e-01 2.058880e-01 -1.198911e-01 -1.210651e-01 -4.821929e-01
<VARIANCE> 25
 1.254808e+02 5.132806e+01 3.169363e+01 4.620192e+01 4.154472e+01 2.732405e+01 1.548249e+01 3.895183e+01 3.249063e+01 2.296766e+01 4.621435e+01 3.126163e+01 2.222937e+00 1.716500e+00 1.179489e+00 2.773662e+00 3.508581e+00 1.871632e+00 1.166971e+00 1.536119e+00 2.420910e+00 1.645052e+00 1.535926e+00 1.171588e+00 1.448363e+00
<GCONST> 9.666364e+01
<TRANSP> 5
 0.000000e+00 1.000000e+00 0.000000e+00 0.000000e+00 0.000000e+00
 0.000000e+00 1.629777e-01 8.370223e-01 0.000000e+00 0.000000e+00
 0.000000e+00 0.000000e+00 1.726260e-01 8.273740e-01 0.000000e+00
 0.000000e+00 0.000000e+00 0.000000e+00 2.372278e-01 7.627722e-01
 0.000000e+00 0.000000e+00 0.000000e+00 0.000000e+00 0.000000e+00
<ENDHMM>
~h "d"
<BEGINHMM>
<NUMSTATES> 5
<STATE> 2
<MEAN> 25
 6.340856e+00 -1.322680e-01 4.539709e+00 3.630108e+00 -7.151062e+00 -3.430501e+00 7.241827e-01 -6.973722e+00 -3.275479e+00 -1.869330e+00 -2.190513e+00 -2.503432e+00 -3.250978e-01 2.941167e-01 -2.729709e-01 -8.013236e-02 6.330107e-01 2.376028e-01 -2.340987e-01 1.214104e-01 2.221507e-01 9.240274e-02 -1.888855e-01 2.287248e-01 -4.522528e-01
<VARIANCE> 25
 7.720830e+01 5.284810e+01 3.845164e+01 4.598302e+01 6.853047e+01 4.667929e+01 4.865286e+01 6.236655e+01 4.799512e+01 2.069553e+01 2.405552e+01 2.376094e+01 2.026046e+00 4.747376e+00 2.104525e+00 2.563281e+00 4.621905e+00 2.656484e+00 2.256090e+00 3.249756e+00 3.047838e+00 1.782195e+00 2.288950e+00 1.350109e+00 3.411997e+00
<GCONST> 1.035732e+02
<STATE> 3
<MEAN> 25
 5.818442e+00 2.915157e-01 4.134350e+00 3.062250e+00 -6.183157e+00 -2.904032e+00 1.089443e-01 -6.541058e+00 -2.587221e+00 -1.849433e+00 -2.397425e+00 -2.059444e+00 -4.180284e-01 1.170095e-01 -2.819945e-01 -4.282769e-01 5.207719e-01 1.187725e-01 -1.733301e-01 4.077237e-01 3.959237e-01 3.198790e-02 -2.179169e-01 1.605381e-01 -2.738460e-01
<VARIANCE> 25
 8.442744e+01 5.738467e+01 3.757413e+01 4.719766e+01 7.288659e+01 3.798948e+01 4.546342e+01 6.032835e+01 4.970715e+01 1.726702e+01 2.739675e+01 2.453602e+01 2.315886e+00 6.076814e+00 2.197833e+00 2.381823e+00 4.854616e+00 3.185608e+00 2.596772e+00 3.584775e+00 3.278121e+00 2.069422e+00 2.241708e+00 1.531831e+00 4.144011e+00
<GCONST> 1.048607e+02
<STATE> 4
<MEAN> 25
 5.274939e+00 4.740131e-01 3.658425e+00 2.249566e+00 -5.529774e+00 -2.879583e+00 -2.270196e-01 -5.571729e+00 -1.890887e+00 -1.907959e+00 -3.037369e+00 -1.813043e+00 -4.659277e-01 -6.617673e-02 -3.530808e-01 -4.728615e-01 3.784364e-01 -5.765598e-02 -3.822994e-02 6.502331e-01 3.505957e-01 -9.075909e-02 -1.931055e-01 1.952769e-01 -1.766685e-01
<VARIANCE> 25
 8.700652e+01 6.415295e+01 3.633588e+01 4.895757e+01 7.780693e+01 3.476323e+01 4.037985e+01 5.617239e+01 4.378392e+01 1.840401e+01 2.901136e+01 2.074323e+01 3.536286e+00 6.311513e+00 2.490828e+00 2.447458e+00 5.114846e+00 3.156411e+00 3.488294e+00 3.802551e+00 2.859526e+00 1.890374e+00 2.518103e+00 1.485953e+00 4.165648e+00
<GCONST> 1.054929e+02
<TRANSP> 5
 0.000000e+00 1.000000e+00 0.000000e+00 0.000000e+00 0.000000e+00
 0.000000e+00 2.984733e-01 7.015268e-01 0.000000e+00 0.000000e+00
 0.000000e+00 0.000000e+00 3.102722e-01 6.897278e-01 0.000000e+00
 0.000000e+00 0.000000e+00 0.000000e+00 3.821863e-01 6.178138e-01
 0.000000e+00 0.000000e+00 0.000000e+00 0.000000e+00 0.000000e+00
<ENDHMM>
~h "f"
<BEGINHMM>
<NUMSTATES> 5
<STATE> 2
<MEAN> 25
 4.292703e+00 -2.098007e+00 -1.972862e+00 -1.908926e+00 -1.410789e+00 2.227957e+00 9.229243e-02 -3.197429e+00 6.930410e-01 -1.132815e-01 -1.565138e+00 -1.926605e-01 -1.035662e+00 -3.314399e-01 1.728897e-02 2.556651e-01 3.217981e-02 9.979423e-02 4.554321e-01 3.768165e-01 4.344953e-01 -6.825940e-02 4.258201e-01 4.650061e-01 -6.082114e-01
<VARIANCE> 25
 9.187569e+01 5.580893e+01 2.531459e+01 8.089178e+01 3.294696e+01 2.150935e+01 3.358281e+01 4.824477e+01 4.268160e+01 3.541094e+01 2.094901e+01 1.990766e+01 3.272538e+00 5.445921e+00 2.640310e+00 5.479738e+00 2.740742e+00 3.061907e+00 1.711204e+00 2.674589e+00 4.379401e+00 2.366678e+00 2.896542e+00 1.614213e+00 1.948066e+00
<GCONST> 1.031697e+02
<STATE> 3
<MEAN> 25
 1.438658e+00 -3.822831e+00 -1.533040e+00 -3.279050e-01 -1.152497e+00 1.771903e+00 1.055937e+00 -2.315618e+00 2.327297e+00 -1.924530e-01 -7.702837e-01 5.206313e-01 -1.155136e+00 -6.662060e-01 1.830732e-01 5.500677e-01 -5.488255e-02 -1.564384e-01 4.889975e-01 2.516436e-01 6.195697e-01 -1.780694e-01 3.791581e-01 3.007638e-01 -2.892514e-01
<VARIANCE> 25
 9.052818e+01 5.870996e+01 1.970155e+01 6.492464e+01 3.135690e+01 1.802188e+01 2.857727e+01 3.675279e+01 3.851227e+01 3.299245e+01 2.160421e+01 1.950031e+01 3.751179e+00 5.689453e+00 2.094042e+00 5.477947e+00 2.861565e+00 2.484421e+00 2.213425e+00 2.695586e+00 3.522370e+00 2.292830e+00 3.337082e+00 1.569153e+00 1.966356e+00
<GCONST> 1.018324e+02
<STATE> 4
<MEAN> 25
 -1.441671e+00 -5.610406e+00 -1.048082e+00 1.171052e+00 -1.043076e+00 1.461616e+00 2.277069e+00 -1.836210e+00 3.518968e+00 -7.666305e-01 -2.016797e-01 1.250569e+00 -2.628554e-01 -4.150737e-02 2.711447e-01 4.088261e-01 -1.729307e-01 -3.100363e-01 2.059145e-01 -6.868391e-02 -4.586729e-02 -3.077641e-01 -1.277973e-01 -1.745628e-01 -2.438424e-03
<VARIANCE> 25
 7.789878e+01 5.719775e+01 1.792711e+01 5.156910e+01 3.022499e+01 1.839374e+01 2.681525e+01 2.925206e+01 3.013962e+01 3.038916e+01 2.325059e+01 1.983903e+01 5.512071e+00 4.429018e+00 1.526273e+00 3.174314e+00 2.713865e+00 2.016488e+00 2.650569e+00 2.525087e+00 3.001467e+00 2.049023e+00 2.659816e+00 1.893581e+00 1.655821e+00
<GCONST> 9.942890e+01
<TRANSP> 5
 0.000000e+00 1.000000e+00 0.000000e+00 0.000000e+00 0.000000e+00
 0.000000e+00 4.000151e-01 5.999849e-01 0.000000e+00 0.000000e+00
 0.000000e+00 0.000000e+00 3.800243e-01 6.199757e-01 0.000000e+00
 0.000000e+00 0.000000e+00 0.000000e+00 4.363973e-01 5.636027e-01
 0.000000e+00 0.000000e+00 0.000000e+00 0.000000e+00 0.000000e+00
<ENDHMM>
~h "g"
<BEGINHMM>
<NUMSTATES> 5
<STATE> 2
<MEAN> 25
 2.760727e+00 -3.143107e+00 1.083942e-01 1.175520e+00 -4.618578e-01 -3.514206e-01 -3.546971e+00 -3.395981e+00 1.512342e+00 -1.154168e+00 -1.618593e+00 -2.518965e+00 1.681303e+00 -1.079009e+00 -3.524655e-01 3.148601e-01 -1.054786e+00 1.831953e-02 -1.187043e+00 -1.206057e+00 -4.359530e-01 2.391654e-01 -2.850391e-01 -1.042680e+00 1.176597e+00
<VARIANCE> 25
 1.021613e+02 5.702523e+01 4.603518e+01 3.074340e+01 8.946200e+01 4.682268e+01 5.794672e+01 5.552182e+01 3.189672e+01 4.274506e+01 2.903651e+01 4.073041e+01 7.180029e+00 5.154274e+00 3.543851e+00 1.913907e+00 5.306532e+00 4.551245e+00 3.885506e+00 6.171024e+00 2.894283e+00 5.287663e+00 2.132547e+00 4.368633e+00 7.593934e+00
<GCONST> 1.114560e+02
<STATE> 3
<MEAN> 25
 7.365860e+00 -4.128675e+00 -9.197061e-01 2.179800e+00 -1.785624e+00 -1.271025e+00 -5.837613e+00 -6.623636e+00 -5.689372e-01 1.137483e+00 -2.913776e+00 -6.261204e+00 9.116042e-01 -5.427836e-02 -3.134432e-01 3.815536e-01 8.608586e-02 6.798263e-02 -2.343247e-01 -2.147785e-01 -7.273490e-01 5.863257e-01 1.906912e-01 -3.058971e-01 -4.910955e-02
<VARIANCE> 25
 7.626341e+01 5.432193e+01 5.112657e+01 3.436837e+01 5.410887e+01 3.312605e+01 5.779830e+01 4.869432e+01 3.619724e+01 3.336311e+01 1.868540e+01 3.323049e+01 6.051580e+00 5.550778e+00 2.414382e+00 2.006178e+00 3.396875e+00 3.265827e+00 4.099204e+00 5.772953e+00 2.725318e+00 3.330204e+00 2.020787e+00 4.651788e+00 4.401587e+00
<GCONST> 1.072996e+02
<STATE> 4
<MEAN> 25
 8.878047e+00 -1.844396e+00 -2.175549e+00 6.258318e-01 -8.606784e-01 3.366738e-01 -4.843959e+00 -8.080765e+00 -4.694064e+00 1.838468e+00 -1.681321e+00 -5.239739e+00 2.851872e-01 3.155625e-01 -9.151477e-02 -6.701101e-02 7.552838e-02 -5.526217e-02 1.208337e-01 3.695307e-01 -4.286463e-01 -9.191465e-02 3.139746e-01 3.614050e-01 -1.695673e-01
<VARIANCE> 25
 7.146406e+01 5.858001e+01 3.152990e+01 5.460835e+01 4.921037e+01 3.135144e+01 4.895449e+01 6.577870e+01 4.850560e+01 2.234657e+01 2.264341e+01 5.019180e+01 3.986985e+00 6.664765e+00 2.084004e+00 2.745866e+00 3.786207e+00 2.733161e+00 4.081845e+00 4.858115e+00 2.904399e+00 2.940698e+00 2.615515e+00 3.294251e+00 3.744306e+00
<GCONST> 1.071473e+02
<TRANSP> 5
 0.000000e+00 1.000000e+00 0.000000e+00 0.000000e+00 0.000000e+00
 0.000000e+00 5.180668e-01 4.819333e-01 0.000000e+00 0.000000e+00
 0.000000e+00 0.000000e+00 4.728450e-01 5.271550e-01 0.000000e+00
 0.000000e+00 0.000000e+00 0.000000e+00 6.153769e-01 3.846231e-01
 0.000000e+00 0.000000e+00 0.000000e+00 0.000000e+00 0.000000e+00
<ENDHMM>
~h "k"
<BEGINHMM>
<NUMSTATES> 5
<STATE> 2
<MEAN> 25
 9.077405e+00 -4.298358e+00 8.864028e-01 1.729768e+00 -7.186170e+00 -4.427185e+00 -2.199557e+00 -6.160016e+00 -5.392510e-01 2.028222e-01 -1.879896e+00 -4.248241e+00 3.986165e-01 -1.757189e-01 2.867246e-01 2.687876e-02 -7.431251e-01 2.440185e-02 6.801077e-02 -3.907477e-01 -3.118322e-01 2.080713e-01 1.594061e-01 -2.406120e-01 2.040389e-01
<VARIANCE> 25
 5.512907e+01 5.151934e+01 4.379961e+01 4.262711e+01 7.736674e+01 5.267113e+01 4.608891e+01 5.419029e+01 6.832355e+01 3.458311e+01 2.182509e+01 2.929182e+01 5.410069e+00 7.371665e+00 3.322901e+00 4.156064e+00 8.369469e+00 3.333517e+00 4.283838e+00 5.699342e+00 6.710268e+00 3.614624e+00 3.104964e+00 3.571056e+00 7.033357e+00
<GCONST> 1.121746e+02
<STATE> 3
<MEAN> 25
 8.040030e+00 -3.816346e+00 2.109858e+00 1.430907e+00 -7.848042e+00 -3.617925e+00 -1.196598e+00 -6.211271e+00 -1.913080e+00 8.116962e-01 -1.365076e+00 -3.886518e+00 -3.792184e-01 2.723712e-01 1.940337e-01 -2.954972e-02 1.682111e-01 2.382843e-01 1.268045e-01 5.264305e-02 -3.223846e-01 1.322540e-01 6.940399e-02 1.030523e-01 -4.893468e-01
<VARIANCE> 25
 5.575302e+01 5.447666e+01 4.909479e+01 3.839456e+01 6.811925e+01 5.001524e+01 4.539048e+01 5.202383e+01 8.377293e+01 3.935929e+01 2.551070e+01 2.874324e+01 3.953928e+00 7.439972e+00 3.586003e+00 3.609781e+00 6.594597e+00 3.042631e+00 4.443249e+00 4.749768e+00 7.258005e+00 4.291695e+00 2.962653e+00 2.973711e+00 6.437700e+00
<GCONST> 1.115738e+02
<STATE> 4
<MEAN> 25
 7.399883e+00 -3.345388e+00 1.641846e+00 1.363444e+00 -5.760627e+00 -2.722038e+00 -1.668875e+00 -5.141264e+00 -2.401377e+00 7.605613e-01 -2.301258e+00 -3.856427e+00 -4.081203e-01 1.604267e-01 -4.845279e-02 -7.358266e-02 3.998112e-01 1.046309e-01 4.476785e-02 1.791171e-01 7.417585e-03 -7.041813e-02 7.273482e-03 1.508766e-01 -2.826835e-01
<VARIANCE> 25
 6.798853e+01 5.836539e+01 4.893637e+01 3.262274e+01 5.920219e+01 3.997131e+01 4.723836e+01 5.521590e+01 6.085268e+01 4.047565e+01 2.678313e+01 2.901525e+01 4.740059e+00 7.151674e+00 3.835509e+00 3.121741e+00 4.845221e+00 3.224490e+00 4.256207e+00 5.183770e+00 5.918832e+00 4.501128e+00 3.107966e+00 2.344359e+00 5.194283e+00
<GCONST> 1.104736e+02
<TRANSP> 5
 0.000000e+00 1.000000e+00 0.000000e+00 0.000000e+00 0.000000e+00
 0.000000e+00 7.313192e-01 2.686808e-01 0.000000e+00 0.000000e+00
 0.000000e+00 0.000000e+00 7.269176e-01 2.730824e-01 0.000000e+00
 0.000000e+00 0.000000e+00 0.000000e+00 8.567401e-01 1.432599e-01
 0.000000e+00 0.000000e+00 0.000000e+00 0.000000e+00 0.000000e+00
<ENDHMM>
~h "l"
<BEGINHMM>
<NUMSTATES> 5
<STATE> 2
<MEAN> 25
 5.409330e+00 4.686141e-02 -4.808699e-01 -2.487969e+00 -3.331123e+00 -7.599500e-01 -6.113809e-01 -5.945092e+00 9.714091e-02 2.010667e-02 -1.082986e+00 -3.705381e+00 -2.785290e-01 1.544110e-02 1.183306e-01 -7.201109e-03 -6.869378e-03 1.363839e-01 1.840446e-01 -5.413584e-02 -2.072926e-01 -1.345391e-01 2.561369e-01 1.196065e-01 -1.088686e-02
<VARIANCE> 25
 1.143364e+02 5.743329e+01 3.847134e+01 4.866779e+01 7.204948e+01 5.602838e+01 3.526556e+01 4.880704e+01 4.949449e+01 3.668482e+01 2.711896e+01 2.316081e+01 2.274104e+00 2.794216e+00 1.891438e+00 2.755020e+00 3.896303e+00 3.333037e+00 3.007187e+00 3.978128e+00 3.569605e+00 2.385555e+00 2.645386e+00 2.081819e+00 1.965701e+00
<GCONST> 1.050420e+02
<STATE> 3
<MEAN> 25
 4.746159e+00 3.852369e-01 -1.631279e-01 -1.959310e+00 -2.545818e+00 -2.666420e-01 -1.883105e-01 -5.872870e+00 -1.814541e-01 -3.966408e-01 -9.244666e-01 -3.167031e+00 -2.168960e-01 1.164862e-01 1.294429e-01 2.412099e-01 2.988663e-01 2.447563e-01 2.225237e-01 4.747101e-02 -4.296497e-01 -2.708433e-01 3.774949e-02 2.807479e-01 -1.677552e-01
<VARIANCE> 25
 1.186378e+02 5.741027e+01 4.397517e+01 5.181921e+01 7.942875e+01 5.696158e+01 3.895521e+01 4.952997e+01 5.221144e+01 3.428189e+01 2.651943e+01 2.315703e+01 1.898986e+00 2.599920e+00 1.485758e+00 2.401219e+00 3.697905e+00 2.970800e+00 2.637342e+00 4.251411e+00 3.330592e+00 2.337215e+00 2.367668e+00 1.835893e+00 1.845742e+00
<GCONST> 1.042137e+02
<STATE> 4
<MEAN> 25
 4.112016e+00 8.624304e-01 1.433344e-01 -1.064375e+00 -1.250738e+00 4.334571e-01 1.222560e-01 -5.298932e+00 -1.166169e+00 -1.041512e+00 -9.783221e-01 -2.640171e+00 -1.020768e-01 7.273474e-02 8.889410e-02 3.168845e-01 3.204178e-01 7.808100e-02 4.521682e-02 1.115827e-01 -4.980082e-01 -2.497061e-01 -8.141837e-02 2.622567e-01 -2.046862e-01
<VARIANCE> 25
 1.214295e+02 5.409390e+01 4.789926e+01 5.326174e+01 9.066991e+01 5.666296e+01 4.441417e+01 5.518901e+01 5.632059e+01 3.075818e+01 2.665098e+01 2.330336e+01 2.459769e+00 2.942458e+00 1.464813e+00 2.567576e+00 3.820246e+00 3.197395e+00 2.671494e+00 4.571711e+00 3.261002e+00 2.597208e+00 2.406811e+00 1.876629e+00 2.092325e+00
<GCONST> 1.055103e+02
<TRANSP> 5
 0.000000e+00 1.000000e+00 0.000000e+00 0.000000e+00 0.000000e+00
 0.000000e+00 2.447032e-01 7.552968e-01 0.000000e+00 0.000000e+00
 0.000000e+00 0.000000e+00 2.340407e-01 7.659593e-01 0.000000e+00
 0.000000e+00 0.000000e+00 0.000000e+00 2.697780e-01 7.302220e-01
 0.000000e+00 0.000000e+00 0.000000e+00 0.000000e+00 0.000000e+00
<ENDHMM>
~h "m"
<BEGINHMM>
<NUMSTATES> 5
<STATE> 2
<MEAN> 25
 -1.735402e+00 3.282295e+00 1.987652e+00 1.360345e+00 3.205368e+00 -1.703028e+00 7.249799e-01 -1.900764e+00 -1.266132e+00 -2.333748e+00 -1.029750e+00 -7.145141e-01 -5.861054e-01 -2.933624e-01 -2.133127e-01 -8.281049e-02 3.425025e-01 -3.338238e-02 3.052380e-01 5.058280e-01 6.484686e-02 -5.450429e-02 -3.534334e-01 -3.993611e-02 -3.305547e-01
<VARIANCE> 25
 1.172950e+02 3.882579e+01 3.952714e+01 3.472665e+01 8.741826e+01 5.073433e+01 4.504802e+01 6.625557e+01 3.599100e+01 1.999493e+01 1.832468e+01 2.950107e+01 4.006287e+00 1.987076e+00 3.493279e+00 4.101662e+00 3.870618e+00 2.799573e+00 3.502217e+00 3.508281e+00 2.147158e+00 2.065383e+00 1.776636e+00 2.118818e+00 2.948088e+00
<GCONST> 1.043895e+02
<STATE> 3
<MEAN> 25
 -2.228716e+00 2.777628e+00 1.546937e+00 1.298715e+00 3.354853e+00 -1.622542e+00 1.296034e+00 -1.793203e+00 -1.295295e+00 -2.280643e+00 -1.328368e+00 -6.085341e-01 2.749106e-02 -4.545978e-01 -8.955785e-02 -8.971155e-02 -2.285805e-01 -1.211654e-01 2.593299e-01 1.682734e-01 -1.490940e-01 1.420715e-01 -3.780664e-01 -2.781328e-01 2.830483e-02
<VARIANCE> 25
 1.160722e+02 3.640698e+01 3.620541e+01 3.142035e+01 8.300560e+01 4.455547e+01 5.140997e+01 6.306671e+01 4.332843e+01 2.023252e+01 1.859317e+01 3.021476e+01 4.815749e+00 2.389726e+00 3.370824e+00 3.840010e+00 3.375664e+00 3.303701e+00 2.715163e+00 3.615646e+00 2.091869e+00 1.930595e+00 1.623152e+00 2.552778e+00 2.753645e+00
<GCONST> 1.042693e+02
<STATE> 4
<MEAN> 25
 -4.695427e+00 2.986699e+00 -8.142483e-01 -4.045683e-01 4.861462e+00 7.767683e-02 3.722779e-01 1.837015e+00 2.700168e-01 -8.604858e-01 6.523244e-01 1.992213e+00 4.490379e-01 -3.243803e-01 1.358716e-01 8.208717e-02 -4.289501e-01 -1.504679e-01 -4.023674e-02 -1.942385e-01 -1.408402e-01 1.335147e-01 -1.676053e-01 -1.919403e-01 2.508153e-01
<VARIANCE> 25
 7.565845e+01 2.347348e+01 3.024106e+01 3.036958e+01 5.752043e+01 3.385427e+01 3.388971e+01 6.373183e+01 4.291292e+01 1.481899e+01 2.424363e+01 3.626839e+01 4.237119e+00 2.046947e+00 1.726519e+00 2.506804e+00 2.877281e+00 2.665497e+00 2.462396e+00 3.169331e+00 2.456491e+00 1.702751e+00 1.604599e+00 2.380904e+00 2.182881e+00
<GCONST> 1.000071e+02
<TRANSP> 5
 0.000000e+00 1.000000e+00 0.000000e+00 0.000000e+00 0.000000e+00
 0.000000e+00 2.514532e-01 7.485468e-01 0.000000e+00 0.000000e+00
 0.000000e+00 0.000000e+00 2.457272e-01 7.542728e-01 0.000000e+00
 0.000000e+00 0.000000e+00 0.000000e+00 5.755893e-01 4.244107e-01
 0.000000e+00 0.000000e+00 0.000000e+00 0.000000e+00 0.000000e+00
<ENDHMM>
~h "n"
<BEGINHMM>
<NUMSTATES> 5
<STATE> 2
<MEAN> 25
 4.077467e+00 -1.581141e-01 2.304052e+00 1.170264e+00 -3.847858e+00 -1.469382e+00 9.505649e-01 -2.636075e+00 -3.058570e-01 -3.334865e+00 -1.875637e+00 -1.111155e+00 -2.571373e-01 -2.253101e-01 -7.834035e-02 -3.164754e-01 -3.236109e-01 1.184175e-01 3.857433e-02 -3.112655e-01 1.094417e-01 3.223550e-02 2.528043e-01 2.937621e-01 2.970703e-03
<VARIANCE> 25
 1.139352e+02 5.206581e+01 3.682589e+01 2.258882e+01 9.460976e+01 3.493261e+01 3.686970e+01 6.861792e+01 4.021018e+01 2.147749e+01 2.859156e+01 1.981932e+01 2.528795e+00 3.733030e+00 2.484559e+00 2.141497e+00 3.716476e+00 2.477209e+00 2.257883e+00 4.270362e+00 2.919728e+00 2.020302e+00 2.367199e+00 2.018616e+00 2.669197e+00
<GCONST> 1.031220e+02
<STATE> 3
<MEAN> 25
 4.257329e+00 -5.460167e-01 2.451396e+00 9.100084e-01 -4.682866e+00 -1.431349e+00 9.179349e-01 -3.597221e+00 -3.578102e-01 -3.188520e+00 -1.502253e+00 -7.857057e-01 -7.406378e-02 -1.475236e-01 -4.188833e-02 -1.776797e-01 -2.388216e-01 2.754655e-02 -3.654920e-02 -3.067920e-01 -1.537704e-02 1.229880e-01 1.360115e-01 2.099932e-01 3.334195e-02
<VARIANCE> 25
 1.193854e+02 4.751075e+01 4.156273e+01 2.287536e+01 9.369719e+01 3.550089e+01 3.548264e+01 6.916799e+01 4.217973e+01 2.197065e+01 2.838330e+01 2.283780e+01 1.936286e+00 3.556929e+00 2.114273e+00 2.221072e+00 3.396766e+00 2.306734e+00 1.810635e+00 3.781411e+00 2.473242e+00 1.867555e+00 2.137381e+00 1.869394e+00 2.378795e+00
<GCONST> 1.019093e+02
<STATE> 4
<MEAN> 25
 3.807359e+00 -3.750569e-01 1.987160e+00 6.320197e-01 -4.291171e+00 -1.159952e+00 8.412498e-01 -3.349380e+00 -4.013831e-01 -2.613352e+00 -1.045377e+00 -2.145842e-01 2.235582e-02 8.624177e-02 -2.080972e-02 -9.348461e-03 1.955325e-02 -6.231123e-02 -3.670004e-02 -2.753214e-02 -9.000424e-02 2.219926e-01 2.638547e-02 7.026843e-02 -9.852275e-02
<VARIANCE> 25
 1.204365e+02 4.443019e+01 4.027619e+01 2.542858e+01 1.028573e+02 3.681878e+01 3.183710e+01 7.668346e+01 4.051535e+01 2.312346e+01 2.936692e+01 2.875139e+01 1.656123e+00 2.867097e+00 1.749802e+00 2.114734e+00 2.619917e+00 2.054554e+00 1.606370e+00 2.968050e+00 2.038460e+00 1.911693e+00 1.978262e+00 1.726218e+00 2.134987e+00
<GCONST> 1.005424e+02
<TRANSP> 5
 0.000000e+00 1.000000e+00 0.000000e+00 0.000000e+00 0.000000e+00
 0.000000e+00 2.847363e-01 7.152637e-01 0.000000e+00 0.000000e+00
 0.000000e+00 0.000000e+00 2.724871e-01 7.275129e-01 0.000000e+00
 0.000000e+00 0.000000e+00 0.000000e+00 3.766010e-01 6.233990e-01
 0.000000e+00 0.000000e+00 0.000000e+00 0.000000e+00 0.000000e+00
<ENDHMM>
~h "p"
<BEGINHMM>
<NUMSTATES> 5
<STATE> 2
<MEAN> 25
 -3.342492e+00 6.199604e-02 1.035609e+00 5.766308e-01 1.298934e+00 -1.488281e+00 3.025247e+00 -3.613152e+00 -6.075859e-02 -1.628603e+00 -5.277526e-01 -1.423223e-01 3.002149e-01 -1.045401e+00 -3.155238e-01 -1.971518e-01 -6.739006e-01 9.667674e-02 5.309592e-01 -2.674681e-01 3.422168e-01 6.577210e-01 2.114396e-01 1.031802e-01 5.935506e-01
<VARIANCE> 25
 1.174519e+02 6.598467e+01 4.693515e+01 2.069134e+01 5.415184e+01 4.212453e+01 1.107763e+02 6.162922e+01 3.787467e+01 3.284930e+01 1.986351e+01 2.190888e+01 9.152547e+00 7.062565e+00 4.862957e+00 2.167032e+00 6.840667e+00 4.946524e+00 7.036676e+00 6.657984e+00 4.684514e+00 2.365361e+00 2.421945e+00 1.867317e+00 5.832582e+00
<GCONST> 1.111140e+02
<STATE> 3
<MEAN> 25
 -2.591059e+00 -1.165250e+00 3.070976e-01 1.120653e-01 4.316455e-02 -1.438030e+00 3.201197e+00 -3.652316e+00 1.503570e-01 -4.657953e-01 -1.480131e-01 2.414896e-01 9.297248e-01 -5.027591e-01 1.138843e-01 -1.050225e-01 -1.013293e+00 2.723261e-01 1.718774e-02 -5.245784e-01 1.519581e-01 6.354092e-01 4.669273e-02 -2.769623e-03 5.789815e-01
<VARIANCE> 25
 1.287971e+02 5.612190e+01 4.045996e+01 1.792206e+01 5.522609e+01 4.366507e+01 1.038970e+02 6.881770e+01 3.594928e+01 3.424268e+01 2.251949e+01 2.367799e+01 7.635774e+00 5.502004e+00 4.438461e+00 2.051696e+00 6.019562e+00 5.887452e+00 6.791589e+00 5.828934e+00 4.829915e+00 2.252814e+00 2.349865e+00 1.719351e+00 7.543494e+00
<GCONST> 1.104737e+02
<STATE> 4
<MEAN> 25
 -2.984726e-01 -1.896369e+00 1.183980e+00 2.770942e-01 -2.174806e+00 -5.213335e-01 3.097305e+00 -4.534530e+00 -1.592969e-01 3.289043e-01 2.014502e-01 -2.686692e-01 1.022337e+00 -2.493325e-01 1.086019e-01 -1.170182e-01 -8.516334e-01 3.202196e-01 -3.478128e-01 -3.351555e-01 2.132183e-01 6.034755e-01 -1.530769e-01 -1.371562e-01 2.806388e-01
<VARIANCE> 25
 1.256583e+02 5.048680e+01 4.916823e+01 2.074427e+01 6.451466e+01 4.657195e+01 1.063063e+02 6.516003e+01 4.417825e+01 2.711825e+01 2.709089e+01 2.311204e+01 5.626454e+00 5.408427e+00 2.982280e+00 1.759451e+00 5.686235e+00 4.887431e+00 6.011571e+00 5.480197e+00 3.949059e+00 2.458609e+00 2.311999e+00 1.737905e+00 9.350828e+00
<GCONST> 1.098008e+02
<TRANSP> 5
 0.000000e+00 1.000000e+00 0.000000e+00 0.000000e+00 0.000000e+00
 0.000000e+00 3.815660e-01 6.184341e-01 0.000000e+00 0.000000e+00
 0.000000e+00 0.000000e+00 3.663844e-01 6.336156e-01 0.000000e+00
 0.000000e+00 0.000000e+00 0.000000e+00 4.240775e-01 5.759225e-01
 0.000000e+00 0.000000e+00 0.000000e+00 0.000000e+00 0.000000e+00
<ENDHMM>
~h "r"
<BEGINHMM>
<NUMSTATES> 5
<STATE> 2
<MEAN> 25
 7.383676e+00 -1.496441e+00 -5.763658e-01 1.718981e+00 -2.529441e+00 -2.998071e+00 -3.324378e+00 -4.388813e+00 -7.759804e-01 -6.311601e-01 -2.665098e+00 -1.819816e+00 4.567483e-01 -1.927473e-01 -5.745348e-03 4.169798e-01 -2.011588e-01 -6.804406e-01 -6.255506e-01 -2.496699e-02 2.079036e-01 -2.496350e-02 -3.577765e-01 -1.794920e-01 2.972544e-01
<VARIANCE> 25
 8.419939e+01 5.463366e+01 5.137305e+01 2.768028e+01 6.403120e+01 4.275410e+01 5.474918e+01 5.148083e+01 6.099928e+01 3.613042e+01 2.933903e+01 1.935527e+01 8.540704e+00 7.522827e+00 3.397674e+00 3.208396e+00 7.026586e+00 3.657820e+00 5.158316e+00 7.461880e+00 4.478516e+00 3.867387e+00 2.741405e+00 1.912295e+00 6.034238e+00
<GCONST> 1.112940e+02
<STATE> 3
<MEAN> 25
 7.919534e+00 -1.638867e+00 1.537011e-01 2.573900e+00 -3.684680e+00 -4.279597e+00 -3.943893e+00 -4.913552e+00 -8.482518e-01 -6.149454e-01 -2.931614e+00 -2.198277e+00 -1.257177e-01 -2.617818e-02 2.747844e-01 1.861442e-01 -3.472143e-01 -3.108866e-01 5.277652e-02 -1.286676e-01 2.297672e-02 1.711213e-03 -8.361284e-02 -5.791990e-02 1.887865e-04
<VARIANCE> 25
 7.310725e+01 6.556049e+01 5.541156e+01 2.742073e+01 5.968423e+01 4.015504e+01 6.110281e+01 5.052855e+01 6.371930e+01 3.205602e+01 2.849230e+01 1.880166e+01 7.681432e+00 7.443048e+00 4.312573e+00 2.754384e+00 7.570471e+00 3.634327e+00 6.409081e+00 6.650208e+00 4.699759e+00 3.408928e+00 2.582968e+00 2.071739e+00 5.380688e+00
<GCONST> 1.111923e+02
<STATE> 4
<MEAN> 25
 8.257605e+00 -2.060172e+00 1.240620e+00 3.731611e+00 -4.986352e+00 -4.765140e+00 -3.172966e+00 -6.781804e+00 -1.887789e+00 -5.532497e-01 -2.793643e+00 -2.268796e+00 -4.464962e-01 2.316213e-01 1.066847e-01 -9.364472e-02 6.246549e-02 -7.837010e-03 2.205976e-01 -5.660608e-02 1.089173e-01 -6.593069e-02 1.058291e-01 9.989475e-02 -1.982998e-01
<VARIANCE> 25
 7.338985e+01 5.674341e+01 6.857340e+01 2.559781e+01 5.999948e+01 2.811729e+01 5.785911e+01 5.164196e+01 4.887898e+01 2.379248e+01 2.584010e+01 1.950815e+01 6.182574e+00 6.263916e+00 4.987359e+00 2.619628e+00 6.012451e+00 2.473200e+00 5.122066e+00 5.334637e+00 4.886662e+00 2.939259e+00 2.461259e+00 2.195290e+00 4.625777e+00
<GCONST> 1.085831e+02
<TRANSP> 5
 0.000000e+00 1.000000e+00 0.000000e+00 0.000000e+00 0.000000e+00
 0.000000e+00 5.328097e-01 4.671902e-01 0.000000e+00 0.000000e+00
 0.000000e+00 0.000000e+00 5.859422e-01 4.140578e-01 0.000000e+00
 0.000000e+00 0.000000e+00 0.000000e+00 7.793115e-01 2.206885e-01
 0.000000e+00 0.000000e+00 0.000000e+00 0.000000e+00 0.000000e+00
<ENDHMM>
~h "s"
<BEGINHMM>
<NUMSTATES> 5
<STATE> 2
<MEAN> 25
 -4.901685e+00 1.896744e+00 4.812425e-02 1.471473e+00 2.126677e+00 -4.800069e+00 4.686346e+00 -4.352718e+00 2.852130e+00 -2.146527e+00 -8.447903e-01 -1.135395e+00 -1.051581e+00 -1.876545e-01 -3.891001e-01 -2.411138e-01 3.253548e-01 1.488170e-01 4.991989e-01 2.262228e-01 2.251588e-01 3.760944e-02 3.190885e-01 2.687337e-01 -2.183216e-01
<VARIANCE> 25
 1.556182e+02 3.811411e+01 3.807090e+01 2.364209e+01 6.763774e+01 3.667663e+01 8.241766e+01 4.303808e+01 3.249603e+01 2.205621e+01 2.557195e+01 2.683839e+01 7.220318e+00 2.563740e+00 2.948043e+00 2.513764e+00 3.880232e+00 2.801418e+00 4.521764e+00 2.859024e+00 2.889827e+00 2.158436e+00 2.300908e+00 1.839674e+00 1.794001e+00
<GCONST> 1.042582e+02
<STATE> 3
<MEAN> 25
 -5.937583e+00 1.202763e+00 -5.614157e-01 9.314495e-01 2.301336e+00 -4.578955e+00 5.122836e+00 -4.116755e+00 3.172070e+00 -2.001868e+00 -6.994972e-01 -6.471788e-01 -1.504774e-01 -3.559655e-01 -3.040291e-01 -3.233310e-01 -1.155664e-01 1.771206e-01 -6.846059e-02 1.755989e-01 1.119516e-01 3.499326e-02 1.614812e-02 1.577311e-01 -1.000127e-01
<VARIANCE> 25
 1.609682e+02 3.445101e+01 3.465825e+01 2.440938e+01 6.745027e+01 4.054649e+01 8.051161e+01 4.150808e+01 3.283484e+01 2.385200e+01 2.623844e+01 2.676083e+01 5.633861e+00 2.160894e+00 2.667398e+00 1.890802e+00 3.080280e+00 2.859918e+00 4.055112e+00 2.681025e+00 2.607504e+00 1.819694e+00 2.205154e+00 1.939427e+00 1.604880e+00
<GCONST> 1.027166e+02
<STATE> 4
<MEAN> 25
 -5.633224e+00 5.711477e-01 -8.790611e-01 3.645338e-01 1.803643e+00 -4.236344e+00 4.711261e+00 -3.615733e+00 3.043938e+00 -2.140174e+00 -1.010626e+00 -6.105568e-01 7.720163e-01 -2.416247e-01 2.037271e-02 -2.361110e-01 -3.538905e-01 2.351622e-01 -6.096309e-01 1.444216e-01 -1.197975e-01 3.837085e-02 -2.101663e-01 -4.251111e-03 -4.136563e-02
<VARIANCE> 25
 1.553566e+02 3.575761e+01 3.234455e+01 2.163802e+01 6.340218e+01 4.744738e+01 7.448479e+01 4.317825e+01 3.331053e+01 2.447022e+01 2.183296e+01 2.487783e+01 6.868834e+00 2.644813e+00 2.618650e+00 2.033384e+00 3.553113e+00 2.869289e+00 4.710052e+00 2.710999e+00 2.648073e+00 1.760794e+00 2.792829e+00 2.022127e+00 2.512762e+00
<GCONST> 1.038391e+02
<TRANSP> 5
 0.000000e+00 1.000000e+00 0.000000e+00 0.000000e+00 0.000000e+00
 0.000000e+00 2.780951e-01 7.219050e-01 0.000000e+00 0.000000e+00
 0.000000e+00 0.000000e+00 2.776743e-01 7.223257e-01 0.000000e+00
 0.000000e+00 0.000000e+00 0.000000e+00 3.161986e-01 6.838015e-01
 0.000000e+00 0.000000e+00 0.000000e+00 0.000000e+00 0.000000e+00
<ENDHMM>
~h "t"
<BEGINHMM>
<NUMSTATES> 5
<STATE> 2
<MEAN> 25
 2.081627e+00 -8.253382e-01 2.470878e+00 4.029451e-01 -3.811736e+00 -1.213849e+00 -6.463723e-01 -2.322291e+00 -1.254571e+00 -1.245234e+00 -1.023383e-01 1.630661e-01 -1.497564e-01 -2.116110e-01 9.128664e-02 1.379658e-01 9.887981e-02 1.805903e-01 -7.977497e-02 1.369757e-01 1.099289e-01 -1.690551e-01 5.576056e-02 8.489512e-02 1.303189e-01
<VARIANCE> 25
 9.311761e+01 5.836236e+01 4.018188e+01 2.809755e+01 9.298880e+01 3.699106e+01 4.368151e+01 5.907901e+01 3.930367e+01 2.788215e+01 2.875755e+01 2.113087e+01 5.354053e+00 6.397900e+00 3.348760e+00 3.045615e+00 7.460735e+00 4.105135e+00 3.887422e+00 4.321064e+00 3.564585e+00 2.903981e+00 2.807787e+00 2.517822e+00 1.011672e+01
<GCONST> 1.096908e+02
<STATE> 3
<MEAN> 25
 1.797372e+00 -1.880864e+00 2.122342e+00 3.804774e-01 -3.423173e+00 -1.142218e+00 -5.942864e-01 -1.968986e+00 -4.489422e-01 -1.665037e+00 -2.170523e-01 3.482205e-01 8.479770e-02 -5.288543e-01 -1.125457e-01 9.212308e-02 -4.223913e-02 -1.413338e-01 2.273306e-02 3.251833e-02 3.020319e-01 -1.083523e-01 -1.801932e-01 -3.840859e-02 7.144620e-01
<VARIANCE> 25
 8.261137e+01 5.502822e+01 3.872464e+01 3.150419e+01 7.746065e+01 4.260506e+01 5.015466e+01 5.542709e+01 3.646293e+01 3.425253e+01 2.905648e+01 2.242089e+01 6.321167e+00 6.528769e+00 3.652449e+00 3.356999e+00 7.420112e+00 4.227200e+00 5.022109e+00 4.284834e+00 3.475861e+00 3.211125e+00 3.891545e+00 2.727438e+00 1.037654e+01
<GCONST> 1.109721e+02
<STATE> 4
<MEAN> 25
 2.360957e+00 -3.309316e+00 2.526274e+00 5.968947e-01 -3.642622e+00 -2.320782e+00 -1.285219e+00 -2.321810e+00 4.945936e-01 -2.202805e+00 -8.934534e-01 9.564084e-02 2.592551e-01 -1.667943e-01 -2.226529e-01 1.260370e-01 3.342708e-02 -2.271536e-01 -3.648038e-02 -1.494425e-01 2.489672e-01 1.301369e-01 -1.805902e-01 -2.898670e-01 5.258263e-01
<VARIANCE> 25
 8.367906e+01 4.805983e+01 4.909781e+01 2.956708e+01 6.968591e+01 5.020663e+01 5.699683e+01 4.829875e+01 3.600872e+01 3.864291e+01 2.741693e+01 2.874228e+01 7.214129e+00 6.064942e+00 3.850665e+00 3.496358e+00 6.932623e+00 4.079331e+00 5.402324e+00 4.346745e+00 3.732061e+00 3.242615e+00 3.898984e+00 2.953899e+00 8.215094e+00
<GCONST> 1.114352e+02
<TRANSP> 5
 0.000000e+00 1.000000e+00 0.000000e+00 0.000000e+00 0.000000e+00
 0.000000e+00 4.414842e-01 5.585158e-01 0.000000e+00 0.000000e+00
 0.000000e+00 0.000000e+00 4.603917e-01 5.396082e-01 0.000000e+00
 0.000000e+00 0.000000e+00 0.000000e+00 6.064703e-01 3.935297e-01
 0.000000e+00 0.000000e+00 0.000000e+00 0.000000e+00 0.000000e+00
<ENDHMM>
~h "v"
<BEGINHMM>
<NUMSTATES> 5
<STATE> 2
<MEAN> 25
 4.964962e+00 -4.468456e+00 7.224555e-01 3.015902e+00 -3.301923e+00 -3.880146e+00 -1.813433e+00 -4.024362e+00 8.303144e-01 -1.346588e+00 -2.206499e+00 -1.586444e+00 -2.099979e-01 -1.136447e-01 6.248880e-02 -1.930912e-01 -7.285517e-02 3.609398e-01 3.155324e-01 4.762040e-01 2.346096e-01 7.710467e-02 1.692355e-01 1.799348e-01 -9.693285e-02
<VARIANCE> 25
 8.949394e+01 3.446311e+01 2.215858e+01 2.974932e+01 6.518676e+01 3.337849e+01 6.142923e+01 3.922105e+01 3.159774e+01 3.266557e+01 1.894621e+01 1.878741e+01 4.737126e+00 3.916105e+00 3.514987e+00 2.703905e+00 3.761818e+00 3.466742e+00 4.994505e+00 2.641153e+00 2.827240e+00 2.910224e+00 1.740088e+00 1.588276e+00 4.425292e+00
<GCONST> 1.036899e+02
<STATE> 3
<MEAN> 25
 5.570940e+00 -4.620442e+00 1.072639e+00 2.655270e+00 -4.192533e+00 -3.581039e+00 -1.646098e+00 -3.227948e+00 9.525449e-01 -8.489213e-01 -1.893838e+00 -1.911245e+00 3.180131e-02 5.262046e-02 3.004181e-01 -3.560884e-01 -5.201839e-01 2.949089e-01 2.286546e-01 1.940809e-01 3.639869e-03 3.561811e-01 1.961399e-01 -5.779006e-02 1.528118e-02
<VARIANCE> 25
 8.498943e+01 3.172931e+01 2.752774e+01 3.005435e+01 8.163949e+01 3.716043e+01 5.680533e+01 3.928662e+01 3.207022e+01 3.312073e+01 2.067672e+01 1.658461e+01 5.238055e+00 3.450107e+00 3.952045e+00 2.791466e+00 4.494797e+00 4.468699e+00 4.354218e+00 3.431509e+00 2.940468e+00 2.268061e+00 1.877176e+00 1.869202e+00 4.228312e+00
<GCONST> 1.046924e+02
<STATE> 4
<MEAN> 25
 6.366509e+00 -4.408071e+00 1.577450e+00 1.516782e+00 -6.361950e+00 -3.448633e+00 -8.144274e-01 -3.710442e+00 7.129858e-01 1.795874e-01 -1.090280e+00 -2.451144e+00 3.149353e-01 1.990302e-02 3.682038e-01 -4.266719e-01 -7.705522e-01 3.991440e-01 1.409018e-01 -3.972105e-01 -2.581604e-01 4.166028e-01 1.181393e-01 -1.857901e-01 2.055247e-01
<VARIANCE> 25
 7.163043e+01 3.338836e+01 3.674329e+01 3.010479e+01 9.721371e+01 3.649061e+01 4.523182e+01 4.178996e+01 3.400293e+01 2.723720e+01 2.201717e+01 1.777135e+01 5.548664e+00 2.950722e+00 3.685499e+00 2.691753e+00 4.155572e+00 4.406692e+00 3.085772e+00 3.429688e+00 3.480941e+00 2.027240e+00 1.866628e+00 1.665958e+00 4.365194e+00
<GCONST> 1.041734e+02
<TRANSP> 5
 0.000000e+00 1.000000e+00 0.000000e+00 0.000000e+00 0.000000e+00
 0.000000e+00 4.608291e-01 5.391709e-01 0.000000e+00 0.000000e+00
 0.000000e+00 0.000000e+00 4.282240e-01 5.717759e-01 0.000000e+00
 0.000000e+00 0.000000e+00 0.000000e+00 4.350227e-01 5.649772e-01
 0.000000e+00 0.000000e+00 0.000000e+00 0.000000e+00 0.000000e+00
<ENDHMM>
~h "w"
<BEGINHMM>
<NUMSTATES> 5
<STATE> 2
<MEAN> 25
 6.035091e+00 -1.604275e+00 1.122361e+00 1.213916e-01 -4.492755e+00 -2.535910e+00 4.653940e-01 -5.899523e+00 -2.084209e+00 -5.839909e-01 -2.783286e+00 -3.110395e+00 2.108791e+00 -1.120823e-01 1.053761e-01 -2.364432e-01 -1.280778e+00 -1.337194e-01 -8.402711e-01 -9.182973e-01 -8.624198e-01 2.710534e-01 -4.378910e-01 -8.663756e-01 9.310759e-01
<VARIANCE> 25
 8.906014e+01 4.979514e+01 6.243863e+01 4.508103e+01 7.841463e+01 4.505139e+01 5.384024e+01 6.354514e+01 6.094035e+01 2.356765e+01 2.273728e+01 2.589974e+01 9.358055e+00 4.464302e+00 4.137625e+00 3.717014e+00 5.897408e+00 4.004362e+00 8.320181e+00 5.268577e+00 4.746976e+00 2.532646e+00 2.805040e+00 2.587503e+00 4.787744e+00
<GCONST> 1.116851e+02
<STATE> 3
<MEAN> 25
 1.011827e+01 -1.949007e+00 4.944834e-01 -6.454555e-01 -7.018829e+00 -2.473390e+00 -7.105956e-01 -8.097298e+00 -4.143972e+00 3.098476e-01 -3.180350e+00 -5.109339e+00 1.035776e+00 -1.827377e-01 -1.543685e-01 -8.944752e-02 -6.619952e-01 -3.950641e-02 -4.170506e-01 -6.046625e-01 -5.048859e-01 3.251709e-01 -3.233105e-02 -5.188773e-01 5.658795e-01
<VARIANCE> 25
 6.221164e+01 5.404998e+01 6.628677e+01 5.762243e+01 5.572124e+01 4.568092e+01 5.533671e+01 6.236288e+01 6.806708e+01 2.159143e+01 2.392504e+01 2.670392e+01 7.621988e+00 5.001655e+00 3.452520e+00 4.048291e+00 5.315513e+00 3.669697e+00 7.649488e+00 5.735541e+00 5.586195e+00 3.171505e+00 3.012668e+00 2.693358e+00 3.653417e+00
<GCONST> 1.113503e+02
<STATE> 4
<MEAN> 25
 8.667246e+00 -1.495118e+00 4.867532e+00 1.292742e+00 -9.357637e+00 -2.994036e+00 -3.352676e-01 -9.574772e+00 -5.486191e+00 2.481892e-01 -2.898831e+00 -4.644778e+00 -9.667822e-02 4.191367e-02 -1.048810e-01 -8.958030e-02 9.680104e-02 -4.347831e-02 5.973234e-02 9.531350e-02 7.461413e-02 4.569937e-02 2.502748e-02 5.316295e-03 -4.312856e-02
<VARIANCE> 25
 7.348347e+01 5.126303e+01 7.527257e+01 4.055045e+01 7.691060e+01 4.200400e+01 5.018008e+01 5.376479e+01 5.395945e+01 2.757416e+01 2.189623e+01 2.735987e+01 4.415586e+00 5.886694e+00 3.916047e+00 3.397848e+00 5.618178e+00 4.520185e+00 5.618145e+00 4.811626e+00 5.694137e+00 3.231727e+00 2.926448e+00 2.542205e+00 4.115005e+00
<GCONST> 1.105973e+02
<TRANSP> 5
 0.000000e+00 1.000000e+00 0.000000e+00 0.000000e+00 0.000000e+00
 0.000000e+00 6.025032e-01 3.974967e-01 0.000000e+00 0.000000e+00
 0.000000e+00 0.000000e+00 6.689497e-01 3.310503e-01 0.000000e+00
 0.000000e+00 0.000000e+00 0.000000e+00 9.464668e-01 5.353317e-02
 0.000000e+00 0.000000e+00 0.000000e+00 0.000000e+00 0.000000e+00
<ENDHMM>
~h "y"
<BEGINHMM>
<NUMSTATES> 5
<STATE> 2
<MEAN> 25
 3.766999e+00 -3.694718e+00 2.605621e+00 -4.442687e-01 -5.962165e+00 -4.861146e-01 -1.143386e+00 -4.281427e+00 -1.096880e+00 -2.251649e+00 -6.471498e-01 -3.021389e+00 2.392013e-01 4.270235e-01 -1.798508e-01 3.890340e-01 -3.335346e-02 -8.565083e-01 1.990335e-01 2.418122e-01 -3.061990e-01 -6.590449e-01 -2.641251e-01 -2.900585e-01 1.460675e-01
<VARIANCE> 25
 1.113139e+02 4.093219e+01 6.835915e+01 3.503557e+01 1.039292e+02 6.807230e+01 4.452520e+01 7.634102e+01 3.336518e+01 2.287990e+01 1.398136e+01 2.133587e+01 1.941868e+00 2.326306e+00 3.701045e+00 1.207443e+00 4.012245e+00 4.042887e+00 2.906708e+00 3.465636e+00 3.841725e+00 1.455982e+00 1.805088e+00 1.641433e+00 1.450958e+00
<GCONST> 1.027651e+02
<STATE> 3
<MEAN> 25
 3.421436e+00 -3.175089e+00 2.126138e+00 7.143321e-02 -4.706471e+00 -1.658421e+00 -6.950362e-01 -3.263922e+00 -1.403691e+00 -2.615434e+00 -1.708819e+00 -2.321708e+00 5.624816e-01 2.241914e-01 5.031191e-01 6.232543e-01 -7.454128e-01 -4.747209e-01 8.862885e-02 -1.682828e-01 -2.198991e-01 -7.686672e-01 -5.638748e-01 -3.225523e-01 2.953118e-01
<VARIANCE> 25
 1.181958e+02 4.502801e+01 4.479494e+01 3.241654e+01 1.089782e+02 9.241148e+01 4.387700e+01 5.751479e+01 2.779714e+01 2.835934e+01 1.668893e+01 1.590147e+01 2.709780e+00 1.651938e+00 7.410169e+00 1.166291e+00 6.093161e+00 3.135587e+00 3.538537e+00 5.511175e+00 4.439610e+00 2.396307e+00 1.580709e+00 1.832644e+00 2.155604e+00
<GCONST> 1.048814e+02
<STATE> 4
<MEAN> 25
 5.654540e+00 -2.688307e+00 2.656722e+00 1.069600e+00 -6.302377e+00 -1.862218e+00 -1.347324e+00 -4.224888e+00 -1.428856e+00 -4.464538e+00 -2.859324e+00 -3.290292e+00 7.999199e-01 3.578715e-01 1.094919e+00 7.446874e-01 -1.008463e+00 -1.200550e-01 -3.184740e-01 -5.610009e-01 -2.414053e-01 -4.580337e-01 -3.545869e-01 -4.216112e-01 2.317414e-01
<VARIANCE> 25
 1.057573e+02 6.696974e+01 4.599919e+01 3.415554e+01 8.041615e+01 7.684534e+01 4.130033e+01 4.203297e+01 3.564591e+01 2.566768e+01 2.131973e+01 1.397244e+01 3.724356e+00 2.063363e+00 8.555420e+00 1.774756e+00 9.808658e+00 3.756656e+00 4.453127e+00 5.226148e+00 5.452857e+00 2.003744e+00 1.460507e+00 1.270171e+00 3.496034e+00
<GCONST> 1.066500e+02
<TRANSP> 5
 0.000000e+00 1.000000e+00 0.000000e+00 0.000000e+00 0.000000e+00
 0.000000e+00 2.230227e-01 7.769773e-01 0.000000e+00 0.000000e+00
 0.000000e+00 0.000000e+00 2.062335e-01 7.937666e-01 0.000000e+00
 0.000000e+00 0.000000e+00 0.000000e+00 3.282869e-01 6.717132e-01
 0.000000e+00 0.000000e+00 0.000000e+00 0.000000e+00 0.000000e+00
<ENDHMM>
~h "z"
<BEGINHMM>
<NUMSTATES> 5
<STATE> 2
<MEAN> 25
 4.965104e+00 -1.228792e+00 2.768919e+00 2.471229e+00 -4.376207e+00 -6.276045e+00 -9.920269e-01 -5.353899e+00 -7.323821e-01 -3.819428e-01 -3.822867e+00 -2.369478e+00 4.096004e-01 1.133015e-01 -2.190661e-01 4.268763e-01 2.923426e-02 -4.612247e-01 -6.570105e-02 -2.711910e-01 -2.404944e-01 -1.317263e-01 -4.294978e-01 -7.555749e-02 1.240896e-01
<VARIANCE> 25
 9.481004e+01 5.946668e+01 6.042604e+01 2.273009e+01 1.221843e+02 4.171031e+01 3.975180e+01 4.587165e+01 4.221194e+01 3.541247e+01 2.847848e+01 1.449047e+01 7.091134e+00 5.597867e+00 4.777392e+00 2.415310e+00 7.730600e+00 4.542322e+00 4.240283e+00 4.232787e+00 4.282767e+00 3.308715e+00 2.693001e+00 1.285296e+00 3.172398e+00
<GCONST> 1.088069e+02
<STATE> 3
<MEAN> 25
 6.125559e+00 -1.071654e+00 1.902144e+00 3.275410e+00 -4.212897e+00 -7.796237e+00 -1.168514e+00 -6.713167e+00 -1.142937e+00 -2.586954e-01 -4.340121e+00 -2.707889e+00 -1.448618e-02 4.349306e-01 -3.210792e-01 1.262304e-01 5.340003e-01 -4.190651e-01 3.109859e-02 -3.609921e-01 4.238164e-02 -4.036547e-02 -7.077157e-02 -3.740063e-02 -1.496250e-01
<VARIANCE> 25
 8.767564e+01 5.487024e+01 5.955727e+01 2.198014e+01 1.111878e+02 4.426039e+01 4.361488e+01 5.060759e+01 5.025214e+01 3.940315e+01 2.460513e+01 1.560620e+01 8.226872e+00 5.602084e+00 4.540839e+00 2.381484e+00 8.530840e+00 3.948064e+00 4.921763e+00 4.921433e+00 4.147888e+00 2.639043e+00 2.622792e+00 1.405740e+00 2.665838e+00
<GCONST> 1.089388e+02
<STATE> 4
<MEAN> 25
 6.321665e+00 2.202487e-02 6.336267e-01 2.347775e+00 -2.049070e+00 -8.565480e+00 -2.794004e+00 -7.273173e+00 -5.291804e-01 1.274490e-02 -3.866992e+00 -2.936469e+00 -6.227440e-01 3.599431e-01 -1.896597e-01 -2.261860e-01 8.167719e-01 2.297271e-01 8.287420e-03 2.027515e-01 3.255837e-01 -2.853473e-01 2.078233e-01 7.946944e-02 -2.498606e-01
<VARIANCE> 25
 1.055130e+02 6.145196e+01 4.757824e+01 2.618729e+01 9.721347e+01 5.946138e+01 6.826567e+01 5.206887e+01 4.950541e+01 4.373830e+01 2.219086e+01 2.215546e+01 9.170582e+00 5.642966e+00 2.934575e+00 2.618758e+00 7.891188e+00 4.543152e+00 5.629302e+00 4.687717e+00 3.842430e+00 3.234511e+00 2.547681e+00 2.001320e+00 1.955570e+00
<GCONST> 1.102256e+02
<TRANSP> 5
 0.000000e+00 1.000000e+00 0.000000e+00 0.000000e+00 0.000000e+00
 0.000000e+00 4.741800e-01 5.258201e-01 0.000000e+00 0.000000e+00
 0.000000e+00 0.000000e+00 5.106326e-01 4.893674e-01 0.000000e+00
 0.000000e+00 0.000000e+00 0.000000e+00 7.038851e-01 2.961149e-01
 0.000000e+00 0.000000e+00 0.000000e+00 0.000000e+00 0.000000e+00
<ENDHMM>
~h "aa"
<BEGINHMM>
<NUMSTATES> 5
<STATE> 2
<MEAN> 25
 2.456038e+00 -4.036779e+00 1.258749e+00 8.501461e-01 -2.223104e+00 -3.315320e+00 -8.174592e-01 -4.002244e+00 7.183097e-01 -4.408138e-01 -2.321894e+00 -1.470435e+00 9.175208e-01 -6.897838e-01 -2.972189e-01 3.392640e-01 -1.364863e-01 -4.251639e-01 -5.195532e-01 1.260833e-02 1.296625e-01 -6.222397e-02 -1.145399e-01 -3.240910e-01 6.139607e-01
<VARIANCE> 25
 9.747784e+01 6.599456e+01 3.713944e+01 3.309854e+01 4.909096e+01 7.347441e+01 7.054755e+01 4.401896e+01 6.272271e+01 4.329440e+01 2.866824e+01 2.478053e+01 1.016942e+01 1.043108e+01 3.870241e+00 3.700941e+00 6.120967e+00 6.224910e+00 6.013122e+00 5.542562e+00 7.787521e+00 4.533220e+00 2.386632e+00 2.653133e+00 6.919595e+00
<GCONST> 1.143511e+02
<STATE> 3
<MEAN> 25
 6.624988e+00 -4.609341e+00 2.221510e-01 1.403463e+00 -3.352658e+00 -4.088292e+00 -2.417803e+00 -5.049946e+00 -4.423736e-01 -2.593821e-01 -2.306963e+00 -3.393759e+00 7.488679e-01 3.913724e-02 -3.773916e-01 -2.382686e-02 -1.892485e-01 -8.824646e-02 -2.213150e-01 -4.012506e-01 -1.524451e-01 1.617470e-01 6.801718e-02 -4.512613e-01 3.604450e-01
<VARIANCE> 25
 6.456633e+01 6.420636e+01 3.481461e+01 5.180107e+01 5.587810e+01 7.202522e+01 4.606086e+01 4.406501e+01 6.407321e+01 3.754703e+01 3.107209e+01 2.543080e+01 7.597120e+00 8.718514e+00 3.691952e+00 4.235970e+00 5.948889e+00 5.760839e+00 5.647035e+00 5.207975e+00 6.314587e+00 4.643124e+00 2.572759e+00 3.025654e+00 5.469409e+00
<GCONST> 1.131360e+02
<STATE> 4
<MEAN> 25
 7.938917e+00 -2.240608e+00 -9.874163e-01 -3.585068e-01 -3.758200e+00 -2.166433e+00 -2.841200e+00 -7.250436e+00 -9.546857e-01 8.410397e-02 -3.085737e+00 -3.443491e+00 -1.530927e-01 1.136918e-01 4.803934e-02 -7.750795e-02 7.141164e-02 1.525873e-02 1.291071e-01 -3.476830e-02 7.182454e-02 -1.103262e-02 4.822582e-02 2.113552e-02 1.781486e-03
<VARIANCE> 25
 6.096555e+01 7.183546e+01 4.437139e+01 5.403946e+01 5.842210e+01 5.604037e+01 4.954382e+01 4.430019e+01 5.089458e+01 3.335069e+01 3.228126e+01 2.174820e+01 5.894862e+00 7.478188e+00 3.412191e+00 3.978636e+00 6.322659e+00 4.845583e+00 4.850179e+00 4.975265e+00 4.977842e+00 4.297936e+00 3.212265e+00 2.648623e+00 4.998572e+00
<GCONST> 1.117057e+02
<TRANSP> 5
 0.000000e+00 1.000000e+00 0.000000e+00 0.000000e+00 0.000000e+00
 0.000000e+00 7.205164e-01 2.794836e-01 0.000000e+00 0.000000e+00
 0.000000e+00 0.000000e+00 7.509243e-01 2.490757e-01 0.000000e+00
 0.000000e+00 0.000000e+00 0.000000e+00 9.627793e-01 3.722064e-02
 0.000000e+00 0.000000e+00 0.000000e+00 0.000000e+00 0.000000e+00
<ENDHMM>
~h "ae"
<BEGINHMM>
<NUMSTATES> 5
<STATE> 2
<MEAN> 25
 7.332195e+00 -2.013824e+00 6.301149e+00 2.628695e+00 -8.927501e+00 -2.175773e+00 3.131091e+00 -3.374851e+00 -3.336821e+00 -1.757750e+00 -1.234403e+00 -2.768115e+00 7.089388e-01 1.267383e-01 4.927046e-01 2.993805e-01 -6.341146e-01 -7.056333e-02 2.930374e-01 -6.373093e-01 -3.040032e-01 9.667131e-02 -3.354517e-01 -5.664309e-01 3.697032e-01
<VARIANCE> 25
 6.553612e+01 4.074171e+01 9.299518e+01 2.267754e+01 1.116172e+02 5.469271e+01 3.974405e+01 7.624884e+01 3.489951e+01 2.443230e+01 2.811862e+01 2.338166e+01 3.053232e+00 3.212172e+00 2.738911e+00 2.004116e+00 5.522869e+00 3.469593e+00 2.894962e+00 4.126068e+00 1.952187e+00 2.312165e+00 2.905220e+00 2.163095e+00 2.984550e+00
<GCONST> 1.053185e+02
<STATE> 3
<MEAN> 25
 8.822039e+00 -1.572230e+00 7.138839e+00 3.027089e+00 -1.093751e+01 -2.430363e+00 3.610502e+00 -4.906054e+00 -3.741575e+00 -2.018286e+00 -1.464313e+00 -3.946447e+00 6.562654e-01 4.987208e-03 7.858048e-02 1.660389e-01 -6.628231e-01 -2.869895e-01 -9.626319e-02 -5.151131e-01 5.152754e-02 -1.848823e-01 -1.430947e-01 -2.127129e-01 4.962069e-01
<VARIANCE> 25
 4.077208e+01 3.909108e+01 7.980211e+01 2.421079e+01 8.698392e+01 4.775023e+01 3.897029e+01 6.723413e+01 2.952939e+01 2.361111e+01 2.374994e+01 2.059163e+01 2.900374e+00 3.441355e+00 2.784428e+00 2.101139e+00 6.002840e+00 3.063489e+00 2.322433e+00 3.564305e+00 1.581252e+00 2.546517e+00 2.702240e+00 1.780757e+00 3.537758e+00
<GCONST> 1.031496e+02
<STATE> 4
<MEAN> 25
 9.925577e+00 -1.907218e+00 6.777543e+00 3.164115e+00 -1.181478e+01 -3.300577e+00 2.874979e+00 -5.757132e+00 -3.546779e+00 -2.672557e+00 -1.174316e+00 -3.842320e+00 1.128311e-01 -6.055569e-02 -1.643966e-01 -7.312895e-02 4.648812e-02 -3.225504e-01 -4.388888e-01 -6.466930e-02 2.694817e-01 -2.029504e-01 -1.608071e-01 3.250126e-01 2.399009e-01
<VARIANCE> 25
 2.643630e+01 4.675100e+01 5.076318e+01 2.362843e+01 6.252517e+01 3.849202e+01 3.672194e+01 5.294677e+01 2.326272e+01 2.389375e+01 2.335253e+01 1.722852e+01 2.462788e+00 4.487547e+00 3.253054e+00 3.019130e+00 5.224364e+00 2.506837e+00 2.321593e+00 4.879789e+00 1.665907e+00 2.473935e+00 2.858462e+00 1.832879e+00 3.591187e+00
<GCONST> 1.018702e+02
<TRANSP> 5
 0.000000e+00 1.000000e+00 0.000000e+00 0.000000e+00 0.000000e+00
 0.000000e+00 4.857342e-01 5.142658e-01 0.000000e+00 0.000000e+00
 0.000000e+00 0.000000e+00 5.408015e-01 4.591986e-01 0.000000e+00
 0.000000e+00 0.000000e+00 0.000000e+00 6.465673e-01 3.534328e-01
 0.000000e+00 0.000000e+00 0.000000e+00 0.000000e+00 0.000000e+00
<ENDHMM>
~h "ah"
<BEGINHMM>
<NUMSTATES> 5
<STATE> 2
<MEAN> 25
 9.144982e+00 1.590919e-01 5.631990e+00 5.093314e+00 -5.747910e+00 -4.660402e+00 -3.663286e+00 -9.361773e+00 -5.354925e+00 1.477396e-01 -3.569805e+00 -4.962590e+00 3.398071e-01 -1.121020e-01 6.159621e-02 2.426129e-01 -1.735638e-02 -2.427775e-01 -4.540609e-01 1.375444e-01 -2.380691e-02 2.564179e-02 -1.895067e-01 -5.308741e-02 6.631662e-02
<VARIANCE> 25
 4.579428e+01 4.595781e+01 8.706670e+01 3.461543e+01 7.775842e+01 4.694776e+01 3.263297e+01 4.679284e+01 5.424836e+01 2.373813e+01 1.787810e+01 2.303972e+01 5.743481e+00 4.627472e+00 5.330505e+00 3.035630e+00 7.524684e+00 4.787956e+00 4.083951e+00 4.265584e+00 3.872023e+00 2.681798e+00 2.036155e+00 2.603120e+00 3.854408e+00
<GCONST> 1.081881e+02
<STATE> 3
<MEAN> 25
 8.263907e+00 -7.819251e-01 3.723710e+00 4.798577e+00 -4.299347e+00 -5.504782e+00 -3.891828e+00 -6.587530e+00 -3.460703e+00 6.333387e-02 -3.769160e+00 -3.507893e+00 -1.410846e-01 -2.016932e-01 -8.037807e-02 8.721677e-02 8.708971e-02 -6.222437e-02 4.752487e-02 2.555828e-01 2.183458e-01 -5.920853e-02 6.242974e-03 2.033830e-01 -1.264469e-01
<VARIANCE> 25
 4.998384e+01 5.516658e+01 5.641693e+01 3.619353e+01 7.315598e+01 4.900671e+01 3.624850e+01 5.350264e+01 4.911255e+01 2.518340e+01 2.018207e+01 2.944774e+01 6.386316e+00 7.221303e+00 3.205695e+00 2.910711e+00 7.331988e+00 3.680270e+00 4.172340e+00 3.903358e+00 3.577317e+00 2.435126e+00 2.145097e+00 2.254321e+00 5.573369e+00
<GCONST> 1.083617e+02
<STATE> 4
<MEAN> 25
 6.432371e+00 -3.814912e-01 4.303287e+00 4.713074e+00 -2.823506e+00 -5.513786e+00 -2.185763e+00 -6.877704e+00 -2.370051e+00 -2.920663e-01 -4.326468e+00 -2.724349e+00 -8.973240e-01 -5.767820e-02 -8.845963e-02 -1.441731e-01 3.249546e-01 1.952251e-01 4.584808e-01 2.923511e-01 3.724380e-01 -2.103833e-01 2.445713e-01 3.450742e-01 -3.080125e-01
<VARIANCE> 25
 7.033327e+01 6.256341e+01 4.723029e+01 3.519641e+01 7.668210e+01 4.023368e+01 5.823804e+01 5.859660e+01 4.726816e+01 2.282580e+01 2.467593e+01 2.900748e+01 5.892220e+00 6.844895e+00 2.756718e+00 3.336677e+00 5.546076e+00 3.436755e+00 5.374015e+00 4.188064e+00 3.321926e+00 2.157126e+00 2.335632e+00 1.690936e+00 4.216979e+00
<GCONST> 1.082386e+02
<TRANSP> 5
 0.000000e+00 1.000000e+00 0.000000e+00 0.000000e+00 0.000000e+00
 0.000000e+00 8.094945e-01 1.905055e-01 0.000000e+00 0.000000e+00
 0.000000e+00 0.000000e+00 7.369865e-01 2.630135e-01 0.000000e+00
 0.000000e+00 0.000000e+00 0.000000e+00 8.484488e-01 1.515512e-01
 0.000000e+00 0.000000e+00 0.000000e+00 0.000000e+00 0.000000e+00
<ENDHMM>
~h "ao"
<BEGINHMM>
<NUMSTATES> 5
<STATE> 2
<MEAN> 25
 7.200864e+00 5.893582e-01 -9.368095e-01 -3.674056e+00 -4.955035e+00 2.833196e+00 -2.341923e+00 -5.679661e+00 -1.459285e+00 -4.187403e-01 -6.871406e-01 -2.205828e+00 8.422653e-01 5.333942e-01 1.488977e-02 -7.787608e-01 -4.449150e-01 5.251961e-01 1.463199e-01 -9.085176e-01 -8.672525e-01 -2.489157e-01 2.403559e-01 -2.237200e-01 2.008344e-01
<VARIANCE> 25
 8.779604e+01 7.071146e+01 3.401378e+01 1.137104e+02 6.282892e+01 3.676713e+01 1.969651e+01 5.944513e+01 6.161963e+01 3.637271e+01 2.886510e+01 2.766580e+01 7.221599e+00 7.337932e+00 3.830403e+00 9.084817e+00 7.344296e+00 2.436520e+00 3.214906e+00 5.563664e+00 5.930012e+00 4.591743e+00 2.739238e+00 3.190382e+00 3.168743e+00
<GCONST> 1.120628e+02
<STATE> 3
<MEAN> 25
 9.553468e+00 2.817761e+00 -1.500159e+00 -7.418168e+00 -6.639253e+00 4.520949e+00 -1.626256e+00 -7.086802e+00 -4.203967e+00 -1.865790e+00 -4.139395e-01 -2.079553e+00 2.868069e-01 5.769097e-01 -8.955867e-02 -5.304298e-01 1.436732e-02 2.434760e-01 7.728455e-02 -1.018449e-01 -4.962973e-01 -2.858620e-01 2.823923e-02 1.160919e-01 -1.028877e-01
<VARIANCE> 25
 7.676270e+01 6.465700e+01 3.032029e+01 1.093360e+02 7.251150e+01 3.289186e+01 2.146145e+01 6.429707e+01 3.911021e+01 3.478896e+01 2.468396e+01 2.410460e+01 4.821932e+00 5.837221e+00 2.885029e+00 9.796170e+00 6.380132e+00 2.854524e+00 2.902881e+00 5.485364e+00 5.118008e+00 4.266041e+00 3.413885e+00 2.545889e+00 2.330479e+00
<GCONST> 1.096147e+02
<STATE> 4
<MEAN> 25
 1.041035e+01 4.307388e+00 -1.785478e+00 -7.559853e+00 -6.700966e+00 4.182685e+00 -2.479414e+00 -7.619330e+00 -4.404404e+00 -2.215359e+00 -8.991194e-01 -2.336743e+00 -3.517919e-01 2.880590e-02 -4.062489e-03 7.855096e-01 4.671817e-01 -3.874372e-01 -2.269869e-01 1.471044e-01 2.541986e-01 1.852619e-01 2.619033e-02 -1.191534e-01 -2.665367e-01
<VARIANCE> 25
 6.175215e+01 5.189356e+01 2.279438e+01 8.760371e+01 7.935324e+01 4.381842e+01 2.481329e+01 7.313527e+01 3.166850e+01 3.710678e+01 2.565456e+01 2.096158e+01 4.734322e+00 5.969055e+00 2.357226e+00 9.520673e+00 6.615251e+00 3.798866e+00 3.112982e+00 7.281349e+00 4.787547e+00 5.459768e+00 3.590725e+00 2.672416e+00 2.473039e+00
<GCONST> 1.098603e+02
<TRANSP> 5
 0.000000e+00 1.000000e+00 0.000000e+00 0.000000e+00 0.000000e+00
 0.000000e+00 6.860476e-01 3.139524e-01 0.000000e+00 0.000000e+00
 0.000000e+00 0.000000e+00 6.952707e-01 3.047293e-01 0.000000e+00
 0.000000e+00 0.000000e+00 0.000000e+00 8.246140e-01 1.753860e-01
 0.000000e+00 0.000000e+00 0.000000e+00 0.000000e+00 0.000000e+00
<ENDHMM>
~h "aw"
<BEGINHMM>
<NUMSTATES> 5
<STATE> 2
<MEAN> 25
 1.299169e+01 -8.190294e+00 -8.689991e-01 9.871255e-01 -1.038181e+01 -4.532749e+00 2.205466e+00 -3.327481e+00 1.602895e-01 -4.504725e+00 -4.478593e+00 -4.650061e+00 7.486762e-01 -2.408489e-01 -1.234634e+00 -4.548984e-01 5.967443e-01 4.784352e-01 2.112476e-01 -2.420798e-01 -3.438981e-02 -3.299487e-01 -5.978026e-01 7.130060e-02 3.790410e-01
<VARIANCE> 25
 1.716759e+01 6.343303e+01 3.163416e+01 2.086422e+01 2.387576e+01 1.574639e+01 2.591526e+01 3.524603e+01 2.465573e+01 2.955153e+01 1.968899e+01 1.316747e+01 1.153854e+00 3.058149e+00 1.512478e+00 1.706774e+00 1.664164e+00 1.200137e+00 1.093265e+00 1.798732e+00 1.776062e+00 2.029700e+00 2.320255e+00 9.525658e-01 8.976309e-01
<GCONST> 8.987247e+01
<STATE> 3
<MEAN> 25
 1.406027e+01 -8.707397e+00 -3.064076e+00 -4.999946e-01 -9.202676e+00 -3.411336e+00 1.921633e+00 -4.381567e+00 2.541940e-01 -4.556691e+00 -5.325251e+00 -4.461957e+00 4.123038e-01 -2.727212e-01 -7.698466e-01 -6.108432e-01 3.739228e-01 6.217066e-01 -1.568591e-01 -3.329856e-01 -2.664795e-02 1.621762e-01 -3.478310e-01 4.029834e-02 1.870125e-01
<VARIANCE> 25
 1.091463e+01 5.943291e+01 2.563300e+01 3.327794e+01 1.664728e+01 1.598756e+01 2.697990e+01 2.755316e+01 3.146904e+01 2.727104e+01 2.317339e+01 9.861740e+00 5.352032e-01 3.842623e+00 1.339751e+00 1.388004e+00 1.696639e+00 8.721893e-01 7.757491e-01 1.690953e+00 1.825991e+00 1.787483e+00 1.931479e+00 1.137849e+00 9.876886e-01
<GCONST> 8.751504e+01
<STATE> 4
<MEAN> 25
 1.557229e+01 -6.747664e+00 -6.638550e+00 -4.163753e+00 -6.079529e+00 2.868675e+00 -7.832355e-01 -7.898831e+00 1.323396e+00 -2.227312e+00 -6.048258e+00 -5.372025e+00 4.814471e-02 6.232063e-01 -1.851306e-01 -3.383511e-01 3.767217e-01 5.451295e-01 -2.807312e-01 -2.999522e-01 -1.136547e-01 3.392415e-01 1.919304e-01 -3.749391e-02 -4.241362e-01
<VARIANCE> 25
 7.098526e+00 6.441199e+01 1.700982e+01 4.162094e+01 3.571595e+01 2.801716e+01 1.845171e+01 2.112038e+01 5.102594e+01 2.943368e+01 2.663729e+01 1.449889e+01 2.357338e-01 2.403126e+00 7.421280e-01 1.511465e+00 1.529433e+00 1.063557e+00 1.373630e+00 1.525921e+00 2.723924e+00 1.295244e+00 2.095697e+00 1.376576e+00 6.752979e-01
<GCONST> 8.747997e+01
<TRANSP> 5
 0.000000e+00 1.000000e+00 0.000000e+00 0.000000e+00 0.000000e+00
 0.000000e+00 4.285147e-01 5.714853e-01 0.000000e+00 0.000000e+00
 0.000000e+00 0.000000e+00 5.266854e-01 4.733146e-01 0.000000e+00
 0.000000e+00 0.000000e+00 0.000000e+00 9.126821e-01 8.731797e-02
 0.000000e+00 0.000000e+00 0.000000e+00 0.000000e+00 0.000000e+00
<ENDHMM>
~h "ax"
<BEGINHMM>
<NUMSTATES> 5
<STATE> 2
<MEAN> 25
 3.908451e+00 8.938762e-01 1.638412e+00 1.683112e+00 -1.362492e+00 -2.996961e+00 -1.729127e-01 -3.724346e+00 -1.147427e+00 -1.006096e+00 -3.649233e+00 -2.847704e+00 -1.510175e-01 3.010023e-01 -3.198314e-03 5.368526e-02 3.825040e-01 7.535320e-02 2.602359e-02 2.634898e-02 -2.051114e-01 -1.624371e-01 -1.616431e-01 -1.470692e-01 -1.693074e-01
<VARIANCE> 25
 9.179654e+01 5.487461e+01 3.098628e+01 3.561998e+01 7.130151e+01 5.366907e+01 5.436149e+01 5.071596e+01 4.106377e+01 2.446064e+01 2.921351e+01 2.294975e+01 6.667570e+00 4.967380e+00 2.481804e+00 2.496631e+00 6.468276e+00 3.549685e+00 4.575105e+00 4.712138e+00 3.536019e+00 2.553414e+00 2.594248e+00 2.148217e+00 4.807354e+00
<GCONST> 1.080869e+02
<STATE> 3
<MEAN> 25
 3.555097e+00 1.353973e+00 1.592559e+00 1.695871e+00 -9.507626e-01 -3.010454e+00 -1.549593e-01 -3.785588e+00 -1.237914e+00 -1.239545e+00 -3.884469e+00 -2.935149e+00 -1.441188e-03 2.749434e-02 -7.136908e-02 -7.564521e-02 5.179167e-03 8.393999e-02 4.460081e-03 -8.787548e-02 8.691280e-02 -6.917908e-02 3.707376e-02 -3.235526e-02 4.896427e-02
<VARIANCE> 25
 8.925774e+01 5.573066e+01 3.128706e+01 3.799562e+01 6.768662e+01 5.501351e+01 5.769545e+01 4.932519e+01 4.201244e+01 2.383888e+01 2.652254e+01 2.190809e+01 7.519202e+00 4.685557e+00 2.510519e+00 2.277602e+00 6.632767e+00 3.587182e+00 4.822193e+00 4.438883e+00 3.285307e+00 2.525830e+00 2.569335e+00 2.072048e+00 4.693645e+00
<GCONST> 1.078629e+02
<STATE> 4
<MEAN> 25
 3.304766e+00 1.273645e+00 1.124103e+00 1.443803e+00 -1.077662e+00 -2.885383e+00 -1.108564e-01 -3.897366e+00 -5.516054e-01 -1.458550e+00 -3.638710e+00 -2.932404e+00 3.716779e-02 -3.339493e-01 -2.124919e-01 -1.827349e-01 -2.491131e-01 1.449019e-01 1.128093e-01 -1.464192e-01 3.960199e-01 -7.886542e-02 2.275166e-01 7.336185e-02 2.963259e-01
<VARIANCE> 25
 9.455717e+01 5.976754e+01 3.471544e+01 3.647023e+01 7.079562e+01 5.383724e+01 6.036960e+01 4.936054e+01 4.375437e+01 2.444238e+01 2.456727e+01 1.931838e+01 8.362077e+00 4.824530e+00 3.059464e+00 2.383056e+00 7.105016e+00 3.137078e+00 5.540106e+00 4.332894e+00 3.351676e+00 2.714915e+00 2.819818e+00 1.975879e+00 4.545445e+00
<GCONST> 1.085195e+02
<TRANSP> 5
 0.000000e+00 1.000000e+00 0.000000e+00 0.000000e+00 0.000000e+00
 0.000000e+00 3.719622e-01 6.280378e-01 0.000000e+00 0.000000e+00
 0.000000e+00 0.000000e+00 3.671721e-01 6.328279e-01 0.000000e+00
 0.000000e+00 0.000000e+00 0.000000e+00 4.571985e-01 5.428015e-01
 0.000000e+00 0.000000e+00 0.000000e+00 0.000000e+00 0.000000e+00
<ENDHMM>
~h "ay"
<BEGINHMM>
<NUMSTATES> 5
<STATE> 2
<MEAN> 25
 9.005703e+00 -4.610499e+00 -4.981843e+00 -1.952214e+00 -1.703870e+00 2.742188e+00 -6.422237e-01 -5.209976e+00 -2.090389e-01 -6.143301e-01 -2.753737e+00 -5.425041e+00 1.386504e+00 -8.260022e-01 -1.092715e+00 -4.883009e-01 5.971711e-03 1.066536e-01 -5.487181e-01 7.961801e-02 2.608539e-01 -2.201738e-01 -8.473114e-01 -8.671890e-01 1.006864e+00
<VARIANCE> 25
 9.202225e+01 4.986805e+01 3.200158e+01 3.272906e+01 4.037521e+01 3.490671e+01 2.180389e+01 5.428989e+01 4.509258e+01 2.253041e+01 2.695803e+01 3.131045e+01 4.784386e+00 3.567572e+00 3.141642e+00 3.544019e+00 3.133361e+00 2.986097e+00 2.999691e+00 4.266529e+00 3.694661e+00 2.457070e+00 4.022486e+00 2.466732e+00 2.204899e+00
<GCONST> 1.046455e+02
<STATE> 3
<MEAN> 25
 1.202722e+01 -7.079580e+00 -7.187418e+00 -3.037212e+00 -1.950792e+00 2.714777e+00 -1.619533e+00 -4.496690e+00 1.114379e+00 -1.104983e+00 -4.403356e+00 -6.767917e+00 8.179275e-01 -8.071167e-01 -1.559631e-01 4.487937e-03 -2.703644e-01 -3.719856e-01 -2.576862e-01 1.757804e-01 3.984049e-01 -3.582953e-01 -5.216047e-01 -2.400566e-01 9.080674e-01
<VARIANCE> 25
 6.007539e+01 4.464910e+01 2.340122e+01 2.394120e+01 2.723211e+01 3.141227e+01 2.132831e+01 3.418702e+01 3.152522e+01 2.036457e+01 2.386498e+01 2.854107e+01 4.582565e+00 3.192163e+00 3.404506e+00 2.979347e+00 3.382587e+00 3.064216e+00 2.706239e+00 4.116688e+00 3.007801e+00 2.179734e+00 2.672251e+00 2.401068e+00 2.796593e+00
<GCONST> 1.010180e+02
<STATE> 4
<MEAN> 25
 1.323261e+01 -9.469922e+00 -4.854759e+00 -9.310217e-01 -5.470287e+00 -2.206990e+00 -9.827077e-01 -1.710001e+00 1.368904e+00 -2.732610e+00 -6.030451e+00 -5.641340e+00 -2.444142e-01 2.317520e-01 8.437085e-01 3.687179e-01 -6.399587e-01 -8.463616e-01 2.484426e-01 2.867188e-01 -2.566645e-01 -2.243416e-01 1.062704e-01 4.301915e-01 -7.983677e-03
<VARIANCE> 25
 3.080363e+01 4.825885e+01 3.299808e+01 1.534965e+01 4.073693e+01 3.951198e+01 2.128924e+01 2.869660e+01 2.816717e+01 1.956137e+01 2.664398e+01 2.845855e+01 3.199039e+00 3.452546e+00 2.482727e+00 1.526409e+00 4.095497e+00 1.929213e+00 2.613741e+00 3.185047e+00 2.848496e+00 1.900084e+00 2.732169e+00 2.308244e+00 2.258741e+00
<GCONST> 9.848570e+01
<TRANSP> 5
 0.000000e+00 1.000000e+00 0.000000e+00 0.000000e+00 0.000000e+00
 0.000000e+00 6.207268e-01 3.792731e-01 0.000000e+00 0.000000e+00
 0.000000e+00 0.000000e+00 6.371451e-01 3.628550e-01 0.000000e+00
 0.000000e+00 0.000000e+00 0.000000e+00 8.591079e-01 1.408921e-01
 0.000000e+00 0.000000e+00 0.000000e+00 0.000000e+00 0.000000e+00
<ENDHMM>
~h "ch"
<BEGINHMM>
<NUMSTATES> 5
<STATE> 2
<MEAN> 25
 9.436742e+00 4.755380e-01 5.750010e+00 8.994122e-01 -9.901621e+00 -6.113134e+00 3.017193e-01 -5.392026e+00 -4.886709e+00 -2.855073e+00 -4.220822e+00 -3.205152e+00 -1.535573e+00 1.784149e+00 -2.895219e-01 9.428883e-01 2.050588e+00 5.849528e-01 6.255467e-01 2.530603e-01 -4.683986e-01 -4.898401e-01 -9.034033e-02 4.247927e-01 -1.937620e+00
<VARIANCE> 25
 4.654954e+01 3.101926e+01 1.183632e+02 3.389369e+01 6.040142e+01 3.889843e+01 7.649855e+01 4.146801e+01 7.236208e+01 1.687534e+01 1.669887e+01 3.082051e+01 5.397164e+00 5.178121e+00 3.159793e+00 1.484123e+00 3.378433e+00 2.716246e+00 4.588233e+00 1.494178e+00 2.453992e+00 1.496318e+00 1.146662e+00 1.475826e+00 4.722384e+00
<GCONST> 1.030907e+02
<STATE> 3
<MEAN> 25
 4.882058e+00 4.306072e+00 2.255222e+00 1.859720e+00 -3.155243e+00 -4.532623e+00 2.279817e+00 -4.404168e+00 -3.109417e+00 -4.217327e+00 -4.050848e+00 -2.128910e+00 -2.542929e+00 3.970244e-01 -4.495072e-01 3.876043e-01 2.074399e+00 9.013848e-01 8.868346e-01 1.797300e-01 8.642478e-01 -4.037615e-01 2.565036e-01 5.103351e-01 -9.360967e-01
<VARIANCE> 25
 8.462496e+01 3.842802e+01 5.417915e+01 2.582099e+01 6.141262e+01 4.349555e+01 1.183374e+02 4.485585e+01 7.209950e+01 1.222015e+01 3.224755e+01 2.037967e+01 5.984363e+00 7.520825e+00 2.847349e+00 2.398370e+00 4.154676e+00 3.556869e+00 6.244292e+00 1.503727e+00 5.761587e+00 1.080002e+00 1.195685e+00 1.311356e+00 5.411535e+00
<GCONST> 1.056410e+02
<STATE> 4
<MEAN> 25
 -2.550586e+00 -6.965441e-02 2.572729e+00 1.106524e+00 -2.382656e+00 -3.018464e+00 5.785275e+00 -5.834048e+00 1.498881e+00 -5.347770e+00 -1.822552e+00 -1.014516e+00 -1.740835e+00 -1.444118e+00 -3.132563e-01 -1.018321e-01 4.588747e-01 5.690712e-01 1.034604e+00 5.913967e-01 1.918054e+00 -4.966260e-01 5.355957e-01 4.123475e-01 5.490593e-01
<VARIANCE> 25
 9.928168e+01 7.651864e+01 4.928662e+01 1.952931e+01 6.281682e+01 3.874086e+01 1.167631e+02 5.635435e+01 6.229297e+01 1.031086e+01 3.568840e+01 1.273459e+01 4.008630e+00 7.779415e+00 1.419389e+00 3.197769e+00 5.809646e+00 2.503788e+00 8.296469e+00 1.860853e+00 7.894023e+00 1.410276e+00 1.759825e+00 7.992138e-01 7.196514e+00
<GCONST> 1.060165e+02
<TRANSP> 5
 0.000000e+00 1.000000e+00 0.000000e+00 0.000000e+00 0.000000e+00
 0.000000e+00 6.207801e-01 3.792200e-01 0.000000e+00 0.000000e+00
 0.000000e+00 0.000000e+00 4.687560e-01 5.312440e-01 0.000000e+00
 0.000000e+00 0.000000e+00 0.000000e+00 5.574717e-01 4.425283e-01
 0.000000e+00 0.000000e+00 0.000000e+00 0.000000e+00 0.000000e+00
<ENDHMM>
~h "dh"
<BEGINHMM>
<NUMSTATES> 5
<STATE> 2
<MEAN> 25
 6.967320e+00 -1.295473e+00 5.329280e-01 1.342688e+00 -4.632465e+00 -3.449350e+00 -3.101062e+00 -5.030077e+00 -7.360789e-01 -2.817122e-01 -4.164168e+00 -2.866174e+00 5.529937e-01 -6.247253e-02 3.985956e-01 9.018891e-03 -6.553485e-01 -3.469252e-01 -4.271648e-02 -4.539675e-01 -3.476260e-01 -6.942503e-02 -3.037435e-01 -3.832853e-01 4.916067e-01
<VARIANCE> 25
 7.267036e+01 5.223614e+01 3.328683e+01 4.506938e+01 7.106306e+01 4.146188e+01 6.704577e+01 4.830652e+01 3.604911e+01 3.805919e+01 2.857758e+01 1.965083e+01 7.309791e+00 7.798984e+00 3.415927e+00 3.159254e+00 9.923745e+00 3.381533e+00 5.277988e+00 4.975052e+00 4.817052e+00 2.750734e+00 3.298557e+00 2.013082e+00 8.391636e+00
<GCONST> 1.109357e+02
<STATE> 3
<MEAN> 25
 8.205414e+00 -7.539099e-01 1.983512e+00 1.101405e+00 -6.127159e+00 -4.198144e+00 -2.728122e+00 -5.587577e+00 -1.917170e+00 -6.508607e-01 -3.948637e+00 -3.471174e+00 -4.446701e-02 4.109738e-01 4.536800e-01 3.468301e-02 1.708502e-02 -2.355690e-01 2.381273e-01 4.000801e-02 -1.476765e-01 -1.897102e-01 -5.862754e-03 -1.455032e-01 9.623457e-02
<VARIANCE> 25
 4.821465e+01 5.701654e+01 3.920117e+01 5.404711e+01 7.424456e+01 4.230940e+01 5.249919e+01 3.716038e+01 5.140643e+01 3.248925e+01 2.882042e+01 1.869095e+01 7.667955e+00 7.056292e+00 3.216975e+00 3.067031e+00 8.737281e+00 3.141714e+00 5.758887e+00 4.543983e+00 4.572416e+00 2.999392e+00 2.737185e+00 1.761784e+00 8.142126e+00
<GCONST> 1.100085e+02
<STATE> 4
<MEAN> 25
 7.628545e+00 1.835897e+00 4.277534e+00 1.342566e+00 -6.628806e+00 -3.255412e+00 -5.557437e-01 -5.524653e+00 -3.202608e+00 -9.084888e-01 -3.831511e+00 -3.881787e+00 -6.927307e-01 3.928126e-01 1.127665e-01 2.215875e-01 8.515975e-01 1.403217e-01 4.035410e-01 4.475367e-01 1.272671e-01 -2.002113e-01 1.034506e-01 3.845087e-02 -4.521328e-01
<VARIANCE> 25
 4.343246e+01 6.152073e+01 4.773637e+01 5.431136e+01 8.514182e+01 5.286609e+01 4.333607e+01 3.929559e+01 5.458619e+01 3.093323e+01 2.490062e+01 1.992516e+01 5.808487e+00 6.213609e+00 3.229166e+00 2.935723e+00 6.715161e+00 3.427521e+00 4.061090e+00 3.558510e+00 3.161608e+00 2.297625e+00 2.308850e+00 1.687130e+00 5.312084e+00
<GCONST> 1.078435e+02
<TRANSP> 5
 0.000000e+00 1.000000e+00 0.000000e+00 0.000000e+00 0.000000e+00
 0.000000e+00 5.550841e-01 4.449159e-01 0.000000e+00 0.000000e+00
 0.000000e+00 0.000000e+00 5.640711e-01 4.359289e-01 0.000000e+00
 0.000000e+00 0.000000e+00 0.000000e+00 7.033797e-01 2.966203e-01
 0.000000e+00 0.000000e+00 0.000000e+00 0.000000e+00 0.000000e+00
<ENDHMM>
~h "dx"
<BEGINHMM>
<NUMSTATES> 5
<STATE> 2
<MEAN> 25
 7.498105e+00 -3.405082e+00 4.564251e+00 3.161138e+00 -7.750082e+00 -8.614963e+00 -5.096390e+00 -4.526029e+00 -1.629852e+00 -3.072052e+00 -1.724130e+00 -8.274876e-01 -3.466615e-02 1.515042e-01 3.728343e-01 1.538200e-01 -1.391587e-01 -1.152456e-01 2.906175e-02 -6.077305e-02 -8.471802e-02 -1.120129e-01 -1.041650e-01 8.962747e-02 -2.094752e-01
<VARIANCE> 25
 7.393056e+01 4.314820e+01 5.519716e+01 2.276534e+01 1.116721e+02 2.396141e+01 6.810950e+01 1.950975e+01 2.804013e+01 1.590392e+01 1.750771e+01 1.299296e+01 8.202559e+00 4.624605e+00 4.370097e+00 2.133974e+00 1.164769e+01 2.112749e+00 5.929673e+00 2.224804e+00 2.265538e+00 1.589732e+00 2.634214e+00 1.235569e+00 2.494846e+00
<GCONST> 1.027892e+02
<STATE> 3
<MEAN> 25
 5.995991e+00 -2.840482e-01 4.785591e+00 3.376565e+00 -4.809511e+00 -7.774593e+00 -4.499538e+00 -4.474085e+00 -2.237284e+00 -3.515188e+00 -2.284569e+00 -5.035789e-01 -6.054701e-01 2.874135e-01 4.796593e-02 2.506955e-01 7.570915e-01 2.539521e-01 2.900075e-01 -7.003992e-02 8.822156e-02 -6.636859e-02 -8.759414e-02 -1.339913e-02 -5.351920e-01
<VARIANCE> 25
 7.283418e+01 4.711363e+01 5.483631e+01 2.046997e+01 7.584277e+01 3.460283e+01 5.763606e+01 2.145488e+01 2.534057e+01 1.371482e+01 1.678884e+01 1.602649e+01 8.792628e+00 5.956664e+00 4.108075e+00 2.854006e+00 7.657453e+00 1.939127e+00 5.384902e+00 1.717663e+00 1.933468e+00 1.309029e+00 2.599406e+00 1.479586e+00 2.971411e+00
<GCONST> 1.022568e+02
<STATE> 4
<MEAN> 25
 2.424483e+00 9.096892e-01 3.304565e+00 2.906689e+00 -1.785126e+00 -6.239735e+00 -3.175116e+00 -5.257955e+00 -1.415523e+00 -3.014144e+00 -2.266032e+00 -7.764837e-01 -7.805333e-01 -4.823538e-01 -1.156131e-01 -8.899036e-02 -1.270026e-02 2.477574e-01 7.327840e-01 -6.479704e-02 3.705411e-01 -1.759265e-01 3.414508e-01 -2.888724e-02 1.101450e-01
<VARIANCE> 25
 8.354827e+01 4.077711e+01 4.372864e+01 2.648412e+01 5.427355e+01 4.306868e+01 6.698497e+01 2.490272e+01 2.894601e+01 2.613350e+01 2.386096e+01 1.854734e+01 8.398129e+00 5.984439e+00 3.535980e+00 3.663555e+00 6.865742e+00 2.660144e+00 8.463297e+00 2.917942e+00 2.403188e+00 2.283616e+00 3.336912e+00 1.623018e+00 6.129830e+00
<GCONST> 1.068277e+02
<TRANSP> 5
 0.000000e+00 1.000000e+00 0.000000e+00 0.000000e+00 0.000000e+00
 0.000000e+00 8.965161e-01 1.034839e-01 0.000000e+00 0.000000e+00
 0.000000e+00 0.000000e+00 8.154439e-01 1.845560e-01 0.000000e+00
 0.000000e+00 0.000000e+00 0.000000e+00 8.690518e-01 1.309482e-01
 0.000000e+00 0.000000e+00 0.000000e+00 0.000000e+00 0.000000e+00
<ENDHMM>
~h "eh"
<BEGINHMM>
<NUMSTATES> 5
<STATE> 2
<MEAN> 25
 4.869312e+00 5.157254e-01 1.289880e+00 2.064979e+00 -1.930081e+00 -2.694994e+00 2.013129e-01 -4.469522e+00 -8.514583e-01 -1.650088e+00 -2.704000e+00 -1.837021e+00 -1.300867e-02 4.715328e-01 3.475546e-01 1.187180e-01 2.984305e-01 3.070890e-01 -1.260392e-01 1.531362e-01 9.661235e-02 9.700307e-02 1.412338e-01 -1.279399e-01 -3.138056e-01
<VARIANCE> 25
 1.047698e+02 4.396495e+01 3.522257e+01 3.104456e+01 9.429382e+01 5.310088e+01 4.661020e+01 6.978056e+01 3.466291e+01 2.551934e+01 2.357622e+01 1.936716e+01 1.115336e+01 3.349248e+00 2.930579e+00 3.113008e+00 8.424112e+00 3.079040e+00 5.113507e+00 4.180130e+00 2.802848e+00 2.260714e+00 2.584798e+00 1.624757e+00 2.976161e+00
<GCONST> 1.074151e+02
<STATE> 3
<MEAN> 25
 4.679977e+00 1.085558e+00 1.656434e+00 2.398476e+00 -1.254209e+00 -1.883132e+00 1.575235e-01 -4.298792e+00 -5.278504e-01 -1.166517e+00 -2.105655e+00 -1.836974e+00 -2.190607e-01 -1.658140e-01 2.889874e-01 6.284638e-02 -6.081308e-02 1.760914e-01 5.785090e-02 8.519845e-02 8.547492e-02 2.485144e-01 2.772070e-01 -1.376660e-01 -4.854326e-02
<VARIANCE> 25
 8.731914e+01 4.189999e+01 3.370191e+01 3.569484e+01 1.024133e+02 3.928922e+01 3.976293e+01 6.635144e+01 3.814886e+01 2.585120e+01 2.637414e+01 1.966522e+01 1.047166e+01 3.880670e+00 3.365095e+00 2.635580e+00 9.253419e+00 4.518683e+00 4.558949e+00 5.823055e+00 3.308283e+00 2.119618e+00 2.169822e+00 1.760229e+00 3.787871e+00
<GCONST> 1.080862e+02
<STATE> 4
<MEAN> 25
 3.887452e+00 3.287922e-01 1.875655e+00 2.524550e+00 -1.758600e+00 -1.852059e+00 5.121379e-01 -4.189810e+00 -4.208198e-01 -1.038123e+00 -1.567908e+00 -2.025926e+00 -2.410495e-01 -6.582994e-01 1.296892e-02 -1.213465e-01 -3.416302e-01 -3.320723e-02 -7.855016e-02 -1.018950e-01 7.825255e-02 1.703135e-01 1.897825e-01 -2.064766e-01 1.146751e-01
<VARIANCE> 25
 8.766984e+01 4.081749e+01 3.352606e+01 3.557254e+01 1.119837e+02 3.708960e+01 3.767260e+01 5.798415e+01 3.760739e+01 2.424192e+01 2.486518e+01 1.816598e+01 6.475553e+00 4.240815e+00 4.010918e+00 2.645702e+00 6.829746e+00 3.994204e+00 2.710066e+00 5.887188e+00 3.059231e+00 2.324138e+00 2.354647e+00 1.509428e+00 3.760190e+00
<GCONST> 1.064673e+02
<TRANSP> 5
 0.000000e+00 1.000000e+00 0.000000e+00 0.000000e+00 0.000000e+00
 0.000000e+00 2.925070e-01 7.074931e-01 0.000000e+00 0.000000e+00
 0.000000e+00 0.000000e+00 2.606327e-01 7.393673e-01 0.000000e+00
 0.000000e+00 0.000000e+00 0.000000e+00 2.685565e-01 7.314435e-01
 0.000000e+00 0.000000e+00 0.000000e+00 0.000000e+00 0.000000e+00
<ENDHMM>
~h "er"
<BEGINHMM>
<NUMSTATES> 5
<STATE> 2
<MEAN> 25
 9.889592e+00 -1.778833e+00 2.935381e+00 2.519822e+00 -7.894043e+00 -4.777894e+00 -1.390259e+00 -4.933423e+00 -9.859674e-01 -9.207287e-01 -2.973314e+00 -4.914576e+00 9.359784e-03 -1.162562e-01 3.186791e-02 -5.836823e-02 -1.153390e-01 1.302770e-01 -2.010534e-01 1.216812e-01 1.535218e-01 -1.036522e-01 1.678548e-01 1.819134e-01 3.555862e-04
<VARIANCE> 25
 5.334476e+01 5.177218e+01 4.372196e+01 3.538609e+01 9.360974e+01 3.717838e+01 4.248129e+01 4.906577e+01 3.183175e+01 1.848340e+01 2.174255e+01 2.338623e+01 4.447544e+00 2.133916e+00 2.787530e+00 2.179774e+00 4.281905e+00 3.624981e+00 2.653269e+00 3.515663e+00 2.513826e+00 1.629402e+00 1.738185e+00 1.470894e+00 2.390645e+00
<GCONST> 1.018708e+02
<STATE> 3
<MEAN> 25
 9.505285e+00 -2.373287e+00 2.343182e+00 1.960029e+00 -7.524391e+00 -4.138365e+00 -1.908249e+00 -4.012952e+00 -7.043544e-01 -1.233223e+00 -2.385680e+00 -4.255555e+00 -1.741457e-01 -1.814808e-01 -7.960067e-02 -2.809638e-01 9.130668e-02 4.899575e-01 -2.757526e-01 -1.156812e-01 7.474758e-02 -9.094766e-02 1.660244e-01 3.797147e-01 -1.817074e-01
<VARIANCE> 25
 6.040089e+01 5.438198e+01 4.901696e+01 3.761564e+01 1.095674e+02 4.129391e+01 4.959876e+01 6.103077e+01 3.683226e+01 1.651632e+01 1.602201e+01 2.126689e+01 3.115645e+00 1.920342e+00 2.610949e+00 1.967786e+00 3.299597e+00 3.214872e+00 2.567909e+00 3.266995e+00 2.309639e+00 1.588826e+00 1.631346e+00 1.516068e+00 2.150975e+00
<GCONST> 1.011236e+02
<STATE> 4
<MEAN> 25
 8.085204e+00 -2.161841e+00 1.311599e+00 8.997437e-01 -6.043997e+00 -2.566765e+00 -2.251384e+00 -2.707525e+00 -5.894623e-01 -1.355549e+00 -2.324714e+00 -2.774632e+00 -3.189904e-01 -1.329335e-01 -1.830409e-01 -2.938138e-01 2.880539e-01 6.205524e-01 -1.645699e-01 -8.487265e-02 4.405008e-02 -2.035680e-02 -1.361891e-02 4.069742e-01 -3.479014e-01
<VARIANCE> 25
 8.209706e+01 5.451163e+01 5.114781e+01 3.588877e+01 1.264852e+02 4.415731e+01 5.098892e+01 6.963542e+01 3.229542e+01 1.572333e+01 1.425105e+01 2.470311e+01 1.954749e+00 2.015284e+00 2.160335e+00 2.197741e+00 2.520244e+00 2.740432e+00 2.470481e+00 2.732756e+00 1.856422e+00 1.640459e+00 1.507922e+00 1.661844e+00 1.508650e+00
<GCONST> 9.997940e+01
<TRANSP> 5
 0.000000e+00 1.000000e+00 0.000000e+00 0.000000e+00 0.000000e+00
 0.000000e+00 4.976823e-01 5.023177e-01 0.000000e+00 0.000000e+00
 0.000000e+00 0.000000e+00 4.535360e-01 5.464640e-01 0.000000e+00
 0.000000e+00 0.000000e+00 0.000000e+00 5.665892e-01 4.334108e-01
 0.000000e+00 0.000000e+00 0.000000e+00 0.000000e+00 0.000000e+00
<ENDHMM>
~h "ey"
<BEGINHMM>
<NUMSTATES> 5
<STATE> 2
<MEAN> 25
 4.648688e+00 -3.381902e+00 7.739211e-01 1.526206e-01 -6.996146e+00 -1.668304e+00 1.962988e+00 -4.479892e+00 1.221607e-01 -5.230600e-01 3.125024e-02 -2.692645e+00 -1.840302e-01 -5.252188e-01 4.911018e-01 6.619424e-01 -4.177009e-01 -5.558151e-01 2.420155e-01 3.287118e-01 -7.773895e-03 1.650917e-02 3.706681e-01 3.375984e-01 1.760246e-01
<VARIANCE> 25
 1.414336e+02 5.260923e+01 5.716527e+01 3.905253e+01 1.080755e+02 4.887680e+01 2.885024e+01 6.712151e+01 4.109061e+01 2.441330e+01 2.366484e+01 3.463036e+01 1.816091e+00 3.165033e+00 3.086978e+00 2.111075e+00 2.475449e+00 1.914875e+00 2.640289e+00 2.711030e+00 2.781951e+00 2.062426e+00 2.082594e+00 1.999871e+00 1.853454e+00
<GCONST> 1.032712e+02
<STATE> 3
<MEAN> 25
 5.324830e+00 -4.117304e+00 1.633391e+00 1.077064e+00 -8.312365e+00 -2.932095e+00 2.019315e+00 -4.571671e+00 -4.622765e-01 -6.238546e-01 8.589816e-02 -2.346611e+00 -6.844823e-02 -2.178869e-01 7.125114e-01 1.019290e+00 -3.789797e-01 -6.617762e-01 -6.872999e-03 4.230981e-01 -4.070474e-01 -1.261359e-01 1.942387e-01 4.183925e-01 -2.280808e-01
<VARIANCE> 25
 1.329025e+02 5.027401e+01 5.364668e+01 4.042154e+01 1.087819e+02 4.509595e+01 3.312062e+01 6.056554e+01 4.029471e+01 2.426815e+01 2.346501e+01 3.559648e+01 1.367905e+00 2.498986e+00 2.642789e+00 2.306832e+00 2.254000e+00 1.682643e+00 2.303417e+00 2.410599e+00 2.584622e+00 1.402104e+00 2.107021e+00 1.496265e+00 1.243647e+00
<GCONST> 1.008890e+02
<STATE> 4
<MEAN> 25
 6.281808e+00 -4.250408e+00 2.642234e+00 2.589816e+00 -9.730841e+00 -3.989874e+00 1.922414e+00 -4.658219e+00 -1.440179e+00 -4.520095e-01 -4.130595e-01 -2.266634e+00 2.674057e-02 3.214351e-01 6.830462e-01 1.051803e+00 -5.853742e-03 -3.888677e-01 -3.273571e-01 3.899290e-01 -4.956812e-01 -3.330616e-01 -5.832946e-02 2.686358e-01 -6.568018e-01
<VARIANCE> 25
 1.144601e+02 5.372000e+01 4.636276e+01 3.865840e+01 1.044323e+02 3.690812e+01 3.431688e+01 5.760218e+01 4.013038e+01 2.001248e+01 1.526746e+01 3.456356e+01 2.674505e+00 2.620005e+00 2.903412e+00 2.720499e+00 2.946361e+00 1.807951e+00 1.932303e+00 2.369894e+00 2.567783e+00 1.234045e+00 2.517953e+00 1.483459e+00 2.201328e+00
<GCONST> 1.014336e+02
<TRANSP> 5
 0.000000e+00 1.000000e+00 0.000000e+00 0.000000e+00 0.000000e+00
 0.000000e+00 2.607784e-01 7.392215e-01 0.000000e+00 0.000000e+00
 0.000000e+00 0.000000e+00 2.186594e-01 7.813407e-01 0.000000e+00
 0.000000e+00 0.000000e+00 0.000000e+00 2.536993e-01 7.463007e-01
 0.000000e+00 0.000000e+00 0.000000e+00 0.000000e+00 0.000000e+00
<ENDHMM>
~h "hh"
<BEGINHMM>
<NUMSTATES> 5
<STATE> 2
<MEAN> 25
 2.749940e+00 -2.647133e+00 2.849618e+00 1.581945e+00 -3.945854e+00 -3.100144e+00 3.061691e+00 -4.240961e+00 1.625880e-01 -2.704598e+00 -1.469012e+00 -2.288603e+00 9.367858e-01 1.041360e-01 3.539200e-01 3.025160e-01 -6.332718e-01 5.747824e-02 -6.747695e-02 -3.546123e-01 -6.078209e-01 -4.678193e-03 -2.736911e-01 -5.127171e-01 4.231954e-01
<VARIANCE> 25
 1.081971e+02 6.071941e+01 5.269225e+01 3.962842e+01 6.335002e+01 5.499381e+01 5.632456e+01 7.069389e+01 4.052390e+01 2.923926e+01 2.491055e+01 2.419598e+01 1.099216e+01 4.279885e+00 4.152565e+00 2.431024e+00 5.009583e+00 3.061476e+00 6.836366e+00 5.561942e+00 3.313142e+00 2.754867e+00 2.371151e+00 2.502820e+00 2.578227e+00
<GCONST> 1.097762e+02
<STATE> 3
<MEAN> 25
 5.161572e+00 -2.007402e+00 2.983888e+00 2.347816e+00 -5.089629e+00 -3.217632e+00 2.209865e+00 -5.664776e+00 -1.036464e+00 -2.250429e+00 -1.964620e+00 -3.723636e+00 4.689378e-01 2.228946e-01 2.106356e-01 1.818036e-01 -4.342568e-01 -5.676669e-02 -2.459935e-02 -3.717933e-01 -3.521901e-01 1.275551e-01 -1.228948e-01 -5.388032e-01 3.433772e-01
<VARIANCE> 25
 1.144432e+02 4.851829e+01 5.625987e+01 4.292190e+01 5.803086e+01 4.470441e+01 6.515771e+01 6.506861e+01 3.848926e+01 2.891584e+01 1.948614e+01 2.882529e+01 8.899105e+00 4.030277e+00 4.550343e+00 2.772664e+00 4.355630e+00 2.651366e+00 4.674646e+00 4.293771e+00 3.342004e+00 2.787169e+00 2.147141e+00 2.567176e+00 2.484881e+00
<GCONST> 1.083268e+02
<STATE> 4
<MEAN> 25
 6.711370e+00 -6.919190e-01 2.980860e+00 3.918012e+00 -4.956659e+00 -3.450001e+00 1.403069e+00 -7.066797e+00 -1.861344e+00 -1.760900e+00 -2.603800e+00 -5.308965e+00 1.199662e-02 2.858185e-01 3.336345e-01 6.103306e-02 -1.292758e-01 -9.485289e-02 -6.345347e-02 1.042399e-01 -9.240820e-02 -4.194683e-02 -4.656376e-02 -1.495334e-01 3.013400e-02
<VARIANCE> 25
 1.132650e+02 3.610136e+01 4.683138e+01 4.630707e+01 5.155090e+01 3.880076e+01 5.884631e+01 6.511511e+01 3.629833e+01 2.642270e+01 1.711728e+01 3.979799e+01 5.266719e+00 3.482423e+00 3.656598e+00 2.228506e+00 3.852195e+00 2.217463e+00 3.059217e+00 4.331989e+00 3.024344e+00 2.154517e+00 1.800765e+00 2.623598e+00 2.080288e+00
<GCONST> 1.050825e+02
<TRANSP> 5
 0.000000e+00 1.000000e+00 0.000000e+00 0.000000e+00 0.000000e+00
 0.000000e+00 6.020675e-01 3.979325e-01 0.000000e+00 0.000000e+00
 0.000000e+00 0.000000e+00 5.822583e-01 4.177417e-01 0.000000e+00
 0.000000e+00 0.000000e+00 0.000000e+00 6.674085e-01 3.325916e-01
 0.000000e+00 0.000000e+00 0.000000e+00 0.000000e+00 0.000000e+00
<ENDHMM>
~h "ih"
<BEGINHMM>
<NUMSTATES> 5
<STATE> 2
<MEAN> 25
 -1.243161e+00 3.212092e-01 5.741150e-02 1.112644e-01 -4.057506e-01 -3.477533e+00 6.277701e-01 -2.164521e+00 1.411808e+00 -4.337212e-01 -1.151521e+00 -1.106437e+00 -3.481155e-02 -1.435738e-01 5.865598e-02 -1.304746e-01 -2.373117e-01 -1.064954e-01 -1.379042e-01 -6.279711e-03 1.975580e-01 5.759783e-02 -4.982517e-02 1.841875e-01 -2.083631e-02
<VARIANCE> 25
 1.279742e+02 4.357344e+01 3.109646e+01 2.769967e+01 6.460315e+01 3.470736e+01 6.907435e+01 4.661180e+01 4.048453e+01 2.753053e+01 2.798162e+01 2.900496e+01 6.165360e+00 3.662591e+00 2.833561e+00 1.978159e+00 5.226696e+00 3.277547e+00 3.824414e+00 3.049010e+00 2.920759e+00 2.062722e+00 1.941664e+00 1.990035e+00 4.672477e+00
<GCONST> 1.056664e+02
<STATE> 3
<MEAN> 25
 -9.668668e-01 -1.768251e-02 4.382007e-01 -6.436061e-02 -4.551154e-01 -3.564499e+00 5.126513e-01 -2.000123e+00 1.733633e+00 -1.483408e-01 -1.238656e+00 -7.919139e-01 2.439450e-01 -3.484355e-01 2.362453e-01 -3.321189e-02 -2.303140e-01 4.302052e-02 -8.613922e-02 1.776859e-03 8.611421e-02 1.348332e-01 -9.378470e-02 2.217699e-01 1.529431e-01
<VARIANCE> 25
 1.316195e+02 4.321975e+01 3.236072e+01 2.817010e+01 7.325272e+01 3.732837e+01 6.399423e+01 4.574300e+01 3.955687e+01 3.032498e+01 2.833859e+01 3.119053e+01 4.793795e+00 3.665625e+00 3.031938e+00 2.010391e+00 3.995690e+00 2.954968e+00 3.028621e+00 2.827099e+00 2.518575e+00 1.833695e+00 1.880305e+00 1.693049e+00 5.442872e+00
<GCONST> 1.048501e+02
<STATE> 4
<MEAN> 25
 -5.352468e-01 -6.788130e-01 9.857835e-01 1.639098e-01 -7.698107e-01 -3.356342e+00 5.887817e-01 -1.815579e+00 1.795871e+00 4.257455e-02 -1.491287e+00 -1.822968e-01 3.491361e-01 -5.464376e-01 2.061401e-01 6.746334e-02 -1.408406e-01 2.203180e-01 -4.124548e-02 2.681088e-02 8.165953e-02 1.784894e-01 -1.921761e-01 1.371298e-01 3.142407e-01
<VARIANCE> 25
 1.272666e+02 4.159167e+01 3.714087e+01 2.805408e+01 7.800037e+01 3.804371e+01 6.119133e+01 4.249258e+01 3.534436e+01 2.677329e+01 2.571851e+01 3.107889e+01 4.933747e+00 4.087006e+00 3.058020e+00 2.224676e+00 4.402193e+00 2.832823e+00 3.110127e+00 3.031483e+00 3.061629e+00 2.350982e+00 2.215012e+00 1.786748e+00 6.161207e+00
<GCONST> 1.057211e+02
<TRANSP> 5
 0.000000e+00 1.000000e+00 0.000000e+00 0.000000e+00 0.000000e+00
 0.000000e+00 2.536492e-01 7.463508e-01 0.000000e+00 0.000000e+00
 0.000000e+00 0.000000e+00 2.532873e-01 7.467127e-01 0.000000e+00
 0.000000e+00 0.000000e+00 0.000000e+00 3.014593e-01 6.985407e-01
 0.000000e+00 0.000000e+00 0.000000e+00 0.000000e+00 0.000000e+00
<ENDHMM>
~h "ix"
<BEGINHMM>
<NUMSTATES> 5
<STATE> 2
<MEAN> 25
 3.880760e+00 -3.989237e-01 1.356868e+00 -8.769246e-01 -3.142222e+00 -1.047060e+00 -1.669037e+00 -3.424268e+00 1.556851e+00 -3.143058e+00 -1.878968e+00 -1.138700e+00 -2.446732e-01 1.327519e-02 7.514420e-01 1.848364e-02 -1.598028e-01 -4.428493e-01 -2.793976e-01 -3.067862e-02 4.297552e-02 -2.171395e-01 -4.060742e-01 -3.661054e-01 3.170898e-01
<VARIANCE> 25
 1.230440e+02 6.001110e+01 4.528562e+01 3.228219e+01 7.045660e+01 4.096723e+01 5.894250e+01 5.926596e+01 5.048740e+01 1.815167e+01 3.278028e+01 2.927036e+01 9.003716e+00 5.656046e+00 3.236054e+00 4.681050e+00 7.854409e+00 2.993749e+00 4.148819e+00 3.809020e+00 4.394332e+00 2.828826e+00 5.735068e+00 2.430798e+00 5.887915e+00
<GCONST> 1.114487e+02
<STATE> 3
<MEAN> 25
 3.219986e+00 -4.679391e-01 2.517604e+00 -2.919917e-01 -3.294147e+00 -1.965061e+00 -1.483904e+00 -3.659824e+00 1.199239e+00 -3.190945e+00 -2.208177e+00 -1.727611e+00 -2.779514e-01 -2.537860e-01 3.887415e-01 1.097504e-01 -1.265983e-01 -4.429583e-01 1.206300e-01 -9.149390e-02 -1.763317e-01 3.673975e-02 -1.168725e-02 -1.782896e-01 2.552209e-01
<VARIANCE> 25
 1.247170e+02 6.221887e+01 4.821843e+01 3.049848e+01 7.284897e+01 3.843679e+01 5.740208e+01 5.474944e+01 5.323342e+01 2.057571e+01 3.453642e+01 2.535218e+01 9.386024e+00 5.335020e+00 3.527698e+00 4.472000e+00 6.236843e+00 2.294949e+00 5.192556e+00 4.145138e+00 3.756913e+00 2.565159e+00 4.823736e+00 2.597518e+00 5.565304e+00
<GCONST> 1.108736e+02
<STATE> 4
<MEAN> 25
 3.647805e+00 -8.782461e-01 2.575799e+00 1.800753e-02 -3.884974e+00 -2.927023e+00 -1.262760e+00 -4.790986e+00 3.102556e-01 -2.895960e+00 -2.032831e+00 -2.351629e+00 -1.739504e-01 -2.625558e-01 -4.456669e-02 9.269998e-02 -2.761601e-01 -3.454044e-01 4.774628e-01 -3.772727e-01 -1.268272e-01 3.713326e-01 9.199792e-02 -5.164033e-02 1.820636e-01
<VARIANCE> 25
 1.268157e+02 5.798228e+01 4.462033e+01 3.353473e+01 8.140287e+01 3.869190e+01 5.658850e+01 5.162248e+01 4.104501e+01 2.574672e+01 3.446183e+01 2.613127e+01 7.965022e+00 4.957632e+00 4.381128e+00 3.528836e+00 5.335330e+00 1.899120e+00 5.395177e+00 4.764701e+00 3.398864e+00 2.443980e+00 3.781565e+00 2.261609e+00 4.553543e+00
<GCONST> 1.097173e+02
<TRANSP> 5
 0.000000e+00 1.000000e+00 0.000000e+00 0.000000e+00 0.000000e+00
 0.000000e+00 3.922476e-01 6.077524e-01 0.000000e+00 0.000000e+00
 0.000000e+00 0.000000e+00 3.706189e-01 6.293811e-01 0.000000e+00
 0.000000e+00 0.000000e+00 0.000000e+00 4.743089e-01 5.256911e-01
 0.000000e+00 0.000000e+00 0.000000e+00 0.000000e+00 0.000000e+00
<ENDHMM>
~h "iy"
<BEGINHMM>
<NUMSTATES> 5
<STATE> 2
<MEAN> 25
 2.994490e+00 -2.776428e-01 5.191821e+00 7.169765e-01 -7.160481e+00 -4.342333e+00 2.768648e+00 -5.703695e+00 -2.429843e+00 -1.983701e+00 -9.764028e-01 -1.993036e+00 1.332783e-01 -3.226100e-02 3.879592e-01 -2.518934e-02 -2.575701e-01 -3.894236e-02 -1.803352e-01 5.962432e-02 -3.076153e-01 7.291909e-02 7.599930e-02 1.791667e-02 -1.838566e-02
<VARIANCE> 25
 1.046450e+02 3.775207e+01 8.558070e+01 1.791571e+01 1.196337e+02 4.050195e+01 4.888662e+01 5.796854e+01 4.969263e+01 2.972485e+01 2.044789e+01 2.487393e+01 6.674856e+00 2.778949e+00 4.325927e+00 1.961262e+00 6.942561e+00 2.848808e+00 4.845313e+00 4.104156e+00 3.370051e+00 2.304023e+00 2.421324e+00 2.060842e+00 2.530563e+00
<GCONST> 1.071471e+02
<STATE> 3
<MEAN> 25
 3.192393e+00 -3.338911e-01 5.451468e+00 6.862479e-01 -7.750348e+00 -4.066400e+00 2.421635e+00 -5.659458e+00 -3.067791e+00 -1.586350e+00 -6.363657e-01 -1.933208e+00 2.309442e-01 -7.385091e-02 1.193323e-02 3.565653e-02 -2.103163e-01 -1.380355e-02 -2.477603e-01 3.461151e-03 -2.098829e-01 -3.317092e-02 1.631533e-02 5.112294e-02 -1.179824e-01
<VARIANCE> 25
 9.946620e+01 3.851815e+01 8.939853e+01 1.567498e+01 1.232927e+02 4.044134e+01 5.236489e+01 6.501122e+01 5.125174e+01 2.843866e+01 2.244063e+01 2.520915e+01 5.983185e+00 2.301988e+00 4.086333e+00 1.654791e+00 6.640602e+00 2.500458e+00 4.047303e+00 3.918504e+00 3.158072e+00 2.421214e+00 2.237757e+00 1.713455e+00 2.193550e+00
<GCONST> 1.059841e+02
<STATE> 4
<MEAN> 25
 2.506790e+00 1.518798e-02 5.186088e+00 7.218726e-01 -6.868669e+00 -2.833801e+00 1.735775e+00 -4.473903e+00 -3.155890e+00 -1.218292e+00 -6.052547e-01 -1.475061e+00 7.279669e-02 -2.830316e-02 -2.786564e-01 1.048655e-01 2.167409e-01 5.013718e-02 -1.010728e-01 1.671541e-01 1.177793e-02 -7.980216e-02 -1.746000e-01 6.567057e-03 -2.258740e-01
<VARIANCE> 25
 8.815800e+01 3.681596e+01 9.167517e+01 1.430171e+01 1.401599e+02 4.093382e+01 5.553201e+01 9.185339e+01 4.790002e+01 2.261770e+01 2.163236e+01 2.690038e+01 3.994714e+00 1.690308e+00 3.267973e+00 1.558590e+00 5.206320e+00 2.525758e+00 2.740375e+00 4.077557e+00 2.817956e+00 2.471309e+00 2.040338e+00 1.521460e+00 1.634691e+00
<GCONST> 1.038495e+02
<TRANSP> 5
 0.000000e+00 1.000000e+00 0.000000e+00 0.000000e+00 0.000000e+00
 0.000000e+00 4.433750e-01 5.566251e-01 0.000000e+00 0.000000e+00
 0.000000e+00 0.000000e+00 4.269773e-01 5.730227e-01 0.000000e+00
 0.000000e+00 0.000000e+00 0.000000e+00 6.124504e-01 3.875496e-01
 0.000000e+00 0.000000e+00 0.000000e+00 0.000000e+00 0.000000e+00
<ENDHMM>
~h "jh"
<BEGINHMM>
<NUMSTATES> 5
<STATE> 2
<MEAN> 25
 8.177609e+00 -2.182041e-01 1.020361e+01 9.241297e-01 -1.391023e+01 -6.705832e-01 1.194736e+00 -1.040088e+01 -6.849689e+00 -1.291101e+00 -2.982354e-01 -2.799214e+00 -1.794464e-01 4.536775e-01 -5.902075e-01 4.468551e-01 9.126366e-01 -4.633448e-01 4.285351e-02 6.914767e-01 -7.282571e-02 -2.795523e-01 1.408968e-02 1.184156e-01 -5.765371e-01
<VARIANCE> 25
 3.692616e+01 4.337037e+01 3.235950e+01 2.525732e+01 6.624702e+01 2.264017e+01 1.712183e+01 4.826419e+01 2.959171e+01 1.718976e+01 1.976857e+01 1.299673e+01 2.362664e+00 5.544354e+00 2.468482e+00 1.427516e+00 5.832199e+00 2.950629e+00 2.086911e+00 3.570576e+00 1.866978e+00 1.329859e+00 2.231587e+00 1.091782e+00 3.619444e+00
<GCONST> 9.761459e+01
<STATE> 3
<MEAN> 25
 4.741534e+00 5.089635e-01 5.790807e+00 1.497259e+00 -8.301416e+00 -1.280799e+00 1.634816e+00 -4.960008e+00 -4.116658e+00 -2.863502e+00 1.041773e-01 -1.451097e+00 -6.290725e-01 -4.790954e-01 -7.135690e-01 2.704122e-02 8.428615e-01 6.363916e-02 -2.516280e-02 7.021769e-01 7.090113e-01 -1.348196e-01 -1.088789e-01 1.948770e-01 -2.731093e-01
<VARIANCE> 25
 7.928952e+01 8.593104e+01 2.956225e+01 2.046599e+01 8.627191e+01 2.583163e+01 2.778173e+01 5.206441e+01 3.901814e+01 2.553446e+01 3.000373e+01 1.668553e+01 3.917237e+00 1.076309e+01 2.333475e+00 1.880051e+00 5.964560e+00 2.894435e+00 3.930252e+00 3.593398e+00 2.588080e+00 1.142257e+00 2.316367e+00 8.957837e-01 4.515309e+00
<GCONST> 1.033227e+02
<STATE> 4
<MEAN> 25
 4.814850e+00 -4.394225e+00 7.928032e+00 2.663580e+00 -1.087606e+01 -2.593370e+00 2.292567e+00 -7.667449e+00 -1.189456e+00 -2.551710e+00 -1.914898e+00 -1.475311e+00 -4.147820e-03 -6.733821e-02 -1.686365e-01 -5.175941e-02 2.588086e-01 -3.858588e-01 -1.746300e-01 2.781103e-01 3.221658e-01 1.572844e-01 -1.445596e-01 8.943906e-02 9.827745e-02
<VARIANCE> 25
 9.943787e+01 5.851608e+01 4.721216e+01 2.833924e+01 6.286212e+01 4.319373e+01 4.792476e+01 5.305632e+01 2.892503e+01 2.471480e+01 1.880974e+01 1.688938e+01 7.205154e+00 7.856575e+00 3.793683e+00 2.466590e+00 5.202956e+00 3.378842e+00 4.839812e+00 2.900734e+00 2.554385e+00 1.818053e+00 1.993850e+00 1.320127e+00 2.920901e+00
<GCONST> 1.052516e+02
<TRANSP> 5
 0.000000e+00 1.000000e+00 0.000000e+00 0.000000e+00 0.000000e+00
 0.000000e+00 8.415290e-01 1.584711e-01 0.000000e+00 0.000000e+00
 0.000000e+00 0.000000e+00 7.030050e-01 2.969951e-01 0.000000e+00
 0.000000e+00 0.000000e+00 0.000000e+00 9.204303e-01 7.956973e-02
 0.000000e+00 0.000000e+00 0.000000e+00 0.000000e+00 0.000000e+00
<ENDHMM>
~h "ng"
<BEGINHMM>
<NUMSTATES> 5
<STATE> 2
<MEAN> 25
 5.931980e+00 -6.171336e+00 7.911079e+00 4.395069e+00 -1.021333e+01 -6.201407e+00 1.514852e+00 -5.940621e+00 -3.808942e+00 -2.081772e+00 -1.707158e+00 -2.425387e+00 5.153589e-01 -1.146600e-01 -1.178777e-01 1.407446e-01 -2.035481e-01 -2.737138e-01 -2.526602e-01 -3.812196e-02 -1.207273e-01 4.878077e-02 -2.335806e-02 -1.609517e-01 2.448675e-01
<VARIANCE> 25
 7.987872e+01 5.406456e+01 6.703320e+01 2.894057e+01 5.695568e+01 3.146115e+01 5.677803e+01 5.479071e+01 5.676780e+01 2.391512e+01 1.479903e+01 1.502568e+01 6.543813e+00 7.112173e+00 5.202523e+00 2.566614e+00 5.489346e+00 3.214429e+00 5.537167e+00 5.206713e+00 4.956977e+00 2.397069e+00 1.627546e+00 1.136966e+00 4.892799e+00
<GCONST> 1.073817e+02
<STATE> 3
<MEAN> 25
 8.900870e+00 -6.290454e+00 2.547642e+00 3.283322e+00 -1.031459e+01 -6.854954e+00 7.425252e-01 -5.065962e+00 -2.258225e+00 -1.381631e+00 -2.504273e+00 -3.730048e+00 8.206439e-01 2.511906e-01 -6.576036e-01 -7.442056e-02 -1.669318e-01 1.196200e-01 -1.123722e-01 -3.641171e-01 -1.416098e-01 2.334774e-01 -1.957890e-01 -3.468912e-01 1.653390e-02
<VARIANCE> 25
 7.003931e+01 4.305605e+01 5.895968e+01 2.375790e+01 5.664517e+01 2.681270e+01 4.744838e+01 5.628208e+01 5.928565e+01 2.523713e+01 2.406070e+01 2.074337e+01 4.199824e+00 3.437834e+00 4.127670e+00 1.935546e+00 5.343202e+00 2.549940e+00 3.213901e+00 4.211736e+00 4.328749e+00 2.379523e+00 2.423300e+00 1.067261e+00 2.692932e+00
<GCONST> 1.041807e+02
<STATE> 4
<MEAN> 25
 1.050425e+01 -2.258475e+00 -7.023814e-01 2.231643e+00 -8.989752e+00 -5.351849e+00 1.844444e+00 -7.466728e+00 -2.151890e+00 -3.129959e-01 -3.882432e+00 -4.847582e+00 -7.099869e-02 4.207110e-01 -1.405990e-01 -2.386239e-01 1.984581e-01 1.117194e-01 1.192828e-02 -1.194987e-01 2.584885e-02 3.846766e-02 3.640766e-03 -2.576205e-02 -2.056639e-01
<VARIANCE> 25
 8.637903e+01 5.086324e+01 3.595361e+01 2.127076e+01 6.352330e+01 2.596503e+01 4.703852e+01 3.963147e+01 6.613884e+01 2.377931e+01 2.229355e+01 2.416002e+01 3.213154e+00 2.340378e+00 2.726595e+00 1.869820e+00 3.454604e+00 2.544859e+00 2.943132e+00 3.324739e+00 3.632793e+00 2.525676e+00 2.088483e+00 1.170002e+00 1.203930e+00
<GCONST> 1.009593e+02
<TRANSP> 5
 0.000000e+00 1.000000e+00 0.000000e+00 0.000000e+00 0.000000e+00
 0.000000e+00 8.972647e-01 1.027353e-01 0.000000e+00 0.000000e+00
 0.000000e+00 0.000000e+00 7.223063e-01 2.776937e-01 0.000000e+00
 0.000000e+00 0.000000e+00 0.000000e+00 8.777632e-01 1.222368e-01
 0.000000e+00 0.000000e+00 0.000000e+00 0.000000e+00 0.000000e+00
<ENDHMM>
~h "ow"
<BEGINHMM>
<NUMSTATES> 5
<STATE> 2
<MEAN> 25
 9.618734e+00 -8.197081e-02 -9.219372e-01 -1.244703e+00 -4.641451e+00 -1.075166e-01 -2.083977e+00 -6.456247e+00 1.580516e-01 -1.789695e-01 -3.570409e+00 -4.582343e+00 -6.910969e-02 6.108261e-01 2.452261e-01 8.704679e-02 2.317345e-01 2.199054e-01 -1.519675e-01 2.806301e-01 -4.124262e-01 -2.065638e-01 3.305250e-01 4.503291e-01 -5.263610e-01
<VARIANCE> 25
 8.583824e+01 6.184776e+01 3.713678e+01 6.575107e+01 5.522084e+01 3.752594e+01 3.118645e+01 4.012414e+01 4.431631e+01 2.207085e+01 2.805018e+01 2.749757e+01 5.913590e+00 2.984661e+00 3.378288e+00 2.487490e+00 3.776379e+00 1.920300e+00 2.605940e+00 3.155383e+00 3.369517e+00 2.923153e+00 3.439900e+00 2.337728e+00 1.448551e+00
<GCONST> 1.044567e+02
<STATE> 3
<MEAN> 25
 7.815978e+00 1.017039e+00 1.681558e-01 -7.783388e-01 -3.369699e+00 1.999210e-02 -2.103703e+00 -4.664370e+00 -3.745709e-01 -1.024872e+00 -2.377847e+00 -3.052123e+00 -8.614171e-01 4.893971e-01 5.419314e-01 1.896661e-01 7.059174e-01 -3.895497e-02 8.110624e-02 5.909518e-01 -3.444204e-01 -3.545049e-01 4.264875e-01 5.489745e-01 -5.607294e-01
<VARIANCE> 25
 9.462300e+01 6.263398e+01 4.132235e+01 6.731108e+01 7.068315e+01 4.449955e+01 4.178716e+01 4.825724e+01 4.155415e+01 2.254138e+01 2.563081e+01 2.764697e+01 6.674521e+00 3.055605e+00 4.186444e+00 2.839171e+00 4.419953e+00 2.414336e+00 3.480631e+00 3.097061e+00 4.771946e+00 3.548966e+00 3.547408e+00 2.373666e+00 1.469641e+00
<GCONST> 1.072143e+02
<STATE> 4
<MEAN> 25
 3.856007e+00 1.802294e+00 1.521594e+00 -9.851709e-03 -6.902584e-01 -1.001301e+00 -1.471418e+00 -2.356724e+00 -3.241105e-01 -1.863481e+00 -1.347159e+00 -1.799708e+00 -1.143246e+00 1.516279e-01 2.208364e-01 3.230031e-01 7.250866e-01 -5.184569e-01 2.982341e-01 3.958968e-01 -2.145364e-01 -3.528914e-01 3.457754e-01 2.138579e-01 -2.929009e-01
<VARIANCE> 25
 1.115466e+02 5.185812e+01 4.303903e+01 4.642738e+01 7.970924e+01 4.288490e+01 3.910573e+01 4.947010e+01 4.079215e+01 2.368488e+01 2.687265e+01 2.119115e+01 1.059774e+01 2.976022e+00 4.078087e+00 3.742198e+00 5.639637e+00 2.750234e+00 5.214659e+00 3.515742e+00 4.605468e+00 2.688606e+00 4.193235e+00 3.259818e+00 1.963344e+00
<GCONST> 1.087653e+02
<TRANSP> 5
 0.000000e+00 1.000000e+00 0.000000e+00 0.000000e+00 0.000000e+00
 0.000000e+00 5.405594e-01 4.594406e-01 0.000000e+00 0.000000e+00
 0.000000e+00 0.000000e+00 4.796072e-01 5.203928e-01 0.000000e+00
 0.000000e+00 0.000000e+00 0.000000e+00 5.456330e-01 4.543670e-01
 0.000000e+00 0.000000e+00 0.000000e+00 0.000000e+00 0.000000e+00
<ENDHMM>
~h "sh"
<BEGINHMM>
<NUMSTATES> 5
<STATE> 2
<MEAN> 25
 6.264894e-01 -1.111473e+01 6.825737e+00 4.495028e+00 -6.414903e+00 -5.224980e+00 9.227958e-01 -6.891652e+00 3.489512e+00 -3.308999e+00 -2.070706e-01 -1.386064e+00 2.648604e-01 3.580054e-02 -2.698207e-01 -4.087633e-01 -7.317685e-02 1.513911e-01 -1.575618e-01 -2.501134e-01 -2.280476e-01 7.994093e-03 -7.138328e-02 8.071390e-02 3.877168e-02
<VARIANCE> 25
 2.206166e+02 1.776562e+01 9.987427e+01 3.098234e+01 2.528688e+01 1.857430e+01 9.928265e+01 1.942176e+01 3.650694e+01 3.040327e+01 1.172863e+01 2.531939e+01 1.227724e+01 2.089206e+00 3.445295e+00 3.569829e+00 1.843149e+00 2.345268e+00 6.471029e+00 3.212301e+00 3.484581e+00 2.419990e+00 1.634596e+00 3.300440e+00 6.119625e-01
<GCONST> 1.022588e+02
<STATE> 3
<MEAN> 25
 5.244213e+00 -1.042533e+01 3.026004e+00 1.373253e+00 -7.069475e+00 -3.032636e+00 -7.408533e-01 -8.307477e+00 1.687708e+00 -1.554041e+00 -1.169766e+00 -3.251532e+00 1.392267e+00 2.919018e-01 -9.203485e-01 -5.702208e-01 -1.338439e-01 3.953503e-01 -6.504411e-01 -9.564254e-02 -4.705603e-01 5.162309e-01 -1.939528e-01 -4.852377e-01 2.357875e-01
<VARIANCE> 25
 2.025336e+02 2.422012e+01 9.919882e+01 2.616865e+01 2.107547e+01 2.421308e+01 7.854349e+01 3.139416e+01 5.048056e+01 4.447677e+01 1.823752e+01 3.668762e+01 8.567531e+00 2.420200e+00 2.702419e+00 2.812833e+00 2.245621e+00 2.728445e+00 5.689362e+00 4.232399e+00 4.036447e+00 2.983462e+00 1.892688e+00 2.952637e+00 8.842818e-01
<GCONST> 1.047149e+02
<STATE> 4
<MEAN> 25
 5.486498e+00 -8.966870e+00 3.998886e+00 1.296712e+00 -8.925903e+00 -4.260068e+00 2.126363e+00 -5.774124e+00 2.680118e+00 -3.310755e+00 -2.730275e+00 -2.589398e+00 1.600414e-01 1.427779e-01 5.707549e-02 7.858544e-02 -2.857859e-02 -8.625194e-02 4.974065e-03 2.061844e-01 -1.088928e-02 -5.983130e-02 -1.673006e-01 6.610699e-02 -6.484932e-02
<VARIANCE> 25
 1.826899e+02 4.474060e+01 8.193585e+01 2.688753e+01 3.632267e+01 2.170057e+01 5.929779e+01 4.480660e+01 4.148644e+01 4.142427e+01 2.330457e+01 2.453628e+01 7.426228e+00 3.141434e+00 2.995889e+00 1.572995e+00 3.832313e+00 2.090132e+00 3.010748e+00 4.397401e+00 3.771929e+00 3.251270e+00 2.311871e+00 1.363489e+00 8.252680e-01
<GCONST> 1.038324e+02
<TRANSP> 5
 0.000000e+00 1.000000e+00 0.000000e+00 0.000000e+00 0.000000e+00
 0.000000e+00 8.649625e-01 1.350375e-01 0.000000e+00 0.000000e+00
 0.000000e+00 0.000000e+00 8.184758e-01 1.815242e-01 0.000000e+00
 0.000000e+00 0.000000e+00 0.000000e+00 9.458807e-01 5.411934e-02
 0.000000e+00 0.000000e+00 0.000000e+00 0.000000e+00 0.000000e+00
<ENDHMM>
~h "th"
<BEGINHMM>
<NUMSTATES> 5
<STATE> 2
<MEAN> 25
 1.097182e+01 -6.356390e+00 -2.952231e+00 -3.176447e+00 -1.004258e+01 -2.981785e+00 -1.223768e+00 -7.175772e+00 3.163904e+00 3.400202e+00 1.155484e-02 -6.264447e+00 -2.215619e-01 1.216293e-01 5.210984e-01 3.679247e-01 1.044242e-01 6.756747e-01 5.448158e-01 -1.840674e-01 -8.319200e-01 -3.021439e-01 2.811061e-01 4.624322e-01 -4.939638e-01
<VARIANCE> 25
 2.300858e+01 3.276856e+01 9.539433e+00 2.071816e+01 3.134121e+01 4.867896e+01 1.391165e+01 5.358997e+01 3.986841e+01 1.667978e+01 3.184122e+01 1.117100e+01 8.627478e-01 2.965275e+00 1.093183e+00 1.224131e+00 1.169039e+00 1.821329e+00 1.370569e+00 4.325622e+00 4.643348e+00 2.087599e+00 3.335252e+00 1.718816e+00 1.010795e+00
<GCONST> 9.197140e+01
<STATE> 3
<MEAN> 25
 9.407203e+00 -3.683715e+00 5.107610e-01 1.435805e-01 -9.663605e+00 -3.161508e+00 8.725299e-01 -6.638849e+00 -1.531292e+00 1.506864e+00 -8.058488e-01 -5.291709e+00 -5.031075e-01 5.851693e-01 8.677959e-01 6.881766e-01 5.119539e-02 5.390901e-02 3.589224e-01 2.220284e-01 -7.756656e-01 -4.302721e-01 -9.485826e-02 2.380844e-01 -6.039163e-01
<VARIANCE> 25
 3.151340e+01 3.979762e+01 1.459848e+01 1.878331e+01 4.079054e+01 2.888535e+01 1.952274e+01 4.167890e+01 6.617051e+01 2.643904e+01 2.426153e+01 1.840425e+01 6.842099e-01 3.644739e+00 1.316634e+00 1.141264e+00 2.388909e+00 1.583449e+00 1.785313e+00 4.951183e+00 6.882549e+00 3.897632e+00 4.412112e+00 2.884073e+00 8.981865e-01
<GCONST> 9.659313e+01
<STATE> 4
<MEAN> 25
 7.497888e+00 2.113240e+00 2.612538e+00 2.318784e+00 -5.846772e+00 -1.533273e+00 8.118207e-01 -5.677855e+00 -6.105512e+00 1.635114e+00 -2.636104e+00 -5.538036e+00 -5.923973e-01 2.879131e-01 -2.984837e-02 1.662628e-01 8.762559e-01 1.452278e-01 -4.886486e-02 3.611231e-01 -1.760768e-01 5.131627e-02 -2.121513e-01 1.107184e-01 -5.528549e-01
<VARIANCE> 25
 3.231724e+01 3.636687e+01 1.466963e+01 1.205176e+01 6.805300e+01 1.380530e+01 1.271501e+01 2.550911e+01 4.344358e+01 2.871300e+01 1.695423e+01 2.168187e+01 8.453174e-01 4.341015e+00 2.209656e+00 1.313849e+00 3.315857e+00 1.727569e+00 1.497199e+00 4.075470e+00 5.385858e+00 3.546573e+00 2.876666e+00 2.942935e+00 7.609041e-01
<GCONST> 9.458658e+01
<TRANSP> 5
 0.000000e+00 1.000000e+00 0.000000e+00 0.000000e+00 0.000000e+00
 0.000000e+00 7.467497e-01 2.532503e-01 0.000000e+00 0.000000e+00
 0.000000e+00 0.000000e+00 7.203981e-01 2.796019e-01 0.000000e+00
 0.000000e+00 0.000000e+00 0.000000e+00 8.615561e-01 1.384439e-01
 0.000000e+00 0.000000e+00 0.000000e+00 0.000000e+00 0.000000e+00
<ENDHMM>
~h "uh"
<BEGINHMM>
<NUMSTATES> 5
<STATE> 2
<MEAN> 25
 7.603871e+00 -7.017279e+00 3.586208e+00 4.544456e+00 -7.749111e+00 -8.782178e+00 -5.256152e+00 -3.311631e+00 -1.484835e+00 -5.403769e+00 -8.456585e-01 -1.451436e+00 6.961185e-01 -1.662346e-02 -1.338281e-01 2.075246e-01 1.283793e-02 -3.246839e-01 -6.143712e-01 -1.665231e-01 3.223393e-02 1.891302e-01 -1.851495e-01 -2.470418e-02 1.449939e-01
<VARIANCE> 25
 1.113934e+02 3.819778e+01 7.216529e+01 3.073732e+01 7.673267e+01 5.195314e+01 1.109531e+02 6.108278e+01 4.911966e+01 3.467073e+01 2.056149e+01 1.589935e+01 6.259841e+00 2.784434e+00 6.050383e+00 3.175317e+00 5.876219e+00 5.062403e+00 5.845256e+00 4.782869e+00 4.456357e+00 4.630399e+00 2.241571e+00 1.403890e+00 2.286195e+00
<GCONST> 1.098865e+02
<STATE> 3
<MEAN> 25
 6.994690e+00 -4.519016e+00 4.342220e+00 3.182043e+00 -7.873334e+00 -5.072633e+00 -3.604109e+00 -7.535473e+00 4.785284e-01 -2.403097e+00 -2.232318e+00 -1.497323e+00 5.118530e-01 3.248569e-01 -6.843597e-02 -6.061100e-02 -2.522684e-01 3.881898e-01 -5.904251e-02 -6.054386e-01 -1.344293e-01 5.881587e-01 -2.654012e-01 -2.549017e-01 -1.413853e-01
<VARIANCE> 25
 9.645609e+01 2.308420e+01 5.538445e+01 3.136340e+01 7.062775e+01 4.802010e+01 9.276777e+01 6.847317e+01 5.750611e+01 5.425492e+01 2.798182e+01 2.236479e+01 5.166209e+00 2.822850e+00 4.076667e+00 3.949193e+00 5.025519e+00 4.826772e+00 6.750956e+00 5.391122e+00 3.970558e+00 6.397855e+00 2.926713e+00 2.380646e+00 2.247473e+00
<GCONST> 1.107131e+02
<STATE> 4
<MEAN> 25
 9.876427e+00 -2.588937e+00 2.567971e+00 1.560978e+00 -7.148213e+00 -2.104442e+00 -4.800547e+00 -9.246471e+00 -1.086896e+00 1.028837e+00 -2.580711e+00 -3.606877e+00 3.464777e-01 3.454880e-01 -5.781954e-01 -2.539295e-01 2.163289e-01 1.613615e-01 4.934539e-02 -9.776244e-02 -1.285897e-01 3.298659e-01 -1.020705e-02 -2.107821e-01 -4.409106e-02
<VARIANCE> 25
 4.107914e+01 4.143370e+01 5.090522e+01 5.402818e+01 6.319880e+01 3.994286e+01 4.157294e+01 5.477280e+01 5.662880e+01 4.828845e+01 2.282495e+01 2.602530e+01 3.069218e+00 5.189537e+00 3.538002e+00 3.903926e+00 5.284348e+00 4.269166e+00 4.057363e+00 4.887016e+00 5.436503e+00 4.921623e+00 2.113276e+00 2.360625e+00 3.431690e+00
<GCONST> 1.087949e+02
<TRANSP> 5
 0.000000e+00 1.000000e+00 0.000000e+00 0.000000e+00 0.000000e+00
 0.000000e+00 8.845726e-01 1.154274e-01 0.000000e+00 0.000000e+00
 0.000000e+00 0.000000e+00 8.014117e-01 1.985884e-01 0.000000e+00
 0.000000e+00 0.000000e+00 0.000000e+00 8.915319e-01 1.084681e-01
 0.000000e+00 0.000000e+00 0.000000e+00 0.000000e+00 0.000000e+00
<ENDHMM>
~h "uw"
<BEGINHMM>
<NUMSTATES> 5
<STATE> 2
<MEAN> 25
 3.103868e+00 -6.901736e-01 4.375655e+00 1.673743e+00 -3.916114e+00 -3.668216e+00 1.331215e-01 -3.710026e+00 -6.175807e-01 -1.922415e+00 -2.003969e+00 -1.853591e+00 -1.805424e-01 -6.613059e-03 5.183911e-01 -9.414781e-03 -2.558476e-01 4.123655e-01 2.338653e-01 -4.351661e-01 9.274611e-02 5.918985e-02 6.138167e-01 -2.338140e-01 2.345900e-01
<VARIANCE> 25
