~o
<STREAMINFO> 1 25
<VECSIZE> 25<NULLD><MFCC_D_N_Z_0><DIAGC>
~s "silst"
<MEAN> 25
 -3.969769e+00 2.672858e+00 -1.542956e+00 6.054580e+00 5.302553e+00 5.567357e+00 4.981620e+00 4.099299e+00 2.860668e+00 3.144732e+00 2.593293e+00 3.747375e+00 -5.597880e-03 -8.612039e-04 -1.903977e-02 3.599840e-03 -8.768052e-03 2.330080e-02 7.507985e-03 -1.237650e-02 6.685817e-03 3.238627e-02 2.448988e-02 1.162142e-02 -9.451160e-02
<VARIANCE> 25
 2.019954e+01 2.122305e+01 2.218479e+01 2.163223e+01 2.142951e+01 2.779814e+01 2.045014e+01 2.167786e+01 2.102249e+01 2.112840e+01 1.837416e+01 1.554531e+01 2.494134e-01 3.837354e-01 5.099617e-01 6.800869e-01 8.687910e-01 1.045833e+00 1.156417e+00 1.262477e+00 1.295459e+00 1.297143e+00 1.213413e+00 1.084860e+00 1.652923e-01
<GCONST> 7.828725e+01
~h "b"
<BEGINHMM>
<NUMSTATES> 5
<STATE> 2
<MEAN> 25
 3.688377e+00 5.431146e+00 2.206119e+00 4.531159e+00 3.113883e+00 1.367852e+00 -1.019407e+00 -3.069624e+00 -2.689479e+00 -8.578192e-01 -9.084339e-01 -1.329794e+00 -4.840977e-01 5.239481e-01 1.880638e-01 7.965230e-01 7.140540e-01 3.414029e-01 5.652717e-01 9.029116e-02 2.592209e-02 -1.361884e-01 -8.564134e-02 9.808142e-02 -9.834877e-01
<VARIANCE> 25
 4.280465e+01 3.403655e+01 3.201074e+01 4.198144e+01 3.486980e+01 3.751382e+01 3.986335e+01 4.079787e+01 3.958017e+01 3.318831e+01 2.757575e+01 2.584186e+01 2.791694e+00 3.831100e+00 2.721756e+00 4.227587e+00 3.402461e+00 3.173279e+00 3.418277e+00 3.449170e+00 3.601832e+00 2.959955e+00 2.572779e+00 2.257079e+00 5.640841e+00
<GCONST> 1.042691e+02
<STATE> 3
<MEAN> 25
 6.375591e-01 3.449590e+00 1.265073e+00 4.054106e+00 3.400992e+00 1.348593e+00 7.601652e-01 -1.699966e+00 -7.565308e-01 -2.607948e-01 -4.564510e-01 -3.691852e-01 1.764589e-01 -1.735858e+00 -6.755575e-01 -1.813969e+00 -1.415347e+00 -1.115216e+00 -6.946725e-01 -7.941267e-02 7.634014e-01 4.272684e-01 4.239207e-01 5.059059e-02 3.349063e+00
<VARIANCE> 25
 3.276484e+01 3.058042e+01 2.639810e+01 3.486509e+01 3.005334e+01 3.317954e+01 3.339204e+01 3.558734e+01 3.395020e+01 2.992249e+01 2.502485e+01 2.272367e+01 5.184094e+00 4.311382e+00 4.522753e+00 5.906101e+00 4.392209e+00 4.885932e+00 5.063016e+00 5.152873e+00 4.981374e+00 4.560002e+00 3.786278e+00 3.446522e+00 8.807363e+00
<GCONST> 1.075205e+02
<STATE> 4
<MEAN> 25
 1.111751e+00 -5.047449e-02 -5.990975e-01 1.130795e-01 4.483244e-01 -9.625826e-01 -8.705945e-01 -1.799611e+00 7.981170e-01 6.737020e-01 4.829241e-01 -2.931454e-01 1.025217e+00 -1.210667e+00 -2.366826e-01 -1.717593e+00 -1.758519e+00 -8.342969e-01 -1.064553e+00 -1.379314e-01 9.880389e-02 1.745272e-01 2.143124e-01 -1.891496e-01 2.714603e+00
<VARIANCE> 25
 4.390444e+01 2.863021e+01 3.561029e+01 4.718526e+01 3.921302e+01 4.210762e+01 4.110210e+01 3.833025e+01 3.598969e+01 3.323830e+01 2.860786e+01 2.538255e+01 4.282451e+00 4.343351e+00 5.919653e+00 6.946081e+00 5.830905e+00 5.570857e+00 5.165988e+00 4.894781e+00 4.824768e+00 4.271409e+00 3.664017e+00 3.418439e+00 6.598356e+00
<GCONST> 1.097472e+02
<TRANSP> 5
 0.000000e+00 1.000000e+00 0.000000e+00 0.000000e+00 0.000000e+00
 0.000000e+00 6.994532e-01 3.005467e-01 0.000000e+00 0.000000e+00
 0.000000e+00 0.000000e+00 2.910096e-01 7.089904e-01 0.000000e+00
 0.000000e+00 0.000000e+00 0.000000e+00 2.996589e-01 7.003412e-01
 0.000000e+00 0.000000e+00 0.000000e+00 0.000000e+00 0.000000e+00
<ENDHMM>
~h "d"
<BEGINHMM>
<NUMSTATES> 5
<STATE> 2
<MEAN> 25
 5.306561e+00 2.375798e+00 5.563377e+00 2.690198e+00 -3.886874e+00 -4.514326e+00 -4.438143e+00 -2.825948e+00 -2.714398e+00 -2.014285e+00 -2.461493e+00 -1.758337e+00 -6.408608e-01 1.012519e+00 1.231749e-01 1.112650e+00 1.485428e+00 7.910358e-01 6.873488e-01 -4.795500e-02 3.731156e-02 -1.234841e-01 -1.873342e-01 7.674374e-02 -1.738603e+00
<VARIANCE> 25
 2.478378e+01 4.862793e+01 5.006067e+01 5.929948e+01 6.315992e+01 5.161119e+01 5.361100e+01 5.606821e+01 5.165951e+01 4.099769e+01 3.815232e+01 3.128762e+01 2.340708e+00 4.811977e+00 3.529347e+00 5.647480e+00 5.341680e+00 4.463295e+00 4.940231e+00 5.152289e+00 4.325694e+00 3.664263e+00 3.551212e+00 2.856928e+00 4.972762e+00
<GCONST> 1.103842e+02
<STATE> 3
<MEAN> 25
 -1.243043e-02 2.225597e+00 3.787090e+00 2.589987e+00 7.501515e-01 -1.257901e+00 -8.823782e-01 -1.192475e+00 -9.562522e-01 -1.259578e+00 -1.250653e+00 -1.252386e-01 -1.406657e+00 -8.889531e-01 -4.964831e-01 -7.994384e-01 3.635512e-01 2.181174e-01 5.621001e-01 7.510858e-01 7.995203e-01 2.594473e-01 5.329495e-01 4.769210e-01 7.409190e-01
<VARIANCE> 25
 5.183520e+01 5.064709e+01 3.989429e+01 5.701200e+01 4.837094e+01 4.982592e+01 4.397339e+01 4.444599e+01 4.181619e+01 3.416288e+01 3.145066e+01 2.750499e+01 5.636707e+00 5.620836e+00 4.101816e+00 6.568865e+00 5.919032e+00 5.974752e+00 5.318242e+00 5.172202e+00 4.814377e+00 4.052326e+00 3.724560e+00 3.214850e+00 9.078853e+00
<GCONST> 1.122312e+02
<STATE> 4
<MEAN> 25
 -1.515401e+00 9.781228e-01 7.795857e-01 2.223206e+00 2.049119e+00 2.444925e-01 1.226945e+00 8.159217e-01 8.727964e-01 -8.418767e-02 -4.595402e-02 9.876279e-01 -2.577542e-01 -1.539174e-01 -2.294421e-01 -1.623526e-01 6.357215e-02 9.418349e-02 1.435681e-01 1.360901e-01 1.365639e-01 1.228590e-01 1.282268e-01 8.852338e-02 5.896475e-03
<VARIANCE> 25
 3.264052e+01 2.674767e+01 2.749593e+01 2.964474e+01 3.157461e+01 3.471756e+01 3.271687e+01 3.217376e+01 2.878982e+01 2.618707e+01 2.502471e+01 2.202220e+01 1.613001e+00 1.533384e+00 1.578385e+00 1.913280e+00 2.164648e+00 2.437491e+00 2.390571e+00 2.346636e+00 2.283350e+00 2.053993e+00 1.961600e+00 1.727467e+00 2.006475e+00
<GCONST> 9.517886e+01
<TRANSP> 5
 0.000000e+00 1.000000e+00 0.000000e+00 0.000000e+00 0.000000e+00
 0.000000e+00 5.243625e-01 4.756375e-01 0.000000e+00 0.000000e+00
 0.000000e+00 0.000000e+00 5.118253e-01 4.881747e-01 0.000000e+00
 0.000000e+00 0.000000e+00 0.000000e+00 7.476601e-01 2.523399e-01
 0.000000e+00 0.000000e+00 0.000000e+00 0.000000e+00 0.000000e+00
<ENDHMM>
~h "f"
<BEGINHMM>
<NUMSTATES> 5
<STATE> 2
<MEAN> 25
 -1.898736e-01 1.387944e+00 8.785219e-01 1.760044e+00 1.241097e+00 -6.829857e-01 6.691800e-01 -1.108580e+00 -1.504337e-01 -7.408898e-01 -1.246323e+00 -7.803019e-01 -2.688517e+00 1.577904e-01 -2.122527e-01 1.231236e+00 1.318165e+00 6.503918e-01 1.218502e+00 6.732974e-01 9.371493e-01 3.027276e-01 4.840098e-01 6.066551e-01 -8.657919e-01
<VARIANCE> 25
 5.616235e+01 3.142010e+01 4.592519e+01 5.303691e+01 4.368341e+01 5.278279e+01 4.254618e+01 4.080471e+01 3.944249e+01 3.287817e+01 2.901451e+01 2.585656e+01 4.866425e+00 4.008092e+00 4.368097e+00 5.395877e+00 4.637093e+00 4.751881e+00 4.752258e+00 4.575250e+00 4.618575e+00 3.794300e+00 3.545937e+00 2.870821e+00 2.524248e+00
<GCONST> 1.086236e+02
<STATE> 3
<MEAN> 25
 -8.775151e+00 -4.720642e-02 -1.223121e+00 3.240399e+00 3.141299e+00 8.780365e-01 3.286697e+00 1.485758e+00 3.302889e+00 1.500105e+00 1.478809e+00 1.813072e+00 -1.350925e+00 -6.566960e-01 -5.858262e-01 -9.468730e-02 -7.862021e-02 5.018823e-02 2.004163e-01 2.716528e-01 4.704955e-01 4.132250e-01 4.645573e-01 4.194462e-01 -1.284829e-02
<VARIANCE> 25
 4.706987e+01 2.848298e+01 3.058898e+01 3.357281e+01 3.179487e+01 3.629313e+01 3.237373e+01 3.100071e+01 2.747823e+01 2.610763e+01 2.448158e+01 2.116838e+01 3.814708e+00 2.033215e+00 2.202783e+00 2.414339e+00 2.318271e+00 2.756653e+00 2.436659e+00 2.500978e+00 2.442973e+00 2.382440e+00 2.205243e+00 1.950899e+00 3.571665e+00
<GCONST> 9.874584e+01
<STATE> 4
<MEAN> 25
 -7.819646e+00 -1.415003e+00 -2.008999e+00 2.334764e+00 2.525254e+00 1.156556e+00 2.266376e+00 1.260789e+00 2.402295e+00 1.293987e+00 1.077103e+00 1.624200e+00 2.978131e-01 -5.822027e-02 -6.786951e-02 -1.187265e-01 -8.496138e-02 -4.412483e-02 -8.497041e-02 -1.109018e-01 -1.099130e-01 -4.610708e-02 -6.051753e-02 -7.859582e-02 3.612990e-02
<VARIANCE> 25
 3.013930e+01 1.880935e+01 1.806462e+01 1.885466e+01 1.954113e+01 2.287494e+01 2.219433e+01 2.226077e+01 2.098870e+01 2.002215e+01 1.871506e+01 1.634671e+01 2.181879e+00 9.430060e-01 1.009445e+00 1.262088e+00 1.368066e+00 1.614014e+00 1.641073e+00 1.672472e+00 1.695184e+00 1.628364e+00 1.542279e+00 1.415466e+00 9.352910e-01
<GCONST> 8.668188e+01
<TRANSP> 5
 0.000000e+00 1.000000e+00 0.000000e+00 0.000000e+00 0.000000e+00
 0.000000e+00 5.657909e-01 4.342091e-01 0.000000e+00 0.000000e+00
 0.000000e+00 0.000000e+00 5.092601e-01 4.907399e-01 0.000000e+00
 0.000000e+00 0.000000e+00 0.000000e+00 8.745848e-01 1.254152e-01
 0.000000e+00 0.000000e+00 0.000000e+00 0.000000e+00 0.000000e+00
<ENDHMM>
~h "g"
<BEGINHMM>
<NUMSTATES> 5
<STATE> 2
<MEAN> 25
 2.549496e+00 3.450288e+00 5.231009e+00 4.117406e+00 -1.448854e+00 -3.161369e+00 -1.388700e+00 -1.310221e+00 -4.993827e+00 -9.682241e-01 1.457694e-01 -1.815985e+00 -6.096293e-01 2.857943e-01 -4.315345e-01 6.302099e-01 1.159770e+00 6.226641e-01 4.766154e-01 -4.130419e-02 2.585793e-01 2.537513e-01 -1.631724e-01 2.823154e-01 -1.136122e+00
<VARIANCE> 25
 4.887465e+01 4.822849e+01 5.948241e+01 5.457814e+01 7.585226e+01 6.381016e+01 5.239471e+01 5.860143e+01 6.309921e+01 4.452786e+01 3.984279e+01 3.388546e+01 3.552382e+00 6.712481e+00 4.905324e+00 5.616455e+00 6.058490e+00 5.271959e+00 5.025617e+00 5.253075e+00 5.777883e+00 4.226604e+00 3.720929e+00 3.035013e+00 7.602790e+00
<GCONST> 1.143334e+02
<STATE> 3
<MEAN> 25
 -1.053102e+00 -1.677750e+00 5.107766e-01 1.844463e+00 1.851762e+00 -1.533478e+00 -1.360754e+00 -5.138928e-01 -2.600232e+00 1.265569e+00 3.058156e-02 4.066986e-02 1.451424e-02 -1.703990e+00 -7.088746e-01 -1.552237e+00 -9.600602e-01 -9.145214e-01 -1.114903e+00 -2.157539e-04 1.047416e-01 4.635297e-01 3.536386e-01 2.978417e-02 2.808755e+00
<VARIANCE> 25
 3.512688e+01 5.255832e+01 7.597128e+01 4.785212e+01 7.237014e+01 6.083097e+01 5.203132e+01 5.038170e+01 4.557553e+01 3.715511e+01 3.070875e+01 2.599706e+01 5.054652e+00 6.472482e+00 8.420630e+00 5.507451e+00 8.842740e+00 6.681150e+00 6.054495e+00 6.314393e+00 5.726752e+00 5.085462e+00 4.318775e+00 3.593423e+00 6.199934e+00
<GCONST> 1.150300e+02
<STATE> 4
<MEAN> 25
 1.687096e+00 -2.401099e+00 1.160705e+00 -7.032399e-01 -2.600412e+00 -3.937585e+00 -3.495975e+00 -8.494785e-01 -2.524184e+00 8.698962e-01 1.184174e+00 -8.745767e-01 6.025503e-01 -1.398397e-01 -6.772509e-02 -5.431398e-01 -7.435568e-01 -4.068268e-01 -4.883136e-01 -5.627762e-02 4.246405e-01 2.707586e-03 1.456860e-01 -1.661085e-01 9.302777e-01
<VARIANCE> 25
 3.319347e+01 4.129598e+01 9.018295e+01 4.791666e+01 9.868800e+01 6.812824e+01 5.770188e+01 6.105782e+01 5.064503e+01 4.409361e+01 3.736210e+01 2.923541e+01 3.118090e+00 3.189780e+00 4.157684e+00 3.491940e+00 5.516104e+00 4.199882e+00 4.228881e+00 4.599504e+00 4.220392e+00 3.445334e+00 3.341204e+00 2.726658e+00 2.667014e+00
<GCONST> 1.101795e+02
<TRANSP> 5
 0.000000e+00 1.000000e+00 0.000000e+00 0.000000e+00 0.000000e+00
 0.000000e+00 6.927068e-01 3.072932e-01 0.000000e+00 0.000000e+00
 0.000000e+00 0.000000e+00 5.095160e-01 4.904840e-01 0.000000e+00
 0.000000e+00 0.000000e+00 0.000000e+00 4.676130e-01 5.323870e-01
 0.000000e+00 0.000000e+00 0.000000e+00 0.000000e+00 0.000000e+00
<ENDHMM>
~h "k"
<BEGINHMM>
<NUMSTATES> 5
<STATE> 2
<MEAN> 25
 1.099736e+00 9.013398e-01 2.958000e+00 2.532689e+00 -1.077208e+00 -3.303295e+00 -8.812432e-02 8.292635e-01 -2.997551e+00 1.449134e-01 4.467785e-01 -7.898875e-01 -1.139596e+00 3.715301e-01 -6.559473e-01 9.576368e-01 1.500325e+00 9.610352e-01 8.745270e-01 4.001653e-01 8.052127e-01 7.064571e-01 3.701011e-01 7.333111e-01 -2.164295e+00
<VARIANCE> 25
 4.167262e+01 4.431411e+01 6.428919e+01 5.450351e+01 7.911816e+01 7.158315e+01 6.149108e+01 6.826423e+01 6.324585e+01 4.632905e+01 4.123179e+01 3.418855e+01 3.422390e+00 5.217550e+00 5.203357e+00 5.235696e+00 5.991084e+00 5.563113e+00 5.344262e+00 5.623317e+00 6.250982e+00 4.419002e+00 4.056546e+00 3.234386e+00 7.004926e+00
<GCONST> 1.147837e+02
<STATE> 3
<MEAN> 25
 -3.596792e+00 -2.862520e+00 -2.722772e+00 2.040785e+00 3.586792e+00 1.669185e-01 1.443364e+00 2.619684e+00 1.040596e+00 3.502923e+00 1.771616e+00 2.096994e+00 -7.780389e-01 -1.463859e+00 -8.888374e-01 -1.144842e+00 -2.912121e-02 -3.277259e-01 -2.519682e-01 3.315654e-02 2.366149e-01 5.119601e-01 -2.083145e-03 1.527819e-01 2.130736e+00
<VARIANCE> 25
 3.047512e+01 4.848320e+01 5.023792e+01 4.662772e+01 4.983936e+01 5.313473e+01 5.075133e+01 4.317899e+01 4.033527e+01 3.399479e+01 2.888976e+01 2.473302e+01 3.289786e+00 4.485495e+00 5.218343e+00 4.769387e+00 5.499744e+00 5.989597e+00 5.337323e+00 5.018371e+00 5.065886e+00 3.941373e+00 3.574815e+00 3.068727e+00 1.040404e+01
<GCONST> 1.107931e+02
<STATE> 4
<MEAN> 25
 -4.735703e+00 -2.812441e+00 -1.655803e+00 -6.881854e-02 2.383096e+00 -1.295339e-01 2.031554e+00 1.714269e+00 1.396199e+00 2.759719e+00 1.346323e+00 1.615140e+00 2.940462e-01 4.448122e-01 4.110660e-01 -2.833185e-02 -2.022608e-01 4.390319e-02 1.135974e-01 -2.646367e-01 -1.250996e-01 -4.405493e-01 -2.132286e-01 -2.338729e-01 1.449512e-01
<VARIANCE> 25
 3.231389e+01 2.949533e+01 4.601993e+01 3.843447e+01 4.602389e+01 4.643615e+01 4.253898e+01 3.981471e+01 3.545421e+01 3.195432e+01 2.790845e+01 2.321941e+01 3.182181e+00 2.361402e+00 2.476062e+00 2.585912e+00 3.071257e+00 3.266629e+00 3.178626e+00 3.058455e+00 3.075814e+00 2.958947e+00 2.487244e+00 2.218233e+00 2.668679e+00
<GCONST> 1.022447e+02
<TRANSP> 5
 0.000000e+00 1.000000e+00 0.000000e+00 0.000000e+00 0.000000e+00
 0.000000e+00 6.670855e-01 3.329144e-01 0.000000e+00 0.000000e+00
 0.000000e+00 0.000000e+00 6.206443e-01 3.793556e-01 0.000000e+00
 0.000000e+00 0.000000e+00 0.000000e+00 7.595658e-01 2.404342e-01
 0.000000e+00 0.000000e+00 0.000000e+00 0.000000e+00 0.000000e+00
<ENDHMM>
~h "l"
<BEGINHMM>
<NUMSTATES> 5
<STATE> 2
<MEAN> 25
 6.261584e+00 2.676867e-01 -2.531658e+00 -8.340868e+00 -1.598199e+00 1.027268e+00 -4.938872e+00 -5.393955e+00 -1.887538e-01 9.619975e-01 -4.877648e-01 -2.855891e+00 9.895837e-01 7.485327e-01 -4.496708e-01 -1.684592e+00 5.509207e-02 1.147969e+00 -4.535613e-01 -1.126583e+00 -7.706505e-01 8.359103e-02 5.717781e-01 1.754614e-01 -9.754114e-04
<VARIANCE> 25
 2.675293e+01 4.904019e+01 4.997090e+01 8.029684e+01 5.134294e+01 6.299185e+01 6.771319e+01 5.934816e+01 5.924203e+01 5.246705e+01 4.191723e+01 4.040431e+01 2.879431e+00 2.639133e+00 2.928828e+00 4.933677e+00 4.244577e+00 4.456714e+00 5.553739e+00 4.814369e+00 4.601807e+00 4.248517e+00 3.604603e+00 3.607829e+00 2.055825e+00
<GCONST> 1.104639e+02
<STATE> 3
<MEAN> 25
 8.280884e+00 2.189578e+00 -3.631718e+00 -1.373316e+01 -2.008024e+00 4.632751e+00 -5.282453e+00 -6.685110e+00 -2.460334e+00 8.081905e-02 1.206297e+00 -1.173678e+00 -6.942004e-02 -2.072879e-01 5.729979e-03 2.392946e-01 1.787914e-01 -2.205538e-01 -1.583059e-01 3.216204e-01 4.304640e-01 9.353263e-02 -2.838264e-01 -1.841026e-01 -8.224720e-03
<VARIANCE> 25
 1.821169e+01 4.051035e+01 5.037884e+01 9.197735e+01 5.733279e+01 6.357406e+01 7.181259e+01 6.423383e+01 6.313427e+01 6.507701e+01 4.550929e+01 4.634612e+01 7.694511e-01 3.691157e+00 2.080441e+00 4.790344e+00 3.003630e+00 3.909920e+00 4.228107e+00 4.427527e+00 5.295114e+00 4.811401e+00 3.731526e+00 3.697690e+00 2.082041e+00
<GCONST> 1.089359e+02
<STATE> 4
<MEAN> 25
 7.423156e+00 3.017319e+00 -3.372506e+00 -1.133761e+01 -1.858587e+00 2.947683e+00 -2.629850e+00 -3.776646e+00 -1.388507e+00 -6.931494e-01 -3.931154e-01 -6.987995e-01 -2.836055e-01 6.690341e-02 3.486449e-01 8.129489e-01 1.225691e-01 -4.637488e-01 1.116077e-01 3.447106e-01 6.999305e-02 -1.782651e-01 -2.023669e-01 4.633576e-02 -3.589356e-01
<VARIANCE> 25
 1.961605e+01 3.996446e+01 4.065812e+01 9.685660e+01 5.370797e+01 5.784176e+01 6.723579e+01 5.539957e+01 5.104072e+01 4.708593e+01 3.691829e+01 3.673497e+01 5.985024e-01 1.408041e+00 1.354858e+00 2.958588e+00 2.215534e+00 2.376295e+00 2.172163e+00 2.668905e+00 2.300723e+00 2.281669e+00 2.014686e+00 1.831378e+00 8.340181e-01
<GCONST> 9.956864e+01
<TRANSP> 5
 0.000000e+00 1.000000e+00 0.000000e+00 0.000000e+00 0.000000e+00
 0.000000e+00 5.595908e-01 4.404092e-01 0.000000e+00 0.000000e+00
 0.000000e+00 0.000000e+00 5.739722e-01 4.260279e-01 0.000000e+00
 0.000000e+00 0.000000e+00 0.000000e+00 7.356173e-01 2.643826e-01
 0.000000e+00 0.000000e+00 0.000000e+00 0.000000e+00 0.000000e+00
<ENDHMM>
~h "m"
<BEGINHMM>
<NUMSTATES> 5
<STATE> 2
<MEAN> 25
 6.800726e+00 2.733076e-02 1.005086e+00 7.742819e-01 -1.134727e+00 -1.164285e+00 -3.767576e+00 -3.606631e+00 -3.197036e+00 -1.819598e+00 -1.128960e+00 -3.293900e+00 4.597838e-01 1.521683e+00 6.958066e-01 2.020030e+00 8.911023e-01 -5.308436e-01 -9.955770e-02 -1.826477e+00 -1.896788e+00 1.842106e-01 5.487943e-01 -5.045400e-01 -1.290612e+00
<VARIANCE> 25
 2.582164e+01 3.925916e+01 4.295493e+01 5.245211e+01 4.967162e+01 5.113215e+01 5.103117e+01 5.132745e+01 5.791316e+01 4.089911e+01 3.733562e+01 3.303021e+01 2.423794e+00 2.360287e+00 4.056968e+00 3.809145e+00 4.185502e+00 4.066755e+00 4.794061e+00 4.538339e+00 5.181934e+00 4.266023e+00 4.023257e+00 3.380818e+00 2.435341e+00
<GCONST> 1.081788e+02
<STATE> 3
<MEAN> 25
 7.140716e+00 3.295743e+00 3.290092e+00 5.159429e+00 8.880189e-03 -2.847872e+00 -3.642083e+00 -7.855315e+00 -8.133124e+00 -1.075554e+00 1.800835e-01 -4.466361e+00 3.559597e-03 4.858958e-01 3.999838e-01 7.364300e-01 2.706227e-01 -1.406424e-01 1.283315e-01 -6.572315e-01 -7.369307e-01 5.974825e-03 7.793747e-02 -1.588490e-01 -4.001976e-01
<VARIANCE> 25
 1.899855e+01 2.709805e+01 3.292284e+01 4.350690e+01 4.637723e+01 4.730233e+01 5.219976e+01 5.397646e+01 5.912527e+01 4.777541e+01 4.580709e+01 4.093590e+01 1.145698e+00 1.818940e+00 1.994250e+00 2.393023e+00 2.532269e+00 2.596212e+00 2.989644e+00 3.178069e+00 3.736111e+00 2.788965e+00 2.790133e+00 2.411302e+00 1.553434e+00
<GCONST> 1.016996e+02
<STATE> 4
<MEAN> 25
 5.797721e+00 3.715175e+00 3.337665e+00 4.949418e+00 8.165122e-01 -1.866063e+00 -2.402668e+00 -6.444963e+00 -6.492061e+00 -1.653085e+00 -7.485333e-01 -3.187999e+00 -1.477674e-01 -9.963572e-02 -1.668052e-01 -2.389839e-01 -1.721713e-02 1.975404e-01 1.260628e-01 3.033969e-01 3.589798e-01 -5.590154e-02 -1.247930e-01 1.574804e-01 -4.505027e-02
<VARIANCE> 25
 1.827032e+01 1.890002e+01 2.416506e+01 2.992665e+01 3.324494e+01 3.680312e+01 3.957835e+01 4.280870e+01 4.735993e+01 3.429049e+01 3.274288e+01 3.141371e+01 5.510217e-01 1.029764e+00 1.125412e+00 1.615405e+00 1.528732e+00 1.560467e+00 1.726261e+00 2.001110e+00 2.307528e+00 1.720693e+00 1.706493e+00 1.497635e+00 7.321020e-01
<GCONST> 9.139365e+01
<TRANSP> 5
 0.000000e+00 1.000000e+00 0.000000e+00 0.000000e+00 0.000000e+00
 0.000000e+00 5.269194e-01 4.730806e-01 0.000000e+00 0.000000e+00
 0.000000e+00 0.000000e+00 3.638146e-01 6.361854e-01 0.000000e+00
 0.000000e+00 0.000000e+00 0.000000e+00 7.579483e-01 2.420517e-01
 0.000000e+00 0.000000e+00 0.000000e+00 0.000000e+00 0.000000e+00
<ENDHMM>
~h "n"
<BEGINHMM>
<NUMSTATES> 5
<STATE> 2
<MEAN> 25
 6.217986e+00 -2.278952e+00 3.383488e+00 -1.210449e+00 -4.663978e+00 -2.979882e+00 -4.305645e+00 1.763420e-01 -2.024969e+00 -3.170629e+00 -3.332338e+00 -3.221204e+00 4.203876e-01 1.747530e+00 4.428968e-01 1.878793e+00 4.836655e-01 -4.156173e-01 2.913588e-01 -1.808358e+00 -1.072921e+00 5.218160e-01 -2.175849e-01 -9.876198e-02 -1.665757e+00
<VARIANCE> 25
 1.742268e+01 3.828055e+01 5.411477e+01 4.580368e+01 5.755826e+01 5.396911e+01 5.456419e+01 6.202700e+01 6.069098e+01 4.639928e+01 4.164543e+01 3.496141e+01 1.269847e+00 2.391062e+00 3.685357e+00 3.351843e+00 4.118854e+00 4.238225e+00 4.413045e+00 5.127354e+00 4.340406e+00 3.901476e+00 3.287891e+00 2.821588e+00 1.701230e+00
<GCONST> 1.068514e+02
<STATE> 3
<MEAN> 25
 6.832667e+00 2.910373e+00 4.267781e+00 3.702680e+00 -3.614998e+00 -3.909513e+00 -1.940668e+00 -5.927711e+00 -4.964185e+00 -1.151013e+00 -3.843325e+00 -3.242147e+00 1.213998e-01 1.365080e+00 2.342658e-01 1.244853e+00 4.221416e-01 -1.431175e-03 5.890339e-01 -1.565521e+00 -7.460053e-01 4.054913e-01 -1.538918e-01 4.006654e-02 -1.223141e+00
<VARIANCE> 25
 1.627102e+01 2.696581e+01 3.389458e+01 3.751540e+01 4.090451e+01 4.057093e+01 4.422859e+01 5.654821e+01 4.967732e+01 4.212842e+01 3.742380e+01 3.402676e+01 1.172646e+00 2.549339e+00 2.959008e+00 2.978693e+00 3.807152e+00 3.568379e+00 3.813038e+00 5.371519e+00 4.380109e+00 3.475269e+00 3.007770e+00 2.581635e+00 1.879644e+00
<GCONST> 1.035168e+02
<STATE> 4
<MEAN> 25
 5.591120e+00 4.288422e+00 4.238533e+00 4.309026e+00 -1.768343e+00 -2.764032e+00 -1.298115e+00 -5.679048e+00 -4.474895e+00 -1.283759e+00 -3.370127e+00 -2.362953e+00 -2.875425e-01 1.903958e-01 -6.373371e-02 6.577632e-02 3.542124e-01 2.583793e-01 1.120334e-01 1.376139e-01 1.142565e-01 -2.987599e-02 1.022878e-01 1.277696e-01 -3.826149e-01
<VARIANCE> 25
 1.730486e+01 2.028015e+01 2.471867e+01 2.736220e+01 3.478070e+01 3.278598e+01 3.599987e+01 4.498281e+01 3.941911e+01 3.332242e+01 2.950702e+01 2.743179e+01 6.135640e-01 1.154924e+00 1.095722e+00 1.293756e+00 1.706178e+00 1.626391e+00 1.821865e+00 2.248570e+00 1.993443e+00 1.758004e+00 1.617827e+00 1.454636e+00 6.439602e-01
<GCONST> 9.073502e+01
<TRANSP> 5
 0.000000e+00 1.000000e+00 0.000000e+00 0.000000e+00 0.000000e+00
 0.000000e+00 4.608356e-01 5.391644e-01 0.000000e+00 0.000000e+00
 0.000000e+00 0.000000e+00 3.319761e-01 6.680239e-01 0.000000e+00
 0.000000e+00 0.000000e+00 0.000000e+00 7.640916e-01 2.359084e-01
 0.000000e+00 0.000000e+00 0.000000e+00 0.000000e+00 0.000000e+00
<ENDHMM>
~h "p"
<BEGINHMM>
<NUMSTATES> 5
<STATE> 2
<MEAN> 25
 2.960893e+00 2.656439e+00 1.008610e+00 1.717014e+00 9.833021e-01 -3.727022e-01 -1.193727e+00 -1.839716e+00 -1.156917e+00 1.214375e-01 -3.970932e-01 -1.045520e+00 -1.159849e+00 6.937992e-01 -4.568963e-02 1.292780e+00 1.255061e+00 9.140667e-01 1.291418e+00 6.745828e-01 6.944545e-01 5.150783e-01 5.040788e-01 7.253109e-01 -2.553534e+00
<VARIANCE> 25
 5.167137e+01 4.077390e+01 4.734285e+01 5.659003e+01 4.631533e+01 5.024891e+01 4.656252e+01 4.396835e+01 4.477001e+01 3.653492e+01 3.199796e+01 2.856447e+01 4.280669e+00 4.638636e+00 4.137054e+00 5.278708e+00 4.408196e+00 4.302910e+00 4.433583e+00 4.600103e+00 4.626515e+00 3.760247e+00 3.344572e+00 2.829514e+00 7.015851e+00
<GCONST> 1.101696e+02
<STATE> 3
<MEAN> 25
 -3.075152e+00 1.280764e+00 -6.748185e-01 3.320928e+00 3.500012e+00 2.057715e+00 3.392443e+00 1.791770e+00 2.931595e+00 2.896962e+00 2.444057e+00 2.343091e+00 -8.390623e-01 -1.119326e+00 -5.060000e-01 -4.012222e-01 5.501930e-02 6.016301e-02 5.919890e-01 4.735918e-01 7.670223e-01 3.348918e-01 4.085204e-01 4.126068e-01 1.007657e+00
<VARIANCE> 25
 3.477139e+01 3.054799e+01 2.772751e+01 3.417794e+01 3.174699e+01 3.958804e+01 3.506485e+01 3.420868e+01 3.142444e+01 2.895977e+01 2.478893e+01 2.245270e+01 3.172954e+00 3.230442e+00 3.147564e+00 3.511817e+00 3.253527e+00 4.091040e+00 3.617993e+00 3.768577e+00 3.626737e+00 3.319781e+00 2.858488e+00 2.611955e+00 1.199049e+01
<GCONST> 1.040443e+02
<STATE> 4
<MEAN> 25
 -2.659960e+00 -6.201789e-01 -1.470810e+00 1.780241e+00 3.246284e+00 2.003054e+00 2.802589e+00 1.421463e+00 2.362653e+00 1.776003e+00 1.598747e+00 1.632255e+00 1.678582e-01 -2.463190e-01 -7.270774e-02 -2.181226e-01 -1.203004e-01 -1.124533e-01 -1.584001e-01 -1.662391e-01 -1.048568e-01 -1.536302e-01 -1.764799e-01 -1.549756e-01 6.480252e-01
<VARIANCE> 25
 1.650368e+01 2.026035e+01 1.805074e+01 2.128908e+01 2.119517e+01 2.410873e+01 2.415813e+01 2.372499e+01 2.264839e+01 2.106434e+01 1.976602e+01 1.730642e+01 1.940269e+00 1.625586e+00 1.625218e+00 1.953669e+00 2.027267e+00 2.312223e+00 2.334882e+00 2.295613e+00 2.214683e+00 2.097015e+00 1.953397e+00 1.771869e+00 3.662717e+00
<GCONST> 9.190411e+01
<TRANSP> 5
 0.000000e+00 1.000000e+00 0.000000e+00 0.000000e+00 0.000000e+00
 0.000000e+00 6.001999e-01 3.998001e-01 0.000000e+00 0.000000e+00
 0.000000e+00 0.000000e+00 5.151869e-01 4.848131e-01 0.000000e+00
 0.000000e+00 0.000000e+00 0.000000e+00 8.116406e-01 1.883593e-01
 0.000000e+00 0.000000e+00 0.000000e+00 0.000000e+00 0.000000e+00
<ENDHMM>
~h "r"
<BEGINHMM>
<NUMSTATES> 5
<STATE> 2
<MEAN> 25
 6.911214e+00 -2.415509e+00 -5.899479e+00 1.740512e-01 2.266842e-01 -3.043736e+00 -5.507678e+00 -2.183425e+00 -3.208512e-01 -6.958678e-01 8.209164e-01 3.944089e-01 1.735280e+00 -2.588673e-01 -9.861913e-01 3.908120e-01 2.172216e-01 -1.053485e+00 -1.964753e+00 5.345106e-02 4.608607e-01 -8.989051e-02 -4.490378e-01 3.222180e-03 4.386450e-01
<VARIANCE> 25
 6.607273e+01 4.202653e+01 7.077207e+01 5.687361e+01 5.965202e+01 6.261380e+01 6.931371e+01 6.859775e+01 5.555317e+01 4.398933e+01 3.875064e+01 3.578871e+01 5.933813e+00 3.255162e+00 4.011920e+00 4.493628e+00 5.287811e+00 4.680830e+00 5.833069e+00 5.005249e+00 5.430919e+00 4.209734e+00 3.383788e+00 3.059362e+00 2.332202e+00
<GCONST> 1.126540e+02
<STATE> 3
<MEAN> 25
 1.092281e+01 -5.617598e+00 -8.148910e+00 1.271521e+00 -2.900658e-01 -6.876426e+00 -1.173712e+01 1.282141e+00 2.713238e+00 -1.114994e+00 -9.938456e-01 -1.152688e-01 4.336450e-02 -6.828527e-01 5.995285e-01 6.597512e-01 -6.642022e-01 -8.414235e-01 -1.404588e-01 1.089246e+00 3.725416e-01 -4.200902e-01 -3.956006e-01 -4.638222e-02 2.249303e-01
<VARIANCE> 25
 2.751507e+01 3.533818e+01 6.655367e+01 5.296304e+01 6.223866e+01 6.583448e+01 8.700967e+01 7.776256e+01 6.013279e+01 4.824261e+01 3.780954e+01 3.740334e+01 1.890864e+00 3.200248e+00 4.239574e+00 3.553368e+00 5.650002e+00 4.414232e+00 5.578521e+00 6.126505e+00 4.633297e+00 3.986452e+00 3.380415e+00 2.964042e+00 2.137593e+00
<GCONST> 1.106002e+02
<STATE> 4
<MEAN> 25
 9.588243e+00 -6.027385e+00 -5.383473e+00 2.499135e+00 -1.994421e+00 -8.098803e+00 -8.581798e+00 3.800942e+00 2.204737e+00 -2.443407e+00 -1.227322e+00 1.983661e-02 -5.341972e-01 2.680792e-01 1.069629e+00 -8.221999e-03 -4.498284e-01 3.543590e-01 9.885277e-01 -1.539105e-01 -5.931182e-01 -2.794323e-02 1.252656e-01 -1.468853e-01 -3.443566e-01
<VARIANCE> 25
 2.466156e+01 3.911551e+01 6.368013e+01 4.548911e+01 6.447485e+01 6.680421e+01 8.393343e+01 7.413144e+01 6.117091e+01 4.730134e+01 3.788823e+01 3.484227e+01 1.056062e+00 1.758650e+00 2.911327e+00 2.343829e+00 3.509142e+00 2.906976e+00 3.806355e+00 3.452368e+00 3.124437e+00 2.556294e+00 2.366311e+00 2.096863e+00 1.214193e+00
<GCONST> 1.043610e+02
<TRANSP> 5
 0.000000e+00 1.000000e+00 0.000000e+00 0.000000e+00 0.000000e+00
 0.000000e+00 5.671431e-01 4.328569e-01 0.000000e+00 0.000000e+00
 0.000000e+00 0.000000e+00 4.282477e-01 5.717523e-01 0.000000e+00
 0.000000e+00 0.000000e+00 0.000000e+00 6.553369e-01 3.446631e-01
 0.000000e+00 0.000000e+00 0.000000e+00 0.000000e+00 0.000000e+00
<ENDHMM>
~h "s"
<BEGINHMM>
<NUMSTATES> 5
<STATE> 2
<MEAN> 25
 -4.297010e+00 4.225353e+00 2.229677e+00 4.147814e-02 2.317884e+00 -4.229147e+00 4.021943e-01 -5.570673e-01 5.053467e-02 -1.078723e+00 -1.613275e+00 -1.505508e-01 -3.973966e+00 1.355312e+00 -6.584698e-01 -1.569958e-01 2.004329e+00 3.355976e-01 1.580131e+00 6.276443e-01 5.942072e-01 8.646026e-02 6.865003e-01 6.969609e-01 2.026279e-01
<VARIANCE> 25
 7.061498e+01 4.016983e+01 4.739534e+01 4.701393e+01 5.499290e+01 5.597652e+01 5.467389e+01 4.796487e+01 4.412746e+01 3.665825e+01 3.329193e+01 2.788251e+01 3.917383e+00 3.979263e+00 4.724386e+00 5.305532e+00 4.649136e+00 5.165709e+00 5.203092e+00 4.787107e+00 4.269622e+00 3.876254e+00 3.685759e+00 2.938548e+00 2.209180e+00
<GCONST> 1.100756e+02
<STATE> 3
<MEAN> 25
 -1.702961e+01 8.078101e+00 -3.423742e+00 -9.318808e-02 6.913076e+00 -3.329267e+00 5.399949e+00 7.418875e-01 2.428956e+00 1.000523e-01 1.605259e+00 2.380915e+00 -1.033926e+00 1.220181e-01 -4.306765e-01 -2.402204e-01 3.389489e-01 2.065151e-01 2.343355e-01 2.533306e-01 1.449366e-01 2.105246e-01 2.495321e-01 2.265247e-01 -8.170936e-03
<VARIANCE> 25
 3.361118e+01 3.193138e+01 4.290306e+01 5.096411e+01 4.380819e+01 4.457364e+01 4.262175e+01 3.781970e+01 3.332419e+01 2.808421e+01 2.811062e+01 2.206332e+01 2.102442e+00 1.626979e+00 1.792915e+00 1.681244e+00 1.730453e+00 2.097594e+00 1.981973e+00 2.043615e+00 2.024809e+00 1.945783e+00 1.791295e+00 1.516618e+00 9.910660e-01
<GCONST> 9.623193e+01
<STATE> 4
<MEAN> 25
 -1.403935e+01 4.528334e+00 -1.431522e+00 -1.869341e+00 6.455406e+00 -1.254239e+00 2.748203e+00 2.581284e+00 1.611953e+00 8.062357e-01 8.309742e-01 1.844008e+00 1.063115e+00 -4.449704e-01 2.416331e-01 1.365614e-01 -4.159331e-01 8.483156e-02 -3.039131e-01 -1.649707e-01 3.746673e-04 2.223474e-03 -1.532447e-01 -1.851159e-01 -4.705914e-01
<VARIANCE> 25
 5.004601e+01 2.460466e+01 2.731337e+01 3.763282e+01 2.908529e+01 3.641426e+01 3.520412e+01 2.939102e+01 2.736961e+01 2.334453e+01 2.181045e+01 1.847569e+01 3.031968e+00 1.341209e+00 1.393926e+00 1.575734e+00 1.876859e+00 2.138180e+00 2.269858e+00 2.040913e+00 1.953306e+00 1.807676e+00 1.721331e+00 1.548719e+00 1.506230e+00
<GCONST> 9.412775e+01
<TRANSP> 5
 0.000000e+00 1.000000e+00 0.000000e+00 0.000000e+00 0.000000e+00
 0.000000e+00 6.761498e-01 3.238502e-01 0.000000e+00 0.000000e+00
 0.000000e+00 0.000000e+00 7.396318e-01 2.603681e-01 0.000000e+00
 0.000000e+00 0.000000e+00 0.000000e+00 8.313915e-01 1.686085e-01
 0.000000e+00 0.000000e+00 0.000000e+00 0.000000e+00 0.000000e+00
<ENDHMM>
~h "t"
<BEGINHMM>
<NUMSTATES> 5
<STATE> 2
<MEAN> 25
 4.129501e-01 1.937143e+00 2.132351e+00 1.440547e+00 -2.881303e-01 -1.564865e+00 -9.267200e-01 -1.013255e+00 -4.826549e-01 8.742452e-03 -6.576875e-01 -5.657277e-01 -1.153227e+00 1.552709e-01 -2.716599e-01 4.705921e-01 9.562672e-01 6.262919e-01 7.850649e-01 3.760957e-01 4.908687e-01 3.334215e-01 4.772236e-01 5.831133e-01 -1.191143e+00
<VARIANCE> 25
 5.909700e+01 4.854290e+01 6.072549e+01 6.403201e+01 6.619997e+01 6.264886e+01 5.752795e+01 5.427914e+01 5.403277e+01 4.202476e+01 3.754368e+01 3.234632e+01 4.793226e+00 5.669319e+00 4.842755e+00 6.533666e+00 5.900717e+00 5.288351e+00 5.219923e+00 5.312505e+00 4.888616e+00 4.160657e+00 3.887891e+00 3.089527e+00 8.444579e+00
<GCONST> 1.145326e+02
<STATE> 3
<MEAN> 25
 -6.703940e+00 -5.264307e-01 1.135448e-01 -6.948501e-01 2.005598e+00 4.497603e-01 2.253016e+00 1.326514e+00 1.892779e+00 1.481399e+00 2.102671e+00 2.481194e+00 -1.331101e+00 -6.284163e-01 1.884799e-03 -9.604417e-01 -2.696965e-01 -6.653565e-01 1.807957e-01 2.529056e-01 2.545486e-01 -1.573568e-01 2.406712e-01 3.365538e-01 2.072482e+00
<VARIANCE> 25
 5.847492e+01 4.251727e+01 3.695527e+01 5.185032e+01 4.326286e+01 4.825487e+01 4.150916e+01 3.755183e+01 3.353094e+01 3.131746e+01 2.757153e+01 2.384423e+01 5.625522e+00 4.189461e+00 3.857466e+00 5.491659e+00 4.456683e+00 5.061164e+00 4.370508e+00 4.192667e+00 3.834114e+00 3.455140e+00 3.047049e+00 2.703680e+00 1.134172e+01
<GCONST> 1.091223e+02
<STATE> 4
<MEAN> 25
 -6.976820e+00 -5.207863e-01 2.613339e-01 -3.374776e-02 2.031875e+00 -9.476876e-01 2.486887e+00 2.014208e+00 2.272998e+00 5.844681e-01 1.022224e+00 1.969942e+00 8.472146e-01 5.716474e-02 1.540167e-01 3.686215e-01 -1.841847e-01 -2.288682e-01 -3.136053e-01 -1.677445e-01 -1.690225e-01 -1.996823e-01 -3.848008e-01 -3.174875e-01 -1.106401e-01
<VARIANCE> 25
 5.462836e+01 3.100347e+01 3.166321e+01 3.672971e+01 3.693496e+01 4.178797e+01 3.813389e+01 3.419584e+01 3.116149e+01 2.858999e+01 2.644733e+01 2.272432e+01 4.416087e+00 2.193157e+00 2.371131e+00 2.655651e+00 3.008683e+00 3.374424e+00 3.347349e+00 2.895619e+00 2.766210e+00 2.580188e+00 2.498058e+00 2.141638e+00 2.864230e+00
<GCONST> 1.015406e+02
<TRANSP> 5
 0.000000e+00 1.000000e+00 0.000000e+00 0.000000e+00 0.000000e+00
 0.000000e+00 6.215321e-01 3.784679e-01 0.000000e+00 0.000000e+00
 0.000000e+00 0.000000e+00 5.251386e-01 4.748614e-01 0.000000e+00
 0.000000e+00 0.000000e+00 0.000000e+00 7.056831e-01 2.943169e-01
 0.000000e+00 0.000000e+00 0.000000e+00 0.000000e+00 0.000000e+00
<ENDHMM>
~h "v"
<BEGINHMM>
<NUMSTATES> 5
<STATE> 2
<MEAN> 25
 6.061548e+00 -1.039453e+00 2.088457e-01 -2.037359e+00 -2.849094e+00 -2.650940e+00 -4.412744e+00 -2.351483e+00 -9.611281e-01 6.689679e-01 -4.919341e-01 -2.191724e+00 -6.519822e-01 1.380170e+00 2.621779e-02 1.440514e+00 1.278690e+00 3.602727e-01 4.978722e-01 -6.226262e-01 -1.356433e-01 -9.593875e-02 2.222204e-01 1.815166e-01 -1.434545e+00
<VARIANCE> 25
 3.726979e+01 4.903412e+01 6.430064e+01 6.762385e+01 5.459283e+01 6.799005e+01 6.254040e+01 6.121046e+01 5.642762e+01 4.912886e+01 4.247309e+01 3.522955e+01 2.918237e+00 4.117774e+00 3.854373e+00 5.466940e+00 4.866824e+00 4.518019e+00 4.899940e+00 5.385859e+00 4.681002e+00 4.049968e+00 3.669382e+00 2.950907e+00 3.641800e+00
<GCONST> 1.120573e+02
<STATE> 3
<MEAN> 25
 3.591242e+00 3.165349e+00 6.133865e-01 2.221955e+00 1.260731e+00 -1.400098e+00 -2.810031e+00 -4.050634e+00 -8.039742e-01 -1.202784e-01 -4.689345e-01 -2.069349e+00 -2.193310e+00 1.322136e+00 4.026662e-01 1.739524e+00 1.572658e+00 7.697268e-01 1.470020e+00 1.139388e-01 1.573202e-01 -4.768131e-01 -1.592970e-02 3.558941e-01 -1.488421e+00
<VARIANCE> 25
 2.702945e+01 2.430829e+01 2.708071e+01 3.427548e+01 2.747772e+01 3.701587e+01 3.546037e+01 3.312880e+01 2.934730e+01 2.960202e+01 2.590893e+01 2.234551e+01 3.652854e+00 3.406492e+00 2.969497e+00 4.102554e+00 3.328702e+00 4.129442e+00 3.868659e+00 4.371769e+00 3.953629e+00 3.395268e+00 3.097438e+00 2.440248e+00 2.161708e+00
<GCONST> 1.022503e+02
<STATE> 4
<MEAN> 25
 -2.650364e+00 2.296438e+00 3.992839e-02 3.293340e+00 3.036313e+00 6.501909e-01 9.199101e-01 -8.518549e-01 7.827781e-01 1.208643e-01 8.416651e-02 -1.560006e-02 -4.774366e-01 -1.606668e-01 -1.168173e-01 -2.504737e-02 3.222841e-02 1.297687e-02 2.115821e-01 2.150207e-01 1.088421e-01 2.998173e-03 4.295496e-02 1.596392e-01 -1.010619e-01
<VARIANCE> 25
 4.444610e+01 2.528986e+01 2.403391e+01 2.752806e+01 2.475035e+01 2.936622e+01 3.095760e+01 3.098089e+01 2.717907e+01 2.422031e+01 2.146427e+01 2.014933e+01 3.347469e+00 1.536958e+00 1.521320e+00 2.065979e+00 1.981338e+00 2.211151e+00 2.364938e+00 2.240363e+00 2.151523e+00 1.982390e+00 1.842775e+00 1.637890e+00 1.582296e+00
<GCONST> 9.442205e+01
<TRANSP> 5
 0.000000e+00 1.000000e+00 0.000000e+00 0.000000e+00 0.000000e+00
 0.000000e+00 4.748486e-01 5.251514e-01 0.000000e+00 0.000000e+00
 0.000000e+00 0.000000e+00 3.661165e-01 6.338836e-01 0.000000e+00
 0.000000e+00 0.000000e+00 0.000000e+00 7.625614e-01 2.374386e-01
 0.000000e+00 0.000000e+00 0.000000e+00 0.000000e+00 0.000000e+00
<ENDHMM>
~h "w"
<BEGINHMM>
<NUMSTATES> 5
<STATE> 2
<MEAN> 25
 4.484795e+00 3.781819e+00 -4.529237e-01 -2.612056e-01 -4.860812e-01 -6.292179e-02 -1.466232e+00 -2.535198e+00 -2.591257e+00 -1.019436e+00 -3.818219e-01 -5.831828e-01 1.737943e+00 9.731542e-01 -4.157255e-01 -1.445712e+00 -1.131223e+00 1.389135e-01 -2.371380e-01 -6.473780e-01 -1.097208e+00 -5.165160e-01 -1.404903e-02 -1.700479e-02 4.337327e-01
<VARIANCE> 25
 4.498147e+01 3.972609e+01 2.876141e+01 4.124807e+01 4.545418e+01 3.952118e+01 4.527377e+01 3.698769e+01 3.837312e+01 3.200843e+01 2.721116e+01 2.388289e+01 3.683564e+00 2.955303e+00 3.002253e+00 4.282543e+00 5.047805e+00 4.246653e+00 4.456881e+00 4.252696e+00 4.353882e+00 3.472450e+00 3.214144e+00 2.818436e+00 3.384680e+00
<GCONST> 1.061082e+02
<STATE> 3
<MEAN> 25
 1.095293e+01 4.815513e+00 -2.809882e+00 -8.918061e+00 -6.731907e+00 2.206147e+00 -2.453148e+00 -3.989840e+00 -7.201303e+00 -2.791084e+00 7.721227e-01 1.909485e-02 7.521434e-01 -9.020134e-01 -6.624085e-01 -1.595828e+00 -5.517438e-01 9.815727e-01 -7.288386e-01 -6.096436e-01 -5.884476e-01 4.581420e-01 9.017174e-01 1.368971e-01 1.417517e+00
<VARIANCE> 25
 2.223701e+01 3.340483e+01 3.211184e+01 5.995713e+01 5.157877e+01 5.029790e+01 4.952117e+01 5.221086e+01 5.399903e+01 4.324885e+01 4.218110e+01 3.383115e+01 1.915025e+00 4.556038e+00 2.903840e+00 5.431663e+00 5.473412e+00 5.505066e+00 6.979755e+00 5.172912e+00 5.126634e+00 5.808129e+00 4.963691e+00 3.787750e+00 4.079614e+00
<GCONST> 1.105084e+02
<STATE> 4
<MEAN> 25
 1.071865e+01 1.552090e+00 -4.079247e+00 -9.796557e+00 -5.845949e+00 2.853755e+00 -4.316473e+00 -4.861600e+00 -5.196084e+00 -1.131363e-01 2.034948e+00 -1.172955e+00 -2.434128e-01 -1.185234e+00 1.951897e-02 3.991461e-01 3.364668e-01 -4.760419e-01 -9.346548e-01 2.103488e-01 1.092289e+00 7.777626e-01 -1.186495e-01 -6.530483e-01 8.441599e-01
<VARIANCE> 25
 1.605394e+01 4.298078e+01 3.563977e+01 6.242505e+01 5.227371e+01 6.027840e+01 6.625031e+01 5.443974e+01 5.416935e+01 6.086828e+01 5.046822e+01 4.088229e+01 6.907852e-01 2.387805e+00 2.006659e+00 3.646350e+00 3.317591e+00 4.740080e+00 4.179674e+00 3.992006e+00 4.278767e+00 4.004729e+00 3.611393e+00 3.115056e+00 1.305790e+00
<GCONST> 1.057587e+02
<TRANSP> 5
 0.000000e+00 1.000000e+00 0.000000e+00 0.000000e+00 0.000000e+00
 0.000000e+00 6.503103e-01 3.496897e-01 0.000000e+00 0.000000e+00
 0.000000e+00 0.000000e+00 4.948949e-01 5.051051e-01 0.000000e+00
 0.000000e+00 0.000000e+00 0.000000e+00 6.765475e-01 3.234525e-01
 0.000000e+00 0.000000e+00 0.000000e+00 0.000000e+00 0.000000e+00
<ENDHMM>
~h "y"
<BEGINHMM>
<NUMSTATES> 5
<STATE> 2
<MEAN> 25
 -2.321378e+00 2.692158e+00 9.324083e+00 3.777117e-01 -2.706979e+00 -7.268971e-01 -1.526243e+00 -2.819071e+00 -3.399808e+00 -1.789451e+00 -4.798880e-01 -6.656866e-01 8.223943e-01 3.483637e-01 2.358838e+00 -2.473408e-01 -1.787519e+00 -4.857611e-01 -1.055891e+00 -7.805843e-01 -1.427653e+00 -8.658819e-01 5.346265e-02 -4.637332e-01 1.032707e+00
<VARIANCE> 25
 5.681517e+01 4.203446e+01 6.554247e+01 4.615245e+01 5.908136e+01 5.773581e+01 5.670194e+01 4.831627e+01 4.590298e+01 4.113900e+01 3.081313e+01 2.812266e+01 5.730898e+00 3.429204e+00 4.860081e+00 5.456988e+00 5.881796e+00 6.492428e+00 5.578683e+00 4.768773e+00 4.963053e+00 4.446340e+00 3.459211e+00 2.978751e+00 3.533889e+00
<GCONST> 1.119670e+02
<STATE> 3
<MEAN> 25
 1.255311e+00 2.748806e+00 1.780060e+01 -1.695195e+00 -1.128500e+01 -1.779654e+00 -5.455855e+00 -5.491534e+00 -8.861819e+00 -3.738966e+00 5.947546e-01 -3.041652e+00 4.876646e-01 -8.834108e-01 1.439634e-01 3.440854e-01 -1.419266e+00 -9.301455e-01 -4.696101e-05 4.557799e-01 -5.640064e-01 -1.236380e-01 5.639862e-01 -1.871590e-03 7.452561e-01
<VARIANCE> 25
 1.729424e+01 3.394617e+01 5.514830e+01 5.375441e+01 5.642021e+01 5.605353e+01 4.438851e+01 4.913813e+01 4.729835e+01 5.233499e+01 4.041416e+01 3.341676e+01 1.553895e+00 2.278551e+00 3.641861e+00 2.840812e+00 3.942231e+00 4.758119e+00 3.903614e+00 4.055704e+00 3.316064e+00 3.059639e+00 2.387252e+00 2.087432e+00 1.256764e+00
<GCONST> 1.045319e+02
<STATE> 4
<MEAN> 25
 3.498581e+00 -1.005888e+00 1.407206e+01 2.460519e+00 -1.298131e+01 -7.236288e+00 -5.238320e+00 -1.820982e+00 -9.158293e+00 -5.445367e+00 2.461624e+00 -1.329437e+00 4.777729e-01 -4.076072e-01 -1.198052e+00 3.607710e-01 5.112653e-01 -8.413122e-01 -5.534386e-01 7.301565e-01 6.860388e-01 -1.284195e-01 -1.553616e-01 2.392264e-01 1.178724e-01
<VARIANCE> 25
 1.411737e+01 2.660364e+01 5.028070e+01 4.603259e+01 4.453560e+01 5.223896e+01 4.704729e+01 5.060794e+01 5.117683e+01 5.357281e+01 3.332822e+01 3.115090e+01 5.192395e-01 8.673494e-01 2.400419e+00 1.357641e+00 2.266201e+00 2.375001e+00 2.739336e+00 2.442322e+00 2.847433e+00 2.033884e+00 1.833328e+00 1.490496e+00 4.383948e-01
<GCONST> 9.591573e+01
<TRANSP> 5
 0.000000e+00 1.000000e+00 0.000000e+00 0.000000e+00 0.000000e+00
 0.000000e+00 6.709693e-01 3.290307e-01 0.000000e+00 0.000000e+00
 0.000000e+00 0.000000e+00 6.708339e-01 3.291661e-01 0.000000e+00
 0.000000e+00 0.000000e+00 0.000000e+00 7.336317e-01 2.663682e-01
 0.000000e+00 0.000000e+00 0.000000e+00 0.000000e+00 0.000000e+00
<ENDHMM>
~h "z"
<BEGINHMM>
<NUMSTATES> 5
<STATE> 2
<MEAN> 25
 -4.946351e-02 5.827688e+00 4.130434e+00 -2.977376e-01 3.481757e-01 -7.788629e+00 -4.714315e+00 -3.574208e+00 -1.066871e+00 -9.975846e-01 -2.428081e+00 -7.286654e-01 -3.451570e+00 2.290338e+00 -4.702978e-01 3.153812e-01 2.599397e+00 1.337932e-01 1.618134e+00 3.164930e-01 5.232999e-01 -1.905738e-01 1.315723e-01 5.243877e-01 -3.396710e-01
<VARIANCE> 25
 3.970299e+01 4.309030e+01 4.222733e+01 4.700508e+01 5.694896e+01 5.683097e+01 5.776944e+01 4.444011e+01 4.323614e+01 4.062037e+01 3.158305e+01 2.942783e+01 3.266515e+00 3.655265e+00 3.867996e+00 5.051776e+00 4.237415e+00 5.425557e+00 4.839872e+00 5.166283e+00 4.116691e+00 3.705659e+00 3.497833e+00 2.886192e+00 1.140557e+00
<GCONST> 1.081983e+02
<STATE> 3
<MEAN> 25
 -1.269235e+01 9.654664e+00 1.236349e+00 -8.662180e-02 7.487327e+00 -4.168151e+00 1.816428e+00 -4.186019e-01 1.061830e+00 -8.659213e-01 -5.383265e-02 1.144819e+00 -2.162591e+00 -3.162411e-01 -8.082260e-01 -3.295369e-01 6.911893e-01 8.743806e-01 9.086953e-01 8.928316e-01 5.032628e-01 3.267288e-01 5.713899e-01 3.581963e-01 -1.033436e-01
<VARIANCE> 25
 4.732456e+01 4.573352e+01 5.107810e+01 5.822712e+01 5.262911e+01 6.127775e+01 5.645265e+01 4.798933e+01 3.884116e+01 3.428372e+01 3.028679e+01 2.521560e+01 4.990360e+00 2.706119e+00 2.897481e+00 3.073791e+00 3.189826e+00 3.853079e+00 3.701466e+00 3.146430e+00 3.041134e+00 2.881291e+00 2.501251e+00 2.116560e+00 1.816857e+00
<GCONST> 1.056276e+02
<STATE> 4
<MEAN> 25
 -1.185218e+01 4.922265e+00 -6.831328e-01 -1.076297e+00 6.586812e+00 -1.591703e+00 2.182784e+00 1.842434e+00 1.830672e+00 6.820550e-01 6.849258e-01 1.648711e+00 8.541247e-01 -5.532407e-01 -1.363535e-02 1.562457e-01 -3.947176e-01 1.508479e-01 -1.326115e-01 -1.005580e-01 -2.249449e-03 6.285765e-02 -4.949157e-02 -8.044787e-02 -4.979087e-01
<VARIANCE> 25
 5.413600e+01 3.354623e+01 3.215008e+01 4.146543e+01 3.331915e+01 4.299390e+01 4.213733e+01 3.477752e+01 3.086169e+01 2.591238e+01 2.412858e+01 2.029524e+01 2.948326e+00 1.509187e+00 1.494330e+00 1.725981e+00 2.052963e+00 2.312619e+00 2.457148e+00 2.247916e+00 2.119869e+00 1.956689e+00 1.774056e+00 1.582317e+00 1.411246e+00
<GCONST> 9.658793e+01
<TRANSP> 5
 0.000000e+00 1.000000e+00 0.000000e+00 0.000000e+00 0.000000e+00
 0.000000e+00 6.672000e-01 3.328000e-01 0.000000e+00 0.000000e+00
 0.000000e+00 0.000000e+00 6.110635e-01 3.889365e-01 0.000000e+00
 0.000000e+00 0.000000e+00 0.000000e+00 8.294573e-01 1.705427e-01
 0.000000e+00 0.000000e+00 0.000000e+00 0.000000e+00 0.000000e+00
<ENDHMM>
~h "aa"
<BEGINHMM>
<NUMSTATES> 5
<STATE> 2
<MEAN> 25
 3.739016e+00 -1.335231e+00 -1.985927e+00 -3.720818e+00 -1.136174e+00 1.944284e-01 -2.413470e+00 -2.095167e+00 -1.989751e-01 3.858245e-01 -7.499275e-01 -2.012900e+00 1.529665e+00 -1.135411e+00 -1.140819e+00 -1.875229e+00 -5.171227e-01 7.194404e-01 -7.215636e-01 5.941298e-03 3.896614e-01 -3.603455e-02 -4.427880e-01 -9.133346e-01 1.682596e+00
<VARIANCE> 25
 5.279919e+01 4.208334e+01 5.359639e+01 6.842829e+01 6.619386e+01 7.200713e+01 6.824685e+01 5.788850e+01 5.509478e+01 4.449039e+01 4.188208e+01 3.381601e+01 6.090827e+00 4.292466e+00 4.798781e+00 6.762060e+00 6.428063e+00 6.853217e+00 6.356337e+00 6.560170e+00 6.914891e+00 5.048686e+00 4.384832e+00 3.873930e+00 4.826053e+00
<GCONST> 1.158899e+02
<STATE> 3
<MEAN> 25
 8.197353e+00 -5.051547e+00 -5.923063e+00 -9.730066e+00 -2.480747e+00 3.600471e+00 -3.629715e+00 -2.177794e+00 1.007469e-01 1.141235e-01 -1.310617e+00 -4.156115e+00 3.239000e-01 -7.665715e-01 -7.126278e-01 -8.433882e-01 3.522533e-01 1.068727e+00 1.833009e-01 -1.416077e-01 5.042916e-02 -1.599449e-01 -1.445728e-01 -2.870343e-01 6.282945e-01
<VARIANCE> 25
 2.342287e+01 4.559138e+01 5.310958e+01 6.840974e+01 6.509707e+01 8.436479e+01 8.529794e+01 6.656811e+01 6.115945e+01 6.154908e+01 5.643458e+01 4.281847e+01 1.504559e+00 2.362904e+00 3.303351e+00 4.155691e+00 4.165924e+00 5.698575e+00 4.770000e+00 4.569314e+00 4.291757e+00 3.780907e+00 3.514586e+00 3.220797e+00 1.497315e+00
<GCONST> 1.101506e+02
<STATE> 4
<MEAN> 25
 8.493884e+00 -6.180828e+00 -8.136126e+00 -1.104624e+01 -2.453109e-01 7.067753e+00 -1.542325e+00 -3.087616e+00 -2.617989e-01 -1.006783e+00 -1.951337e+00 -4.202753e+00 -9.786814e-02 2.051544e-01 1.352035e-01 4.509667e-01 1.834794e-01 -4.034224e-01 -9.702146e-02 1.147077e-01 7.618539e-02 1.558801e-05 -1.008002e-01 4.564286e-02 -3.013864e-01
<VARIANCE> 25
 1.471800e+01 4.071507e+01 3.429317e+01 5.953650e+01 5.647982e+01 7.009086e+01 6.770449e+01 5.092280e+01 4.841970e+01 4.910577e+01 4.293242e+01 3.846998e+01 4.870490e-01 1.175311e+00 1.235109e+00 1.944129e+00 1.795300e+00 2.658957e+00 2.148140e+00 2.161200e+00 1.983137e+00 1.947176e+00 1.836232e+00 1.663218e+00 6.578497e-01
<GCONST> 9.704189e+01
<TRANSP> 5
 0.000000e+00 1.000000e+00 0.000000e+00 0.000000e+00 0.000000e+00
 0.000000e+00 5.749688e-01 4.250312e-01 0.000000e+00 0.000000e+00
 0.000000e+00 0.000000e+00 5.038116e-01 4.961884e-01 0.000000e+00
 0.000000e+00 0.000000e+00 0.000000e+00 8.421249e-01 1.578751e-01
 0.000000e+00 0.000000e+00 0.000000e+00 0.000000e+00 0.000000e+00
<ENDHMM>
~h "ae"
<BEGINHMM>
<NUMSTATES> 5
<STATE> 2
<MEAN> 25
 1.850690e-01 -1.535638e+00 1.298537e-01 -1.969355e-02 -1.549770e+00 -1.900738e+00 1.018515e+00 1.080109e+00 7.371820e-01 -4.131803e-01 -1.458606e+00 -7.084895e-01 1.384519e+00 -1.323011e+00 -1.256251e-02 -1.071365e+00 -1.294582e+00 -7.178069e-01 -5.908542e-01 5.497917e-01 1.026157e-01 -5.896638e-01 -8.922110e-01 -7.572151e-01 2.122452e+00
<VARIANCE> 25
 5.145147e+01 4.796240e+01 4.845068e+01 4.880676e+01 6.230365e+01 6.505429e+01 6.519268e+01 5.512979e+01 4.842680e+01 4.342348e+01 3.940022e+01 3.491257e+01 5.575971e+00 4.827558e+00 4.359105e+00 5.006154e+00 5.745829e+00 5.813931e+00 6.144100e+00 5.980190e+00 5.757949e+00 4.861164e+00 4.412069e+00 3.767134e+00 7.750894e+00
<GCONST> 1.145771e+02
<STATE> 3
<MEAN> 25
 5.095361e+00 -7.135376e+00 1.508702e-01 -4.330272e+00 -6.228587e+00 -3.585040e+00 -6.715571e-01 3.800757e+00 6.422649e-01 -2.606529e+00 -4.442271e+00 -3.793218e+00 5.315967e-01 -1.240655e+00 -2.954447e-01 -5.883232e-01 -3.244530e-01 2.663833e-01 -9.965956e-02 6.624847e-01 1.371421e-01 -5.127293e-01 -5.572983e-01 -4.028930e-01 1.131137e+00
<VARIANCE> 25
 1.824483e+01 4.021382e+01 5.593883e+01 3.817995e+01 5.916199e+01 5.867120e+01 6.625528e+01 5.875999e+01 5.711758e+01 4.684936e+01 4.135736e+01 3.278512e+01 1.565273e+00 2.410654e+00 2.728738e+00 2.529176e+00 3.493669e+00 3.408773e+00 4.201705e+00 3.905359e+00 3.269548e+00 3.000607e+00 2.817962e+00 2.389741e+00 1.712967e+00
<GCONST> 1.049988e+02
<STATE> 4
<MEAN> 25
 5.673258e+00 -9.108501e+00 -1.930264e+00 -4.000081e+00 -4.403683e+00 -1.654766e+00 1.871716e-01 3.676026e+00 9.123821e-01 -4.113697e+00 -5.667868e+00 -4.017261e+00 4.608215e-02 3.908131e-01 3.249250e-02 2.282480e-01 2.295995e-01 -7.572017e-02 -1.917189e-01 -1.723113e-01 -1.360023e-02 1.005217e-01 5.987046e-02 4.635833e-02 -3.698217e-01
<VARIANCE> 25
 1.476316e+01 3.824905e+01 4.968206e+01 3.506298e+01 5.508403e+01 5.562806e+01 5.537834e+01 5.366216e+01 5.098671e+01 4.469046e+01 3.825840e+01 3.348107e+01 4.383928e-01 1.312870e+00 1.239839e+00 1.246616e+00 1.659722e+00 1.766499e+00 2.018001e+00 1.990052e+00 1.758914e+00 1.758288e+00 1.588555e+00 1.354117e+00 7.742332e-01
<GCONST> 9.464513e+01
<TRANSP> 5
 0.000000e+00 1.000000e+00 0.000000e+00 0.000000e+00 0.000000e+00
 0.000000e+00 6.479173e-01 3.520827e-01 0.000000e+00 0.000000e+00
 0.000000e+00 0.000000e+00 5.219646e-01 4.780354e-01 0.000000e+00
 0.000000e+00 0.000000e+00 0.000000e+00 8.280500e-01 1.719500e-01
 0.000000e+00 0.000000e+00 0.000000e+00 0.000000e+00 0.000000e+00
<ENDHMM>
~h "ah"
<BEGINHMM>
<NUMSTATES> 5
<STATE> 2
<MEAN> 25
 2.303391e+00 -8.359762e-01 -1.569068e+00 -3.212120e+00 -7.382315e-01 -1.207667e+00 -2.507670e+00 -1.591449e+00 8.322716e-01 4.432567e-01 -1.224698e+00 -1.704465e+00 1.773503e+00 -1.229037e+00 -6.998370e-01 -1.551439e+00 -7.033398e-01 2.589203e-01 -1.204393e+00 -9.809010e-02 5.240590e-01 1.987006e-01 -6.710795e-01 -1.034130e+00 1.592750e+00
<VARIANCE> 25
 6.198872e+01 4.717272e+01 5.496069e+01 6.619138e+01 6.606050e+01 7.305801e+01 6.140105e+01 5.817482e+01 5.639486e+01 4.852931e+01 4.090692e+01 3.474719e+01 7.068455e+00 4.405798e+00 4.425164e+00 6.485079e+00 5.812199e+00 6.379396e+00 6.761779e+00 6.492621e+00 6.262425e+00 5.213558e+00 4.617629e+00 3.965863e+00 5.645640e+00
<GCONST> 1.162782e+02
<STATE> 3
<MEAN> 25
 7.234903e+00 -5.685925e+00 -4.415245e+00 -8.434525e+00 -2.535664e+00 1.405925e+00 -5.587815e+00 -1.299831e+00 2.015624e+00 8.131099e-01 -2.818216e+00 -5.019144e+00 4.513723e-01 -8.687679e-01 -4.540609e-01 -6.363348e-01 1.749171e-01 6.907893e-01 -3.343524e-01 1.199947e-02 3.671197e-01 2.325150e-01 -3.539210e-01 -6.385047e-01 6.469972e-01
<VARIANCE> 25
 1.900061e+01 4.035219e+01 4.554956e+01 5.808484e+01 5.452206e+01 8.184315e+01 6.086653e+01 5.819979e+01 5.542257e+01 5.876105e+01 4.996288e+01 3.944589e+01 1.569316e+00 2.515228e+00 2.827561e+00 3.974634e+00 3.587441e+00 4.695040e+00 3.728633e+00 4.350259e+00 3.845753e+00 3.464150e+00 3.410819e+00 2.750981e+00 1.676486e+00
<GCONST> 1.074680e+02
<STATE> 4
<MEAN> 25
 7.726301e+00 -5.464115e+00 -5.350636e+00 -8.832684e+00 -9.872620e-01 2.717538e+00 -4.699002e+00 -2.147499e+00 2.042125e+00 6.661192e-01 -3.166315e+00 -5.146786e+00 -1.080895e-01 7.304141e-01 4.297355e-01 7.127673e-01 1.325106e-01 -3.132039e-01 1.742021e-01 -1.993489e-01 -3.124270e-01 -8.806625e-02 1.455809e-01 3.049340e-01 -7.668313e-01
<VARIANCE> 25
 1.492457e+01 3.740721e+01 3.619832e+01 5.205090e+01 4.931731e+01 7.207993e+01 5.895265e+01 5.113755e+01 5.038430e+01 5.835081e+01 4.787119e+01 3.649594e+01 6.660401e-01 1.654313e+00 1.639921e+00 2.463221e+00 2.174762e+00 2.856362e+00 2.413046e+00 2.645030e+00 2.444146e+00 2.329158e+00 2.267251e+00 1.957733e+00 1.234745e+00
<GCONST> 1.000658e+02
<TRANSP> 5
 0.000000e+00 1.000000e+00 0.000000e+00 0.000000e+00 0.000000e+00
 0.000000e+00 5.752054e-01 4.247946e-01 0.000000e+00 0.000000e+00
 0.000000e+00 0.000000e+00 4.840982e-01 5.159019e-01 0.000000e+00
 0.000000e+00 0.000000e+00 0.000000e+00 7.634223e-01 2.365778e-01
 0.000000e+00 0.000000e+00 0.000000e+00 0.000000e+00 0.000000e+00
<ENDHMM>
~h "ao"
<BEGINHMM>
<NUMSTATES> 5
<STATE> 2
<MEAN> 25
 3.581814e+00 5.820594e-01 -3.202947e+00 -4.539154e+00 -1.628722e+00 7.429460e-01 -1.528520e+00 -2.419303e+00 -5.949593e-01 1.814395e-01 -4.465791e-02 -1.247122e+00 2.560065e+00 1.735619e-02 -9.508559e-01 -2.703764e+00 -1.661885e+00 6.674227e-01 -5.165887e-01 -4.124128e-01 -5.188313e-01 -2.737446e-01 -3.946906e-02 -4.521322e-01 1.352330e+00
<VARIANCE> 25
 5.544544e+01 4.074349e+01 4.371423e+01 7.657092e+01 6.193686e+01 6.283014e+01 6.514472e+01 4.859379e+01 5.024652e+01 4.353101e+01 3.729773e+01 3.337242e+01 6.228518e+00 4.630051e+00 4.306655e+00 6.427142e+00 6.806549e+00 6.276671e+00 6.511341e+00 6.173679e+00 6.378939e+00 5.171607e+00 4.458995e+00 3.886006e+00 4.160961e+00
<GCONST> 1.148344e+02
<STATE> 3
<MEAN> 25
 9.979486e+00 1.356765e-01 -5.834209e+00 -1.335036e+01 -7.403782e+00 3.923404e+00 -1.404027e+00 -1.670188e+00 -3.171154e+00 -1.480217e+00 9.742167e-01 -1.740378e+00 4.530630e-01 -4.653351e-01 -7.442290e-01 -1.038661e+00 -1.384159e-01 8.978664e-01 3.875852e-01 2.690432e-01 -2.597112e-01 -4.360791e-01 2.144017e-01 4.260130e-01 4.602291e-01
<VARIANCE> 25
 1.967425e+01 4.726791e+01 4.276935e+01 6.433588e+01 7.196051e+01 6.531104e+01 6.785237e+01 6.673034e+01 6.187597e+01 5.585702e+01 5.100577e+01 4.557685e+01 7.765354e-01 1.860031e+00 2.026568e+00 3.421414e+00 3.892050e+00 3.396552e+00 4.051115e+00 3.447515e+00 3.546852e+00 3.163971e+00 3.165418e+00 2.816227e+00 9.651464e-01
<GCONST> 1.055670e+02
<STATE> 4
<MEAN> 25
 9.736328e+00 -1.654173e-01 -6.945273e+00 -1.528085e+01 -5.685359e+00 6.636012e+00 3.276921e-01 -2.288344e+00 -1.977771e+00 -2.770173e+00 -6.071205e-01 -4.644312e-01 -2.296021e-02 -4.009221e-02 -6.896465e-02 3.996037e-01 3.291074e-01 -2.227302e-01 -1.802229e-01 1.124142e-02 5.939630e-02 9.029968e-02 3.186983e-02 1.238680e-02 -1.329956e-01
<VARIANCE> 25
 1.450352e+01 4.334203e+01 3.755313e+01 6.752963e+01 7.505537e+01 6.411998e+01 5.803738e+01 4.987452e+01 4.556918e+01 4.740892e+01 4.110098e+01 3.817612e+01 2.495586e-01 8.639617e-01 9.291736e-01 1.628381e+00 1.578824e+00 1.700435e+00 1.896031e+00 1.668590e+00 1.694898e+00 1.683974e+00 1.589203e+00 1.419183e+00 3.366998e-01
<GCONST> 9.350731e+01
<TRANSP> 5
 0.000000e+00 1.000000e+00 0.000000e+00 0.000000e+00 0.000000e+00
 0.000000e+00 6.579037e-01 3.420963e-01 0.000000e+00 0.000000e+00
 0.000000e+00 0.000000e+00 6.290612e-01 3.709388e-01 0.000000e+00
 0.000000e+00 0.000000e+00 0.000000e+00 8.605618e-01 1.394382e-01
 0.000000e+00 0.000000e+00 0.000000e+00 0.000000e+00 0.000000e+00
<ENDHMM>
~h "aw"
<BEGINHMM>
<NUMSTATES> 5
<STATE> 2
<MEAN> 25
 4.941288e+00 -7.473496e+00 -2.795639e+00 -3.473905e+00 -2.844014e+00 -1.740219e+00 -2.847699e-01 2.085026e+00 1.080187e+00 -2.200356e+00 -4.584106e+00 -3.816801e+00 8.117965e-01 -1.435067e+00 -9.998600e-01 -8.875782e-01 1.292211e-01 7.309266e-01 -1.897402e-01 2.284892e-01 3.717019e-01 -3.722976e-01 -7.904643e-01 -7.272102e-01 1.253708e+00
<VARIANCE> 25
 2.595055e+01 4.905767e+01 4.538271e+01 4.370910e+01 6.000624e+01 5.941806e+01 5.878936e+01 5.823064e+01 5.125987e+01 5.115145e+01 4.190308e+01 3.563685e+01 2.742831e+00 3.204736e+00 2.651419e+00 3.585968e+00 4.242624e+00 4.033248e+00 4.415223e+00 5.063013e+00 4.105952e+00 3.549136e+00 3.279119e+00 3.038673e+00 2.419212e+00
<GCONST> 1.084208e+02
<STATE> 3
<MEAN> 25
 7.603290e+00 -1.086522e+01 -7.097663e+00 -6.486963e+00 6.660503e-01 4.096801e+00 -2.227064e+00 -1.029775e+00 2.200684e+00 -1.907620e+00 -5.805073e+00 -6.328400e+00 2.779016e-01 4.289992e-01 -3.648168e-01 -5.902888e-01 2.097521e-01 7.491998e-01 -1.452033e-01 -6.700370e-01 -2.281017e-01 3.959893e-01 5.495651e-01 4.863965e-02 -3.180638e-01
<VARIANCE> 25
 1.294550e+01 3.091167e+01 2.936888e+01 4.159166e+01 4.319127e+01 6.118274e+01 5.091797e+01 5.092868e+01 4.376992e+01 5.182399e+01 4.156009e+01 3.533288e+01 2.889797e-01 9.583621e-01 8.192845e-01 1.283252e+00 1.542856e+00 1.644653e+00 1.810303e+00 1.799565e+00 1.763775e+00 1.707010e+00 1.775586e+00 1.495906e+00 3.247211e-01
<GCONST> 9.163816e+01
<STATE> 4
<MEAN> 25
 9.266759e+00 -2.059438e+00 -7.048073e+00 -1.086022e+01 -2.676317e+00 6.105628e+00 -1.979606e-01 -3.352158e+00 -1.732462e+00 4.554005e-02 1.196268e-01 -1.943183e+00 -5.793495e-02 7.612739e-01 4.367481e-01 4.363835e-01 -2.613543e-01 -5.743815e-01 -1.090654e-01 4.286962e-02 -2.228695e-01 -1.833923e-02 1.887626e-01 4.154286e-01 -6.677088e-01
<VARIANCE> 25
 1.638977e+01 3.529944e+01 2.845664e+01 5.815583e+01 5.186721e+01 5.486255e+01 5.494360e+01 4.470696e+01 4.458988e+01 4.734698e+01 3.765376e+01 3.515086e+01 4.351564e-01 1.220254e+00 1.074113e+00 2.107892e+00 2.060597e+00 2.070417e+00 2.239343e+00 2.109686e+00 2.123888e+00 2.094310e+00 1.922030e+00 1.928867e+00 5.276209e-01
<GCONST> 9.567309e+01
<TRANSP> 5
 0.000000e+00 1.000000e+00 0.000000e+00 0.000000e+00 0.000000e+00
 0.000000e+00 7.684007e-01 2.315993e-01 0.000000e+00 0.000000e+00
 0.000000e+00 0.000000e+00 8.332805e-01 1.667195e-01 0.000000e+00
 0.000000e+00 0.000000e+00 0.000000e+00 8.294377e-01 1.705623e-01
 0.000000e+00 0.000000e+00 0.000000e+00 0.000000e+00 0.000000e+00
<ENDHMM>
~h "ax"
<BEGINHMM>
<NUMSTATES> 5
<STATE> 2
<MEAN> 25
 -2.383023e-01 1.010845e+00 1.104741e+00 -4.036576e-02 -7.721852e-01 -3.204137e+00 -1.540118e+00 -1.314245e+00 4.661623e-01 -4.098316e-01 -9.173334e-01 -6.154885e-01 1.768659e+00 -6.461448e-01 3.441738e-01 -1.015030e+00 -1.337151e+00 -9.262084e-01 -1.461055e+00 -2.205448e-01 -7.482965e-03 -1.284468e-01 -5.281677e-01 -5.863326e-01 1.576335e+00
<VARIANCE> 25
 6.152785e+01 4.282931e+01 4.939505e+01 4.847345e+01 5.629382e+01 6.041488e+01 5.706326e+01 4.947294e+01 4.421645e+01 3.818769e+01 3.294012e+01 2.957715e+01 7.166825e+00 4.709485e+00 4.767028e+00 5.917009e+00 5.951776e+00 6.068986e+00 6.617780e+00 5.983760e+00 5.761476e+00 4.693992e+00 4.167564e+00 3.577066e+00 6.763610e+00
<GCONST> 1.140304e+02
<STATE> 3
<MEAN> 25
 5.488582e+00 -1.965902e+00 2.106742e+00 -3.134411e+00 -4.947670e+00 -4.947245e+00 -6.115613e+00 -1.364245e+00 -2.123284e-02 -4.105950e-01 -2.077923e+00 -2.762707e+00 8.893875e-01 -3.898644e-01 1.161383e-01 -5.084944e-01 -5.602556e-01 9.074061e-02 -5.697547e-01 1.403204e-01 -3.486945e-02 9.313421e-02 -1.584036e-01 -2.286994e-01 3.454548e-01
<VARIANCE> 25
 2.275871e+01 4.300310e+01 5.949485e+01 5.570906e+01 5.813701e+01 6.349325e+01 5.987446e+01 6.112122e+01 5.892202e+01 4.981791e+01 4.167558e+01 3.427114e+01 3.061722e+00 3.816897e+00 3.813233e+00 5.194974e+00 4.946446e+00 4.647008e+00 5.035600e+00 5.686872e+00 4.930593e+00 4.140148e+00 3.713911e+00 3.052702e+00 3.171283e+00
<GCONST> 1.111394e+02
<STATE> 4
<MEAN> 25
 5.274821e+00 -1.548913e+00 2.419605e+00 -2.934620e+00 -4.609039e+00 -3.749979e+00 -4.697868e+00 -1.077710e+00 -2.027745e-01 -6.814125e-01 -1.981014e+00 -2.195023e+00 -5.321879e-02 3.965652e-01 -1.449374e-02 2.459987e-01 4.224150e-01 3.378926e-01 2.796127e-01 -1.204437e-01 -1.980836e-01 -4.220998e-02 3.403773e-02 1.141617e-01 -5.754766e-01
<VARIANCE> 25
 2.141829e+01 4.411322e+01 6.922788e+01 5.521111e+01 6.342574e+01 6.256580e+01 5.843441e+01 6.025198e+01 5.686708e+01 4.766135e+01 4.106623e+01 3.334939e+01 1.104799e+00 1.659184e+00 1.838033e+00 2.381347e+00 2.496931e+00 2.515913e+00 2.631524e+00 2.750796e+00 2.563906e+00 2.268942e+00 2.087327e+00 1.800078e+00 1.396196e+00
<GCONST> 1.019439e+02
<TRANSP> 5
 0.000000e+00 1.000000e+00 0.000000e+00 0.000000e+00 0.000000e+00
 0.000000e+00 5.287282e-01 4.712717e-01 0.000000e+00 0.000000e+00
 0.000000e+00 0.000000e+00 3.391240e-01 6.608760e-01 0.000000e+00
 0.000000e+00 0.000000e+00 0.000000e+00 6.855971e-01 3.144030e-01
 0.000000e+00 0.000000e+00 0.000000e+00 0.000000e+00 0.000000e+00
<ENDHMM>
~h "ay"
<BEGINHMM>
<NUMSTATES> 5
<STATE> 2
<MEAN> 25
 5.065497e+00 -3.699945e+00 -5.840666e+00 -6.434517e+00 7.848741e-01 4.177809e+00 -5.857641e-01 -2.518920e+00 7.610338e-01 6.865984e-02 -2.126771e+00 -3.139566e+00 1.065311e+00 -1.646720e+00 -9.536277e-01 -1.361313e+00 -1.017965e-01 8.560428e-01 -3.489790e-01 2.746662e-02 4.986060e-01 -1.222998e-01 -7.706648e-01 -9.742157e-01 1.794350e+00
<VARIANCE> 25
 4.312480e+01 4.624368e+01 4.554830e+01 7.744724e+01 5.616124e+01 7.317999e+01 5.765883e+01 5.436556e+01 5.246144e+01 4.694505e+01 4.296209e+01 3.914355e+01 4.112338e+00 3.575223e+00 3.667902e+00 5.707377e+00 4.681258e+00 5.622320e+00 4.851755e+00 5.474711e+00 5.278645e+00 4.213736e+00 3.957213e+00 3.583032e+00 3.939270e+00
<GCONST> 1.127253e+02
<STATE> 3
<MEAN> 25
 7.670782e+00 -1.015535e+01 -7.402650e+00 -8.186338e+00 1.152963e+00 5.661773e+00 -2.366023e+00 -1.749507e+00 2.906657e+00 -1.266882e+00 -5.927867e+00 -6.610263e+00 -2.104523e-01 -4.121089e-01 6.680727e-01 7.840926e-01 -4.603886e-01 -1.112517e+00 -2.688903e-03 1.022721e+00 3.359538e-01 -5.088696e-01 -5.800601e-01 1.441315e-01 1.530712e-01
<VARIANCE> 25
 1.328651e+01 3.190880e+01 2.911774e+01 4.261826e+01 4.549451e+01 6.631499e+01 5.193121e+01 5.348195e+01 4.500719e+01 4.985733e+01 3.953834e+01 3.408020e+01 3.174222e-01 8.476610e-01 1.322806e+00 1.530423e+00 2.118501e+00 3.170358e+00 1.985554e+00 2.755977e+00 1.901013e+00 1.777960e+00 1.849743e+00 1.777562e+00 3.242714e-01
<GCONST> 9.426214e+01
<STATE> 4
<MEAN> 25
 5.255855e+00 -7.880896e+00 2.085603e+00 -3.209462e+00 -8.014102e+00 -5.243680e+00 -1.152591e-01 5.101357e+00 2.416476e-01 -3.266516e+00 -3.416438e+00 -2.564606e+00 -2.378321e-01 9.584482e-01 1.341583e+00 3.481672e-01 -9.861529e-01 -7.898333e-01 6.716271e-02 -1.725460e-01 -9.188867e-01 2.423760e-01 1.017146e+00 4.793450e-01 -5.942077e-01
<VARIANCE> 25
 1.433413e+01 3.640792e+01 5.020646e+01 3.159088e+01 5.718919e+01 4.937936e+01 5.103098e+01 4.898144e+01 5.121449e+01 4.238423e+01 4.489312e+01 2.845209e+01 3.904329e-01 1.004168e+00 2.035973e+00 1.519769e+00 2.938010e+00 2.447154e+00 2.599920e+00 3.081133e+00 2.686859e+00 2.396369e+00 2.515847e+00 1.984694e+00 4.312610e-01
<GCONST> 9.705444e+01
<TRANSP> 5
 0.000000e+00 1.000000e+00 0.000000e+00 0.000000e+00 0.000000e+00
 0.000000e+00 7.491136e-01 2.508864e-01 0.000000e+00 0.000000e+00
 0.000000e+00 0.000000e+00 8.154324e-01 1.845676e-01 0.000000e+00
 0.000000e+00 0.000000e+00 0.000000e+00 8.072801e-01 1.927199e-01
 0.000000e+00 0.000000e+00 0.000000e+00 0.000000e+00 0.000000e+00
<ENDHMM>
~h "ch"
<BEGINHMM>
<NUMSTATES> 5
<STATE> 2
<MEAN> 25
 -1.469445e+00 6.166457e-01 3.748532e+00 1.516170e+00 -2.438744e-01 -5.849919e-01 -1.136074e+00 -6.188276e-01 5.089565e-01 -6.330584e-01 -3.334622e-01 2.868784e-01 -2.542666e+00 -2.025523e-01 1.222124e-01 -3.822523e-01 6.755174e-01 1.376292e+00 9.909713e-01 8.531037e-02 8.839303e-01 3.635613e-01 7.433838e-01 6.011283e-01 -2.909876e-01
<VARIANCE> 25
 4.728255e+01 4.454708e+01 4.845909e+01 4.926826e+01 4.976250e+01 5.509610e+01 4.684179e+01 4.351362e+01 4.396234e+01 3.661364e+01 3.181382e+01 2.631232e+01 4.827600e+00 6.047493e+00 5.280937e+00 6.537954e+00 6.051285e+00 4.859024e+00 5.326562e+00 4.906677e+00 4.535555e+00 4.122084e+00 3.550610e+00 2.885583e+00 1.075385e+01
<GCONST> 1.122180e+02
<STATE> 3
<MEAN> 25
 -1.533419e+01 -9.102836e-01 6.352147e+00 -3.126622e+00 -5.924307e-01 4.150912e+00 2.721383e+00 -1.149422e+00 4.171662e+00 -1.177289e-01 2.622684e+00 1.928648e+00 -1.975095e+00 -1.752244e-01 8.694913e-01 -1.349620e-01 -6.897519e-01 -2.338551e-01 8.714861e-01 -8.670780e-02 1.129520e-01 -1.750056e-01 1.614475e-01 2.278605e-02 1.544537e+00
<VARIANCE> 25
 5.574775e+01 3.334096e+01 3.838387e+01 3.665332e+01 4.006677e+01 3.296067e+01 3.782049e+01 3.716035e+01 2.759570e+01 2.684363e+01 2.332943e+01 1.835910e+01 4.568317e+00 2.215833e+00 2.334063e+00 2.702926e+00 2.235491e+00 2.732265e+00 2.534059e+00 2.585769e+00 2.170435e+00 2.076332e+00 1.851947e+00 1.613943e+00 3.237113e+00
<GCONST> 9.944646e+01
<STATE> 4
<MEAN> 25
 -1.353708e+01 -3.477359e+00 6.998291e+00 8.843316e-01 -3.406431e+00 -8.635545e-01 4.974523e+00 -7.918215e-02 2.974257e+00 -1.130754e+00 1.790757e+00 1.238163e+00 2.232616e+00 7.989132e-02 -5.585040e-01 6.013008e-01 -1.860930e-02 -9.540462e-01 -6.931052e-01 2.450516e-01 -3.862588e-01 -2.442639e-01 -3.858899e-01 -2.598453e-01 -5.856536e-01
<VARIANCE> 25
 5.173204e+01 2.883075e+01 3.270135e+01 3.576103e+01 3.884739e+01 4.559734e+01 3.858287e+01 3.418756e+01 3.101055e+01 2.834127e+01 2.459939e+01 2.060362e+01 4.766529e+00 1.769007e+00 2.032929e+00 2.125155e+00 2.727183e+00 3.375111e+00 3.313086e+00 2.782961e+00 2.628272e+00 2.444974e+00 2.250885e+00 1.828418e+00 1.620573e+00
<GCONST> 9.978410e+01
<TRANSP> 5
 0.000000e+00 1.000000e+00 0.000000e+00 0.000000e+00 0.000000e+00
 0.000000e+00 7.489408e-01 2.510593e-01 0.000000e+00 0.000000e+00
 0.000000e+00 0.000000e+00 7.482307e-01 2.517692e-01 0.000000e+00
 0.000000e+00 0.000000e+00 0.000000e+00 7.840974e-01 2.159026e-01
 0.000000e+00 0.000000e+00 0.000000e+00 0.000000e+00 0.000000e+00
<ENDHMM>
~h "dh"
<BEGINHMM>
<NUMSTATES> 5
<STATE> 2
<MEAN> 25
 -1.194754e-01 4.384492e+00 1.023162e+00 3.812227e+00 1.773707e+00 -1.200152e+00 -5.207158e-01 -1.923065e+00 2.124027e-01 1.689818e-01 -9.454003e-01 -7.446318e-01 -7.389520e-01 5.356116e-01 -8.056478e-02 6.269139e-01 7.722205e-01 5.130928e-01 5.784720e-01 1.080594e-01 1.242549e-01 -7.926917e-02 1.011640e-01 1.548793e-01 -7.900283e-01
<VARIANCE> 25
 6.111399e+01 3.346021e+01 3.585377e+01 4.109561e+01 4.278566e+01 5.406948e+01 4.855504e+01 5.070282e+01 3.956267e+01 3.314381e+01 3.116672e+01 3.090268e+01 4.374907e+00 3.558613e+00 3.049610e+00 3.994877e+00 3.745812e+00 4.086714e+00 4.254373e+00 4.031428e+00 3.698105e+00 3.212327e+00 2.994062e+00 2.649215e+00 5.151638e+00
<GCONST> 1.074702e+02
<STATE> 3
<MEAN> 25
 -9.592674e-01 3.437947e+00 5.872648e-01 3.254815e+00 2.059801e+00 -9.083192e-01 4.730743e-02 -1.658758e+00 4.399347e-01 -1.668731e-01 -7.962009e-01 -5.618041e-01 -4.172564e-01 -5.384130e-01 -3.180279e-01 -5.089304e-01 -2.407139e-01 -3.320504e-01 1.077704e-01 2.376188e-01 3.994842e-01 -8.975440e-02 1.547960e-01 2.118831e-01 1.009006e+00
<VARIANCE> 25
 5.016983e+01 3.706940e+01 3.189024e+01 3.981000e+01 3.910855e+01 4.584484e+01 4.402450e+01 4.221331e+01 3.644209e+01 3.068803e+01 2.861090e+01 2.830137e+01 3.927233e+00 3.307644e+00 2.786199e+00 3.811950e+00 3.586638e+00 4.483313e+00 4.147690e+00 3.957498e+00 3.743695e+00 3.118994e+00 2.833174e+00 2.666362e+00 7.677758e+00
<GCONST> 1.063777e+02
<STATE> 4
<MEAN> 25
 -2.315187e+00 1.294157e+00 -8.961031e-01 3.064965e+00 2.918322e+00 1.886672e+00 2.107707e+00 1.127014e+00 1.369807e+00 8.570371e-01 7.352649e-01 1.464156e+00 -2.881792e-03 -9.594183e-02 -1.640152e-02 -1.172374e-01 -1.409381e-01 -1.159345e-01 -5.591799e-02 1.495861e-02 5.341440e-02 -1.353805e-02 -1.818212e-03 1.315653e-02 2.222258e-01
<VARIANCE> 25
 2.483032e+01 2.202368e+01 1.892541e+01 2.260158e+01 2.210061e+01 3.190170e+01 2.568630e+01 2.686297e+01 2.205869e+01 2.228160e+01 2.026733e+01 1.905813e+01 7.955662e-01 9.163813e-01 9.481663e-01 1.209874e+00 1.454152e+00 1.756564e+00 1.734015e+00 1.769819e+00 1.753421e+00 1.634124e+00 1.525452e+00 1.389652e+00 1.329684e+00
<GCONST> 8.752790e+01
<TRANSP> 5
 0.000000e+00 1.000000e+00 0.000000e+00 0.000000e+00 0.000000e+00
 0.000000e+00 4.708694e-01 5.291307e-01 0.000000e+00 0.000000e+00
 0.000000e+00 0.000000e+00 3.354736e-01 6.645264e-01 0.000000e+00
 0.000000e+00 0.000000e+00 0.000000e+00 8.206945e-01 1.793054e-01
 0.000000e+00 0.000000e+00 0.000000e+00 0.000000e+00 0.000000e+00
<ENDHMM>
~h "dx"
<BEGINHMM>
<NUMSTATES> 5
<STATE> 2
<MEAN> 25
 5.203475e+00 -2.174997e+00 2.807946e+00 -7.226245e-01 -5.184681e+00 -3.749963e+00 -4.099973e+00 -1.121091e+00 -7.367575e-01 -1.001716e+00 -1.257430e+00 -1.781180e+00 -5.517008e-01 8.624969e-01 4.438985e-01 1.129823e+00 7.597054e-01 1.160072e-01 5.033362e-01 -2.206914e-01 2.330108e-02 -5.745704e-02 -6.867041e-02 2.576281e-01 -1.304992e+00
<VARIANCE> 25
 5.530548e+01 7.646825e+01 1.174918e+02 9.386697e+01 1.184595e+02 9.980338e+01 9.798458e+01 9.076714e+01 9.228800e+01 6.820915e+01 6.400864e+01 5.175643e+01 2.683822e+00 4.321951e+00 5.019799e+00 6.321796e+00 7.165683e+00 5.840131e+00 6.466388e+00 6.315750e+00 5.756715e+00 4.781735e+00 4.619195e+00 3.689851e+00 4.427518e+00
<GCONST> 1.199198e+02
<STATE> 3
<MEAN> 25
 1.039926e+00 7.483292e-01 4.193016e+00 2.592536e+00 -1.451367e+00 -2.705645e+00 -1.501672e+00 -7.175267e-01 -3.544488e-01 -1.000731e+00 -9.030592e-01 -2.891187e-01 -1.858671e+00 3.710597e-01 -1.672931e-01 -9.433611e-02 1.157960e+00 5.421636e-01 1.078237e+00 2.007801e-01 2.768527e-01 2.072494e-01 5.079347e-01 5.821975e-01 -5.575011e-01
<VARIANCE> 25
 4.285724e+01 3.977776e+01 4.546972e+01 4.946395e+01 5.606766e+01 4.806249e+01 4.496740e+01 3.929195e+01 3.833765e+01 3.267302e+01 3.007348e+01 2.573477e+01 3.977044e+00 4.866106e+00 5.188394e+00 6.604634e+00 6.674346e+00 5.539200e+00 4.939745e+00 4.873405e+00 4.632619e+00 3.912995e+00 3.789052e+00 2.969780e+00 8.897852e+00
<GCONST> 1.110590e+02
<STATE> 4
<MEAN> 25
 -4.145926e+00 3.804227e-01 2.880773e+00 2.769392e-01 -3.830559e-01 -2.249678e+00 9.021134e-01 2.771226e-01 4.177664e-01 -2.649666e-01 7.202376e-01 9.540994e-01 -3.244244e-01 -8.336449e-02 2.794812e-01 -2.488499e-01 -2.120524e-01 -2.649995e-01 9.650021e-02 6.650050e-02 -1.427207e-01 1.097113e-02 1.739071e-01 1.486551e-01 3.247394e-01
<VARIANCE> 25
 7.746683e+01 3.647804e+01 4.572795e+01 4.579387e+01 5.606724e+01 4.623911e+01 4.899572e+01 4.081182e+01 3.622579e+01 3.198525e+01 2.942608e+01 2.532114e+01 3.022238e+00 2.060952e+00 2.803844e+00 3.102813e+00 3.256255e+00 3.301269e+00 3.049758e+00 2.972236e+00 2.852088e+00 2.458387e+00 2.398596e+00 2.040560e+00 2.769652e+00
<GCONST> 1.037961e+02
<TRANSP> 5
 0.000000e+00 1.000000e+00 0.000000e+00 0.000000e+00 0.000000e+00
 0.000000e+00 5.832467e-01 4.167533e-01 0.000000e+00 0.000000e+00
 0.000000e+00 0.000000e+00 4.814627e-01 5.185372e-01 0.000000e+00
 0.000000e+00 0.000000e+00 0.000000e+00 5.801705e-01 4.198295e-01
 0.000000e+00 0.000000e+00 0.000000e+00 0.000000e+00 0.000000e+00
<ENDHMM>
~h "eh"
<BEGINHMM>
<NUMSTATES> 5
<STATE> 2
<MEAN> 25
 1.740763e+00 -9.923308e-01 1.334307e+00 -5.623406e-01 -3.516911e+00 -4.877480e+00 -2.046813e+00 -1.861634e-01 5.789578e-01 -5.615354e-01 -1.467286e+00 -1.479002e+00 1.822854e+00 -1.716969e+00 2.652250e-01 -1.192209e+00 -2.081461e+00 -1.203799e+00 -1.202930e+00 9.255334e-01 4.402871e-01 -3.084185e-01 -6.906477e-01 -7.016028e-01 2.258353e+00
<VARIANCE> 25
 5.142483e+01 4.622089e+01 4.797389e+01 4.432061e+01 6.245354e+01 5.604282e+01 6.499242e+01 5.020652e+01 4.657433e+01 3.992725e+01 3.590375e+01 3.314268e+01 6.695955e+00 4.380207e+00 4.330166e+00 4.723825e+00 5.738982e+00 5.678201e+00 6.846854e+00 6.279454e+00 5.787139e+00 4.598092e+00 4.406456e+00 3.839969e+00 4.653106e+00
<GCONST> 1.135325e+02
<STATE> 3
<MEAN> 25
 5.625151e+00 -7.141552e+00 2.018652e+00 -4.355224e+00 -9.207310e+00 -6.435144e+00 -4.106169e+00 4.246037e+00 1.444043e+00 -1.328786e+00 -2.645274e+00 -3.252531e+00 2.798631e-01 -1.319133e+00 -1.248508e-01 -5.982242e-01 -5.691318e-01 1.800852e-01 2.444762e-01 1.242611e+00 2.170123e-01 -4.175999e-01 -4.336658e-01 -2.971902e-01 8.564661e-01
<VARIANCE> 25
 1.697562e+01 3.670382e+01 5.435975e+01 3.648196e+01 5.665553e+01 5.224076e+01 6.218845e+01 5.255840e+01 5.786132e+01 4.642507e+01 4.315635e+01 3.422071e+01 1.280133e+00 2.013023e+00 2.868128e+00 2.531456e+00 3.316121e+00 3.359620e+00 3.863100e+00 3.693009e+00 3.326053e+00 3.048469e+00 2.889863e+00 2.409064e+00 1.121160e+00
<GCONST> 1.036214e+02
<STATE> 4
<MEAN> 25
 5.960021e+00 -8.104129e+00 6.906845e-01 -3.831259e+00 -8.238492e+00 -5.699470e+00 -2.448671e+00 5.570835e+00 1.531675e+00 -2.639065e+00 -3.561088e+00 -3.297791e+00 9.431865e-02 2.829682e-01 -1.635042e-01 2.517014e-01 4.470585e-01 1.058784e-01 -8.903464e-02 -2.061369e-01 -8.577095e-02 1.775772e-03 -2.748646e-03 4.715084e-02 -4.207846e-01
<VARIANCE> 25
 1.484052e+01 3.410635e+01 4.760955e+01 3.310929e+01 5.390419e+01 5.388183e+01 5.911508e+01 5.108525e+01 5.470396e+01 4.523650e+01 4.156098e+01 3.352472e+01 4.466519e-01 1.154390e+00 1.489915e+00 1.300230e+00 1.682239e+00 1.826833e+00 2.093128e+00 2.134189e+00 1.864999e+00 1.733337e+00 1.634805e+00 1.385701e+00 6.057873e-01
<GCONST> 9.468502e+01
<TRANSP> 5
 0.000000e+00 1.000000e+00 0.000000e+00 0.000000e+00 0.000000e+00
 0.000000e+00 5.958020e-01 4.041980e-01 0.000000e+00 0.000000e+00
 0.000000e+00 0.000000e+00 4.456280e-01 5.543721e-01 0.000000e+00
 0.000000e+00 0.000000e+00 0.000000e+00 7.936784e-01 2.063216e-01
 0.000000e+00 0.000000e+00 0.000000e+00 0.000000e+00 0.000000e+00
<ENDHMM>
~h "er"
<BEGINHMM>
<NUMSTATES> 5
<STATE> 2
<MEAN> 25
 6.055224e+00 -2.986088e+00 -2.609052e+00 -6.808215e-02 -1.925192e+00 -5.452719e+00 -6.453188e+00 -3.984954e-01 1.119624e+00 -6.317319e-01 -5.716542e-01 -1.089197e+00 2.220485e+00 -9.177184e-01 -1.206263e+00 -2.336679e-01 -3.298413e-01 -1.178360e+00 -2.331348e+00 4.408721e-01 6.514468e-01 -2.595353e-02 -2.782471e-01 -1.288214e-01 8.733431e-01
<VARIANCE> 25
 4.642711e+01 3.497886e+01 6.225570e+01 4.528701e+01 5.806572e+01 5.929687e+01 6.832386e+01 5.606329e+01 4.700543e+01 4.223495e+01 3.616881e+01 3.303627e+01 5.059747e+00 3.217929e+00 3.829380e+00 4.161829e+00 5.411178e+00 4.914522e+00 6.106325e+00 5.538602e+00 4.710485e+00 3.966262e+00 3.434655e+00 3.255557e+00 2.118599e+00
<GCONST> 1.108111e+02
<STATE> 3
<MEAN> 25
 1.113130e+01 -5.815489e+00 -8.522776e+00 3.391551e-01 7.031844e-01 -7.988802e+00 -1.386845e+01 2.460799e+00 4.607300e+00 -9.582022e-01 -1.445786e+00 -3.119812e-01 -2.362355e-02 -1.644685e-02 9.217416e-02 3.987885e-01 7.613424e-02 -2.528966e-01 -7.752553e-03 2.864883e-01 1.779608e-01 -1.445829e-01 -2.534035e-01 1.168545e-01 -2.951307e-01
<VARIANCE> 25
 2.179593e+01 3.117607e+01 6.351689e+01 5.096490e+01 7.078033e+01 7.256131e+01 8.962598e+01 8.334415e+01 6.305779e+01 5.278040e+01 4.070116e+01 3.817028e+01 7.669911e-01 1.365449e+00 2.360932e+00 1.865892e+00 2.697109e+00 2.594324e+00 3.623455e+00 3.043526e+00 2.682131e+00 2.508750e+00 2.158862e+00 1.829376e+00 8.795657e-01
<GCONST> 1.024985e+02
<STATE> 4
<MEAN> 25
 7.145790e+00 -3.456253e+00 -3.715750e+00 1.338254e+00 -1.393974e+00 -6.066103e+00 -6.635824e+00 1.610512e+00 3.429216e+00 -2.633554e-01 -2.116779e+00 -5.180486e-01 -3.653893e-01 3.158257e-01 4.460715e-01 1.881869e-01 5.933593e-02 3.024300e-01 5.669745e-01 -1.352797e-01 -3.116053e-01 -6.138896e-02 2.743095e-02 4.720248e-02 -4.702777e-01
<VARIANCE> 25
 2.900780e+01 3.034601e+01 3.928704e+01 4.153285e+01 4.952252e+01 6.283541e+01 6.702135e+01 4.897432e+01 4.239607e+01 4.216143e+01 3.466963e+01 3.153605e+01 6.063878e-01 9.283618e-01 1.491434e+00 1.316575e+00 1.774666e+00 1.899747e+00 2.363059e+00 1.981258e+00 1.861082e+00 1.734000e+00 1.611475e+00 1.409159e+00 5.321026e-01
<GCONST> 9.496938e+01
<TRANSP> 5
 0.000000e+00 1.000000e+00 0.000000e+00 0.000000e+00 0.000000e+00
 0.000000e+00 6.418760e-01 3.581240e-01 0.000000e+00 0.000000e+00
 0.000000e+00 0.000000e+00 7.267548e-01 2.732452e-01 0.000000e+00
 0.000000e+00 0.000000e+00 0.000000e+00 7.893511e-01 2.106489e-01
 0.000000e+00 0.000000e+00 0.000000e+00 0.000000e+00 0.000000e+00
<ENDHMM>
~h "ey"
<BEGINHMM>
<NUMSTATES> 5
<STATE> 2
<MEAN> 25
 4.360381e+00 -4.087420e+00 3.825766e+00 -1.787340e+00 -8.300565e+00 -7.040892e+00 -3.050674e+00 1.927118e+00 2.639127e-01 -1.540592e+00 -1.618875e+00 -1.697675e+00 6.133637e-01 -1.138510e+00 1.373941e+00 -8.299783e-01 -2.563580e+00 -8.781573e-01 -1.036743e-01 9.283372e-01 -4.931987e-01 -4.209807e-01 3.545152e-01 1.047068e-01 1.445897e+00
<VARIANCE> 25
 2.550243e+01 4.589954e+01 4.695425e+01 4.037632e+01 6.031094e+01 5.048237e+01 5.934223e+01 5.436935e+01 5.306882e+01 3.959238e+01 4.021280e+01 3.107522e+01 3.867290e+00 3.336600e+00 3.422523e+00 3.881381e+00 4.513900e+00 4.866122e+00 6.082691e+00 5.293756e+00 4.918604e+00 3.840385e+00 3.857180e+00 3.220861e+00 2.714094e+00
<GCONST> 1.096028e+02
<STATE> 3
<MEAN> 25
 4.359761e+00 -6.334913e+00 9.547390e+00 -4.053604e+00 -1.581336e+01 -7.306473e+00 -2.103626e+00 3.266802e+00 -3.653177e+00 -1.606536e+00 2.370638e+00 -1.324542e+00 -2.496174e-01 4.659261e-01 9.740047e-01 -1.543608e-01 -5.315500e-01 3.663414e-01 1.417562e-01 -7.650629e-01 -8.799696e-01 2.849226e-01 4.792704e-01 -1.499228e-01 -2.555246e-01
<VARIANCE> 25
 1.267252e+01 2.823474e+01 4.358574e+01 3.451076e+01 4.191776e+01 4.382506e+01 4.902370e+01 4.532733e+01 4.725136e+01 3.952779e+01 3.886382e+01 2.871364e+01 2.919886e-01 8.582473e-01 1.170001e+00 1.044151e+00 1.242732e+00 1.445223e+00 1.613671e+00 1.956054e+00 1.840309e+00 1.590136e+00 1.476857e+00 1.212086e+00 3.325596e-01
<GCONST> 9.002137e+01
<STATE> 4
<MEAN> 25
 2.731238e+00 -1.328365e-01 1.263480e+01 -3.577922e+00 -1.409534e+01 -4.025678e+00 -1.786444e+00 -4.209087e+00 -6.357680e+00 3.678673e-01 1.544858e+00 -2.265495e+00 -1.938567e-02 5.403251e-01 -2.772394e-01 5.830050e-01 9.505875e-01 1.908893e-01 -3.352010e-02 -2.876569e-01 7.013785e-02 -1.063744e-01 -3.296893e-01 2.260237e-02 -7.994953e-01
<VARIANCE> 25
 1.283969e+01 2.522035e+01 4.473483e+01 5.219555e+01 4.726107e+01 5.593105e+01 4.728273e+01 4.979631e+01 4.738747e+01 4.330655e+01 3.853819e+01 2.973975e+01 5.161070e-01 1.068341e+00 1.713727e+00 1.530954e+00 2.138362e+00 1.968845e+00 2.138853e+00 2.249636e+00 2.040136e+00 1.809930e+00 1.641859e+00 1.414412e+00 7.163860e-01
<GCONST> 9.499062e+01
<TRANSP> 5
 0.000000e+00 1.000000e+00 0.000000e+00 0.000000e+00 0.000000e+00
 0.000000e+00 6.930305e-01 3.069695e-01 0.000000e+00 0.000000e+00
 0.000000e+00 0.000000e+00 7.910333e-01 2.089667e-01 0.000000e+00
 0.000000e+00 0.000000e+00 0.000000e+00 8.038400e-01 1.961601e-01
 0.000000e+00 0.000000e+00 0.000000e+00 0.000000e+00 0.000000e+00
<ENDHMM>
~h "hh"
<BEGINHMM>
<NUMSTATES> 5
<STATE> 2
<MEAN> 25
 -1.630939e+00 -1.609422e-01 1.722543e+00 1.018721e+00 1.045475e+00 5.697193e-01 2.761625e+00 1.354462e+00 2.479730e-01 -1.330826e-01 -6.429638e-01 7.245550e-01 -5.720351e-01 -6.458781e-01 1.829493e-01 -2.892927e-01 1.912287e-01 5.014525e-01 6.814830e-01 4.171569e-01 2.319651e-01 -1.553917e-01 -1.251364e-01 1.672963e-01 3.754325e-01
<VARIANCE> 25
 5.706281e+01 3.737201e+01 5.265485e+01 4.598736e+01 5.642685e+01 5.866022e+01 5.125479e+01 4.895105e+01 4.509113e+01 4.139682e+01 3.679798e+01 3.055442e+01 3.775062e+00 3.236952e+00 3.889742e+00 4.396421e+00 4.906312e+00 4.617717e+00 4.626675e+00 4.845309e+00 4.276602e+00 3.795948e+00 3.420942e+00 2.835807e+00 4.119930e+00
<GCONST> 1.099409e+02
<STATE> 3
<MEAN> 25
 -2.807508e+00 -3.080972e+00 1.854620e+00 -1.053052e+00 2.485982e-01 1.268176e+00 4.902369e+00 2.010645e+00 1.950599e-01 -1.195417e+00 -1.277710e+00 6.201820e-01 -1.332772e-01 -3.271331e-01 -4.993683e-02 -1.550733e-01 -6.567360e-02 1.573150e-01 1.838828e-01 -3.681052e-02 3.007665e-02 -2.668947e-02 -5.480893e-02 1.438420e-02 1.280612e-01
<VARIANCE> 25
 4.939232e+01 4.377288e+01 6.040741e+01 4.628701e+01 6.355635e+01 5.938521e+01 6.607857e+01 5.528108e+01 4.859680e+01 4.584259e+01 3.894516e+01 3.261946e+01 1.388345e+00 1.560856e+00 1.992477e+00 2.122127e+00 2.630139e+00 2.721789e+00 2.783219e+00 2.950476e+00 2.723858e+00 2.560671e+00 2.379785e+00 2.003834e+00 1.202605e+00
<GCONST> 1.028347e+02
<STATE> 4
<MEAN> 25
 -2.769977e+00 -1.402606e+00 7.839029e-02 1.076000e+00 2.132547e+00 2.096610e+00 3.174914e+00 1.796252e+00 1.092118e+00 4.753500e-01 3.146393e-01 1.551003e+00 1.258379e-01 3.435044e-02 6.241662e-02 -1.954806e-02 -1.185060e-01 -1.628553e-02 -7.715549e-02 -1.092986e-01 -7.843494e-02 -2.769597e-02 -5.741810e-02 -6.901148e-02 5.570725e-02
<VARIANCE> 25
 2.134921e+01 2.335181e+01 2.936134e+01 2.526886e+01 3.179762e+01 2.991656e+01 3.062913e+01 2.862480e+01 2.622351e+01 2.582401e+01 2.436790e+01 1.992742e+01 6.211806e-01 7.111989e-01 9.648380e-01 1.056883e+00 1.362252e+00 1.500077e+00 1.619043e+00 1.715558e+00 1.703690e+00 1.651741e+00 1.563169e+00 1.385609e+00 4.136391e-01
<GCONST> 8.696876e+01
<TRANSP> 5
 0.000000e+00 1.000000e+00 0.000000e+00 0.000000e+00 0.000000e+00
 0.000000e+00 5.699957e-01 4.300043e-01 0.000000e+00 0.000000e+00
 0.000000e+00 0.000000e+00 4.612004e-01 5.387996e-01 0.000000e+00
 0.000000e+00 0.000000e+00 0.000000e+00 8.240361e-01 1.759639e-01
 0.000000e+00 0.000000e+00 0.000000e+00 0.000000e+00 0.000000e+00
<ENDHMM>
~h "ih"
<BEGINHMM>
<NUMSTATES> 5
<STATE> 2
<MEAN> 25
 -5.802524e-01 6.497739e-01 3.682490e+00 7.070735e-01 -2.647085e+00 -3.822349e+00 -9.825778e-01 -9.522643e-01 -1.083007e+00 -5.545511e-01 -3.546124e-01 2.594207e-02 1.615796e+00 -5.632009e-01 1.616706e+00 -5.607759e-01 -2.397838e+00 -1.773860e+00 -1.501693e+00 -1.529690e-01 -7.205999e-01 -6.073149e-01 -2.369012e-01 -4.444907e-01 1.964911e+00
<VARIANCE> 25
 5.593500e+01 3.662278e+01 4.801683e+01 4.114505e+01 5.594267e+01 5.935373e+01 6.622739e+01 4.707633e+01 4.180355e+01 3.702442e+01 3.180455e+01 2.879575e+01 6.412388e+00 4.214521e+00 4.679029e+00 5.219105e+00 6.318146e+00 5.573035e+00 6.456746e+00 5.777666e+00 5.597980e+00 4.289347e+00 3.968778e+00 3.356354e+00 5.846585e+00
<GCONST> 1.126839e+02
<STATE> 3
<MEAN> 25
 4.416893e+00 -2.238914e+00 8.348940e+00 -1.997234e+00 -1.062942e+01 -7.700575e+00 -5.575548e+00 -7.524903e-01 -3.986361e+00 -2.098559e+00 5.874582e-02 -1.541317e+00 5.387377e-01 -7.095059e-01 7.451468e-01 -4.844278e-01 -1.467696e+00 -6.034964e-01 -5.961941e-01 4.470463e-01 -3.343559e-01 -2.666104e-01 2.739169e-01 -4.191600e-02 9.295796e-01
<VARIANCE> 25
 1.957746e+01 3.876049e+01 6.370722e+01 4.825180e+01 6.068959e+01 5.488623e+01 6.158221e+01 5.854403e+01 6.019059e+01 4.824298e+01 4.002745e+01 3.208317e+01 2.408512e+00 2.969518e+00 3.430399e+00 3.655551e+00 5.068978e+00 4.294518e+00 5.420510e+00 4.760386e+00 4.197068e+00 3.716806e+00 3.326962e+00 2.720856e+00 2.468564e+00
<GCONST> 1.087235e+02
<STATE> 4
<MEAN> 25
 4.266671e+00 -2.197598e+00 8.284623e+00 -1.499078e+00 -1.108607e+01 -8.059992e+00 -5.163345e+00 -1.705645e-01 -3.690644e+00 -2.369012e+00 3.878296e-01 -9.168588e-01 -8.657823e-02 3.593159e-01 -3.620456e-01 2.805758e-01 6.967071e-01 1.138596e-01 1.445015e-01 -8.420129e-02 1.804373e-01 1.532320e-02 -2.184590e-01 3.536242e-02 -4.677214e-01
<VARIANCE> 25
 1.514165e+01 3.509505e+01 5.254041e+01 4.039847e+01 5.453724e+01 4.914640e+01 5.609666e+01 5.580513e+01 5.584799e+01 4.350479e+01 3.749835e+01 3.039323e+01 7.983093e-01 1.480301e+00 1.692362e+00 1.703537e+00 2.610977e+00 2.285102e+00 2.531978e+00 2.503983e+00 2.351089e+00 2.037501e+00 1.880375e+00 1.608575e+00 1.133019e+00
<GCONST> 9.831661e+01
<TRANSP> 5
 0.000000e+00 1.000000e+00 0.000000e+00 0.000000e+00 0.000000e+00
 0.000000e+00 5.480494e-01 4.519506e-01 0.000000e+00 0.000000e+00
 0.000000e+00 0.000000e+00 4.554321e-01 5.445679e-01 0.000000e+00
 0.000000e+00 0.000000e+00 0.000000e+00 7.414295e-01 2.585705e-01
 0.000000e+00 0.000000e+00 0.000000e+00 0.000000e+00 0.000000e+00
<ENDHMM>
~h "ix"
<BEGINHMM>
<NUMSTATES> 5
<STATE> 2
<MEAN> 25
 -9.090164e-02 2.874383e-01 3.481642e+00 1.656128e-02 -2.602590e+00 -4.033138e+00 -1.783364e+00 -6.263285e-01 -9.116558e-01 -7.428366e-01 -4.176307e-01 -1.279436e-01 1.120647e+00 -5.889472e-01 1.401734e+00 -5.313770e-01 -1.937250e+00 -1.083962e+00 -8.114182e-01 1.871392e-01 -6.681842e-01 -4.928077e-01 -1.044479e-01 -3.161252e-01 1.357445e+00
<VARIANCE> 25
 6.820469e+01 4.695924e+01 6.110541e+01 5.455258e+01 6.602614e+01 6.815985e+01 6.774567e+01 5.463835e+01 5.101314e+01 4.320705e+01 3.690279e+01 3.285875e+01 6.958421e+00 4.353228e+00 5.131678e+00 5.874584e+00 7.057208e+00 6.086532e+00 6.770128e+00 6.241450e+00 5.783281e+00 4.577796e+00 4.236746e+00 3.553501e+00 6.338417e+00
<GCONST> 1.157128e+02
<STATE> 3
<MEAN> 25
 4.279372e+00 -2.491196e+00 7.936033e+00 -1.601157e+00 -9.665984e+00 -7.030450e+00 -4.483778e+00 6.600039e-01 -3.562769e+00 -2.627807e+00 -9.826795e-02 -1.299432e+00 5.482587e-01 -2.948044e-01 1.154526e+00 -4.907408e-01 -1.592995e+00 3.012498e-02 -1.447890e-02 2.115423e-01 -9.550583e-01 -1.298696e-01 4.615002e-01 -3.205959e-01 5.267084e-01
<VARIANCE> 25
 1.795703e+01 3.700279e+01 5.718070e+01 4.462126e+01 5.753218e+01 5.135431e+01 5.469846e+01 5.594206e+01 5.410400e+01 4.371047e+01 3.742430e+01 2.895475e+01 2.814768e+00 2.746751e+00 3.275879e+00 3.595725e+00 4.563479e+00 4.208033e+00 5.143898e+00 4.735949e+00 4.725469e+00 3.801248e+00 3.444180e+00 2.726902e+00 2.099776e+00
<GCONST> 1.075938e+02
<STATE> 4
<MEAN> 25
 3.818968e+00 -1.469311e+00 9.656479e+00 -1.858559e+00 -1.086067e+01 -5.931400e+00 -3.295140e+00 -2.819212e-01 -4.932084e+00 -2.135170e+00 6.858798e-01 -1.651511e+00 2.995326e-02 4.730745e-01 -2.350403e-01 2.926905e-01 5.830787e-01 4.218000e-01 3.275471e-01 -2.093604e-01 -1.214415e-01 9.331168e-02 -1.104423e-01 -1.659407e-01 -5.543408e-01
<VARIANCE> 25
 1.556107e+01 3.312269e+01 5.662963e+01 4.686951e+01 5.688639e+01 5.062934e+01 5.500549e+01 6.018180e+01 5.563715e+01 4.587192e+01 3.858780e+01 2.989936e+01 1.046825e+00 1.651002e+00 2.132428e+00 2.134817e+00 2.997679e+00 2.604070e+00 2.817788e+00 2.968582e+00 2.997284e+00 2.483392e+00 2.176922e+00 1.874952e+00 1.401201e+00
<GCONST> 1.010346e+02
<TRANSP> 5
 0.000000e+00 1.000000e+00 0.000000e+00 0.000000e+00 0.000000e+00
 0.000000e+00 5.718024e-01 4.281977e-01 0.000000e+00 0.000000e+00
 0.000000e+00 0.000000e+00 3.052989e-01 6.947011e-01 0.000000e+00
 0.000000e+00 0.000000e+00 0.000000e+00 6.492031e-01 3.507969e-01
 0.000000e+00 0.000000e+00 0.000000e+00 0.000000e+00 0.000000e+00
<ENDHMM>
~h "iy"
<BEGINHMM>
<NUMSTATES> 5
<STATE> 2
<MEAN> 25
 5.781118e-01 8.098195e-01 9.659133e+00 4.401045e-01 -6.959302e+00 -5.006283e+00 -2.733014e+00 -2.941246e+00 -4.496403e+00 -2.468347e+00 3.165491e-01 -6.679525e-01 9.390204e-01 6.358322e-02 2.686220e+00 -5.093271e-01 -2.824909e+00 -3.867984e-01 -7.797325e-01 -7.926416e-01 -1.768992e+00 -5.738588e-01 3.485349e-01 -5.486642e-01 1.068425e+00
<VARIANCE> 25
 4.541578e+01 3.987701e+01 6.097987e+01 4.475740e+01 6.661568e+01 6.258138e+01 6.315451e+01 5.635121e+01 5.172641e+01 4.284619e+01 3.323431e+01 2.847917e+01 5.269728e+00 3.368465e+00 3.961608e+00 4.976517e+00 5.118336e+00 5.788336e+00 7.295399e+00 6.023255e+00 4.856014e+00 4.735982e+00 3.880544e+00 3.219296e+00 2.563821e+00
<GCONST> 1.120607e+02
<STATE> 3
<MEAN> 25
 2.090803e+00 4.759238e-01 1.716531e+01 -3.374285e+00 -1.443349e+01 -3.144750e+00 -5.920128e+00 -5.369222e+00 -9.713376e+00 -2.466674e+00 1.394658e+00 -3.680689e+00 -3.468504e-02 2.965194e-01 1.966075e-01 -1.569099e-01 -4.811031e-02 4.508950e-01 1.204910e-01 -3.816851e-01 -1.052829e-01 2.711492e-01 -6.797689e-02 -1.912960e-01 -3.061371e-01
<VARIANCE> 25
 1.569977e+01 3.441363e+01 5.664859e+01 6.155811e+01 5.041198e+01 5.796659e+01 5.134252e+01 6.062545e+01 5.513929e+01 6.216795e+01 4.991998e+01 3.678322e+01 8.394475e-01 1.631527e+00 2.818984e+00 2.583563e+00 3.156406e+00 3.220159e+00 2.878609e+00 3.010613e+00 2.789015e+00 2.440766e+00 2.150677e+00 1.873556e+00 1.204185e+00
<GCONST> 1.023502e+02
<STATE> 4
<MEAN> 25
 1.797910e+00 2.914375e+00 1.304879e+01 -9.106389e-01 -1.008897e+01 -2.143724e+00 -2.853993e+00 -6.269505e+00 -6.304963e+00 -1.652598e+00 3.642071e-01 -1.793930e+00 -4.501149e-03 3.362387e-03 -7.907466e-01 3.125820e-01 7.301200e-01 -4.601766e-02 3.254887e-01 3.512235e-01 3.912494e-01 9.067342e-02 -1.061552e-01 1.610570e-01 -4.361827e-01
<VARIANCE> 25
 1.400390e+01 2.557916e+01 5.372966e+01 4.354315e+01 5.828750e+01 5.043009e+01 4.576205e+01 4.895958e+01 4.204622e+01 4.095132e+01 3.254433e+01 2.608385e+01 5.674627e-01 9.954780e-01 1.882237e+00 1.476040e+00 2.477253e+00 2.162106e+00 2.081264e+00 2.261983e+00 2.110634e+00 1.790072e+00 1.632541e+00 1.389402e+00 6.672060e-01
<GCONST> 9.490302e+01
<TRANSP> 5
 0.000000e+00 1.000000e+00 0.000000e+00 0.000000e+00 0.000000e+00
 0.000000e+00 6.530282e-01 3.469717e-01 0.000000e+00 0.000000e+00
 0.000000e+00 0.000000e+00 7.130633e-01 2.869367e-01 0.000000e+00
 0.000000e+00 0.000000e+00 0.000000e+00 8.079507e-01 1.920494e-01
 0.000000e+00 0.000000e+00 0.000000e+00 0.000000e+00 0.000000e+00
<ENDHMM>
~h "jh"
<BEGINHMM>
<NUMSTATES> 5
<STATE> 2
<MEAN> 25
 -1.213026e+00 2.362334e+00 6.715091e+00 2.690523e+00 -3.417580e-01 6.668862e-01 -9.617491e-01 -2.415390e+00 -6.464614e-01 -2.214737e+00 -1.248936e+00 -2.297258e-01 -2.796942e+00 -4.251909e-01 4.156033e-01 -6.504760e-01 4.050590e-01 1.143336e+00 9.816822e-01 -1.340380e-01 9.128904e-01 1.276699e-01 4.528210e-01 3.359726e-01 7.403145e-01
<VARIANCE> 25
 5.806089e+01 4.810631e+01 4.468013e+01 4.994398e+01 4.934173e+01 4.917775e+01 4.198561e+01 4.122349e+01 4.008050e+01 3.192184e+01 2.837007e+01 2.314678e+01 5.993557e+00 6.089410e+00 4.266659e+00 6.106812e+00 5.621944e+00 4.410454e+00 4.431453e+00 4.385330e+00 4.052797e+00 3.462216e+00 3.253282e+00 2.607163e+00 8.278130e+00
<GCONST> 1.104121e+02
<STATE> 3
<MEAN> 25
 -1.413862e+01 3.937734e-02 1.032798e+01 -8.812543e-01 -2.938217e+00 1.224785e+00 3.518893e+00 -3.531433e+00 2.631150e+00 -2.277902e+00 1.241804e+00 9.930882e-01 -1.404589e-02 -1.034081e-02 5.775322e-01 3.079877e-01 -1.087639e+00 -1.683567e+00 -1.548863e-01 1.159418e-01 -2.534198e-01 -3.738796e-01 1.183063e-01 7.630882e-02 1.078686e+00
<VARIANCE> 25
 6.073890e+01 3.577340e+01 4.427700e+01 4.507277e+01 4.464351e+01 5.801493e+01 4.867424e+01 3.806202e+01 3.492756e+01 3.072910e+01 2.571572e+01 2.117611e+01 1.225401e+01 2.661674e+00 3.343575e+00 3.269624e+00 3.323024e+00 4.742637e+00 5.197420e+00 3.175410e+00 3.021276e+00 2.507786e+00 2.216091e+00 1.888732e+00 1.959342e+00
<GCONST> 1.054586e+02
<STATE> 4
<MEAN> 25
 -9.667296e+00 -7.625095e-01 6.445542e+00 1.095620e+00 -1.733603e+00 -4.206039e-01 2.562499e+00 -4.269090e-01 2.325627e+00 -1.322675e+00 1.126984e+00 1.556218e+00 1.478885e+00 -7.904573e-02 -5.513623e-01 1.392114e-01 -7.526122e-02 -4.520220e-01 -6.017342e-01 1.552168e-01 -1.133950e-01 6.252581e-02 -1.175212e-01 -9.997578e-02 -4.096137e-01
<VARIANCE> 25
 7.393103e+01 3.283799e+01 4.964947e+01 3.687552e+01 4.925431e+01 5.670763e+01 4.454890e+01 3.579433e+01 3.134166e+01 2.984756e+01 2.383011e+01 2.032421e+01 4.900113e+00 1.795103e+00 2.282597e+00 1.975990e+00 2.710626e+00 3.331241e+00 3.322047e+00 2.536114e+00 2.341934e+00 2.183635e+00 1.932693e+00 1.725281e+00 1.984723e+00
<GCONST> 1.011215e+02
<TRANSP> 5
 0.000000e+00 1.000000e+00 0.000000e+00 0.000000e+00 0.000000e+00
 0.000000e+00 7.692874e-01 2.307126e-01 0.000000e+00 0.000000e+00
 0.000000e+00 0.000000e+00 6.429861e-01 3.570139e-01 0.000000e+00
 0.000000e+00 0.000000e+00 0.000000e+00 7.481059e-01 2.518941e-01
 0.000000e+00 0.000000e+00 0.000000e+00 0.000000e+00 0.000000e+00
<ENDHMM>
~h "ng"
<BEGINHMM>
<NUMSTATES> 5
<STATE> 2
<MEAN> 25
 4.568166e+00 -2.147419e-01 9.765646e+00 -4.189301e+00 -1.147244e+01 8.148955e-02 4.103812e-01 -2.979969e+00 -9.474837e+00 -3.244253e-01 1.383024e+00 -5.867204e+00 4.507321e-01 1.242029e+00 -6.560595e-01 1.019878e+00 1.051656e+00 2.481574e-01 2.627971e-01 -1.521357e+00 -5.746787e-01 9.620998e-01 -3.372969e-01 -6.435742e-01 -1.287188e+00
<VARIANCE> 25
 1.625209e+01 2.506246e+01 5.707992e+01 5.174161e+01 6.507330e+01 5.883778e+01 5.207990e+01 6.302423e+01 5.394051e+01 5.004016e+01 5.090775e+01 3.583594e+01 7.619874e-01 1.405057e+00 3.245458e+00 3.139813e+00 3.531789e+00 4.196363e+00 3.144041e+00 3.670095e+00 3.478153e+00 3.074253e+00 2.852619e+00 2.615560e+00 7.981648e-01
<GCONST> 1.033888e+02
<STATE> 3
<MEAN> 25
 7.114829e+00 3.891064e+00 4.308840e+00 2.432226e+00 -5.779769e+00 -2.667381e+00 4.516752e-01 -7.143789e+00 -8.550739e+00 8.210456e-01 -1.159271e+00 -5.580331e+00 2.650372e-01 6.918726e-01 -9.479322e-01 1.269732e+00 1.186623e+00 -3.237987e-01 -6.243740e-02 -3.449094e-01 5.922148e-01 -2.781669e-01 -4.091428e-01 4.922445e-01 -1.074914e+00
<VARIANCE> 25
 1.636126e+01 2.137740e+01 3.258299e+01 4.469075e+01 4.156934e+01 4.291121e+01 4.829647e+01 5.269587e+01 4.796360e+01 4.488615e+01 4.389265e+01 3.459996e+01 1.262584e+00 1.375265e+00 2.941281e+00 2.949835e+00 3.858831e+00 3.606839e+00 3.381775e+00 3.978055e+00 3.393775e+00 2.986108e+00 2.778817e+00 2.305614e+00 8.754685e-01
<GCONST> 1.014014e+02
<STATE> 4
<MEAN> 25
 4.278342e+00 3.841606e+00 2.491535e+00 3.115979e+00 -1.246608e+00 -9.705236e-01 5.362495e-01 -3.998223e+00 -4.219299e+00 -6.545908e-01 -1.151738e+00 -2.054993e+00 -3.216643e-01 8.595026e-03 -1.543977e-01 1.003756e-01 4.379531e-01 1.622962e-01 4.012920e-02 2.783587e-01 2.857229e-01 -4.737373e-02 -8.187208e-03 2.055439e-01 -3.408926e-01
<VARIANCE> 25
 2.326554e+01 1.796799e+01 2.167354e+01 2.454931e+01 3.602059e+01 3.064711e+01 3.460979e+01 4.064595e+01 3.722345e+01 2.743838e+01 2.543065e+01 2.506946e+01 5.839850e-01 8.311765e-01 9.995519e-01 1.174324e+00 1.696674e+00 1.607022e+00 1.706615e+00 1.979613e+00 1.889223e+00 1.695181e+00 1.552057e+00 1.400661e+00 4.144994e-01
<GCONST> 8.861913e+01
<TRANSP> 5
 0.000000e+00 1.000000e+00 0.000000e+00 0.000000e+00 0.000000e+00
 0.000000e+00 6.230297e-01 3.769703e-01 0.000000e+00 0.000000e+00
 0.000000e+00 0.000000e+00 6.047354e-01 3.952645e-01 0.000000e+00
 0.000000e+00 0.000000e+00 0.000000e+00 8.213127e-01 1.786873e-01
 0.000000e+00 0.000000e+00 0.000000e+00 0.000000e+00 0.000000e+00
<ENDHMM>
~h "ow"
<BEGINHMM>
<NUMSTATES> 5
<STATE> 2
<MEAN> 25
 6.010101e+00 -2.869642e+00 -1.750065e+00 -4.702524e+00 -3.424583e+00 -1.123992e+00 -5.781491e+00 -1.882943e+00 1.121089e+00 1.034741e+00 -1.715112e+00 -3.765198e+00 1.187325e+00 -7.225536e-01 -9.240618e-01 -1.870161e+00 -6.977228e-01 9.779979e-01 -7.360814e-01 -2.846324e-01 2.537577e-01 5.026913e-01 2.401643e-01 -5.511004e-01 1.111373e+00
<VARIANCE> 25
 2.681096e+01 4.425132e+01 4.519518e+01 6.164280e+01 5.525196e+01 6.509572e+01 6.448684e+01 5.770175e+01 5.789208e+01 5.382418e+01 5.126782e+01 3.820995e+01 3.563749e+00 3.625043e+00 3.290158e+00 4.601325e+00 5.437046e+00 4.818377e+00 5.349322e+00 6.272858e+00 6.000594e+00 4.574544e+00 4.137362e+00 3.464708e+00 2.941691e+00
<GCONST> 1.121008e+02
<STATE> 3
<MEAN> 25
 9.349946e+00 -3.140604e+00 -5.272503e+00 -1.165796e+01 -4.967980e+00 4.916784e+00 -5.805623e+00 -5.232028e+00 -1.539980e+00 2.981658e+00 2.441154e+00 -3.215986e+00 2.684101e-01 6.704414e-01 -2.167791e-02 -6.234174e-01 -4.102362e-01 5.998594e-01 5.053501e-01 -2.468072e-01 -7.991241e-01 -5.320540e-01 2.543660e-01 7.397181e-01 -4.286143e-01
<VARIANCE> 25
 1.423534e+01 3.380431e+01 3.131756e+01 5.259566e+01 4.914433e+01 6.197383e+01 5.947437e+01 4.969104e+01 6.070573e+01 6.037183e+01 5.662992e+01 4.394904e+01 3.490781e-01 1.160235e+00 1.068842e+00 1.927356e+00 1.717759e+00 2.152122e+00 2.342075e+00 2.290357e+00 2.619212e+00 2.697489e+00 2.543268e+00 2.078558e+00 6.123432e-01
<GCONST> 9.750500e+01
<STATE> 4
<MEAN> 25
 9.152719e+00 2.144434e+00 -3.065288e+00 -1.112916e+01 -6.510664e+00 3.223847e+00 -2.892261e+00 -3.648445e+00 -2.838386e+00 -1.180566e+00 2.610820e-01 -1.972062e-01 -1.912459e-01 2.817353e-01 3.586707e-01 6.922533e-01 2.932423e-01 -4.288649e-01 -9.966804e-02 3.211365e-02 3.274314e-02 -9.444467e-02 -2.029177e-01 -8.612777e-02 -4.462450e-01
<VARIANCE> 25
 1.515438e+01 3.568179e+01 2.869852e+01 7.603680e+01 5.269135e+01 6.012820e+01 5.775880e+01 5.047751e+01 4.992336e+01 5.018566e+01 4.234455e+01 3.334322e+01 3.448302e-01 8.728795e-01 8.914387e-01 1.753009e+00 1.653319e+00 1.726754e+00 1.790681e+00 1.890060e+00 1.946490e+00 2.021101e+00 1.827863e+00 1.542074e+00 4.288875e-01
<GCONST> 9.411895e+01
<TRANSP> 5
 0.000000e+00 1.000000e+00 0.000000e+00 0.000000e+00 0.000000e+00
 0.000000e+00 7.181898e-01 2.818101e-01 0.000000e+00 0.000000e+00
 0.000000e+00 0.000000e+00 7.431802e-01 2.568197e-01 0.000000e+00
 0.000000e+00 0.000000e+00 0.000000e+00 8.323644e-01 1.676356e-01
 0.000000e+00 0.000000e+00 0.000000e+00 0.000000e+00 0.000000e+00
<ENDHMM>
~h "oy"
<BEGINHMM>
<NUMSTATES> 5
<STATE> 2
<MEAN> 25
 1.039466e+01 1.956654e+00 -4.043737e+00 -1.473521e+01 -9.791371e+00 5.126104e+00 -7.949334e-01 -3.969386e+00 -2.879293e+00 -1.876042e+00 3.855286e-01 4.731896e-01 5.910041e-01 -3.900108e-01 -4.924878e-01 -1.137523e+00 -4.101396e-01 8.818364e-01 -2.899522e-02 -3.842770e-01 -3.564360e-01 3.316337e-01 4.355820e-01 4.910773e-02 4.654892e-01
<VARIANCE> 25
 1.587697e+01 3.347065e+01 3.118353e+01 6.674854e+01 5.942962e+01 5.811349e+01 5.315316e+01 4.732351e+01 4.453335e+01 4.050146e+01 4.376613e+01 3.289359e+01 1.715120e+00 1.834564e+00 1.695730e+00 4.981967e+00 4.396113e+00 2.993432e+00 3.188923e+00 2.867711e+00 3.026396e+00 3.184531e+00 3.143649e+00 2.144753e+00 8.750916e-01
<GCONST> 1.027216e+02
<STATE> 3
<MEAN> 25
 9.754474e+00 -5.713901e+00 -4.855111e+00 -8.743143e+00 -4.626564e+00 1.791434e+00 -7.649577e+00 -4.541203e+00 2.201964e-01 4.782276e+00 2.078033e+00 -4.814513e+00 -5.804968e-01 -9.714062e-01 1.239586e+00 2.343751e+00 1.438687e-01 -2.799164e+00 -1.397727e+00 1.602841e+00 1.289947e+00 7.410659e-03 -9.457682e-01 -8.206316e-01 2.562960e-01
<VARIANCE> 25
 1.393650e+01 3.016503e+01 3.307151e+01 5.495232e+01 4.231603e+01 7.614262e+01 5.716000e+01 5.684114e+01 5.610748e+01 4.989312e+01 6.300125e+01 3.945088e+01 3.319506e-01 1.152882e+00 2.018564e+00 2.124810e+00 3.113518e+00 3.554745e+00 3.980525e+00 4.002932e+00 3.309416e+00 5.786822e+00 3.069132e+00 4.201962e+00 3.160855e-01
<GCONST> 1.014381e+02
<STATE> 4
<MEAN> 25
 5.233565e+00 -4.392645e+00 6.412291e+00 -7.291862e-01 -9.989665e+00 -9.177219e+00 -5.097840e+00 2.064379e+00 -2.398791e+00 -1.004203e+00 9.607804e-01 -1.016396e+00 -4.621599e-01 6.698627e-01 9.593693e-01 3.590865e-01 -2.620017e-01 -1.391216e-01 6.725265e-01 -1.849168e-01 -8.130395e-01 -4.000781e-01 2.241240e-01 4.127581e-01 -5.421385e-01
<VARIANCE> 25
 1.533202e+01 3.270699e+01 5.275769e+01 3.852836e+01 5.050492e+01 4.703004e+01 5.899687e+01 5.010118e+01 5.612238e+01 4.357188e+01 3.970896e+01 2.849644e+01 4.861929e-01 9.673291e-01 3.111086e+00 1.472872e+00 3.160045e+00 2.587148e+00 2.509125e+00 2.795426e+00 3.430003e+00 2.707923e+00 2.299618e+00 2.009949e+00 4.290207e-01
<GCONST> 9.810948e+01
<TRANSP> 5
 0.000000e+00 1.000000e+00 0.000000e+00 0.000000e+00 0.000000e+00
 0.000000e+00 8.684013e-01 1.315987e-01 0.000000e+00 0.000000e+00
 0.000000e+00 0.000000e+00 7.807847e-01 2.192154e-01 0.000000e+00
 0.000000e+00 0.000000e+00 0.000000e+00 8.341858e-01 1.658142e-01
 0.000000e+00 0.000000e+00 0.000000e+00 0.000000e+00 0.000000e+00
<ENDHMM>
~h "sh"
<BEGINHMM>
<NUMSTATES> 5
<STATE> 2
<MEAN> 25
 -5.209506e+00 -4.751571e-01 7.969860e+00 1.367103e+00 -2.811099e+00 -1.332451e+00 1.077129e+00 -5.980933e-01 2.740191e-01 -1.989411e+00 -8.115270e-02 2.882381e-01 -3.782740e+00 -7.830415e-02 6.797357e-01 3.392497e-02 6.810200e-01 8.442268e-01 1.359403e+00 -9.855237e-03 1.104640e+00 6.619333e-02 5.479432e-01 4.079255e-01 6.294391e-01
<VARIANCE> 25
 7.438454e+01 3.795883e+01 5.393789e+01 4.305052e+01 5.148509e+01 5.011034e+01 4.719756e+01 4.597559e+01 4.607388e+01 3.469506e+01 3.133072e+01 2.505702e+01 3.967127e+00 4.010705e+00 4.281932e+00 4.235507e+00 5.071945e+00 4.541652e+00 4.721203e+00 4.459010e+00 4.143125e+00 3.742829e+00 3.347497e+00 2.654812e+00 2.470927e+00
<GCONST> 1.089029e+02
<STATE> 3
<MEAN> 25
 -1.810525e+01 -2.745001e+00 9.599232e+00 -3.134791e-01 -2.767041e+00 5.832220e-01 5.414598e+00 -1.318618e+00 3.502403e+00 -1.259810e+00 2.146799e+00 1.251820e+00 -5.741723e-01 -2.829971e-01 -5.929025e-02 -7.159232e-02 -1.031955e-01 8.894205e-04 3.383322e-01 8.957826e-03 1.485936e-01 9.794434e-02 1.260355e-01 7.397680e-02 1.315844e-01
<VARIANCE> 25
 3.102818e+01 3.555452e+01 3.021783e+01 3.670329e+01 3.670998e+01 4.720864e+01 3.962775e+01 3.473816e+01 2.955223e+01 2.832727e+01 2.494125e+01 2.077867e+01 1.437934e+00 7.465143e-01 9.524105e-01 1.172816e+00 1.267509e+00 1.671531e+00 1.552857e+00 1.721229e+00 1.586157e+00 1.559077e+00 1.435069e+00 1.298229e+00 4.927160e-01
<GCONST> 9.036485e+01
<STATE> 4
<MEAN> 25
 -1.320019e+01 -3.155889e+00 6.539516e+00 9.559508e-01 -2.549511e+00 -1.288033e-01 4.510312e+00 2.372287e-01 3.057756e+00 -9.702718e-01 1.417065e+00 1.391261e+00 2.322987e+00 4.126205e-01 -3.627180e-01 2.627743e-01 -1.145528e-01 -6.177948e-01 -8.955004e-01 -6.596558e-02 -3.985123e-01 -2.878566e-01 -4.892992e-01 -2.895964e-01 -6.820225e-01
<VARIANCE> 25
 5.070421e+01 2.820786e+01 3.392768e+01 3.203212e+01 3.853267e+01 4.321704e+01 3.314591e+01 3.103461e+01 2.822171e+01 2.712903e+01 2.347403e+01 1.990317e+01 4.655943e+00 1.489709e+00 1.717921e+00 1.601492e+00 2.143677e+00 2.700907e+00 2.773651e+00 2.321012e+00 2.308296e+00 2.140437e+00 1.923844e+00 1.645218e+00 1.085065e+00
<GCONST> 9.674314e+01
<TRANSP> 5
 0.000000e+00 1.000000e+00 0.000000e+00 0.000000e+00 0.000000e+00
 0.000000e+00 7.275931e-01 2.724069e-01 0.000000e+00 0.000000e+00
 0.000000e+00 0.000000e+00 8.263333e-01 1.736667e-01 0.000000e+00
 0.000000e+00 0.000000e+00 0.000000e+00 7.334834e-01 2.665165e-01
 0.000000e+00 0.000000e+00 0.000000e+00 0.000000e+00 0.000000e+00
<ENDHMM>
~h "th"
<BEGINHMM>
<NUMSTATES> 5
<STATE> 2
<MEAN> 25
 1.377009e-01 3.691656e+00 1.444422e+00 2.113699e+00 6.332599e-01 -2.138903e+00 5.720065e-01 -2.272859e+00 -1.613243e-01 -1.071158e+00 -1.480779e+00 -1.207537e+00 -2.318281e+00 5.974733e-01 -4.888979e-01 9.601879e-01 1.481746e+00 7.654386e-01 1.471896e+00 6.432516e-01 8.796635e-01 3.116072e-01 5.545844e-01 7.673087e-01 -1.221194e+00
<VARIANCE> 25
 4.499717e+01 3.542221e+01 4.589735e+01 4.985479e+01 5.152692e+01 5.509105e+01 5.116547e+01 4.686119e+01 4.827017e+01 3.842584e+01 3.404389e+01 2.867706e+01 3.817414e+00 4.264227e+00 4.493755e+00 5.400193e+00 4.856918e+00 4.980269e+00 5.055204e+00 5.104617e+00 4.633906e+00 4.099187e+00 3.968090e+00 3.088375e+00 3.405474e+00
<GCONST> 1.102899e+02
<STATE> 3
<MEAN> 25
 -8.477995e+00 2.462333e+00 -2.243129e+00 2.505844e+00 3.402721e+00 2.890378e-01 4.306237e+00 8.962092e-01 3.409452e+00 1.292588e+00 1.641966e+00 2.466918e+00 -8.333061e-01 -6.144186e-01 -4.500794e-01 -3.129331e-01 -1.616341e-01 -1.657021e-02 1.967313e-01 3.003832e-01 3.731827e-01 1.927272e-01 3.124946e-01 3.768606e-01 3.389967e-01
<VARIANCE> 25
 5.738393e+01 3.590590e+01 3.727419e+01 4.487710e+01 4.025455e+01 4.680801e+01 3.909606e+01 3.646037e+01 3.312435e+01 3.002253e+01 2.789133e+01 2.391037e+01 4.785781e+00 2.870272e+00 3.279087e+00 3.700203e+00 3.272434e+00 3.988872e+00 3.329802e+00 3.259742e+00 3.146795e+00 3.018157e+00 2.862986e+00 2.430595e+00 7.999696e+00
<GCONST> 1.055482e+02
<STATE> 4
<MEAN> 25
 -6.171094e+00 6.318616e-01 -2.074363e+00 2.021692e+00 2.467861e+00 8.148938e-01 3.007650e+00 1.145774e+00 2.398849e+00 7.230958e-01 1.093653e+00 1.764366e+00 1.711258e-01 -1.209239e-01 4.621085e-02 -6.094966e-02 -1.097711e-01 -7.815525e-02 -1.033595e-01 -2.692982e-02 -4.207768e-02 -2.890517e-02 -7.516985e-02 -6.975438e-02 5.284604e-02
<VARIANCE> 25
 3.035140e+01 1.830674e+01 1.823410e+01 2.012108e+01 2.197538e+01 2.576955e+01 2.287659e+01 2.260704e+01 2.182167e+01 2.075048e+01 1.951567e+01 1.718291e+01 1.722439e+00 1.111170e+00 1.237913e+00 1.402131e+00 1.584564e+00 1.878372e+00 1.867952e+00 1.852748e+00 1.835243e+00 1.760590e+00 1.709201e+00 1.567149e+00 1.577646e+00
<GCONST> 8.883703e+01
<TRANSP> 5
 0.000000e+00 1.000000e+00 0.000000e+00 0.000000e+00 0.000000e+00
 0.000000e+00 6.209886e-01 3.790114e-01 0.000000e+00 0.000000e+00
 0.000000e+00 0.000000e+00 6.032358e-01 3.967641e-01 0.000000e+00
