~o
<STREAMINFO> 1 25
<VECSIZE> 25<NULLD><MFCC_D_N_Z_0><DIAGC>
~s "silst"
<MEAN> 25
 -9.622607e+00 3.719877e+00 -3.239472e+00 -2.704681e+00 8.544085e+00 5.192443e+00 4.299481e-01 8.814955e+00 2.690007e+00 1.617023e+00 3.804960e+00 5.091150e+00 -1.583373e-02 5.511616e-03 -1.005577e-02 -3.107990e-02 5.931449e-04 1.287502e-02 -8.204147e-03 1.801345e-03 2.009732e-02 7.683587e-03 1.978214e-02 1.675349e-02 -1.336223e-02
<VARIANCE> 25
 3.411057e+00 3.943745e+00 4.602272e+00 6.507246e+00 1.071138e+01 1.199964e+01 1.162588e+01 1.308734e+01 1.360209e+01 1.295563e+01 1.138786e+01 1.219651e+01 9.503501e-02 2.358709e-01 3.875890e-01 5.821431e-01 7.875266e-01 9.800307e-01 1.104780e+00 1.218720e+00 1.300231e+00 1.351465e+00 1.215566e+00 1.097201e+00 3.160165e-02
<GCONST> 6.408081e+01
~h "b"
<BEGINHMM>
<NUMSTATES> 5
<STATE> 2
<MEAN> 25
 9.977167e+00 3.117050e-01 -3.540976e+00 -2.524966e+00 -4.299772e+00 -1.695816e+00 -1.090484e+00 -3.868915e+00 -4.688804e+00 2.600137e+00 -6.260991e-03 -1.338748e+00 -1.731102e+00 2.210877e+00 2.301324e-01 -3.330376e-01 1.674703e+00 6.431956e-01 -4.024240e-01 1.346600e+00 -6.504405e-01 1.799027e-01 2.133843e-01 2.207296e-01 -2.691899e+00
<VARIANCE> 25
 6.437522e+01 7.253124e+01 5.626072e+01 8.227826e+01 5.556178e+01 3.203516e+01 2.502801e+01 3.256821e+01 6.380589e+01 2.877197e+01 3.918723e+01 2.338985e+01 2.710202e+00 3.116445e+00 1.964024e+00 3.904993e+00 5.533850e+00 9.318839e-01 3.036945e+00 1.792739e+00 3.778188e+00 4.116446e+00 3.008654e+00 1.941599e+00 3.614480e+00
<GCONST> 1.046594e+02
<STATE> 3
<MEAN> 25
 1.155423e+00 8.092323e+00 1.118206e+00 8.427005e-01 1.327355e+00 -3.029738e+00 -2.042937e+00 1.622444e+00 -1.756091e+00 -8.174144e-01 2.844810e-01 4.672647e-01 -1.953278e+00 -3.084929e-02 -2.531614e-01 -7.172744e-01 6.567103e-01 6.651517e-01 1.414465e-01 1.504409e+00 7.740262e-01 -8.640520e-01 4.082890e-01 6.973069e-01 -1.486189e+00
<VARIANCE> 25
 3.735757e+01 4.363064e+01 3.447646e+01 3.733623e+01 5.335603e+01 2.462862e+01 2.813008e+01 4.830767e+01 4.828632e+01 2.194850e+01 4.212844e+01 4.439289e+01 8.999170e-01 2.029127e+00 1.413569e+00 8.414896e-01 1.997884e+00 1.605535e+00 1.444468e+00 1.103740e+00 1.307494e+00 7.367253e-01 1.304550e+00 2.116622e+00 8.130691e-01
<GCONST> 9.257744e+01
<STATE> 4
<MEAN> 25
 -2.839872e+00 6.367476e+00 -8.472687e-01 -1.599397e+00 2.361233e+00 -1.285047e-01 -2.438045e+00 3.964037e+00 1.793450e-02 -8.928492e-01 3.483934e+00 1.886555e+00 -6.671923e-01 -8.131216e-01 -7.744402e-02 1.726904e-01 5.197445e-01 1.049374e+00 2.522328e-01 9.493649e-02 6.086372e-01 -2.302477e-01 1.038280e-02 -4.742395e-01 -1.415232e-01
<VARIANCE> 25
 3.496951e+01 3.868971e+01 3.531604e+01 3.403707e+01 4.643711e+01 1.948010e+01 1.544432e+01 2.856493e+01 4.771625e+01 1.830849e+01 2.535451e+01 2.658928e+01 1.073608e+00 1.329449e+00 1.162024e+00 1.961778e+00 1.908294e+00 1.184746e+00 1.593674e+00 1.349980e+00 1.292691e+00 1.675973e+00 1.261370e+00 1.529357e+00 6.143171e-01
<GCONST> 9.013638e+01
<TRANSP> 5
 0.000000e+00 1.000000e+00 0.000000e+00 0.000000e+00 0.000000e+00
 0.000000e+00 6.775235e-01 3.224765e-01 0.000000e+00 0.000000e+00
 0.000000e+00 0.000000e+00 2.283150e-01 7.716849e-01 0.000000e+00
 0.000000e+00 0.000000e+00 0.000000e+00 3.751895e-01 6.248105e-01
 0.000000e+00 0.000000e+00 0.000000e+00 0.000000e+00 0.000000e+00
<ENDHMM>
~h "d"
<BEGINHMM>
<NUMSTATES> 5
<STATE> 2
<MEAN> 25
 9.480485e+00 8.838782e-01 6.044661e+00 5.123869e+00 -8.006290e+00 -4.714800e+00 -2.589137e+00 -7.954115e+00 -4.651523e+00 -1.008892e+00 -4.418409e+00 -2.479288e+00 -1.131477e+00 2.211753e+00 4.658837e-01 6.653441e-01 2.314985e+00 2.992440e-01 -8.620139e-01 9.357687e-01 1.077740e-02 -8.342661e-02 -9.214024e-01 2.132683e-01 -2.349504e+00
<VARIANCE> 25
 3.411609e+01 5.590910e+01 3.174875e+01 1.764176e+01 5.100346e+01 2.725185e+01 3.344518e+01 3.194970e+01 4.325672e+01 1.376629e+01 2.016657e+01 1.671116e+01 1.055137e+00 2.944578e+00 1.294523e+00 2.964648e+00 3.573850e+00 1.591193e+00 1.569269e+00 2.225838e+00 1.938657e+00 1.477168e+00 2.234866e+00 7.853341e-01 2.166384e+00
<GCONST> 9.410424e+01
<STATE> 3
<MEAN> 25
 5.215521e+00 6.752897e+00 7.642124e+00 7.397280e+00 -1.503712e+00 -5.462520e+00 -5.796182e+00 -3.349031e+00 -3.812117e+00 -2.416447e+00 -5.926079e+00 -1.685665e+00 -2.049566e+00 2.164575e+00 9.117238e-03 1.273961e-01 2.786727e+00 2.045803e-01 -2.789834e-01 1.709350e+00 -1.230364e-01 -2.782867e-01 -3.693551e-04 4.528624e-02 -2.736199e+00
<VARIANCE> 25
 3.199897e+01 4.886942e+01 2.470374e+01 2.329712e+01 4.522348e+01 2.898003e+01 3.511453e+01 2.742700e+01 3.316184e+01 1.964159e+01 2.615453e+01 1.144454e+01 1.126235e+00 5.453988e+00 2.590871e+00 2.777594e+00 3.110453e+00 2.404582e+00 1.968319e+00 2.383099e+00 2.038123e+00 1.277858e+00 2.515918e+00 1.777717e+00 2.432104e+00
<GCONST> 9.657648e+01
<STATE> 4
<MEAN> 25
 2.241198e-01 4.757405e+00 5.105961e+00 4.423478e+00 2.217607e+00 -2.896963e+00 -3.058849e+00 -2.605758e-01 -3.723897e+00 -2.884450e+00 -2.724897e+00 -1.768796e-01 -1.314278e+00 -2.099544e+00 -1.447969e+00 -9.202595e-01 2.307602e-01 7.191700e-01 1.269468e+00 1.689031e-01 9.117289e-01 1.511678e-01 1.252989e+00 6.911359e-01 5.801317e-01
<VARIANCE> 25
 2.935532e+01 7.861470e+01 2.026032e+01 3.250342e+01 3.046961e+01 2.394321e+01 3.374385e+01 3.666293e+01 2.446342e+01 1.882922e+01 3.486461e+01 2.287875e+01 2.401221e+00 6.117218e+00 3.362534e+00 4.529049e+00 4.619633e+00 3.357848e+00 3.876917e+00 3.996015e+00 2.949156e+00 1.526549e+00 2.968078e+00 1.747274e+00 4.629772e+00
<GCONST> 1.022835e+02
<TRANSP> 5
 0.000000e+00 1.000000e+00 0.000000e+00 0.000000e+00 0.000000e+00
 0.000000e+00 3.436729e-01 6.563271e-01 0.000000e+00 0.000000e+00
 0.000000e+00 0.000000e+00 3.602645e-01 6.397356e-01 0.000000e+00
 0.000000e+00 0.000000e+00 0.000000e+00 5.888816e-01 4.111184e-01
 0.000000e+00 0.000000e+00 0.000000e+00 0.000000e+00 0.000000e+00
<ENDHMM>
~h "f"
<BEGINHMM>
<NUMSTATES> 5
<STATE> 2
<MEAN> 25
 5.188678e+00 2.369605e+00 3.989031e-01 1.249689e+00 -1.443535e+00 3.583819e-02 1.654628e+00 -1.127478e+00 -2.035876e+00 -2.418210e+00 -4.695539e+00 -1.686120e+00 -2.922677e+00 -1.818156e+00 3.371608e-01 2.208672e+00 1.739016e+00 4.320500e-01 5.601805e-01 5.644507e-01 1.278694e+00 1.285096e-01 6.842518e-01 5.554655e-01 -1.283358e+00
<VARIANCE> 25
 4.851744e+01 6.596049e+01 4.115032e+01 5.525743e+01 5.370617e+01 2.421385e+01 2.100662e+01 2.909464e+01 2.928781e+01 1.453475e+01 1.565546e+01 1.170435e+01 2.787242e+00 6.364900e+00 3.164327e+00 7.528337e+00 3.620075e+00 3.450981e+00 1.853757e+00 3.122508e+00 2.951847e+00 1.845765e+00 1.030963e+00 1.483803e+00 9.302934e-01
<GCONST> 9.897311e+01
<STATE> 3
<MEAN> 25
 -3.825609e+00 -6.738931e+00 7.168880e-02 5.140729e+00 -2.191656e-01 7.359856e-01 3.662333e+00 -1.907656e+00 2.613408e+00 -3.045764e+00 -1.192576e+00 3.821395e-01 -2.173743e+00 -1.984531e+00 -7.659895e-01 1.667897e-01 8.033041e-02 4.964466e-01 3.758163e-01 -2.690364e-01 1.163118e+00 2.160389e-01 1.459957e+00 5.488155e-01 -5.076315e-01
<VARIANCE> 25
 1.125563e+01 2.041833e+01 1.501207e+01 1.125834e+01 1.502054e+01 1.494949e+01 1.475206e+01 1.951363e+01 1.568138e+01 1.372735e+01 1.313924e+01 1.370756e+01 2.389862e+00 3.638175e+00 1.557510e+00 2.842607e+00 1.706844e+00 1.929666e+00 2.049039e+00 1.914655e+00 1.182854e+00 1.136446e+00 1.437524e+00 1.013354e+00 6.295615e-01
<GCONST> 8.457492e+01
<STATE> 4
<MEAN> 25
 -7.332637e+00 -5.822990e+00 -1.814791e+00 2.484239e+00 1.424889e+00 2.636137e+00 3.519928e+00 3.832694e-01 4.431119e+00 -8.489359e-01 1.659818e+00 2.448406e+00 5.791635e-01 -9.148104e-03 6.931476e-02 -7.309541e-03 -1.537230e-01 -1.549239e-01 -1.747327e-01 -1.584152e-01 2.545952e-02 -5.254525e-02 -3.976453e-01 -3.241415e-01 5.157575e-01
<VARIANCE> 25
 7.182425e+00 5.600334e+01 9.694972e+00 1.754978e+01 2.651435e+01 1.311723e+01 2.142351e+01 3.568380e+01 1.357201e+01 1.953275e+01 1.367502e+01 1.738320e+01 2.805545e+00 2.397156e+00 8.473203e-01 1.233064e+00 1.768133e+00 1.305619e+00 1.962340e+00 1.799291e+00 1.959414e+00 1.938487e+00 1.710584e+00 1.433737e+00 1.216481e+00
<GCONST> 8.709808e+01
<TRANSP> 5
 0.000000e+00 1.000000e+00 0.000000e+00 0.000000e+00 0.000000e+00
 0.000000e+00 5.043257e-01 4.956742e-01 0.000000e+00 0.000000e+00
 0.000000e+00 0.000000e+00 5.814879e-01 4.185121e-01 0.000000e+00
 0.000000e+00 0.000000e+00 0.000000e+00 8.434246e-01 1.565754e-01
 0.000000e+00 0.000000e+00 0.000000e+00 0.000000e+00 0.000000e+00
<ENDHMM>
~h "g"
<BEGINHMM>
<NUMSTATES> 5
<STATE> 2
<MEAN> 25
 -3.497291e+00 -3.040020e+00 -1.681078e+00 5.595397e-01 5.792189e+00 3.737230e+00 -1.920955e+00 2.337008e+00 2.453999e+00 1.630082e-01 1.627627e+00 2.338933e+00 2.260635e+00 -2.038209e+00 -1.090121e+00 5.374312e-02 -2.109149e+00 -1.380335e-01 -1.527787e-01 -1.893698e+00 -1.967899e-01 7.960653e-01 -1.205951e-01 -3.858649e-01 2.051727e+00
<VARIANCE> 25
 4.347422e+01 5.521551e+01 5.272786e+01 1.742767e+01 6.850528e+01 4.210535e+01 2.600206e+01 4.902860e+01 2.890819e+01 4.226435e+01 2.009190e+01 2.314537e+01 4.036144e+00 8.604182e+00 5.949008e+00 3.123911e+00 4.780401e+00 6.010106e+00 5.073981e+00 7.770627e+00 4.953376e+00 4.795183e+00 1.234256e+00 4.395996e+00 1.239068e+01
<GCONST> 1.097995e+02
<STATE> 3
<MEAN> 25
 1.101465e+01 -1.079827e+01 -1.338557e+00 4.437560e+00 -6.384158e+00 -4.168597e+00 -8.081244e+00 -7.555910e+00 -1.414514e+00 2.672995e+00 -8.226609e-01 -6.373685e+00 1.314902e+00 -1.317337e-01 3.645103e-02 2.022176e-01 -7.526907e-01 -7.459216e-01 -4.233912e-01 -8.752660e-01 -6.282417e-01 4.264740e-01 1.141136e-01 -1.237597e+00 1.037538e+00
<VARIANCE> 25
 2.429357e+01 1.869536e+01 8.115550e+01 1.364358e+01 1.727650e+01 3.318314e+01 4.090603e+01 3.600465e+01 1.563599e+01 3.021068e+01 1.937674e+01 2.850133e+01 4.065615e+00 2.500273e+00 1.037321e+00 1.828902e+00 2.735306e+00 6.973634e+00 4.782153e+00 5.068828e+00 4.968653e+00 2.294504e+00 1.509710e+00 2.434648e+00 3.731170e+00
<GCONST> 9.934096e+01
<STATE> 4
<MEAN> 25
 1.052894e+01 -3.286697e+00 -2.093144e+00 1.024421e+00 -3.514427e+00 -5.207810e-01 -4.211222e+00 -1.044163e+01 -3.551884e+00 2.319999e+00 5.336703e-01 -3.981555e+00 -3.924332e-01 2.220432e+00 7.823548e-01 3.008291e-01 4.815099e-01 -7.080082e-01 8.050029e-01 -1.360066e-02 -1.356590e+00 -1.000186e+00 7.066844e-01 1.043209e+00 -5.634469e-01
<VARIANCE> 25
 4.348037e+01 4.050865e+01 4.816372e+01 6.758325e+01 3.311370e+01 8.474364e+01 4.730467e+01 5.940775e+01 3.676580e+01 3.753253e+01 1.082728e+01 3.743605e+01 5.801926e+00 2.593050e+00 1.362054e+00 3.142227e+00 3.108008e+00 6.802182e+00 5.523737e+00 6.804854e+00 3.325379e+00 3.715095e+00 7.444543e-01 4.023844e+00 3.897877e+00
<GCONST> 1.064382e+02
<TRANSP> 5
 0.000000e+00 1.000000e+00 0.000000e+00 0.000000e+00 0.000000e+00
 0.000000e+00 7.185029e-01 2.814971e-01 0.000000e+00 0.000000e+00
 0.000000e+00 0.000000e+00 6.340282e-01 3.659718e-01 0.000000e+00
 0.000000e+00 0.000000e+00 0.000000e+00 4.250992e-01 5.749008e-01
 0.000000e+00 0.000000e+00 0.000000e+00 0.000000e+00 0.000000e+00
<ENDHMM>
~h "k"
<BEGINHMM>
<NUMSTATES> 5
<STATE> 2
<MEAN> 25
 6.547591e+00 -6.140751e+00 1.276536e+00 6.924721e-01 -6.001730e+00 -1.254526e+00 -3.438067e-01 -6.104546e+00 1.812969e-01 6.614003e-01 -1.204010e+00 -3.176488e+00 7.778451e-01 -1.187579e+00 5.391812e-01 -7.988361e-01 -1.703641e+00 5.268458e-01 1.332363e+00 -7.429942e-01 3.735198e-02 3.426809e-01 5.291694e-01 1.906462e-01 1.515544e+00
<VARIANCE> 25
 5.265621e+01 7.741240e+01 2.494027e+01 3.273198e+01 6.520950e+01 5.242063e+01 3.634783e+01 4.769553e+01 7.096801e+01 3.226255e+01 2.463477e+01 3.498198e+01 4.286605e+00 1.071854e+01 3.167939e+00 3.332738e+00 6.394991e+00 3.310742e+00 5.000788e+00 5.369574e+00 1.064074e+01 4.708406e+00 3.240580e+00 4.072425e+00 6.148530e+00
<GCONST> 1.118923e+02
<STATE> 3
<MEAN> 25
 7.590971e+00 -3.118308e+00 6.344970e+00 8.746198e-01 -1.210244e+01 -4.421943e+00 3.321109e+00 -7.172009e+00 -7.172195e+00 1.334230e+00 1.939686e-01 -3.961525e+00 -8.928668e-01 1.995038e+00 5.390882e-01 7.788279e-01 1.382297e+00 6.877385e-01 -2.755332e-02 2.727350e-01 -1.452908e+00 4.574666e-01 6.733410e-02 -9.535004e-02 -2.204152e+00
<VARIANCE> 25
 3.690580e+01 5.323044e+01 4.798183e+01 3.411020e+01 5.512064e+01 4.845280e+01 3.465928e+01 4.399235e+01 8.805712e+01 3.202487e+01 2.406322e+01 3.549068e+01 1.636753e+00 3.052030e+00 2.834173e+00 2.580573e+00 5.753005e+00 2.809325e+00 3.552085e+00 2.977895e+00 6.030116e+00 5.159235e+00 2.894200e+00 3.022104e+00 3.719155e+00
<GCONST> 1.065039e+02
<STATE> 4
<MEAN> 25
 2.837868e+00 -2.601917e+00 3.267457e+00 1.580223e+00 -2.660084e+00 8.490564e-01 3.737664e-01 -3.427213e+00 -3.319379e+00 1.849399e+00 -5.876584e-01 -1.648156e+00 -1.871904e-01 -4.599147e-01 -5.647484e-01 -3.549525e-01 7.534898e-01 1.249227e-01 -6.734317e-01 1.043301e+00 6.462505e-01 -5.911065e-01 -2.161219e-01 -2.435599e-01 2.079738e-03
<VARIANCE> 25
 3.565879e+01 7.954667e+01 3.931149e+01 2.668100e+01 4.918448e+01 3.183167e+01 5.179807e+01 5.296357e+01 4.553732e+01 4.884476e+01 2.260417e+01 1.557127e+01 4.931052e+00 9.875529e+00 3.977039e+00 2.984619e+00 3.995478e+00 2.819792e+00 3.380934e+00 5.652641e+00 6.201507e+00 5.806171e+00 2.502694e+00 2.657472e+00 6.772256e+00
<GCONST> 1.088195e+02
<TRANSP> 5
 0.000000e+00 1.000000e+00 0.000000e+00 0.000000e+00 0.000000e+00
 0.000000e+00 6.187837e-01 3.812163e-01 0.000000e+00 0.000000e+00
 0.000000e+00 0.000000e+00 5.924377e-01 4.075622e-01 0.000000e+00
 0.000000e+00 0.000000e+00 0.000000e+00 6.377267e-01 3.622733e-01
 0.000000e+00 0.000000e+00 0.000000e+00 0.000000e+00 0.000000e+00
<ENDHMM>
~h "l"
<BEGINHMM>
<NUMSTATES> 5
<STATE> 2
<MEAN> 25
 1.315239e+01 -4.328595e+00 -4.445730e+00 -4.052892e+00 -5.441982e+00 -1.170197e+00 -6.942367e+00 -1.087359e+01 7.865527e-01 4.525959e+00 -2.702066e+00 -7.481951e+00 6.405674e-01 6.913649e-01 -7.144968e-01 -1.325786e+00 1.385254e-01 1.061264e+00 -6.880240e-01 -1.076064e+00 -3.059049e-01 4.665624e-01 4.953211e-01 2.990915e-01 1.685936e-03
<VARIANCE> 25
 1.106363e+01 4.583480e+01 2.513322e+01 2.477125e+01 3.430043e+01 4.241007e+01 3.704956e+01 4.078970e+01 6.805027e+01 3.465050e+01 3.077833e+01 1.598941e+01 1.444556e+00 4.614020e+00 1.624589e+00 1.892974e+00 3.756319e+00 3.146112e+00 3.303627e+00 5.190822e+00 7.517207e+00 2.776152e+00 3.449282e+00 2.299339e+00 1.939178e+00
<GCONST> 1.012802e+02
<STATE> 3
<MEAN> 25
 1.511524e+01 2.562216e+00 -5.152156e+00 -1.144837e+01 -8.247062e+00 3.709718e+00 -4.214444e+00 -1.061242e+01 -2.925057e+00 1.005380e+00 -3.339348e+00 -2.299049e+00 -2.295369e-02 7.691864e-01 3.148470e-01 -8.781296e-02 -2.783540e-01 -3.019314e-01 2.655258e-01 8.948627e-01 1.027304e-02 -9.684963e-01 -7.691725e-01 4.830170e-01 -4.723972e-01
<VARIANCE> 25
 1.297433e+01 3.183495e+01 2.819688e+01 4.448507e+01 3.048765e+01 2.515234e+01 3.953202e+01 4.825402e+01 5.524540e+01 3.325494e+01 3.118194e+01 2.110954e+01 2.849669e-01 3.056722e+00 1.220636e+00 2.436873e+00 2.004638e+00 1.893852e+00 2.205932e+00 2.410386e+00 2.772837e+00 1.985028e+00 2.244153e+00 1.773366e+00 1.066513e+00
<GCONST> 9.441441e+01
<STATE> 4
<MEAN> 25
 1.059616e+01 4.297455e+00 -6.090732e-01 -4.099764e+00 -3.864126e+00 1.788017e+00 -3.887462e+00 -7.011516e+00 -1.986008e+00 -1.033968e+00 -4.024448e+00 -2.333859e+00 -9.329805e-01 -6.559287e-01 5.543031e-01 1.597500e+00 4.145283e-01 -1.066103e+00 3.635645e-01 1.594765e+00 -1.501459e-02 -6.541669e-01 5.828825e-01 6.160374e-01 -3.672093e-01
<VARIANCE> 25
 3.616719e+01 6.355418e+01 3.381105e+01 5.116140e+01 5.554440e+01 3.982357e+01 5.044332e+01 8.149204e+01 5.610934e+01 3.732539e+01 2.655583e+01 2.019207e+01 1.973055e+00 3.515801e+00 2.953146e+00 3.810329e+00 1.057682e+01 6.031937e+00 4.838267e+00 6.538646e+00 2.910564e+00 4.566915e+00 2.921440e+00 2.847931e+00 2.733937e+00
<GCONST> 1.087763e+02
<TRANSP> 5
 0.000000e+00 1.000000e+00 0.000000e+00 0.000000e+00 0.000000e+00
 0.000000e+00 6.971658e-01 3.028342e-01 0.000000e+00 0.000000e+00
 0.000000e+00 0.000000e+00 6.635056e-01 3.364944e-01 0.000000e+00
 0.000000e+00 0.000000e+00 0.000000e+00 5.051637e-01 4.948363e-01
 0.000000e+00 0.000000e+00 0.000000e+00 0.000000e+00 0.000000e+00
<ENDHMM>
~h "m"
<BEGINHMM>
<NUMSTATES> 5
<STATE> 2
<MEAN> 25
 3.687040e+00 4.833094e+00 5.285681e+00 7.397943e+00 3.832298e+00 7.223707e-01 3.341216e-01 -4.012655e+00 -4.749039e+00 -1.276282e+00 -3.001524e+00 -4.736482e+00 -9.407334e-01 2.086403e-02 -3.483852e-01 5.055064e-01 9.514713e-01 1.144798e-01 4.450344e-01 6.970274e-01 -2.347855e-02 -3.512487e-01 1.957508e-02 2.493496e-01 -7.769695e-01
<VARIANCE> 25
 7.341126e+01 2.444820e+01 1.251099e+01 4.215936e+01 6.613868e+01 3.684351e+01 2.115225e+01 7.271470e+01 3.259422e+01 1.998401e+01 1.918704e+01 2.496650e+01 1.892466e+00 6.189760e-01 2.842077e+00 3.672193e+00 2.888827e+00 2.696694e+00 2.797239e+00 3.217738e+00 3.015539e+00 1.649002e+00 1.835160e+00 2.009933e+00 6.732090e-01
<GCONST> 9.676237e+01
<STATE> 3
<MEAN> 25
 3.615308e+00 3.746881e+00 2.962533e+00 5.991508e+00 2.182928e+00 -5.576359e-01 -1.024235e-01 -7.545082e+00 -6.842985e+00 -1.667883e+00 -2.156725e+00 -3.637250e+00 4.054154e-01 -5.180547e-01 -7.502360e-01 -6.165539e-02 -1.208151e-01 -2.317976e-01 -6.177477e-02 -7.602322e-01 -5.068858e-01 2.579421e-01 -3.888385e-01 -1.892550e-01 2.699850e-01
<VARIANCE> 25
 9.054007e+01 3.060847e+01 1.295661e+01 3.579945e+01 5.473202e+01 3.625860e+01 2.592922e+01 7.427117e+01 5.273898e+01 1.126466e+01 1.010277e+01 3.366647e+01 2.501145e+00 1.502520e+00 1.765533e+00 2.744364e+00 2.923874e+00 2.069547e+00 3.109025e+00 3.719446e+00 2.887824e+00 1.298942e+00 1.135206e+00 1.871684e+00 1.167313e+00
<GCONST> 9.676652e+01
<STATE> 4
<MEAN> 25
 -3.885547e+00 3.341837e+00 -2.107781e+00 -5.376516e-02 5.645504e+00 1.557030e+00 -1.377833e+00 2.219990e+00 8.977592e-01 -5.375005e-01 1.215197e+00 2.606816e+00 1.803767e-01 -3.369968e-01 -3.292861e-01 -1.342735e-01 -1.213609e-01 -4.702088e-02 -4.398033e-02 -5.812278e-02 2.080687e-01 2.093196e-01 -1.839449e-01 -2.700713e-02 2.219842e-01
<VARIANCE> 25
 7.522630e+01 1.335865e+01 1.781479e+01 3.203893e+01 4.109145e+01 2.221087e+01 2.995046e+01 8.254899e+01 5.051469e+01 1.092343e+01 1.971673e+01 4.774297e+01 2.213187e+00 1.492424e+00 1.358227e+00 2.027415e+00 2.566422e+00 2.112138e+00 2.793775e+00 2.353960e+00 2.673772e+00 1.133069e+00 1.003292e+00 2.079211e+00 1.174136e+00
<GCONST> 9.478207e+01
<TRANSP> 5
 0.000000e+00 1.000000e+00 0.000000e+00 0.000000e+00 0.000000e+00
 0.000000e+00 4.578212e-01 5.421788e-01 0.000000e+00 0.000000e+00
 0.000000e+00 0.000000e+00 2.656713e-01 7.343286e-01 0.000000e+00
 0.000000e+00 0.000000e+00 0.000000e+00 6.283832e-01 3.716168e-01
 0.000000e+00 0.000000e+00 0.000000e+00 0.000000e+00 0.000000e+00
<ENDHMM>
~h "n"
<BEGINHMM>
<NUMSTATES> 5
<STATE> 2
<MEAN> 25
 1.169363e+01 -1.147803e+00 3.969875e+00 4.216326e+00 -8.387406e+00 -3.546466e+00 -1.248826e+00 -7.232813e+00 -3.093062e+00 -2.789506e+00 -4.899933e+00 -3.538846e+00 5.942535e-01 4.385357e-01 2.901385e-01 4.258314e-01 -6.744283e-01 1.285258e-01 2.073838e-01 -1.365523e+00 1.001053e-01 -3.881988e-02 -8.504111e-01 -1.786169e-01 2.323928e-01
<VARIANCE> 25
 1.576955e+01 4.131593e+01 2.951486e+01 2.653470e+01 3.550802e+01 2.245846e+01 2.606555e+01 4.396663e+01 4.109400e+01 3.522685e+01 2.230649e+01 1.498866e+01 2.371311e+00 5.153728e+00 2.966952e+00 3.516761e+00 3.010430e+00 2.253173e+00 2.134431e+00 7.139447e+00 3.421246e+00 2.970508e+00 2.391168e+00 1.555799e+00 3.263298e+00
<GCONST> 1.002066e+02
<STATE> 3
<MEAN> 25
 1.298897e+01 1.377577e-01 3.246494e+00 4.517310e+00 -8.789443e+00 -3.358452e+00 -5.491467e-01 -9.217759e+00 -2.648418e+00 -3.055019e+00 -5.909033e+00 -4.411387e+00 -7.428656e-03 9.691079e-01 3.821682e-01 4.581913e-01 -1.055615e-01 4.754353e-01 4.655516e-01 -1.309574e+00 -3.353288e-01 3.648455e-01 -3.714370e-01 -3.635674e-01 -5.952980e-01
<VARIANCE> 25
 9.059172e+00 2.695618e+01 2.743054e+01 2.085653e+01 2.639586e+01 1.969970e+01 1.401825e+01 4.215100e+01 3.687014e+01 1.961536e+01 1.364684e+01 1.946488e+01 5.116080e-01 2.808479e+00 2.740729e+00 2.435874e+00 1.662535e+00 1.789273e+00 1.129904e+00 3.533180e+00 1.850817e+00 1.644118e+00 1.709369e+00 1.457892e+00 1.284377e+00
<GCONST> 8.960719e+01
<STATE> 4
<MEAN> 25
 1.011274e+01 4.618214e+00 5.840884e+00 5.486982e+00 -5.336151e+00 -4.832561e-01 -2.817705e-01 -8.785938e+00 -3.923671e+00 -1.017486e+00 -7.166068e+00 -5.130444e+00 -7.495632e-01 6.507681e-01 -1.719096e-03 -4.672586e-01 8.588188e-01 5.216436e-01 -2.765928e-01 7.428645e-01 -2.437602e-01 -3.827307e-02 2.418098e-01 2.008700e-01 -8.774574e-01
<VARIANCE> 25
 2.792172e+01 2.663917e+01 1.992641e+01 1.927530e+01 6.674496e+01 3.037474e+01 1.398629e+01 6.472869e+01 2.290764e+01 1.304938e+01 1.132496e+01 1.195674e+01 1.277666e+00 1.898771e+00 1.389488e+00 1.258916e+00 1.905134e+00 1.159750e+00 1.201878e+00 1.779719e+00 1.380550e+00 9.753482e-01 1.413082e+00 9.159682e-01 1.106061e+00
<GCONST> 8.719569e+01
<TRANSP> 5
 0.000000e+00 1.000000e+00 0.000000e+00 0.000000e+00 0.000000e+00
 0.000000e+00 2.279224e-01 7.720775e-01 0.000000e+00 0.000000e+00
 0.000000e+00 0.000000e+00 6.051973e-01 3.948028e-01 0.000000e+00
 0.000000e+00 0.000000e+00 0.000000e+00 6.273562e-01 3.726438e-01
 0.000000e+00 0.000000e+00 0.000000e+00 0.000000e+00 0.000000e+00
<ENDHMM>
~h "p"
<BEGINHMM>
<NUMSTATES> 5
<STATE> 2
<MEAN> 25
 -4.042568e+00 5.677137e+00 -8.863226e-01 5.500416e-01 7.568295e+00 8.740916e-01 -4.608613e+00 1.998166e+00 -1.695206e+00 -7.220816e-01 -8.264673e-01 -8.458182e-02 -7.101104e-01 -1.928200e+00 -4.798439e-01 2.342844e-02 -2.256526e-01 1.113533e+00 1.885944e+00 9.654417e-01 4.085040e-01 -1.973338e-02 5.863913e-01 9.574774e-01 2.581519e-02
<VARIANCE> 25
 3.571341e+01 2.948635e+01 1.234599e+01 8.754514e+00 2.445690e+01 3.013416e+01 6.268644e+01 3.629251e+01 2.272121e+01 1.755355e+01 2.359193e+01 2.221238e+01 1.835684e+00 5.904463e+00 2.137736e+00 1.769899e+00 2.494389e+00 3.899796e+00 4.489435e+00 2.462342e+00 3.069540e+00 3.463585e+00 2.550012e+00 1.256017e+00 5.645176e+00
<GCONST> 9.782201e+01
<STATE> 3
<MEAN> 25
 -5.535968e+00 2.188904e+00 -8.229082e-01 -1.910754e+00 5.096585e+00 1.239874e+00 2.133366e-01 2.495423e+00 1.203501e+00 1.386122e+00 1.008024e+00 1.160588e+00 1.852577e+00 -2.947296e+00 2.900743e-01 6.040658e-01 -1.999642e+00 4.910532e-01 1.420531e+00 -1.139067e+00 1.043291e+00 1.353126e+00 -3.351292e-01 -4.594940e-01 2.541342e+00
<VARIANCE> 25
 6.081512e+01 3.192222e+01 1.048932e+01 2.205071e+01 3.651558e+01 2.517448e+01 5.338710e+01 3.443962e+01 1.218133e+01 1.494006e+01 1.166067e+01 1.093213e+01 4.933213e+00 3.238572e+00 2.611936e+00 3.021270e+00 6.394100e+00 5.696694e+00 7.011240e+00 5.195845e+00 2.013197e+00 2.760859e+00 2.260783e+00 2.412686e+00 3.494019e+00
<GCONST> 1.000443e+02
<STATE> 4
<MEAN> 25
 1.751186e+00 -4.742277e+00 2.227826e+00 3.825597e+00 1.173414e+00 2.646203e+00 2.613223e+00 7.887186e-01 2.159804e+00 2.901391e+00 -1.907347e+00 -4.752742e-01 1.874680e+00 -1.587160e+00 -5.086077e-01 3.875135e-01 -1.109025e+00 -2.950287e-01 -4.037920e-01 -1.217314e+00 8.224142e-01 1.387242e-01 -7.269234e-01 -3.495923e-01 1.983467e+00
<VARIANCE> 25
 2.342229e+01 1.821206e+01 2.592861e+01 3.081085e+01 5.156628e+01 4.517100e+01 3.625037e+01 3.706185e+01 1.182406e+01 2.137846e+01 2.275656e+01 1.823434e+01 5.334703e+00 6.004903e+00 2.843372e+00 2.479595e+00 1.061315e+01 7.722808e+00 6.265780e+00 6.180663e+00 2.570296e+00 2.752044e+00 1.450570e+00 2.086803e+00 3.683493e+00
<GCONST> 1.030535e+02
<TRANSP> 5
 0.000000e+00 1.000000e+00 0.000000e+00 0.000000e+00 0.000000e+00
 0.000000e+00 4.975317e-01 5.024683e-01 0.000000e+00 0.000000e+00
 0.000000e+00 0.000000e+00 3.918126e-01 6.081874e-01 0.000000e+00
 0.000000e+00 0.000000e+00 0.000000e+00 5.172332e-01 4.827668e-01
 0.000000e+00 0.000000e+00 0.000000e+00 0.000000e+00 0.000000e+00
<ENDHMM>
~h "r"
<BEGINHMM>
<NUMSTATES> 5
<STATE> 2
<MEAN> 25
 8.828728e+00 -2.093692e+00 -4.817052e+00 1.895913e+00 -4.940428e-01 -2.534311e+00 -4.388327e+00 -5.305673e+00 -3.911841e+00 -1.570103e+00 -8.945965e-01 -5.624630e-01 1.014034e+00 -3.332255e-01 2.252994e-01 7.786196e-01 -3.339179e-01 -1.273330e+00 -1.477013e+00 1.230363e-01 5.179463e-01 3.215119e-01 -7.510829e-01 -8.157607e-01 6.794584e-01
<VARIANCE> 25
 9.056264e+01 3.816496e+01 3.514684e+01 2.527449e+01 3.607190e+01 3.253903e+01 5.535314e+01 3.052609e+01 9.003658e+01 3.803615e+01 3.091418e+01 2.270353e+01 9.470550e+00 6.095889e+00 3.209971e+00 2.695520e+00 3.746739e+00 4.279403e+00 3.080063e+00 5.433712e+00 5.983118e+00 4.593241e+00 2.149668e+00 1.816841e+00 3.336367e+00
<GCONST> 1.077637e+02
<STATE> 3
<MEAN> 25
 1.255348e+01 -5.317294e+00 -1.129396e+00 4.436264e+00 -3.940612e+00 -7.090393e+00 -8.614444e+00 -4.645641e+00 -2.358469e+00 7.446687e-02 -4.012370e+00 -2.957918e+00 2.308236e-01 -7.110983e-01 1.328943e+00 4.442072e-01 -2.067770e+00 -8.516497e-01 5.955352e-01 4.607005e-01 -2.463037e-02 -1.919412e-02 -6.086313e-01 5.624638e-02 4.256939e-01
<VARIANCE> 25
 2.520271e+01 6.237885e+01 5.142031e+01 1.786521e+01 5.793018e+01 4.531870e+01 5.658673e+01 4.263069e+01 5.003325e+01 3.086639e+01 2.455085e+01 1.258554e+01 5.413516e+00 4.703894e+00 4.041158e+00 1.295291e+00 4.416770e+00 2.806290e+00 5.110205e+00 5.264453e+00 5.358939e+00 2.245864e+00 1.908323e+00 1.233713e+00 3.161152e+00
<GCONST> 1.040640e+02
<STATE> 4
<MEAN> 25
 1.320458e+01 -5.226377e+00 2.884068e-01 3.822673e+00 -8.300639e+00 -7.326986e+00 -5.199313e+00 -4.022729e+00 -3.137152e+00 8.107976e-01 -3.403298e+00 -1.802652e+00 -5.194636e-01 9.715626e-01 3.567790e-01 -1.692311e-02 1.791267e-01 2.663886e-01 4.071743e-01 8.940322e-02 -2.443566e-01 1.043358e-01 3.078710e-01 -1.167174e-01 -8.055010e-01
<VARIANCE> 25
 2.551675e+01 3.768935e+01 1.104740e+02 1.700928e+01 7.960197e+01 2.801956e+01 4.936680e+01 5.348687e+01 4.619509e+01 1.487286e+01 2.011901e+01 1.039947e+01 2.561996e+00 4.072386e+00 4.588488e+00 1.812885e+00 5.800938e+00 2.085418e+00 2.821455e+00 3.112831e+00 3.443199e+00 1.528238e+00 1.776589e+00 1.515465e+00 2.709933e+00
<GCONST> 1.005958e+02
<TRANSP> 5
 0.000000e+00 1.000000e+00 0.000000e+00 0.000000e+00 0.000000e+00
 0.000000e+00 5.353633e-01 4.646367e-01 0.000000e+00 0.000000e+00
 0.000000e+00 0.000000e+00 4.296035e-01 5.703964e-01 0.000000e+00
 0.000000e+00 0.000000e+00 0.000000e+00 7.361324e-01 2.638676e-01
 0.000000e+00 0.000000e+00 0.000000e+00 0.000000e+00 0.000000e+00
<ENDHMM>
~h "s"
<BEGINHMM>
<NUMSTATES> 5
<STATE> 2
<MEAN> 25
 -4.563142e+00 4.292147e+00 2.732249e+00 2.768228e+00 3.706448e+00 -6.644287e+00 5.672487e+00 -5.221718e+00 2.614486e+00 -3.887053e+00 -8.833057e-01 -1.213212e+00 -5.051380e+00 2.501948e-01 -1.321169e+00 -5.701673e-01 2.070004e+00 -7.671493e-01 3.250676e+00 3.642732e-01 1.267716e+00 -7.943804e-01 1.454752e+00 4.530869e-01 9.314521e-02
<VARIANCE> 25
 7.578221e+01 3.123457e+01 5.656316e+01 2.876507e+01 5.746820e+01 3.442222e+01 6.608143e+01 3.838839e+01 3.818579e+01 1.443333e+01 2.432929e+01 1.514731e+01 3.717581e+00 4.689167e+00 5.648271e+00 2.903776e+00 7.102098e+00 3.139817e+00 3.572222e+00 3.282042e+00 2.730303e+00 1.842737e+00 2.172701e+00 1.368388e+00 1.222966e+00
<GCONST> 1.028894e+02
<STATE> 3
<MEAN> 25
 -1.659464e+01 2.271104e+00 -4.625293e+00 -1.283020e+00 4.294261e+00 -9.897888e+00 1.254798e+01 -5.965070e+00 6.080725e+00 -4.631053e+00 1.182309e+00 2.293211e-01 -4.045802e-01 -6.085615e-01 -2.792705e-01 -6.626412e-01 -5.764727e-02 -9.543229e-02 5.096904e-02 1.317199e-01 1.729140e-01 2.407555e-01 -2.448540e-01 3.498864e-01 -4.264665e-02
<VARIANCE> 25
 1.066859e+01 1.073123e+01 1.808470e+01 1.617078e+01 2.281886e+01 2.268345e+01 2.027210e+01 2.393210e+01 2.624265e+01 1.917300e+01 1.550850e+01 1.687201e+01 2.308935e+00 1.339619e+00 2.245979e+00 1.398785e+00 1.817387e+00 2.327419e+00 2.753120e+00 2.340849e+00 2.400007e+00 1.666179e+00 1.927295e+00 1.532683e+00 5.766940e-01
<GCONST> 8.808531e+01
<STATE> 4
<MEAN> 25
 -9.747334e+00 8.535723e-02 1.166585e-01 -1.221314e+00 4.009021e+00 -6.835923e+00 7.851077e+00 -3.951784e+00 4.574214e+00 -2.420850e+00 -1.864107e+00 1.379787e-01 4.151991e+00 -3.720729e-01 9.678148e-01 7.232198e-01 -1.303247e+00 1.306108e+00 -2.895348e+00 -1.706810e-02 -6.183552e-01 4.962974e-01 -7.719456e-01 -6.430242e-01 -5.052006e-01
<VARIANCE> 25
 7.217711e+01 2.692250e+01 2.188006e+01 1.674202e+01 3.151619e+01 3.352770e+01 4.353302e+01 4.222877e+01 2.225058e+01 2.086975e+01 2.920788e+01 2.468421e+01 7.419210e+00 2.450087e+00 2.933382e+00 1.698689e+00 4.141771e+00 3.303752e+00 5.333655e+00 4.353439e+00 3.161087e+00 2.249092e+00 2.693899e+00 2.538079e+00 4.131784e+00
<GCONST> 1.021932e+02
<TRANSP> 5
 0.000000e+00 1.000000e+00 0.000000e+00 0.000000e+00 0.000000e+00
 0.000000e+00 6.972100e-01 3.027900e-01 0.000000e+00 0.000000e+00
 0.000000e+00 0.000000e+00 7.942728e-01 2.057272e-01 0.000000e+00
 0.000000e+00 0.000000e+00 0.000000e+00 6.849986e-01 3.150013e-01
 0.000000e+00 0.000000e+00 0.000000e+00 0.000000e+00 0.000000e+00
<ENDHMM>
~h "t"
<BEGINHMM>
<NUMSTATES> 5
<STATE> 2
<MEAN> 25
 2.552830e+00 3.516301e+00 4.642952e+00 3.604376e+00 -3.027465e+00 -2.449286e+00 -3.041012e+00 -2.747740e+00 -2.871140e+00 -5.577273e-01 -2.922040e+00 -2.041920e-01 -2.179320e+00 5.933584e-01 -5.294102e-01 -4.307100e-01 2.028279e+00 4.070722e-01 2.784684e-01 1.014525e+00 1.836720e-01 1.442776e-01 7.825462e-01 6.998988e-01 -1.589005e+00
<VARIANCE> 25
 5.260269e+01 4.744287e+01 2.627755e+01 2.018917e+01 5.379116e+01 3.643747e+01 3.534303e+01 4.556563e+01 3.875872e+01 2.560777e+01 2.637212e+01 2.329803e+01 3.620163e+00 8.824986e+00 3.725234e+00 2.179218e+00 3.945214e+00 3.594080e+00 2.905269e+00 4.149322e+00 2.666091e+00 3.250818e+00 1.863322e+00 2.027131e+00 7.921588e+00
<GCONST> 1.045865e+02
<STATE> 3
<MEAN> 25
 -4.648828e+00 -1.704088e+00 3.709053e-01 -1.025510e+00 1.294681e+00 -9.157006e-01 2.238178e+00 -7.096127e-01 -1.879906e-01 -1.772514e+00 1.509856e+00 1.904822e+00 -1.361633e+00 -2.399837e+00 -1.911023e-01 -1.211668e+00 -1.391169e-01 -3.973478e-01 2.013442e+00 1.462335e-01 1.408393e+00 -9.875602e-01 8.111427e-01 4.411077e-01 3.366682e+00
<VARIANCE> 25
 2.183537e+01 5.547891e+01 1.642286e+01 2.604850e+01 3.131956e+01 4.099240e+01 5.274477e+01 4.363969e+01 2.523721e+01 2.287231e+01 2.696280e+01 1.623042e+01 4.673867e+00 3.740878e+00 3.736085e+00 3.452503e+00 4.436007e+00 4.266975e+00 5.111805e+00 4.769778e+00 3.428911e+00 3.323423e+00 3.599160e+00 1.852006e+00 5.285099e+00
<GCONST> 1.039918e+02
<STATE> 4
<MEAN> 25
 -3.577931e+00 -4.973999e+00 2.983608e+00 4.686223e-01 3.909062e-01 -2.743381e+00 3.105078e+00 -1.736044e-01 3.871854e+00 -2.657864e+00 3.865951e-02 5.521175e-01 2.290727e+00 -2.116992e-02 4.316192e-01 9.167457e-01 -7.412128e-01 -2.027688e-01 -1.411226e+00 -2.110743e-01 1.297779e-02 3.473514e-01 -1.443561e+00 -9.091790e-01 1.511379e-01
<VARIANCE> 25
 5.284567e+01 3.808387e+01 2.364014e+01 3.578212e+01 3.327907e+01 4.310386e+01 5.355885e+01 5.075016e+01 3.148031e+01 3.570007e+01 4.260827e+01 2.535028e+01 6.288421e+00 4.348961e+00 3.939236e+00 3.432583e+00 4.795727e+00 4.571578e+00 5.331307e+00 4.911776e+00 5.218625e+00 3.956994e+00 4.114806e+00 2.189461e+00 5.366272e+00
<GCONST> 1.086519e+02
<TRANSP> 5
 0.000000e+00 1.000000e+00 0.000000e+00 0.000000e+00 0.000000e+00
 0.000000e+00 5.375393e-01 4.624607e-01 0.000000e+00 0.000000e+00
 0.000000e+00 0.000000e+00 5.787551e-01 4.212449e-01 0.000000e+00
 0.000000e+00 0.000000e+00 0.000000e+00 5.880692e-01 4.119308e-01
 0.000000e+00 0.000000e+00 0.000000e+00 0.000000e+00 0.000000e+00
<ENDHMM>
~h "v"
<BEGINHMM>
<NUMSTATES> 5
<STATE> 2
<MEAN> 25
 2.913812e+00 -2.209979e+00 2.975505e+00 7.260657e+00 -6.571268e-01 -1.602613e+00 -1.910247e+00 -4.823608e+00 -3.317398e-01 6.531426e-01 -2.227874e+00 -1.882501e+00 -2.303789e+00 -4.770381e-01 1.167755e-01 1.754687e-01 1.101228e+00 1.083720e+00 1.329825e+00 7.853554e-01 7.986966e-01 -5.917245e-01 3.649219e-01 4.737642e-01 -1.135433e+00
<VARIANCE> 25
 4.601506e+01 1.884365e+01 1.782713e+01 1.611228e+01 3.204580e+01 1.969084e+01 4.418166e+01 1.928386e+01 1.634607e+01 2.262049e+01 1.379118e+01 1.297412e+01 2.248949e+00 4.453487e+00 1.998168e+00 3.090224e+00 3.393943e+00 1.406218e+00 3.587974e+00 2.683001e+00 2.985747e+00 3.318873e+00 1.477539e+00 1.113281e+00 2.974539e+00
<GCONST> 9.450040e+01
<STATE> 3
<MEAN> 25
 -7.024384e+00 -4.424385e+00 3.312169e+00 3.106839e-01 4.419519e+00 -1.893276e+00 1.956903e+00 -1.049269e+00 2.920037e+00 -3.039384e+00 -3.924602e-01 1.209039e-01 5.076638e-01 -4.580873e-01 -6.062815e-01 -8.552254e-01 -7.503062e-03 -6.635981e-01 -3.229167e-01 1.939618e-01 -1.463416e-01 1.721829e-01 -2.570426e-01 -2.540195e-01 6.656135e-01
<VARIANCE> 25
 6.000658e+01 2.589850e+01 1.470564e+01 6.118465e+01 7.748230e+01 4.664718e+01 2.275866e+01 2.148894e+01 2.020610e+01 2.749315e+01 1.559579e+01 1.205869e+01 5.977721e+00 3.686999e+00 2.904154e+00 2.694033e+00 4.945987e+00 5.024982e+00 3.372219e+00 1.676648e+00 2.499784e+00 2.012503e+00 2.189246e+00 1.092744e+00 1.799794e+00
<GCONST> 9.921044e+01
<STATE> 4
<MEAN> 25
 4.018802e+00 -6.657532e+00 5.627956e-01 1.719573e+00 -3.374777e+00 -3.853318e+00 -2.942909e+00 -3.664164e+00 2.539418e+00 5.976849e-01 -2.473314e+00 -3.205751e+00 3.322229e+00 -7.971617e-01 -1.135805e+00 -2.596853e-01 -2.039904e+00 -1.579194e+00 -2.031533e+00 -5.292897e-01 5.153733e-01 7.786720e-01 -7.145274e-01 -9.541612e-01 2.104814e+00
<VARIANCE> 25
 6.401494e+01 2.501068e+01 2.884338e+01 2.220882e+01 5.296571e+01 2.649101e+01 4.395338e+01 3.081927e+01 2.130490e+01 1.859928e+01 1.388991e+01 2.464717e+01 4.734303e+00 1.953505e+00 3.705238e+00 2.923250e+00 6.041285e+00 6.090895e+00 5.161087e+00 2.264549e+00 2.108892e+00 2.961359e+00 1.384903e+00 1.856360e+00 4.154426e+00
<GCONST> 1.009344e+02
<TRANSP> 5
 0.000000e+00 1.000000e+00 0.000000e+00 0.000000e+00 0.000000e+00
 0.000000e+00 7.269694e-01 2.730306e-01 0.000000e+00 0.000000e+00
 0.000000e+00 0.000000e+00 5.219902e-01 4.780098e-01 0.000000e+00
 0.000000e+00 0.000000e+00 0.000000e+00 3.786146e-01 6.213854e-01
 0.000000e+00 0.000000e+00 0.000000e+00 0.000000e+00 0.000000e+00
<ENDHMM>
~h "w"
<BEGINHMM>
<NUMSTATES> 5
<STATE> 2
<MEAN> 25
 7.783630e+00 -2.458238e-01 -1.794023e+00 1.355589e+00 -1.983112e+00 -6.236762e-01 -2.322419e+00 -4.418652e+00 -3.277959e+00 2.449888e-02 -3.397053e+00 -4.132854e+00 3.143581e+00 -2.784550e-03 -1.520413e+00 -1.520265e+00 -1.482244e+00 7.303357e-04 -1.025142e+00 -2.113201e+00 -1.447102e+00 8.274384e-01 5.832770e-01 -1.260368e+00 2.079623e+00
<VARIANCE> 25
 4.649472e+01 5.738561e+01 4.380574e+01 5.163704e+01 4.964367e+01 3.592461e+01 3.748726e+01 4.901316e+01 5.172685e+01 1.309587e+01 2.275684e+01 2.656982e+01 2.566736e+00 4.842597e+00 3.266001e+00 3.001722e+00 5.826821e+00 3.841783e+00 6.356804e+00 3.791104e+00 2.821480e+00 2.274202e+00 4.492316e+00 1.652821e+00 5.283457e+00
<GCONST> 1.061071e+02
<STATE> 3
<MEAN> 25
 1.448644e+01 2.863460e+00 -5.577717e+00 -7.118233e+00 -5.645698e+00 2.609841e+00 -1.152101e+00 -9.332134e+00 -1.016248e+01 1.598853e+00 -5.621525e-01 -5.530810e+00 3.604595e-01 -3.239460e-02 -5.437136e-01 -6.877301e-01 -7.084590e-02 2.998155e-01 1.071194e-02 -3.119338e-01 -3.086797e-01 5.219050e-01 5.312546e-01 3.053588e-02 2.282903e-01
<VARIANCE> 25
 1.287792e+01 5.041301e+01 1.931748e+01 4.106411e+01 1.845236e+01 1.908070e+01 4.222478e+01 5.114835e+01 3.894341e+01 1.943958e+01 3.127579e+01 1.414300e+01 1.258053e+00 9.611547e+00 2.084836e+00 4.184046e+00 2.576081e+00 3.780785e+00 7.028826e+00 4.573697e+00 7.235441e+00 3.520228e+00 4.810279e+00 2.302127e+00 4.286463e+00
<GCONST> 1.028645e+02
<STATE> 4
<MEAN> 25
 1.386276e+01 -3.826187e+00 -3.312436e+00 -1.671596e-01 -5.868740e+00 -2.522722e+00 -5.611224e+00 -9.952958e+00 -4.395584e+00 3.878731e+00 -1.783403e+00 -7.725697e+00 -5.101811e-01 -5.379804e-01 1.146845e+00 1.354310e+00 -7.395480e-01 -2.002946e+00 -6.350886e-01 1.073542e+00 1.761253e+00 -5.873967e-01 -1.083192e+00 -3.112065e-01 2.542969e-01
<VARIANCE> 25
 2.197281e+01 3.654888e+01 2.327056e+01 3.114694e+01 1.959853e+01 2.751245e+01 5.070079e+01 3.364684e+01 4.055861e+01 4.468897e+01 2.098141e+01 2.264698e+01 1.927357e+00 8.120823e+00 1.898481e+00 3.083500e+00 4.095434e+00 5.459075e+00 4.642010e+00 4.453794e+00 7.039314e+00 4.366837e+00 1.779017e+00 2.424031e+00 4.539286e+00
<GCONST> 1.036730e+02
<TRANSP> 5
 0.000000e+00 1.000000e+00 0.000000e+00 0.000000e+00 0.000000e+00
 0.000000e+00 5.095510e-01 4.904490e-01 0.000000e+00 0.000000e+00
 0.000000e+00 0.000000e+00 7.692275e-01 2.307725e-01 0.000000e+00
 0.000000e+00 0.000000e+00 0.000000e+00 4.170040e-01 5.829960e-01
 0.000000e+00 0.000000e+00 0.000000e+00 0.000000e+00 0.000000e+00
<ENDHMM>
~h "y"
<BEGINHMM>
<NUMSTATES> 5
<STATE> 2
<MEAN> 25
 2.861549e+00 -6.640116e+00 8.838198e+00 -1.332160e-01 -1.351083e+01 -5.446440e-02 1.887876e+00 -7.609805e+00 -2.176637e+00 -2.276195e+00 2.215122e-01 -2.130196e+00 3.234079e-01 -2.315011e-01 -1.989079e-01 8.571689e-01 -4.854191e-01 -1.110044e+00 9.747800e-01 1.133003e+00 -4.362451e-01 -6.370399e-01 -1.101331e-02 -2.307433e-02 2.752415e-01
<VARIANCE> 25
 1.194206e+02 2.607536e+01 6.263111e+01 1.731496e+01 1.086724e+02 4.155803e+01 9.513949e+00 4.941686e+01 6.973784e+01 1.241661e+01 1.265018e+01 9.040789e+00 1.675951e+00 1.945624e+00 3.792856e+00 1.860161e+00 3.399332e+00 1.649834e+00 1.750895e+00 3.142723e+00 2.149342e+00 1.091664e+00 2.825427e+00 1.210903e+00 8.067436e-01
<GCONST> 9.548442e+01
<STATE> 3
<MEAN> 25
 -1.725902e+00 -7.873017e+00 5.564121e+00 2.059142e+00 -8.561265e+00 1.214072e+00 4.109749e+00 -2.205689e+00 -1.722539e+00 -3.701752e+00 2.491616e-01 -2.931074e-01 2.502604e+00 1.362637e-01 6.031054e-01 1.966553e+00 -1.220286e+00 -1.379675e+00 -7.982180e-01 3.430857e-02 -1.390029e+00 -1.009217e+00 -9.834464e-01 -6.373042e-01 5.940533e-01
<VARIANCE> 25
 1.052133e+02 7.067705e+01 3.879237e+01 1.596435e+01 1.041028e+02 6.362892e+01 1.834505e+01 2.098533e+01 4.196313e+01 2.050059e+01 1.500245e+01 6.065373e+00 2.977268e+00 1.447673e+00 9.196562e+00 1.862282e+00 7.490951e+00 1.667797e+00 2.129537e+00 9.245494e+00 3.802790e+00 1.931804e+00 1.861467e+00 7.596796e-01 3.061309e+00
<GCONST> 1.005757e+02
<STATE> 4
<MEAN> 25
 7.093772e+00 -5.661043e+00 9.318416e+00 5.044277e+00 -1.379363e+01 -5.159276e+00 -8.674807e-01 -4.498568e+00 -4.471004e+00 -6.297986e+00 -2.445408e+00 -2.451631e+00 2.952906e+00 2.753870e-01 2.295476e-01 3.958855e-01 -9.386325e-01 -1.806391e+00 -2.217391e+00 -4.696711e-01 -1.051086e+00 -6.757151e-02 -3.779410e-01 -7.464903e-01 1.391967e+00
<VARIANCE> 25
 3.749550e+01 6.702077e+01 3.386161e+01 1.385024e+01 5.174759e+01 5.216179e+01 2.424683e+01 1.869448e+01 2.493054e+01 1.040598e+01 1.398104e+01 6.968556e+00 4.463387e+00 2.119131e+00 1.047688e+01 2.274232e+00 1.038227e+01 5.144022e+00 4.558864e+00 6.225543e+00 5.882624e+00 2.679007e+00 1.895914e+00 1.031859e+00 4.268495e+00
<GCONST> 1.017027e+02
<TRANSP> 5
 0.000000e+00 1.000000e+00 0.000000e+00 0.000000e+00 0.000000e+00
 0.000000e+00 5.631096e-01 4.368904e-01 0.000000e+00 0.000000e+00
 0.000000e+00 0.000000e+00 2.191387e-01 7.808613e-01 0.000000e+00
 0.000000e+00 0.000000e+00 0.000000e+00 5.982850e-01 4.017150e-01
 0.000000e+00 0.000000e+00 0.000000e+00 0.000000e+00 0.000000e+00
<ENDHMM>
~h "z"
<BEGINHMM>
<NUMSTATES> 5
<STATE> 2
<MEAN> 25
 1.049624e+01 -3.194840e+00 3.759530e+00 2.653138e+00 -9.780907e+00 -7.350449e+00 -5.926908e+00 -6.974329e+00 -1.120952e+00 -1.404342e+00 -4.802961e+00 -1.390741e+00 -1.258012e+00 1.584559e+00 -2.344046e-01 -1.241028e-01 2.438518e+00 -1.174920e+00 2.958339e-01 6.299031e-02 3.747573e-01 -8.634934e-01 -8.357105e-01 7.106533e-01 -5.234324e-01
<VARIANCE> 25
 4.487445e+01 2.162828e+01 3.576822e+01 1.510496e+01 4.287520e+01 2.503917e+01 6.231380e+01 2.963494e+01 2.895341e+01 2.786627e+01 1.408478e+01 1.927311e+01 2.881387e+00 4.072429e+00 2.406857e+00 2.702233e+00 4.944138e+00 2.977125e+00 3.475594e+00 2.673754e+00 1.731558e+00 2.575942e+00 1.528387e+00 8.974884e-01 8.674420e-01
<GCONST> 9.683606e+01
<STATE> 3
<MEAN> 25
 7.097468e+00 2.179000e+00 3.945897e+00 2.098743e+00 -2.157434e+00 -1.104853e+01 -3.700739e+00 -8.885520e+00 -9.785888e-01 -1.988215e+00 -7.102306e+00 -7.832936e-01 -3.890873e+00 3.098306e+00 1.625125e-01 -5.981467e-01 4.808490e+00 -2.087619e+00 2.070602e+00 1.096638e-02 1.363704e+00 -9.398054e-01 -9.074704e-02 8.085463e-01 -6.812822e-01
<VARIANCE> 25
 4.203098e+01 2.800627e+01 3.392932e+01 2.884987e+01 6.945111e+01 3.619443e+01 6.105838e+01 3.798516e+01 3.231479e+01 2.807969e+01 2.368921e+01 1.527540e+01 5.013243e+00 4.485260e+00 2.240285e+00 2.482007e+00 5.342671e+00 4.681684e+00 3.858846e+00 3.919572e+00 2.284673e+00 1.817506e+00 1.922525e+00 1.521232e+00 7.391722e-01
<GCONST> 1.011434e+02
<STATE> 4
<MEAN> 25
 -7.025159e+00 7.109930e+00 4.339296e+00 2.470533e+00 7.387804e+00 -1.271673e+01 4.215804e+00 -6.937436e+00 4.088345e+00 -5.272655e+00 -3.974984e+00 -1.050435e+00 -1.508307e+00 -7.788125e-01 -4.004994e-01 1.984687e-01 2.301202e-01 9.559087e-01 9.590682e-01 9.293747e-01 6.504742e-01 -4.115695e-01 7.717388e-01 -2.491256e-01 -3.606083e-01
<VARIANCE> 25
 6.002492e+01 3.729549e+01 2.813779e+01 3.626552e+01 5.124215e+01 4.860275e+01 6.262485e+01 4.622647e+01 2.592234e+01 2.971911e+01 2.073756e+01 1.359990e+01 1.436810e+01 6.163047e+00 1.918983e+00 3.153230e+00 8.449256e+00 4.435494e+00 7.001623e+00 3.958126e+00 3.144366e+00 2.907144e+00 2.185129e+00 1.566823e+00 1.204867e+00
<GCONST> 1.055277e+02
<TRANSP> 5
 0.000000e+00 1.000000e+00 0.000000e+00 0.000000e+00 0.000000e+00
 0.000000e+00 2.696007e-01 7.303994e-01 0.000000e+00 0.000000e+00
 0.000000e+00 0.000000e+00 3.529452e-01 6.470548e-01 0.000000e+00
 0.000000e+00 0.000000e+00 0.000000e+00 7.515310e-01 2.484690e-01
 0.000000e+00 0.000000e+00 0.000000e+00 0.000000e+00 0.000000e+00
<ENDHMM>
~h "aa"
<BEGINHMM>
<NUMSTATES> 5
<STATE> 2
<MEAN> 25
 3.727410e+00 -2.281463e+00 9.530772e-01 2.569576e+00 -2.574806e+00 -3.238876e+00 -1.909968e+00 -4.641808e+00 -1.476215e+00 7.161475e-01 -1.760157e+00 -2.357285e+00 8.217993e-01 -4.730139e-01 -1.547901e-01 7.412953e-01 8.931648e-01 -7.464722e-01 -1.343515e+00 -1.458996e-01 9.539412e-01 -3.167260e-01 -8.677636e-01 -4.764546e-01 6.878757e-01
<VARIANCE> 25
 8.051440e+01 6.560703e+01 3.307932e+01 4.928252e+01 3.733548e+01 6.361470e+01 4.611606e+01 6.887825e+01 7.237621e+01 4.179476e+01 2.003338e+01 2.592928e+01 6.830156e+00 1.086292e+01 3.092637e+00 2.059001e+00 3.583716e+00 5.239039e+00 6.257913e+00 4.902032e+00 6.670374e+00 3.286781e+00 1.678295e+00 2.306769e+00 6.789873e+00
<GCONST> 1.108898e+02
<STATE> 3
<MEAN> 25
 8.852046e+00 -2.856520e+00 -9.460664e-02 4.099544e+00 -2.935954e+00 -4.666542e+00 -4.879583e+00 -6.618351e+00 -2.828107e+00 -2.703504e-01 -3.189132e+00 -4.638591e+00 1.707618e+00 -6.246129e-01 -1.185861e+00 -1.378403e+00 -3.732524e-01 8.981178e-01 -1.406809e+00 -1.374917e+00 8.813563e-01 4.835212e-01 -8.222562e-02 -7.387895e-01 1.659950e+00
<VARIANCE> 25
 3.596302e+01 5.616445e+01 2.554314e+01 3.960324e+01 5.137537e+01 6.644917e+01 2.747545e+01 5.451336e+01 5.979030e+01 2.696036e+01 2.584256e+01 2.316278e+01 5.418470e+00 6.612067e+00 4.485092e+00 3.784258e+00 6.184560e+00 6.794124e+00 5.383291e+00 6.996849e+00 6.079494e+00 3.467644e+00 2.937940e+00 4.346087e+00 3.842484e+00
<GCONST> 1.104228e+02
<STATE> 4
<MEAN> 25
 1.115543e+01 -5.113799e+00 -5.433241e+00 -4.641356e+00 -3.632571e+00 2.268135e+00 -3.410072e+00 -8.785901e+00 7.346700e-01 1.601211e+00 -6.830403e-01 -4.078278e+00 -3.178948e-01 -1.332776e-01 3.806879e-01 2.549367e-01 1.158822e-01 -7.128982e-02 2.720098e-02 1.290493e-01 1.137183e-01 1.054965e-02 -1.946211e-01 -1.276830e-02 -7.463202e-02
<VARIANCE> 25
 3.230310e+01 4.801815e+01 2.755323e+01 3.742727e+01 3.086315e+01 4.298302e+01 4.581041e+01 3.520953e+01 4.999543e+01 3.861319e+01 2.740818e+01 3.145285e+01 3.067547e+00 5.808867e+00 2.687907e+00 4.327466e+00 4.245855e+00 3.253592e+00 3.504680e+00 3.152674e+00 4.801845e+00 4.848017e+00 2.835267e+00 3.021570e+00 3.390721e+00
<GCONST> 1.060118e+02
<TRANSP> 5
 0.000000e+00 1.000000e+00 0.000000e+00 0.000000e+00 0.000000e+00
 0.000000e+00 2.511631e-01 7.488369e-01 0.000000e+00 0.000000e+00
 0.000000e+00 0.000000e+00 5.084738e-01 4.915263e-01 0.000000e+00
 0.000000e+00 0.000000e+00 0.000000e+00 8.798732e-01 1.201268e-01
 0.000000e+00 0.000000e+00 0.000000e+00 0.000000e+00 0.000000e+00
<ENDHMM>
~h "ae"
<BEGINHMM>
<NUMSTATES> 5
<STATE> 2
<MEAN> 25
 6.368066e+00 -1.845353e+00 6.622190e+00 3.216527e+00 -4.204308e+00 4.249673e-01 3.951801e+00 6.767711e-01 -2.608538e+00 -3.697717e+00 -1.626683e+00 -2.547626e+00 1.461448e+00 -7.951924e-01 6.156473e-01 1.524103e-01 -1.719995e+00 -6.662189e-01 5.298100e-01 -2.297946e-01 -4.821439e-01 -2.738716e-01 -1.337351e-01 -6.364354e-01 1.568788e+00
<VARIANCE> 25
 4.030194e+01 2.929808e+01 4.012897e+01 1.914740e+01 9.237078e+01 6.780384e+01 4.231320e+01 6.182861e+01 2.583587e+01 2.603348e+01 2.444248e+01 1.392210e+01 6.430276e+00 4.437606e+00 2.521562e+00 2.805018e+00 9.833558e+00 6.793089e+00 3.769512e+00 6.004445e+00 1.954993e+00 3.859125e+00 3.790243e+00 3.247053e+00 5.667337e+00
<GCONST> 1.075123e+02
<STATE> 3
<MEAN> 25
 1.112553e+01 -3.716382e+00 6.273758e+00 2.562826e+00 -1.305039e+01 -5.098574e+00 3.686183e+00 -3.481717e+00 -3.559719e+00 -2.570861e+00 -1.254865e+00 -5.377048e+00 9.435083e-01 -1.275592e+00 -4.936642e-01 -5.604209e-01 -1.755893e+00 -6.118341e-01 9.554593e-02 -6.168190e-02 4.299881e-01 -6.017772e-01 2.674332e-01 4.681189e-01 1.516337e+00
<VARIANCE> 25
 1.534988e+01 3.130260e+01 3.024331e+01 3.086651e+01 4.199868e+01 3.695674e+01 2.406249e+01 4.436416e+01 2.719899e+01 1.661501e+01 1.829764e+01 2.648782e+01 2.296699e+00 3.124323e+00 2.857215e+00 2.820899e+00 4.000720e+00 2.332273e+00 2.325020e+00 3.699432e+00 1.691854e+00 3.262161e+00 2.060835e+00 2.737222e+00 2.754405e+00
<GCONST> 9.847239e+01
<STATE> 4
<MEAN> 25
 1.220915e+01 -5.697357e+00 5.477547e+00 1.325373e+00 -1.604783e+01 -4.685306e+00 4.808596e+00 -5.083400e+00 -3.389894e+00 -4.290907e+00 -6.310024e-01 -2.690690e+00 7.654805e-02 2.155157e-01 -4.256678e-01 3.583439e-01 3.166463e-01 -2.518393e-01 -4.348334e-01 -1.733388e-01 1.959913e-01 9.058052e-02 -1.786384e-01 1.481926e-01 -2.622632e-01
<VARIANCE> 25
 1.057700e+01 2.318063e+01 1.506252e+01 2.395679e+01 2.289212e+01 1.708657e+01 1.554446e+01 2.641088e+01 2.627849e+01 2.284169e+01 1.965681e+01 8.310303e+00 3.772845e-01 2.156057e+00 1.722039e+00 2.090767e+00 1.239096e+00 1.725770e+00 1.403155e+00 2.861034e+00 1.062995e+00 1.636157e+00 2.071778e+00 9.155931e-01 1.470463e+00
<GCONST> 8.562098e+01
<TRANSP> 5
 0.000000e+00 1.000000e+00 0.000000e+00 0.000000e+00 0.000000e+00
 0.000000e+00 4.916407e-01 5.083593e-01 0.000000e+00 0.000000e+00
 0.000000e+00 0.000000e+00 3.853082e-01 6.146917e-01 0.000000e+00
 0.000000e+00 0.000000e+00 0.000000e+00 8.105610e-01 1.894390e-01
 0.000000e+00 0.000000e+00 0.000000e+00 0.000000e+00 0.000000e+00
<ENDHMM>
~h "ah"
<BEGINHMM>
<NUMSTATES> 5
<STATE> 2
<MEAN> 25
 1.149868e+01 -2.627140e-01 6.607689e+00 4.479017e+00 -7.469863e+00 -5.698013e+00 -5.663335e+00 -9.141546e+00 -5.102063e+00 -3.962636e-02 -4.350370e+00 -5.045129e+00 1.314204e+00 -5.647914e-01 -5.899189e-01 -3.034014e-02 -8.718748e-01 4.887135e-02 -7.993931e-01 -4.611478e-01 -4.170854e-01 7.051650e-01 -2.366716e-01 -3.105795e-01 4.410425e-01
<VARIANCE> 25
 1.344380e+01 2.120774e+01 7.824039e+01 2.521417e+01 5.082039e+01 3.783131e+01 2.585552e+01 5.056617e+01 5.368016e+01 2.309795e+01 1.628566e+01 1.493793e+01 5.460059e+00 3.192431e+00 7.791362e+00 3.036757e+00 7.437122e+00 6.451781e+00 5.472302e+00 2.960747e+00 3.468721e+00 3.467344e+00 2.306566e+00 2.608699e+00 2.379950e+00
<GCONST> 1.043681e+02
<STATE> 3
<MEAN> 25
 1.563827e+01 -7.462917e+00 -4.036018e+00 1.160064e-01 -4.094348e+00 -1.600940e+00 -6.537792e+00 -7.598821e+00 -9.732006e-01 3.773180e+00 -4.162494e+00 -9.562634e+00 -2.012731e-01 2.454638e-01 1.408276e-02 6.459000e-01 4.658998e-01 1.245607e-01 -1.543829e-01 -5.007372e-01 -1.602465e-01 3.423036e-01 7.923660e-02 1.104096e-01 -6.005242e-01
<VARIANCE> 25
 1.081949e+01 3.204642e+01 2.639458e+01 2.654440e+01 1.655877e+01 2.708475e+01 2.345116e+01 5.207713e+01 4.015507e+01 2.454650e+01 1.625859e+01 3.131153e+01 2.123993e+00 5.024404e+00 3.152977e+00 3.555666e+00 2.641254e+00 1.807670e+00 1.750372e+00 5.522415e+00 4.627952e+00 2.339001e+00 2.501293e+00 2.385735e+00 3.066008e+00
<GCONST> 9.859185e+01
<STATE> 4
<MEAN> 25
 7.306731e+00 1.248958e+00 2.758096e+00 7.496063e+00 6.814545e-01 -6.679619e+00 -5.449085e+00 -5.560606e+00 -4.239378e+00 -1.080991e+00 -3.711367e+00 -1.712832e+00 -2.521301e+00 9.079360e-01 7.567388e-01 2.494449e-01 1.042205e+00 8.229605e-01 1.414829e+00 5.173184e-01 1.764522e-01 -6.928602e-01 -5.673184e-02 8.658826e-01 -1.612385e+00
<VARIANCE> 25
 4.384169e+01 3.932709e+01 2.112638e+01 2.947102e+01 5.353939e+01 7.963123e+01 4.848431e+01 9.662783e+01 2.886531e+01 5.020820e+01 1.786853e+01 2.584289e+01 3.587086e+00 6.282659e+00 3.711636e+00 4.043682e+00 9.500583e+00 4.289690e+00 2.905178e+00 6.577194e+00 3.445648e+00 4.268568e+00 2.160976e+00 1.779546e+00 3.197317e+00
<GCONST> 1.077362e+02
<TRANSP> 5
 0.000000e+00 1.000000e+00 0.000000e+00 0.000000e+00 0.000000e+00
 0.000000e+00 6.932419e-01 3.067581e-01 0.000000e+00 0.000000e+00
 0.000000e+00 0.000000e+00 7.446750e-01 2.553250e-01 0.000000e+00
 0.000000e+00 0.000000e+00 0.000000e+00 5.479160e-01 4.520841e-01
 0.000000e+00 0.000000e+00 0.000000e+00 0.000000e+00 0.000000e+00
<ENDHMM>
~h "ao"
<BEGINHMM>
<NUMSTATES> 5
<STATE> 2
<MEAN> 25
 6.544921e+00 -4.570057e+00 2.535235e-01 2.079517e+00 -2.920917e+00 -1.186110e+00 -3.783576e+00 -3.579792e+00 1.545786e+00 2.670361e+00 -3.756659e-01 -4.022135e+00 2.326584e+00 9.150955e-01 -1.002133e+00 -1.055244e+00 -8.068067e-01 6.032236e-01 -2.859697e-01 -2.074510e+00 -1.897757e+00 8.186675e-01 6.001054e-01 -1.029535e+00 7.606694e-01
<VARIANCE> 25
 8.403143e+01 5.858872e+01 3.306139e+01 4.517547e+01 4.879254e+01 5.601407e+01 3.181954e+01 7.014890e+01 4.928944e+01 3.474949e+01 3.217376e+01 3.392087e+01 4.078351e+00 8.765644e+00 4.869001e+00 8.047637e+00 5.652441e+00 3.597273e+00 4.383036e+00 4.936663e+00 6.570837e+00 6.455486e+00 3.694842e+00 2.431796e+00 4.357911e+00
<GCONST> 1.125692e+02
<STATE> 3
<MEAN> 25
 1.487932e+01 2.711708e+00 -4.414241e+00 -1.123143e+01 -1.039629e+01 5.623818e+00 -1.019540e-02 -9.867405e+00 -7.516303e+00 -8.813877e-01 -4.588614e-01 -4.265339e+00 1.190977e-01 9.971616e-01 -2.387958e-01 -1.660153e+00 -6.985365e-01 4.970149e-01 7.064070e-01 6.627402e-01 -3.428481e-01 -1.113570e+00 -5.549111e-01 5.789657e-01 -3.652297e-01
<VARIANCE> 25
 9.488158e+00 2.650917e+01 1.552040e+01 8.574316e+01 2.562809e+01 2.605889e+01 2.325153e+01 3.776276e+01 1.852481e+01 4.614380e+01 3.088368e+01 1.610481e+01 3.158131e-01 1.557377e+00 1.167508e+00 2.976181e+00 2.396905e+00 1.799782e+00 1.927265e+00 3.057841e+00 2.698703e+00 1.926510e+00 2.204232e+00 1.587240e+00 9.267852e-01
<GCONST> 9.150634e+01
<STATE> 4
<MEAN> 25
 1.171166e+01 8.406344e+00 -2.170918e+00 -1.119904e+01 -8.885888e+00 3.117021e+00 -2.632594e+00 -6.773600e+00 -6.831038e+00 -2.573772e+00 -2.097199e+00 -2.496716e+00 -1.071795e+00 -4.153612e-01 5.185235e-01 1.953894e+00 1.503514e+00 -6.021446e-01 -5.150220e-01 -1.179071e-01 5.665208e-01 7.029321e-01 3.234932e-01 -1.989943e-04 -4.901910e-01
<VARIANCE> 25
 3.572240e+01 6.036369e+01 1.674518e+01 5.041035e+01 6.453059e+01 4.842565e+01 2.488320e+01 5.700843e+01 2.456211e+01 2.140422e+01 2.575242e+01 2.666559e+01 2.375558e+00 4.847470e+00 2.022819e+00 7.733429e+00 5.875792e+00 4.687157e+00 2.195242e+00 5.720958e+00 4.305095e+00 4.232758e+00 3.528227e+00 2.846507e+00 2.587480e+00
<GCONST> 1.056627e+02
<TRANSP> 5
 0.000000e+00 1.000000e+00 0.000000e+00 0.000000e+00 0.000000e+00
 0.000000e+00 7.614006e-01 2.385994e-01 0.000000e+00 0.000000e+00
 0.000000e+00 0.000000e+00 8.376770e-01 1.623230e-01 0.000000e+00
 0.000000e+00 0.000000e+00 0.000000e+00 8.285898e-01 1.714102e-01
 0.000000e+00 0.000000e+00 0.000000e+00 0.000000e+00 0.000000e+00
<ENDHMM>
~h "aw"
<BEGINHMM>
<NUMSTATES> 5
<STATE> 2
<MEAN> 25
 1.256876e+01 -8.708809e+00 2.494142e+00 8.992698e-01 -1.520230e+01 -6.309830e+00 3.263716e+00 -3.635328e+00 3.617650e-01 -7.037943e+00 -1.180927e+00 -4.261171e+00 5.013488e-01 -1.465146e+00 -1.936954e+00 -7.265837e-02 7.605355e-01 4.247271e-01 3.014978e-01 1.095967e+00 9.741098e-01 -1.577692e+00 -9.155453e-01 1.821853e-01 7.498273e-01
<VARIANCE> 25
 6.209093e+00 4.906778e+01 2.237313e+01 6.202682e+00 3.929897e+01 5.338405e+00 2.111113e+01 2.089114e+01 1.786712e+01 3.382996e+01 2.463455e+01 7.797291e+00 3.488907e-01 1.548548e+00 1.996367e+00 9.116850e-01 1.788626e+00 6.816062e-01 1.237010e+00 1.706542e+00 1.837369e+00 1.485354e+00 1.650573e+00 1.121985e+00 7.702407e-01
<GCONST> 8.198414e+01
<STATE> 3
<MEAN> 25
 1.457813e+01 -1.314366e+01 -4.119705e+00 1.216096e+00 -9.383452e+00 -2.460481e+00 1.369296e+00 -3.425495e+00 3.535971e+00 -7.218369e+00 -8.529861e+00 -4.083461e+00 4.177861e-01 -5.388963e-01 -1.058266e+00 -1.805713e-01 7.535520e-01 1.082497e+00 -6.963879e-01 -6.262149e-01 5.269038e-01 7.968931e-01 -5.388464e-01 -7.730491e-01 5.458744e-02
<VARIANCE> 25
 5.137370e+00 7.711905e+00 8.503139e+00 2.403652e+00 1.424531e+01 1.243216e+01 1.966116e+01 1.556492e+01 2.317922e+01 1.847963e+01 9.141773e+00 9.258944e+00 8.331761e-02 2.363041e+00 2.983381e-01 4.916897e-01 1.697374e+00 4.208571e-01 1.116871e+00 1.128807e+00 1.573729e+00 8.710361e-01 7.260859e-01 7.435583e-01 6.664982e-01
<GCONST> 6.968640e+01
<STATE> 4
<MEAN> 25
 1.584692e+01 -7.118674e+00 -8.956386e+00 -4.358185e+00 -3.352377e+00 5.210895e+00 -2.025271e+00 -9.553672e+00 2.599623e+00 -1.187772e+00 -4.379896e+00 -7.394512e+00 1.073745e-01 1.163379e+00 -9.084274e-02 -7.565383e-01 2.987520e-01 5.279622e-01 -1.681024e-01 -5.568666e-01 -4.874690e-01 5.693159e-01 6.413020e-01 2.787094e-01 -5.793722e-01
<VARIANCE> 25
 4.329899e+00 3.039606e+01 6.312592e+00 1.573592e+01 1.429044e+01 2.408655e+01 1.473071e+01 2.089735e+01 3.863092e+01 2.582661e+01 2.952269e+01 2.043439e+01 1.315935e-01 1.125666e+00 5.559819e-01 9.651096e-01 1.360133e+00 9.489895e-01 1.592290e+00 1.116958e+00 3.016948e+00 1.142276e+00 2.047211e+00 2.027474e+00 2.726954e-01
<GCONST> 7.996386e+01
<TRANSP> 5
 0.000000e+00 1.000000e+00 0.000000e+00 0.000000e+00 0.000000e+00
 0.000000e+00 6.064620e-01 3.935380e-01 0.000000e+00 0.000000e+00
 0.000000e+00 0.000000e+00 8.083311e-01 1.916689e-01 0.000000e+00
 0.000000e+00 0.000000e+00 0.000000e+00 8.680575e-01 1.319425e-01
 0.000000e+00 0.000000e+00 0.000000e+00 0.000000e+00 0.000000e+00
<ENDHMM>
~h "ax"
<BEGINHMM>
<NUMSTATES> 5
<STATE> 2
<MEAN> 25
 4.145514e+00 1.737098e+00 2.955876e+00 2.575851e+00 -1.756996e+00 -4.841693e+00 -2.794183e+00 -3.814676e+00 -1.145197e+00 7.871222e-02 -3.734680e+00 -2.947483e+00 2.415760e-01 1.218482e+00 -3.148386e-01 1.008525e-01 8.437015e-01 -4.201575e-02 -1.229755e+00 3.983693e-01 -6.384368e-01 -5.989326e-02 -3.678713e-01 -3.588522e-02 -1.149756e+00
<VARIANCE> 25
 6.453534e+01 5.024624e+01 3.838841e+01 2.832790e+01 7.414074e+01 3.976320e+01 5.429765e+01 4.697380e+01 4.276157e+01 4.534610e+01 2.485916e+01 2.461169e+01 8.615540e+00 5.616016e+00 2.589021e+00 2.479713e+00 5.112610e+00 2.071467e+00 3.627520e+00 3.721090e+00 3.578463e+00 2.779546e+00 2.347842e+00 2.973448e+00 6.066421e+00
<GCONST> 1.075864e+02
<STATE> 3
<MEAN> 25
 3.962561e+00 2.926435e+00 2.523076e+00 3.049496e+00 -1.109368e-01 -5.014085e+00 -3.932224e+00 -2.594165e+00 -1.692196e+00 -1.180277e+00 -4.036931e+00 -2.301399e+00 9.188529e-01 -3.918190e-01 -7.795929e-01 -3.187364e-01 -2.388116e-01 1.114553e-01 -8.963276e-01 8.086874e-02 6.058173e-02 7.736681e-02 -3.024409e-01 1.268793e-01 1.325894e-01
<VARIANCE> 25
 5.495441e+01 4.378264e+01 3.350645e+01 2.674475e+01 5.855288e+01 3.893545e+01 5.531768e+01 4.420356e+01 3.624081e+01 2.110495e+01 2.422980e+01 3.087276e+01 9.154713e+00 6.249958e+00 2.293112e+00 2.734087e+00 6.736653e+00 2.670217e+00 4.307904e+00 5.410877e+00 3.804387e+00 3.424316e+00 2.044333e+00 2.776525e+00 4.791245e+00
<GCONST> 1.071129e+02
<STATE> 4
<MEAN> 25
 5.760157e+00 1.335335e+00 9.539365e-01 1.899014e+00 -1.653233e+00 -4.948683e+00 -4.848602e+00 -3.551518e+00 -7.011732e-01 -7.781568e-01 -4.534588e+00 -2.122359e+00 1.234876e+00 -1.617524e+00 -5.717638e-01 -4.528968e-01 -1.086905e+00 5.368174e-01 2.101886e-02 -6.197125e-01 5.673599e-01 3.568370e-01 -9.220826e-02 -1.297765e-01 1.403177e+00
<VARIANCE> 25
 5.490911e+01 5.213282e+01 2.772019e+01 1.808130e+01 4.852953e+01 3.647340e+01 3.797433e+01 5.038936e+01 3.927526e+01 2.229548e+01 2.378532e+01 2.435587e+01 7.673424e+00 7.379924e+00 2.194517e+00 3.552089e+00 7.466886e+00 3.835504e+00 6.495455e+00 5.084577e+00 4.189876e+00 3.738393e+00 2.830460e+00 2.021135e+00 5.012217e+00
<GCONST> 1.073451e+02
<TRANSP> 5
 0.000000e+00 1.000000e+00 0.000000e+00 0.000000e+00 0.000000e+00
 0.000000e+00 2.236549e-01 7.763451e-01 0.000000e+00 0.000000e+00
 0.000000e+00 0.000000e+00 1.114201e-01 8.885798e-01 0.000000e+00
 0.000000e+00 0.000000e+00 0.000000e+00 2.197987e-01 7.802013e-01
 0.000000e+00 0.000000e+00 0.000000e+00 0.000000e+00 0.000000e+00
<ENDHMM>
~h "ay"
<BEGINHMM>
<NUMSTATES> 5
<STATE> 2
<MEAN> 25
 1.137948e+01 -5.762940e+00 -5.737028e+00 -3.181922e+00 -3.475056e+00 4.539145e+00 -3.385183e-01 -6.091456e+00 -9.008290e-01 -4.364938e-01 -2.553695e+00 -5.736088e+00 2.668004e+00 -1.117564e+00 -2.109692e+00 -1.447325e+00 -8.467203e-02 1.172346e+00 -7.535158e-01 -7.955393e-01 2.371049e-01 5.087615e-01 -1.298104e-01 -1.694228e+00 2.032540e+00
<VARIANCE> 25
 4.786560e+01 2.925647e+01 3.100152e+01 2.939758e+01 2.541388e+01 3.280779e+01 1.892653e+01 3.423598e+01 3.397965e+01 3.197399e+01 3.052862e+01 1.588270e+01 5.147873e+00 5.252316e+00 2.186244e+00 3.750192e+00 3.511222e+00 2.583624e+00 3.013338e+00 5.662156e+00 5.713672e+00 2.812115e+00 2.678280e+00 2.357951e+00 3.001233e+00
<GCONST> 1.025428e+02
<STATE> 3
<MEAN> 25
 1.615332e+01 -1.080350e+01 -1.022144e+01 -4.116225e+00 -9.304944e-01 4.415603e+00 -3.636867e+00 -6.916703e+00 1.942592e+00 7.560856e-01 -4.498726e+00 -1.078325e+01 -4.951568e-02 -7.672223e-01 1.499242e-01 7.580529e-01 1.057149e-01 -8.795285e-01 -2.037519e-01 7.453634e-01 7.964854e-01 -7.415197e-01 -1.062452e+00 -1.274536e-01 3.408166e-01
<VARIANCE> 25
 3.065588e+00 1.215062e+01 3.760541e+00 9.792754e+00 1.058744e+01 1.272428e+01 1.012897e+01 8.584484e+00 1.582649e+01 1.485604e+01 1.139665e+01 1.429083e+01 1.542394e-01 1.267109e+00 8.753330e-01 9.139251e-01 1.276973e+00 1.620207e+00 8.444863e-01 1.431892e+00 1.161450e+00 1.195679e+00 1.754969e+00 1.534451e+00 2.165955e-01
<GCONST> 7.194294e+01
<STATE> 4
<MEAN> 25
 1.426105e+01 -1.235692e+01 -3.700793e+00 -3.452086e-01 -8.648536e+00 -3.631377e+00 -1.754105e-03 1.604597e-01 1.980493e+00 -5.256145e+00 -6.764976e+00 -4.151098e+00 -4.784141e-01 6.240228e-01 1.708152e+00 2.600667e-01 -1.688618e+00 -1.248065e+00 7.079914e-01 8.250837e-01 -7.547475e-01 -4.782123e-01 6.952136e-01 1.353941e+00 -3.074121e-01
<VARIANCE> 25
 5.543762e+00 1.450167e+01 1.696516e+01 5.852781e+00 2.658373e+01 1.406429e+01 1.148391e+01 1.478233e+01 1.796322e+01 1.610237e+01 1.423116e+01 2.158026e+01 1.839500e-01 1.144202e+00 8.830014e-01 6.288857e-01 1.371687e+00 1.098065e+00 1.504719e+00 1.791097e+00 1.806326e+00 1.828488e+00 1.385505e+00 1.106799e+00 3.442684e-01
<GCONST> 7.719517e+01
<TRANSP> 5
 0.000000e+00 1.000000e+00 0.000000e+00 0.000000e+00 0.000000e+00
 0.000000e+00 6.444787e-01 3.555213e-01 0.000000e+00 0.000000e+00
 0.000000e+00 0.000000e+00 7.859946e-01 2.140054e-01 0.000000e+00
 0.000000e+00 0.000000e+00 0.000000e+00 8.288522e-01 1.711478e-01
 0.000000e+00 0.000000e+00 0.000000e+00 0.000000e+00 0.000000e+00
<ENDHMM>
~h "ch"
<BEGINHMM>
<NUMSTATES> 5
<STATE> 2
<MEAN> 25
 9.991081e+00 -2.987054e+00 7.787808e+00 5.617830e-01 -1.414623e+01 -6.065320e+00 2.486811e+00 -3.610409e+00 -4.020974e+00 -1.824968e+00 -4.502933e+00 -1.468802e+00 -5.188658e-01 1.835139e+00 -4.304877e-01 9.900855e-01 2.062460e+00 4.770350e-01 6.256831e-02 9.908521e-01 -2.027994e-01 -7.087387e-01 -3.748799e-01 2.882613e-02 -1.832278e+00
<VARIANCE> 25
 7.634393e+00 1.176881e+01 5.665857e+01 2.050133e+01 4.003041e+01 3.627341e+01 5.138824e+01 4.733886e+01 3.996490e+01 2.205403e+01 1.240234e+01 1.520097e+01 5.197988e-01 3.287118e+00 1.819226e+00 1.531271e+00 2.769728e+00 1.214779e+00 1.126606e+00 1.271266e+00 8.452851e-01 1.082937e+00 8.486949e-01 7.632728e-01 3.338519e+00
<GCONST> 8.841646e+01
<STATE> 3
<MEAN> 25
 5.150580e+00 8.802717e+00 8.717565e+00 4.905434e+00 -4.869215e+00 -3.633323e+00 -4.284868e+00 -4.788153e+00 -8.841352e+00 -4.309319e+00 -7.224723e+00 -3.201923e+00 -2.182738e+00 2.561319e-01 -1.681924e+00 2.433823e-01 3.556754e+00 1.535088e+00 -7.164123e-01 9.941979e-01 6.708033e-01 -3.713352e-01 1.116805e-01 4.516156e-01 -1.985578e+00
<VARIANCE> 25
 2.422957e+01 1.237539e+01 4.989444e+01 2.459315e+01 3.504147e+01 3.000960e+01 9.285105e+01 4.076760e+01 6.616934e+01 1.349559e+01 1.920979e+01 3.801559e+01 5.678643e-01 8.552502e+00 3.399920e+00 1.880842e+00 2.412690e+00 2.919273e+00 2.413860e+00 8.173783e-01 4.917600e+00 1.107065e+00 1.114744e+00 1.650458e+00 3.728969e+00
<GCONST> 9.703534e+01
<STATE> 4
<MEAN> 25
 -2.472363e+00 -6.113342e+00 5.871359e+00 4.404985e-01 -4.709425e+00 1.258081e+00 1.538387e+00 -6.468967e+00 9.608276e-01 -6.482009e+00 -1.469270e+00 1.416040e-01 -2.336823e+00 -3.984184e+00 1.811869e-01 -7.880725e-01 -1.093002e+00 1.051332e+00 3.211588e+00 -1.429010e-01 3.414994e+00 -7.445782e-01 2.118940e+00 2.092234e-01 3.072459e+00
<VARIANCE> 25
 4.941869e+01 1.099891e+02 1.827621e+01 1.526376e+01 6.345953e+01 3.072553e+01 7.182023e+01 4.138374e+01 6.692072e+01 1.225524e+01 2.042626e+01 1.496646e+01 8.170366e-01 1.045919e+01 2.713722e+00 3.652814e+00 8.376185e+00 3.573597e+00 5.923438e+00 3.102502e+00 7.481723e+00 1.760413e+00 1.457070e+00 3.506524e+00 7.505740e+00
<GCONST> 1.051574e+02
<TRANSP> 5
 0.000000e+00 1.000000e+00 0.000000e+00 0.000000e+00 0.000000e+00
 0.000000e+00 7.502924e-01 2.497076e-01 0.000000e+00 0.000000e+00
 0.000000e+00 0.000000e+00 4.678970e-01 5.321030e-01 0.000000e+00
 0.000000e+00 0.000000e+00 0.000000e+00 6.393219e-01 3.606780e-01
 0.000000e+00 0.000000e+00 0.000000e+00 0.000000e+00 0.000000e+00
<ENDHMM>
~h "dh"
<BEGINHMM>
<NUMSTATES> 5
<STATE> 2
<MEAN> 25
 4.907970e+00 -2.567641e+00 1.064245e+00 4.128225e+00 -4.462623e+00 -6.664749e+00 -1.055058e+00 -4.491034e+00 1.398682e+00 -2.628177e+00 -4.907236e+00 -2.330211e+00 2.303765e+00 -9.346979e-01 1.236621e-01 9.654295e-02 -2.124319e+00 -1.177371e+00 -1.071560e+00 -1.698327e+00 2.502870e-01 5.424078e-01 -1.396591e-01 -6.772968e-01 2.428039e+00
<VARIANCE> 25
 4.308866e+01 3.426962e+01 2.439697e+01 1.603715e+01 2.916966e+01 2.821383e+01 6.056567e+01 3.119843e+01 3.044779e+01 1.943478e+01 1.405789e+01 1.387990e+01 6.295182e+00 6.398932e+00 4.344303e+00 4.154828e+00 6.139479e+00 4.697195e+00 7.217587e+00 5.670210e+00 5.884241e+00 2.712123e+00 2.962871e+00 2.461578e+00 5.864610e+00
<GCONST> 1.053160e+02
<STATE> 3
<MEAN> 25
 9.685367e+00 -3.219473e+00 1.964512e+00 3.173329e+00 -7.648952e+00 -6.960732e+00 -4.497861e+00 -9.654953e+00 1.928137e+00 1.775426e-01 -3.292583e+00 -4.310945e+00 -8.839995e-02 1.351809e+00 6.687676e-01 3.244939e-01 1.042687e+00 7.856971e-01 -4.253008e-01 -3.629055e-01 -1.727708e+00 3.588318e-01 7.360620e-01 -6.842300e-01 -8.612089e-01
<VARIANCE> 25
 3.192528e+01 3.261633e+01 2.844688e+01 3.563729e+01 4.305153e+01 3.579743e+01 6.164943e+01 2.961589e+01 7.208060e+01 3.227060e+01 2.165116e+01 1.521040e+01 3.314352e+00 5.400691e+00 2.716387e+00 3.062327e+00 6.743429e+00 2.866750e+00 2.622773e+00 4.122728e+00 7.968390e+00 2.728008e+00 1.789333e+00 1.382866e+00 4.418050e+00
<GCONST> 1.040321e+02
<STATE> 4
<MEAN> 25
 7.667346e+00 3.716248e+00 4.874583e+00 6.456972e+00 -2.006337e+00 -4.353714e+00 -4.433730e+00 -7.921009e+00 -5.513996e+00 -4.495014e-01 -3.024325e+00 -5.966816e+00 -1.183895e+00 1.945534e+00 3.150580e-01 -1.161759e-01 1.935062e+00 3.744912e-01 -4.334114e-01 1.703837e+00 -2.904046e-01 -4.259621e-01 -8.590101e-02 2.824814e-01 -2.042456e+00
<VARIANCE> 25
 3.453722e+01 3.485320e+01 4.952709e+01 4.717552e+01 6.677618e+01 4.381567e+01 6.506559e+01 4.729297e+01 4.785408e+01 2.671763e+01 2.909184e+01 1.466718e+01 4.130047e+00 6.014073e+00 2.319760e+00 3.146040e+00 4.598860e+00 2.776074e+00 3.130351e+00 3.001278e+00 2.892565e+00 2.912647e+00 2.125903e+00 1.922140e+00 5.276621e+00
<GCONST> 1.052083e+02
<TRANSP> 5
 0.000000e+00 1.000000e+00 0.000000e+00 0.000000e+00 0.000000e+00
 0.000000e+00 5.593717e-01 4.406283e-01 0.000000e+00 0.000000e+00
 0.000000e+00 0.000000e+00 4.681547e-01 5.318453e-01 0.000000e+00
 0.000000e+00 0.000000e+00 0.000000e+00 4.465791e-01 5.534210e-01
 0.000000e+00 0.000000e+00 0.000000e+00 0.000000e+00 0.000000e+00
<ENDHMM>
~h "dx"
<BEGINHMM>
<NUMSTATES> 5
<STATE> 2
<MEAN> 25
 9.713409e+00 -5.784189e+00 7.575419e+00 3.111606e+00 -1.519102e+01 -7.889278e+00 -6.252070e+00 -5.374918e+00 -2.303173e+00 -4.392882e+00 -5.717158e-03 -2.313676e-01 -2.319947e-01 1.101706e+00 4.633124e-01 -2.995318e-01 7.945197e-01 1.983439e-01 3.186896e-02 -2.587208e-01 -6.696067e-01 3.749256e-01 -3.025280e-01 2.547360e-01 -8.256413e-01
<VARIANCE> 25
 2.582759e+01 8.166224e+00 4.088252e+01 7.456069e+00 4.838900e+01 1.449774e+01 1.551560e+01 1.119802e+01 3.062600e+01 6.744347e+00 1.647232e+01 7.510463e+00 1.717711e+00 1.872729e+00 1.176822e+00 8.028674e-01 4.301410e+00 1.487725e+00 9.656537e-01 1.275984e+00 1.431911e+00 1.349376e+00 2.981086e+00 9.236824e-01 1.602942e+00
<GCONST> 8.419749e+01
<STATE> 3
<MEAN> 25
 4.665596e+00 -4.878694e-02 9.792312e+00 2.041224e+00 -6.472440e+00 -7.037639e+00 -6.432506e+00 -5.307307e+00 -2.378821e+00 -3.458672e+00 -3.708121e+00 1.403852e+00 -2.290637e+00 2.358656e+00 3.247418e-01 -5.004435e-01 3.093123e+00 1.483188e-01 3.626839e-01 8.683341e-01 -8.761664e-02 -6.448329e-02 -2.403356e-01 3.536063e-01 -2.491371e+00
<VARIANCE> 25
 3.154570e+01 2.636889e+01 1.483337e+01 9.590301e+00 6.085073e+01 3.697483e+01 1.921176e+01 1.412473e+01 2.924184e+01 1.208683e+01 1.063140e+01 9.953646e+00 4.679323e+00 2.238726e+00 6.024335e+00 1.045361e+00 3.570793e+00 1.555561e+00 1.790971e+00 2.245807e+00 3.096394e+00 1.926875e+00 2.079485e+00 4.961595e-01 2.988041e+00
<GCONST> 9.168746e+01
<STATE> 4
<MEAN> 25
 -5.824609e+00 1.535337e+00 2.464966e+00 -1.095215e+00 1.113275e+00 -6.805448e+00 2.375926e+00 -2.437951e+00 -5.703799e-01 -3.038881e+00 2.204655e-01 1.616802e+00 -5.701222e-01 -4.289234e-01 -1.226962e-01 -7.573387e-02 4.743851e-01 4.769392e-02 1.560746e+00 -2.968144e-02 1.476467e-01 -2.954459e-01 5.059975e-02 1.605603e-02 7.688740e-01
<VARIANCE> 25
 5.185624e+01 3.143970e+01 3.766234e+01 2.058780e+01 3.559347e+01 2.491989e+01 7.871935e+01 1.670732e+01 2.556711e+01 1.430340e+01 2.503072e+01 1.273169e+01 1.018385e+01 2.818029e+00 5.587590e+00 4.225025e+00 4.276845e+00 3.052672e+00 8.259080e+00 2.305153e+00 3.647327e+00 1.975839e+00 3.259339e+00 1.279648e+00 5.808656e+00
<GCONST> 1.028289e+02
<TRANSP> 5
 0.000000e+00 1.000000e+00 0.000000e+00 0.000000e+00 0.000000e+00
 0.000000e+00 5.287244e-01 4.712757e-01 0.000000e+00 0.000000e+00
 0.000000e+00 0.000000e+00 5.107179e-01 4.892821e-01 0.000000e+00
 0.000000e+00 0.000000e+00 0.000000e+00 6.749160e-01 3.250840e-01
 0.000000e+00 0.000000e+00 0.000000e+00 0.000000e+00 0.000000e+00
<ENDHMM>
~h "eh"
<BEGINHMM>
<NUMSTATES> 5
<STATE> 2
<MEAN> 25
 4.322108e+00 6.476889e-01 5.242962e+00 4.759122e+00 -2.603661e+00 -4.708610e+00 1.555350e+00 -2.577966e+00 -1.411301e+00 -9.706627e-01 -3.750950e+00 -2.038135e+00 1.623471e+00 -1.106294e-01 1.191577e-02 4.785375e-01 -8.575479e-01 1.808548e-01 -1.322285e+00 -1.471939e-01 7.201523e-03 3.598599e-01 -2.130209e-01 -6.784593e-01 2.138643e-02
<VARIANCE> 25
 6.391430e+01 5.770453e+01 5.582538e+01 2.827103e+01 1.266296e+02 5.255181e+01 4.075013e+01 7.649214e+01 5.604768e+01 2.054885e+01 2.604422e+01 2.295144e+01 1.614309e+01 3.639573e+00 4.367251e+00 1.806784e+00 1.744979e+01 2.924791e+00 8.071142e+00 2.926988e+00 3.286518e+00 2.133153e+00 1.975586e+00 1.731980e+00 5.473508e+00
<GCONST> 1.099251e+02
<STATE> 3
<MEAN> 25
 5.952270e+00 -1.098925e+00 3.272287e+00 3.822603e+00 -5.276005e+00 -5.958176e+00 9.718049e-01 -3.851135e+00 -1.267570e+00 -1.559184e+00 -3.344130e+00 -1.900061e+00 1.855969e+00 -1.036696e+00 6.808937e-04 -4.161853e-01 -2.401614e+00 -5.964492e-01 -1.005232e+00 -1.312843e+00 -2.404353e-01 2.269564e-01 -6.397480e-02 -8.178065e-01 1.584928e+00
<VARIANCE> 25
 5.885150e+01 4.635297e+01 4.339078e+01 3.275035e+01 8.915437e+01 4.667072e+01 3.883066e+01 4.869902e+01 4.185890e+01 1.738073e+01 2.237422e+01 1.733327e+01 9.042631e+00 3.419164e+00 6.872981e+00 1.663747e+00 1.568975e+01 7.528372e+00 6.485122e+00 4.951800e+00 3.450869e+00 2.584942e+00 1.973255e+00 1.521325e+00 9.218345e+00
<GCONST> 1.091637e+02
<STATE> 4
<MEAN> 25
 6.930121e+00 -2.668792e+00 4.560823e+00 2.636797e+00 -1.103695e+01 -6.249085e+00 1.357082e-01 -6.976427e+00 -1.481937e+00 -1.598041e-01 -2.482601e+00 -3.644838e+00 4.925769e-01 -1.238979e+00 -8.947018e-01 -6.468911e-01 -4.876249e-01 3.550018e-01 -4.747571e-01 -5.850360e-02 5.226834e-01 6.851014e-01 2.757927e-01 -4.740624e-01 5.300192e-01
<VARIANCE> 25
 6.987927e+01 5.718378e+01 4.718069e+01 2.025782e+01 1.092128e+02 3.796575e+01 2.896583e+01 4.318446e+01 3.914232e+01 1.933828e+01 1.740014e+01 1.399660e+01 3.068566e+00 3.428710e+00 4.987706e+00 1.841018e+00 7.342729e+00 3.441227e+00 1.957336e+00 2.709209e+00 2.235048e+00 2.048520e+00 2.178948e+00 1.427867e+00 3.100323e+00
<GCONST> 1.019450e+02
<TRANSP> 5
 0.000000e+00 1.000000e+00 0.000000e+00 0.000000e+00 0.000000e+00
 0.000000e+00 7.125569e-02 9.287443e-01 0.000000e+00 0.000000e+00
 0.000000e+00 0.000000e+00 2.340377e-01 7.659624e-01 0.000000e+00
 0.000000e+00 0.000000e+00 0.000000e+00 4.204687e-01 5.795313e-01
 0.000000e+00 0.000000e+00 0.000000e+00 0.000000e+00 0.000000e+00
<ENDHMM>
~h "er"
<BEGINHMM>
<NUMSTATES> 5
<STATE> 2
<MEAN> 25
 1.240558e+01 -5.098781e+00 2.285895e+00 2.099436e+00 -9.798029e+00 -7.201516e+00 -6.186862e+00 -6.185908e+00 -6.144543e-01 -7.919553e-01 -3.304162e+00 -4.118111e+00 7.521917e-01 -8.952460e-01 -4.761343e-01 2.578829e-01 -7.907238e-01 -6.570411e-01 -1.115297e+00 3.446321e-01 5.678266e-01 -1.218597e-01 5.187302e-01 1.310685e-01 5.830156e-01
<VARIANCE> 25
 1.817173e+01 2.931462e+01 3.900494e+01 2.122437e+01 5.579982e+01 2.649513e+01 3.242585e+01 2.354768e+01 2.162287e+01 1.222817e+01 1.899418e+01 9.981735e+00 2.786175e+00 2.204596e+00 3.122666e+00 2.717173e+00 4.092905e+00 3.923834e+00 3.990543e+00 4.906353e+00 1.705096e+00 2.750007e+00 1.813921e+00 1.660093e+00 1.317001e+00
<GCONST> 9.633006e+01
<STATE> 3
<MEAN> 25
 1.299314e+01 -7.144723e+00 -9.211634e-01 2.360557e+00 -9.309029e+00 -8.811714e+00 -8.842204e+00 -4.917554e+00 1.727220e+00 -1.813425e-01 -3.043320e+00 -4.310421e+00 2.069929e-01 4.806598e-01 -5.625185e-01 3.350078e-01 5.208382e-01 4.420067e-01 -4.552713e-01 -7.084435e-02 3.873581e-01 -3.488617e-01 1.295736e-01 3.944302e-01 -4.776932e-01
<VARIANCE> 25
 2.396680e+01 2.675958e+01 3.203164e+01 2.883305e+01 4.611662e+01 3.197129e+01 4.064753e+01 3.537133e+01 1.773645e+01 2.266222e+01 1.909809e+01 1.304958e+01 1.560146e+00 1.637727e+00 3.609454e+00 2.201352e+00 3.075111e+00 2.390679e+00 3.072666e+00 4.420929e+00 3.631442e+00 2.292729e+00 1.336618e+00 3.274886e+00 7.742987e-01
<GCONST> 9.627477e+01
<STATE> 4
<MEAN> 25
 1.454568e+01 -5.771656e+00 -5.175099e+00 3.916662e+00 -3.511196e+00 -6.886230e+00 -9.563200e+00 -2.524279e+00 4.792273e-01 -2.819595e+00 -2.735503e+00 -4.810110e-02 -6.653138e-01 4.523503e-01 6.473050e-01 -1.622863e-03 4.835688e-01 5.759367e-01 8.913458e-01 3.532754e-01 -2.044057e-01 -1.032370e-01 -1.567983e-02 1.848379e-01 -4.936236e-01
<VARIANCE> 25
 3.883190e+01 3.398121e+01 5.319717e+01 1.742605e+01 6.705572e+01 5.313992e+01 5.940786e+01 4.659848e+01 2.875670e+01 2.249565e+01 1.997443e+01 2.958448e+01 1.771984e+00 3.077347e+00 3.102103e+00 1.437779e+00 4.894890e+00 1.977944e+00 2.816949e+00 3.074802e+00 2.657365e+00 1.865695e+00 1.874177e+00 3.084430e+00 1.568191e+00
<GCONST> 1.003482e+02
<TRANSP> 5
 0.000000e+00 1.000000e+00 0.000000e+00 0.000000e+00 0.000000e+00
 0.000000e+00 4.303194e-01 5.696806e-01 0.000000e+00 0.000000e+00
 0.000000e+00 0.000000e+00 3.872074e-01 6.127926e-01 0.000000e+00
 0.000000e+00 0.000000e+00 0.000000e+00 5.571896e-01 4.428104e-01
 0.000000e+00 0.000000e+00 0.000000e+00 0.000000e+00 0.000000e+00
<ENDHMM>
~h "ey"
<BEGINHMM>
<NUMSTATES> 5
<STATE> 2
<MEAN> 25
 1.370854e+01 -9.208142e+00 -2.943128e+00 1.480957e+00 -9.753910e+00 -5.930671e+00 -8.560994e-01 -4.226460e+00 2.965026e+00 9.917223e-01 -4.391643e+00 -8.653861e+00 6.075211e-01 -1.474173e+00 -4.339048e-01 -4.328529e-01 -1.238608e+00 -1.147474e+00 4.690543e-01 1.620994e+00 1.479369e+00 -1.174064e+00 -9.590957e-01 2.335370e-01 1.332191e+00
<VARIANCE> 25
 1.288747e+01 2.054876e+01 2.723948e+01 1.693269e+01 2.103279e+01 1.207382e+01 1.447179e+01 3.002863e+01 3.200352e+01 4.017426e+01 2.164080e+01 2.943727e+01 2.808812e+00 1.760698e+00 2.995715e+00 2.896939e+00 1.684110e+00 1.670540e+00 3.238327e+00 2.944685e+00 3.125336e+00 3.183930e+00 2.368851e+00 4.228772e+00 1.268873e+00
<GCONST> 9.477614e+01
<STATE> 3
<MEAN> 25
 1.338356e+01 -1.048625e+01 -5.494833e-01 9.420708e-01 -1.466776e+01 -6.870745e+00 3.940122e+00 -3.357931e-01 1.841013e+00 -3.735120e+00 -3.317558e+00 -3.616088e+00 -1.336174e-01 2.629029e-01 1.031505e+00 6.894698e-02 -9.571731e-01 -1.970137e-01 3.468405e-01 -2.915849e-01 -1.010477e+00 8.571396e-02 1.035642e+00 5.431054e-01 -2.144115e-01
<VARIANCE> 25
 7.860220e+00 9.134953e+00 1.507729e+01 5.424219e+00 2.099753e+01 9.181589e+00 1.023951e+01 1.349365e+01 2.139675e+01 1.815698e+01 1.465427e+01 1.295814e+01 2.023678e-01 5.978138e-01 1.314823e+00 2.758293e-01 9.604510e-01 5.447590e-01 6.376854e-01 1.484389e+00 1.105013e+00 9.954448e-01 1.518961e+00 8.331774e-01 1.643494e-01
<GCONST> 7.071970e+01
<STATE> 4
<MEAN> 25
 1.145270e+01 -5.152788e+00 8.930311e+00 1.601189e+00 -1.933193e+01 -6.928102e+00 3.505354e+00 -7.552438e+00 -6.195331e+00 -1.203689e-01 1.796826e+00 -3.234028e+00 -5.299566e-01 1.599760e+00 1.288347e+00 9.358858e-01 6.463379e-01 3.202990e-01 -5.390210e-01 -1.007099e+00 -1.288164e+00 3.993706e-01 -3.421065e-01 -3.653512e-01 -1.338878e+00
<VARIANCE> 25
 5.962562e+00 2.392210e+01 2.392570e+01 1.793596e+01 1.616023e+01 1.797231e+01 1.128115e+01 2.178713e+01 1.869394e+01 9.255206e+00 1.374484e+01 1.167603e+01 7.914042e-01 1.239416e+00 1.987112e+00 1.711222e+00 3.474615e+00 9.055903e-01 1.292278e+00 1.373162e+00 1.973103e+00 1.125547e+00 1.659893e+00 1.461312e+00 9.307063e-01
<GCONST> 8.291299e+01
<TRANSP> 5
 0.000000e+00 1.000000e+00 0.000000e+00 0.000000e+00 0.000000e+00
 0.000000e+00 6.763309e-01 3.236692e-01 0.000000e+00 0.000000e+00
 0.000000e+00 0.000000e+00 8.464214e-01 1.535786e-01 0.000000e+00
 0.000000e+00 0.000000e+00 0.000000e+00 7.669158e-01 2.330842e-01
 0.000000e+00 0.000000e+00 0.000000e+00 0.000000e+00 0.000000e+00
<ENDHMM>
~h "hh"
<BEGINHMM>
<NUMSTATES> 5
<STATE> 2
<MEAN> 25
 -3.665468e+00 -6.231508e+00 5.974673e+00 8.462170e-01 -4.406184e+00 -1.010007e-01 5.859375e+00 1.104553e-01 5.427958e-01 -3.620634e+00 -6.002064e-01 -2.431477e-01 2.127993e+00 -6.386507e-01 1.158664e+00 6.821678e-01 -1.587176e+00 -1.899288e-01 -4.551461e-01 -3.809987e-01 -6.551538e-01 -1.627624e-01 -8.630932e-01 -8.534726e-01 9.923475e-01
<VARIANCE> 25
 4.713380e+01 4.243116e+01 4.577820e+01 2.499168e+01 3.852594e+01 4.090950e+01 4.724374e+01 6.924014e+01 2.882453e+01 3.977327e+01 3.253424e+01 1.536381e+01 3.800268e+00 5.308580e+00 4.660939e+00 2.046400e+00 3.356262e+00 2.667191e+00 5.207619e+00 5.103733e+00 2.796243e+00 3.459444e+00 2.132793e+00 2.061584e+00 3.512448e+00
<GCONST> 1.050427e+02
<STATE> 3
<MEAN> 25
 9.818388e+00 -3.552662e+00 7.883610e+00 2.272172e+00 -1.075341e+01 -3.123514e+00 -4.349766e-01 -4.619158e+00 -2.171268e+00 -2.949105e+00 -3.834871e+00 -4.301788e+00 2.535304e+00 -1.801911e-02 -3.810183e-01 6.218649e-01 -1.539288e+00 -1.330465e+00 -9.000452e-01 -2.058443e+00 -6.291598e-01 7.710772e-01 -2.937733e-02 -1.224040e+00 1.784840e+00
<VARIANCE> 25
 2.975024e+01 2.722732e+01 7.808723e+01 2.299819e+01 3.392233e+01 3.245061e+01 2.942934e+01 6.251148e+01 2.622590e+01 2.105200e+01 2.422968e+01 1.280108e+01 3.292995e+00 4.241579e+00 6.239512e+00 2.585806e+00 4.071565e+00 2.642223e+00 3.432963e+00 2.990097e+00 3.160785e+00 3.015307e+00 1.936705e+00 1.626693e+00 3.961013e+00
<GCONST> 1.016098e+02
<STATE> 4
<MEAN> 25
 1.301758e+01 -3.727929e-01 4.486443e+00 7.338088e+00 -8.382413e+00 -4.261118e+00 -1.639273e+00 -1.210571e+01 -4.991563e+00 1.292549e+00 -3.784151e+00 -1.000485e+01 8.465046e-02 6.021935e-01 3.171981e-01 -1.535348e-01 1.879536e-02 2.327050e-02 -1.884387e-01 -3.020374e-01 -3.013132e-01 3.156572e-01 -9.270306e-02 -1.156681e-01 -8.151384e-02
<VARIANCE> 25
 6.702031e+00 2.309507e+01 3.471043e+01 2.261922e+01 3.316354e+01 1.215743e+01 3.294641e+01 3.594776e+01 2.363640e+01 1.865039e+01 1.317858e+01 1.644065e+01 1.023065e+00 3.141265e+00 2.722635e+00 1.618653e+00 2.401905e+00 1.601351e+00 1.833593e+00 3.878262e+00 3.078051e+00 1.795210e+00 1.142118e+00 2.117430e+00 2.049034e+00
<GCONST> 9.146740e+01
<TRANSP> 5
 0.000000e+00 1.000000e+00 0.000000e+00 0.000000e+00 0.000000e+00
 0.000000e+00 6.932084e-01 3.067916e-01 0.000000e+00 0.000000e+00
 0.000000e+00 0.000000e+00 5.656711e-01 4.343288e-01 0.000000e+00
 0.000000e+00 0.000000e+00 0.000000e+00 6.730384e-01 3.269616e-01
 0.000000e+00 0.000000e+00 0.000000e+00 0.000000e+00 0.000000e+00
<ENDHMM>
~h "ih"
<BEGINHMM>
<NUMSTATES> 5
<STATE> 2
<MEAN> 25
 6.061217e+00 -5.420514e-01 6.052887e-01 1.527543e+00 -2.326828e+00 -4.805693e+00 -3.533953e+00 -5.000641e+00 -1.753625e-01 1.420664e+00 -3.729909e+00 -3.454237e+00 4.687455e-01 -5.487730e-01 7.794195e-01 9.401640e-02 -1.230609e+00 -1.015953e+00 -6.500789e-01 1.950092e-01 7.459692e-01 -3.343049e-01 -3.707612e-01 2.055692e-01 7.100210e-01
<VARIANCE> 25
 8.384193e+01 2.749360e+01 3.698347e+01 2.468494e+01 6.185545e+01 3.019617e+01 3.574964e+01 3.884272e+01 4.264434e+01 2.626345e+01 2.227590e+01 2.120995e+01 1.151624e+01 4.022413e+00 3.619692e+00 2.379599e+00 7.141014e+00 3.241879e+00 5.446192e+00 4.579677e+00 4.873121e+00 3.100385e+00 2.124162e+00 3.282436e+00 6.491659e+00
<GCONST> 1.073294e+02
<STATE> 3
<MEAN> 25
 5.152630e+00 -2.310384e+00 2.467508e+00 1.593365e+00 -4.753391e+00 -5.986702e+00 -3.166326e+00 -5.451837e+00 1.444692e+00 1.387061e+00 -3.140776e+00 -2.512154e+00 3.729208e-01 -5.627996e-01 7.868586e-01 1.820543e-01 -9.749185e-01 -4.199726e-01 -4.908433e-01 1.890121e-01 1.433319e-01 -3.133998e-01 -8.167277e-02 2.062298e-01 6.847737e-01
<VARIANCE> 25
 1.132138e+02 3.079000e+01 3.979116e+01 2.489062e+01 7.549706e+01 2.266125e+01 6.945278e+01 2.873951e+01 3.886883e+01 2.700653e+01 2.258204e+01 2.764512e+01 7.273497e+00 4.289031e+00 3.184332e+00 1.987911e+00 6.962794e+00 2.845334e+00 4.970733e+00 3.248209e+00 4.111679e+00 2.536162e+00 2.067022e+00 2.602287e+00 7.728705e+00
<GCONST> 1.065636e+02
<STATE> 4
<MEAN> 25
 7.616338e+00 -4.286182e+00 3.854408e+00 2.080580e+00 -8.133570e+00 -6.499781e+00 -3.531637e+00 -5.041839e+00 1.111636e+00 -8.489732e-01 -2.904276e+00 -2.549331e+00 2.630278e-01 4.022314e-01 3.605077e-01 2.534971e-01 -7.674605e-02 -3.155316e-01 -2.537266e-02 1.357467e-01 -5.106537e-02 -6.020689e-01 -1.839972e-01 3.185436e-01 3.569738e-01
<VARIANCE> 25
 4.617296e+01 3.951370e+01 4.391271e+01 1.365162e+01 6.226515e+01 2.209911e+01 4.676706e+01 2.775104e+01 3.468981e+01 3.682694e+01 1.955234e+01 1.903634e+01 6.153708e+00 5.121101e+00 2.598226e+00 2.208323e+00 5.994750e+00 3.432422e+00 3.005494e+00 2.950550e+00 3.117768e+00 1.702487e+00 2.428643e+00 2.371559e+00 7.079126e+00
<GCONST> 1.031008e+02
<TRANSP> 5
 0.000000e+00 1.000000e+00 0.000000e+00 0.000000e+00 0.000000e+00
 0.000000e+00 2.465914e-01 7.534086e-01 0.000000e+00 0.000000e+00
 0.000000e+00 0.000000e+00 1.956520e-01 8.043480e-01 0.000000e+00
 0.000000e+00 0.000000e+00 0.000000e+00 3.158937e-01 6.841063e-01
 0.000000e+00 0.000000e+00 0.000000e+00 0.000000e+00 0.000000e+00
<ENDHMM>
~h "ix"
<BEGINHMM>
<NUMSTATES> 5
<STATE> 2
<MEAN> 25
 4.722749e-01 1.039477e+00 3.397614e+00 3.320709e-01 -2.426532e-01 -1.079955e-01 -1.284116e+00 -1.322531e+00 -3.733118e-01 -2.640141e+00 -8.068792e-01 -8.760833e-01 7.227900e-01 -4.579165e-01 1.060295e+00 -5.998194e-01 -8.817564e-01 -6.448200e-01 -1.423757e+00 -4.267581e-01 -2.768386e-01 -1.095508e+00 -7.335528e-01 -9.615356e-01 1.557339e+00
<VARIANCE> 25
 7.581706e+01 5.993995e+01 2.756408e+01 2.777848e+01 6.125176e+01 3.783068e+01 4.910044e+01 5.808556e+01 4.170372e+01 2.057605e+01 3.856383e+01 1.937631e+01 1.228630e+01 6.234692e+00 2.737335e+00 3.827428e+00 9.456351e+00 4.631831e+00 3.857661e+00 7.008904e+00 4.329311e+00 3.448868e+00 7.083931e+00 3.315061e+00 7.634855e+00
<GCONST> 1.117415e+02
<STATE> 3
<MEAN> 25
 5.106687e+00 -9.040809e-01 5.386351e+00 1.527314e+00 -4.875315e+00 -3.963969e+00 -3.636257e+00 -3.501038e+00 -3.829751e-01 -3.609639e+00 -3.430747e+00 -3.412698e+00 1.555768e+00 -1.345373e+00 1.333306e-01 -5.284983e-01 -1.771488e+00 -1.149460e+00 -1.611456e+00 -2.261926e-01 3.851138e-01 1.687202e-01 -2.074874e-01 1.389734e-02 2.125063e+00
<VARIANCE> 25
 5.081730e+01 5.399042e+01 3.285810e+01 2.596821e+01 5.751065e+01 3.587084e+01 5.293792e+01 1.999175e+01 3.780037e+01 2.330692e+01 2.625411e+01 1.372764e+01 1.242185e+01 5.512463e+00 2.650884e+00 2.663025e+00 6.499410e+00 2.437657e+00 6.406235e+00 5.571826e+00 3.215041e+00 2.465295e+00 4.543307e+00 1.754574e+00 6.457352e+00
<GCONST> 1.064075e+02
<STATE> 4
<MEAN> 25
 7.765458e+00 -4.441992e+00 3.880489e+00 2.590784e-01 -7.910773e+00 -5.321262e+00 -6.110334e+00 -3.564103e+00 1.138073e+00 -2.807510e+00 -3.244250e+00 -2.128619e+00 4.476416e-02 -4.651990e-02 -4.054760e-01 5.513331e-02 -5.498469e-01 -8.581037e-01 3.255572e-01 -4.485224e-01 3.112881e-01 4.838855e-01 -5.082259e-01 5.967963e-01 3.255228e-01
<VARIANCE> 25
 4.878651e+01 3.621208e+01 2.390474e+01 2.336937e+01 5.141254e+01 2.888753e+01 5.273834e+01 2.713734e+01 2.605870e+01 2.929829e+01 4.112021e+01 9.328289e+00 6.880342e+00 6.339184e+00 4.137224e+00 3.660386e+00 6.227428e+00 3.497206e+00 6.775229e+00 4.157718e+00 4.201334e+00 2.623116e+00 3.267481e+00 1.893969e+00 6.189679e+00
<GCONST> 1.058638e+02
<TRANSP> 5
 0.000000e+00 1.000000e+00 0.000000e+00 0.000000e+00 0.000000e+00
 0.000000e+00 3.391902e-01 6.608097e-01 0.000000e+00 0.000000e+00
 0.000000e+00 0.000000e+00 2.311031e-01 7.688969e-01 0.000000e+00
 0.000000e+00 0.000000e+00 0.000000e+00 2.987217e-01 7.012783e-01
 0.000000e+00 0.000000e+00 0.000000e+00 0.000000e+00 0.000000e+00
<ENDHMM>
~h "iy"
<BEGINHMM>
<NUMSTATES> 5
<STATE> 2
<MEAN> 25
 1.003817e+01 -4.247308e+00 6.442274e+00 3.612080e+00 -1.334833e+01 -8.807074e+00 -2.156875e+00 -5.347775e+00 -3.511878e+00 -5.054911e+00 -9.106817e-01 -4.603990e-01 7.077725e-01 -4.588484e-01 2.361895e+00 -4.916984e-02 -3.616620e+00 -3.556150e-01 1.129638e+00 -7.434421e-01 -2.040619e+00 -1.357725e-01 1.046220e+00 -2.016210e-01 9.760849e-01
<VARIANCE> 25
 2.137663e+01 2.724369e+01 4.465863e+01 1.708229e+01 4.958378e+01 4.306371e+01 3.602351e+01 4.754951e+01 4.854337e+01 2.861945e+01 2.037062e+01 2.066782e+01 4.654486e+00 3.256031e+00 3.051466e+00 2.803699e+00 4.385650e+00 5.867854e+00 7.139124e+00 5.873146e+00 4.412159e+00 3.874475e+00 3.413128e+00 2.483347e+00 1.870801e+00
<GCONST> 1.047937e+02
<STATE> 3
<MEAN> 25
 9.565855e+00 -3.140348e+00 1.449128e+01 1.234722e+00 -2.070951e+01 -4.931429e+00 1.444077e+00 -1.263457e+01 -9.210649e+00 -3.316114e-01 -3.562814e-01 -4.276474e+00 -2.986789e-01 6.495023e-01 1.113428e+00 -4.063516e-01 -2.093529e-01 1.163558e+00 3.583952e-01 -1.611398e+00 -7.841427e-01 1.102468e+00 -6.626906e-01 -9.326705e-01 -3.964959e-01
<VARIANCE> 25
 7.341275e+00 1.634057e+01 2.138930e+01 1.732689e+01 1.615565e+01 2.872817e+01 8.184393e+00 3.107216e+01 1.511504e+01 1.342536e+01 1.464750e+01 1.048157e+01 6.553787e-01 1.468805e+00 1.793297e+00 1.638174e+00 1.958075e+00 2.733222e+00 1.423558e+00 2.129184e+00 1.651537e+00 1.352286e+00 1.099859e+00 1.138873e+00 8.615519e-01
<GCONST> 8.338025e+01
<STATE> 4
<MEAN> 25
 6.522182e+00 1.354777e+00 1.140439e+01 1.191692e+00 -1.233253e+01 -4.643142e-02 7.210779e-01 -1.078410e+01 -8.009478e+00 6.428612e-01 -2.790193e+00 -4.461111e+00 -3.210467e-01 2.990556e-01 -9.705013e-01 5.099640e-01 1.347921e+00 -1.057221e-01 -1.185649e-01 8.701911e-01 4.197372e-01 -3.042750e-01 -4.612058e-03 2.947226e-01 -7.339357e-01
<VARIANCE> 25
 3.398676e+01 3.208149e+01 6.108428e+01 2.426394e+01 1.043814e+02 4.623706e+01 1.628740e+01 8.452811e+01 2.798473e+01 2.082010e+01 1.681555e+01 2.397593e+01 1.249003e+00 1.494359e+00 1.894646e+00 1.816484e+00 3.549874e+00 2.584375e+00 1.666480e+00 2.358881e+00 1.730239e+00 1.632773e+00 1.786514e+00 1.101526e+00 1.590062e+00
<GCONST> 9.594319e+01
<TRANSP> 5
 0.000000e+00 1.000000e+00 0.000000e+00 0.000000e+00 0.000000e+00
 0.000000e+00 5.632033e-01 4.367967e-01 0.000000e+00 0.000000e+00
 0.000000e+00 0.000000e+00 7.117535e-01 2.882464e-01 0.000000e+00
 0.000000e+00 0.000000e+00 0.000000e+00 7.896788e-01 2.103212e-01
 0.000000e+00 0.000000e+00 0.000000e+00 0.000000e+00 0.000000e+00
<ENDHMM>
~h "jh"
<BEGINHMM>
<NUMSTATES> 5
<STATE> 2
<MEAN> 25
 9.521725e+00 -2.919993e-01 1.093594e+01 1.345327e+00 -1.531684e+01 -1.349918e+00 -1.233330e+00 -1.006778e+01 -8.722119e+00 3.039218e-01 4.724671e-01 -3.834972e+00 -4.554656e-01 1.292711e+00 -7.242241e-01 8.231376e-01 2.062453e+00 -3.674123e-01 -1.794114e-01 7.870367e-01 -2.155988e-01 -6.033060e-01 -3.853070e-01 4.981172e-01 -1.374221e+00
<VARIANCE> 25
 1.058604e+01 1.917201e+01 1.967959e+01 1.694619e+01 3.987150e+01 2.231179e+01 5.876453e+00 1.970321e+01 1.392621e+01 8.638493e+00 4.230160e+00 7.302919e+00 1.345398e+00 3.373040e+00 1.137974e+00 1.271288e+00 4.695295e+00 1.641218e+00 5.214251e-01 1.321892e+00 1.003136e+00 3.894212e-01 1.475805e+00 6.337087e-01 3.165450e+00
<GCONST> 8.052959e+01
<STATE> 3
<MEAN> 25
 -9.411641e-01 5.349755e+00 4.244292e+00 3.787291e+00 3.254657e-01 3.422338e-01 -1.185954e+00 -1.023212e+00 -7.310030e+00 -7.672039e-01 -7.730839e-02 -2.222469e-01 -1.724321e+00 -2.165067e+00 -7.155457e-01 -5.937175e-01 4.370790e-01 1.324319e+00 1.143941e+00 -4.186594e-01 1.608922e+00 -1.854536e-01 2.188125e-01 4.528520e-01 3.493087e-01
<VARIANCE> 25
 4.108424e+01 9.566824e+01 2.447912e+01 1.307770e+01 2.759666e+01 2.531848e+01 2.658013e+01 5.348518e+01 2.186786e+01 3.540647e+01 2.956552e+01 1.186682e+01 1.480333e+00 1.504426e+01 2.997355e+00 1.423725e+00 7.970289e+00 1.095130e+00 4.529510e+00 7.557355e+00 2.128149e+00 1.755934e+00 2.857782e+00 8.552208e-01 8.692510e+00
<GCONST> 1.009416e+02
<STATE> 4
<MEAN> 25
 -7.351421e+00 -1.114935e+01 1.036368e+01 5.552857e+00 -9.209453e+00 -9.757233e-01 8.392597e+00 -9.237556e+00 3.400065e+00 -4.585226e+00 -2.666588e-01 5.616704e-01 7.035699e-01 4.090900e-01 4.878210e-01 3.941306e-01 -6.538553e-01 -9.314490e-01 -5.106515e-01 5.656410e-01 2.486949e-01 -3.788281e-01 -2.958028e-01 3.765076e-01 2.488716e-01
<VARIANCE> 25
 7.728568e+01 2.208583e+01 2.064181e+01 1.420006e+01 2.886210e+01 2.252734e+01 4.119334e+01 3.361833e+01 2.040068e+01 2.142762e+01 1.872611e+01 1.639880e+01 1.146130e+01 7.443324e+00 3.520034e+00 1.525631e+00 3.639310e+00 3.469440e+00 7.005300e+00 2.814509e+00 4.105512e+00 2.068535e+00 2.419264e+00 1.657541e+00 3.106758e+00
<GCONST> 1.008939e+02
<TRANSP> 5
 0.000000e+00 1.000000e+00 0.000000e+00 0.000000e+00 0.000000e+00
 0.000000e+00 7.458134e-01 2.541866e-01 0.000000e+00 0.000000e+00
 0.000000e+00 0.000000e+00 8.172775e-01 1.827225e-01 0.000000e+00
 0.000000e+00 0.000000e+00 0.000000e+00 8.363370e-01 1.636631e-01
 0.000000e+00 0.000000e+00 0.000000e+00 0.000000e+00 0.000000e+00
<ENDHMM>
~h "ng"
<BEGINHMM>
<NUMSTATES> 5
<STATE> 2
<MEAN> 25
 3.068383e+00 -6.806236e+00 1.179383e+01 4.758440e+00 -1.178994e+01 -4.774134e+00 3.890074e+00 -5.969721e+00 -3.558073e+00 -2.170625e+00 -1.004278e+00 -1.455197e+00 5.905175e-01 -3.761657e-01 2.252233e-01 -2.452935e-01 -7.665091e-01 -3.287056e-01 -6.870936e-02 -1.523369e-01 -7.622255e-02 -2.412758e-02 1.130497e-01 -9.270623e-02 6.996165e-01
<VARIANCE> 25
 7.330415e+01 6.015281e+01 3.935153e+01 2.522051e+01 5.045348e+01 2.115919e+01 3.951418e+01 4.466314e+01 5.539347e+01 1.886408e+01 1.331872e+01 1.696816e+01 8.154746e+00 1.054254e+01 4.317355e+00 2.211231e+00 4.962387e+00 2.267552e+00 5.928675e+00 3.329645e+00 5.422665e+00 2.565260e+00 1.284260e+00 1.605458e+00 4.220061e+00
<GCONST> 1.049693e+02
<STATE> 3
<MEAN> 25
 1.342078e+01 -1.033631e+01 -5.385411e-01 2.898765e+00 -1.130190e+01 -9.908576e+00 -2.721261e+00 -9.472965e-01 -6.515926e-01 -1.337175e+00 -1.944151e+00 -1.459340e+00 3.752787e-01 6.283098e-01 -8.539585e-01 2.094285e-01 1.907579e-01 6.910631e-01 3.419322e-01 -1.273794e+00 -1.097384e-01 6.026169e-01 -4.557023e-01 -6.458644e-01 -4.660882e-01
<VARIANCE> 25
 2.126161e+01 1.620674e+01 6.578236e+01 1.153325e+01 4.394356e+01 1.814713e+01 6.614007e+01 5.050636e+01 3.498618e+01 1.574636e+01 2.071933e+01 1.073412e+01 8.730901e-01 2.718573e+00 5.869993e+00 1.451855e+00 3.631236e+00 8.207713e-01 2.841825e+00 4.504590e+00 5.883066e+00 2.493720e+00 3.004391e+00 1.035233e+00 7.467446e-01
<GCONST> 9.510940e+01
<STATE> 4
<MEAN> 25
 1.459618e+01 2.368331e+00 1.217033e+00 1.346081e+00 -1.242019e+01 -3.285065e+00 3.139808e+00 -1.099826e+01 -6.948966e+00 1.424784e+00 -4.755448e+00 -6.983673e+00 2.893891e-01 8.103680e-01 -3.649786e-01 4.266765e-02 2.817589e-01 -3.517253e-02 -4.583887e-01 1.162846e-02 -9.636077e-02 -6.417948e-02 -2.937421e-01 -1.699525e-01 -4.503722e-01
<VARIANCE> 25
 1.788761e+01 1.848516e+01 2.417332e+01 2.650521e+01 4.157987e+01 1.610505e+01 1.415752e+01 2.089607e+01 3.179925e+01 1.873614e+01 1.333609e+01 1.552497e+01 7.869353e-01 1.531495e+00 2.959114e+00 2.251351e+00 2.956819e+00 1.326720e+00 1.165960e+00 2.502050e+00 2.198787e+00 2.221649e+00 1.367853e+00 1.089284e+00 9.973440e-01
<GCONST> 8.863275e+01
<TRANSP> 5
 0.000000e+00 1.000000e+00 0.000000e+00 0.000000e+00 0.000000e+00
 0.000000e+00 8.344017e-01 1.655983e-01 0.000000e+00 0.000000e+00
 0.000000e+00 0.000000e+00 7.431108e-01 2.568893e-01 0.000000e+00
 0.000000e+00 0.000000e+00 0.000000e+00 8.463562e-01 1.536439e-01
 0.000000e+00 0.000000e+00 0.000000e+00 0.000000e+00 0.000000e+00
<ENDHMM>
~h "ow"
<BEGINHMM>
<NUMSTATES> 5
<STATE> 2
<MEAN> 25
 1.533860e+01 -5.234431e+00 -4.294890e+00 -1.868720e+00 -6.918590e+00 -4.440337e-02 -5.829934e+00 -9.985066e+00 3.145768e+00 2.728440e+00 -2.883485e+00 -6.703870e+00 9.754302e-03 5.258451e-01 4.868955e-01 7.795255e-01 8.515174e-02 -2.912946e-01 -4.197210e-01 -5.861126e-02 -4.684691e-01 -5.614132e-02 2.798649e-02 8.217428e-02 -4.538594e-01
<VARIANCE> 25
 4.033046e+00 2.613420e+01 1.780305e+01 3.374324e+01 8.458793e+00 1.994327e+01 2.503336e+01 1.746503e+01 4.392257e+01 2.149600e+01 2.716806e+01 1.630509e+01 3.333313e-01 1.842714e+00 1.523955e+00 1.867293e+00 1.499289e+00 1.944142e+00 1.303581e+00 2.206703e+00 3.724712e+00 1.926078e+00 2.475316e+00 1.904389e+00 5.597312e-01
<GCONST> 8.678069e+01
<STATE> 3
<MEAN> 25
 1.242264e+01 2.106594e+00 2.086530e+00 4.160097e+00 -3.998482e+00 -1.515465e+00 -5.079072e+00 -7.026211e+00 -1.539410e+00 6.631320e-01 -4.839293e+00 -6.459325e+00 -1.552703e+00 1.162343e+00 1.350527e+00 1.037466e+00 1.788041e+00 4.043924e-01 7.692207e-01 1.519652e+00 -4.725177e-01 -1.159616e+00 -1.266618e-01 9.528221e-01 -1.416956e+00
<VARIANCE> 25
 1.525360e+01 4.426201e+01 2.297033e+01 3.601747e+01 3.092384e+01 4.728130e+01 2.997014e+01 1.609597e+01 2.913629e+01 1.673707e+01 8.387815e+00 2.184361e+01 2.220650e+00 2.031826e+00 3.606616e+00 3.343539e+00 4.338659e+00 4.202168e+00 1.755203e+00 3.045819e+00 3.273364e+00 1.897300e+00 2.770348e+00 8.304418e-01 9.773219e-01
<GCONST> 9.525934e+01
<STATE> 4
<MEAN> 25
 -1.732290e+00 4.318182e+00 -4.649916e-01 -1.685126e-01 5.901728e+00 3.600722e+00 -6.863056e-01 3.850893e+00 -1.103841e-02 -1.105756e+00 -9.904518e-01 1.080340e+00 -9.697962e-01 -1.762552e-02 -1.250298e-01 -2.283464e-01 3.794004e-01 -9.126931e-03 5.803843e-01 4.569187e-01 1.112569e-01 -6.330794e-02 3.904338e-01 5.776861e-01 -4.750409e-01
<VARIANCE> 25
 8.720063e+01 3.083402e+01 2.322713e+01 2.782245e+01 4.050386e+01 4.875322e+01 2.302324e+01 5.607831e+01 2.085618e+01 1.882162e+01 2.822648e+01 2.896633e+01 3.158535e+00 1.661699e+00 1.887379e+00 1.604684e+00 2.602445e+00 1.127163e+00 2.202064e+00 1.952632e+00 3.076795e+00 2.648076e+00 2.304859e+00 1.585428e+00 6.063297e-01
<GCONST> 9.593947e+01
<TRANSP> 5
 0.000000e+00 1.000000e+00 0.000000e+00 0.000000e+00 0.000000e+00
 0.000000e+00 8.098409e-01 1.901592e-01 0.000000e+00 0.000000e+00
 0.000000e+00 0.000000e+00 5.367167e-01 4.632834e-01 0.000000e+00
 0.000000e+00 0.000000e+00 0.000000e+00 7.151427e-01 2.848573e-01
 0.000000e+00 0.000000e+00 0.000000e+00 0.000000e+00 0.000000e+00
<ENDHMM>
~h "sh"
<BEGINHMM>
<NUMSTATES> 5
<STATE> 2
<MEAN> 25
 -1.280739e+01 -1.341820e+01 1.430914e+01 4.099664e+00 -5.695358e+00 -5.187710e+00 9.799993e+00 -9.599478e+00 7.895381e+00 -6.817172e+00 5.677140e-01 6.527846e-01 -3.944647e-01 -6.836658e-01 -1.909714e-01 -3.879290e-01 -2.319157e-01 -9.462402e-02 1.149006e-02 -3.978846e-01 4.256138e-01 -1.814684e-01 1.238667e-02 2.243311e-01 7.290839e-02
<VARIANCE> 25
 2.038479e+01 1.394571e+01 1.047529e+01 2.785713e+01 1.689783e+01 1.093337e+01 1.190170e+01 1.954686e+01 1.202973e+01 1.521913e+01 9.321335e+00 1.173746e+01 8.766199e+00 2.109142e+00 1.656204e+00 2.044608e+00 2.214772e+00 1.247722e+00 3.689065e+00 2.143735e+00 3.015208e+00 1.415033e+00 1.089203e+00 1.164222e+00 3.558957e-01
<GCONST> 8.572305e+01
<STATE> 3
<MEAN> 25
 7.731029e+00 -6.814415e+00 2.829860e+00 1.325469e+00 -8.605983e+00 -1.516623e+00 -5.058061e+00 -9.102777e+00 8.996869e-01 -7.876467e-01 -1.213130e+00 -2.897337e+00 3.841100e+00 9.969851e-01 -1.688084e+00 -4.739463e-01 -3.022344e-01 5.712402e-01 -2.215689e+00 1.008675e+00 -8.395187e-01 1.565409e+00 -1.190611e+00 -1.071284e+00 5.868689e-01
<VARIANCE> 25
 8.041941e+01 3.382190e+01 5.825210e+01 3.227021e+01 1.192977e+01 2.202130e+01 5.198211e+01 3.873010e+01 7.182146e+01 8.261352e+01 3.317178e+01 1.584957e+01 9.206148e+00 3.290594e+00 3.469450e+00 2.084178e+00 1.457473e+00 2.856668e+00 4.024727e+00 5.880017e+00 8.265696e+00 3.294490e+00 2.991284e+00 2.091255e+00 1.185330e+00
<GCONST> 1.048135e+02
<STATE> 4
<MEAN> 25
 1.324593e+01 -8.552591e+00 -9.364475e-01 -2.666242e+00 -9.897275e+00 -4.164161e+00 -5.642257e+00 5.320698e-02 7.782797e+00 -7.693001e-01 -5.463979e+00 -3.296012e+00 6.474251e-01 2.176655e-01 -4.265481e-01 -1.949589e-01 4.970602e-01 -2.807100e-01 8.069502e-01 8.609793e-01 -5.849823e-01 -6.618368e-01 -4.315053e-01 3.384980e-01 1.461485e-01
<VARIANCE> 25
 3.862414e+00 8.607650e+00 1.733879e+01 1.391111e+01 7.186824e+00 6.552938e+00 1.761983e+01 2.461702e+01 2.157979e+01 3.359756e+01 1.456571e+01 2.206060e+01 2.310094e+00 1.805839e+00 3.227456e+00 6.876141e-01 1.357668e+00 1.522411e+00 1.561705e+00 3.989811e+00 3.469487e+00 4.884285e+00 4.611736e-01 2.474948e+00 8.659915e-01
<GCONST> 8.481925e+01
<TRANSP> 5
 0.000000e+00 1.000000e+00 0.000000e+00 0.000000e+00 0.000000e+00
 0.000000e+00 9.083164e-01 9.168360e-02 0.000000e+00 0.000000e+00
 0.000000e+00 0.000000e+00 7.891917e-01 2.108083e-01 0.000000e+00
 0.000000e+00 0.000000e+00 0.000000e+00 6.483849e-01 3.516151e-01
 0.000000e+00 0.000000e+00 0.000000e+00 0.000000e+00 0.000000e+00
<ENDHMM>
~h "th"
<BEGINHMM>
<NUMSTATES> 5
<STATE> 2
<MEAN> 25
 1.333002e+01 -7.195760e+00 -5.674930e+00 -4.313016e+00 -9.051787e+00 -1.009971e-03 -9.302849e-01 -1.171801e+01 4.289181e+00 3.514545e+00 -7.471885e-01 -6.834910e+00 -7.671139e-02 8.950381e-02 2.821520e-02 -3.751591e-01 2.574472e-01 5.835996e-01 4.702657e-01 2.416798e-01 -2.809942e-01 -4.668095e-01 2.316448e-02 6.208367e-01 -2.790134e-01
<VARIANCE> 25
 1.170125e+00 1.468717e+01 1.610620e+01 1.388934e+01 9.735420e+00 2.531027e+01 1.023846e+01 4.598999e+01 1.290217e+01 7.665754e+00 2.680346e+01 5.169157e+00 1.842492e-01 7.728494e-01 1.378415e+00 2.082090e+00 4.486157e-01 2.701058e+00 8.085744e-01 3.520050e+00 2.620021e+00 1.762678e+00 3.596952e+00 7.692962e-01 1.743554e-01
<GCONST> 7.653269e+01
<STATE> 3
<MEAN> 25
 1.069272e+01 -5.547778e+00 2.828856e-01 -6.294928e-01 -1.279088e+01 -5.365519e+00 3.481773e+00 -5.093482e+00 -2.526508e+00 5.558401e-02 2.560869e-03 -4.279301e+00 -4.722353e-01 2.307462e+00 1.091261e+00 5.323596e-01 1.443008e-01 2.813235e-01 2.677305e-01 -9.661934e-01 -3.181896e+00 1.134759e+00 9.638237e-01 -7.738815e-01 -1.472637e+00
<VARIANCE> 25
 1.170125e+00 2.120508e+01 6.289910e+01 2.778453e+01 3.026976e+01 2.063955e+01 2.204255e+01 3.433168e+01 6.447606e+01 5.231595e+01 1.896849e+01 1.615724e+01 6.605507e-01 1.227738e+00 2.244761e+00 1.445506e+00 3.215415e+00 1.089807e+00 3.801344e+00 5.168265e+00 3.142554e+00 5.634231e+00 3.561424e+00 3.872245e+00 9.553725e-01
<GCONST> 9.419108e+01
<STATE> 4
<MEAN> 25
 8.017277e+00 6.619464e+00 1.534135e+00 2.735022e+00 -2.518243e+00 -1.018858e+00 -2.783751e-02 -8.659740e+00 -9.546483e+00 3.344049e+00 -3.887156e+00 -7.500905e+00 -8.761783e-01 3.818932e-01 -1.277625e-01 5.327300e-02 1.717769e+00 4.390222e-01 -6.330903e-01 9.560078e-01 3.660518e-01 -1.415197e-01 -5.567815e-01 4.879809e-01 -9.059338e-01
<VARIANCE> 25
 2.097355e+01 6.320223e+00 4.994000e+00 5.980375e+00 3.699124e+01 7.374180e+00 5.350222e+00 1.899835e+01 5.363816e+00 9.094234e+00 4.813650e+00 8.055199e+00 1.143305e+00 3.424834e+00 2.531348e+00 6.741631e-01 1.947730e+00 9.487920e-01 7.161260e-01 1.349683e+00 8.702390e-01 1.339331e+00 1.484525e+00 1.079383e+00 9.535581e-01
<GCONST> 7.506255e+01
<TRANSP> 5
 0.000000e+00 1.000000e+00 0.000000e+00 0.000000e+00 0.000000e+00
 0.000000e+00 8.426941e-01 1.573060e-01 0.000000e+00 0.000000e+00
 0.000000e+00 0.000000e+00 7.863654e-01 2.136345e-01 0.000000e+00
 0.000000e+00 0.000000e+00 0.000000e+00 8.333094e-01 1.666906e-01
 0.000000e+00 0.000000e+00 0.000000e+00 0.000000e+00 0.000000e+00
<ENDHMM>
~h "uh"
<BEGINHMM>
<NUMSTATES> 5
<STATE> 2
<MEAN> 25
 1.391627e+01 -1.102738e+01 -9.613632e-01 6.113552e+00 -5.001911e+00 -1.157765e+01 -1.413126e+01 2.934720e+00 -2.926860e+00 -6.659069e+00 5.001540e-01 -1.680258e+00 7.746212e-01 -6.992619e-02 -9.973322e-01 1.967599e-01 3.734258e-01 -4.845112e-01 -9.229223e-01 2.452070e-01 8.067542e-01 3.238032e-01 -1.465047e-01 5.836126e-02 9.383307e-02
<VARIANCE> 25
 2.611963e+01 3.634117e+01 7.092513e+01 2.122848e+01 6.609537e+01 4.386835e+01 2.681143e+01 4.492825e+01 3.183170e+01 1.639208e+01 1.132913e+01 1.417976e+01 2.554445e+00 3.363326e+00 9.010252e+00 2.429406e+00 7.626014e+00 2.751662e+00 4.353226e+00 4.027596e+00 4.976720e+00 1.530291e+00 1.691276e+00 9.168162e-01 1.297354e+00
<GCONST> 1.003960e+02
<STATE> 3
<MEAN> 25
 1.177157e+01 -6.208242e+00 4.488026e+00 2.458291e+00 -8.588322e+00 -3.160108e+00 -1.228918e+01 -6.682450e+00 3.959090e+00 -1.597113e+00 -3.732482e+00 -1.273062e+00 4.645142e-01 1.988006e-01 -3.358535e-02 -2.099489e-01 -5.527847e-01 -2.189301e-02 3.062005e-02 -2.346222e-01 3.532489e-01 3.356349e-01 -1.263420e-01 -4.268914e-02 8.609279e-02
<VARIANCE> 25
 1.364594e+01 2.187393e+01 2.070493e+01 2.875862e+01 2.934278e+01 2.363345e+01 2.363511e+01 2.733489e+01 3.140345e+01 4.694940e+01 1.034967e+01 2.240879e+01 4.234104e+00 2.576255e+00 3.110868e+00 2.764694e+00 3.891181e+00 3.583595e+00 4.018928e+00 4.156368e+00 2.018103e+00 8.699694e+00 2.323373e+00 1.509966e+00 2.198957e+00
<GCONST> 9.869057e+01
<STATE> 4
<MEAN> 25
 1.283383e+01 -3.848957e+00 1.853193e+00 4.460740e+00 -9.570777e+00 -6.409575e+00 -8.021221e+00 -6.974654e+00 1.227933e+00 -9.652337e-01 -3.719162e+00 -2.694613e+00 -4.002987e-01 1.217046e+00 8.599129e-01 2.020358e-01 -3.363494e-01 -4.906777e-02 8.341537e-01 -1.168208e+00 -9.022876e-01 6.529346e-01 -4.403469e-01 1.574773e-02 -7.440278e-01
<VARIANCE> 25
 2.298329e+01 4.783249e+01 3.544950e+01 5.891746e+01 5.596962e+01 2.698185e+01 2.247198e+01 2.761700e+01 2.801909e+01 2.072665e+01 9.594825e+00 1.225806e+01 1.588499e+00 4.254093e+00 3.111967e+00 2.636521e+00 7.022245e+00 1.272501e+00 2.282089e+00 3.060889e+00 1.937686e+00 5.218986e+00 3.040801e-01 1.814203e+00 3.371115e+00
<GCONST> 9.655949e+01
<TRANSP> 5
 0.000000e+00 1.000000e+00 0.000000e+00 0.000000e+00 0.000000e+00
 0.000000e+00 7.071564e-01 2.928436e-01 0.000000e+00 0.000000e+00
