~o
<STREAMINFO> 1 25
<VECSIZE> 25<NULLD><MFCC_D_N_Z_0><DIAGC>
~h "b"
<BEGINHMM>
<NUMSTATES> 5
<STATE> 2
<MEAN> 25
 -1.328642e+00 1.207721e-01 -1.161337e+00 -1.020437e+00 1.621476e+00 1.257250e+00 -1.771012e-01 2.019510e+00 7.254062e-01 1.367932e-01 1.141520e+00 2.041033e+00 -7.970665e-02 -1.175206e-02 -4.515905e-02 -4.920394e-03 6.460837e-02 1.942935e-02 3.303844e-03 1.223094e-01 5.259588e-02 3.150709e-02 1.776734e-02 1.344459e-02 -8.317946e-02
<VARIANCE> 25
 1.109155e+02 4.163391e+01 3.435051e+01 2.630886e+01 7.903526e+01 3.218163e+01 2.421240e+01 8.030827e+01 3.343167e+01 3.033821e+01 3.386240e+01 3.441319e+01 2.650125e+00 2.432019e+00 1.602771e+00 1.891538e+00 3.433402e+00 1.817224e+00 1.961671e+00 2.408297e+00 2.260329e+00 2.225204e+00 2.052144e+00 1.539734e+00 2.227196e+00
<GCONST> 1.005105e+02
<STATE> 3
<MEAN> 25
 -1.608932e+00 9.720390e-02 -1.325036e+00 -1.050869e+00 1.863313e+00 1.349229e+00 -1.638041e-01 2.424448e+00 9.039001e-01 2.630713e-01 1.217082e+00 2.071170e+00 -7.308080e-02 -7.587361e-03 -4.378363e-02 1.329720e-03 6.297415e-02 1.941879e-02 -3.091183e-03 1.126524e-01 5.053841e-02 3.361897e-02 1.546446e-02 -1.085683e-03 -8.125710e-02
<VARIANCE> 25
 1.091800e+02 4.054654e+01 3.242550e+01 2.521190e+01 7.682314e+01 3.221653e+01 2.393493e+01 7.574628e+01 3.212465e+01 3.024429e+01 3.301064e+01 3.350241e+01 2.515004e+00 2.397253e+00 1.565628e+00 1.837099e+00 3.356142e+00 1.724700e+00 1.917815e+00 2.232758e+00 2.175272e+00 2.181584e+00 2.034456e+00 1.529415e+00 2.218672e+00
<GCONST> 9.980530e+01
<STATE> 4
<MEAN> 25
 -1.875078e+00 7.720078e-02 -1.477633e+00 -1.100103e+00 2.186319e+00 1.526895e+00 -2.154079e-01 2.778408e+00 1.132678e+00 4.340629e-01 1.231655e+00 1.985530e+00 -6.851413e-02 -1.819465e-03 -4.339156e-02 3.464394e-03 6.385758e-02 2.815484e-02 -3.975417e-03 1.026109e-01 4.249009e-02 3.480602e-02 2.116771e-02 -1.345934e-02 -8.071221e-02
<VARIANCE> 25
 1.062286e+02 3.904727e+01 3.069791e+01 2.417246e+01 7.423069e+01 3.217894e+01 2.390469e+01 7.139018e+01 3.082475e+01 3.011065e+01 3.182008e+01 3.266473e+01 2.349581e+00 2.435567e+00 1.567241e+00 1.846165e+00 3.337138e+00 1.614327e+00 1.884473e+00 2.104133e+00 2.130738e+00 2.185852e+00 2.029466e+00 1.565321e+00 2.235928e+00
<GCONST> 9.925445e+01
<TRANSP> 5
 0.000000e+00 1.000000e+00 0.000000e+00 0.000000e+00 0.000000e+00
 0.000000e+00 6.860395e-01 3.139605e-01 0.000000e+00 0.000000e+00
 0.000000e+00 0.000000e+00 6.860395e-01 3.139605e-01 0.000000e+00
 0.000000e+00 0.000000e+00 0.000000e+00 8.011080e-01 1.988920e-01
 0.000000e+00 0.000000e+00 0.000000e+00 0.000000e+00 0.000000e+00
<ENDHMM>
~h "d"
<BEGINHMM>
<NUMSTATES> 5
<STATE> 2
<MEAN> 25
 3.913226e-01 3.295285e-01 6.771369e-01 1.726877e-01 -3.001563e-01 4.019564e-01 -3.501026e-01 -6.752091e-01 9.325236e-02 5.527525e-02 -1.500637e-01 -9.825741e-03 3.367665e-02 -2.032356e-02 -1.189157e-02 -6.038691e-04 -1.293269e-02 -1.119705e-03 -3.144798e-02 -4.962654e-02 1.146595e-02 -9.347295e-03 -2.519230e-02 -1.981350e-02 4.467953e-02
<VARIANCE> 25
 1.092188e+02 4.213621e+01 4.114886e+01 3.285029e+01 9.055247e+01 4.711513e+01 4.028513e+01 8.895845e+01 4.177235e+01 2.722421e+01 3.002613e+01 3.210053e+01 3.368655e+00 3.262760e+00 2.054567e+00 2.271111e+00 3.966377e+00 2.716595e+00 3.109200e+00 3.573088e+00 3.113105e+00 2.274132e+00 2.155744e+00 1.793401e+00 2.758438e+00
<GCONST> 1.050869e+02
<STATE> 3
<MEAN> 25
 4.759240e-01 2.535531e-01 6.223654e-01 1.725482e-01 -3.350862e-01 4.070288e-01 -4.236471e-01 -8.071341e-01 1.385161e-01 3.003035e-02 -2.124883e-01 -6.889364e-02 2.857565e-02 -2.104806e-02 -1.480598e-02 -3.982230e-03 -1.775951e-02 -5.998848e-03 -2.435019e-02 -4.499849e-02 1.449592e-02 -9.306289e-03 -1.754540e-02 -1.830141e-02 4.568160e-02
<VARIANCE> 25
 1.091549e+02 4.282582e+01 4.051997e+01 3.305428e+01 8.995766e+01 4.734157e+01 4.102504e+01 8.811954e+01 4.161381e+01 2.752730e+01 3.048401e+01 3.160981e+01 3.411579e+00 3.375391e+00 2.018972e+00 2.302556e+00 4.073724e+00 2.743064e+00 3.176772e+00 3.582073e+00 3.130610e+00 2.328733e+00 2.204185e+00 1.784918e+00 2.878933e+00
<GCONST> 1.053001e+02
<STATE> 4
<MEAN> 25
 5.213686e-01 8.240139e-02 5.171535e-01 1.591408e-01 -4.446122e-01 3.172061e-01 -3.800103e-01 -8.922618e-01 1.692133e-01 3.314031e-02 -2.366753e-01 -1.057428e-01 8.988796e-03 -1.671637e-02 -2.010980e-02 -6.302329e-03 -1.238097e-02 -5.867165e-03 -1.245716e-02 -2.276262e-02 1.590346e-02 -8.306599e-03 -4.352515e-03 -1.299887e-02 2.738480e-02
<VARIANCE> 25
 1.079043e+02 4.338589e+01 3.913029e+01 3.252549e+01 8.840649e+01 4.632409e+01 4.074742e+01 8.558388e+01 4.011610e+01 2.718629e+01 3.076739e+01 3.055267e+01 3.310254e+00 3.464164e+00 1.919394e+00 2.282399e+00 4.059523e+00 2.664037e+00 3.170616e+00 3.481237e+00 3.015971e+00 2.340722e+00 2.214495e+00 1.752831e+00 2.937996e+00
<GCONST> 1.049494e+02
<TRANSP> 5
 0.000000e+00 1.000000e+00 0.000000e+00 0.000000e+00 0.000000e+00
 0.000000e+00 7.004435e-01 2.995566e-01 0.000000e+00 0.000000e+00
 0.000000e+00 0.000000e+00 7.004433e-01 2.995567e-01 0.000000e+00
 0.000000e+00 0.000000e+00 0.000000e+00 8.241830e-01 1.758170e-01
 0.000000e+00 0.000000e+00 0.000000e+00 0.000000e+00 0.000000e+00
<ENDHMM>
~h "f"
<BEGINHMM>
<NUMSTATES> 5
<STATE> 2
<MEAN> 25
 -1.110339e+00 -6.676899e-02 -1.193189e+00 -7.832104e-01 1.105427e+00 1.032321e+00 -6.369032e-01 3.884107e-01 4.817984e-01 1.043090e+00 5.157509e-01 3.818246e-01 -2.318200e-02 -3.780678e-03 4.737508e-03 1.481819e-02 3.392145e-02 7.770868e-03 -3.186674e-03 1.759466e-02 3.999008e-02 1.223252e-02 6.043240e-03 1.425328e-02 -1.206828e-02
<VARIANCE> 25
 1.062838e+02 5.190840e+01 2.645821e+01 4.069775e+01 7.210396e+01 4.185630e+01 3.775780e+01 7.913199e+01 3.564863e+01 2.563954e+01 2.925924e+01 3.116318e+01 3.947035e+00 4.308579e+00 2.031077e+00 2.640149e+00 3.667266e+00 2.226394e+00 3.339852e+00 3.281598e+00 2.964384e+00 2.195944e+00 2.428148e+00 1.758044e+00 2.696420e+00
<GCONST> 1.045158e+02
<STATE> 3
<MEAN> 25
 -1.168081e+00 -9.996179e-02 -1.161915e+00 -7.198377e-01 1.186536e+00 1.019324e+00 -6.407420e-01 4.068329e-01 5.990850e-01 1.056519e+00 4.918562e-01 4.158737e-01 -1.720754e-02 -4.452532e-03 1.114855e-02 1.769319e-02 2.418655e-02 -1.514260e-03 -7.102515e-04 4.299210e-03 3.480413e-02 1.255246e-03 -9.674115e-03 1.112540e-02 -2.505632e-03
<VARIANCE> 25
 1.052480e+02 5.300277e+01 2.603476e+01 3.926567e+01 7.213979e+01 4.133921e+01 3.793828e+01 7.856053e+01 3.499969e+01 2.569436e+01 2.965110e+01 3.138369e+01 3.958381e+00 4.392528e+00 2.014424e+00 2.630084e+00 3.663653e+00 2.240074e+00 3.321792e+00 3.333610e+00 2.957901e+00 2.177763e+00 2.415318e+00 1.776469e+00 2.815023e+00
<GCONST> 1.045278e+02
<STATE> 4
<MEAN> 25
 -1.360670e+00 -1.216972e-01 -1.108604e+00 -6.452660e-01 1.306589e+00 1.002377e+00 -6.216246e-01 5.187127e-01 6.870242e-01 1.027511e+00 5.509700e-01 5.629013e-01 6.535354e-03 -1.311091e-02 2.123809e-02 2.353542e-02 -8.013375e-04 -2.539682e-02 -3.724900e-03 -1.801066e-02 2.374698e-02 -9.806920e-03 -3.025355e-02 -2.042369e-03 3.019278e-02
<VARIANCE> 25
 1.026764e+02 5.382734e+01 2.578128e+01 3.690918e+01 7.175004e+01 4.077704e+01 3.711713e+01 7.682856e+01 3.414320e+01 2.538445e+01 2.974801e+01 3.180550e+01 3.893939e+00 4.417583e+00 2.007492e+00 2.583160e+00 3.610105e+00 2.279868e+00 3.244625e+00 3.383512e+00 2.901100e+00 2.147667e+00 2.362405e+00 1.796745e+00 2.993473e+00
<GCONST> 1.043427e+02
<TRANSP> 5
 0.000000e+00 1.000000e+00 0.000000e+00 0.000000e+00 0.000000e+00
 0.000000e+00 6.874754e-01 3.125246e-01 0.000000e+00 0.000000e+00
 0.000000e+00 0.000000e+00 6.874758e-01 3.125242e-01 0.000000e+00
 0.000000e+00 0.000000e+00 0.000000e+00 8.049263e-01 1.950736e-01
 0.000000e+00 0.000000e+00 0.000000e+00 0.000000e+00 0.000000e+00
<ENDHMM>
~h "g"
<BEGINHMM>
<NUMSTATES> 5
<STATE> 2
<MEAN> 25
 8.988061e-01 -6.790536e-01 -2.131644e-01 5.208305e-01 1.326705e+00 1.986705e-01 -1.068416e+00 3.951790e-01 -6.852109e-01 -1.317043e-02 -1.368696e-01 -3.467171e-01 6.643632e-02 1.018628e-02 -7.439437e-03 1.482933e-02 -8.704670e-03 -2.740269e-02 -1.801495e-02 -2.975935e-02 -1.835490e-02 -1.119238e-02 -5.982755e-02 -3.573216e-02 3.836484e-02
<VARIANCE> 25
 1.194860e+02 5.388976e+01 3.920332e+01 3.252477e+01 8.054871e+01 4.584783e+01 4.268717e+01 7.359175e+01 4.037459e+01 2.695518e+01 2.809895e+01 4.196383e+01 4.193768e+00 4.078430e+00 2.144687e+00 1.856516e+00 3.731985e+00 2.735115e+00 3.164633e+00 3.560216e+00 2.822093e+00 2.678747e+00 2.292028e+00 2.314812e+00 3.375190e+00
<GCONST> 1.060734e+02
<STATE> 3
<MEAN> 25
 1.049018e+00 -5.904452e-01 -2.470465e-01 5.626754e-01 1.331471e+00 1.512082e-01 -1.086503e+00 3.185431e-01 -7.384956e-01 -6.192021e-03 -3.034677e-01 -4.274623e-01 1.312193e-02 3.382769e-02 -1.381731e-02 3.888562e-03 2.243602e-02 -1.476091e-02 -9.697909e-03 -1.341144e-02 2.139660e-03 1.051044e-02 -3.200847e-02 6.872665e-04 -9.151497e-03
<VARIANCE> 25
 1.194535e+02 5.407018e+01 3.825614e+01 3.345058e+01 7.963289e+01 4.466072e+01 4.291973e+01 7.575311e+01 4.088271e+01 2.715827e+01 2.846374e+01 4.135811e+01 4.184820e+00 4.053410e+00 2.117725e+00 1.883830e+00 3.693042e+00 2.722387e+00 3.211747e+00 3.535985e+00 2.854546e+00 2.741047e+00 2.396544e+00 2.291308e+00 3.224405e+00
<GCONST> 1.061047e+02
<STATE> 4
<MEAN> 25
 1.075031e+00 -1.586324e-01 -3.924418e-01 4.110454e-01 1.510668e+00 3.240563e-01 -1.189809e+00 2.086631e-01 -7.704913e-01 1.383242e-01 -2.498485e-01 -2.941163e-01 -3.529790e-02 6.393801e-02 -1.374905e-02 -1.896695e-02 4.744335e-02 6.219602e-03 -1.082001e-03 5.160195e-04 5.217188e-03 2.998952e-02 6.861133e-03 4.037890e-02 -6.040440e-02
<VARIANCE> 25
 1.195231e+02 5.365553e+01 3.700875e+01 3.510529e+01 7.904253e+01 4.362442e+01 4.147436e+01 8.078205e+01 4.212706e+01 2.675559e+01 2.897291e+01 4.158007e+01 3.908430e+00 3.877384e+00 2.060238e+00 1.946480e+00 3.575858e+00 2.652403e+00 3.140757e+00 3.529243e+00 2.917112e+00 2.682557e+00 2.435755e+00 2.248942e+00 2.900637e+00
<GCONST> 1.058518e+02
<TRANSP> 5
 0.000000e+00 1.000000e+00 0.000000e+00 0.000000e+00 0.000000e+00
 0.000000e+00 6.947250e-01 3.052750e-01 0.000000e+00 0.000000e+00
 0.000000e+00 0.000000e+00 6.947255e-01 3.052745e-01 0.000000e+00
 0.000000e+00 0.000000e+00 0.000000e+00 8.137019e-01 1.862981e-01
 0.000000e+00 0.000000e+00 0.000000e+00 0.000000e+00 0.000000e+00
<ENDHMM>
~h "k"
<BEGINHMM>
<NUMSTATES> 5
<STATE> 2
<MEAN> 25
 2.882901e+00 -1.230933e+00 2.457118e-01 -1.312817e-01 -2.478239e+00 -1.410683e+00 -3.771147e-01 -1.733715e+00 -4.726673e-01 -3.406640e-01 -8.162395e-01 -1.425711e+00 -7.671949e-03 -3.283520e-02 1.474479e-02 1.195746e-02 -1.703225e-02 -1.418698e-02 1.853905e-02 3.193727e-02 3.774593e-03 5.950865e-03 2.302526e-04 1.601906e-02 9.400704e-04
<VARIANCE> 25
 1.135276e+02 5.080833e+01 4.587724e+01 3.859266e+01 9.260665e+01 5.038020e+01 4.261083e+01 7.272346e+01 4.774151e+01 2.860874e+01 3.004200e+01 3.650043e+01 4.073285e+00 4.367837e+00 2.788688e+00 2.639396e+00 4.684152e+00 2.999423e+00 3.351903e+00 3.549301e+00 3.909200e+00 2.746983e+00 2.435227e+00 2.110656e+00 3.543084e+00
<GCONST> 1.080618e+02
<STATE> 3
<MEAN> 25
 2.857582e+00 -1.325086e+00 2.909113e-01 -7.371547e-02 -2.505262e+00 -1.451057e+00 -3.311025e-01 -1.616419e+00 -4.395904e-01 -3.193649e-01 -8.219753e-01 -1.373349e+00 -1.480016e-02 -2.916017e-02 9.281496e-03 1.879077e-02 -2.228811e-04 -1.043727e-02 1.233094e-02 3.143229e-02 1.203460e-02 8.635802e-03 2.032503e-03 1.816165e-02 -6.153000e-03
<VARIANCE> 25
 1.138286e+02 5.088531e+01 4.636658e+01 3.784642e+01 9.292786e+01 5.084114e+01 4.311501e+01 7.200370e+01 4.764619e+01 2.873086e+01 2.992065e+01 3.639085e+01 4.093553e+00 4.335136e+00 2.827507e+00 2.598598e+00 4.660791e+00 2.982742e+00 3.367112e+00 3.543683e+00 3.899936e+00 2.762699e+00 2.455741e+00 2.129567e+00 3.562174e+00
<GCONST> 1.080807e+02
<STATE> 4
<MEAN> 25
 2.839763e+00 -1.315235e+00 3.496131e-01 5.157783e-02 -2.430004e+00 -1.514903e+00 -3.417689e-01 -1.505685e+00 -3.251749e-01 -2.766216e-01 -8.720289e-01 -1.305692e+00 -2.747956e-02 -1.560464e-02 2.047509e-03 2.197360e-02 2.897996e-02 -1.720591e-03 -6.974101e-03 2.588183e-02 1.838762e-02 1.473440e-02 9.748468e-03 2.370792e-02 -2.269175e-02
<VARIANCE> 25
 1.146989e+02 5.048834e+01 4.658066e+01 3.698839e+01 9.378876e+01 5.137236e+01 4.312645e+01 7.234079e+01 4.665511e+01 2.878241e+01 3.009586e+01 3.628632e+01 4.072127e+00 4.237351e+00 2.822133e+00 2.535340e+00 4.556548e+00 2.921370e+00 3.360941e+00 3.540129e+00 3.850712e+00 2.762922e+00 2.448825e+00 2.132246e+00 3.521053e+00
<GCONST> 1.079438e+02
<TRANSP> 5
 0.000000e+00 1.000000e+00 0.000000e+00 0.000000e+00 0.000000e+00
 0.000000e+00 7.005776e-01 2.994225e-01 0.000000e+00 0.000000e+00
 0.000000e+00 0.000000e+00 7.005774e-01 2.994227e-01 0.000000e+00
 0.000000e+00 0.000000e+00 0.000000e+00 8.195436e-01 1.804564e-01
 0.000000e+00 0.000000e+00 0.000000e+00 0.000000e+00 0.000000e+00
<ENDHMM>
~h "l"
<BEGINHMM>
<NUMSTATES> 5
<STATE> 2
<MEAN> 25
 -5.130840e-01 8.463119e-01 -8.187652e-01 -4.692757e-01 9.474607e-01 5.254754e-01 -6.506093e-02 2.656223e-01 7.432315e-01 3.356819e-01 2.735939e-01 1.534224e-01 -8.211209e-03 3.087108e-03 1.214255e-02 3.436631e-02 6.680784e-04 1.644613e-02 2.108099e-02 6.938655e-03 -6.566887e-03 -1.813510e-02 -5.466962e-03 7.461582e-04 -2.981318e-02
<VARIANCE> 25
 1.083614e+02 4.558404e+01 3.763619e+01 3.348004e+01 9.016176e+01 4.743653e+01 3.623032e+01 8.753225e+01 4.076980e+01 2.745046e+01 3.018268e+01 3.422015e+01 3.236778e+00 3.399178e+00 1.951152e+00 2.014107e+00 3.812961e+00 2.275976e+00 3.092021e+00 3.209674e+00 2.932945e+00 2.278096e+00 2.255749e+00 1.905758e+00 2.411770e+00
<GCONST> 1.044348e+02
<STATE> 3
<MEAN> 25
 -5.568492e-01 8.463101e-01 -7.846681e-01 -3.509299e-01 9.541827e-01 5.750850e-01 -1.577295e-03 3.013472e-01 7.192990e-01 2.832300e-01 2.830580e-01 1.651408e-01 -8.042301e-03 -6.670857e-03 1.381078e-02 3.914786e-02 -4.996449e-03 7.809931e-03 1.704585e-02 1.122332e-02 -8.435105e-03 -1.997559e-02 1.235593e-03 3.810294e-04 -2.107928e-02
<VARIANCE> 25
 1.060514e+02 4.600524e+01 3.816254e+01 3.290129e+01 8.980759e+01 4.702876e+01 3.618442e+01 8.778993e+01 4.093585e+01 2.733076e+01 2.981817e+01 3.375515e+01 3.139435e+00 3.523928e+00 1.960052e+00 1.986341e+00 3.847245e+00 2.299697e+00 3.075012e+00 3.207068e+00 2.948450e+00 2.263099e+00 2.276464e+00 1.944041e+00 2.477842e+00
<GCONST> 1.044457e+02
<STATE> 4
<MEAN> 25
 -6.960987e-01 8.573202e-01 -7.082712e-01 -1.941022e-01 1.011596e+00 6.409015e-01 7.168192e-02 4.240639e-01 6.939369e-01 2.623945e-01 3.964685e-01 2.343001e-01 -1.266346e-02 -1.157250e-02 1.701988e-02 3.742907e-02 -6.298882e-03 3.327265e-03 1.059350e-02 1.450330e-02 -7.286841e-03 -1.230945e-02 1.499844e-02 9.109800e-03 -1.644062e-02
<VARIANCE> 25
 1.027525e+02 4.560262e+01 3.860222e+01 3.170282e+01 8.968060e+01 4.626224e+01 3.607831e+01 8.831445e+01 4.078750e+01 2.720499e+01 2.975783e+01 3.348735e+01 2.928804e+00 3.567106e+00 1.963157e+00 1.935035e+00 3.817585e+00 2.332049e+00 3.000825e+00 3.173856e+00 2.953178e+00 2.256751e+00 2.287198e+00 1.962097e+00 2.487870e+00
<GCONST> 1.042529e+02
<TRANSP> 5
 0.000000e+00 1.000000e+00 0.000000e+00 0.000000e+00 0.000000e+00
 0.000000e+00 6.924890e-01 3.075110e-01 0.000000e+00 0.000000e+00
 0.000000e+00 0.000000e+00 6.924888e-01 3.075112e-01 0.000000e+00
 0.000000e+00 0.000000e+00 0.000000e+00 8.100067e-01 1.899933e-01
 0.000000e+00 0.000000e+00 0.000000e+00 0.000000e+00 0.000000e+00
<ENDHMM>
~h "m"
<BEGINHMM>
<NUMSTATES> 5
<STATE> 2
<MEAN> 25
 -1.556150e+00 9.856432e-01 -4.462993e-01 -6.602362e-01 1.371820e+00 2.659940e-01 1.612298e-01 6.311157e-01 4.122554e-01 -1.184813e-01 2.954819e-01 9.918972e-01 6.637691e-03 -2.225804e-03 -1.645811e-03 -1.243906e-03 4.366606e-03 2.535923e-03 8.680167e-03 7.642809e-03 1.605025e-02 -2.422055e-02 -2.534201e-02 -7.129588e-03 1.389909e-02
<VARIANCE> 25
 1.162123e+02 3.735706e+01 3.448537e+01 3.110896e+01 8.353263e+01 4.604347e+01 3.214222e+01 8.721395e+01 3.498003e+01 2.144946e+01 2.839715e+01 3.440070e+01 3.636382e+00 3.100689e+00 1.953351e+00 2.376690e+00 3.383899e+00 2.298493e+00 2.613912e+00 3.199342e+00 2.471275e+00 1.881807e+00 1.897590e+00 1.802263e+00 2.258162e+00
<GCONST> 1.027132e+02
<STATE> 3
<MEAN> 25
 -1.523653e+00 9.467765e-01 -4.404200e-01 -6.604165e-01 1.353019e+00 2.731262e-01 1.872679e-01 6.527606e-01 4.375127e-01 -1.784821e-01 2.071476e-01 9.507396e-01 5.211781e-03 -1.689981e-02 2.718815e-04 1.187666e-03 -8.309532e-03 3.075483e-05 1.195588e-02 1.591250e-02 6.151734e-03 -1.913965e-02 -2.355328e-02 -1.127646e-02 8.668768e-03
<VARIANCE> 25
 1.169697e+02 3.778773e+01 3.538243e+01 3.115128e+01 8.392045e+01 4.581618e+01 3.239963e+01 8.827970e+01 3.466985e+01 2.138254e+01 2.811606e+01 3.475877e+01 3.583108e+00 3.122473e+00 1.994292e+00 2.329869e+00 3.420127e+00 2.325176e+00 2.595938e+00 3.202905e+00 2.428651e+00 1.883433e+00 1.904394e+00 1.796374e+00 2.235633e+00
<GCONST> 1.027496e+02
<STATE> 4
<MEAN> 25
 -1.608040e+00 8.335108e-01 -4.579910e-01 -6.807909e-01 1.365934e+00 3.435872e-01 2.150995e-01 8.438360e-01 4.525799e-01 -1.915479e-01 1.827421e-01 9.131765e-01 9.171055e-03 -2.971777e-02 1.008203e-02 1.019590e-02 -2.441782e-02 -7.701382e-03 8.151806e-03 2.324422e-02 -1.084821e-03 -1.658441e-02 -2.454093e-02 -2.254605e-02 4.408785e-03
<VARIANCE> 25
 1.151977e+02 3.778983e+01 3.573861e+01 3.097812e+01 8.293945e+01 4.458912e+01 3.151341e+01 8.849045e+01 3.403203e+01 2.108047e+01 2.749303e+01 3.528899e+01 3.413462e+00 3.117183e+00 2.010244e+00 2.258720e+00 3.413872e+00 2.327775e+00 2.525405e+00 3.166361e+00 2.389132e+00 1.901812e+00 1.893318e+00 1.800397e+00 2.194843e+00
<GCONST> 1.024928e+02
<TRANSP> 5
 0.000000e+00 1.000000e+00 0.000000e+00 0.000000e+00 0.000000e+00
 0.000000e+00 7.045133e-01 2.954867e-01 0.000000e+00 0.000000e+00
 0.000000e+00 0.000000e+00 7.045132e-01 2.954869e-01 0.000000e+00
 0.000000e+00 0.000000e+00 0.000000e+00 8.236415e-01 1.763584e-01
 0.000000e+00 0.000000e+00 0.000000e+00 0.000000e+00 0.000000e+00
<ENDHMM>
~h "n"
<BEGINHMM>
<NUMSTATES> 5
<STATE> 2
<MEAN> 25
 -1.187484e+00 3.904932e-01 5.266882e-01 -7.537705e-02 3.765607e-01 5.588505e-01 2.244340e-01 1.044491e+00 1.930878e-02 2.986774e-02 4.915574e-01 6.884811e-01 2.258454e-02 -3.129763e-02 1.325690e-02 1.102260e-02 -3.050930e-02 1.699589e-04 2.271123e-02 -1.961250e-02 -2.107335e-02 -1.451278e-03 -1.051698e-02 -1.759478e-02 3.179742e-02
<VARIANCE> 25
 1.120495e+02 4.129030e+01 4.550263e+01 2.746812e+01 9.575242e+01 4.426018e+01 3.487220e+01 9.065454e+01 3.730051e+01 2.629523e+01 2.939348e+01 3.104452e+01 2.983131e+00 3.381299e+00 2.067700e+00 2.056118e+00 3.623885e+00 2.437566e+00 2.742474e+00 3.208027e+00 2.807216e+00 2.201234e+00 2.167813e+00 1.715871e+00 2.521304e+00
<GCONST> 1.038036e+02
<STATE> 3
<MEAN> 25
 -1.105285e+00 3.037226e-01 5.671070e-01 -4.547957e-02 2.738734e-01 5.586852e-01 3.111834e-01 9.645725e-01 -3.415527e-02 1.037527e-02 4.587643e-01 6.269402e-01 2.301075e-02 -1.720357e-02 8.736795e-03 2.019544e-03 -2.445257e-02 4.392960e-03 2.074713e-02 -2.063979e-02 -9.669214e-03 -3.071547e-03 -6.198965e-03 -1.514959e-02 2.985668e-02
<VARIANCE> 25
 1.115856e+02 4.172968e+01 4.580488e+01 2.762689e+01 9.595071e+01 4.384393e+01 3.490794e+01 9.136549e+01 3.734501e+01 2.676409e+01 2.932994e+01 3.113980e+01 3.030777e+00 3.465316e+00 2.051069e+00 2.081855e+00 3.640232e+00 2.412852e+00 2.743706e+00 3.240402e+00 2.805568e+00 2.220440e+00 2.188460e+00 1.740491e+00 2.615097e+00
<GCONST> 1.039616e+02
<STATE> 4
<MEAN> 25
 -8.550909e-01 2.134005e-01 5.962192e-01 -3.853799e-02 6.832579e-02 4.767735e-01 4.642428e-01 6.876748e-01 -4.885656e-02 -7.126733e-02 3.705424e-01 5.028173e-01 2.343301e-02 -3.540698e-03 8.344497e-04 -7.660409e-03 -1.859341e-02 1.155836e-02 1.734336e-02 -2.558024e-02 -1.239371e-04 -6.715693e-03 -2.990492e-03 -1.325153e-02 2.768202e-02
<VARIANCE> 25
 1.111496e+02 4.166283e+01 4.484511e+01 2.741876e+01 9.410175e+01 4.266271e+01 3.447974e+01 9.120886e+01 3.705631e+01 2.715796e+01 2.893600e+01 3.078025e+01 2.992315e+00 3.413755e+00 1.969446e+00 2.067414e+00 3.515160e+00 2.342929e+00 2.687165e+00 3.160780e+00 2.738861e+00 2.199357e+00 2.121822e+00 1.730395e+00 2.590757e+00
<GCONST> 1.035831e+02
<TRANSP> 5
 0.000000e+00 1.000000e+00 0.000000e+00 0.000000e+00 0.000000e+00
 0.000000e+00 6.990125e-01 3.009875e-01 0.000000e+00 0.000000e+00
 0.000000e+00 0.000000e+00 6.990116e-01 3.009884e-01 0.000000e+00
 0.000000e+00 0.000000e+00 0.000000e+00 8.225744e-01 1.774255e-01
 0.000000e+00 0.000000e+00 0.000000e+00 0.000000e+00 0.000000e+00
<ENDHMM>
~h "p"
<BEGINHMM>
<NUMSTATES> 5
<STATE> 2
<MEAN> 25
 -9.296120e-01 -5.538514e-01 7.278652e-01 5.980204e-01 -1.720243e-01 -6.966908e-02 -1.863920e-01 5.969876e-01 7.274211e-03 -2.427072e-01 5.033471e-01 3.701581e-01 2.806486e-02 -5.227841e-02 1.838491e-02 3.530090e-02 -7.769750e-02 -3.694309e-02 2.182681e-02 -7.108964e-03 -9.366272e-02 -4.155183e-02 6.030484e-02 2.843389e-02 1.712684e-02
<VARIANCE> 25
 1.196427e+02 5.580308e+01 4.584520e+01 2.515596e+01 1.202886e+02 6.064846e+01 5.147222e+01 8.428980e+01 4.295785e+01 2.768728e+01 2.854227e+01 3.009950e+01 3.534924e+00 4.126637e+00 2.764271e+00 2.005483e+00 4.551010e+00 2.864824e+00 3.390001e+00 3.367436e+00 3.317356e+00 2.617959e+00 2.254170e+00 1.791103e+00 3.671364e+00
<GCONST> 1.071644e+02
<STATE> 3
<MEAN> 25
 -8.249539e-01 -6.921349e-01 7.714736e-01 6.760229e-01 -3.993196e-01 -1.539098e-01 -1.660931e-01 5.330608e-01 -2.514849e-01 -3.406319e-01 6.491562e-01 4.716814e-01 3.050937e-02 -3.143661e-02 1.727718e-02 1.742978e-02 -6.690946e-02 -2.132357e-02 -1.877596e-03 -3.332495e-02 -7.346165e-02 -1.884669e-02 4.478152e-02 3.957684e-02 1.080315e-02
<VARIANCE> 25
 1.208763e+02 5.547826e+01 4.642015e+01 2.527956e+01 1.204831e+02 6.129044e+01 5.070089e+01 8.255025e+01 4.238812e+01 2.712711e+01 2.820258e+01 2.934874e+01 3.536603e+00 4.111899e+00 2.759481e+00 1.987370e+00 4.558444e+00 2.829381e+00 3.325549e+00 3.297417e+00 3.245004e+00 2.590818e+00 2.301089e+00 1.785733e+00 3.613590e+00
<GCONST> 1.069957e+02
<STATE> 4
<MEAN> 25
 -4.929231e-01 -8.272091e-01 8.896848e-01 7.474521e-01 -7.979210e-01 -2.954701e-01 -2.482217e-01 1.416299e-01 -5.340353e-01 -3.938400e-01 6.643124e-01 5.069394e-01 2.446239e-02 -9.416209e-03 1.371826e-02 -4.124041e-03 -5.016419e-02 -2.875412e-03 -2.052652e-02 -5.015464e-02 -4.525658e-02 3.684635e-03 2.611005e-02 4.124656e-02 -1.697780e-04
<VARIANCE> 25
 1.230877e+02 5.417774e+01 4.767442e+01 2.577249e+01 1.211887e+02 6.211737e+01 5.022461e+01 8.177421e+01 4.226175e+01 2.622948e+01 2.800772e+01 2.895437e+01 3.597214e+00 4.070864e+00 2.755234e+00 1.991355e+00 4.630976e+00 2.790661e+00 3.318101e+00 3.256797e+00 3.162281e+00 2.567123e+00 2.335269e+00 1.791547e+00 3.551350e+00
<GCONST> 1.069397e+02
<TRANSP> 5
 0.000000e+00 1.000000e+00 0.000000e+00 0.000000e+00 0.000000e+00
 0.000000e+00 6.678780e-01 3.321221e-01 0.000000e+00 0.000000e+00
 0.000000e+00 0.000000e+00 6.678784e-01 3.321216e-01 0.000000e+00
 0.000000e+00 0.000000e+00 0.000000e+00 7.790929e-01 2.209071e-01
 0.000000e+00 0.000000e+00 0.000000e+00 0.000000e+00 0.000000e+00
<ENDHMM>
~h "r"
<BEGINHMM>
<NUMSTATES> 5
<STATE> 2
<MEAN> 25
 2.163314e+00 -6.952879e-01 3.884902e-01 7.181129e-01 -1.419478e+00 -1.072802e+00 -1.743823e-01 -1.543779e+00 -1.614548e-01 -3.053037e-01 -6.215237e-01 -7.591287e-01 4.777381e-02 -9.787643e-03 -7.718821e-03 9.044600e-03 -3.196616e-02 -2.779416e-02 -2.085404e-03 -5.580356e-02 -2.364678e-02 -6.594561e-03 -3.371596e-02 -5.027928e-02 4.905124e-02
<VARIANCE> 25
 1.245774e+02 5.084831e+01 4.379374e+01 3.067635e+01 9.206467e+01 4.750197e+01 4.862386e+01 8.005167e+01 4.246608e+01 2.802299e+01 2.978230e+01 2.869197e+01 4.671743e+00 4.276759e+00 2.701662e+00 2.510082e+00 4.632284e+00 2.593241e+00 3.548216e+00 4.125322e+00 3.555750e+00 2.671882e+00 2.296123e+00 2.155099e+00 3.358897e+00
<GCONST> 1.075265e+02
<STATE> 3
<MEAN> 25
 2.300754e+00 -7.123442e-01 3.678887e-01 7.367758e-01 -1.510226e+00 -1.144694e+00 -1.802043e-01 -1.713165e+00 -2.436411e-01 -3.306322e-01 -7.245498e-01 -9.106849e-01 4.321484e-02 3.623052e-03 -5.493695e-03 6.414556e-03 -1.853899e-02 -1.400243e-02 -9.712273e-03 -4.743779e-02 -2.668917e-02 -5.103002e-03 -2.660476e-02 -4.151435e-02 2.728407e-02
<VARIANCE> 25
 1.240330e+02 5.133187e+01 4.377478e+01 3.120546e+01 9.119947e+01 4.731471e+01 4.902038e+01 7.934986e+01 4.250951e+01 2.828283e+01 2.980860e+01 2.845788e+01 4.736823e+00 4.414081e+00 2.696270e+00 2.556450e+00 4.631684e+00 2.584139e+00 3.576828e+00 4.166656e+00 3.586301e+00 2.719690e+00 2.353720e+00 2.157123e+00 3.386212e+00
<GCONST> 1.076733e+02
<STATE> 4
<MEAN> 25
 2.442947e+00 -6.618302e-01 3.784437e-01 7.170088e-01 -1.576439e+00 -1.159097e+00 -2.586326e-01 -1.956850e+00 -3.719001e-01 -3.669901e-01 -8.347236e-01 -1.077845e+00 2.055959e-02 1.863171e-02 -3.216676e-04 2.768904e-03 -1.767433e-03 6.273063e-04 -1.038365e-02 -2.000688e-02 -2.509525e-02 -1.085639e-03 -1.245636e-02 -2.316327e-02 -8.691194e-03
<VARIANCE> 25
 1.231108e+02 5.144527e+01 4.368331e+01 3.234230e+01 9.018111e+01 4.698855e+01 4.840031e+01 7.886243e+01 4.220796e+01 2.854344e+01 2.981417e+01 2.799277e+01 4.722814e+00 4.436229e+00 2.681750e+00 2.623657e+00 4.578080e+00 2.552980e+00 3.569773e+00 4.146369e+00 3.619261e+00 2.767573e+00 2.428952e+00 2.121367e+00 3.316439e+00
<GCONST> 1.076629e+02
<TRANSP> 5
 0.000000e+00 1.000000e+00 0.000000e+00 0.000000e+00 0.000000e+00
 0.000000e+00 6.882004e-01 3.117996e-01 0.000000e+00 0.000000e+00
 0.000000e+00 0.000000e+00 6.882005e-01 3.117995e-01 0.000000e+00
 0.000000e+00 0.000000e+00 0.000000e+00 8.052787e-01 1.947214e-01
 0.000000e+00 0.000000e+00 0.000000e+00 0.000000e+00 0.000000e+00
<ENDHMM>
~h "s"
<BEGINHMM>
<NUMSTATES> 5
<STATE> 2
<MEAN> 25
 -2.195161e+00 6.601100e-01 -2.901963e-01 -2.250786e-01 1.724832e+00 8.027795e-01 4.490092e-01 1.685315e+00 5.289829e-01 9.004495e-01 7.875019e-01 8.217028e-01 -4.243574e-02 2.191728e-05 1.544229e-02 -2.705317e-02 1.221084e-02 1.911756e-03 1.395113e-02 4.642502e-02 3.160750e-03 1.001510e-02 2.183742e-02 1.197228e-02 -2.352270e-02
<VARIANCE> 25
 1.138340e+02 3.646705e+01 3.675123e+01 2.631557e+01 9.205383e+01 5.268615e+01 4.135286e+01 8.364432e+01 3.561244e+01 2.442241e+01 2.964036e+01 3.677254e+01 3.670463e+00 2.616923e+00 2.054536e+00 1.777877e+00 3.556142e+00 2.325677e+00 2.877329e+00 2.668910e+00 2.517678e+00 2.100407e+00 2.002872e+00 1.806011e+00 1.775554e+00
<GCONST> 1.027842e+02
<STATE> 3
<MEAN> 25
 -2.312320e+00 6.632755e-01 -2.329592e-01 -3.021859e-01 1.753743e+00 7.945534e-01 4.866226e-01 1.815032e+00 5.226591e-01 9.213399e-01 8.472381e-01 8.526493e-01 -3.540793e-02 5.083943e-03 1.678898e-02 -2.382663e-02 1.131289e-02 -2.919943e-03 8.256837e-03 3.272938e-02 1.650884e-03 3.357312e-03 1.781739e-02 1.510541e-02 -1.486431e-02
<VARIANCE> 25
 1.129727e+02 3.607258e+01 3.766647e+01 2.606743e+01 9.303311e+01 5.288090e+01 4.145547e+01 8.404276e+01 3.587646e+01 2.433089e+01 2.937201e+01 3.619442e+01 3.683642e+00 2.640095e+00 2.099550e+00 1.770178e+00 3.567538e+00 2.322724e+00 2.886430e+00 2.643656e+00 2.524053e+00 2.082469e+00 2.006539e+00 1.821086e+00 1.822147e+00
<GCONST> 1.028364e+02
<STATE> 4
<MEAN> 25
 -2.328843e+00 6.820515e-01 -1.239656e-01 -3.599724e-01 1.663323e+00 6.848598e-01 4.875862e-01 1.797063e+00 4.388824e-01 9.098483e-01 8.537622e-01 8.400468e-01 -2.352492e-02 9.902153e-03 1.852077e-02 -1.458156e-02 7.761075e-03 -9.608959e-03 3.841917e-03 1.282003e-02 1.522452e-04 -6.173573e-03 8.837680e-03 1.662210e-02 -1.822643e-03
<VARIANCE> 25
 1.104387e+02 3.510179e+01 3.877549e+01 2.614639e+01 9.300863e+01 5.190499e+01 4.008221e+01 8.261723e+01 3.662945e+01 2.398169e+01 2.880899e+01 3.506211e+01 3.625185e+00 2.647146e+00 2.152434e+00 1.787623e+00 3.538448e+00 2.297537e+00 2.834131e+00 2.607430e+00 2.542158e+00 2.032147e+00 1.998909e+00 1.826531e+00 1.882018e+00
<GCONST> 1.026883e+02
<TRANSP> 5
 0.000000e+00 1.000000e+00 0.000000e+00 0.000000e+00 0.000000e+00
 0.000000e+00 6.930786e-01 3.069214e-01 0.000000e+00 0.000000e+00
 0.000000e+00 0.000000e+00 6.930792e-01 3.069209e-01 0.000000e+00
 0.000000e+00 0.000000e+00 0.000000e+00 8.138633e-01 1.861366e-01
 0.000000e+00 0.000000e+00 0.000000e+00 0.000000e+00 0.000000e+00
<ENDHMM>
~h "t"
<BEGINHMM>
<NUMSTATES> 5
<STATE> 2
<MEAN> 25
 3.819363e-01 -2.542700e-01 5.425441e-01 1.323247e-02 -8.343741e-01 -8.017129e-02 -1.521349e-02 -5.715761e-01 -6.375438e-01 -1.884793e-01 -5.398986e-02 7.442559e-02 1.410244e-02 -3.164127e-02 -2.054970e-03 4.962699e-03 -1.308719e-02 -1.068855e-02 -1.105168e-02 -2.361831e-02 2.149427e-03 8.309774e-03 -4.096766e-03 -2.493288e-02 2.968855e-02
<VARIANCE> 25
 1.152645e+02 4.882367e+01 4.636406e+01 3.301149e+01 9.681369e+01 5.097847e+01 4.263447e+01 8.902971e+01 4.137452e+01 2.899380e+01 3.176307e+01 3.382132e+01 3.902893e+00 4.278785e+00 2.463776e+00 2.409428e+00 4.450392e+00 2.914605e+00 3.452069e+00 3.588662e+00 3.392138e+00 2.687411e+00 2.473690e+00 2.132536e+00 3.637096e+00
<GCONST> 1.075709e+02
<STATE> 3
<MEAN> 25
 4.534913e-01 -3.647348e-01 5.608094e-01 4.230781e-02 -9.107894e-01 -1.369312e-01 -4.636206e-02 -6.659096e-01 -6.286918e-01 -1.863637e-01 -8.138563e-02 -2.439617e-02 2.116132e-02 -3.046125e-02 3.103409e-03 4.707205e-03 -2.052386e-02 -1.377099e-02 -1.071460e-02 -2.618291e-02 7.140533e-03 1.673836e-03 -7.927864e-03 -2.884015e-02 3.728320e-02
<VARIANCE> 25
 1.152714e+02 4.905031e+01 4.680206e+01 3.318395e+01 9.676444e+01 5.111157e+01 4.283169e+01 8.933607e+01 4.158121e+01 2.904776e+01 3.146066e+01 3.374346e+01 3.950110e+00 4.347126e+00 2.508640e+00 2.424262e+00 4.488724e+00 2.936354e+00 3.450089e+00 3.598977e+00 3.428837e+00 2.673587e+00 2.480853e+00 2.176310e+00 3.694561e+00
<GCONST> 1.077102e+02
<STATE> 4
<MEAN> 25
 6.405010e-01 -5.196845e-01 6.642483e-01 9.275678e-02 -1.132792e+00 -3.523553e-01 -1.607851e-01 -8.374943e-01 -5.576127e-01 -2.474642e-01 -1.663989e-01 -1.813325e-01 2.925532e-02 -2.237216e-02 1.403450e-02 5.609081e-03 -2.913254e-02 -2.309550e-02 -1.273058e-02 -3.032278e-02 8.548576e-03 -6.642685e-03 -1.320702e-02 -2.929882e-02 4.547270e-02
<VARIANCE> 25
 1.144031e+02 4.888140e+01 4.754322e+01 3.269795e+01 9.624142e+01 5.088531e+01 4.299514e+01 8.879636e+01 4.174823e+01 2.889917e+01 3.106693e+01 3.352259e+01 3.962209e+00 4.384353e+00 2.564289e+00 2.404305e+00 4.521692e+00 2.947896e+00 3.415561e+00 3.587570e+00 3.445982e+00 2.627192e+00 2.464479e+00 2.191743e+00 3.757655e+00
<GCONST> 1.076959e+02
<TRANSP> 5
 0.000000e+00 1.000000e+00 0.000000e+00 0.000000e+00 0.000000e+00
 0.000000e+00 6.927575e-01 3.072426e-01 0.000000e+00 0.000000e+00
 0.000000e+00 0.000000e+00 6.927568e-01 3.072432e-01 0.000000e+00
 0.000000e+00 0.000000e+00 0.000000e+00 8.125964e-01 1.874036e-01
 0.000000e+00 0.000000e+00 0.000000e+00 0.000000e+00 0.000000e+00
<ENDHMM>
~h "v"
<BEGINHMM>
<NUMSTATES> 5
<STATE> 2
<MEAN> 25
 8.038584e-01 1.164909e-01 -4.560948e-02 5.673985e-01 -6.141276e-01 -9.064696e-01 -6.675190e-02 -2.836012e-01 1.426177e-01 -5.297825e-01 -6.889245e-01 -4.129987e-01 -1.247761e-02 1.335912e-02 -5.565292e-03 -2.427176e-02 -3.532288e-02 1.165929e-02 5.084480e-03 -1.589649e-02 -1.907774e-02 2.823167e-02 3.159019e-02 -1.826083e-02 -1.529719e-02
<VARIANCE> 25
 1.148591e+02 4.603849e+01 4.229310e+01 3.068247e+01 1.098286e+02 5.108002e+01 4.152165e+01 7.585198e+01 3.989278e+01 2.366088e+01 2.756788e+01 3.047106e+01 4.376194e+00 3.086949e+00 2.800127e+00 2.038693e+00 4.837310e+00 2.542382e+00 3.564537e+00 3.293422e+00 3.117087e+00 2.227046e+00 2.258815e+00 1.774242e+00 3.105870e+00
<GCONST> 1.057360e+02
<STATE> 3
<MEAN> 25
 7.339616e-01 1.730617e-01 -6.835923e-02 4.611412e-01 -7.061175e-01 -8.393602e-01 -5.338713e-02 -3.310336e-01 8.381705e-02 -4.164796e-01 -5.703128e-01 -4.547082e-01 -1.135105e-02 1.246913e-02 -1.060762e-02 -3.527014e-02 -2.808694e-02 1.748545e-02 4.159949e-03 -2.428392e-02 -2.019748e-02 3.582152e-02 3.008848e-02 -1.886536e-02 -1.008162e-02
<VARIANCE> 25
 1.148787e+02 4.610191e+01 4.271280e+01 3.083742e+01 1.108888e+02 5.015454e+01 4.099538e+01 7.602827e+01 3.961623e+01 2.374979e+01 2.677985e+01 3.070961e+01 4.340441e+00 3.046131e+00 2.822526e+00 2.056290e+00 4.840475e+00 2.516442e+00 3.456609e+00 3.308100e+00 3.088244e+00 2.217006e+00 2.211621e+00 1.768808e+00 3.115825e+00
<GCONST> 1.056333e+02
<STATE> 4
<MEAN> 25
 4.506641e-01 2.860430e-01 -1.003707e-01 2.016606e-01 -6.443911e-01 -5.541552e-01 -2.517749e-02 -2.303946e-01 3.978442e-02 -1.679837e-01 -3.492652e-01 -3.920307e-01 -1.417588e-02 1.231200e-02 -1.505826e-02 -4.593979e-02 -1.449304e-02 2.642669e-02 3.118286e-03 -2.482913e-02 -1.990708e-02 3.858246e-02 2.751424e-02 -1.392862e-02 -1.060494e-02
<VARIANCE> 25
 1.131144e+02 4.501516e+01 4.343586e+01 3.012842e+01 1.133883e+02 4.919111e+01 3.889553e+01 7.762737e+01 3.831120e+01 2.347491e+01 2.544796e+01 3.088179e+01 4.064313e+00 2.865666e+00 2.767723e+00 2.025806e+00 4.632700e+00 2.454773e+00 3.223861e+00 3.220301e+00 2.943148e+00 2.167396e+00 2.109875e+00 1.722610e+00 2.960695e+00
<GCONST> 1.049461e+02
<TRANSP> 5
 0.000000e+00 1.000000e+00 0.000000e+00 0.000000e+00 0.000000e+00
 0.000000e+00 7.029511e-01 2.970488e-01 0.000000e+00 0.000000e+00
 0.000000e+00 0.000000e+00 7.029511e-01 2.970490e-01 0.000000e+00
 0.000000e+00 0.000000e+00 0.000000e+00 8.231027e-01 1.768973e-01
 0.000000e+00 0.000000e+00 0.000000e+00 0.000000e+00 0.000000e+00
<ENDHMM>
~h "w"
<BEGINHMM>
<NUMSTATES> 5
<STATE> 2
<MEAN> 25
 2.992736e+00 -3.595388e-01 8.342619e-01 1.086045e-01 -2.385704e+00 -9.705493e-01 2.722052e-02 -3.527884e+00 -1.112411e+00 -6.887586e-02 -1.126703e+00 -1.722175e+00 6.904822e-02 -5.687504e-02 1.303010e-02 3.979310e-02 -5.518422e-02 -3.235738e-02 8.834987e-03 -5.816654e-02 -9.197315e-03 -5.029917e-03 -3.390977e-02 -3.340152e-02 8.161785e-02
<VARIANCE> 25
 1.200193e+02 5.022291e+01 5.753011e+01 4.034423e+01 9.964847e+01 5.473463e+01 4.434188e+01 8.458659e+01 5.062508e+01 2.857581e+01 2.836599e+01 3.770612e+01 5.346573e+00 3.864105e+00 3.078183e+00 2.920833e+00 5.228348e+00 3.077984e+00 3.791708e+00 3.922377e+00 3.766477e+00 2.928945e+00 2.253796e+00 2.102399e+00 3.055396e+00
<GCONST> 1.092623e+02
<STATE> 3
<MEAN> 25
 3.261852e+00 -5.591370e-01 8.810021e-01 2.438466e-01 -2.588495e+00 -1.090452e+00 3.357127e-02 -3.744211e+00 -1.160486e+00 -9.867891e-02 -1.260808e+00 -1.850378e+00 8.352468e-02 -5.750049e-02 1.044356e-02 3.715474e-02 -5.642933e-02 -3.239126e-02 -8.753589e-04 -6.118549e-02 -1.767426e-02 -8.123885e-03 -4.021784e-02 -3.514814e-02 8.765243e-02
<VARIANCE> 25
 1.192619e+02 5.071111e+01 5.798811e+01 4.007145e+01 9.848454e+01 5.489438e+01 4.435440e+01 8.397751e+01 5.099755e+01 2.853281e+01 2.839635e+01 3.790149e+01 5.407715e+00 3.929534e+00 3.123752e+00 2.912897e+00 5.293315e+00 3.150742e+00 3.833511e+00 3.935991e+00 3.803876e+00 2.927137e+00 2.292688e+00 2.124815e+00 3.179280e+00
<GCONST> 1.094301e+02
<STATE> 4
<MEAN> 25
 3.758105e+00 -8.175706e-01 1.051395e+00 5.242304e-01 -3.056666e+00 -1.415885e+00 5.320309e-02 -4.158535e+00 -1.288373e+00 -2.191876e-01 -1.519121e+00 -2.080700e+00 9.497128e-02 -5.301401e-02 5.008300e-03 3.238129e-02 -5.137279e-02 -3.257663e-02 -1.472001e-02 -5.978204e-02 -2.464425e-02 -1.261423e-02 -4.601188e-02 -3.710178e-02 8.932464e-02
<VARIANCE> 25
 1.176941e+02 5.070572e+01 5.980766e+01 3.898035e+01 9.848469e+01 5.468705e+01 4.434314e+01 8.365598e+01 5.109062e+01 2.780530e+01 2.817882e+01 3.844827e+01 5.472017e+00 3.946930e+00 3.186224e+00 2.859452e+00 5.373389e+00 3.195765e+00 3.862562e+00 3.923526e+00 3.804699e+00 2.851281e+00 2.340184e+00 2.137491e+00 3.295947e+00
<GCONST> 1.094824e+02
<TRANSP> 5
 0.000000e+00 1.000000e+00 0.000000e+00 0.000000e+00 0.000000e+00
 0.000000e+00 7.024319e-01 2.975680e-01 0.000000e+00 0.000000e+00
 0.000000e+00 0.000000e+00 7.024323e-01 2.975677e-01 0.000000e+00
 0.000000e+00 0.000000e+00 0.000000e+00 8.220527e-01 1.779473e-01
 0.000000e+00 0.000000e+00 0.000000e+00 0.000000e+00 0.000000e+00
<ENDHMM>
~h "y"
<BEGINHMM>
<NUMSTATES> 5
<STATE> 2
<MEAN> 25
 -8.631025e-01 -3.926772e-01 -1.746837e-01 -6.268882e-02 6.245438e-01 4.159780e-01 -1.024811e+00 1.823311e+00 8.568794e-02 -6.402942e-01 1.224711e+00 1.284897e+00 6.934566e-02 -4.945053e-02 -8.213048e-02 -1.214831e-02 -2.025118e-02 -8.914219e-02 -5.633480e-02 -4.129474e-03 1.156457e-02 -3.045917e-02 -9.033144e-03 2.969060e-02 6.842890e-02
<VARIANCE> 25
 1.163301e+02 3.991819e+01 4.878015e+01 2.807485e+01 1.085747e+02 6.676409e+01 5.078142e+01 9.854002e+01 3.585210e+01 2.596709e+01 2.633068e+01 2.920645e+01 2.351624e+00 2.136316e+00 2.462795e+00 1.865744e+00 3.952646e+00 2.929872e+00 3.413047e+00 2.797315e+00 2.784540e+00 1.661616e+00 1.612874e+00 1.294109e+00 1.584394e+00
<GCONST> 1.030730e+02
<STATE> 3
<MEAN> 25
 -6.080348e-01 -5.570184e-01 -3.930067e-01 -6.373412e-02 5.816305e-01 1.855468e-01 -1.171696e+00 1.784237e+00 1.477173e-01 -6.947813e-01 1.110942e+00 1.301389e+00 4.369172e-02 -4.509722e-02 -6.597621e-02 3.778362e-03 6.590862e-03 -6.119951e-02 -2.901004e-02 3.636545e-03 2.892258e-02 -9.271992e-03 -3.907279e-02 6.748934e-03 5.235579e-02
<VARIANCE> 25
 1.192286e+02 4.042478e+01 4.749174e+01 2.915576e+01 1.066523e+02 6.686239e+01 4.986933e+01 1.005111e+02 3.618008e+01 2.526830e+01 2.712935e+01 3.064380e+01 2.561767e+00 2.267253e+00 2.465316e+00 1.969616e+00 3.986850e+00 2.979187e+00 3.609030e+00 2.931393e+00 2.839183e+00 1.754846e+00 1.657711e+00 1.410518e+00 1.645871e+00
<GCONST> 1.037202e+02
<STATE> 4
<MEAN> 25
 5.493578e-01 -8.350675e-01 -4.685655e-01 1.995345e-03 2.780413e-01 2.409370e-01 -1.326766e+00 1.017801e+00 -1.294865e-03 -7.545256e-01 4.945367e-01 7.461353e-01 2.471231e-02 -2.891362e-02 -1.913172e-02 1.205194e-02 4.915872e-03 -1.967599e-02 1.740427e-02 -2.777112e-02 8.045478e-03 1.289320e-02 -5.445641e-02 -3.427966e-02 4.664012e-02
<VARIANCE> 25
 1.305869e+02 4.432964e+01 4.932185e+01 3.034999e+01 1.033537e+02 6.676875e+01 4.640687e+01 1.055465e+02 3.874607e+01 2.563331e+01 2.849008e+01 3.540097e+01 2.727264e+00 2.582435e+00 2.586648e+00 2.054343e+00 4.102912e+00 3.080367e+00 3.665929e+00 3.081518e+00 2.936714e+00 1.923212e+00 1.730246e+00 1.578629e+00 1.759776e+00
<GCONST> 1.049599e+02
<TRANSP> 5
 0.000000e+00 1.000000e+00 0.000000e+00 0.000000e+00 0.000000e+00
 0.000000e+00 7.053791e-01 2.946209e-01 0.000000e+00 0.000000e+00
 0.000000e+00 0.000000e+00 7.053791e-01 2.946208e-01 0.000000e+00
 0.000000e+00 0.000000e+00 0.000000e+00 8.324086e-01 1.675913e-01
 0.000000e+00 0.000000e+00 0.000000e+00 0.000000e+00 0.000000e+00
<ENDHMM>
~h "z"
<BEGINHMM>
<NUMSTATES> 5
<STATE> 2
<MEAN> 25
 2.510423e+00 -1.087826e+00 -2.176017e-03 5.683078e-01 -9.679160e-01 -6.815648e-01 -2.333052e-01 -1.626944e+00 -3.508877e-01 -1.672471e-02 -9.629591e-01 -1.108150e+00 6.189916e-02 -1.192417e-02 -4.245422e-02 5.453150e-05 -1.016586e-03 -3.743587e-02 -1.848271e-02 -2.761068e-02 3.877857e-03 3.026406e-03 -3.194239e-02 -2.727918e-02 6.464603e-02
<VARIANCE> 25
 1.234747e+02 4.843120e+01 4.990612e+01 2.828051e+01 9.287961e+01 5.321137e+01 4.502167e+01 8.588562e+01 4.430776e+01 2.926542e+01 3.102603e+01 3.694711e+01 4.500211e+00 3.915327e+00 2.314044e+00 2.031361e+00 4.341263e+00 3.085364e+00 3.736664e+00 3.320130e+00 3.229135e+00 2.657972e+00 2.202523e+00 1.849321e+00 2.989640e+00
<GCONST> 1.070522e+02
<STATE> 3
<MEAN> 25
 2.691442e+00 -1.132010e+00 -1.567825e-01 5.504065e-01 -9.619278e-01 -8.035231e-01 -2.861366e-01 -1.712495e+00 -3.341901e-01 -1.345017e-02 -1.065862e+00 -1.189259e+00 4.273864e-02 -8.596735e-03 -3.909820e-02 4.277283e-04 5.475000e-03 -4.314282e-02 -1.507740e-02 -1.934353e-02 1.177648e-02 -5.082197e-03 -2.808770e-02 -2.111925e-02 5.417141e-02
<VARIANCE> 25
 1.240698e+02 4.904832e+01 4.982484e+01 2.838336e+01 9.156389e+01 5.341758e+01 4.464888e+01 8.537132e+01 4.450614e+01 2.948338e+01 3.125557e+01 3.688312e+01 4.604581e+00 4.001379e+00 2.336163e+00 2.070251e+00 4.431747e+00 3.145785e+00 3.767587e+00 3.343429e+00 3.298835e+00 2.706061e+00 2.228660e+00 1.892500e+00 2.957234e+00
<GCONST> 1.072561e+02
<STATE> 4
<MEAN> 25
 2.871914e+00 -1.268906e+00 -3.370463e-01 5.294098e-01 -9.498259e-01 -9.503860e-01 -3.670257e-01 -1.786509e+00 -2.607155e-01 -2.012395e-02 -1.152013e+00 -1.269152e+00 1.807540e-02 -7.754257e-03 -2.923075e-02 -3.943031e-04 4.297547e-03 -4.436631e-02 -7.930033e-03 -8.853350e-03 1.675228e-02 -1.142512e-02 -2.119623e-02 -1.188514e-02 3.714456e-02
<VARIANCE> 25
 1.260109e+02 5.055129e+01 5.088528e+01 2.886603e+01 9.081854e+01 5.433652e+01 4.386983e+01 8.521317e+01 4.431018e+01 2.991093e+01 3.106227e+01 3.689511e+01 4.670799e+00 4.079038e+00 2.366632e+00 2.107449e+00 4.532065e+00 3.200694e+00 3.735888e+00 3.377354e+00 3.382991e+00 2.742103e+00 2.253358e+00 1.979133e+00 2.897167e+00
<GCONST> 1.075125e+02
<TRANSP> 5
 0.000000e+00 1.000000e+00 0.000000e+00 0.000000e+00 0.000000e+00
 0.000000e+00 6.988031e-01 3.011970e-01 0.000000e+00 0.000000e+00
 0.000000e+00 0.000000e+00 6.988032e-01 3.011968e-01 0.000000e+00
 0.000000e+00 0.000000e+00 0.000000e+00 8.181368e-01 1.818632e-01
 0.000000e+00 0.000000e+00 0.000000e+00 0.000000e+00 0.000000e+00
<ENDHMM>
~h "aa"
<BEGINHMM>
<NUMSTATES> 5
<STATE> 2
<MEAN> 25
 4.509288e+00 -2.457171e+00 1.153061e-01 5.737942e-01 -2.760094e+00 -1.487930e+00 -3.466790e-01 -4.357834e+00 -2.516011e-01 -4.439080e-01 -1.491988e+00 -1.823423e+00 1.142402e-01 -6.158538e-02 -8.650245e-03 3.115622e-02 -6.145082e-02 -5.263203e-02 -6.092011e-03 -1.433121e-01 -4.178433e-02 3.589394e-03 -4.047402e-02 -1.042011e-01 1.455276e-01
<VARIANCE> 25
 1.034655e+02 5.890358e+01 4.467873e+01 3.714482e+01 6.922327e+01 5.924728e+01 5.147646e+01 6.543082e+01 5.631524e+01 3.434702e+01 3.101988e+01 3.159002e+01 5.877847e+00 6.010397e+00 3.290523e+00 2.934231e+00 5.284547e+00 3.807851e+00 3.917263e+00 4.019442e+00 4.793326e+00 3.381549e+00 2.431216e+00 2.350922e+00 5.021180e+00
<GCONST> 1.107055e+02
<STATE> 3
<MEAN> 25
 4.846598e+00 -2.617283e+00 6.887684e-02 6.606423e-01 -2.899973e+00 -1.653597e+00 -3.735392e-01 -4.799035e+00 -3.918810e-01 -4.310341e-01 -1.607601e+00 -2.165006e+00 9.935792e-02 -4.613731e-02 -1.646271e-02 2.431335e-02 -4.148490e-02 -5.157692e-02 -6.705995e-03 -1.276713e-01 -4.586856e-02 5.442736e-03 -2.759086e-02 -1.004096e-01 1.282138e-01
<VARIANCE> 25
 1.012071e+02 5.935875e+01 4.508134e+01 3.770597e+01 6.673340e+01 5.780902e+01 5.140768e+01 6.302303e+01 5.710283e+01 3.376271e+01 3.049474e+01 3.109978e+01 6.035545e+00 6.109731e+00 3.303425e+00 3.022068e+00 5.151500e+00 3.848935e+00 4.035872e+00 4.053899e+00 4.881207e+00 3.367332e+00 2.456355e+00 2.365794e+00 4.948113e+00
<GCONST> 1.106948e+02
<STATE> 4
<MEAN> 25
 5.306090e+00 -2.657150e+00 -2.358511e-02 7.434646e-01 -3.010397e+00 -1.876713e+00 -4.767081e-01 -5.361457e+00 -5.559849e-01 -3.792682e-01 -1.763449e+00 -2.620178e+00 6.704120e-02 -1.843726e-02 -1.772321e-02 1.200507e-02 -1.831186e-02 -4.842963e-02 -8.416711e-03 -9.173736e-02 -4.147752e-02 7.862856e-04 -1.385251e-02 -8.329088e-02 9.435542e-02
<VARIANCE> 25
 9.743903e+01 6.008967e+01 4.502499e+01 3.824792e+01 6.542308e+01 5.560378e+01 5.114180e+01 6.055910e+01 5.779294e+01 3.311567e+01 2.976769e+01 2.988890e+01 6.067000e+00 6.310393e+00 3.237847e+00 3.072932e+00 5.074359e+00 3.793725e+00 4.151367e+00 4.076765e+00 5.008641e+00 3.361482e+00 2.487918e+00 2.359698e+00 4.825510e+00
<GCONST> 1.105548e+02
<TRANSP> 5
 0.000000e+00 1.000000e+00 0.000000e+00 0.000000e+00 0.000000e+00
 0.000000e+00 6.893893e-01 3.106107e-01 0.000000e+00 0.000000e+00
 0.000000e+00 0.000000e+00 6.893896e-01 3.106103e-01 0.000000e+00
 0.000000e+00 0.000000e+00 0.000000e+00 8.061407e-01 1.938592e-01
 0.000000e+00 0.000000e+00 0.000000e+00 0.000000e+00 0.000000e+00
<ENDHMM>
~h "ae"
<BEGINHMM>
<NUMSTATES> 5
<STATE> 2
<MEAN> 25
 6.855723e-01 -3.813201e-01 6.535738e-01 5.394243e-01 -1.388789e+00 -4.725734e-01 5.523060e-01 -3.616466e-01 -3.636411e-01 -3.359292e-01 9.751404e-02 -1.937571e-01 7.815653e-02 -8.511866e-03 3.534726e-02 3.022591e-02 -3.106662e-02 5.385130e-03 -6.505562e-03 2.169453e-03 -5.535486e-02 1.217580e-02 -4.074000e-03 -1.684288e-02 2.606982e-02
<VARIANCE> 25
 1.198194e+02 4.208490e+01 5.348403e+01 2.953480e+01 9.741257e+01 4.456057e+01 4.518032e+01 8.865372e+01 3.981928e+01 2.824498e+01 2.746999e+01 3.395158e+01 3.232099e+00 3.345904e+00 2.619282e+00 1.828513e+00 3.745050e+00 2.442616e+00 3.158475e+00 3.322090e+00 2.824748e+00 2.514679e+00 2.135528e+00 1.857428e+00 2.818963e+00
<GCONST> 1.052584e+02
<STATE> 3
<MEAN> 25
 9.829171e-01 -4.260969e-01 7.536702e-01 6.502445e-01 -1.514470e+00 -4.762513e-01 5.181105e-01 -3.947123e-01 -5.596281e-01 -2.788625e-01 8.022510e-02 -2.611045e-01 9.287895e-02 -1.108063e-02 3.768859e-02 3.603667e-02 -3.952251e-02 2.267463e-03 -1.235753e-02 -1.405491e-02 -6.398453e-02 1.701503e-02 -4.290014e-03 -2.118833e-02 3.824592e-02
<VARIANCE> 25
 1.194590e+02 4.142823e+01 5.295394e+01 2.967209e+01 9.749483e+01 4.434493e+01 4.495473e+01 8.746928e+01 3.969362e+01 2.809781e+01 2.779448e+01 3.387260e+01 3.265662e+00 3.388702e+00 2.666187e+00 1.919384e+00 3.850801e+00 2.500542e+00 3.183491e+00 3.414971e+00 2.870043e+00 2.546228e+00 2.147182e+00 1.869802e+00 2.892976e+00
<GCONST> 1.054553e+02
<STATE> 4
<MEAN> 25
 1.169110e+00 -3.722845e-01 7.937217e-01 6.472527e-01 -1.552208e+00 -4.547718e-01 3.727702e-01 -3.023323e-01 -6.961470e-01 -1.455015e-01 8.892230e-02 -2.698498e-01 9.725681e-02 -3.142361e-03 3.053973e-02 2.277065e-02 -4.232030e-02 -5.279803e-03 -1.615228e-02 -2.122095e-02 -5.497175e-02 9.683607e-03 -9.844240e-03 -2.885228e-02 5.130668e-02
<VARIANCE> 25
 1.169454e+02 4.008833e+01 5.093270e+01 3.039936e+01 9.583399e+01 4.315331e+01 4.297409e+01 8.487752e+01 3.951694e+01 2.761906e+01 2.828517e+01 3.468534e+01 3.177488e+00 3.354798e+00 2.602659e+00 2.056667e+00 3.830414e+00 2.504803e+00 3.096840e+00 3.406739e+00 2.878740e+00 2.574100e+00 2.148991e+00 1.884035e+00 2.888891e+00
<GCONST> 1.052813e+02
<TRANSP> 5
 0.000000e+00 1.000000e+00 0.000000e+00 0.000000e+00 0.000000e+00
 0.000000e+00 7.009435e-01 2.990564e-01 0.000000e+00 0.000000e+00
 0.000000e+00 0.000000e+00 7.009435e-01 2.990566e-01 0.000000e+00
 0.000000e+00 0.000000e+00 0.000000e+00 8.236189e-01 1.763812e-01
 0.000000e+00 0.000000e+00 0.000000e+00 0.000000e+00 0.000000e+00
<ENDHMM>
~h "ah"
<BEGINHMM>
<NUMSTATES> 5
<STATE> 2
<MEAN> 25
 3.731944e+00 -3.676554e-01 1.578855e+00 1.452612e+00 -1.744498e+00 -1.418861e+00 -8.619437e-01 -2.747975e+00 -9.237499e-01 -5.352536e-01 -2.009698e+00 -1.463664e+00 -8.111724e-02 1.765633e-02 -1.648960e-02 1.223574e-02 3.918366e-02 3.996515e-04 2.492986e-02 8.670362e-02 3.388079e-02 -2.043518e-02 1.393191e-02 2.585541e-02 -5.982821e-02
<VARIANCE> 25
 1.116600e+02 5.156940e+01 4.677755e+01 3.445145e+01 9.534776e+01 4.966821e+01 4.560570e+01 7.503740e+01 4.198581e+01 2.474961e+01 3.074240e+01 3.443763e+01 4.908534e+00 4.119750e+00 2.695513e+00 2.385386e+00 4.839682e+00 2.995843e+00 3.692990e+00 3.429840e+00 3.185100e+00 2.327141e+00 2.487391e+00 1.921519e+00 3.198221e+00
<GCONST> 1.073129e+02
<STATE> 3
<MEAN> 25
 3.413893e+00 -2.852331e-01 1.512553e+00 1.481806e+00 -1.577342e+00 -1.414148e+00 -7.543071e-01 -2.452338e+00 -8.052027e-01 -5.779833e-01 -1.935136e+00 -1.348090e+00 -9.173419e-02 2.308423e-02 -2.696200e-02 2.570835e-03 4.153553e-02 7.676841e-03 3.564771e-02 8.527153e-02 3.486630e-02 -1.716971e-02 2.428612e-02 2.905233e-02 -6.892161e-02
<VARIANCE> 25
 1.123560e+02 5.218349e+01 4.575915e+01 3.477464e+01 9.474003e+01 4.892094e+01 4.626911e+01 7.468099e+01 4.169506e+01 2.460213e+01 3.121701e+01 3.415253e+01 4.955609e+00 4.158546e+00 2.725458e+00 2.420270e+00 4.865556e+00 2.958980e+00 3.693281e+00 3.463458e+00 3.202080e+00 2.277513e+00 2.529226e+00 1.912709e+00 3.249935e+00
<GCONST> 1.073597e+02
<STATE> 4
<MEAN> 25
 3.217582e+00 -2.473679e-01 1.541763e+00 1.455680e+00 -1.539215e+00 -1.574565e+00 -5.111442e-01 -2.519249e+00 -8.242143e-01 -5.516749e-01 -1.891324e+00 -1.329880e+00 -1.111938e-01 3.061546e-02 -3.999396e-02 -1.159826e-02 5.201717e-02 1.339629e-02 5.132658e-02 8.431488e-02 3.735807e-02 -8.249745e-03 3.756052e-02 3.960172e-02 -8.487197e-02
<VARIANCE> 25
 1.165777e+02 5.240128e+01 4.576235e+01 3.449453e+01 9.361687e+01 4.896101e+01 4.748045e+01 7.628607e+01 4.238390e+01 2.427837e+01 3.186545e+01 3.436134e+01 4.789791e+00 4.050621e+00 2.773635e+00 2.447181e+00 4.711074e+00 2.947301e+00 3.673466e+00 3.428651e+00 3.176011e+00 2.179634e+00 2.536247e+00 1.845495e+00 3.088376e+00
<GCONST> 1.072390e+02
<TRANSP> 5
 0.000000e+00 1.000000e+00 0.000000e+00 0.000000e+00 0.000000e+00
 0.000000e+00 6.990688e-01 3.009312e-01 0.000000e+00 0.000000e+00
 0.000000e+00 0.000000e+00 6.990690e-01 3.009310e-01 0.000000e+00
 0.000000e+00 0.000000e+00 0.000000e+00 8.238690e-01 1.761310e-01
 0.000000e+00 0.000000e+00 0.000000e+00 0.000000e+00 0.000000e+00
<ENDHMM>
~h "ao"
<BEGINHMM>
<NUMSTATES> 5
<STATE> 2
<MEAN> 25
 1.913893e+00 6.708930e-02 2.002662e-01 -2.217374e-01 -6.295269e-01 2.467804e-01 -1.092954e+00 -1.762669e+00 7.323686e-01 -5.203176e-01 -9.147829e-01 3.239772e-03 -1.132023e-03 -4.676260e-02 -2.220116e-02 1.384131e-02 3.921551e-03 1.413268e-03 3.913723e-02 -3.674810e-02 8.978404e-03 6.955102e-03 -2.781453e-02 -6.248535e-02 3.061737e-02
<VARIANCE> 25
 1.266119e+02 4.866011e+01 3.678147e+01 4.388113e+01 8.948956e+01 4.640094e+01 3.815390e+01 8.948150e+01 4.371439e+01 2.710532e+01 3.195292e+01 2.983031e+01 4.452344e+00 3.584829e+00 2.659932e+00 3.426100e+00 4.685160e+00 2.652778e+00 3.415952e+00 4.087679e+00 3.718545e+00 2.800586e+00 2.526484e+00 2.068771e+00 2.516262e+00
<GCONST> 1.075197e+02
<STATE> 3
<MEAN> 25
 1.952794e+00 -7.604932e-02 1.480061e-01 -1.697345e-01 -6.450104e-01 2.275642e-01 -9.669644e-01 -1.895390e+00 7.270943e-01 -4.975615e-01 -1.014127e+00 -2.029642e-01 6.938954e-03 -4.655876e-02 -2.409899e-02 1.535495e-02 2.789963e-03 -8.937849e-03 3.903161e-02 -3.359783e-02 -9.045986e-03 6.847808e-03 -3.091079e-02 -5.981296e-02 3.046764e-02
<VARIANCE> 25
 1.281007e+02 4.693225e+01 3.514082e+01 4.420942e+01 8.698546e+01 4.667155e+01 3.893790e+01 8.959521e+01 4.282610e+01 2.734265e+01 3.218196e+01 2.896393e+01 4.454002e+00 3.556431e+00 2.643605e+00 3.422104e+00 4.617491e+00 2.631367e+00 3.421838e+00 4.133041e+00 3.715118e+00 2.875251e+00 2.584965e+00 2.111545e+00 2.527294e+00
<GCONST> 1.074703e+02
<STATE> 4
<MEAN> 25
 2.132106e+00 -3.647070e-01 1.142427e-01 -6.573273e-02 -6.964104e-01 1.387970e-01 -8.681320e-01 -2.197609e+00 6.971704e-01 -4.670700e-01 -1.189815e+00 -4.840102e-01 2.629395e-02 -3.969773e-02 -2.328850e-02 1.402406e-02 -4.290328e-03 -1.951920e-02 2.383948e-02 -3.655141e-02 -2.634498e-02 -2.026129e-03 -3.924886e-02 -5.739723e-02 3.728876e-02
<VARIANCE> 25
 1.300374e+02 4.531658e+01 3.363873e+01 4.438483e+01 8.339767e+01 4.741037e+01 4.047515e+01 9.063053e+01 4.165730e+01 2.785390e+01 3.213132e+01 2.814890e+01 4.557660e+00 3.578295e+00 2.687539e+00 3.466856e+00 4.491595e+00 2.622912e+00 3.516620e+00 4.265865e+00 3.655771e+00 2.973700e+00 2.678046e+00 2.142874e+00 2.561749e+00
<GCONST> 1.075630e+02
<TRANSP> 5
 0.000000e+00 1.000000e+00 0.000000e+00 0.000000e+00 0.000000e+00
 0.000000e+00 6.892675e-01 3.107324e-01 0.000000e+00 0.000000e+00
 0.000000e+00 0.000000e+00 6.892679e-01 3.107321e-01 0.000000e+00
 0.000000e+00 0.000000e+00 0.000000e+00 8.052027e-01 1.947974e-01
 0.000000e+00 0.000000e+00 0.000000e+00 0.000000e+00 0.000000e+00
<ENDHMM>
~h "aw"
<BEGINHMM>
<NUMSTATES> 5
<STATE> 2
<MEAN> 25
 1.402629e+00 -4.486646e-01 -1.682884e+00 -5.906594e-01 -7.130712e-02 7.887307e-01 3.034348e-01 -7.868220e-01 7.379710e-01 -9.401712e-01 -3.579996e-02 -8.409428e-01 1.050209e-01 -2.536896e-02 -5.796809e-02 -5.066079e-02 -2.954322e-02 -1.513079e-02 -2.032382e-02 -6.499945e-02 2.397174e-02 -2.321486e-02 -7.459926e-02 -3.197382e-02 1.148600e-01
<VARIANCE> 25
 1.248368e+02 4.799275e+01 3.329049e+01 2.767626e+01 8.783441e+01 3.602530e+01 2.524726e+01 9.376933e+01 3.071806e+01 3.009057e+01 2.786592e+01 2.911078e+01 3.274245e+00 3.049270e+00 1.558874e+00 1.683155e+00 3.302917e+00 1.746912e+00 2.249240e+00 2.442705e+00 2.685796e+00 2.743032e+00 2.092823e+00 1.689283e+00 1.866156e+00
<GCONST> 1.014334e+02
<STATE> 3
<MEAN> 25
 1.828335e+00 -5.692632e-01 -1.903187e+00 -7.458971e-01 -1.778773e-01 7.222877e-01 1.872257e-01 -1.012030e+00 8.133384e-01 -1.031780e+00 -3.300385e-01 -9.651214e-01 9.904657e-02 -3.714674e-02 -5.181212e-02 -4.001768e-02 -2.538186e-02 -1.593184e-02 -2.833763e-02 -4.548430e-02 2.203550e-02 -2.047100e-02 -7.627417e-02 -2.833002e-02 1.048111e-01
<VARIANCE> 25
 1.282386e+02 5.004124e+01 3.269490e+01 2.803729e+01 8.493792e+01 3.614909e+01 2.537081e+01 9.334113e+01 3.156392e+01 3.048403e+01 2.885647e+01 2.920293e+01 3.248140e+00 3.110848e+00 1.594710e+00 1.674378e+00 3.225045e+00 1.758979e+00 2.233269e+00 2.495481e+00 2.663785e+00 2.737566e+00 2.084091e+00 1.675157e+00 1.778943e+00
<GCONST> 1.015015e+02
<STATE> 4
<MEAN> 25
 2.621420e+00 -7.017047e-01 -2.068747e+00 -7.790016e-01 -3.797993e-01 7.439852e-01 -1.056549e-01 -1.288043e+00 7.802911e-01 -1.338844e+00 -8.750347e-01 -1.239072e+00 1.257617e-01 -5.768108e-02 -4.146802e-02 -3.426166e-02 -4.390715e-02 -5.634245e-03 -4.330245e-02 -6.304635e-02 2.466927e-03 -1.400354e-02 -7.050196e-02 -4.188199e-02 1.180789e-01
<VARIANCE> 25
 1.369795e+02 5.451736e+01 3.358717e+01 2.858356e+01 8.291796e+01 3.712888e+01 2.520231e+01 9.054333e+01 3.403270e+01 2.951026e+01 3.018013e+01 3.052067e+01 3.110722e+00 3.172427e+00 1.733912e+00 1.685070e+00 3.260308e+00 1.895291e+00 2.129717e+00 2.586070e+00 2.676962e+00 2.502082e+00 1.975247e+00 1.620935e+00 1.642510e+00
<GCONST> 1.016855e+02
<TRANSP> 5
 0.000000e+00 1.000000e+00 0.000000e+00 0.000000e+00 0.000000e+00
 0.000000e+00 7.332544e-01 2.667457e-01 0.000000e+00 0.000000e+00
 0.000000e+00 0.000000e+00 7.332545e-01 2.667455e-01 0.000000e+00
 0.000000e+00 0.000000e+00 0.000000e+00 8.638912e-01 1.361088e-01
 0.000000e+00 0.000000e+00 0.000000e+00 0.000000e+00 0.000000e+00
<ENDHMM>
~h "ax"
<BEGINHMM>
<NUMSTATES> 5
<STATE> 2
<MEAN> 25
 3.555852e-01 2.388421e-01 2.773879e-02 7.758316e-02 -1.617680e-01 -2.969375e-01 -2.459602e-01 -2.670883e-01 -5.591180e-01 9.397376e-02 -2.718067e-01 -5.955839e-01 -2.556269e-02 -1.238895e-02 -1.595870e-02 1.117228e-02 9.939011e-03 -4.196755e-03 1.232222e-02 1.513241e-02 1.673232e-02 -3.797794e-03 6.015261e-03 -1.646807e-03 -1.388637e-02
<VARIANCE> 25
 1.142752e+02 4.997060e+01 4.157098e+01 3.069920e+01 9.493073e+01 5.033918e+01 4.150761e+01 8.412155e+01 4.142043e+01 2.638599e+01 3.086674e+01 3.320366e+01 3.990310e+00 3.760131e+00 2.273909e+00 2.084727e+00 4.510871e+00 2.780840e+00 3.361048e+00 3.318584e+00 3.066502e+00 2.458986e+00 2.335562e+00 1.835124e+00 2.903566e+00
<GCONST> 1.060547e+02
<STATE> 3
<MEAN> 25
 2.763850e-01 1.842605e-01 -1.535624e-02 1.157802e-01 -1.354170e-01 -3.144315e-01 -1.986566e-01 -2.168149e-01 -5.056038e-01 7.786061e-02 -2.550751e-01 -6.037175e-01 -2.341061e-02 -2.540314e-02 -1.152919e-02 1.447939e-02 3.257826e-03 -9.548764e-03 1.760122e-02 1.801837e-02 1.889038e-02 -7.019690e-03 3.454097e-03 -3.159307e-04 -6.195332e-03
<VARIANCE> 25
 1.143594e+02 5.023745e+01 4.118933e+01 3.090919e+01 9.477295e+01 5.081035e+01 4.192054e+01 8.404869e+01 4.156174e+01 2.645582e+01 3.101824e+01 3.289016e+01 3.969907e+00 3.782593e+00 2.264211e+00 2.069295e+00 4.520682e+00 2.750763e+00 3.387455e+00 3.292104e+00 3.084620e+00 2.458490e+00 2.348350e+00 1.837043e+00 2.864088e+00
<GCONST> 1.060553e+02
<STATE> 4
<MEAN> 25
 2.697914e-01 5.265507e-02 -8.049723e-03 1.908795e-01 -1.896451e-01 -3.826344e-01 -1.247285e-01 -2.144217e-01 -4.370613e-01 2.127764e-02 -2.716034e-01 -6.432995e-01 -1.296459e-02 -3.673848e-02 -4.056986e-03 1.955993e-02 -5.659886e-03 -1.480524e-02 2.121196e-02 1.486042e-02 1.851651e-02 -1.031362e-02 -2.339926e-03 -2.021090e-03 7.213046e-03
<VARIANCE> 25
 1.142215e+02 5.073182e+01 4.146863e+01 3.146952e+01 9.528263e+01 5.152682e+01 4.241938e+01 8.425135e+01 4.186161e+01 2.640130e+01 3.149358e+01 3.309469e+01 3.938002e+00 3.821035e+00 2.271525e+00 2.066131e+00 4.515088e+00 2.691010e+00 3.407789e+00 3.271290e+00 3.113473e+00 2.455029e+00 2.367939e+00 1.850649e+00 2.853520e+00
<GCONST> 1.061488e+02
<TRANSP> 5
 0.000000e+00 1.000000e+00 0.000000e+00 0.000000e+00 0.000000e+00
 0.000000e+00 6.882302e-01 3.117698e-01 0.000000e+00 0.000000e+00
 0.000000e+00 0.000000e+00 6.882305e-01 3.117695e-01 0.000000e+00
 0.000000e+00 0.000000e+00 0.000000e+00 8.046967e-01 1.953034e-01
 0.000000e+00 0.000000e+00 0.000000e+00 0.000000e+00 0.000000e+00
<ENDHMM>
~h "ay"
<BEGINHMM>
<NUMSTATES> 5
<STATE> 2
<MEAN> 25
 3.156242e+00 -1.192334e+00 -9.951240e-01 4.541784e-02 -9.699595e-01 -7.869501e-01 -2.584705e-01 -1.321435e+00 -2.193304e-01 -3.956446e-01 -7.489232e-01 -1.118747e+00 3.579696e-02 -5.131466e-02 1.631516e-02 -2.549477e-02 -4.787569e-02 8.697484e-03 -5.505783e-03 -2.304067e-02 1.312911e-02 -4.651836e-02 -9.037778e-03 -1.558933e-02 6.651228e-02
<VARIANCE> 25
 1.414217e+02 5.984379e+01 4.926053e+01 3.118175e+01 9.488104e+01 5.203421e+01 4.180830e+01 7.799796e+01 4.333276e+01 2.489926e+01 3.392114e+01 3.800751e+01 4.104192e+00 3.608460e+00 2.853172e+00 2.301578e+00 4.333997e+00 2.539964e+00 3.332844e+00 3.548010e+00 3.275589e+00 2.201760e+00 2.806723e+00 1.911567e+00 2.386593e+00
<GCONST> 1.070390e+02
<STATE> 3
<MEAN> 25
 3.247931e+00 -1.382393e+00 -9.182582e-01 -4.114828e-02 -1.183990e+00 -7.752462e-01 -2.518523e-01 -1.383363e+00 -1.520040e-01 -4.971035e-01 -7.532886e-01 -1.162797e+00 2.335147e-02 -6.106156e-02 2.646641e-02 -2.256447e-02 -7.223669e-02 2.936759e-03 8.244140e-03 -1.517470e-02 1.852934e-02 -2.630866e-02 2.044412e-03 -1.494617e-02 6.541803e-02
<VARIANCE> 25
 1.403564e+02 6.083807e+01 5.060988e+01 3.073990e+01 9.558418e+01 5.165237e+01 4.203328e+01 7.711479e+01 4.325957e+01 2.503405e+01 3.411260e+01 3.769339e+01 4.141050e+00 3.697499e+00 2.967131e+00 2.286591e+00 4.400067e+00 2.539443e+00 3.299489e+00 3.507676e+00 3.334515e+00 2.173276e+00 2.808758e+00 1.929417e+00 2.454976e+00
<GCONST> 1.071581e+02
<STATE> 4
<MEAN> 25
 3.599611e+00 -1.920792e+00 -6.750681e-01 -2.351685e-02 -1.833457e+00 -9.588860e-01 -2.268215e-01 -1.684933e+00 -4.066201e-02 -6.379704e-01 -9.381300e-01 -1.414039e+00 1.046581e-02 -6.572275e-02 4.322254e-02 -6.392995e-03 -9.581713e-02 -8.202778e-03 1.943805e-02 -2.831435e-02 1.929318e-02 -2.014614e-02 -3.942634e-03 -1.836457e-02 6.897756e-02
<VARIANCE> 25
 1.393453e+02 6.321160e+01 5.421127e+01 2.999620e+01 9.406673e+01 5.046753e+01 4.296052e+01 7.443518e+01 4.281449e+01 2.587892e+01 3.488953e+01 3.710028e+01 4.321395e+00 3.895149e+00 3.106915e+00 2.275795e+00 4.513773e+00 2.557713e+00 3.291961e+00 3.481684e+00 3.343796e+00 2.166166e+00 2.828417e+00 1.983197e+00 2.625579e+00
<GCONST> 1.074703e+02
<TRANSP> 5
 0.000000e+00 1.000000e+00 0.000000e+00 0.000000e+00 0.000000e+00
 0.000000e+00 6.916262e-01 3.083738e-01 0.000000e+00 0.000000e+00
 0.000000e+00 0.000000e+00 6.916263e-01 3.083738e-01 0.000000e+00
 0.000000e+00 0.000000e+00 0.000000e+00 8.099254e-01 1.900746e-01
 0.000000e+00 0.000000e+00 0.000000e+00 0.000000e+00 0.000000e+00
<ENDHMM>
~h "ch"
<BEGINHMM>
<NUMSTATES> 5
<STATE> 2
<MEAN> 25
 1.291561e+00 9.298422e-01 7.312831e-01 7.587188e-01 -1.081145e+00 -9.050859e-01 7.629241e-01 8.723802e-02 -2.688399e-01 -9.953771e-01 -3.788520e-01 -1.804249e-01 -1.663478e-01 6.306139e-02 -1.104941e-01 -1.476539e-02 2.240666e-01 1.155911e-01 -4.278946e-02 8.770975e-02 1.179188e-01 -1.856539e-02 5.740519e-02 7.930001e-02 -1.641777e-01
<VARIANCE> 25
 1.069053e+02 4.395020e+01 5.123963e+01 3.256435e+01 1.313241e+02 4.145456e+01 4.242293e+01 8.481204e+01 4.595770e+01 2.180480e+01 2.844004e+01 3.797730e+01 4.368851e+00 3.325569e+00 2.318756e+00 2.261151e+00 4.151049e+00 2.325775e+00 4.071306e+00 3.202588e+00 3.845785e+00 1.978569e+00 2.113907e+00 1.833820e+00 2.794775e+00
<GCONST> 1.060871e+02
<STATE> 3
<MEAN> 25
 7.316234e-01 1.068860e+00 4.038263e-01 7.030339e-01 -4.309224e-01 -5.432546e-01 6.560296e-01 3.341019e-01 1.218984e-01 -1.056952e+00 -1.580917e-01 9.141320e-02 -1.698083e-01 3.784133e-02 -1.120190e-01 -3.242945e-02 1.907302e-01 1.136396e-01 -3.205663e-02 7.896007e-02 1.067632e-01 2.399588e-03 7.950043e-02 7.529451e-02 -1.575700e-01
<VARIANCE> 25
 1.057277e+02 4.527076e+01 5.075239e+01 3.223098e+01 1.298766e+02 4.122815e+01 4.155616e+01 8.638181e+01 4.438894e+01 2.100242e+01 2.821408e+01 3.758485e+01 4.388523e+00 3.462521e+00 2.296799e+00 2.324469e+00 4.053245e+00 2.288709e+00 4.069029e+00 3.192778e+00 3.807564e+00 1.954580e+00 2.136288e+00 1.837274e+00 2.710120e+00
<GCONST> 1.059552e+02
<STATE> 4
<MEAN> 25
 3.028687e-01 8.473620e-01 2.115219e-01 5.849814e-01 -3.403274e-01 -3.042691e-01 4.992411e-01 2.299392e-01 4.648234e-01 -1.118632e+00 1.860657e-01 2.823876e-01 -1.352626e-01 -5.340015e-03 -1.035404e-01 -4.335550e-02 1.192774e-01 9.023701e-02 -9.382878e-03 5.125408e-02 9.052931e-02 1.380260e-02 8.453698e-02 5.621066e-02 -1.074529e-01
<VARIANCE> 25
 1.056138e+02 4.862014e+01 5.342664e+01 3.099971e+01 1.331488e+02 4.098067e+01 4.145601e+01 9.059104e+01 4.367109e+01 2.103228e+01 2.750822e+01 3.837367e+01 4.347082e+00 3.826332e+00 2.348566e+00 2.408640e+00 4.091153e+00 2.294183e+00 4.112175e+00 3.174064e+00 3.859135e+00 1.985037e+00 2.162328e+00 1.849133e+00 2.725914e+00
<GCONST> 1.063004e+02
<TRANSP> 5
 0.000000e+00 1.000000e+00 0.000000e+00 0.000000e+00 0.000000e+00
 0.000000e+00 7.160196e-01 2.839804e-01 0.000000e+00 0.000000e+00
 0.000000e+00 0.000000e+00 7.160195e-01 2.839806e-01 0.000000e+00
 0.000000e+00 0.000000e+00 0.000000e+00 8.380057e-01 1.619943e-01
 0.000000e+00 0.000000e+00 0.000000e+00 0.000000e+00 0.000000e+00
<ENDHMM>
~h "dh"
<BEGINHMM>
<NUMSTATES> 5
<STATE> 2
<MEAN> 25
 1.774316e+00 1.681995e-01 7.886851e-01 2.928185e-01 -1.245234e+00 -2.380949e-01 -4.531170e-01 -1.421892e+00 -1.012154e+00 -1.202077e-01 -9.708770e-01 -7.496043e-01 2.090508e-02 -1.059666e-02 2.835422e-02 -4.677949e-03 -8.676540e-02 -3.671250e-02 5.459512e-02 -4.184311e-02 -4.827584e-02 -1.899803e-02 1.150502e-02 -8.515730e-03 5.680544e-02
<VARIANCE> 25
 1.089553e+02 5.580383e+01 4.480307e+01 3.552093e+01 9.610826e+01 4.831062e+01 4.221078e+01 7.537700e+01 4.321976e+01 2.645636e+01 3.103129e+01 3.374451e+01 4.089338e+00 4.158957e+00 2.601753e+00 2.421346e+00 5.100164e+00 3.293092e+00 3.362785e+00 3.866949e+00 3.132410e+00 2.461224e+00 2.172997e+00 1.843419e+00 3.687126e+00
<GCONST> 1.073315e+02
<STATE> 3
<MEAN> 25
 1.843002e+00 1.288903e-01 8.796318e-01 2.906105e-01 -1.536170e+00 -3.668348e-01 -2.731360e-01 -1.557494e+00 -1.162694e+00 -1.884511e-01 -9.376245e-01 -7.756679e-01 1.846188e-02 -9.190873e-03 2.461759e-02 -1.392621e-03 -8.491735e-02 -4.177219e-02 5.839072e-02 -4.051359e-02 -4.165527e-02 -2.153883e-02 1.097448e-02 -9.055433e-03 5.731444e-02
<VARIANCE> 25
 1.098410e+02 5.557816e+01 4.549809e+01 3.618836e+01 9.679080e+01 4.877453e+01 4.189404e+01 7.315633e+01 4.357290e+01 2.636958e+01 3.053913e+01 3.339378e+01 4.097510e+00 4.101779e+00 2.595124e+00 2.435248e+00 5.171269e+00 3.271477e+00 3.366559e+00 3.837111e+00 3.127791e+00 2.468405e+00 2.173179e+00 1.837521e+00 3.597601e+00
<GCONST> 1.072929e+02
<STATE> 4
<MEAN> 25
 1.762493e+00 1.174057e-01 9.939219e-01 2.986892e-01 -1.779462e+00 -4.616115e-01 -3.176981e-02 -1.591209e+00 -1.285213e+00 -2.959412e-01 -8.674597e-01 -7.767627e-01 8.397300e-03 -6.196898e-03 1.909022e-02 1.507718e-05 -6.879081e-02 -4.375039e-02 5.021339e-02 -2.899732e-02 -2.960722e-02 -2.185587e-02 1.480792e-02 -8.884135e-03 4.528070e-02
<VARIANCE> 25
 1.112137e+02 5.422540e+01 4.600098e+01 3.672207e+01 9.725288e+01 4.908162e+01 4.062331e+01 7.107924e+01 4.325343e+01 2.635389e+01 2.999604e+01 3.300299e+01 4.039245e+00 3.961656e+00 2.521025e+00 2.385733e+00 5.126302e+00 3.152347e+00 3.288442e+00 3.724850e+00 3.066025e+00 2.443740e+00 2.149258e+00 1.812569e+00 3.344448e+00
<GCONST> 1.068948e+02
<TRANSP> 5
 0.000000e+00 1.000000e+00 0.000000e+00 0.000000e+00 0.000000e+00
 0.000000e+00 6.927567e-01 3.072433e-01 0.000000e+00 0.000000e+00
 0.000000e+00 0.000000e+00 6.927569e-01 3.072431e-01 0.000000e+00
 0.000000e+00 0.000000e+00 0.000000e+00 8.103431e-01 1.896569e-01
 0.000000e+00 0.000000e+00 0.000000e+00 0.000000e+00 0.000000e+00
<ENDHMM>
~h "dx"
<BEGINHMM>
<NUMSTATES> 5
<STATE> 2
<MEAN> 25
 4.663585e+00 -2.238535e-01 1.651728e+00 1.141716e+00 -2.416871e+00 -4.338901e+00 -1.915431e+00 -4.273462e+00 -9.241621e-01 -1.304956e+00 -2.617530e+00 -2.212019e+00 -1.541486e-01 5.803940e-02 -1.625873e-02 -1.545349e-02 1.835488e-01 9.059978e-02 2.212179e-03 6.314334e-02 1.089899e-02 7.114008e-03 -1.617056e-02 3.949406e-02 -1.463880e-01
<VARIANCE> 25
 1.122718e+02 6.568481e+01 4.170385e+01 3.258663e+01 9.246059e+01 4.457385e+01 6.025330e+01 4.011375e+01 4.241487e+01 2.288573e+01 2.434998e+01 2.017653e+01 6.450028e+00 4.311110e+00 3.233164e+00 2.724910e+00 5.428205e+00 3.121101e+00 4.867702e+00 3.520757e+00 3.124615e+00 2.198111e+00 2.779119e+00 1.987363e+00 2.844172e+00
<GCONST> 1.071099e+02
<STATE> 3
<MEAN> 25
 4.166546e+00 -6.774778e-02 1.560795e+00 1.082551e+00 -1.827882e+00 -4.037456e+00 -1.895664e+00 -4.060693e+00 -8.742384e-01 -1.273566e+00 -2.652225e+00 -2.071867e+00 -1.659798e-01 3.509253e-02 -2.890332e-02 -2.399875e-02 1.770281e-01 1.046375e-01 7.964328e-03 6.831103e-02 2.117041e-02 1.143688e-02 -3.909144e-03 5.016403e-02 -1.502203e-01
<VARIANCE> 25
 1.150660e+02 6.387677e+01 4.070045e+01 3.127895e+01 9.092699e+01 4.495630e+01 6.111123e+01 4.167281e+01 4.146799e+01 2.291832e+01 2.420356e+01 2.057988e+01 6.303118e+00 4.319151e+00 3.171113e+00 2.693741e+00 5.314679e+00 3.101636e+00 4.942200e+00 3.488729e+00 3.056604e+00 2.175289e+00 2.745901e+00 1.948607e+00 2.868316e+00
<GCONST> 1.069488e+02
<STATE> 4
<MEAN> 25
 3.564707e+00 -3.857772e-02 1.329692e+00 9.512107e-01 -1.174115e+00 -3.562218e+00 -1.729197e+00 -3.851674e+00 -7.516341e-01 -1.162645e+00 -2.680022e+00 -1.878780e+00 -1.661977e-01 9.366328e-03 -4.751752e-02 -3.452454e-02 1.612404e-01 1.178883e-01 1.537323e-02 7.766288e-02 3.034287e-02 1.809972e-02 1.312144e-02 5.958030e-02 -1.499242e-01
<VARIANCE> 25
 1.191399e+02 6.081317e+01 3.945063e+01 2.987970e+01 8.700271e+01 4.545410e+01 6.163825e+01 4.445485e+01 4.134812e+01 2.342513e+01 2.434606e+01 2.140552e+01 6.154053e+00 4.278427e+00 3.083455e+00 2.682248e+00 5.086334e+00 3.093776e+00 5.009392e+00 3.502652e+00 3.057646e+00 2.214499e+00 2.739014e+00 1.929469e+00 2.858490e+00
<GCONST> 1.068695e+02
<TRANSP> 5
 0.000000e+00 1.000000e+00 0.000000e+00 0.000000e+00 0.000000e+00
 0.000000e+00 6.766328e-01 3.233672e-01 0.000000e+00 0.000000e+00
 0.000000e+00 0.000000e+00 6.766331e-01 3.233669e-01 0.000000e+00
 0.000000e+00 0.000000e+00 0.000000e+00 7.901407e-01 2.098592e-01
 0.000000e+00 0.000000e+00 0.000000e+00 0.000000e+00 0.000000e+00
<ENDHMM>
~h "eh"
<BEGINHMM>
<NUMSTATES> 5
<STATE> 2
<MEAN> 25
 5.881397e-01 3.585650e-01 1.450739e-01 -4.521215e-01 4.176887e-02 1.958835e-01 1.783221e-01 -8.464786e-01 8.366890e-02 -9.638932e-02 -6.193398e-01 -1.927933e-01 -5.353063e-02 3.909205e-02 8.108355e-03 -1.598370e-02 2.918261e-02 1.478473e-02 3.248473e-03 3.416095e-02 2.974056e-02 9.240745e-03 1.107701e-02 1.479032e-02 -6.699135e-02
<VARIANCE> 25
 1.205154e+02 4.879647e+01 4.364517e+01 3.551991e+01 1.081557e+02 4.987049e+01 3.668164e+01 8.288103e+01 3.547353e+01 2.203677e+01 2.850161e+01 2.875855e+01 4.694015e+00 3.704191e+00 2.531586e+00 2.452758e+00 4.445032e+00 3.035401e+00 3.292292e+00 3.202859e+00 2.706811e+00 2.020979e+00 2.160247e+00 1.841091e+00 2.431535e+00
<GCONST> 1.055637e+02
<STATE> 3
<MEAN> 25
 3.733439e-01 4.686722e-01 1.589341e-01 -4.966644e-01 1.330661e-01 2.593589e-01 2.269042e-01 -7.089747e-01 1.678133e-01 -5.481619e-02 -5.569422e-01 -1.320641e-01 -5.470463e-02 1.971584e-02 -4.110304e-04 -8.355681e-03 2.361744e-02 1.931782e-02 1.625611e-02 3.864906e-02 1.496408e-02 1.575440e-02 1.550332e-02 9.536493e-03 -7.014912e-02
<VARIANCE> 25
 1.185948e+02 4.869534e+01 4.308652e+01 3.427474e+01 1.083675e+02 4.926934e+01 3.522905e+01 8.338960e+01 3.438031e+01 2.194838e+01 2.828476e+01 2.872087e+01 4.634629e+00 3.790389e+00 2.468391e+00 2.356502e+00 4.399858e+00 2.893582e+00 3.190794e+00 3.151150e+00 2.616907e+00 1.997888e+00 2.152986e+00 1.833358e+00 2.426348e+00
<GCONST> 1.051925e+02
<STATE> 4
<MEAN> 25
 6.957926e-02 5.530794e-01 1.545348e-01 -5.207704e-01 2.413107e-01 3.794726e-01 3.343415e-01 -4.292064e-01 2.135255e-01 -2.181386e-02 -4.586576e-01 -4.822821e-02 -5.888496e-02 1.544124e-03 -7.800222e-03 8.692820e-03 2.436070e-02 2.120897e-02 1.931641e-02 4.487446e-02 6.399396e-03 2.161845e-02 1.639820e-02 3.148855e-03 -7.607189e-02
<VARIANCE> 25
 1.156967e+02 4.769033e+01 4.291537e+01 3.254391e+01 1.103175e+02 4.827882e+01 3.297958e+01 8.459845e+01 3.292260e+01 2.178444e+01 2.752967e+01 2.799550e+01 4.339803e+00 3.822206e+00 2.390929e+00 2.200509e+00 4.260961e+00 2.703121e+00 3.001606e+00 3.047336e+00 2.517331e+00 1.956031e+00 2.119550e+00 1.760053e+00 2.359627e+00
<GCONST> 1.044368e+02
<TRANSP> 5
 0.000000e+00 1.000000e+00 0.000000e+00 0.000000e+00 0.000000e+00
 0.000000e+00 6.931804e-01 3.068196e-01 0.000000e+00 0.000000e+00
 0.000000e+00 0.000000e+00 6.931806e-01 3.068194e-01 0.000000e+00
 0.000000e+00 0.000000e+00 0.000000e+00 8.125852e-01 1.874147e-01
 0.000000e+00 0.000000e+00 0.000000e+00 0.000000e+00 0.000000e+00
<ENDHMM>
~h "er"
<BEGINHMM>
<NUMSTATES> 5
<STATE> 2
<MEAN> 25
 1.221385e+00 6.324463e-02 1.320201e-01 3.121836e-01 -1.323270e+00 -1.431611e+00 -4.220113e-01 -1.156179e+00 -2.141334e-01 -6.594062e-01 -5.939058e-01 -5.216567e-01 1.729439e-02 -1.928491e-02 -1.692061e-02 -2.629012e-02 -7.728179e-03 1.024857e-02 -1.211176e-02 6.713890e-03 -7.497082e-03 1.342080e-02 1.361048e-02 8.287525e-03 3.756593e-03
<VARIANCE> 25
 1.209075e+02 4.490503e+01 4.531380e+01 3.072751e+01 1.127970e+02 5.478847e+01 4.250478e+01 8.225639e+01 3.693457e+01 2.174846e+01 2.766082e+01 3.592093e+01 3.698913e+00 2.833192e+00 2.311629e+00 2.103462e+00 4.224659e+00 2.701063e+00 3.241349e+00 3.177267e+00 2.696374e+00 1.951400e+00 2.005115e+00 1.802681e+00 2.581468e+00
<GCONST> 1.048552e+02
<STATE> 3
<MEAN> 25
 1.242962e+00 -1.266844e-02 6.689163e-02 2.094497e-01 -1.318285e+00 -1.382225e+00 -4.766425e-01 -1.093748e+00 -2.245670e-01 -6.025265e-01 -5.436506e-01 -4.837594e-01 2.117336e-02 -2.468121e-02 -1.098194e-02 -2.575362e-02 -1.064750e-02 4.851231e-03 -1.234710e-02 4.317253e-03 -4.081906e-03 1.492407e-02 8.429840e-03 2.060025e-03 1.287003e-02
<VARIANCE> 25
 1.198801e+02 4.552033e+01 4.493667e+01 3.104731e+01 1.104885e+02 5.399535e+01 4.161214e+01 8.122282e+01 3.699609e+01 2.186242e+01 2.754799e+01 3.645724e+01 3.732233e+00 2.920210e+00 2.304412e+00 2.162213e+00 4.208149e+00 2.737136e+00 3.245434e+00 3.240109e+00 2.686210e+00 1.974568e+00 2.021421e+00 1.850542e+00 2.624468e+00
<GCONST> 1.049634e+02
<STATE> 4
<MEAN> 25
 1.044984e+00 -1.341841e-02 -3.433668e-02 1.182420e-02 -1.132263e+00 -1.211439e+00 -4.566185e-01 -7.872454e-01 -1.895270e-01 -4.841900e-01 -4.631335e-01 -3.394977e-01 7.190029e-04 -2.449439e-02 -9.066500e-03 -2.721737e-02 3.983937e-03 5.507976e-03 -1.443974e-02 2.112423e-02 3.503137e-03 1.901359e-02 1.120199e-02 5.752023e-03 -2.409164e-03
<VARIANCE> 25
 1.176735e+02 4.530561e+01 4.405631e+01 3.128655e+01 1.066667e+02 5.097092e+01 3.859578e+01 7.921767e+01 3.644675e+01 2.137366e+01 2.720667e+01 3.627011e+01 3.563864e+00 2.922050e+00 2.212594e+00 2.165526e+00 3.989734e+00 2.689853e+00 3.092637e+00 3.163337e+00 2.554194e+00 1.947678e+00 1.996990e+00 1.834416e+00 2.505612e+00
<GCONST> 1.043208e+02
<TRANSP> 5
 0.000000e+00 1.000000e+00 0.000000e+00 0.000000e+00 0.000000e+00
 0.000000e+00 7.110512e-01 2.889489e-01 0.000000e+00 0.000000e+00
 0.000000e+00 0.000000e+00 7.110512e-01 2.889488e-01 0.000000e+00
 0.000000e+00 0.000000e+00 0.000000e+00 8.366399e-01 1.633601e-01
 0.000000e+00 0.000000e+00 0.000000e+00 0.000000e+00 0.000000e+00
<ENDHMM>
~h "ey"
<BEGINHMM>
<NUMSTATES> 5
<STATE> 2
<MEAN> 25
 -7.686541e-01 8.128419e-01 -2.057833e-01 -3.919438e-01 8.715153e-01 1.168777e+00 2.999516e-01 1.111131e+00 -1.807205e-02 3.719934e-01 1.006921e+00 9.931687e-01 5.953514e-02 -1.184163e-02 1.713248e-02 3.087088e-02 -3.526629e-02 -4.972360e-02 -3.392133e-02 -8.431730e-02 -2.408609e-02 -1.355853e-02 -3.420268e-02 -2.262023e-02 6.868739e-02
<VARIANCE> 25
 1.181029e+02 4.665411e+01 4.425540e+01 2.811973e+01 1.080195e+02 4.897599e+01 2.712459e+01 9.187359e+01 4.045160e+01 2.180026e+01 2.859360e+01 3.953889e+01 2.641598e+00 2.705140e+00 2.058876e+00 2.003147e+00 3.394589e+00 2.170738e+00 2.544202e+00 2.769472e+00 2.617074e+00 2.005638e+00 2.034972e+00 1.893132e+00 2.149662e+00
<GCONST> 1.029999e+02
<STATE> 3
<MEAN> 25
 -5.834413e-01 7.928801e-01 -1.581436e-01 -2.879750e-01 7.684212e-01 9.981175e-01 1.799409e-01 8.241464e-01 -9.987890e-02 3.270355e-01 8.784592e-01 8.996357e-01 5.442350e-02 -9.740150e-03 1.583077e-02 3.614352e-02 -3.556338e-02 -5.966938e-02 -3.246406e-02 -9.309547e-02 -2.709507e-02 -1.496804e-02 -4.159821e-02 -3.112301e-02 7.209887e-02
<VARIANCE> 25
 1.186204e+02 4.646767e+01 4.486258e+01 2.902761e+01 1.061061e+02 4.847332e+01 2.749624e+01 9.321693e+01 4.107749e+01 2.161590e+01 2.879206e+01 3.944763e+01 2.727822e+00 2.865431e+00 2.035509e+00 2.072260e+00 3.372392e+00 2.192106e+00 2.604177e+00 2.765180e+00 2.690141e+00 2.018861e+00 2.122564e+00 1.947482e+00 2.284960e+00
<GCONST> 1.033598e+02
<STATE> 4
<MEAN> 25
 -3.517222e-02 6.620069e-01 -7.424670e-02 -9.862471e-02 4.248966e-01 6.717629e-01 -6.009558e-04 1.895652e-01 -2.551480e-01 2.578498e-01 5.432228e-01 5.674114e-01 4.232274e-02 -7.350552e-03 9.761252e-03 4.064431e-02 -3.288930e-02 -6.333430e-02 -2.350091e-02 -8.710263e-02 -2.769699e-02 -1.301669e-02 -4.487045e-02 -4.260087e-02 6.578739e-02
<VARIANCE> 25
 1.195863e+02 4.728605e+01 4.633317e+01 3.121953e+01 1.038690e+02 4.813199e+01 2.855084e+01 9.475195e+01 4.228133e+01 2.109016e+01 2.942007e+01 3.982102e+01 2.885059e+00 3.145381e+00 2.042073e+00 2.197582e+00 3.367492e+00 2.232382e+00 2.723111e+00 2.799857e+00 2.860885e+00 2.031870e+00 2.234824e+00 2.028765e+00 2.517108e+00
<GCONST> 1.040935e+02
<TRANSP> 5
 0.000000e+00 1.000000e+00 0.000000e+00 0.000000e+00 0.000000e+00
 0.000000e+00 7.034388e-01 2.965612e-01 0.000000e+00 0.000000e+00
 0.000000e+00 0.000000e+00 7.034391e-01 2.965609e-01 0.000000e+00
 0.000000e+00 0.000000e+00 0.000000e+00 8.229148e-01 1.770851e-01
 0.000000e+00 0.000000e+00 0.000000e+00 0.000000e+00 0.000000e+00
<ENDHMM>
~h "hh"
<BEGINHMM>
<NUMSTATES> 5
<STATE> 2
<MEAN> 25
 9.425759e-01 -3.921287e-01 4.746470e-01 1.964393e-01 -1.001746e+00 -7.373345e-01 3.195662e-01 -1.486165e+00 8.924255e-02 -8.306932e-01 -3.695713e-01 -5.702010e-01 -4.388553e-03 3.265603e-02 -2.178287e-02 -4.139320e-02 1.509052e-04 5.636437e-03 4.728239e-04 1.345694e-02 -2.445776e-02 1.464685e-03 -5.784936e-03 -1.603393e-03 -3.467190e-02
<VARIANCE> 25
 1.281655e+02 5.137804e+01 4.965741e+01 3.703317e+01 8.148545e+01 4.749791e+01 4.583402e+01 8.201138e+01 4.176772e+01 2.692614e+01 2.690532e+01 3.842997e+01 4.447784e+00 3.771738e+00 2.654704e+00 2.183139e+00 3.593006e+00 2.578866e+00 3.540892e+00 3.349508e+00 3.109350e+00 2.479782e+00 2.027059e+00 1.998194e+00 2.462023e+00
<GCONST> 1.063348e+02
<STATE> 3
<MEAN> 25
 9.294297e-01 -2.834615e-01 4.207784e-01 1.147067e-01 -9.664589e-01 -6.893730e-01 3.324576e-01 -1.396990e+00 2.133935e-02 -8.287175e-01 -3.833818e-01 -5.639988e-01 7.055310e-03 2.990279e-02 -1.241803e-02 -2.309741e-02 2.637416e-03 1.328823e-02 1.912217e-03 2.558899e-02 -2.447150e-02 6.706673e-04 -2.124031e-03 2.486238e-03 -3.165176e-02
<VARIANCE> 25
 1.275843e+02 5.050146e+01 4.943375e+01 3.719503e+01 8.172279e+01 4.762344e+01 4.607874e+01 8.052997e+01 4.072553e+01 2.609621e+01 2.653175e+01 3.857347e+01 4.435131e+00 3.670177e+00 2.642078e+00 2.157617e+00 3.603992e+00 2.554893e+00 3.549604e+00 3.362233e+00 3.075105e+00 2.440783e+00 1.986619e+00 1.967016e+00 2.421297e+00
<GCONST> 1.061125e+02
<STATE> 4
<MEAN> 25
 9.030080e-01 -1.120931e-01 3.846847e-01 1.085844e-01 -7.835278e-01 -5.518131e-01 2.783993e-01 -1.167952e+00 -8.660524e-02 -7.889364e-01 -3.859168e-01 -4.799777e-01 1.201689e-02 3.102273e-02 -6.960289e-03 -9.451397e-03 4.462716e-03 8.632939e-03 -5.740701e-03 3.381071e-02 -1.388174e-02 4.668211e-03 3.887607e-03 1.236321e-02 -3.383089e-02
<VARIANCE> 25
 1.249848e+02 4.897589e+01 4.875604e+01 3.727373e+01 8.287625e+01 4.746523e+01 4.540590e+01 7.829977e+01 3.963154e+01 2.505164e+01 2.633608e+01 3.893608e+01 4.291564e+00 3.493197e+00 2.586889e+00 2.123545e+00 3.556263e+00 2.468966e+00 3.456378e+00 3.336281e+00 3.010307e+00 2.360263e+00 1.885105e+00 1.906379e+00 2.382439e+00
<GCONST> 1.055953e+02
<TRANSP> 5
 0.000000e+00 1.000000e+00 0.000000e+00 0.000000e+00 0.000000e+00
 0.000000e+00 6.971873e-01 3.028127e-01 0.000000e+00 0.000000e+00
 0.000000e+00 0.000000e+00 6.971871e-01 3.028129e-01 0.000000e+00
 0.000000e+00 0.000000e+00 0.000000e+00 8.163560e-01 1.836440e-01
 0.000000e+00 0.000000e+00 0.000000e+00 0.000000e+00 0.000000e+00
<ENDHMM>
~h "ih"
<BEGINHMM>
<NUMSTATES> 5
<STATE> 2
<MEAN> 25
 -1.913305e+00 2.144300e-01 -6.051077e-02 -1.714268e-01 8.987310e-01 2.755403e-01 3.915828e-02 1.101444e+00 3.689471e-01 5.469752e-01 4.221176e-01 7.195232e-01 -1.482972e-02 1.369678e-02 2.262584e-02 4.438121e-03 8.413736e-03 -1.451468e-02 -8.777541e-03 3.876914e-03 -3.323815e-03 -1.320942e-02 -1.024376e-02 2.194791e-02 -8.278703e-03
<VARIANCE> 25
 1.067937e+02 3.815503e+01 4.120066e+01 2.391081e+01 8.908441e+01 4.471980e+01 3.927663e+01 8.119650e+01 3.747601e+01 2.590378e+01 2.685372e+01 3.210746e+01 3.355488e+00 3.123375e+00 2.091096e+00 1.785989e+00 3.601608e+00 2.488178e+00 2.984541e+00 3.052319e+00 2.842263e+00 2.200504e+00 1.817085e+00 1.688594e+00 2.691451e+00
<GCONST> 1.031613e+02
<STATE> 3
<MEAN> 25
 -1.947173e+00 2.432199e-01 1.631779e-02 -1.423905e-01 9.195703e-01 2.372280e-01 2.144809e-02 1.099356e+00 3.470657e-01 5.155883e-01 3.935077e-01 7.817644e-01 -1.368648e-02 1.114619e-02 1.864886e-02 1.079892e-02 9.654172e-03 -1.107705e-02 6.692002e-04 4.706788e-03 -4.656718e-03 -8.536256e-03 -8.242211e-03 1.808431e-02 -4.541028e-03
<VARIANCE> 25
 1.065924e+02 3.807285e+01 4.189322e+01 2.336803e+01 9.079282e+01 4.507159e+01 3.917304e+01 8.082352e+01 3.758923e+01 2.649939e+01 2.693210e+01 3.234334e+01 3.336065e+00 3.108736e+00 2.091643e+00 1.756543e+00 3.675278e+00 2.498785e+00 2.931711e+00 3.084629e+00 2.817418e+00 2.249362e+00 1.819646e+00 1.695685e+00 2.677723e+00
<GCONST> 1.032105e+02
<STATE> 4
<MEAN> 25
 -1.971074e+00 2.994418e-01 1.044765e-01 -1.049742e-01 9.679341e-01 2.070475e-01 3.648447e-02 1.059463e+00 3.167397e-01 4.741848e-01 3.948795e-01 8.006241e-01 -7.243869e-03 1.881396e-03 9.266825e-03 1.320085e-02 7.687816e-03 -4.379436e-03 8.824696e-03 1.000251e-02 -3.816115e-03 -3.797314e-03 -4.214474e-03 2.830227e-03 9.737101e-04
<VARIANCE> 25
 1.061744e+02 3.771155e+01 4.338099e+01 2.259339e+01 9.136776e+01 4.501096e+01 3.845770e+01 8.031200e+01 3.722311e+01 2.703748e+01 2.725210e+01 3.254158e+01 3.321831e+00 3.045508e+00 2.115467e+00 1.721593e+00 3.760904e+00 2.503413e+00 2.818907e+00 3.110245e+00 2.767588e+00 2.271315e+00 1.796670e+00 1.733783e+00 2.644122e+00
<GCONST> 1.031557e+02
<TRANSP> 5
 0.000000e+00 1.000000e+00 0.000000e+00 0.000000e+00 0.000000e+00
 0.000000e+00 6.949314e-01 3.050686e-01 0.000000e+00 0.000000e+00
 0.000000e+00 0.000000e+00 6.949310e-01 3.050689e-01 0.000000e+00
 0.000000e+00 0.000000e+00 0.000000e+00 8.132069e-01 1.867932e-01
 0.000000e+00 0.000000e+00 0.000000e+00 0.000000e+00 0.000000e+00
<ENDHMM>
~h "ix"
<BEGINHMM>
<NUMSTATES> 5
<STATE> 2
<MEAN> 25
 5.652149e-01 -2.588134e-01 7.433659e-01 -2.998931e-01 -1.131442e+00 1.264247e-02 2.248931e-02 -1.041362e+00 8.006445e-01 -4.139603e-01 -2.868618e-01 -3.430907e-02 -4.686596e-02 9.520182e-03 -2.233542e-02 -5.594664e-05 3.634008e-02 9.248609e-03 6.794823e-03 7.005998e-03 4.812679e-03 3.164306e-02 2.983393e-02 -9.437572e-04 -4.172397e-02
<VARIANCE> 25
 1.256270e+02 4.885714e+01 4.619437e+01 3.126060e+01 1.112838e+02 4.574932e+01 4.014298e+01 8.723946e+01 4.312218e+01 2.996168e+01 3.203506e+01 3.774053e+01 4.016041e+00 3.425754e+00 2.542494e+00 2.596584e+00 3.997755e+00 2.248857e+00 3.507193e+00 3.355279e+00 3.393877e+00 2.290511e+00 2.605318e+00 1.667190e+00 2.930002e+00
<GCONST> 1.066672e+02
<STATE> 3
<MEAN> 25
 4.226491e-01 -2.188466e-01 6.639675e-01 -2.912360e-01 -1.001085e+00 3.675715e-02 3.888214e-02 -9.929535e-01 8.014821e-01 -3.295814e-01 -1.938803e-01 -4.897783e-02 -3.827799e-02 1.565306e-02 -2.256560e-02 2.917373e-03 4.066931e-02 1.177351e-02 1.314710e-03 1.612863e-02 -6.873945e-03 2.387388e-02 2.656027e-02 -4.514193e-03 -4.212976e-02
<VARIANCE> 25
 1.252189e+02 4.818283e+01 4.589700e+01 3.145435e+01 1.115976e+02 4.613098e+01 3.961321e+01 8.649113e+01 4.240305e+01 2.979636e+01 3.196818e+01 3.734944e+01 4.022904e+00 3.443906e+00 2.546920e+00 2.588833e+00 3.917062e+00 2.248594e+00 3.484982e+00 3.321942e+00 3.351614e+00 2.258962e+00 2.573467e+00 1.654451e+00 2.958894e+00
<GCONST> 1.065364e+02
<STATE> 4
<MEAN> 25
 5.520828e-01 -3.321735e-01 6.300141e-01 -1.658578e-01 -1.138318e+00 -1.283461e-01 5.170423e-02 -1.179518e+00 6.856155e-01 -3.193404e-01 -1.394384e-01 -2.187380e-01 -2.456238e-02 1.543420e-02 -3.043403e-02 4.438691e-03 3.892517e-02 1.330044e-02 5.520836e-04 1.642555e-02 -1.264779e-02 2.259771e-02 2.784509e-02 -3.410717e-03 -3.468195e-02
<VARIANCE> 25
 1.250188e+02 4.809848e+01 4.701054e+01 3.224694e+01 1.122934e+02 4.702687e+01 4.007984e+01 8.523053e+01 4.223005e+01 2.979004e+01 3.121458e+01 3.669217e+01 4.081494e+00 3.518498e+00 2.650686e+00 2.567436e+00 3.909775e+00 2.289136e+00 3.519342e+00 3.337672e+00 3.331870e+00 2.240891e+00 2.511612e+00 1.660116e+00 3.016506e+00
<GCONST> 1.066410e+02
<TRANSP> 5
 0.000000e+00 1.000000e+00 0.000000e+00 0.000000e+00 0.000000e+00
 0.000000e+00 6.964287e-01 3.035714e-01 0.000000e+00 0.000000e+00
 0.000000e+00 0.000000e+00 6.964288e-01 3.035712e-01 0.000000e+00
 0.000000e+00 0.000000e+00 0.000000e+00 8.152201e-01 1.847799e-01
 0.000000e+00 0.000000e+00 0.000000e+00 0.000000e+00 0.000000e+00
<ENDHMM>
~h "iy"
<BEGINHMM>
<NUMSTATES> 5
<STATE> 2
<MEAN> 25
 -3.039769e-01 6.554607e-01 7.175509e-01 1.563692e-01 -2.360971e-01 -5.689610e-01 5.625966e-01 5.654678e-02 -1.994852e-01 -2.805623e-01 1.359279e-02 -1.814541e-02 -4.904613e-02 2.664547e-02 -6.633515e-03 -6.776117e-05 3.646314e-02 3.969999e-02 8.608215e-03 2.577095e-02 2.024890e-03 -1.734018e-03 1.781984e-02 2.640402e-02 -6.107121e-02
<VARIANCE> 25
 1.120334e+02 3.935447e+01 5.259805e+01 2.682878e+01 1.083148e+02 4.801768e+01 4.247812e+01 8.916173e+01 4.153872e+01 2.564471e+01 2.776677e+01 3.410991e+01 3.858155e+00 3.096917e+00 2.659977e+00 1.834877e+00 4.220462e+00 2.439236e+00 3.524578e+00 3.406239e+00 3.037967e+00 2.277588e+00 2.089329e+00 1.794480e+00 2.442129e+00
<GCONST> 1.052425e+02
<STATE> 3
<MEAN> 25
 -4.452149e-01 7.305495e-01 6.998035e-01 1.530396e-01 -1.452261e-01 -4.482774e-01 5.900585e-01 1.083427e-01 -1.968807e-01 -2.847294e-01 6.649717e-02 5.877551e-02 -4.195272e-02 2.379684e-02 -8.946333e-03 -5.028624e-03 3.081966e-02 4.272283e-02 7.097265e-03 1.551073e-02 3.256383e-03 2.004846e-03 1.651114e-02 2.634406e-02 -5.520423e-02
<VARIANCE> 25
 1.115902e+02 3.894170e+01 5.304308e+01 2.639886e+01 1.083721e+02 4.793166e+01 4.211157e+01 8.990491e+01 4.143370e+01 2.550360e+01 2.761347e+01 3.378558e+01 3.802572e+00 3.059614e+00 2.642267e+00 1.804535e+00 4.144515e+00 2.449737e+00 3.459446e+00 3.392473e+00 3.058372e+00 2.284382e+00 2.091421e+00 1.765238e+00 2.432024e+00
<GCONST> 1.050991e+02
<STATE> 4
<MEAN> 25
 -5.242347e-01 7.496137e-01 7.359642e-01 1.877058e-01 -1.848665e-01 -3.638340e-01 6.060716e-01 7.701630e-03 -2.410959e-01 -2.976872e-01 9.539682e-02 1.299545e-01 -2.842341e-02 1.220253e-02 -1.108942e-02 -9.460240e-03 1.592792e-02 3.746255e-02 3.734629e-03 3.208843e-03 4.784750e-03 1.216565e-03 1.282878e-02 2.351983e-02 -3.926462e-02
<VARIANCE> 25
 1.105666e+02 3.853012e+01 5.517343e+01 2.621303e+01 1.099718e+02 4.749314e+01 4.121770e+01 9.134800e+01 4.145392e+01 2.528186e+01 2.758522e+01 3.344973e+01 3.680093e+00 2.983760e+00 2.655370e+00 1.771596e+00 4.068263e+00 2.454281e+00 3.347974e+00 3.346497e+00 3.070031e+00 2.286103e+00 2.116180e+00 1.707661e+00 2.394299e+00
<GCONST> 1.049254e+02
<TRANSP> 5
 0.000000e+00 1.000000e+00 0.000000e+00 0.000000e+00 0.000000e+00
 0.000000e+00 7.005752e-01 2.994248e-01 0.000000e+00 0.000000e+00
 0.000000e+00 0.000000e+00 7.005749e-01 2.994251e-01 0.000000e+00
 0.000000e+00 0.000000e+00 0.000000e+00 8.205851e-01 1.794149e-01
 0.000000e+00 0.000000e+00 0.000000e+00 0.000000e+00 0.000000e+00
<ENDHMM>
~h "jh"
<BEGINHMM>
<NUMSTATES> 5
<STATE> 2
<MEAN> 25
 2.715317e+00 -1.097463e+00 3.693008e+00 -3.199576e-01 -4.929616e+00 -7.924905e-01 2.132463e-01 -4.331171e+00 -9.365638e-01 -7.092927e-01 -3.763257e-01 -1.169227e+00 3.472532e-03 -6.226696e-02 -7.799575e-02 2.800612e-02 3.197088e-02 -1.167272e-01 -5.665735e-02 9.399069e-02 6.117000e-02 5.188754e-02 -2.605217e-03 -4.022918e-02 2.933103e-02
<VARIANCE> 25
 1.172906e+02 5.428090e+01 6.325656e+01 3.028241e+01 1.434514e+02 4.815503e+01 3.292704e+01 9.669481e+01 3.292805e+01 2.858579e+01 2.396543e+01 2.368356e+01 5.128180e+00 4.873958e+00 3.694062e+00 2.433066e+00 4.988187e+00 3.214872e+00 3.173821e+00 3.009539e+00 2.711251e+00 2.363124e+00 2.207949e+00 1.828381e+00 3.261594e+00
<GCONST> 1.072396e+02
<STATE> 3
<MEAN> 25
 2.733595e+00 -1.313945e+00 3.364336e+00 -2.155210e-01 -4.742053e+00 -1.146865e+00 1.069619e-02 -4.004830e+00 -7.180932e-01 -5.456613e-01 -3.915458e-01 -1.303443e+00 2.683782e-02 -1.208737e-01 -1.476791e-01 2.499232e-02 4.888850e-02 -1.059085e-01 -5.727975e-02 8.735146e-02 5.475641e-02 7.393217e-02 -1.641595e-04 -7.947183e-02 5.102018e-02
<VARIANCE> 25
 1.171566e+02 5.450632e+01 6.453823e+01 3.089306e+01 1.381387e+02 4.860668e+01 3.586689e+01 9.761385e+01 3.228161e+01 2.888454e+01 2.378676e+01 2.355617e+01 5.493232e+00 5.023206e+00 3.820926e+00 2.472962e+00 4.750519e+00 3.311002e+00 3.318399e+00 3.121738e+00 2.711686e+00 2.454214e+00 2.089882e+00 1.945608e+00 3.419969e+00
<GCONST> 1.076303e+02
<STATE> 4
<MEAN> 25
 3.150572e+00 -1.812147e+00 2.921551e+00 2.452598e-02 -4.757874e+00 -1.639211e+00 -2.427135e-01 -3.859689e+00 -4.634630e-01 -3.856612e-01 -4.995092e-01 -1.598623e+00 4.351657e-02 -1.679174e-01 -2.140575e-01 2.851712e-02 7.780194e-02 -8.535618e-02 -7.042661e-02 6.047651e-02 5.406804e-02 8.848928e-02 5.158246e-03 -8.060708e-02 5.976906e-02
<VARIANCE> 25
 1.142143e+02 5.507692e+01 6.885425e+01 3.229112e+01 1.270322e+02 4.916557e+01 4.080797e+01 9.478499e+01 3.211735e+01 2.986218e+01 2.362796e+01 2.268740e+01 5.991375e+00 5.296056e+00 3.984238e+00 2.508799e+00 4.499567e+00 3.424859e+00 3.535066e+00 3.301888e+00 2.759528e+00 2.571872e+00 1.983728e+00 2.058290e+00 3.651032e+00
<GCONST> 1.081641e+02
<TRANSP> 5
 0.000000e+00 1.000000e+00 0.000000e+00 0.000000e+00 0.000000e+00
 0.000000e+00 6.786980e-01 3.213020e-01 0.000000e+00 0.000000e+00
 0.000000e+00 0.000000e+00 6.786982e-01 3.213018e-01 0.000000e+00
 0.000000e+00 0.000000e+00 0.000000e+00 7.923943e-01 2.076057e-01
 0.000000e+00 0.000000e+00 0.000000e+00 0.000000e+00 0.000000e+00
<ENDHMM>
~h "ng"
<BEGINHMM>
<NUMSTATES> 5
<STATE> 2
<MEAN> 25
 2.828211e+00 -1.518343e+00 1.945156e+00 1.942671e+00 -3.586964e+00 -2.316941e+00 8.244262e-01 -2.723477e+00 -5.517147e-01 -6.685194e-01 -1.408123e+00 -2.146511e+00 -3.356507e-02 6.418714e-02 -7.259623e-02 -2.059358e-02 8.894540e-02 4.065382e-02 5.115219e-03 2.185835e-02 2.830152e-02 3.592312e-02 -1.621011e-02 -1.857162e-02 -6.684481e-02
<VARIANCE> 25
 1.241988e+02 5.343458e+01 4.996198e+01 3.218747e+01 1.243169e+02 5.143561e+01 4.456352e+01 8.397529e+01 5.251737e+01 3.213564e+01 2.594929e+01 2.836737e+01 5.092134e+00 3.679025e+00 2.999222e+00 2.118816e+00 4.476365e+00 2.613510e+00 3.554915e+00 3.534872e+00 3.737985e+00 2.517690e+00 2.074218e+00 1.501361e+00 2.863644e+00
<GCONST> 1.073532e+02
<STATE> 3
<MEAN> 25
 2.721862e+00 -1.289388e+00 1.642921e+00 1.835176e+00 -3.266763e+00 -2.156337e+00 8.517030e-01 -2.616453e+00 -4.380780e-01 -5.482044e-01 -1.446099e+00 -2.208042e+00 -3.742496e-02 6.213386e-02 -8.610401e-02 -3.653629e-02 9.827348e-02 5.475739e-02 7.786460e-03 3.683070e-02 3.018095e-02 3.941838e-02 -9.937259e-03 -1.158135e-02 -7.622217e-02
<VARIANCE> 25
 1.268967e+02 5.271788e+01 4.885597e+01 3.236507e+01 1.244740e+02 5.217903e+01 4.365133e+01 8.353519e+01 5.163899e+01 3.174022e+01 2.633857e+01 2.867887e+01 5.121739e+00 3.482615e+00 2.947042e+00 2.072864e+00 4.403712e+00 2.640542e+00 3.474985e+00 3.464964e+00 3.617876e+00 2.445869e+00 2.005701e+00 1.492516e+00 2.738970e+00
<GCONST> 1.070476e+02
<STATE> 4
<MEAN> 25
 2.993035e+00 -1.035731e+00 1.210241e+00 1.657654e+00 -3.215141e+00 -2.107505e+00 9.089974e-01 -2.780767e+00 -3.700133e-01 -5.447860e-01 -1.548785e+00 -2.445192e+00 -4.184929e-02 5.688495e-02 -1.042995e-01 -5.959679e-02 1.039272e-01 6.721488e-02 1.126324e-02 5.947430e-02 3.173593e-02 3.836467e-02 8.747965e-04 6.161882e-04 -8.564730e-02
<VARIANCE> 25
 1.296764e+02 5.156312e+01 4.926362e+01 3.328197e+01 1.232120e+02 5.110663e+01 4.319518e+01 8.136773e+01 5.028431e+01 3.054370e+01 2.644811e+01 2.894060e+01 5.113487e+00 3.285599e+00 2.934995e+00 2.036387e+00 4.311501e+00 2.648464e+00 3.393374e+00 3.381019e+00 3.443896e+00 2.316572e+00 1.922109e+00 1.501977e+00 2.629831e+00
<GCONST> 1.066352e+02
<TRANSP> 5
 0.000000e+00 1.000000e+00 0.000000e+00 0.000000e+00 0.000000e+00
 0.000000e+00 7.124646e-01 2.875354e-01 0.000000e+00 0.000000e+00
 0.000000e+00 0.000000e+00 7.124650e-01 2.875350e-01 0.000000e+00
 0.000000e+00 0.000000e+00 0.000000e+00 8.346921e-01 1.653078e-01
 0.000000e+00 0.000000e+00 0.000000e+00 0.000000e+00 0.000000e+00
<ENDHMM>
~h "ow"
<BEGINHMM>
<NUMSTATES> 5
<STATE> 2
<MEAN> 25
 1.295691e+00 3.184979e-01 4.423705e-01 -2.472292e-01 -8.784126e-01 -1.418897e-01 -3.120035e-01 -1.070837e+00 4.941794e-02 -2.937628e-01 -8.662173e-02 -3.226191e-01 -1.013951e-01 -2.596878e-03 4.152506e-02 -5.609386e-03 2.363671e-02 -1.378809e-02 9.801338e-03 5.529498e-02 -1.627276e-02 2.947555e-02 4.620690e-02 4.682242e-02 -6.666775e-02
<VARIANCE> 25
 1.291826e+02 5.268735e+01 4.564392e+01 3.795115e+01 9.177451e+01 4.442228e+01 4.100045e+01 7.588551e+01 4.369730e+01 2.625967e+01 3.116422e+01 3.925247e+01 4.134200e+00 3.565221e+00 2.412697e+00 2.371652e+00 3.848471e+00 2.298433e+00 3.359558e+00 3.183016e+00 3.394187e+00 2.405785e+00 2.375796e+00 2.149777e+00 2.360533e+00
<GCONST> 1.063141e+02
<STATE> 3
<MEAN> 25
 9.596348e-01 3.004374e-01 5.913250e-01 -2.363538e-01 -8.075691e-01 -2.062702e-01 -2.741035e-01 -8.735041e-01 -1.281825e-02 -2.072002e-01 6.222646e-02 -1.663982e-01 -9.276042e-02 -7.768854e-03 4.594485e-02 6.846807e-03 2.009602e-02 -2.640118e-02 5.953700e-03 5.339533e-02 -1.684723e-02 2.209191e-02 3.976546e-02 4.646971e-02 -5.930820e-02
<VARIANCE> 25
 1.276389e+02 5.192836e+01 4.585851e+01 3.817197e+01 9.310391e+01 4.529686e+01 4.179764e+01 7.585830e+01 4.362491e+01 2.661695e+01 3.113185e+01 3.844022e+01 4.142781e+00 3.522164e+00 2.408369e+00 2.393922e+00 3.855247e+00 2.339958e+00 3.406592e+00 3.169295e+00 3.348240e+00 2.395526e+00 2.338916e+00 2.077479e+00 2.380632e+00
<GCONST> 1.063082e+02
<STATE> 4
<MEAN> 25
 6.933594e-01 2.079485e-01 8.245218e-01 -8.637454e-02 -8.505364e-01 -4.147056e-01 -2.025244e-01 -7.676468e-01 -2.011310e-01 -1.316125e-01 1.587183e-01 -9.165978e-02 -7.565710e-02 -2.266918e-02 4.364450e-02 2.798379e-02 1.193045e-02 -4.094512e-02 2.852574e-03 4.611060e-02 -2.175673e-02 1.350727e-02 2.834257e-02 3.818135e-02 -4.600831e-02
<VARIANCE> 25
 1.236687e+02 5.143251e+01 4.617183e+01 3.860793e+01 9.452216e+01 4.622358e+01 4.236152e+01 7.552048e+01 4.344021e+01 2.724614e+01 3.073367e+01 3.640692e+01 4.115415e+00 3.480538e+00 2.442878e+00 2.430498e+00 3.871983e+00 2.414831e+00 3.454878e+00 3.226595e+00 3.318876e+00 2.382064e+00 2.299638e+00 1.990352e+00 2.472686e+00
<GCONST> 1.063238e+02
<TRANSP> 5
 0.000000e+00 1.000000e+00 0.000000e+00 0.000000e+00 0.000000e+00
 0.000000e+00 6.999121e-01 3.000879e-01 0.000000e+00 0.000000e+00
 0.000000e+00 0.000000e+00 6.999118e-01 3.000882e-01 0.000000e+00
 0.000000e+00 0.000000e+00 0.000000e+00 8.176100e-01 1.823900e-01
 0.000000e+00 0.000000e+00 0.000000e+00 0.000000e+00 0.000000e+00
<ENDHMM>
~h "sh"
<BEGINHMM>
<NUMSTATES> 5
<STATE> 2
<MEAN> 25
 2.630738e+00 -3.267274e+00 -3.351060e-01 -1.549841e-01 -1.435984e+00 -1.019782e+00 -2.464898e-01 -2.089776e+00 1.255841e+00 -1.472534e+00 -7.773109e-01 -2.559999e-01 2.354866e-02 2.512169e-02 6.915254e-03 -6.122850e-02 -4.724062e-02 2.565459e-02 1.444512e-03 1.881062e-02 -5.398740e-02 1.321253e-04 -5.877291e-03 2.631660e-02 -2.376022e-02
<VARIANCE> 25
 1.562363e+02 6.053358e+01 7.131167e+01 2.677557e+01 7.799984e+01 3.923125e+01 5.113837e+01 6.732832e+01 3.479567e+01 2.725919e+01 2.826399e+01 3.675852e+01 6.104085e+00 2.977901e+00 3.186470e+00 2.904045e+00 3.552535e+00 2.772431e+00 3.636420e+00 2.812889e+00 2.943778e+00 2.484617e+00 1.932490e+00 2.168257e+00 1.600884e+00
<GCONST> 1.062581e+02
<STATE> 3
<MEAN> 25
 2.706143e+00 -3.139195e+00 -2.950125e-01 -3.625680e-01 -1.616608e+00 -9.409114e-01 -2.255331e-01 -1.998118e+00 1.056471e+00 -1.460907e+00 -7.909106e-01 -1.636784e-01 2.725228e-02 4.683860e-02 1.301450e-02 -5.381417e-02 -5.240451e-02 2.277048e-02 2.593694e-03 3.658727e-02 -6.174976e-02 1.163080e-02 -8.231334e-03 2.447251e-02 -4.819665e-02
<VARIANCE> 25
 1.560788e+02 6.067287e+01 7.161614e+01 2.620270e+01 7.948154e+01 3.854827e+01 5.016745e+01 6.888055e+01 3.623829e+01 2.803321e+01 2.784782e+01 3.610935e+01 5.873061e+00 2.986919e+00 3.100046e+00 2.886611e+00 3.673285e+00 2.749176e+00 3.521512e+00 2.808737e+00 2.966372e+00 2.521460e+00 1.930807e+00 2.144285e+00 1.538167e+00
<GCONST> 1.061756e+02
<STATE> 4
<MEAN> 25
 2.883602e+00 -2.883486e+00 -2.142480e-01 -5.856955e-01 -1.909338e+00 -9.163895e-01 -1.821047e-01 -1.785575e+00 8.055952e-01 -1.466779e+00 -9.401593e-01 -7.993725e-02 1.672413e-02 6.629274e-02 2.573686e-02 -3.641761e-02 -5.356096e-02 1.918863e-02 1.902880e-02 5.699231e-02 -6.513686e-02 2.435763e-02 -5.391979e-03 1.885773e-02 -7.489349e-02
<VARIANCE> 25
 1.559884e+02 6.162880e+01 7.139041e+01 2.455810e+01 8.243578e+01 3.777991e+01 4.839821e+01 7.109685e+01 3.736899e+01 2.895560e+01 2.743989e+01 3.522201e+01 5.348815e+00 3.000989e+00 2.892674e+00 2.733914e+00 3.888636e+00 2.678751e+00 3.291656e+00 2.880973e+00 2.887386e+00 2.527482e+00 1.937763e+00 2.077458e+00 1.470708e+00
<GCONST> 1.058373e+02
<TRANSP> 5
 0.000000e+00 1.000000e+00 0.000000e+00 0.000000e+00 0.000000e+00
 0.000000e+00 7.117305e-01 2.882695e-01 0.000000e+00 0.000000e+00
 0.000000e+00 0.000000e+00 7.117306e-01 2.882694e-01 0.000000e+00
 0.000000e+00 0.000000e+00 0.000000e+00 8.313650e-01 1.686349e-01
 0.000000e+00 0.000000e+00 0.000000e+00 0.000000e+00 0.000000e+00
<ENDHMM>
~h "th"
<BEGINHMM>
<NUMSTATES> 5
<STATE> 2
<MEAN> 25
 1.695902e+00 -6.906695e-01 -2.931186e-01 1.761506e-01 -1.251508e+00 3.079232e-01 3.265430e-01 -8.568035e-01 -6.915500e-01 1.641222e+00 -9.807310e-02 -1.325954e+00 -4.375462e-02 9.357555e-02 7.304573e-02 3.427958e-02 2.998731e-02 6.631225e-02 6.037310e-02 1.012092e-01 -3.933015e-02 -3.042790e-02 2.069628e-02 -1.377395e-02 -7.876211e-02
<VARIANCE> 25
 1.158263e+02 4.151645e+01 3.610389e+01 2.746145e+01 1.039286e+02 4.821107e+01 2.170806e+01 9.665919e+01 4.289506e+01 2.584280e+01 2.230081e+01 3.494463e+01 1.918288e+00 3.708514e+00 2.486593e+00 1.885463e+00 2.968405e+00 2.446571e+00 2.068329e+00 3.008518e+00 4.322355e+00 2.589006e+00 2.248765e+00 2.292173e+00 2.111569e+00
<GCONST> 1.032821e+02
<STATE> 3
<MEAN> 25
 1.571381e+00 -4.119841e-01 -2.996046e-02 3.288005e-01 -1.176831e+00 4.618152e-01 5.066093e-01 -5.322274e-01 -8.258358e-01 1.517316e+00 -7.010694e-02 -1.361075e+00 -3.650381e-02 8.205540e-02 8.863866e-02 5.660328e-02 1.675680e-02 2.832234e-02 5.183832e-02 1.032397e-01 -4.768983e-02 -4.651645e-02 -8.596341e-04 -1.093103e-02 -5.910132e-02
<VARIANCE> 25
 1.122110e+02 4.246029e+01 3.424016e+01 2.583576e+01 1.068510e+02 4.701653e+01 2.183937e+01 9.621655e+01 4.496092e+01 2.607744e+01 2.206452e+01 3.694550e+01 1.896037e+00 3.780866e+00 2.449562e+00 1.828162e+00 3.010065e+00 2.428868e+00 2.092415e+00 3.041889e+00 4.380150e+00 2.663081e+00 2.304595e+00 2.368459e+00 2.111153e+00
<GCONST> 1.033536e+02
<STATE> 4
<MEAN> 25
 1.215573e+00 -5.153852e-02 2.912532e-01 5.482872e-01 -9.043649e-01 6.385927e-01 6.720962e-01 9.390667e-02 -9.495371e-01 1.379624e+00 -6.996484e-02 -1.290703e+00 -1.795200e-02 5.979358e-02 8.828491e-02 7.403978e-02 3.637960e-03 -7.566203e-03 3.128362e-02 9.991109e-02 -4.566428e-02 -5.193964e-02 -2.204180e-02 -8.373977e-03 -3.340691e-02
<VARIANCE> 25
 1.093317e+02 4.350239e+01 3.192977e+01 2.369939e+01 1.113094e+02 4.663186e+01 2.250508e+01 9.525162e+01 4.732145e+01 2.618819e+01 2.196463e+01 3.945216e+01 1.858877e+00 3.779832e+00 2.369012e+00 1.731789e+00 3.068653e+00 2.416003e+00 2.154246e+00 3.040811e+00 4.384736e+00 2.724417e+00 2.340411e+00 2.411577e+00 2.054872e+00
<GCONST> 1.033302e+02
<TRANSP> 5
 0.000000e+00 1.000000e+00 0.000000e+00 0.000000e+00 0.000000e+00
 0.000000e+00 6.824791e-01 3.175209e-01 0.000000e+00 0.000000e+00
 0.000000e+00 0.000000e+00 6.824795e-01 3.175205e-01 0.000000e+00
 0.000000e+00 0.000000e+00 0.000000e+00 7.953603e-01 2.046397e-01
 0.000000e+00 0.000000e+00 0.000000e+00 0.000000e+00 0.000000e+00
<ENDHMM>
~h "uh"
<BEGINHMM>
<NUMSTATES> 5
<STATE> 2
<MEAN> 25
 5.013351e+00 -1.981284e+00 9.776028e-01 3.311996e-01 -4.256854e+00 -2.505123e+00 -1.709160e+00 -4.121002e+00 -6.297270e-01 -9.449516e-01 -7.787139e-01 -1.235113e+00 8.408436e-02 3.019040e-02 -7.402866e-02 -6.011702e-02 3.828010e-02 5.615805e-02 -6.600162e-03 -2.010571e-02 4.456490e-02 8.930323e-02 -3.706110e-02 -1.132446e-02 5.890490e-03
<VARIANCE> 25
 1.098677e+02 4.666672e+01 5.123286e+01 5.398087e+01 8.806762e+01 5.510500e+01 6.470250e+01 7.238235e+01 5.063702e+01 3.966393e+01 2.486691e+01 2.988888e+01 4.300543e+00 3.888083e+00 2.935366e+00 3.299394e+00 5.284397e+00 3.249752e+00 4.098645e+00 4.274795e+00 3.847186e+00 3.753366e+00 1.925946e+00 2.026759e+00 3.071744e+00
<GCONST> 1.095176e+02
<STATE> 3
<MEAN> 25
 5.290009e+00 -1.878882e+00 7.579495e-01 1.621322e-01 -4.118818e+00 -2.304219e+00 -1.742810e+00 -4.174436e+00 -5.269214e-01 -6.374499e-01 -9.080567e-01 -1.263125e+00 7.987453e-02 4.706442e-02 -6.388985e-02 -4.924718e-02 4.845999e-02 6.667258e-02 -4.362654e-03 -5.948309e-03 2.506737e-02 8.480638e-02 -4.482843e-02 -7.708962e-03 -2.004308e-02
<VARIANCE> 25
 1.076982e+02 4.657038e+01 5.068505e+01 5.474811e+01 8.564099e+01 5.320739e+01 6.271685e+01 7.097437e+01 5.120885e+01 3.937788e+01 2.550805e+01 2.985790e+01 4.224257e+00 4.044348e+00 2.913656e+00 3.309050e+00 5.337840e+00 3.144786e+00 4.114284e+00 4.305705e+00 3.950314e+00 3.764580e+00 1.948988e+00 2.043665e+00 3.076619e+00
<GCONST> 1.094700e+02
<STATE> 4
<MEAN> 25
 5.616878e+00 -1.668444e+00 6.597105e-01 1.557435e-01 -3.901837e+00 -2.001320e+00 -1.769946e+00 -4.217462e+00 -4.801413e-01 -2.775377e-01 -1.108749e+00 -1.244880e+00 7.410215e-02 5.128771e-02 -4.328392e-02 -3.115957e-02 4.678604e-02 7.409819e-02 -2.372528e-04 -6.771653e-04 2.123234e-04 7.030590e-02 -4.941660e-02 -4.798416e-03 -3.401783e-02
<VARIANCE> 25
 1.035214e+02 4.752896e+01 5.150547e+01 5.430029e+01 8.332668e+01 5.022852e+01 5.715703e+01 7.117822e+01 5.068082e+01 3.800478e+01 2.635396e+01 3.016124e+01 3.986667e+00 4.350585e+00 2.923348e+00 3.263321e+00 5.429170e+00 2.998815e+00 3.909493e+00 4.304409e+00 4.075929e+00 3.700531e+00 1.974475e+00 2.071213e+00 3.184012e+00
<GCONST> 1.092780e+02
<TRANSP> 5
 0.000000e+00 1.000000e+00 0.000000e+00 0.000000e+00 0.000000e+00
 0.000000e+00 6.985837e-01 3.014163e-01 0.000000e+00 0.000000e+00
 0.000000e+00 0.000000e+00 6.985836e-01 3.014164e-01 0.000000e+00
 0.000000e+00 0.000000e+00 0.000000e+00 8.174164e-01 1.825836e-01
 0.000000e+00 0.000000e+00 0.000000e+00 0.000000e+00 0.000000e+00
<ENDHMM>
~h "uw"
<BEGINHMM>
<NUMSTATES> 5
<STATE> 2
<MEAN> 25
 -1.390197e+00 -8.275715e-02 -1.864663e-01 -2.377310e-01 1.013005e+00 5.923957e-01 -2.158687e-01 6.903972e-01 2.978405e-01 -3.233179e-02 2.954608e-01 6.086534e-01 7.691905e-02 -3.341094e-02 4.757402e-02 2.149370e-02 -7.152694e-02 -1.721567e-02 -1.684110e-02 -5.713209e-02 -3.309762e-02 -2.839848e-03 -4.210605e-02 -5.295517e-02 7.143064e-02
<VARIANCE> 25
