~o
<STREAMINFO> 1 25
<VECSIZE> 25<NULLD><MFCC_D_N_Z_0><DIAGC>
~h "b"
<BEGINHMM>
<NUMSTATES> 5
<STATE> 2
<MEAN> 25
 4.520850e-01 8.539449e-03 1.117634e-01 -1.377489e-01 -2.191224e-01 1.143101e-02 -2.467179e-01 -1.947751e-01 -1.319686e-01 -2.425412e-02 -4.920558e-02 -1.607430e-01 4.762011e-03 9.801139e-04 2.854378e-03 -4.304254e-03 -4.539927e-03 -1.340704e-03 -3.051724e-03 -2.327601e-03 -2.888749e-03 -2.313255e-03 -1.620183e-04 -2.414203e-03 1.161883e-02
<VARIANCE> 25
 5.943057e+01 4.113485e+01 5.647761e+01 5.858574e+01 6.300153e+01 5.570628e+01 5.515379e+01 4.848091e+01 4.535519e+01 3.617947e+01 3.285810e+01 3.076326e+01 2.472452e+00 2.242373e+00 2.304576e+00 2.977484e+00 3.223797e+00 2.977123e+00 3.162405e+00 3.055551e+00 2.958032e+00 2.531892e+00 2.331386e+00 2.045099e+00 2.893660e+00
<GCONST> 1.050355e+02
<STATE> 3
<MEAN> 25
 4.627896e-01 1.239517e-02 1.188975e-01 -1.494587e-01 -2.306363e-01 9.028739e-03 -2.504672e-01 -2.019148e-01 -1.396355e-01 -2.972986e-02 -4.914093e-02 -1.679445e-01 2.263755e-03 8.879245e-04 2.106734e-03 -3.475588e-03 -3.517432e-03 -8.092420e-04 -7.373211e-04 -1.713622e-03 -2.104611e-03 -1.623165e-03 2.059770e-04 -1.864683e-03 8.885195e-03
<VARIANCE> 25
 5.944105e+01 4.108710e+01 5.654708e+01 5.869471e+01 6.304803e+01 5.572330e+01 5.508824e+01 4.846087e+01 4.537404e+01 3.617686e+01 3.286963e+01 3.076138e+01 2.470013e+00 2.237031e+00 2.304785e+00 2.977221e+00 3.223171e+00 2.976946e+00 3.158231e+00 3.053884e+00 2.957886e+00 2.531383e+00 2.331290e+00 2.044709e+00 2.874617e+00
<GCONST> 1.050250e+02
<STATE> 4
<MEAN> 25
 4.705609e-01 1.161845e-02 1.468274e-01 -1.905012e-01 -2.781741e-01 -2.869254e-02 -2.629245e-01 -2.255275e-01 -1.603216e-01 -5.127753e-02 -6.592885e-02 -1.928930e-01 -5.233960e-04 6.919883e-04 1.472643e-03 -2.399264e-03 -1.874168e-03 -3.362315e-04 1.362629e-03 -1.143728e-03 -8.560868e-04 -5.238402e-04 2.691644e-04 -7.998780e-04 5.140170e-03
<VARIANCE> 25
 5.772059e+01 3.972718e+01 5.561456e+01 5.703428e+01 6.244183e+01 5.447102e+01 5.410438e+01 4.745168e+01 4.462812e+01 3.561853e+01 3.245967e+01 3.040750e+01 2.300706e+00 2.091494e+00 2.206691e+00 2.816658e+00 3.097760e+00 2.871086e+00 3.034017e+00 2.949510e+00 2.868541e+00 2.460384e+00 2.271522e+00 1.999328e+00 2.626125e+00
<GCONST> 1.042030e+02
<TRANSP> 5
 0.000000e+00 1.000000e+00 0.000000e+00 0.000000e+00 0.000000e+00
 0.000000e+00 7.115827e-01 2.884173e-01 0.000000e+00 0.000000e+00
 0.000000e+00 0.000000e+00 7.115802e-01 2.884198e-01 0.000000e+00
 0.000000e+00 0.000000e+00 0.000000e+00 8.463882e-01 1.536119e-01
 0.000000e+00 0.000000e+00 0.000000e+00 0.000000e+00 0.000000e+00
<ENDHMM>
~h "d"
<BEGINHMM>
<NUMSTATES> 5
<STATE> 2
<MEAN> 25
 4.044802e-01 -9.108169e-02 3.926450e-01 -1.070716e-01 -4.407812e-01 -3.139978e-01 -3.069637e-01 -1.278861e-01 -1.583526e-01 -2.321041e-01 -2.119136e-01 -1.737245e-01 -1.932455e-03 7.579390e-04 -1.916211e-03 2.171071e-03 3.339465e-03 1.528063e-03 -2.229218e-04 -2.282839e-04 -5.693357e-04 5.336748e-04 -6.925316e-04 -1.771763e-04 -2.030330e-03
<VARIANCE> 25
 5.911843e+01 4.145829e+01 5.509174e+01 5.555555e+01 6.291982e+01 5.597946e+01 5.562291e+01 4.838992e+01 4.472144e+01 3.628961e+01 3.324088e+01 3.025466e+01 2.541229e+00 2.249931e+00 2.262373e+00 2.834834e+00 3.199408e+00 2.995769e+00 3.200607e+00 3.094538e+00 2.919554e+00 2.516737e+00 2.336772e+00 2.035900e+00 2.680277e+00
<GCONST> 1.048428e+02
<STATE> 3
<MEAN> 25
 3.960338e-01 -8.804023e-02 3.850706e-01 -9.876769e-02 -4.267796e-01 -3.075934e-01 -3.051810e-01 -1.271125e-01 -1.588135e-01 -2.289033e-01 -2.125285e-01 -1.734413e-01 -3.133276e-03 1.281546e-03 -3.124463e-03 2.592613e-03 4.815516e-03 2.621660e-03 9.216954e-04 8.206430e-05 6.485643e-05 1.735069e-03 1.529697e-04 3.652167e-04 -4.475274e-03
<VARIANCE> 25
 5.913350e+01 4.144791e+01 5.504047e+01 5.547660e+01 6.287652e+01 5.599825e+01 5.561848e+01 4.834671e+01 4.469639e+01 3.627744e+01 3.323097e+01 3.024630e+01 2.541497e+00 2.248371e+00 2.261687e+00 2.833114e+00 3.196588e+00 2.995383e+00 3.200687e+00 3.094298e+00 2.921031e+00 2.517239e+00 2.337135e+00 2.036079e+00 2.672447e+00
<GCONST> 1.048331e+02
<STATE> 4
<MEAN> 25
 3.728450e-01 -7.021663e-02 3.618755e-01 -8.564774e-02 -3.939169e-01 -2.975386e-01 -2.893079e-01 -1.237182e-01 -1.538957e-01 -2.083505e-01 -2.035004e-01 -1.718961e-01 -4.061361e-03 1.698189e-03 -4.198167e-03 3.001771e-03 5.996238e-03 3.445068e-03 2.418980e-03 7.313882e-04 9.982698e-04 2.914315e-03 1.149060e-03 1.096160e-03 -7.698572e-03
<VARIANCE> 25
 5.654753e+01 3.972551e+01 5.357345e+01 5.330166e+01 6.166039e+01 5.449923e+01 5.425622e+01 4.702596e+01 4.373301e+01 3.542722e+01 3.255496e+01 2.973759e+01 2.337830e+00 2.086488e+00 2.144130e+00 2.664251e+00 3.049404e+00 2.878481e+00 3.061941e+00 2.972396e+00 2.824871e+00 2.431574e+00 2.260518e+00 1.978130e+00 2.438026e+00
<GCONST> 1.038301e+02
<TRANSP> 5
 0.000000e+00 1.000000e+00 0.000000e+00 0.000000e+00 0.000000e+00
 0.000000e+00 7.137496e-01 2.862504e-01 0.000000e+00 0.000000e+00
 0.000000e+00 0.000000e+00 7.137336e-01 2.862663e-01 0.000000e+00
 0.000000e+00 0.000000e+00 0.000000e+00 8.491170e-01 1.508829e-01
 0.000000e+00 0.000000e+00 0.000000e+00 0.000000e+00 0.000000e+00
<ENDHMM>
~h "f"
<BEGINHMM>
<NUMSTATES> 5
<STATE> 2
<MEAN> 25
 -8.738704e-03 -2.444529e-01 -2.054719e-01 -2.705015e-01 -1.441655e-01 -6.671212e-02 -8.191591e-02 -7.277802e-02 7.703809e-02 7.499421e-03 -5.470495e-03 -4.185855e-02 3.538267e-03 -6.603216e-04 -2.193344e-03 -9.334498e-04 1.338499e-03 -1.514779e-05 -9.798463e-04 -3.751946e-04 6.035691e-04 -9.946402e-04 1.093878e-03 7.660070e-05 2.704983e-03
<VARIANCE> 25
 6.741248e+01 3.996625e+01 5.484634e+01 5.920044e+01 6.091426e+01 5.567043e+01 5.444203e+01 4.700592e+01 4.398964e+01 3.568976e+01 3.236354e+01 2.986198e+01 3.107641e+00 2.150692e+00 2.270655e+00 2.931304e+00 3.143279e+00 2.975941e+00 3.207924e+00 3.035257e+00 2.921002e+00 2.493608e+00 2.325780e+00 2.037130e+00 2.396609e+00
<GCONST> 1.048623e+02
<STATE> 3
<MEAN> 25
 7.933017e-04 -2.430172e-01 -2.122066e-01 -2.708370e-01 -1.353059e-01 -6.529856e-02 -8.129600e-02 -7.220456e-02 7.920092e-02 4.709415e-03 -1.241671e-03 -4.076390e-02 4.253004e-03 8.650164e-04 -1.649860e-03 -2.549603e-04 2.413302e-03 3.261818e-04 -3.124460e-04 -4.817047e-04 1.707131e-04 -1.061315e-03 1.120400e-03 -1.014670e-04 -4.442188e-04
<VARIANCE> 25
 6.735544e+01 3.994699e+01 5.480077e+01 5.914787e+01 6.084054e+01 5.560235e+01 5.442082e+01 4.697091e+01 4.395462e+01 3.567826e+01 3.234550e+01 2.984078e+01 3.101821e+00 2.146386e+00 2.264991e+00 2.927257e+00 3.136957e+00 2.971036e+00 3.206080e+00 3.031722e+00 2.917651e+00 2.491332e+00 2.323496e+00 2.036077e+00 2.385261e+00
<GCONST> 1.048318e+02
<STATE> 4
<MEAN> 25
 6.088958e-02 -2.202135e-01 -1.673843e-01 -2.912965e-01 -1.671593e-01 -9.359393e-02 -1.005654e-01 -8.317057e-02 5.658276e-02 -1.706947e-02 -1.509498e-02 -6.009945e-02 3.806483e-03 2.193567e-03 -1.165007e-03 1.230953e-03 3.763890e-03 7.517685e-04 8.718707e-04 -1.727572e-04 8.025818e-05 -9.979429e-04 9.158083e-04 3.322324e-05 -4.897590e-03
<VARIANCE> 25
 6.489868e+01 3.861645e+01 5.351577e+01 5.745504e+01 6.032980e+01 5.436573e+01 5.331884e+01 4.597782e+01 4.310192e+01 3.513174e+01 3.185346e+01 2.945050e+01 2.871408e+00 2.013082e+00 2.155900e+00 2.767105e+00 3.019273e+00 2.864218e+00 3.081442e+00 2.924449e+00 2.822854e+00 2.420902e+00 2.258099e+00 1.987701e+00 2.200165e+00
<GCONST> 1.039792e+02
<TRANSP> 5
 0.000000e+00 1.000000e+00 0.000000e+00 0.000000e+00 0.000000e+00
 0.000000e+00 7.113993e-01 2.886008e-01 0.000000e+00 0.000000e+00
 0.000000e+00 0.000000e+00 7.114009e-01 2.885991e-01 0.000000e+00
 0.000000e+00 0.000000e+00 0.000000e+00 8.459924e-01 1.540076e-01
 0.000000e+00 0.000000e+00 0.000000e+00 0.000000e+00 0.000000e+00
<ENDHMM>
~h "g"
<BEGINHMM>
<NUMSTATES> 5
<STATE> 2
<MEAN> 25
 4.894063e-01 -1.242470e-01 2.741685e-01 -1.844554e-01 -4.053664e-01 -4.863071e-01 -5.168670e-01 -2.209326e-01 -4.085032e-01 -1.163628e-01 -1.912259e-02 -3.474758e-01 -1.801320e-04 8.988647e-04 -2.114821e-03 1.048959e-03 1.785570e-03 1.704626e-03 2.672059e-03 5.785683e-04 1.732020e-03 1.971049e-04 7.146294e-04 -3.661106e-04 -1.851698e-03
<VARIANCE> 25
 5.929415e+01 4.171965e+01 5.614655e+01 5.690060e+01 6.501408e+01 5.871654e+01 5.716733e+01 4.876689e+01 4.675599e+01 3.680825e+01 3.326581e+01 3.103696e+01 2.568096e+00 2.371960e+00 2.421835e+00 2.888525e+00 3.371997e+00 3.143179e+00 3.273197e+00 3.178736e+00 3.076877e+00 2.608670e+00 2.391624e+00 2.084482e+00 2.712910e+00
<GCONST> 1.055428e+02
<STATE> 3
<MEAN> 25
 4.872104e-01 -1.217979e-01 2.654436e-01 -1.811431e-01 -3.971089e-01 -4.771964e-01 -5.063926e-01 -2.172077e-01 -4.021125e-01 -1.143245e-01 -1.658240e-02 -3.470277e-01 -2.043231e-03 1.121679e-03 -2.620646e-03 1.316521e-03 3.063421e-03 2.955980e-03 4.118686e-03 1.685280e-03 2.673596e-03 3.175996e-04 5.266451e-04 5.157812e-04 -4.684401e-03
<VARIANCE> 25
 5.936557e+01 4.166470e+01 5.596503e+01 5.685300e+01 6.491736e+01 5.867636e+01 5.714627e+01 4.873366e+01 4.667262e+01 3.678469e+01 3.323708e+01 3.100172e+01 2.568142e+00 2.363848e+00 2.415704e+00 2.882054e+00 3.361886e+00 3.139022e+00 3.267072e+00 3.176890e+00 3.072795e+00 2.606900e+00 2.387204e+00 2.081901e+00 2.694262e+00
<GCONST> 1.055040e+02
<STATE> 4
<MEAN> 25
 4.751810e-01 -1.050760e-01 2.605313e-01 -2.004671e-01 -3.919602e-01 -4.375313e-01 -4.852481e-01 -2.228965e-01 -3.832453e-01 -1.232983e-01 -2.426980e-02 -3.416212e-01 -3.289568e-03 1.075562e-03 -3.143895e-03 1.609446e-03 3.895270e-03 4.050446e-03 5.213724e-03 2.322523e-03 2.955236e-03 4.760877e-04 3.492662e-04 1.796645e-03 -7.684567e-03
<VARIANCE> 25
 5.723119e+01 4.012210e+01 5.449321e+01 5.536160e+01 6.372414e+01 5.716908e+01 5.596120e+01 4.752058e+01 4.566971e+01 3.610060e+01 3.265698e+01 3.060357e+01 2.379629e+00 2.211498e+00 2.291885e+00 2.727792e+00 3.211991e+00 3.021495e+00 3.134019e+00 3.055429e+00 2.965961e+00 2.528148e+00 2.319216e+00 2.031175e+00 2.481956e+00
<GCONST> 1.045982e+02
<TRANSP> 5
 0.000000e+00 1.000000e+00 0.000000e+00 0.000000e+00 0.000000e+00
 0.000000e+00 7.155235e-01 2.844764e-01 0.000000e+00 0.000000e+00
 0.000000e+00 0.000000e+00 7.155237e-01 2.844763e-01 0.000000e+00
 0.000000e+00 0.000000e+00 0.000000e+00 8.501310e-01 1.498689e-01
 0.000000e+00 0.000000e+00 0.000000e+00 0.000000e+00 0.000000e+00
<ENDHMM>
~h "k"
<BEGINHMM>
<NUMSTATES> 5
<STATE> 2
<MEAN> 25
 7.429559e-02 -2.520651e-01 6.436957e-02 -1.696446e-01 -1.671138e-01 -3.282007e-01 -5.556540e-02 3.559634e-02 -1.417256e-01 5.301101e-02 1.132764e-02 -1.486385e-01 -1.646088e-03 2.170114e-03 1.945354e-03 2.938996e-03 7.971661e-04 4.584896e-04 1.925286e-03 -7.146356e-04 5.719849e-05 -9.000853e-04 1.085283e-03 7.840254e-04 -2.276761e-03
<VARIANCE> 25
 6.243722e+01 4.156907e+01 5.474107e+01 5.600448e+01 6.387592e+01 5.692357e+01 5.546003e+01 4.885683e+01 4.568606e+01 3.688803e+01 3.305289e+01 3.064633e+01 2.849994e+00 2.400604e+00 2.453006e+00 2.989935e+00 3.383923e+00 3.174499e+00 3.335750e+00 3.237583e+00 3.141131e+00 2.670227e+00 2.439529e+00 2.147100e+00 3.084299e+00
<GCONST> 1.058683e+02
<STATE> 3
<MEAN> 25
 6.974889e-02 -2.438184e-01 7.060238e-02 -1.586414e-01 -1.642998e-01 -3.249863e-01 -4.811063e-02 3.268155e-02 -1.414739e-01 5.024574e-02 1.431721e-02 -1.456232e-01 -8.626796e-04 3.067758e-03 2.223460e-03 3.514096e-03 9.958766e-04 1.408247e-03 2.060189e-03 -1.126830e-03 2.387693e-04 -1.175976e-03 8.478491e-04 9.231842e-04 -4.884185e-03
<VARIANCE> 25
 6.243516e+01 4.150553e+01 5.470435e+01 5.590935e+01 6.383269e+01 5.690538e+01 5.538122e+01 4.879169e+01 4.565007e+01 3.683628e+01 3.303640e+01 3.063667e+01 2.848340e+00 2.392014e+00 2.447498e+00 2.981536e+00 3.375603e+00 3.167720e+00 3.328678e+00 3.231804e+00 3.136122e+00 2.666407e+00 2.436308e+00 2.145051e+00 3.057494e+00
<GCONST> 1.058259e+02
<STATE> 4
<MEAN> 25
 1.011770e-01 -2.177661e-01 9.893686e-02 -1.524579e-01 -1.954113e-01 -3.294762e-01 -6.472353e-02 7.522555e-03 -1.471499e-01 2.334638e-02 3.342448e-03 -1.545909e-01 -5.161611e-04 3.634716e-03 1.737640e-03 3.882372e-03 1.567275e-03 2.413487e-03 2.334217e-03 -1.285363e-03 4.331250e-04 -7.478449e-04 5.844675e-04 1.305327e-03 -7.644658e-03
<VARIANCE> 25
 6.018000e+01 4.008822e+01 5.340353e+01 5.394864e+01 6.290700e+01 5.554791e+01 5.422527e+01 4.766648e+01 4.476315e+01 3.613974e+01 3.244823e+01 3.022854e+01 2.653083e+00 2.236804e+00 2.332071e+00 2.808090e+00 3.233220e+00 3.040669e+00 3.190685e+00 3.108718e+00 3.028208e+00 2.583776e+00 2.366812e+00 2.085906e+00 2.785911e+00
<GCONST> 1.049133e+02
<TRANSP> 5
 0.000000e+00 1.000000e+00 0.000000e+00 0.000000e+00 0.000000e+00
 0.000000e+00 7.087405e-01 2.912595e-01 0.000000e+00 0.000000e+00
 0.000000e+00 0.000000e+00 7.087277e-01 2.912723e-01 0.000000e+00
 0.000000e+00 0.000000e+00 0.000000e+00 8.430203e-01 1.569798e-01
 0.000000e+00 0.000000e+00 0.000000e+00 0.000000e+00 0.000000e+00
<ENDHMM>
~h "l"
<BEGINHMM>
<NUMSTATES> 5
<STATE> 2
<MEAN> 25
 4.246842e-01 6.693090e-02 -2.497199e-01 -8.987212e-01 -7.626756e-02 2.049056e-01 -2.869771e-01 -3.511506e-01 4.111954e-03 3.187801e-03 -2.802624e-02 -1.500749e-01 -3.801387e-03 1.460720e-05 2.073324e-03 5.608459e-03 3.321901e-03 4.691511e-04 1.749522e-03 2.988143e-03 4.436847e-05 1.555454e-05 2.742267e-04 2.149480e-03 -8.710126e-03
<VARIANCE> 25
 6.127040e+01 4.005038e+01 5.320127e+01 6.890260e+01 6.138498e+01 5.694719e+01 5.644256e+01 4.951534e+01 4.492947e+01 3.694075e+01 3.298364e+01 3.065775e+01 2.572041e+00 2.122255e+00 2.202636e+00 3.048160e+00 3.071384e+00 2.996171e+00 3.176627e+00 3.129490e+00 2.984280e+00 2.578703e+00 2.369286e+00 2.077914e+00 2.398792e+00
<GCONST> 1.050143e+02
<STATE> 3
<MEAN> 25
 4.088969e-01 6.742081e-02 -2.425200e-01 -8.745469e-01 -6.358507e-02 2.058981e-01 -2.787323e-01 -3.394656e-01 4.452018e-03 4.064117e-03 -2.648502e-02 -1.422314e-01 -5.913673e-03 6.609692e-05 2.355175e-03 8.991909e-03 4.304385e-03 -8.279289e-05 3.097056e-03 4.477594e-03 -4.850420e-05 5.707303e-04 3.838048e-04 2.881895e-03 -1.227374e-02
<VARIANCE> 25
 6.122977e+01 3.997905e+01 5.317765e+01 6.875739e+01 6.132019e+01 5.692159e+01 5.644161e+01 4.947255e+01 4.488608e+01 3.690127e+01 3.294969e+01 3.061841e+01 2.564721e+00 2.117064e+00 2.198740e+00 3.037851e+00 3.065329e+00 2.990463e+00 3.172276e+00 3.123868e+00 2.980594e+00 2.573844e+00 2.367246e+00 2.074257e+00 2.390879e+00
<GCONST> 1.049760e+02
<STATE> 4
<MEAN> 25
 3.851041e-01 6.923018e-02 -1.997671e-01 -7.875083e-01 -7.667227e-02 1.741578e-01 -2.621325e-01 -3.076987e-01 -7.647800e-03 1.490703e-03 -3.479049e-02 -1.362825e-01 -7.378659e-03 2.487623e-04 2.156086e-03 1.138195e-02 5.010676e-03 -3.172196e-04 4.342475e-03 5.249940e-03 2.865150e-05 1.054092e-03 6.120194e-04 3.140796e-03 -1.475583e-02
<VARIANCE> 25
 5.900231e+01 3.846737e+01 5.187173e+01 6.625876e+01 6.028704e+01 5.538954e+01 5.528590e+01 4.819882e+01 4.385789e+01 3.610438e+01 3.233345e+01 3.012068e+01 2.370257e+00 1.980832e+00 2.090173e+00 2.847534e+00 2.935030e+00 2.870103e+00 3.041198e+00 3.001960e+00 2.873568e+00 2.485416e+00 2.293372e+00 2.016565e+00 2.198786e+00
<GCONST> 1.040248e+02
<TRANSP> 5
 0.000000e+00 1.000000e+00 0.000000e+00 0.000000e+00 0.000000e+00
 0.000000e+00 7.113677e-01 2.886323e-01 0.000000e+00 0.000000e+00
 0.000000e+00 0.000000e+00 7.113518e-01 2.886482e-01 0.000000e+00
 0.000000e+00 0.000000e+00 0.000000e+00 8.453410e-01 1.546590e-01
 0.000000e+00 0.000000e+00 0.000000e+00 0.000000e+00 0.000000e+00
<ENDHMM>
~h "m"
<BEGINHMM>
<NUMSTATES> 5
<STATE> 2
<MEAN> 25
 4.992370e-01 8.909453e-03 5.041917e-02 -5.211060e-02 -9.774452e-02 -8.162093e-03 -1.898075e-01 -3.018435e-01 -2.855701e-01 -2.212162e-01 -1.607939e-01 -2.927982e-01 -3.002974e-03 -3.519692e-04 9.199703e-04 7.297164e-04 3.138742e-04 4.812275e-04 2.470871e-03 3.264023e-03 -7.362677e-04 7.502665e-05 5.575487e-04 9.248035e-04 -5.041130e-03
<VARIANCE> 25
 6.158903e+01 3.994305e+01 5.228537e+01 5.618477e+01 6.113379e+01 5.408513e+01 5.406614e+01 4.860167e+01 4.659561e+01 3.646396e+01 3.328635e+01 3.111209e+01 2.547215e+00 2.141816e+00 2.197169e+00 2.881164e+00 3.039289e+00 2.874716e+00 3.080885e+00 3.131696e+00 3.046673e+00 2.492925e+00 2.346157e+00 2.045652e+00 2.352113e+00
<GCONST> 1.045260e+02
<STATE> 3
<MEAN> 25
 4.874261e-01 9.625069e-03 5.299798e-02 -4.910529e-02 -9.603780e-02 -6.310743e-03 -1.799269e-01 -2.904729e-01 -2.861042e-01 -2.188187e-01 -1.582753e-01 -2.883319e-01 -5.116082e-03 1.391103e-04 4.125778e-04 1.277846e-03 8.593193e-04 7.994241e-04 3.927468e-03 4.743656e-03 5.293881e-04 1.460757e-03 9.141563e-04 1.949685e-03 -8.032964e-03
<VARIANCE> 25
 6.155157e+01 3.993908e+01 5.228518e+01 5.612149e+01 6.113367e+01 5.406708e+01 5.399729e+01 4.853965e+01 4.659297e+01 3.642967e+01 3.326834e+01 3.111775e+01 2.543560e+00 2.138318e+00 2.194413e+00 2.875927e+00 3.034912e+00 2.871819e+00 3.076456e+00 3.127672e+00 3.042081e+00 2.489892e+00 2.343642e+00 2.044091e+00 2.343871e+00
<GCONST> 1.045005e+02
<STATE> 4
<MEAN> 25
 4.600028e-01 1.339642e-02 6.926405e-02 -6.817877e-02 -1.143184e-01 -2.875865e-02 -1.793836e-01 -2.689576e-01 -2.858824e-01 -1.985820e-01 -1.575314e-01 -2.733466e-01 -6.508520e-03 9.864641e-04 -2.192160e-04 1.860384e-03 1.555162e-03 1.372311e-03 4.839301e-03 5.323913e-03 1.868422e-03 2.555774e-03 1.422464e-03 3.000853e-03 -1.054651e-02
<VARIANCE> 25
 5.925637e+01 3.859629e+01 5.115914e+01 5.417851e+01 6.015369e+01 5.277642e+01 5.284816e+01 4.739307e+01 4.571358e+01 3.575325e+01 3.274713e+01 3.059136e+01 2.368282e+00 2.005909e+00 2.099710e+00 2.714824e+00 2.913629e+00 2.772259e+00 2.950228e+00 3.007468e+00 2.938171e+00 2.414376e+00 2.276826e+00 1.989282e+00 2.165141e+00
<GCONST> 1.036197e+02
<TRANSP> 5
 0.000000e+00 1.000000e+00 0.000000e+00 0.000000e+00 0.000000e+00
 0.000000e+00 7.112201e-01 2.887799e-01 0.000000e+00 0.000000e+00
 0.000000e+00 0.000000e+00 7.112123e-01 2.887877e-01 0.000000e+00
 0.000000e+00 0.000000e+00 0.000000e+00 8.455254e-01 1.544746e-01
 0.000000e+00 0.000000e+00 0.000000e+00 0.000000e+00 0.000000e+00
<ENDHMM>
~h "n"
<BEGINHMM>
<NUMSTATES> 5
<STATE> 2
<MEAN> 25
 5.018725e-01 -1.299354e-02 3.767869e-01 -1.107028e-01 -4.264741e-01 -1.899500e-01 -2.203614e-01 -2.122367e-01 -2.655751e-01 -2.858273e-01 -3.038462e-01 -2.697552e-01 -2.496541e-03 1.212261e-03 -2.625671e-03 2.326954e-03 3.149495e-03 1.588754e-03 1.398731e-03 7.066423e-04 5.612033e-04 1.913162e-03 4.538007e-04 1.315568e-03 -5.577057e-03
<VARIANCE> 25
 6.102772e+01 4.135810e+01 5.498158e+01 5.575707e+01 6.306986e+01 5.588041e+01 5.465002e+01 4.943223e+01 4.567263e+01 3.683902e+01 3.378933e+01 3.071009e+01 2.631225e+00 2.242716e+00 2.243392e+00 2.840751e+00 3.137357e+00 2.961291e+00 3.143990e+00 3.206977e+00 2.980564e+00 2.534509e+00 2.333829e+00 2.031943e+00 2.539975e+00
<GCONST> 1.049281e+02
<STATE> 3
<MEAN> 25
 4.915302e-01 -9.425617e-03 3.677192e-01 -1.038676e-01 -4.157839e-01 -1.842101e-01 -2.138142e-01 -2.093692e-01 -2.619375e-01 -2.788373e-01 -3.003151e-01 -2.640428e-01 -4.120403e-03 1.196628e-03 -3.774327e-03 2.231486e-03 4.238031e-03 2.388040e-03 2.206079e-03 1.234056e-03 1.715563e-03 3.021709e-03 1.517223e-03 2.241493e-03 -7.592387e-03
<VARIANCE> 25
 6.103100e+01 4.132579e+01 5.493102e+01 5.573471e+01 6.305491e+01 5.587510e+01 5.463403e+01 4.938189e+01 4.562217e+01 3.680928e+01 3.376375e+01 3.069866e+01 2.629870e+00 2.240333e+00 2.241452e+00 2.838696e+00 3.133741e+00 2.958878e+00 3.140823e+00 3.204019e+00 2.977521e+00 2.531968e+00 2.333397e+00 2.030682e+00 2.536120e+00
<GCONST> 1.049100e+02
<STATE> 4
<MEAN> 25
 4.918491e-01 -6.542607e-03 3.613808e-01 -1.200361e-01 -4.260079e-01 -1.993590e-01 -2.337016e-01 -2.152166e-01 -2.626869e-01 -2.635232e-01 -2.914861e-01 -2.619776e-01 -5.205274e-03 1.111130e-03 -4.513710e-03 2.035827e-03 4.896279e-03 2.882058e-03 2.812114e-03 2.036547e-03 2.620792e-03 3.509417e-03 2.494868e-03 3.108567e-03 -9.248951e-03
<VARIANCE> 25
 5.881900e+01 3.964800e+01 5.353306e+01 5.364486e+01 6.223557e+01 5.436618e+01 5.338489e+01 4.803540e+01 4.458852e+01 3.603189e+01 3.315916e+01 3.022561e+01 2.428520e+00 2.093513e+00 2.137592e+00 2.668759e+00 2.996270e+00 2.838639e+00 3.001718e+00 3.067677e+00 2.866710e+00 2.444813e+00 2.263337e+00 1.977965e+00 2.328976e+00
<GCONST> 1.039518e+02
<TRANSP> 5
 0.000000e+00 1.000000e+00 0.000000e+00 0.000000e+00 0.000000e+00
 0.000000e+00 7.092896e-01 2.907104e-01 0.000000e+00 0.000000e+00
 0.000000e+00 0.000000e+00 7.092463e-01 2.907537e-01 0.000000e+00
 0.000000e+00 0.000000e+00 0.000000e+00 8.449643e-01 1.550357e-01
 0.000000e+00 0.000000e+00 0.000000e+00 0.000000e+00 0.000000e+00
<ENDHMM>
~h "p"
<BEGINHMM>
<NUMSTATES> 5
<STATE> 2
<MEAN> 25
 5.697514e-02 -5.270941e-02 -7.876660e-02 -1.056393e-01 6.363186e-02 -5.649867e-02 1.755399e-02 -6.440885e-02 8.049393e-02 2.498243e-02 3.897350e-02 -4.150888e-02 -5.520586e-04 1.141336e-03 8.316900e-04 3.759900e-03 1.896396e-03 1.018573e-05 2.972773e-03 1.589879e-03 -1.365715e-04 -1.418933e-04 7.818868e-04 1.403403e-03 -5.293022e-03
<VARIANCE> 25
 6.295844e+01 4.096735e+01 5.385380e+01 5.637601e+01 6.125816e+01 5.601706e+01 5.592802e+01 4.726708e+01 4.372485e+01 3.580221e+01 3.235300e+01 2.972089e+01 2.933110e+00 2.299732e+00 2.323545e+00 2.925472e+00 3.237310e+00 3.068001e+00 3.359156e+00 3.135955e+00 2.983063e+00 2.572221e+00 2.370147e+00 2.080990e+00 3.082850e+00
<GCONST> 1.053008e+02
<STATE> 3
<MEAN> 25
 5.483574e-02 -4.740009e-02 -7.453296e-02 -9.306038e-02 6.780725e-02 -5.494487e-02 2.602264e-02 -6.132695e-02 7.841858e-02 2.539727e-02 4.180893e-02 -3.681770e-02 -1.135131e-03 1.477426e-03 1.596404e-03 3.859921e-03 1.170997e-03 5.881192e-05 2.798603e-03 1.627874e-03 -5.030121e-04 -1.691245e-04 7.698731e-04 1.795009e-03 -6.691935e-03
<VARIANCE> 25
 6.282412e+01 4.090240e+01 5.378946e+01 5.627256e+01 6.120522e+01 5.597850e+01 5.587267e+01 4.718608e+01 4.367821e+01 3.577026e+01 3.229399e+01 2.966546e+01 2.923969e+00 2.292140e+00 2.317394e+00 2.915719e+00 3.229992e+00 3.061103e+00 3.351133e+00 3.129069e+00 2.978586e+00 2.567605e+00 2.365894e+00 2.076077e+00 3.053230e+00
<GCONST> 1.052455e+02
<STATE> 4
<MEAN> 25
 6.726117e-02 -4.373878e-02 -3.302825e-02 -8.973765e-02 2.444061e-02 -7.693129e-02 -1.623295e-03 -6.642015e-02 6.049613e-02 1.150148e-02 3.318772e-02 -4.284430e-02 -1.645405e-03 1.792383e-03 1.990120e-03 3.783805e-03 8.538730e-04 5.658840e-04 2.465353e-03 1.223975e-03 -8.263456e-04 1.590739e-04 5.943730e-04 1.794916e-03 -8.461419e-03
<VARIANCE> 25
 6.035627e+01 3.923085e+01 5.245671e+01 5.421434e+01 6.025222e+01 5.447559e+01 5.460272e+01 4.590509e+01 4.271675e+01 3.498475e+01 3.163362e+01 2.917633e+01 2.709654e+00 2.139208e+00 2.206196e+00 2.742136e+00 3.094786e+00 2.937928e+00 3.206905e+00 3.002400e+00 2.876226e+00 2.484448e+00 2.292646e+00 2.019191e+00 2.772328e+00
<GCONST> 1.042776e+02
<TRANSP> 5
 0.000000e+00 1.000000e+00 0.000000e+00 0.000000e+00 0.000000e+00
 0.000000e+00 7.061571e-01 2.938429e-01 0.000000e+00 0.000000e+00
 0.000000e+00 0.000000e+00 7.061479e-01 2.938520e-01 0.000000e+00
 0.000000e+00 0.000000e+00 0.000000e+00 8.398820e-01 1.601180e-01
 0.000000e+00 0.000000e+00 0.000000e+00 0.000000e+00 0.000000e+00
<ENDHMM>
~h "r"
<BEGINHMM>
<NUMSTATES> 5
<STATE> 2
<MEAN> 25
 5.468990e-01 -3.373616e-01 -1.725500e-01 -2.462617e-02 -2.821215e-01 -4.231091e-01 -4.389340e-01 9.040697e-03 -4.285932e-02 -1.222931e-01 2.264420e-02 -7.401609e-02 -8.381630e-04 6.395568e-04 6.432103e-04 3.954430e-05 2.225221e-03 -5.052087e-04 1.479669e-03 8.508380e-04 8.167393e-06 2.031994e-04 -8.780444e-04 -7.332009e-04 -5.877332e-04
<VARIANCE> 25
 6.684426e+01 4.230409e+01 5.756253e+01 5.601003e+01 6.373125e+01 5.847393e+01 5.914676e+01 4.891921e+01 4.595180e+01 3.645346e+01 3.275035e+01 3.015568e+01 2.814008e+00 2.236801e+00 2.389882e+00 2.832501e+00 3.203394e+00 3.046246e+00 3.336061e+00 3.134316e+00 2.991402e+00 2.544256e+00 2.343866e+00 2.045433e+00 2.501806e+00
<GCONST> 1.053763e+02
<STATE> 3
<MEAN> 25
 5.415636e-01 -3.328151e-01 -1.712466e-01 -2.326770e-02 -2.729793e-01 -4.213501e-01 -4.313202e-01 1.201962e-02 -4.294453e-02 -1.198270e-01 2.066668e-02 -7.531066e-02 -3.055814e-03 2.237931e-03 1.444936e-03 2.803397e-06 2.662675e-03 7.623361e-04 2.934533e-03 1.012658e-03 -3.666931e-04 8.115806e-04 -8.657298e-04 -3.871054e-04 -3.283145e-03
<VARIANCE> 25
 6.678271e+01 4.230285e+01 5.745620e+01 5.597166e+01 6.369189e+01 5.847846e+01 5.919674e+01 4.888873e+01 4.592055e+01 3.641479e+01 3.272247e+01 3.013538e+01 2.811410e+00 2.235033e+00 2.385445e+00 2.829724e+00 3.200060e+00 3.042988e+00 3.332702e+00 3.133031e+00 2.989345e+00 2.542459e+00 2.342948e+00 2.044809e+00 2.494906e+00
<GCONST> 1.053563e+02
<STATE> 4
<MEAN> 25
 5.338945e-01 -2.975687e-01 -1.295687e-01 -4.878699e-02 -2.945655e-01 -4.225995e-01 -4.314141e-01 -5.546731e-03 -5.582554e-02 -1.222425e-01 -3.042840e-04 -8.857231e-02 -4.955092e-03 3.561711e-03 1.305967e-03 3.024973e-04 3.553214e-03 2.624372e-03 4.299959e-03 9.600177e-04 -2.541496e-04 1.602812e-03 -3.770768e-04 1.835357e-04 -6.441713e-03
<VARIANCE> 25
 6.447887e+01 4.090000e+01 5.619421e+01 5.448592e+01 6.295621e+01 5.730372e+01 5.816193e+01 4.790073e+01 4.515186e+01 3.578287e+01 3.219746e+01 2.969680e+01 2.611132e+00 2.096012e+00 2.271765e+00 2.687824e+00 3.079250e+00 2.939185e+00 3.203927e+00 3.025010e+00 2.902040e+00 2.468393e+00 2.279323e+00 1.994963e+00 2.293303e+00
<GCONST> 1.045214e+02
<TRANSP> 5
 0.000000e+00 1.000000e+00 0.000000e+00 0.000000e+00 0.000000e+00
 0.000000e+00 7.109745e-01 2.890256e-01 0.000000e+00 0.000000e+00
 0.000000e+00 0.000000e+00 7.109454e-01 2.890546e-01 0.000000e+00
 0.000000e+00 0.000000e+00 0.000000e+00 8.448792e-01 1.551209e-01
 0.000000e+00 0.000000e+00 0.000000e+00 0.000000e+00 0.000000e+00
<ENDHMM>
~h "s"
<BEGINHMM>
<NUMSTATES> 5
<STATE> 2
<MEAN> 25
 -7.357187e-01 2.890117e-01 -7.176255e-02 -2.221578e-01 2.139724e-01 -3.843466e-01 5.040097e-02 2.343040e-02 1.053981e-01 -8.339904e-03 -2.913316e-02 1.345836e-02 5.417459e-04 4.890134e-04 7.693828e-05 1.358839e-03 2.115480e-04 2.587732e-03 1.521620e-03 5.589949e-05 1.586324e-04 8.189317e-05 -5.318676e-05 4.651754e-04 -3.340481e-03
<VARIANCE> 25
 7.572482e+01 4.216581e+01 5.235556e+01 5.478378e+01 6.241171e+01 5.643337e+01 5.521046e+01 4.666982e+01 4.341966e+01 3.517781e+01 3.241809e+01 2.969470e+01 3.331544e+00 2.262965e+00 2.280354e+00 2.779344e+00 3.197303e+00 2.988874e+00 3.280463e+00 3.038404e+00 2.873272e+00 2.493096e+00 2.322414e+00 2.032488e+00 2.570653e+00
<GCONST> 1.050874e+02
<STATE> 3
<MEAN> 25
 -7.307448e-01 2.898857e-01 -7.043217e-02 -2.170225e-01 2.143945e-01 -3.761274e-01 5.549436e-02 2.202495e-02 1.054326e-01 -7.538000e-03 -2.938096e-02 1.391935e-02 3.427797e-03 -2.918670e-04 5.657727e-04 2.235793e-03 -4.054618e-04 3.497383e-03 1.436863e-03 -2.191700e-04 -5.026362e-06 3.807963e-04 -5.030804e-05 -8.085131e-05 -6.262697e-03
<VARIANCE> 25
 7.562586e+01 4.214347e+01 5.238083e+01 5.483469e+01 6.236087e+01 5.647361e+01 5.516928e+01 4.665998e+01 4.339825e+01 3.516137e+01 3.240469e+01 2.966042e+01 3.325532e+00 2.261211e+00 2.277797e+00 2.777214e+00 3.193355e+00 2.987857e+00 3.277122e+00 3.037177e+00 2.872189e+00 2.492035e+00 2.321179e+00 2.031120e+00 2.565828e+00
<GCONST> 1.050720e+02
<STATE> 4
<MEAN> 25
 -6.413248e-01 2.743238e-01 -3.635172e-02 -2.136828e-01 1.628124e-01 -3.748684e-01 2.246950e-02 3.166953e-03 7.471856e-02 -1.701077e-02 -4.666330e-02 -6.449428e-03 5.665706e-03 -1.054255e-03 8.612745e-04 2.563347e-03 -6.188132e-04 3.827387e-03 1.270165e-03 -7.964504e-04 -2.236008e-04 6.424048e-04 8.188214e-05 -3.874068e-04 -8.449208e-03
<VARIANCE> 25
 7.232761e+01 4.067923e+01 5.148064e+01 5.320931e+01 6.146920e+01 5.531190e+01 5.419995e+01 4.578384e+01 4.270863e+01 3.456639e+01 3.188014e+01 2.920493e+01 3.088773e+00 2.126466e+00 2.175598e+00 2.633593e+00 3.074656e+00 2.890196e+00 3.151657e+00 2.942585e+00 2.796072e+00 2.422080e+00 2.257986e+00 1.982697e+00 2.366782e+00
<GCONST> 1.042440e+02
<TRANSP> 5
 0.000000e+00 1.000000e+00 0.000000e+00 0.000000e+00 0.000000e+00
 0.000000e+00 7.089936e-01 2.910064e-01 0.000000e+00 0.000000e+00
 0.000000e+00 0.000000e+00 7.089571e-01 2.910430e-01 0.000000e+00
 0.000000e+00 0.000000e+00 0.000000e+00 8.432468e-01 1.567532e-01
 0.000000e+00 0.000000e+00 0.000000e+00 0.000000e+00 0.000000e+00
<ENDHMM>
~h "t"
<BEGINHMM>
<NUMSTATES> 5
<STATE> 2
<MEAN> 25
 -1.979584e-02 -9.813283e-02 1.256435e-01 -1.937333e-01 -1.656242e-01 -2.447719e-01 -1.301001e-01 -5.254064e-02 -2.009800e-02 -6.414036e-02 -8.799127e-02 -1.100366e-01 1.725668e-03 8.626731e-04 7.073825e-05 4.254908e-04 8.927746e-04 5.708614e-04 9.299387e-05 -2.511765e-04 1.066700e-04 5.505870e-04 -1.245610e-04 -4.246878e-05 -1.864032e-03
<VARIANCE> 25
 6.376236e+01 4.139698e+01 5.373522e+01 5.492232e+01 6.187255e+01 5.589441e+01 5.513518e+01 4.725195e+01 4.404241e+01 3.584441e+01 3.322396e+01 3.041561e+01 2.890393e+00 2.300581e+00 2.314640e+00 2.882433e+00 3.220305e+00 3.070167e+00 3.281506e+00 3.126446e+00 2.954735e+00 2.544399e+00 2.380277e+00 2.081170e+00 2.954961e+00
<GCONST> 1.052245e+02
<STATE> 3
<MEAN> 25
 -1.468096e-02 -9.422030e-02 1.262781e-01 -1.914978e-01 -1.628335e-01 -2.421741e-01 -1.286182e-01 -5.381536e-02 -2.035000e-02 -6.195354e-02 -8.797256e-02 -1.106994e-01 2.321509e-03 1.274804e-03 -2.282972e-04 8.855722e-04 1.206082e-03 1.232923e-03 4.783271e-04 -3.753444e-04 2.500867e-05 9.840551e-04 9.671450e-05 -8.656317e-05 -3.712183e-03
<VARIANCE> 25
 6.372521e+01 4.139314e+01 5.373889e+01 5.493364e+01 6.189928e+01 5.590778e+01 5.511357e+01 4.722615e+01 4.404877e+01 3.583567e+01 3.320425e+01 3.039141e+01 2.887040e+00 2.297530e+00 2.313201e+00 2.878120e+00 3.218692e+00 3.067232e+00 3.279389e+00 3.124872e+00 2.954735e+00 2.543758e+00 2.379415e+00 2.079644e+00 2.939377e+00
<GCONST> 1.052085e+02
<STATE> 4
<MEAN> 25
 2.682391e-02 -7.812630e-02 1.361188e-01 -2.023398e-01 -1.828686e-01 -2.447413e-01 -1.465564e-01 -7.130841e-02 -3.279557e-02 -6.536854e-02 -9.210368e-02 -1.250875e-01 2.039603e-03 1.844250e-03 -3.240548e-04 1.375786e-03 1.094012e-03 1.857996e-03 9.776886e-04 -4.228212e-04 -1.971215e-04 1.236557e-03 4.221531e-04 -7.003924e-05 -5.258288e-03
<VARIANCE> 25
 6.107925e+01 3.989660e+01 5.259758e+01 5.315334e+01 6.096607e+01 5.448997e+01 5.390090e+01 4.608484e+01 4.323906e+01 3.526697e+01 3.259880e+01 2.984175e+01 2.678433e+00 2.155586e+00 2.213154e+00 2.718610e+00 3.086429e+00 2.946568e+00 3.142117e+00 3.006271e+00 2.859409e+00 2.470030e+00 2.312419e+00 2.028021e+00 2.685655e+00
<GCONST> 1.043063e+02
<TRANSP> 5
 0.000000e+00 1.000000e+00 0.000000e+00 0.000000e+00 0.000000e+00
 0.000000e+00 7.096686e-01 2.903314e-01 0.000000e+00 0.000000e+00
 0.000000e+00 0.000000e+00 7.096305e-01 2.903695e-01 0.000000e+00
 0.000000e+00 0.000000e+00 0.000000e+00 8.446466e-01 1.553534e-01
 0.000000e+00 0.000000e+00 0.000000e+00 0.000000e+00 0.000000e+00
<ENDHMM>
~h "v"
<BEGINHMM>
<NUMSTATES> 5
<STATE> 2
<MEAN> 25
 5.065625e-01 -1.105536e-01 1.805862e-01 -4.693582e-01 -4.288950e-01 -4.643175e-01 -5.092835e-01 -3.925658e-01 -1.328565e-01 -1.371568e-01 -1.934735e-01 -3.666155e-01 -5.074119e-03 1.627086e-03 -7.767397e-04 5.524111e-03 5.401793e-03 7.773223e-04 7.370843e-03 4.274664e-03 1.269796e-03 -3.969311e-04 2.052386e-03 2.819459e-03 -1.051160e-02
<VARIANCE> 25
 6.536461e+01 4.324435e+01 5.731648e+01 5.999406e+01 6.415189e+01 5.851321e+01 5.768496e+01 4.950364e+01 4.594296e+01 3.712128e+01 3.358844e+01 3.061532e+01 2.995292e+00 2.387534e+00 2.358599e+00 3.106783e+00 3.286320e+00 3.109118e+00 3.368454e+00 3.212518e+00 3.005425e+00 2.592220e+00 2.396796e+00 2.076974e+00 2.679296e+00
<GCONST> 1.059095e+02
<STATE> 3
<MEAN> 25
 4.885086e-01 -1.036437e-01 1.783203e-01 -4.481933e-01 -4.089181e-01 -4.597556e-01 -4.828030e-01 -3.771568e-01 -1.287379e-01 -1.372406e-01 -1.862998e-01 -3.554777e-01 -5.958235e-03 1.934330e-03 -7.163299e-04 6.102859e-03 6.028648e-03 1.605172e-03 8.209743e-03 4.916126e-03 1.446614e-03 -6.443961e-05 2.490565e-03 3.493237e-03 -1.376999e-02
<VARIANCE> 25
 6.531860e+01 4.313889e+01 5.720926e+01 5.981588e+01 6.409222e+01 5.841521e+01 5.758482e+01 4.941049e+01 4.587017e+01 3.706985e+01 3.354502e+01 3.056500e+01 2.985345e+00 2.380060e+00 2.352870e+00 3.094513e+00 3.278119e+00 3.099702e+00 3.359204e+00 3.206394e+00 2.999411e+00 2.587570e+00 2.393179e+00 2.072006e+00 2.664255e+00
<GCONST> 1.058530e+02
<STATE> 4
<MEAN> 25
 4.616291e-01 -7.758482e-02 1.912120e-01 -4.073864e-01 -3.921568e-01 -4.231688e-01 -4.398553e-01 -3.384867e-01 -1.332927e-01 -1.298558e-01 -1.707670e-01 -3.289721e-01 -6.406059e-03 2.524235e-03 -9.869225e-04 6.527841e-03 6.581535e-03 3.318219e-03 8.731727e-03 5.157739e-03 1.424598e-03 5.857184e-04 2.842735e-03 4.166540e-03 -1.773244e-02
<VARIANCE> 25
 6.291440e+01 4.125520e+01 5.572670e+01 5.779204e+01 6.320753e+01 5.687804e+01 5.627729e+01 4.815300e+01 4.492185e+01 3.634501e+01 3.290894e+01 3.011095e+01 2.759786e+00 2.211446e+00 2.238149e+00 2.904123e+00 3.142908e+00 2.972442e+00 3.212728e+00 3.081791e+00 2.898038e+00 2.504100e+00 2.319664e+00 2.017277e+00 2.440033e+00
<GCONST> 1.048993e+02
<TRANSP> 5
 0.000000e+00 1.000000e+00 0.000000e+00 0.000000e+00 0.000000e+00
 0.000000e+00 7.073031e-01 2.926969e-01 0.000000e+00 0.000000e+00
 0.000000e+00 0.000000e+00 7.073027e-01 2.926973e-01 0.000000e+00
 0.000000e+00 0.000000e+00 0.000000e+00 8.413457e-01 1.586543e-01
 0.000000e+00 0.000000e+00 0.000000e+00 0.000000e+00 0.000000e+00
<ENDHMM>
~h "w"
<BEGINHMM>
<NUMSTATES> 5
<STATE> 2
<MEAN> 25
 5.787406e-01 3.794875e-02 -8.147117e-02 -4.091031e-01 -4.019854e-01 -5.712312e-02 -4.403090e-01 -2.128823e-01 -2.272082e-01 -1.812569e-02 3.420518e-02 -7.023413e-02 1.519389e-02 1.007351e-03 4.095376e-03 -1.105071e-02 -1.119718e-02 -9.388722e-03 -1.522024e-02 -1.051890e-02 -7.834457e-03 -5.527392e-03 -4.171655e-03 -8.330628e-03 3.474726e-02
<VARIANCE> 25
 6.337777e+01 4.040829e+01 5.241024e+01 5.823518e+01 6.374318e+01 5.602068e+01 5.658339e+01 4.800839e+01 4.605115e+01 3.650947e+01 3.302841e+01 3.052026e+01 2.556552e+00 2.209343e+00 2.247298e+00 2.834872e+00 3.222785e+00 3.086009e+00 3.292798e+00 3.105239e+00 3.026436e+00 2.612651e+00 2.400624e+00 2.091242e+00 2.437510e+00
<GCONST> 1.050267e+02
<STATE> 3
<MEAN> 25
 6.291655e-01 4.342480e-02 -6.253574e-02 -4.463453e-01 -4.422355e-01 -9.055946e-02 -4.896019e-01 -2.494928e-01 -2.553481e-01 -3.742927e-02 2.112055e-02 -9.939014e-02 1.300967e-02 1.388813e-03 5.010415e-03 -1.006519e-02 -1.040783e-02 -9.548765e-03 -1.383006e-02 -1.024034e-02 -7.292161e-03 -5.550070e-03 -4.081586e-03 -8.240280e-03 3.328582e-02
<VARIANCE> 25
 6.371684e+01 4.064794e+01 5.274597e+01 5.854217e+01 6.406048e+01 5.631886e+01 5.684799e+01 4.817467e+01 4.626416e+01 3.666236e+01 3.317242e+01 3.057738e+01 2.581479e+00 2.229490e+00 2.266635e+00 2.856003e+00 3.245374e+00 3.109762e+00 3.316799e+00 3.123780e+00 3.044419e+00 2.626342e+00 2.414590e+00 2.100565e+00 2.445375e+00
<GCONST> 1.051702e+02
<STATE> 4
<MEAN> 25
 7.221611e-01 4.302422e-02 2.380876e-02 -5.321634e-01 -5.670308e-01 -2.134387e-01 -5.857986e-01 -3.192168e-01 -3.154176e-01 -1.056073e-01 -2.810921e-02 -1.766872e-01 1.052719e-02 9.971285e-04 5.532674e-03 -9.060502e-03 -9.654828e-03 -9.164219e-03 -1.122567e-02 -9.084671e-03 -6.445248e-03 -5.428825e-03 -4.185704e-03 -7.485021e-03 3.048217e-02
<VARIANCE> 25
 6.220573e+01 4.003095e+01 5.254177e+01 5.754311e+01 6.406696e+01 5.558432e+01 5.638663e+01 4.757882e+01 4.588025e+01 3.640094e+01 3.294834e+01 3.030634e+01 2.449263e+00 2.139964e+00 2.204737e+00 2.751095e+00 3.166398e+00 3.043405e+00 3.230831e+00 3.051573e+00 2.980489e+00 2.576756e+00 2.371507e+00 2.064966e+00 2.281872e+00
<GCONST> 1.046460e+02
<TRANSP> 5
 0.000000e+00 1.000000e+00 0.000000e+00 0.000000e+00 0.000000e+00
 0.000000e+00 7.164520e-01 2.835481e-01 0.000000e+00 0.000000e+00
 0.000000e+00 0.000000e+00 7.164552e-01 2.835448e-01 0.000000e+00
 0.000000e+00 0.000000e+00 0.000000e+00 8.512862e-01 1.487138e-01
 0.000000e+00 0.000000e+00 0.000000e+00 0.000000e+00 0.000000e+00
<ENDHMM>
~h "y"
<BEGINHMM>
<NUMSTATES> 5
<STATE> 2
<MEAN> 25
 8.629725e-02 9.464432e-02 8.840058e-01 1.740275e-01 -4.890833e-01 -2.408258e-01 -3.675814e-01 -1.469240e-01 -4.911782e-01 -2.373538e-01 1.505998e-01 -3.381736e-02 8.027674e-03 1.586117e-03 9.198871e-03 -4.447157e-03 -8.460973e-03 -9.082886e-03 -1.297364e-02 -7.645206e-03 -7.360619e-03 -8.427056e-03 -1.007286e-03 -3.962072e-03 2.770652e-02
<VARIANCE> 25
 5.575603e+01 3.759889e+01 6.625217e+01 5.170874e+01 6.570405e+01 5.639907e+01 5.717590e+01 4.736420e+01 4.833463e+01 3.778364e+01 3.190116e+01 2.993078e+01 2.307553e+00 1.980005e+00 2.464649e+00 2.607806e+00 3.139855e+00 2.988421e+00 3.130169e+00 3.002114e+00 2.945951e+00 2.511081e+00 2.262964e+00 1.981349e+00 2.215467e+00
<GCONST> 1.043834e+02
<STATE> 3
<MEAN> 25
 1.128243e-01 9.895419e-02 9.100165e-01 1.581724e-01 -5.168648e-01 -2.719760e-01 -4.076865e-01 -1.695465e-01 -5.168770e-01 -2.628508e-01 1.446847e-01 -4.700728e-02 7.953069e-03 1.097312e-03 3.969835e-03 -4.446485e-03 -6.082193e-03 -8.312154e-03 -1.151758e-02 -6.636829e-03 -6.091377e-03 -7.412435e-03 -1.915821e-03 -3.170247e-03 2.469266e-02
<VARIANCE> 25
 5.591972e+01 3.770045e+01 6.663799e+01 5.175924e+01 6.582079e+01 5.645600e+01 5.737994e+01 4.749028e+01 4.851641e+01 3.788366e+01 3.200101e+01 2.995791e+01 2.310986e+00 1.981858e+00 2.479748e+00 2.609674e+00 3.146451e+00 2.997416e+00 3.140961e+00 3.011083e+00 2.954412e+00 2.518663e+00 2.266803e+00 1.984095e+00 2.193309e+00
<GCONST> 1.044349e+02
<STATE> 4
<MEAN> 25
 1.538702e-01 1.021178e-01 8.618609e-01 1.179570e-01 -5.189856e-01 -2.823990e-01 -4.316030e-01 -1.784844e-01 -5.361044e-01 -2.999790e-01 9.422670e-02 -7.826406e-02 6.240121e-03 -2.317050e-04 -6.867882e-04 -3.897502e-03 -3.974968e-03 -5.631395e-03 -7.192176e-03 -4.408270e-03 -3.959538e-03 -4.811998e-03 -2.878923e-03 -2.775448e-03 1.917598e-02
<VARIANCE> 25
 5.372506e+01 3.631491e+01 6.486427e+01 4.972090e+01 6.466975e+01 5.460259e+01 5.606871e+01 4.647118e+01 4.738123e+01 3.734718e+01 3.149320e+01 2.937771e+01 2.112697e+00 1.837009e+00 2.349303e+00 2.438606e+00 2.993358e+00 2.859787e+00 2.991512e+00 2.893736e+00 2.835713e+00 2.440313e+00 2.199234e+00 1.927878e+00 1.961198e+00
<GCONST> 1.034046e+02
<TRANSP> 5
 0.000000e+00 1.000000e+00 0.000000e+00 0.000000e+00 0.000000e+00
 0.000000e+00 7.210780e-01 2.789220e-01 0.000000e+00 0.000000e+00
 0.000000e+00 0.000000e+00 7.210688e-01 2.789312e-01 0.000000e+00
 0.000000e+00 0.000000e+00 0.000000e+00 8.596161e-01 1.403839e-01
 0.000000e+00 0.000000e+00 0.000000e+00 0.000000e+00 0.000000e+00
<ENDHMM>
~h "z"
<BEGINHMM>
<NUMSTATES> 5
<STATE> 2
<MEAN> 25
 -2.583838e-01 3.034387e-01 1.613417e-01 -2.885116e-01 -4.343050e-02 -5.179469e-01 -3.207973e-01 -1.646952e-01 -7.230192e-02 -9.618665e-02 -1.109079e-01 -5.740844e-02 3.154113e-03 -6.731034e-04 -1.881809e-03 -2.997742e-04 -8.552005e-04 2.387207e-03 -2.796873e-04 -1.382641e-03 -1.335868e-03 -4.170113e-05 -1.885992e-03 -2.294646e-03 4.098924e-05
<VARIANCE> 25
 6.935852e+01 4.440823e+01 5.346127e+01 5.628842e+01 6.481567e+01 6.000877e+01 5.727831e+01 4.823475e+01 4.460355e+01 3.605712e+01 3.282893e+01 3.009613e+01 3.143662e+00 2.358947e+00 2.260707e+00 2.771683e+00 3.313810e+00 3.065242e+00 3.314368e+00 3.084108e+00 2.915346e+00 2.516605e+00 2.327285e+00 2.038950e+00 2.449730e+00
<GCONST> 1.053852e+02
<STATE> 3
<MEAN> 25
 -2.446582e-01 3.003773e-01 1.570544e-01 -2.896435e-01 -4.762804e-02 -5.107815e-01 -3.217953e-01 -1.704321e-01 -7.700080e-02 -9.625700e-02 -1.168385e-01 -6.552114e-02 5.773160e-03 -1.128573e-03 -1.812129e-03 1.004993e-03 -1.217143e-03 3.713560e-03 7.362937e-04 -1.657279e-03 -1.542165e-03 1.977201e-04 -1.423712e-03 -2.500013e-03 -3.689865e-03
<VARIANCE> 25
 6.925339e+01 4.442497e+01 5.350882e+01 5.633563e+01 6.477559e+01 6.008013e+01 5.730688e+01 4.829996e+01 4.465567e+01 3.608725e+01 3.284525e+01 3.011211e+01 3.141001e+00 2.361586e+00 2.262064e+00 2.773731e+00 3.312936e+00 3.065311e+00 3.315724e+00 3.086974e+00 2.919790e+00 2.518308e+00 2.328804e+00 2.040357e+00 2.447752e+00
<GCONST> 1.053967e+02
<STATE> 4
<MEAN> 25
 -1.444552e-01 2.713419e-01 1.787877e-01 -3.170245e-01 -1.116193e-01 -5.187917e-01 -3.570558e-01 -2.065073e-01 -1.145692e-01 -1.113208e-01 -1.384037e-01 -1.104438e-01 6.875071e-03 -1.311415e-03 -1.692944e-03 2.437158e-03 -9.493034e-04 4.422371e-03 1.801523e-03 -1.506100e-03 -1.200353e-03 5.989653e-04 -7.337422e-04 -2.070151e-03 -6.806567e-03
<VARIANCE> 25
 6.654462e+01 4.285917e+01 5.257944e+01 5.465821e+01 6.392698e+01 5.876262e+01 5.641923e+01 4.744627e+01 4.409037e+01 3.559459e+01 3.238888e+01 2.975674e+01 2.921877e+00 2.229226e+00 2.175528e+00 2.637795e+00 3.191609e+00 2.963370e+00 3.197142e+00 2.990831e+00 2.847991e+00 2.458656e+00 2.276276e+00 1.997835e+00 2.265419e+00
<GCONST> 1.046234e+02
<TRANSP> 5
 0.000000e+00 1.000000e+00 0.000000e+00 0.000000e+00 0.000000e+00
 0.000000e+00 7.103840e-01 2.896161e-01 0.000000e+00 0.000000e+00
 0.000000e+00 0.000000e+00 7.103923e-01 2.896077e-01 0.000000e+00
 0.000000e+00 0.000000e+00 0.000000e+00 8.445970e-01 1.554030e-01
 0.000000e+00 0.000000e+00 0.000000e+00 0.000000e+00 0.000000e+00
<ENDHMM>
~h "aa"
<BEGINHMM>
<NUMSTATES> 5
<STATE> 2
<MEAN> 25
 6.845480e-01 -2.320444e-01 -3.139160e-01 -7.876531e-01 -1.613240e-01 -7.724155e-03 -5.605400e-01 -3.872104e-01 -1.226448e-01 -9.210382e-02 -1.973654e-01 -3.595954e-01 4.468858e-03 1.642432e-03 2.232379e-03 -4.762249e-03 -3.120812e-03 -6.548538e-03 -7.096543e-03 -3.020079e-03 -2.689361e-03 -2.110629e-03 -2.576367e-03 -3.406653e-03 1.762515e-02
<VARIANCE> 25
 6.583974e+01 4.316822e+01 5.597253e+01 6.198165e+01 6.185205e+01 5.938858e+01 5.728527e+01 4.916149e+01 4.566041e+01 3.675112e+01 3.356190e+01 3.136964e+01 2.823058e+00 2.318788e+00 2.374670e+00 3.016524e+00 3.227273e+00 3.205279e+00 3.336512e+00 3.176220e+00 3.036297e+00 2.601682e+00 2.397978e+00 2.123833e+00 2.670478e+00
<GCONST> 1.058094e+02
<STATE> 3
<MEAN> 25
 7.008682e-01 -2.252217e-01 -3.049394e-01 -8.041537e-01 -1.737650e-01 -2.874647e-02 -5.825278e-01 -3.972560e-01 -1.330636e-01 -9.810477e-02 -2.052437e-01 -3.716097e-01 3.026601e-03 2.328967e-03 3.197209e-03 -2.987201e-03 -3.216291e-03 -6.514469e-03 -5.590202e-03 -2.040873e-03 -2.540051e-03 -1.782072e-03 -2.038108e-03 -2.739535e-03 1.420929e-02
<VARIANCE> 25
 6.615401e+01 4.333819e+01 5.614197e+01 6.208775e+01 6.203008e+01 5.950228e+01 5.740501e+01 4.927160e+01 4.577348e+01 3.680548e+01 3.362212e+01 3.138830e+01 2.840127e+00 2.327674e+00 2.380036e+00 3.026031e+00 3.235631e+00 3.213451e+00 3.346179e+00 3.184055e+00 3.045938e+00 2.606069e+00 2.402842e+00 2.126662e+00 2.668499e+00
<GCONST> 1.058715e+02
<STATE> 4
<MEAN> 25
 7.661822e-01 -2.062994e-01 -2.286884e-01 -8.609591e-01 -2.805980e-01 -1.120034e-01 -6.442220e-01 -4.306053e-01 -1.825089e-01 -1.293269e-01 -2.350146e-01 -4.073673e-01 1.767073e-03 2.852900e-03 3.729502e-03 -1.027624e-03 -3.115176e-03 -5.533389e-03 -3.134193e-03 -9.871478e-04 -2.462898e-03 -1.216429e-03 -1.242884e-03 -1.912738e-03 9.336322e-03
<VARIANCE> 25
 6.446597e+01 4.229027e+01 5.558730e+01 6.096750e+01 6.168494e+01 5.854348e+01 5.669838e+01 4.865190e+01 4.530497e+01 3.638888e+01 3.329687e+01 3.111378e+01 2.668262e+00 2.202922e+00 2.285912e+00 2.892401e+00 3.130627e+00 3.117337e+00 3.237215e+00 3.088072e+00 2.969476e+00 2.541186e+00 2.346242e+00 2.080639e+00 2.470474e+00
<GCONST> 1.052024e+02
<TRANSP> 5
 0.000000e+00 1.000000e+00 0.000000e+00 0.000000e+00 0.000000e+00
 0.000000e+00 7.167332e-01 2.832668e-01 0.000000e+00 0.000000e+00
 0.000000e+00 0.000000e+00 7.167456e-01 2.832545e-01 0.000000e+00
 0.000000e+00 0.000000e+00 0.000000e+00 8.521692e-01 1.478308e-01
 0.000000e+00 0.000000e+00 0.000000e+00 0.000000e+00 0.000000e+00
<ENDHMM>
~h "ae"
<BEGINHMM>
<NUMSTATES> 5
<STATE> 2
<MEAN> 25
 3.237179e-01 -4.185739e-01 1.051168e-01 -2.091177e-01 -3.997052e-01 -2.879513e-01 -5.399791e-05 1.413985e-01 1.435401e-02 -2.601061e-01 -3.898171e-01 -2.788337e-01 5.784323e-03 -1.552669e-03 8.136029e-04 -2.078210e-03 -3.891073e-03 -3.292978e-03 -3.032777e-03 3.901217e-05 -2.847374e-03 -4.040678e-03 -4.171193e-03 -3.310983e-03 1.185996e-02
<VARIANCE> 25
 6.119799e+01 4.445787e+01 5.326464e+01 5.481934e+01 6.153632e+01 5.586915e+01 5.505278e+01 4.893939e+01 4.486974e+01 3.714259e+01 3.470121e+01 3.137261e+01 2.680353e+00 2.341887e+00 2.230053e+00 2.797715e+00 3.132454e+00 2.976601e+00 3.184873e+00 3.147204e+00 2.947374e+00 2.550969e+00 2.367315e+00 2.062428e+00 2.778620e+00
<GCONST> 1.051179e+02
<STATE> 3
<MEAN> 25
 3.411285e-01 -4.204750e-01 1.065929e-01 -2.135970e-01 -4.090800e-01 -2.987936e-01 -7.743730e-03 1.404481e-01 6.615357e-03 -2.705631e-01 -4.018866e-01 -2.889946e-01 4.863051e-03 2.199636e-04 3.474038e-04 -1.378030e-03 -2.647154e-03 -3.153376e-03 -2.832838e-03 -7.897923e-04 -2.580120e-03 -2.968015e-03 -3.334296e-03 -2.732549e-03 9.460221e-03
<VARIANCE> 25
 6.120131e+01 4.457326e+01 5.330105e+01 5.482956e+01 6.151952e+01 5.587243e+01 5.499591e+01 4.896024e+01 4.489576e+01 3.715641e+01 3.472723e+01 3.135448e+01 2.687474e+00 2.349086e+00 2.233013e+00 2.803695e+00 3.135995e+00 2.980416e+00 3.186998e+00 3.152690e+00 2.951827e+00 2.553506e+00 2.369548e+00 2.064217e+00 2.785809e+00
<GCONST> 1.051426e+02
<STATE> 4
<MEAN> 25
 3.791539e-01 -4.122682e-01 1.201605e-01 -2.412801e-01 -4.364687e-01 -3.415309e-01 -5.305882e-02 1.181867e-01 -1.438709e-02 -2.772856e-01 -4.201626e-01 -3.170173e-01 2.766297e-03 1.440862e-03 1.891389e-04 -3.627949e-04 -1.088763e-03 -2.634319e-03 -2.206276e-03 -1.094137e-03 -1.778839e-03 -1.381567e-03 -1.914056e-03 -1.599149e-03 6.339657e-03
<VARIANCE> 25
 5.913962e+01 4.318161e+01 5.212515e+01 5.302714e+01 6.090768e+01 5.457872e+01 5.386063e+01 4.788956e+01 4.412186e+01 3.650026e+01 3.428042e+01 3.097858e+01 2.514060e+00 2.219761e+00 2.144461e+00 2.666501e+00 3.026487e+00 2.883191e+00 3.071768e+00 3.052561e+00 2.868478e+00 2.483169e+00 2.311908e+00 2.019805e+00 2.584876e+00
<GCONST> 1.043547e+02
<TRANSP> 5
 0.000000e+00 1.000000e+00 0.000000e+00 0.000000e+00 0.000000e+00
 0.000000e+00 7.115810e-01 2.884190e-01 0.000000e+00 0.000000e+00
 0.000000e+00 0.000000e+00 7.115838e-01 2.884162e-01 0.000000e+00
 0.000000e+00 0.000000e+00 0.000000e+00 8.460442e-01 1.539558e-01
 0.000000e+00 0.000000e+00 0.000000e+00 0.000000e+00 0.000000e+00
<ENDHMM>
~h "ah"
<BEGINHMM>
<NUMSTATES> 5
<STATE> 2
<MEAN> 25
 4.050327e-01 -1.194310e-01 -1.958801e-01 -5.299129e-01 -8.111930e-02 -4.014593e-02 -3.963806e-01 -3.033588e-01 6.052897e-02 -2.046417e-02 -2.127818e-01 -3.292654e-01 2.584364e-03 2.393456e-03 1.793669e-03 6.492676e-04 -9.197061e-05 -2.753125e-03 1.089193e-03 -1.230666e-03 1.561793e-04 -1.448474e-03 -1.449973e-03 -1.683848e-03 5.445466e-03
<VARIANCE> 25
 6.642004e+01 4.232727e+01 5.284422e+01 6.058909e+01 6.040068e+01 5.632880e+01 5.569157e+01 4.864579e+01 4.560155e+01 3.715928e+01 3.403698e+01 3.147010e+01 2.951310e+00 2.371004e+00 2.310078e+00 3.098982e+00 3.133700e+00 3.092080e+00 3.296178e+00 3.164252e+00 3.026409e+00 2.608170e+00 2.425266e+00 2.127911e+00 2.758907e+00
<GCONST> 1.056597e+02
<STATE> 3
<MEAN> 25
 4.099551e-01 -1.107143e-01 -1.891046e-01 -5.265566e-01 -7.917143e-02 -4.850859e-02 -3.905883e-01 -3.061429e-01 6.029369e-02 -2.295459e-02 -2.164364e-01 -3.328163e-01 1.322494e-03 2.731351e-03 2.939409e-03 1.858054e-03 1.889927e-05 -3.146962e-03 1.894032e-03 -5.463307e-04 -4.425422e-04 -1.067269e-03 -9.953047e-04 -6.298890e-04 2.726682e-03
<VARIANCE> 25
 6.643355e+01 4.230478e+01 5.281236e+01 6.056499e+01 6.035750e+01 5.629788e+01 5.569883e+01 4.857839e+01 4.558604e+01 3.715883e+01 3.405607e+01 3.145352e+01 2.954187e+00 2.373678e+00 2.309416e+00 3.103168e+00 3.135111e+00 3.094260e+00 3.296777e+00 3.164382e+00 3.027812e+00 2.609830e+00 2.426783e+00 2.129037e+00 2.760445e+00
<GCONST> 1.056628e+02
<STATE> 4
<MEAN> 25
 4.367144e-01 -9.414805e-02 -1.407768e-01 -5.308754e-01 -1.192024e-01 -8.270510e-02 -3.911322e-01 -3.086260e-01 1.896362e-02 -3.113719e-02 -2.266947e-01 -3.422152e-01 -9.093297e-04 2.820310e-03 3.415212e-03 2.754436e-03 5.044196e-04 -2.435720e-03 2.653325e-03 1.475548e-04 -9.581316e-04 -1.201300e-04 -8.558549e-05 5.546449e-04 -9.864508e-04
<VARIANCE> 25
 6.422576e+01 4.076363e+01 5.162012e+01 5.876099e+01 5.951994e+01 5.496647e+01 5.472499e+01 4.756793e+01 4.487611e+01 3.657335e+01 3.355061e+01 3.108388e+01 2.753715e+00 2.225517e+00 2.209703e+00 2.944496e+00 3.025562e+00 2.994569e+00 3.174541e+00 3.058362e+00 2.943587e+00 2.539650e+00 2.362214e+00 2.080625e+00 2.554996e+00
<GCONST> 1.048496e+02
<TRANSP> 5
 0.000000e+00 1.000000e+00 0.000000e+00 0.000000e+00 0.000000e+00
 0.000000e+00 7.093333e-01 2.906667e-01 0.000000e+00 0.000000e+00
 0.000000e+00 0.000000e+00 7.093337e-01 2.906663e-01 0.000000e+00
 0.000000e+00 0.000000e+00 0.000000e+00 8.443146e-01 1.556855e-01
 0.000000e+00 0.000000e+00 0.000000e+00 0.000000e+00 0.000000e+00
<ENDHMM>
~h "ao"
<BEGINHMM>
<NUMSTATES> 5
<STATE> 2
<MEAN> 25
 6.860921e-01 -3.912172e-03 -6.651304e-01 -8.166145e-01 -1.438030e-01 3.383398e-01 -1.891676e-01 -2.110974e-01 -6.539405e-02 -6.652157e-02 6.325658e-02 -4.769293e-02 2.929315e-03 -3.122899e-03 -3.070472e-03 -1.650431e-03 3.608447e-03 -7.553537e-04 -4.231588e-04 1.118223e-04 5.474339e-04 -8.806767e-04 -4.349459e-04 -7.770367e-04 3.982269e-03
<VARIANCE> 25
 6.664644e+01 3.896671e+01 5.639134e+01 7.084701e+01 6.345441e+01 5.748769e+01 5.627356e+01 4.810498e+01 4.556999e+01 3.720293e+01 3.293105e+01 3.060491e+01 2.686185e+00 2.046456e+00 2.260152e+00 3.049742e+00 3.124409e+00 2.968246e+00 3.229562e+00 3.023853e+00 2.959080e+00 2.528322e+00 2.335395e+00 2.049639e+00 2.297083e+00
<GCONST> 1.051093e+02
<STATE> 3
<MEAN> 25
 6.898779e-01 -1.094388e-02 -6.731362e-01 -8.181422e-01 -1.293657e-01 3.366289e-01 -1.871287e-01 -2.087509e-01 -6.267440e-02 -6.816319e-02 6.178964e-02 -4.994591e-02 6.960870e-04 -2.257090e-03 -1.332975e-03 2.744607e-04 4.120799e-03 -1.514243e-03 3.566927e-04 9.369211e-04 3.897146e-04 -6.218576e-04 -7.506480e-04 -6.870944e-04 9.240552e-04
<VARIANCE> 25
 6.651174e+01 3.895306e+01 5.641961e+01 7.088613e+01 6.338244e+01 5.748932e+01 5.629992e+01 4.807513e+01 4.551492e+01 3.716835e+01 3.294121e+01 3.057109e+01 2.681431e+00 2.044492e+00 2.259756e+00 3.048390e+00 3.119313e+00 2.968599e+00 3.230337e+00 3.023625e+00 2.957116e+00 2.528615e+00 2.335958e+00 2.049357e+00 2.291632e+00
<GCONST> 1.050963e+02
<STATE> 4
<MEAN> 25
 6.811761e-01 8.359163e-03 -6.132190e-01 -8.232828e-01 -1.541500e-01 2.936127e-01 -1.896206e-01 -2.163426e-01 -6.952002e-02 -8.078592e-02 4.030432e-02 -6.311655e-02 -2.548519e-03 -8.931256e-04 6.217316e-04 2.631655e-03 4.227996e-03 -1.246137e-03 1.601701e-03 1.755565e-03 3.702538e-04 5.866273e-05 -8.553124e-04 -1.541259e-04 -3.476159e-03
<VARIANCE> 25
 6.435083e+01 3.769938e+01 5.502478e+01 6.943792e+01 6.265781e+01 5.615887e+01 5.520459e+01 4.701730e+01 4.446579e+01 3.657645e+01 3.244910e+01 3.003239e+01 2.484282e+00 1.919396e+00 2.155754e+00 2.891665e+00 2.994555e+00 2.863225e+00 3.099376e+00 2.913624e+00 2.854990e+00 2.457164e+00 2.273916e+00 1.996620e+00 2.110906e+00
<GCONST> 1.042421e+02
<TRANSP> 5
 0.000000e+00 1.000000e+00 0.000000e+00 0.000000e+00 0.000000e+00
 0.000000e+00 7.134611e-01 2.865390e-01 0.000000e+00 0.000000e+00
 0.000000e+00 0.000000e+00 7.134694e-01 2.865307e-01 0.000000e+00
 0.000000e+00 0.000000e+00 0.000000e+00 8.482668e-01 1.517331e-01
 0.000000e+00 0.000000e+00 0.000000e+00 0.000000e+00 0.000000e+00
<ENDHMM>
~h "aw"
<BEGINHMM>
<NUMSTATES> 5
<STATE> 2
<MEAN> 25
 5.344911e-01 -5.140416e-01 -9.373350e-01 -6.366742e-01 2.622794e-01 4.039137e-01 -2.415701e-02 -9.392600e-02 1.992257e-01 5.428459e-03 -2.742078e-01 -3.164465e-01 2.612445e-03 2.098474e-03 -4.607020e-05 -6.198692e-03 -1.525342e-03 1.151139e-03 -3.498212e-03 -3.792490e-03 -2.531064e-03 -1.043748e-03 -4.958323e-04 5.454737e-04 3.398302e-03
<VARIANCE> 25
 6.210866e+01 4.434669e+01 4.947769e+01 5.904659e+01 5.651390e+01 5.472905e+01 5.217954e+01 4.585852e+01 4.267757e+01 3.639950e+01 3.396531e+01 3.194003e+01 2.493253e+00 2.167156e+00 2.060699e+00 2.725115e+00 2.885482e+00 2.847264e+00 3.010784e+00 2.980316e+00 2.801611e+00 2.454492e+00 2.303373e+00 2.054154e+00 2.381518e+00
<GCONST> 1.040652e+02
<STATE> 3
<MEAN> 25
 5.385981e-01 -5.025048e-01 -9.344814e-01 -6.522692e-01 2.592770e-01 4.058670e-01 -3.413500e-02 -1.044401e-01 1.887073e-01 1.799123e-03 -2.751508e-01 -3.132876e-01 1.243869e-04 4.375024e-03 2.689993e-03 -3.278125e-03 -1.684114e-03 -1.050802e-05 -2.960932e-03 -2.309471e-03 -3.476603e-03 -7.311756e-04 3.973473e-04 2.436715e-03 -2.446695e-03
<VARIANCE> 25
 6.209710e+01 4.444180e+01 4.949814e+01 5.932120e+01 5.651198e+01 5.480795e+01 5.219864e+01 4.587061e+01 4.265285e+01 3.640383e+01 3.397573e+01 3.192479e+01 2.493652e+00 2.165329e+00 2.061708e+00 2.728212e+00 2.886028e+00 2.851650e+00 3.009326e+00 2.981540e+00 2.802378e+00 2.457467e+00 2.303934e+00 2.053844e+00 2.371681e+00
<GCONST> 1.040737e+02
<STATE> 4
<MEAN> 25
 5.113174e-01 -4.382305e-01 -8.728793e-01 -6.632540e-01 2.254111e-01 3.728615e-01 -5.093183e-02 -1.188098e-01 1.525271e-01 -9.214219e-03 -2.647649e-01 -2.897807e-01 -2.698872e-03 6.247160e-03 5.117625e-03 -1.686691e-04 -1.082326e-03 -1.332754e-03 -2.202586e-03 -8.577094e-04 -3.948425e-03 -3.146697e-04 1.462613e-03 3.048146e-03 -6.302963e-03
<VARIANCE> 25
 5.999045e+01 4.288436e+01 4.825233e+01 5.812841e+01 5.548579e+01 5.344492e+01 5.104691e+01 4.476409e+01 4.163167e+01 3.559670e+01 3.338824e+01 3.130872e+01 2.315795e+00 2.020951e+00 1.966642e+00 2.574439e+00 2.764669e+00 2.743406e+00 2.884035e+00 2.869502e+00 2.706839e+00 2.378453e+00 2.235575e+00 1.993519e+00 2.167442e+00
<GCONST> 1.031558e+02
<TRANSP> 5
 0.000000e+00 1.000000e+00 0.000000e+00 0.000000e+00 0.000000e+00
 0.000000e+00 7.197087e-01 2.802913e-01 0.000000e+00 0.000000e+00
 0.000000e+00 0.000000e+00 7.197102e-01 2.802898e-01 0.000000e+00
 0.000000e+00 0.000000e+00 0.000000e+00 8.547857e-01 1.452143e-01
 0.000000e+00 0.000000e+00 0.000000e+00 0.000000e+00 0.000000e+00
<ENDHMM>
~h "ax"
<BEGINHMM>
<NUMSTATES> 5
<STATE> 2
<MEAN> 25
 2.433000e-01 7.772135e-02 9.529822e-02 -2.198043e-01 -1.572131e-01 -2.182881e-01 -2.162285e-01 -1.800642e-01 -2.544260e-02 -5.845150e-02 -1.135781e-01 -1.436743e-01 -2.040921e-03 1.646809e-04 -1.448549e-03 2.239088e-03 3.094313e-03 3.872372e-03 2.764871e-03 1.061557e-03 4.434812e-04 3.683256e-04 1.042639e-03 2.019460e-03 -7.048692e-03
<VARIANCE> 25
 6.295810e+01 4.111469e+01 5.332762e+01 5.791712e+01 6.164172e+01 5.669582e+01 5.553840e+01 4.792705e+01 4.391118e+01 3.608628e+01 3.279914e+01 3.016088e+01 2.836246e+00 2.272066e+00 2.222575e+00 2.932229e+00 3.136434e+00 2.986096e+00 3.234490e+00 3.111911e+00 2.945536e+00 2.532748e+00 2.345474e+00 2.045740e+00 2.685626e+00
<GCONST> 1.050016e+02
<STATE> 3
<MEAN> 25
 2.353529e-01 7.809477e-02 8.951984e-02 -2.117277e-01 -1.463711e-01 -2.049242e-01 -2.051101e-01 -1.766168e-01 -2.269692e-02 -5.546565e-02 -1.086498e-01 -1.362936e-01 -3.475955e-03 -3.057813e-05 -1.993717e-03 3.075363e-03 3.676119e-03 4.341442e-03 3.758940e-03 1.812242e-03 6.570751e-04 9.570218e-04 1.542374e-03 2.662824e-03 -9.449317e-03
<VARIANCE> 25
 6.289906e+01 4.105080e+01 5.325587e+01 5.788808e+01 6.157443e+01 5.664967e+01 5.547986e+01 4.788501e+01 4.385075e+01 3.603771e+01 3.275756e+01 3.013696e+01 2.826806e+00 2.265024e+00 2.217314e+00 2.924501e+00 3.127033e+00 2.979488e+00 3.227095e+00 3.105316e+00 2.939597e+00 2.528245e+00 2.341239e+00 2.042638e+00 2.672542e+00
<GCONST> 1.049555e+02
<STATE> 4
<MEAN> 25
 2.346289e-01 7.108732e-02 9.191424e-02 -2.049012e-01 -1.567660e-01 -1.995195e-01 -1.989428e-01 -1.725798e-01 -2.722588e-02 -4.912677e-02 -1.057122e-01 -1.320266e-01 -4.330666e-03 -1.927155e-04 -2.312189e-03 3.585244e-03 4.061540e-03 4.344846e-03 4.549685e-03 2.336026e-03 1.050078e-03 1.576617e-03 2.011706e-03 3.072798e-03 -1.093099e-02
<VARIANCE> 25
 6.031775e+01 3.937778e+01 5.176180e+01 5.567158e+01 6.060362e+01 5.495426e+01 5.417004e+01 4.657241e+01 4.289326e+01 3.531503e+01 3.221924e+01 2.960293e+01 2.615761e+00 2.119628e+00 2.117404e+00 2.748714e+00 2.991272e+00 2.857312e+00 3.087618e+00 2.978992e+00 2.835585e+00 2.447019e+00 2.270088e+00 1.993954e+00 2.452510e+00
<GCONST> 1.039962e+02
<TRANSP> 5
 0.000000e+00 1.000000e+00 0.000000e+00 0.000000e+00 0.000000e+00
 0.000000e+00 7.042047e-01 2.957952e-01 0.000000e+00 0.000000e+00
 0.000000e+00 0.000000e+00 7.041594e-01 2.958406e-01 0.000000e+00
 0.000000e+00 0.000000e+00 0.000000e+00 8.383350e-01 1.616649e-01
 0.000000e+00 0.000000e+00 0.000000e+00 0.000000e+00 0.000000e+00
<ENDHMM>
~h "ay"
<BEGINHMM>
<NUMSTATES> 5
<STATE> 2
<MEAN> 25
 2.167437e-01 -4.886333e-01 -4.202291e-01 -2.703450e-01 1.245257e-01 2.127483e-01 2.041175e-01 1.338330e-01 2.070277e-01 -1.127468e-02 -2.031859e-01 -1.941219e-01 8.483211e-03 -4.655286e-03 6.286302e-03 -5.337264e-03 -9.380040e-03 -7.548854e-03 -5.636168e-03 -6.150220e-04 -4.336494e-03 -6.205674e-03 -4.008903e-03 -6.471741e-03 2.404314e-02
<VARIANCE> 25
 5.725024e+01 4.319722e+01 5.130953e+01 5.614684e+01 5.994946e+01 5.567915e+01 5.109341e+01 4.680338e+01 4.310099e+01 3.523526e+01 3.362782e+01 3.129537e+01 2.357021e+00 2.112778e+00 2.207420e+00 2.723197e+00 3.002432e+00 2.939151e+00 2.930848e+00 3.037040e+00 2.857306e+00 2.437809e+00 2.341224e+00 2.028973e+00 2.455276e+00
<GCONST> 1.040633e+02
<STATE> 3
<MEAN> 25
 2.425258e-01 -5.025979e-01 -3.993250e-01 -2.856585e-01 9.201670e-02 1.899548e-01 1.877350e-01 1.326807e-01 1.923358e-01 -3.119951e-02 -2.157843e-01 -2.141067e-01 6.573267e-03 -2.567858e-03 7.230659e-03 -3.027675e-03 -9.690635e-03 -7.403554e-03 -5.008943e-03 6.849167e-05 -5.159787e-03 -5.634263e-03 -2.961430e-03 -4.874647e-03 1.899191e-02
<VARIANCE> 25
 5.722717e+01 4.342928e+01 5.142414e+01 5.617592e+01 6.006638e+01 5.575484e+01 5.109195e+01 4.678722e+01 4.314258e+01 3.525882e+01 3.370279e+01 3.133731e+01 2.360932e+00 2.123176e+00 2.212624e+00 2.726825e+00 3.013353e+00 2.946504e+00 2.935788e+00 3.042954e+00 2.860793e+00 2.442569e+00 2.345887e+00 2.031153e+00 2.452238e+00
<GCONST> 1.041041e+02
<STATE> 4
<MEAN> 25
 2.996365e-01 -5.011165e-01 -3.515250e-01 -3.306836e-01 7.777908e-03 1.364323e-01 1.204552e-01 1.021622e-01 1.527404e-01 -5.346692e-02 -2.416566e-01 -2.452338e-01 2.988450e-03 -2.882745e-04 6.180365e-03 -1.236733e-03 -7.267381e-03 -5.112204e-03 -3.264777e-03 -2.751588e-04 -4.588054e-03 -3.202804e-03 -1.617690e-03 -2.426836e-03 1.152650e-02
<VARIANCE> 25
 5.512562e+01 4.205240e+01 5.025243e+01 5.448133e+01 5.934356e+01 5.451188e+01 4.998246e+01 4.556974e+01 4.219901e+01 3.452842e+01 3.313630e+01 3.096400e+01 2.188980e+00 1.992535e+00 2.111263e+00 2.582151e+00 2.898318e+00 2.843240e+00 2.823211e+00 2.933333e+00 2.768300e+00 2.367865e+00 2.278210e+00 1.980051e+00 2.247521e+00
<GCONST> 1.032291e+02
<TRANSP> 5
 0.000000e+00 1.000000e+00 0.000000e+00 0.000000e+00 0.000000e+00
 0.000000e+00 7.220322e-01 2.779678e-01 0.000000e+00 0.000000e+00
 0.000000e+00 0.000000e+00 7.220362e-01 2.779638e-01 0.000000e+00
 0.000000e+00 0.000000e+00 0.000000e+00 8.585594e-01 1.414406e-01
 0.000000e+00 0.000000e+00 0.000000e+00 0.000000e+00 0.000000e+00
<ENDHMM>
~h "ch"
<BEGINHMM>
<NUMSTATES> 5
<STATE> 2
<MEAN> 25
 -5.494518e-01 -1.970275e-01 5.692910e-01 -2.537336e-01 -4.544585e-01 -2.956777e-01 -2.510764e-01 -1.685258e-01 1.320874e-01 -1.979672e-01 5.928701e-02 -1.696246e-02 2.447425e-03 5.541334e-04 -2.078045e-03 -1.686718e-03 4.726922e-03 1.146022e-04 -1.442144e-03 -6.780887e-04 1.625119e-03 -1.469968e-03 -3.754125e-04 -1.250748e-03 1.719738e-03
<VARIANCE> 25
 7.809624e+01 4.161001e+01 5.748007e+01 5.468482e+01 6.067208e+01 5.715032e+01 5.690236e+01 4.723539e+01 4.548433e+01 3.640767e+01 3.290726e+01 2.952549e+01 3.692250e+00 2.321500e+00 2.425279e+00 2.961690e+00 3.193890e+00 3.182568e+00 3.467961e+00 3.105757e+00 2.985904e+00 2.600954e+00 2.381282e+00 2.052383e+00 2.941824e+00
<GCONST> 1.059563e+02
<STATE> 3
<MEAN> 25
 -5.425275e-01 -1.917177e-01 5.595842e-01 -2.566289e-01 -4.370538e-01 -2.945860e-01 -2.526288e-01 -1.693224e-01 1.368570e-01 -2.001542e-01 5.889592e-02 -1.960850e-02 5.105063e-03 1.268386e-03 -3.653787e-03 -1.753623e-03 4.925123e-03 1.108411e-03 -1.334051e-03 -5.952458e-04 5.969973e-04 -1.026098e-03 -9.337680e-04 -1.856151e-03 -6.994976e-04
<VARIANCE> 25
 7.791900e+01 4.155309e+01 5.746601e+01 5.473024e+01 6.069871e+01 5.703650e+01 5.686343e+01 4.720527e+01 4.545975e+01 3.643050e+01 3.289218e+01 2.952927e+01 3.679284e+00 2.315278e+00 2.420593e+00 2.962877e+00 3.191271e+00 3.175744e+00 3.465136e+00 3.102110e+00 2.983943e+00 2.600678e+00 2.379523e+00 2.052259e+00 2.928016e+00
<GCONST> 1.059312e+02
<STATE> 4
<MEAN> 25
 -4.684297e-01 -1.762483e-01 5.561262e-01 -2.777222e-01 -4.363252e-01 -3.126457e-01 -2.693631e-01 -1.911618e-01 1.053418e-01 -2.036049e-01 4.138075e-02 -4.979424e-02 6.456527e-03 2.748441e-03 -5.539443e-03 -2.894262e-04 5.541319e-03 2.482435e-03 2.045458e-05 2.107554e-04 -3.422388e-04 1.982908e-04 -9.888494e-04 -1.232180e-03 -7.117464e-03
<VARIANCE> 25
 7.409275e+01 4.004230e+01 5.642209e+01 5.285859e+01 6.009501e+01 5.546340e+01 5.577218e+01 4.617024e+01 4.445144e+01 3.576204e+01 3.226600e+01 2.911029e+01 3.376566e+00 2.156105e+00 2.309638e+00 2.795528e+00 3.064268e+00 3.041623e+00 3.311379e+00 2.984014e+00 2.885226e+00 2.517069e+00 2.304480e+00 2.002510e+00 2.662470e+00
<GCONST> 1.049886e+02
<TRANSP> 5
 0.000000e+00 1.000000e+00 0.000000e+00 0.000000e+00 0.000000e+00
 0.000000e+00 7.128098e-01 2.871902e-01 0.000000e+00 0.000000e+00
 0.000000e+00 0.000000e+00 7.128090e-01 2.871910e-01 0.000000e+00
 0.000000e+00 0.000000e+00 0.000000e+00 8.482895e-01 1.517105e-01
 0.000000e+00 0.000000e+00 0.000000e+00 0.000000e+00 0.000000e+00
<ENDHMM>
~h "dh"
<BEGINHMM>
<NUMSTATES> 5
<STATE> 2
<MEAN> 25
 -4.485896e-02 8.294959e-02 -1.535422e-01 2.527115e-01 1.364359e-01 1.362813e-02 6.636772e-02 1.093517e-01 2.199616e-01 1.434045e-01 -1.383028e-02 9.092799e-02 1.121429e-02 -1.041844e-03 5.972502e-03 -7.305831e-03 -1.117734e-02 -1.026422e-02 -1.114979e-02 -6.356115e-03 -4.269280e-03 -7.100199e-03 -3.126569e-03 -5.262600e-03 3.392431e-02
<VARIANCE> 25
 5.792272e+01 3.875321e+01 4.836615e+01 5.367772e+01 5.946288e+01 5.512299e+01 5.318002e+01 4.621090e+01 4.233765e+01 3.483700e+01 3.203508e+01 2.984246e+01 2.456957e+00 2.097781e+00 2.071452e+00 2.697371e+00 2.976288e+00 2.866840e+00 3.081065e+00 2.932484e+00 2.803020e+00 2.436182e+00 2.258923e+00 1.980234e+00 2.663362e+00
<GCONST> 1.036902e+02
<STATE> 3
<MEAN> 25
 -1.286113e-02 8.067115e-02 -1.374028e-01 2.320143e-01 1.043258e-01 -1.607011e-02 3.562083e-02 8.994645e-02 2.059540e-01 1.216525e-01 -2.221373e-02 7.444295e-02 1.035485e-02 -1.073208e-03 5.585982e-03 -7.259349e-03 -1.063173e-02 -9.241522e-03 -9.777784e-03 -5.975178e-03 -4.918717e-03 -7.019069e-03 -2.360143e-03 -5.351283e-03 3.139403e-02
<VARIANCE> 25
 5.800622e+01 3.888819e+01 4.858355e+01 5.373553e+01 5.958521e+01 5.518322e+01 5.321919e+01 4.621314e+01 4.235144e+01 3.483834e+01 3.205725e+01 2.981056e+01 2.468922e+00 2.105539e+00 2.077765e+00 2.703049e+00 2.986216e+00 2.874526e+00 3.086385e+00 2.938750e+00 2.806043e+00 2.440302e+00 2.262415e+00 1.983041e+00 2.650970e+00
<GCONST> 1.037292e+02
<STATE> 4
<MEAN> 25
 3.510764e-02 5.826050e-02 -9.868664e-02 1.771708e-01 4.111762e-02 -8.784869e-02 -1.347845e-02 6.098090e-02 1.696358e-01 7.553919e-02 -3.981515e-02 3.890100e-02 7.933130e-03 -1.565112e-03 3.811072e-03 -6.766583e-03 -9.298536e-03 -7.965553e-03 -7.759903e-03 -5.221503e-03 -4.265902e-03 -5.855700e-03 -1.937853e-03 -4.633240e-03 2.611998e-02
<VARIANCE> 25
 5.601164e+01 3.759155e+01 4.768800e+01 5.188676e+01 5.901137e+01 5.384156e+01 5.233869e+01 4.515938e+01 4.163055e+01 3.419765e+01 3.154966e+01 2.927347e+01 2.309213e+00 1.982976e+00 1.992035e+00 2.562320e+00 2.886473e+00 2.783978e+00 2.978988e+00 2.846267e+00 2.728385e+00 2.377228e+00 2.206125e+00 1.939658e+00 2.425061e+00
<GCONST> 1.029163e+02
<TRANSP> 5
 0.000000e+00 1.000000e+00 0.000000e+00 0.000000e+00 0.000000e+00
 0.000000e+00 7.109075e-01 2.890926e-01 0.000000e+00 0.000000e+00
 0.000000e+00 0.000000e+00 7.108947e-01 2.891052e-01 0.000000e+00
 0.000000e+00 0.000000e+00 0.000000e+00 8.449731e-01 1.550270e-01
 0.000000e+00 0.000000e+00 0.000000e+00 0.000000e+00 0.000000e+00
<ENDHMM>
~h "dx"
<BEGINHMM>
<NUMSTATES> 5
<STATE> 2
<MEAN> 25
 5.138445e-01 -1.021089e-01 4.911729e-01 -2.282079e-01 -7.056566e-01 -6.376559e-01 -5.213879e-01 -2.630401e-01 -2.107169e-01 -1.447632e-01 -5.548602e-02 -2.164250e-01 -8.480770e-03 2.057497e-03 -6.288421e-03 5.546338e-03 1.146123e-02 1.283412e-02 8.854847e-03 3.065053e-03 3.041747e-03 3.544081e-03 9.115623e-04 5.107846e-03 -2.793634e-02
<VARIANCE> 25
 6.225140e+01 4.178693e+01 6.171386e+01 5.741784e+01 6.723933e+01 5.823501e+01 5.872000e+01 4.925368e+01 4.677816e+01 3.655212e+01 3.346624e+01 3.048340e+01 2.772610e+00 2.294116e+00 2.464477e+00 3.053146e+00 3.447332e+00 3.128534e+00 3.387746e+00 3.225045e+00 3.051589e+00 2.592211e+00 2.428424e+00 2.104183e+00 2.633360e+00
<GCONST> 1.059031e+02
<STATE> 3
<MEAN> 25
 4.843728e-01 -9.368056e-02 4.647917e-01 -2.106184e-01 -6.620830e-01 -5.915892e-01 -4.890612e-01 -2.537444e-01 -1.981541e-01 -1.310841e-01 -5.138138e-02 -1.996512e-01 -1.015467e-02 2.739989e-03 -7.725343e-03 6.121872e-03 1.358591e-02 1.495506e-02 1.027963e-02 3.464874e-03 3.095791e-03 4.317320e-03 9.760248e-04 5.479484e-03 -3.090177e-02
<VARIANCE> 25
 6.209624e+01 4.166898e+01 6.137519e+01 5.740918e+01 6.700543e+01 5.816339e+01 5.856125e+01 4.913442e+01 4.660768e+01 3.648513e+01 3.339897e+01 3.045830e+01 2.755095e+00 2.283092e+00 2.448920e+00 3.042107e+00 3.424024e+00 3.115020e+00 3.370498e+00 3.210724e+00 3.040606e+00 2.584962e+00 2.420253e+00 2.098569e+00 2.615160e+00
<GCONST> 1.058128e+02
<STATE> 4
<MEAN> 25
 4.299113e-01 -6.295477e-02 3.771625e-01 -1.825385e-01 -5.460289e-01 -4.882532e-01 -4.204466e-01 -2.444494e-01 -1.667555e-01 -1.021632e-01 -5.573168e-02 -1.782148e-01 -1.056085e-02 3.255006e-03 -9.019403e-03 6.251071e-03 1.517835e-02 1.571349e-02 1.141235e-02 3.783643e-03 3.678380e-03 4.895233e-03 1.393001e-03 5.291416e-03 -3.076313e-02
<VARIANCE> 25
 5.972999e+01 3.994426e+01 5.911361e+01 5.535949e+01 6.545958e+01 5.649364e+01 5.710221e+01 4.782076e+01 4.545387e+01 3.574300e+01 3.266523e+01 3.007602e+01 2.554399e+00 2.125801e+00 2.312013e+00 2.854122e+00 3.247752e+00 2.977498e+00 3.214206e+00 3.074708e+00 2.929274e+00 2.502955e+00 2.338568e+00 2.039285e+00 2.387553e+00
<GCONST> 1.047918e+02
<TRANSP> 5
 0.000000e+00 1.000000e+00 0.000000e+00 0.000000e+00 0.000000e+00
 0.000000e+00 7.064027e-01 2.935973e-01 0.000000e+00 0.000000e+00
 0.000000e+00 0.000000e+00 7.064021e-01 2.935980e-01 0.000000e+00
 0.000000e+00 0.000000e+00 0.000000e+00 8.397512e-01 1.602487e-01
 0.000000e+00 0.000000e+00 0.000000e+00 0.000000e+00 0.000000e+00
<ENDHMM>
~h "eh"
<BEGINHMM>
<NUMSTATES> 5
<STATE> 2
<MEAN> 25
 8.548591e-02 -1.465951e-01 4.729681e-02 -1.887339e-03 -2.234824e-01 -4.061868e-01 -9.723234e-02 2.006951e-01 9.675760e-02 -6.535446e-02 -1.204846e-01 -8.248808e-02 5.281647e-03 -4.388173e-04 2.127955e-03 -1.809678e-03 -3.195410e-03 -4.577616e-03 -4.321747e-03 -2.620711e-03 -1.664138e-03 -2.829632e-03 -5.720812e-04 -1.455009e-03 1.080215e-02
<VARIANCE> 25
 6.213914e+01 4.165741e+01 5.164680e+01 5.353403e+01 6.208169e+01 5.588008e+01 5.550733e+01 4.801471e+01 4.372903e+01 3.544070e+01 3.269540e+01 3.005916e+01 2.710549e+00 2.255624e+00 2.184247e+00 2.743182e+00 3.102678e+00 2.901434e+00 3.172668e+00 3.110528e+00 2.886856e+00 2.479815e+00 2.319253e+00 2.024277e+00 2.581523e+00
<GCONST> 1.045575e+02
<STATE> 3
<MEAN> 25
 1.014869e-01 -1.466872e-01 5.293518e-02 -6.751544e-03 -2.331605e-01 -4.214520e-01 -1.099822e-01 1.917304e-01 9.187555e-02 -7.366648e-02 -1.220474e-01 -8.600713e-02 3.985104e-03 3.112261e-04 1.604876e-03 -1.544246e-03 -1.947912e-03 -3.379039e-03 -3.508640e-03 -2.773495e-03 -1.782184e-03 -2.095057e-03 -1.137593e-04 -6.971686e-04 7.732512e-03
<VARIANCE> 25
 6.218693e+01 4.169945e+01 5.172789e+01 5.359446e+01 6.218848e+01 5.599641e+01 5.561414e+01 4.803762e+01 4.379178e+01 3.544984e+01 3.269529e+01 3.004038e+01 2.712277e+00 2.257637e+00 2.186515e+00 2.745059e+00 3.105547e+00 2.904527e+00 3.174968e+00 3.113221e+00 2.889330e+00 2.481388e+00 2.319938e+00 2.024631e+00 2.576922e+00
<GCONST> 1.045762e+02
<STATE> 4
<MEAN> 25
 1.314351e-01 -1.257365e-01 8.602840e-02 -2.014967e-02 -2.624620e-01 -4.524494e-01 -1.433542e-01 1.613052e-01 7.175432e-02 -8.106150e-02 -1.276646e-01 -9.486163e-02 2.606043e-03 1.194293e-03 8.839751e-04 -1.349791e-03 -9.232387e-04 -2.040930e-03 -2.572293e-03 -2.571706e-03 -1.582206e-03 -1.164170e-03 2.405120e-04 4.521047e-05 4.633413e-03
<VARIANCE> 25
 5.994189e+01 4.035163e+01 5.085471e+01 5.179356e+01 6.161389e+01 5.498809e+01 5.463719e+01 4.690234e+01 4.307503e+01 3.487336e+01 3.218412e+01 2.957520e+01 2.520405e+00 2.124306e+00 2.091939e+00 2.594522e+00 2.992706e+00 2.806785e+00 3.053561e+00 3.001176e+00 2.802931e+00 2.414352e+00 2.258991e+00 1.973054e+00 2.377194e+00
<GCONST> 1.037495e+02
<TRANSP> 5
 0.000000e+00 1.000000e+00 0.000000e+00 0.000000e+00 0.000000e+00
 0.000000e+00 7.113748e-01 2.886253e-01 0.000000e+00 0.000000e+00
 0.000000e+00 0.000000e+00 7.113658e-01 2.886343e-01 0.000000e+00
 0.000000e+00 0.000000e+00 0.000000e+00 8.459139e-01 1.540860e-01
 0.000000e+00 0.000000e+00 0.000000e+00 0.000000e+00 0.000000e+00
<ENDHMM>
~h "er"
<BEGINHMM>
<NUMSTATES> 5
<STATE> 2
<MEAN> 25
 4.848889e-01 -2.980327e-01 -3.732441e-01 -3.257125e-03 -1.112787e-02 -3.984272e-01 -5.414367e-01 9.666908e-02 1.785034e-01 -5.754254e-02 -7.767965e-02 -5.575081e-02 -1.009837e-02 4.094491e-03 1.643124e-03 1.982773e-03 5.403777e-03 7.763403e-03 9.493918e-03 2.248982e-03 4.800473e-04 2.050309e-03 2.535698e-03 3.292894e-03 -1.727978e-02
<VARIANCE> 25
 6.713884e+01 4.051131e+01 5.372034e+01 5.451025e+01 6.041070e+01 5.849982e+01 6.182223e+01 4.742044e+01 4.485914e+01 3.609759e+01 3.278745e+01 2.999860e+01 2.808569e+00 2.169403e+00 2.247940e+00 2.717806e+00 3.035407e+00 2.965558e+00 3.330555e+00 3.054255e+00 2.890550e+00 2.492963e+00 2.313606e+00 2.018189e+00 2.365462e+00
<GCONST> 1.047829e+02
<STATE> 3
<MEAN> 25
 4.493001e-01 -2.835595e-01 -3.674018e-01 4.273457e-03 7.284630e-03 -3.691463e-01 -5.062049e-01 1.027378e-01 1.796091e-01 -4.934537e-02 -6.797480e-02 -4.460079e-02 -1.167060e-02 5.209440e-03 2.230640e-03 1.721326e-03 5.803522e-03 9.854935e-03 1.166862e-02 2.191113e-03 -7.506402e-06 2.978985e-03 2.848300e-03 3.131170e-03 -2.006260e-02
<VARIANCE> 25
 6.702271e+01 4.043958e+01 5.355681e+01 5.445451e+01 6.033508e+01 5.840316e+01 6.168181e+01 4.730309e+01 4.468064e+01 3.602563e+01 3.275050e+01 2.995837e+01 2.795347e+00 2.158962e+00 2.236990e+00 2.708673e+00 3.023506e+00 2.955616e+00 3.317307e+00 3.044707e+00 2.882414e+00 2.488374e+00 2.308853e+00 2.013149e+00 2.349867e+00
<GCONST> 1.047111e+02
<STATE> 4
<MEAN> 25
 3.859285e-01 -2.371148e-01 -3.251986e-01 -5.186975e-03 6.211605e-03 -3.076204e-01 -4.345275e-01 8.851179e-02 1.640390e-01 -3.038485e-02 -6.051217e-02 -3.870541e-02 -1.184650e-02 5.517843e-03 1.918658e-03 2.232804e-03 6.034459e-03 1.104103e-02 1.272530e-02 1.591680e-03 -2.155273e-04 3.591255e-03 2.966159e-03 3.184064e-03 -2.173511e-02
<VARIANCE> 25
 6.420029e+01 3.878705e+01 5.202219e+01 5.236281e+01 5.928751e+01 5.659383e+01 6.003714e+01 4.590094e+01 4.343958e+01 3.514899e+01 3.207236e+01 2.935980e+01 2.574630e+00 2.002226e+00 2.114460e+00 2.550753e+00 2.885412e+00 2.826977e+00 3.157031e+00 2.915955e+00 2.776936e+00 2.408257e+00 2.235974e+00 1.955978e+00 2.145484e+00
<GCONST> 1.036783e+02
<TRANSP> 5
 0.000000e+00 1.000000e+00 0.000000e+00 0.000000e+00 0.000000e+00
 0.000000e+00 7.135394e-01 2.864606e-01 0.000000e+00 0.000000e+00
 0.000000e+00 0.000000e+00 7.135538e-01 2.864462e-01 0.000000e+00
 0.000000e+00 0.000000e+00 0.000000e+00 8.483525e-01 1.516475e-01
 0.000000e+00 0.000000e+00 0.000000e+00 0.000000e+00 0.000000e+00
<ENDHMM>
~h "ey"
<BEGINHMM>
<NUMSTATES> 5
<STATE> 2
<MEAN> 25
 -1.621524e-02 -3.017979e-02 8.767923e-01 -8.114522e-03 -8.419797e-01 -4.278017e-01 8.047071e-03 -7.249998e-02 -3.260601e-01 -3.317308e-02 1.968473e-01 -4.293996e-02 7.896116e-04 1.472803e-04 -3.802234e-03 -5.359194e-04 2.530080e-03 2.895097e-03 1.669948e-03 2.070812e-04 -1.405452e-03 -9.057694e-04 -6.022018e-04 -2.827144e-04 -1.594275e-03
<VARIANCE> 25
 5.945330e+01 3.880355e+01 5.957474e+01 5.198546e+01 7.340132e+01 5.594961e+01 5.275552e+01 4.699402e+01 4.510489e+01 3.493485e+01 3.202629e+01 2.922796e+01 2.548419e+00 2.110824e+00 2.282968e+00 2.666896e+00 3.272851e+00 2.898614e+00 3.061296e+00 3.035036e+00 2.903011e+00 2.450412e+00 2.282414e+00 1.976709e+00 2.464754e+00
<GCONST> 1.044077e+02
<STATE> 3
<MEAN> 25
 -1.285247e-02 -3.022878e-02 8.587900e-01 -1.037976e-02 -8.296006e-01 -4.164622e-01 1.403143e-02 -7.218692e-02 -3.276961e-01 -3.477030e-02 1.936927e-01 -4.320280e-02 2.907356e-04 1.099884e-04 -7.131551e-03 6.037913e-04 5.744624e-03 4.186622e-03 1.664009e-03 7.241279e-04 -9.838858e-05 -3.107790e-04 -1.403637e-03 2.641054e-04 -5.216751e-03
<VARIANCE> 25
 5.949739e+01 3.879351e+01 5.955986e+01 5.206708e+01 7.336983e+01 5.595886e+01 5.268203e+01 4.695477e+01 4.509010e+01 3.491488e+01 3.203828e+01 2.923339e+01 2.547637e+00 2.108078e+00 2.282615e+00 2.668617e+00 3.271033e+00 2.898902e+00 3.059741e+00 3.031341e+00 2.900896e+00 2.449734e+00 2.282465e+00 1.976696e+00 2.462673e+00
<GCONST> 1.044016e+02
<STATE> 4
<MEAN> 25
 3.017661e-02 -4.015025e-02 7.955160e-01 -1.570951e-02 -7.888700e-01 -3.944221e-01 -1.077957e-02 -8.319145e-02 -3.185924e-01 -3.618618e-02 1.606593e-01 -6.151926e-02 6.396106e-04 9.062445e-05 -9.902953e-03 1.024455e-03 8.127069e-03 5.518974e-03 1.301199e-03 7.526943e-04 1.718591e-03 5.161762e-04 -1.747945e-03 5.363228e-04 -7.851819e-03
<VARIANCE> 25
 5.692794e+01 3.752322e+01 5.845530e+01 5.023268e+01 7.258070e+01 5.468509e+01 5.147786e+01 4.590538e+01 4.429182e+01 3.428942e+01 3.159007e+01 2.883931e+01 2.353151e+00 1.973677e+00 2.180650e+00 2.519972e+00 3.134942e+00 2.792583e+00 2.935984e+00 2.916505e+00 2.806177e+00 2.375924e+00 2.219309e+00 1.930042e+00 2.271646e+00
<GCONST> 1.035218e+02
<TRANSP> 5
 0.000000e+00 1.000000e+00 0.000000e+00 0.000000e+00 0.000000e+00
 0.000000e+00 7.162457e-01 2.837543e-01 0.000000e+00 0.000000e+00
 0.000000e+00 0.000000e+00 7.162560e-01 2.837440e-01 0.000000e+00
 0.000000e+00 0.000000e+00 0.000000e+00 8.517315e-01 1.482684e-01
 0.000000e+00 0.000000e+00 0.000000e+00 0.000000e+00 0.000000e+00
<ENDHMM>
~h "hh"
<BEGINHMM>
<NUMSTATES> 5
<STATE> 2
<MEAN> 25
 -3.122171e-01 -8.875190e-02 1.390730e-01 1.636445e-01 1.139325e-01 1.011288e-01 3.717522e-01 2.447692e-01 3.124416e-02 -3.501055e-02 -4.986141e-02 1.212346e-01 1.009074e-02 -4.530050e-04 1.370572e-02 -8.787711e-03 -1.462828e-02 -8.531688e-03 -1.091539e-02 -1.164488e-02 -8.290796e-03 -9.875130e-03 -4.612131e-03 -7.025626e-03 3.883101e-02
<VARIANCE> 25
 5.638831e+01 3.872443e+01 5.267194e+01 5.108640e+01 6.080250e+01 5.347053e+01 5.348544e+01 4.626371e+01 4.250762e+01 3.514920e+01 3.197161e+01 2.954559e+01 2.387712e+00 1.989559e+00 2.085813e+00 2.532001e+00 2.996137e+00 2.761366e+00 3.025283e+00 2.889599e+00 2.734556e+00 2.385283e+00 2.207510e+00 1.950390e+00 2.189216e+00
<GCONST> 1.032162e+02
<STATE> 3
<MEAN> 25
 -2.796206e-01 -8.896835e-02 1.793578e-01 1.386663e-01 6.981002e-02 7.812077e-02 3.382049e-01 2.084842e-01 7.413800e-03 -6.363995e-02 -6.416216e-02 9.892181e-02 1.070976e-02 5.721497e-04 1.197559e-02 -7.410079e-03 -1.363415e-02 -7.794036e-03 -1.133196e-02 -1.222656e-02 -7.481053e-03 -9.297381e-03 -4.334844e-03 -7.080436e-03 3.515119e-02
<VARIANCE> 25
 5.643455e+01 3.893233e+01 5.318857e+01 5.123125e+01 6.100115e+01 5.346901e+01 5.354891e+01 4.637963e+01 4.265355e+01 3.517517e+01 3.201705e+01 2.958293e+01 2.398109e+00 1.999158e+00 2.097718e+00 2.541119e+00 3.009456e+00 2.768744e+00 3.034633e+00 2.897469e+00 2.744069e+00 2.391156e+00 2.212373e+00 1.956013e+00 2.179325e+00
<GCONST> 1.032866e+02
<STATE> 4
<MEAN> 25
 -1.993843e-01 -1.079460e-01 2.266925e-01 7.316281e-02 -1.325403e-02 2.943178e-02 2.484935e-01 1.431998e-01 -2.709614e-02 -1.009998e-01 -8.884420e-02 5.389042e-02 9.641498e-03 4.439653e-04 8.917802e-03 -6.695520e-03 -1.111743e-02 -6.221456e-03 -9.832576e-03 -1.046847e-02 -5.768322e-03 -6.268420e-03 -3.321375e-03 -6.017956e-03 2.698803e-02
<VARIANCE> 25
 5.433596e+01 3.801110e+01 5.268645e+01 4.997090e+01 6.045508e+01 5.223312e+01 5.266533e+01 4.566465e+01 4.206156e+01 3.464599e+01 3.160191e+01 2.921677e+01 2.239810e+00 1.897253e+00 2.020203e+00 2.421728e+00 2.915143e+00 2.684129e+00 2.938235e+00 2.816334e+00 2.678003e+00 2.335608e+00 2.166028e+00 1.918815e+00 2.019299e+00
<GCONST> 1.025767e+02
<TRANSP> 5
 0.000000e+00 1.000000e+00 0.000000e+00 0.000000e+00 0.000000e+00
 0.000000e+00 7.148396e-01 2.851603e-01 0.000000e+00 0.000000e+00
 0.000000e+00 0.000000e+00 7.148160e-01 2.851840e-01 0.000000e+00
 0.000000e+00 0.000000e+00 0.000000e+00 8.489442e-01 1.510558e-01
 0.000000e+00 0.000000e+00 0.000000e+00 0.000000e+00 0.000000e+00
<ENDHMM>
~h "ih"
<BEGINHMM>
<NUMSTATES> 5
<STATE> 2
<MEAN> 25
 -2.043895e-01 2.069308e-01 3.893900e-01 1.926054e-01 -1.912994e-01 -3.442546e-01 -6.171804e-02 -4.730293e-02 -1.268722e-01 -6.116010e-02 6.672780e-02 1.011279e-01 2.375643e-03 2.588379e-04 1.475986e-03 -5.007061e-03 -2.617248e-03 -2.927731e-03 -5.128519e-03 -5.771884e-03 -2.670603e-03 -3.807348e-03 -8.661140e-04 -2.626120e-03 1.479046e-02
<VARIANCE> 25
 6.120057e+01 3.854401e+01 5.272665e+01 5.214931e+01 6.297114e+01 5.689962e+01 5.484663e+01 4.618912e+01 4.343665e+01 3.510768e+01 3.152052e+01 2.905469e+01 2.718729e+00 2.144536e+00 2.196946e+00 2.691066e+00 3.233087e+00 2.978113e+00 3.202272e+00 3.011180e+00 2.876345e+00 2.475996e+00 2.283055e+00 1.985724e+00 2.573330e+00
<GCONST> 1.042938e+02
<STATE> 3
<MEAN> 25
 -1.958322e-01 2.077071e-01 3.923939e-01 1.763815e-01 -1.988079e-01 -3.525961e-01 -7.712915e-02 -6.586587e-02 -1.351834e-01 -7.276297e-02 6.259949e-02 9.250668e-02 2.404858e-03 8.463446e-05 -7.464435e-05 -5.140110e-03 -1.150662e-03 -1.760443e-03 -4.618295e-03 -5.440879e-03 -2.412542e-03 -3.489024e-03 -1.228492e-03 -2.511845e-03 1.236108e-02
<VARIANCE> 25
 6.134271e+01 3.860129e+01 5.286954e+01 5.229395e+01 6.305059e+01 5.697886e+01 5.491557e+01 4.622138e+01 4.350277e+01 3.512791e+01 3.154197e+01 2.907538e+01 2.728751e+00 2.148423e+00 2.202297e+00 2.696954e+00 3.239249e+00 2.984823e+00 3.205194e+00 3.014688e+00 2.880469e+00 2.478957e+00 2.285387e+00 1.988024e+00 2.570984e+00
<GCONST> 1.043314e+02
<STATE> 4
<MEAN> 25
 -1.529877e-01 1.900309e-01 3.885376e-01 1.272926e-01 -2.246256e-01 -3.661346e-01 -1.111968e-01 -9.983015e-02 -1.586382e-01 -1.022428e-01 3.826602e-02 5.493013e-02 2.401204e-03 -8.911150e-05 -5.965997e-04 -4.685260e-03 -8.374578e-04 -8.825095e-04 -3.661424e-03 -4.619224e-03 -2.067533e-03 -2.352834e-03 -1.250838e-03 -2.325922e-03 9.299976e-03
<VARIANCE> 25
 5.906958e+01 3.734454e+01 5.188057e+01 5.050950e+01 6.227490e+01 5.564477e+01 5.380036e+01 4.513721e+01 4.278097e+01 3.451021e+01 3.104382e+01 2.867265e+01 2.538924e+00 2.022800e+00 2.112962e+00 2.549654e+00 3.114558e+00 2.876129e+00 3.075450e+00 2.906847e+00 2.794317e+00 2.409997e+00 2.224223e+00 1.943920e+00 2.362177e+00
<GCONST> 1.034854e+02
<TRANSP> 5
 0.000000e+00 1.000000e+00 0.000000e+00 0.000000e+00 0.000000e+00
 0.000000e+00 7.118654e-01 2.881346e-01 0.000000e+00 0.000000e+00
 0.000000e+00 0.000000e+00 7.118555e-01 2.881445e-01 0.000000e+00
 0.000000e+00 0.000000e+00 0.000000e+00 8.462250e-01 1.537750e-01
 0.000000e+00 0.000000e+00 0.000000e+00 0.000000e+00 0.000000e+00
<ENDHMM>
~h "ix"
<BEGINHMM>
<NUMSTATES> 5
<STATE> 2
<MEAN> 25
 3.951086e-01 6.169851e-02 5.395358e-01 -1.534522e-01 -5.849630e-01 -5.236612e-01 -2.913586e-01 -2.908216e-01 -4.125708e-01 -2.123375e-01 -1.260545e-01 -3.027554e-01 -5.610053e-03 1.941109e-03 -5.212853e-03 3.880774e-03 8.517018e-03 5.207687e-03 7.849038e-03 2.006179e-03 4.066188e-03 2.520583e-03 4.147217e-04 1.976757e-03 -1.007473e-02
<VARIANCE> 25
 6.448063e+01 4.161649e+01 5.809811e+01 5.617412e+01 6.570690e+01 5.728724e+01 5.612864e+01 4.941928e+01 4.728617e+01 3.683570e+01 3.353679e+01 3.083798e+01 2.894423e+00 2.326579e+00 2.443807e+00 2.979794e+00 3.416909e+00 3.125391e+00 3.316097e+00 3.254817e+00 3.091356e+00 2.610273e+00 2.423961e+00 2.111048e+00 2.701178e+00
<GCONST> 1.058519e+02
<STATE> 3
<MEAN> 25
 3.736384e-01 6.873225e-02 5.180247e-01 -1.379204e-01 -5.504674e-01 -5.029135e-01 -2.614528e-01 -2.821862e-01 -3.961482e-01 -2.021833e-01 -1.235432e-01 -2.938979e-01 -6.404677e-03 1.472826e-03 -6.628905e-03 4.476344e-03 1.005237e-02 6.002546e-03 8.547989e-03 2.983206e-03 5.138295e-03 2.679244e-03 5.300359e-04 2.425857e-03 -1.215859e-02
<VARIANCE> 25
 6.434014e+01 4.150348e+01 5.787059e+01 5.605458e+01 6.553473e+01 5.712075e+01 5.592868e+01 4.927321e+01 4.718286e+01 3.676928e+01 3.348054e+01 3.077990e+01 2.884969e+00 2.316896e+00 2.431495e+00 2.967828e+00 3.399885e+00 3.112386e+00 3.303693e+00 3.243687e+00 3.082732e+00 2.604078e+00 2.417408e+00 2.105506e+00 2.686338e+00
<GCONST> 1.057724e+02
<STATE> 4
<MEAN> 25
 3.512111e-01 6.743813e-02 4.774387e-01 -1.207110e-01 -4.933271e-01 -4.627543e-01 -2.319174e-01 -2.626715e-01 -3.624660e-01 -1.870032e-01 -1.257700e-01 -2.817060e-01 -7.450243e-03 1.232553e-03 -7.624708e-03 5.091448e-03 1.145700e-02 7.016252e-03 9.126571e-03 4.248858e-03 6.233278e-03 3.107033e-03 9.408062e-04 3.434779e-03 -1.570985e-02
<VARIANCE> 25
 6.182539e+01 4.006464e+01 5.645937e+01 5.410325e+01 6.457666e+01 5.565069e+01 5.460126e+01 4.811349e+01 4.629487e+01 3.602022e+01 3.287246e+01 3.029133e+01 2.675715e+00 2.162948e+00 2.308328e+00 2.793765e+00 3.250490e+00 2.985173e+00 3.162555e+00 3.115338e+00 2.976823e+00 2.520987e+00 2.341840e+00 2.044722e+00 2.454628e+00
<GCONST> 1.048288e+02
<TRANSP> 5
 0.000000e+00 1.000000e+00 0.000000e+00 0.000000e+00 0.000000e+00
 0.000000e+00 7.051201e-01 2.948800e-01 0.000000e+00 0.000000e+00
 0.000000e+00 0.000000e+00 7.051215e-01 2.948785e-01 0.000000e+00
 0.000000e+00 0.000000e+00 0.000000e+00 8.385401e-01 1.614599e-01
 0.000000e+00 0.000000e+00 0.000000e+00 0.000000e+00 0.000000e+00
<ENDHMM>
~h "iy"
<BEGINHMM>
<NUMSTATES> 5
<STATE> 2
<MEAN> 25
 -2.130937e-01 2.353319e-01 9.593015e-01 9.512587e-02 -5.460967e-01 -1.953051e-01 -6.714418e-02 -3.097093e-01 -4.190105e-01 -1.109818e-01 1.495994e-01 3.066610e-03 1.802539e-03 9.305057e-04 -1.232330e-03 -2.000513e-03 2.843887e-05 3.074178e-03 7.502927e-04 -2.220604e-03 -1.477228e-04 -1.081160e-03 -2.730572e-03 -1.432221e-03 2.426269e-03
<VARIANCE> 25
 5.813135e+01 3.822513e+01 6.679930e+01 5.252607e+01 6.798167e+01 5.486920e+01 5.499422e+01 4.909796e+01 4.666457e+01 3.580991e+01 3.163250e+01 2.940045e+01 2.457071e+00 2.007641e+00 2.462007e+00 2.666654e+00 3.272545e+00 2.888226e+00 3.100137e+00 3.021208e+00 2.895667e+00 2.455404e+00 2.249843e+00 1.967019e+00 2.352042e+00
<GCONST> 1.044630e+02
<STATE> 3
<MEAN> 25
 -2.067839e-01 2.361105e-01 9.507235e-01 8.819200e-02 -5.427827e-01 -1.823526e-01 -6.392993e-02 -3.147762e-01 -4.171433e-01 -1.125700e-01 1.407390e-01 -1.436616e-03 2.096915e-03 -2.284812e-04 -5.974446e-03 -1.461712e-03 2.853266e-03 4.050198e-03 1.494380e-03 -5.158410e-04 2.001943e-03 -1.530853e-04 -2.961600e-03 -1.116750e-03 -4.872775e-04
<VARIANCE> 25
 5.814164e+01 3.821698e+01 6.670839e+01 5.256116e+01 6.797567e+01 5.484544e+01 5.498879e+01 4.913354e+01 4.668700e+01 3.582330e+01 3.164666e+01 2.940379e+01 2.455384e+00 2.007652e+00 2.460008e+00 2.665730e+00 3.271127e+00 2.887746e+00 3.099422e+00 3.019638e+00 2.895689e+00 2.455368e+00 2.250950e+00 1.967124e+00 2.345670e+00
<GCONST> 1.044584e+02
<STATE> 4
<MEAN> 25
 -1.669357e-01 2.266813e-01 9.031114e-01 6.316018e-02 -5.311697e-01 -1.672029e-01 -8.470234e-02 -3.159673e-01 -3.913770e-01 -1.235866e-01 1.120907e-01 -1.949341e-02 2.458294e-03 -1.287896e-03 -9.314833e-03 -1.022905e-03 4.763133e-03 4.660468e-03 1.969751e-03 9.293774e-04 3.407829e-03 8.390099e-04 -2.415266e-03 -8.438069e-04 -3.096721e-03
<VARIANCE> 25
 5.576657e+01 3.677977e+01 6.514407e+01 5.048861e+01 6.683181e+01 5.308498e+01 5.373270e+01 4.791608e+01 4.565878e+01 3.518753e+01 3.104030e+01 2.888447e+01 2.273462e+00 1.881510e+00 2.334858e+00 2.509239e+00 3.117157e+00 2.769158e+00 2.968879e+00 2.898444e+00 2.794170e+00 2.380503e+00 2.185545e+00 1.915969e+00 2.160155e+00
<GCONST> 1.035057e+02
<TRANSP> 5
 0.000000e+00 1.000000e+00 0.000000e+00 0.000000e+00 0.000000e+00
 0.000000e+00 7.162449e-01 2.837552e-01 0.000000e+00 0.000000e+00
 0.000000e+00 0.000000e+00 7.162437e-01 2.837563e-01 0.000000e+00
 0.000000e+00 0.000000e+00 0.000000e+00 8.523799e-01 1.476202e-01
 0.000000e+00 0.000000e+00 0.000000e+00 0.000000e+00 0.000000e+00
<ENDHMM>
~h "jh"
<BEGINHMM>
<NUMSTATES> 5
<STATE> 2
<MEAN> 25
 -1.577454e-01 5.223435e-03 8.643762e-01 -7.924435e-02 -4.591767e-01 -1.425557e-01 -1.616504e-01 -1.767258e-01 -2.037258e-02 -2.085938e-01 4.505974e-03 -6.555181e-02 -1.039334e-02 3.299590e-03 -5.539341e-03 6.634599e-03 1.118804e-02 8.137676e-03 8.590098e-03 3.685244e-03 3.719507e-03 3.908893e-03 2.315207e-03 6.099488e-03 -1.895908e-02
<VARIANCE> 25
 6.682648e+01 3.992136e+01 5.996990e+01 5.498407e+01 6.347484e+01 5.530915e+01 5.424929e+01 4.732335e+01 4.403711e+01 3.557369e+01 3.178694e+01 2.910779e+01 3.201851e+00 2.185939e+00 2.286586e+00 2.793975e+00 3.057647e+00 3.080600e+00 3.157585e+00 2.988584e+00 2.821386e+00 2.455582e+00 2.260267e+00 1.976479e+00 2.558179e+00
<GCONST> 1.047971e+02
<STATE> 3
<MEAN> 25
 -1.939631e-01 1.948620e-02 8.414933e-01 -5.601785e-02 -4.181673e-01 -1.126781e-01 -1.305658e-01 -1.633763e-01 -8.295370e-03 -1.905251e-01 1.337756e-02 -4.466820e-02 -9.024973e-03 3.795673e-03 -8.339706e-03 7.077625e-03 1.231698e-02 9.350671e-03 9.135014e-03 4.034083e-03 3.869068e-03 5.150532e-03 1.978317e-03 6.007925e-03 -2.213604e-02
<VARIANCE> 25
 6.665816e+01 3.970240e+01 5.958564e+01 5.475719e+01 6.325879e+01 5.505965e+01 5.402163e+01 4.710744e+01 4.385035e+01 3.545643e+01 3.166456e+01 2.901030e+01 3.189299e+00 2.169316e+00 2.271067e+00 2.781155e+00 3.041879e+00 3.065477e+00 3.143650e+00 2.977285e+00 2.814122e+00 2.448400e+00 2.254727e+00 1.970367e+00 2.535098e+00
<GCONST> 1.046856e+02
<STATE> 4
<MEAN> 25
 -2.110008e-01 2.478705e-02 7.356519e-01 -2.835658e-02 -3.206678e-01 -4.262410e-02 -5.878724e-02 -1.272516e-01 5.614214e-03 -1.484757e-01 2.021592e-02 -2.170765e-02 -7.259714e-03 4.468773e-03 -9.995544e-03 6.798952e-03 1.226102e-02 9.048439e-03 9.179028e-03 3.841248e-03 3.283445e-03 6.133423e-03 2.198710e-03 5.619866e-03 -2.395179e-02
<VARIANCE> 25
 6.295338e+01 3.768250e+01 5.735904e+01 5.208017e+01 6.187354e+01 5.290117e+01 5.225105e+01 4.545733e+01 4.250848e+01 3.446614e+01 3.084454e+01 2.836199e+01 2.892573e+00 1.988728e+00 2.128389e+00 2.589261e+00 2.876740e+00 2.906213e+00 2.980632e+00 2.835924e+00 2.705265e+00 2.359192e+00 2.174046e+00 1.906494e+00 2.278789e+00
<GCONST> 1.034641e+02
<TRANSP> 5
 0.000000e+00 1.000000e+00 0.000000e+00 0.000000e+00 0.000000e+00
 0.000000e+00 7.186432e-01 2.813568e-01 0.000000e+00 0.000000e+00
 0.000000e+00 0.000000e+00 7.186425e-01 2.813575e-01 0.000000e+00
 0.000000e+00 0.000000e+00 0.000000e+00 8.545038e-01 1.454962e-01
 0.000000e+00 0.000000e+00 0.000000e+00 0.000000e+00 0.000000e+00
<ENDHMM>
~h "ng"
<BEGINHMM>
<NUMSTATES> 5
<STATE> 2
<MEAN> 25
 4.450319e-01 9.790265e-02 2.865801e-01 -1.801213e-01 -4.299243e-01 -2.124805e-01 -4.168818e-02 -3.251779e-01 -5.095437e-01 -1.448405e-01 -6.492078e-02 -4.146171e-01 -1.162921e-02 6.348770e-04 -1.025161e-02 8.198611e-03 1.552161e-02 8.856233e-03 8.469202e-03 1.031446e-02 1.095361e-02 6.259364e-03 4.489372e-03 8.103493e-03 -3.134643e-02
<VARIANCE> 25
 6.277925e+01 4.003756e+01 5.524713e+01 5.616613e+01 6.553533e+01 5.559314e+01 5.441011e+01 4.983302e+01 4.915594e+01 3.668165e+01 3.344698e+01 3.168682e+01 2.653770e+00 2.177383e+00 2.359471e+00 2.839686e+00 3.276413e+00 3.067242e+00 3.199290e+00 3.191464e+00 3.099425e+00 2.586550e+00 2.393109e+00 2.110264e+00 2.379034e+00
<GCONST> 1.052403e+02
<STATE> 3
<MEAN> 25
 4.024831e-01 9.868498e-02 2.485268e-01 -1.530407e-01 -3.743916e-01 -1.799527e-01 -1.091138e-02 -2.887009e-01 -4.689893e-01 -1.217737e-01 -4.913798e-02 -3.848199e-01 -1.243504e-02 4.701742e-04 -1.134704e-02 8.331848e-03 1.649630e-02 9.494319e-03 8.599462e-03 1.160194e-02 1.263101e-02 7.072820e-03 4.456846e-03 9.124170e-03 -3.340076e-02
<VARIANCE> 25
 6.256026e+01 3.988612e+01 5.486805e+01 5.601825e+01 6.528136e+01 5.545616e+01 5.419410e+01 4.960877e+01 4.892502e+01 3.657254e+01 3.333425e+01 3.159196e+01 2.640114e+00 2.162900e+00 2.336322e+00 2.819715e+00 3.250025e+00 3.048806e+00 3.182057e+00 3.170500e+00 3.081376e+00 2.574797e+00 2.382242e+00 2.099695e+00 2.362635e+00
<GCONST> 1.051129e+02
<STATE> 4
<MEAN> 25
 3.243007e-01 7.573593e-02 1.693921e-01 -1.168524e-01 -2.665292e-01 -1.326019e-01 2.186664e-02 -1.999066e-01 -3.643884e-01 -6.682023e-02 -2.805959e-02 -3.101184e-01 -1.300937e-02 -1.730249e-04 -1.196556e-02 7.517376e-03 1.645409e-02 9.924842e-03 8.590660e-03 1.135215e-02 1.311131e-02 7.869729e-03 4.322164e-03 9.697165e-03 -3.339657e-02
<VARIANCE> 25
 5.996531e+01 3.829199e+01 5.276039e+01 5.378992e+01 6.348001e+01 5.381483e+01 5.253374e+01 4.797734e+01 4.744739e+01 3.562926e+01 3.246211e+01 3.092826e+01 2.423143e+00 2.003408e+00 2.181877e+00 2.624573e+00 3.061437e+00 2.898463e+00 3.019734e+00 3.009867e+00 2.941603e+00 2.472790e+00 2.291314e+00 2.025781e+00 2.148723e+00
<GCONST> 1.039492e+02
<TRANSP> 5
 0.000000e+00 1.000000e+00 0.000000e+00 0.000000e+00 0.000000e+00
 0.000000e+00 7.108822e-01 2.891177e-01 0.000000e+00 0.000000e+00
 0.000000e+00 0.000000e+00 7.108876e-01 2.891124e-01 0.000000e+00
 0.000000e+00 0.000000e+00 0.000000e+00 8.461544e-01 1.538456e-01
 0.000000e+00 0.000000e+00 0.000000e+00 0.000000e+00 0.000000e+00
<ENDHMM>
~h "ow"
<BEGINHMM>
<NUMSTATES> 5
<STATE> 2
<MEAN> 25
 6.245335e-01 -2.073054e-03 -3.471182e-01 -7.650858e-01 -2.277835e-01 3.377663e-01 -4.571599e-01 -3.711041e-01 -1.612542e-01 2.943538e-02 3.177726e-02 -1.418352e-01 3.734624e-04 5.100854e-06 2.853973e-03 -2.938431e-03 -2.470967e-03 -5.426633e-03 -3.659415e-03 -1.145363e-03 -3.462187e-03 -7.362016e-04 -1.844305e-03 -2.402049e-03 9.698850e-03
<VARIANCE> 25
 6.395536e+01 3.922985e+01 5.156195e+01 6.667046e+01 6.234687e+01 5.574925e+01 5.692424e+01 4.902725e+01 4.575120e+01 3.737697e+01 3.388728e+01 3.136106e+01 2.494769e+00 2.054835e+00 2.117966e+00 2.914504e+00 3.010983e+00 2.884246e+00 3.104362e+00 3.058566e+00 2.941298e+00 2.543166e+00 2.341286e+00 2.054641e+00 2.309347e+00
<GCONST> 1.047045e+02
<STATE> 3
<MEAN> 25
 6.229472e-01 1.413119e-03 -3.347708e-01 -7.703211e-01 -2.351680e-01 3.179189e-01 -4.677968e-01 -3.751197e-01 -1.733044e-01 2.755326e-02 2.708890e-02 -1.498324e-01 -2.352053e-03 7.647257e-04 3.419418e-03 3.296537e-04 -1.186216e-03 -6.120282e-03 -1.951917e-03 7.431605e-05 -3.048004e-03 -1.514342e-04 -1.389366e-03 -1.759408e-03 5.400262e-03
<VARIANCE> 25
 6.420170e+01 3.926398e+01 5.159879e+01 6.663364e+01 6.247739e+01 5.582887e+01 5.703906e+01 4.908552e+01 4.577590e+01 3.738783e+01 3.390011e+01 3.137436e+01 2.504789e+00 2.055923e+00 2.119483e+00 2.917792e+00 3.017032e+00 2.888450e+00 3.109696e+00 3.060873e+00 2.944547e+00 2.544196e+00 2.343091e+00 2.054582e+00 2.306405e+00
<GCONST> 1.047310e+02
<STATE> 4
<MEAN> 25
 6.096395e-01 1.364072e-02 -2.667428e-01 -7.414519e-01 -2.933808e-01 2.223088e-01 -5.009750e-01 -3.812030e-01 -2.028899e-01 -1.977537e-03 7.431400e-03 -1.738349e-01 -4.334113e-03 2.032161e-03 4.702577e-03 4.353296e-03 1.115429e-04 -6.303746e-03 -1.715831e-04 9.698853e-04 -2.393620e-03 -3.564532e-05 -6.036882e-04 -1.106360e-03 6.745903e-04
<VARIANCE> 25
 6.261351e+01 3.808236e+01 5.071068e+01 6.427699e+01 6.189711e+01 5.456043e+01 5.625646e+01 4.816392e+01 4.505217e+01 3.675690e+01 3.334590e+01 3.086457e+01 2.349802e+00 1.935183e+00 2.031986e+00 2.750744e+00 2.905835e+00 2.786335e+00 2.996883e+00 2.954615e+00 2.853705e+00 2.469657e+00 2.281573e+00 2.004947e+00 2.124617e+00
<GCONST> 1.039256e+02
<TRANSP> 5
 0.000000e+00 1.000000e+00 0.000000e+00 0.000000e+00 0.000000e+00
 0.000000e+00 7.188815e-01 2.811184e-01 0.000000e+00 0.000000e+00
 0.000000e+00 0.000000e+00 7.188905e-01 2.811094e-01 0.000000e+00
 0.000000e+00 0.000000e+00 0.000000e+00 8.552506e-01 1.447494e-01
 0.000000e+00 0.000000e+00 0.000000e+00 0.000000e+00 0.000000e+00
<ENDHMM>
~h "oy"
<BEGINHMM>
<NUMSTATES> 5
<STATE> 2
<MEAN> 25
 4.862567e-01 1.146545e-01 -2.717029e-02 -7.958512e-01 -4.248108e-01 -7.540961e-02 -2.837451e-01 -2.898127e-01 -1.473166e-01 5.233564e-02 1.054536e-01 -1.537815e-01 -6.347343e-03 1.828469e-04 -8.125877e-03 7.373932e-03 1.002233e-02 4.851733e-03 4.520199e-03 6.673650e-03 3.351673e-03 3.325309e-03 1.401772e-03 5.442512e-03 -1.742625e-02
<VARIANCE> 25
 6.666189e+01 3.898326e+01 4.943219e+01 6.679581e+01 6.421499e+01 5.918747e+01 5.435138e+01 4.642132e+01 4.306011e+01 3.592366e+01 3.263400e+01 2.936846e+01 2.647435e+00 2.029622e+00 2.241159e+00 3.067878e+00 3.147508e+00 3.220326e+00 3.178265e+00 3.033747e+00 2.937723e+00 2.601275e+00 2.337849e+00 2.073198e+00 2.222600e+00
<GCONST> 1.047997e+02
<STATE> 3
<MEAN> 25
 4.576254e-01 1.193837e-01 -5.292056e-02 -7.647421e-01 -3.882809e-01 -6.069402e-02 -2.656377e-01 -2.647828e-01 -1.327143e-01 6.480058e-02 1.123565e-01 -1.313771e-01 -7.125689e-03 2.719821e-04 -8.476580e-03 8.753711e-03 1.033819e-02 5.421496e-03 4.841551e-03 7.693989e-03 4.000244e-03 2.553119e-03 6.886043e-04 5.948082e-03 -1.984233e-02
<VARIANCE> 25
 6.650937e+01 3.884277e+01 4.917430e+01 6.675230e+01 6.413656e+01 5.911583e+01 5.426350e+01 4.629165e+01 4.289824e+01 3.587618e+01 3.257417e+01 2.931870e+01 2.639887e+00 2.020885e+00 2.230006e+00 3.046660e+00 3.136634e+00 3.205428e+00 3.166878e+00 3.020579e+00 2.926788e+00 2.593326e+00 2.330377e+00 2.067194e+00 2.215945e+00
<GCONST> 1.047214e+02
<STATE> 4
<MEAN> 25
 3.511103e-01 1.311377e-01 -8.005767e-02 -6.160966e-01 -2.655016e-01 -4.146805e-02 -1.960878e-01 -1.666972e-01 -7.183948e-02 7.740774e-02 1.171973e-01 -5.716217e-02 -9.385509e-03 9.192101e-04 -6.857493e-03 1.117726e-02 1.051742e-02 4.511008e-03 5.849513e-03 7.683389e-03 4.835346e-03 2.377241e-03 9.156493e-04 6.107565e-03 -2.348252e-02
<VARIANCE> 25
 6.307291e+01 3.676968e+01 4.690245e+01 6.374942e+01 6.257684e+01 5.671971e+01 5.258982e+01 4.450919e+01 4.149172e+01 3.488062e+01 3.163758e+01 2.849680e+01 2.404093e+00 1.860350e+00 2.085457e+00 2.820740e+00 2.952407e+00 3.024305e+00 2.992970e+00 2.864199e+00 2.796332e+00 2.486501e+00 2.236969e+00 1.993505e+00 1.997888e+00
<GCONST> 1.034473e+02
<TRANSP> 5
 0.000000e+00 1.000000e+00 0.000000e+00 0.000000e+00 0.000000e+00
 0.000000e+00 7.312050e-01 2.687949e-01 0.000000e+00 0.000000e+00
 0.000000e+00 0.000000e+00 7.312008e-01 2.687992e-01 0.000000e+00
 0.000000e+00 0.000000e+00 0.000000e+00 8.690135e-01 1.309864e-01
 0.000000e+00 0.000000e+00 0.000000e+00 0.000000e+00 0.000000e+00
<ENDHMM>
~h "sh"
<BEGINHMM>
<NUMSTATES> 5
<STATE> 2
<MEAN> 25
 -7.468997e-01 -2.080495e-01 6.286392e-01 5.551975e-02 -2.586682e-01 1.683561e-02 2.549040e-01 -1.151079e-01 2.107960e-01 -1.471334e-01 7.615758e-02 5.198801e-02 3.160302e-03 3.427523e-03 -2.971639e-03 1.004492e-03 2.090188e-03 3.121861e-03 -1.405251e-03 -2.148593e-03 -1.231621e-04 -4.769262e-04 -3.241400e-04 -1.953856e-04 -4.516347e-03
<VARIANCE> 25
 7.548583e+01 3.844674e+01 5.680698e+01 5.178544e+01 5.898464e+01 5.266365e+01 5.336743e+01 4.473520e+01 4.267469e+01 3.490096e+01 3.145097e+01 2.854955e+01 3.283193e+00 2.046788e+00 2.111702e+00 2.587287e+00 2.897013e+00 2.829754e+00 3.128692e+00 2.885595e+00 2.821113e+00 2.424688e+00 2.247539e+00 1.953495e+00 2.231420e+00
<GCONST> 1.039446e+02
<STATE> 3
<MEAN> 25
 -7.308343e-01 -1.942450e-01 6.190720e-01 5.966882e-02 -2.510855e-01 2.808534e-02 2.490751e-01 -1.228177e-01 2.098308e-01 -1.459984e-01 7.746688e-02 5.056617e-02 5.829771e-03 4.465285e-03 -4.482714e-03 1.882724e-03 3.381244e-03 3.761728e-03 -1.565280e-03 -1.751408e-03 -8.469405e-04 2.380215e-04 1.519085e-04 -6.361527e-04 -7.716680e-03
<VARIANCE> 25
 7.541344e+01 3.838319e+01 5.684517e+01 5.179148e+01 5.895969e+01 5.271517e+01 5.338006e+01 4.474109e+01 4.269243e+01 3.490361e+01 3.143999e+01 2.855467e+01 3.269511e+00 2.042056e+00 2.111504e+00 2.584648e+00 2.894240e+00 2.826992e+00 3.126315e+00 2.883187e+00 2.823086e+00 2.422343e+00 2.246071e+00 1.952410e+00 2.226256e+00
<GCONST> 1.039291e+02
<STATE> 4
<MEAN> 25
 -6.543651e-01 -1.706398e-01 5.895486e-01 5.414679e-02 -2.487822e-01 3.243587e-02 2.165180e-01 -1.326770e-01 1.950882e-01 -1.389962e-01 7.074469e-02 3.332198e-02 7.474591e-03 3.915233e-03 -5.289966e-03 1.806865e-03 3.891597e-03 3.600786e-03 -1.928438e-03 -8.599918e-04 -8.577434e-04 1.353867e-03 6.496669e-04 -9.206375e-04 -8.791021e-03
<VARIANCE> 25
 7.124788e+01 3.676313e+01 5.566715e+01 4.971411e+01 5.813223e+01 5.129697e+01 5.214617e+01 4.345402e+01 4.181744e+01 3.414917e+01 3.080898e+01 2.808513e+01 2.974783e+00 1.894581e+00 2.012740e+00 2.429692e+00 2.773146e+00 2.711520e+00 2.994014e+00 2.767714e+00 2.725044e+00 2.344406e+00 2.175624e+00 1.901738e+00 2.031132e+00
<GCONST> 1.029282e+02
<TRANSP> 5
 0.000000e+00 1.000000e+00 0.000000e+00 0.000000e+00 0.000000e+00
 0.000000e+00 7.144927e-01 2.855073e-01 0.000000e+00 0.000000e+00
 0.000000e+00 0.000000e+00 7.144827e-01 2.855174e-01 0.000000e+00
 0.000000e+00 0.000000e+00 0.000000e+00 8.507735e-01 1.492265e-01
 0.000000e+00 0.000000e+00 0.000000e+00 0.000000e+00 0.000000e+00
<ENDHMM>
~h "th"
<BEGINHMM>
<NUMSTATES> 5
<STATE> 2
<MEAN> 25
 9.779166e-02 -1.726900e-02 -1.118903e-01 -1.259180e-01 -2.544614e-01 -2.287397e-01 -1.617475e-01 -2.411580e-01 -4.227871e-02 -5.618279e-02 -4.116873e-02 -1.883437e-01 5.194447e-03 9.852160e-04 -1.518025e-04 -3.971088e-03 -1.154779e-03 4.088778e-03 2.830654e-04 -2.813480e-03 -2.288551e-03 5.332035e-04 1.048088e-03 -4.665224e-04 1.545590e-03
<VARIANCE> 25
 6.347355e+01 3.970871e+01 5.329288e+01 5.468898e+01 6.267759e+01 5.507373e+01 5.583971e+01 4.782285e+01 4.608443e+01 3.603730e+01 3.303682e+01 3.097272e+01 2.812094e+00 2.196980e+00 2.315416e+00 2.870292e+00 3.214383e+00 3.038096e+00 3.307092e+00 3.117903e+00 2.997807e+00 2.548703e+00 2.386725e+00 2.109900e+00 2.635548e+00
<GCONST> 1.050852e+02
<STATE> 3
<MEAN> 25
 1.143787e-01 -1.250224e-02 -1.133217e-01 -1.391873e-01 -2.561632e-01 -2.119648e-01 -1.604981e-01 -2.495333e-01 -4.978161e-02 -5.347241e-02 -3.711914e-02 -1.898896e-01 5.784108e-03 1.119652e-03 -6.169685e-04 -4.267892e-03 -1.116339e-03 5.042324e-03 3.544230e-05 -1.864989e-03 -1.942829e-03 6.068128e-04 1.046995e-03 -6.933312e-04 1.582453e-04
<VARIANCE> 25
 6.340871e+01 3.969523e+01 5.340767e+01 5.486411e+01 6.272352e+01 5.505260e+01 5.580782e+01 4.786011e+01 4.606631e+01 3.601691e+01 3.303384e+01 3.098383e+01 2.805195e+00 2.193136e+00 2.315286e+00 2.870187e+00 3.213036e+00 3.037558e+00 3.304575e+00 3.120268e+00 2.998359e+00 2.548298e+00 2.384183e+00 2.109332e+00 2.625469e+00
<GCONST> 1.050790e+02
<STATE> 4
<MEAN> 25
 1.734606e-01 -1.637748e-02 -7.429666e-02 -1.975452e-01 -2.979443e-01 -2.097164e-01 -2.113657e-01 -2.726170e-01 -8.416744e-02 -6.144844e-02 -5.441116e-02 -2.154216e-01 4.749538e-03 1.117896e-03 -1.436543e-03 -3.912752e-03 3.592403e-04 5.252740e-03 4.507054e-05 -6.184086e-04 -1.147409e-03 1.022063e-03 4.052630e-04 -7.983248e-04 -2.463887e-03
<VARIANCE> 25
 6.108585e+01 3.831435e+01 5.254076e+01 5.346711e+01 6.189246e+01 5.366114e+01 5.468174e+01 4.688327e+01 4.515673e+01 3.535930e+01 3.248819e+01 3.045968e+01 2.608170e+00 2.058743e+00 2.208260e+00 2.720947e+00 3.082632e+00 2.925228e+00 3.170926e+00 3.009529e+00 2.905019e+00 2.474663e+00 2.317713e+00 2.055079e+00 2.411168e+00
<GCONST> 1.042184e+02
<TRANSP> 5
 0.000000e+00 1.000000e+00 0.000000e+00 0.000000e+00 0.000000e+00
 0.000000e+00 7.160349e-01 2.839651e-01 0.000000e+00 0.000000e+00
 0.000000e+00 0.000000e+00 7.160421e-01 2.839579e-01 0.000000e+00
 0.000000e+00 0.000000e+00 0.000000e+00 8.508565e-01 1.491436e-01
 0.000000e+00 0.000000e+00 0.000000e+00 0.000000e+00 0.000000e+00
<ENDHMM>
~h "uh"
<BEGINHMM>
<NUMSTATES> 5
<STATE> 2
<MEAN> 25
 5.876839e-01 -7.360615e-02 1.543188e-01 -2.626560e-01 -4.123634e-01 -1.498487e-01 -7.514849e-01 -4.854828e-01 -2.847060e-01 -1.282016e-01 2.439057e-02 -1.257754e-01 1.574600e-02 -2.729884e-03 3.987999e-03 -1.090115e-02 -1.338293e-02 -7.098299e-03 -1.292841e-02 -9.382686e-03 -6.850450e-03 -5.060972e-03 -4.458257e-03 -8.887367e-03 3.128346e-02
<VARIANCE> 25
