~o
<STREAMINFO> 1 25
<VECSIZE> 25<NULLD><MFCC_D_N_Z_0><DIAGC>
~h "proto"
<BEGINHMM>
<NUMSTATES> 5
<STATE> 2
<MEAN> 25
 -1.697997e-09 1.262829e-09 1.220293e-09 -1.622344e-09 3.097221e-09 4.255851e-10 1.885955e-10 -7.488520e-10 6.198306e-10 1.584821e-09 -6.693610e-10 8.136342e-10 1.152862e-03 7.073349e-05 2.406621e-05 -1.191846e-04 6.323615e-04 4.127326e-05 5.550126e-04 -1.332909e-03 -2.125274e-04 -6.254215e-04 2.135362e-04 -5.769451e-04 4.384829e-05
<VARIANCE> 25
 5.521536e+01 3.558496e+01 4.766702e+01 4.951351e+01 5.561005e+01 4.983553e+01 4.895706e+01 4.205141e+01 3.911187e+01 3.193219e+01 2.928090e+01 2.710218e+01 2.355556e+00 1.906935e+00 1.956414e+00 2.422077e+00 2.714124e+00 2.581428e+00 2.764639e+00 2.676862e+00 2.550694e+00 2.200669e+00 2.045257e+00 1.811221e+00 2.246028e+00
<GCONST> 1.015103e+02
<STATE> 3
<MEAN> 25
 -1.697997e-09 1.262829e-09 1.220293e-09 -1.622344e-09 3.097221e-09 4.255851e-10 1.885955e-10 -7.488520e-10 6.198306e-10 1.584821e-09 -6.693610e-10 8.136342e-10 1.152862e-03 7.073349e-05 2.406621e-05 -1.191846e-04 6.323615e-04 4.127326e-05 5.550126e-04 -1.332909e-03 -2.125274e-04 -6.254215e-04 2.135362e-04 -5.769451e-04 4.384829e-05
<VARIANCE> 25
 5.521536e+01 3.558496e+01 4.766702e+01 4.951351e+01 5.561005e+01 4.983553e+01 4.895706e+01 4.205141e+01 3.911187e+01 3.193219e+01 2.928090e+01 2.710218e+01 2.355556e+00 1.906935e+00 1.956414e+00 2.422077e+00 2.714124e+00 2.581428e+00 2.764639e+00 2.676862e+00 2.550694e+00 2.200669e+00 2.045257e+00 1.811221e+00 2.246028e+00
<GCONST> 1.015103e+02
<STATE> 4
<MEAN> 25
 -1.697997e-09 1.262829e-09 1.220293e-09 -1.622344e-09 3.097221e-09 4.255851e-10 1.885955e-10 -7.488520e-10 6.198306e-10 1.584821e-09 -6.693610e-10 8.136342e-10 1.152862e-03 7.073349e-05 2.406621e-05 -1.191846e-04 6.323615e-04 4.127326e-05 5.550126e-04 -1.332909e-03 -2.125274e-04 -6.254215e-04 2.135362e-04 -5.769451e-04 4.384829e-05
<VARIANCE> 25
 5.521536e+01 3.558496e+01 4.766702e+01 4.951351e+01 5.561005e+01 4.983553e+01 4.895706e+01 4.205141e+01 3.911187e+01 3.193219e+01 2.928090e+01 2.710218e+01 2.355556e+00 1.906935e+00 1.956414e+00 2.422077e+00 2.714124e+00 2.581428e+00 2.764639e+00 2.676862e+00 2.550694e+00 2.200669e+00 2.045257e+00 1.811221e+00 2.246028e+00
<GCONST> 1.015103e+02
<TRANSP> 5
 0.000000e+00 1.000000e+00 0.000000e+00 0.000000e+00 0.000000e+00
 0.000000e+00 6.000000e-01 4.000000e-01 0.000000e+00 0.000000e+00
 0.000000e+00 0.000000e+00 6.000000e-01 4.000000e-01 0.000000e+00
 0.000000e+00 0.000000e+00 0.000000e+00 7.000000e-01 3.000000e-01
 0.000000e+00 0.000000e+00 0.000000e+00 0.000000e+00 0.000000e+00
<ENDHMM>
