~o
<STREAMINFO> 1 25
<VECSIZE> 25<NULLD><MFCC_D_N_Z_0><DIAGC>
~s "silst"
<MEAN> 25
 -9.630063e+00 3.719546e+00 -3.234933e+00 -2.706564e+00 8.546821e+00 5.199341e+00 4.387709e-01 8.828734e+00 2.692255e+00 1.611672e+00 3.803265e+00 5.095931e+00 -1.280819e-02 2.840698e-03 -5.764891e-03 -2.529817e-02 -3.192544e-03 8.456292e-03 -7.663250e-03 -4.347436e-03 1.244605e-02 8.921603e-03 1.895508e-02 1.160383e-02 -9.820404e-03
<VARIANCE> 25
 3.418704e+00 3.939230e+00 4.618768e+00 6.514196e+00 1.077368e+01 1.199832e+01 1.170170e+01 1.305835e+01 1.358207e+01 1.294775e+01 1.137005e+01 1.219895e+01 9.537959e-02 2.357696e-01 3.868617e-01 5.814304e-01 7.936320e-01 9.835209e-01 1.105130e+00 1.212736e+00 1.295405e+00 1.349676e+00 1.214343e+00 1.102610e+00 3.144900e-02
<GCONST> 6.409385e+01
~h "b"
<BEGINHMM>
<NUMSTATES> 5
<STATE> 2
<MEAN> 25
 1.098870e+01 -7.244591e-01 -4.005135e+00 -2.463108e+00 -5.042098e+00 -2.072465e+00 -1.380748e+00 -4.142453e+00 -4.591056e+00 3.321066e+00 -7.428843e-01 -1.846445e+00 -1.748883e+00 2.404743e+00 3.796227e-01 -4.866311e-02 1.870676e+00 7.187224e-01 -5.081915e-01 1.044252e+00 -7.902505e-01 3.894383e-01 1.592837e-01 -1.424759e-01 -2.790388e+00
<VARIANCE> 25
 5.440992e+01 6.579554e+01 5.218085e+01 8.289442e+01 5.020500e+01 3.366772e+01 2.751745e+01 2.576950e+01 6.954846e+01 2.335085e+01 4.137079e+01 1.864923e+01 2.847287e+00 3.488559e+00 2.032104e+00 4.142544e+00 5.866226e+00 8.737744e-01 2.835532e+00 1.833887e+00 3.813946e+00 3.736285e+00 2.800915e+00 1.798710e+00 3.809645e+00
<GCONST> 1.038605e+02
<STATE> 3
<MEAN> 25
 2.451536e+00 8.821709e+00 2.603853e+00 2.438155e+00 1.702916e+00 -4.120882e+00 -2.679724e+00 1.016348e+00 -2.337799e+00 -1.242697e+00 -8.062537e-01 -8.835087e-01 -2.163998e+00 5.910005e-01 -9.528059e-02 -8.065510e-01 1.012063e+00 6.946766e-01 2.762367e-01 1.761295e+00 6.631433e-01 -9.561186e-01 7.456531e-01 1.137105e+00 -1.887218e+00
<VARIANCE> 25
 3.081797e+01 4.335925e+01 2.429048e+01 3.182846e+01 5.532005e+01 2.253021e+01 2.321869e+01 4.009723e+01 3.859483e+01 1.860949e+01 3.073636e+01 4.229825e+01 8.045608e-01 2.788738e+00 1.697789e+00 8.580322e-01 1.982489e+00 1.554961e+00 2.015909e+00 1.182259e+00 1.812287e+00 1.954280e+00 1.710203e+00 1.982901e+00 1.066853e+00
<GCONST> 9.323538e+01
<STATE> 4
<MEAN> 25
 -3.276169e+00 6.380965e+00 -1.233999e+00 -1.927320e+00 2.350160e+00 1.369401e-01 -1.958903e+00 4.511600e+00 3.330185e-01 -3.583110e-01 4.216233e+00 2.684793e+00 -7.543163e-01 -7.264194e-01 -1.523418e-01 2.477048e-02 4.723451e-01 9.275479e-01 1.867130e-01 2.935779e-01 5.747220e-01 -3.058416e-01 -1.935134e-02 -3.775739e-01 -3.107738e-01
<VARIANCE> 25
 3.308357e+01 3.372034e+01 3.701595e+01 3.189700e+01 3.974572e+01 1.768610e+01 1.541611e+01 2.734450e+01 4.859612e+01 1.949768e+01 2.572077e+01 2.891123e+01 9.672991e-01 1.200553e+00 1.202407e+00 1.976907e+00 1.708025e+00 1.134115e+00 1.428696e+00 1.456042e+00 1.133049e+00 1.562968e+00 1.065365e+00 1.679697e+00 5.333955e-01
<GCONST> 8.903651e+01
<TRANSP> 5
 0.000000e+00 1.000000e+00 0.000000e+00 0.000000e+00 0.000000e+00
 0.000000e+00 6.615039e-01 3.384961e-01 0.000000e+00 0.000000e+00
 0.000000e+00 0.000000e+00 2.576776e-01 7.423224e-01 0.000000e+00
 0.000000e+00 0.000000e+00 0.000000e+00 4.612311e-01 5.387689e-01
 0.000000e+00 0.000000e+00 0.000000e+00 0.000000e+00 0.000000e+00
<ENDHMM>
~h "d"
<BEGINHMM>
<NUMSTATES> 5
<STATE> 2
<MEAN> 25
 8.387576e+00 6.187119e-01 6.492299e+00 4.729177e+00 -7.944622e+00 -5.001775e+00 -3.326073e+00 -7.014863e+00 -4.170396e+00 -1.010365e+00 -4.018557e+00 -2.224059e+00 -1.428604e+00 2.353345e+00 5.585623e-01 8.570567e-01 2.649442e+00 3.333836e-01 -8.574542e-01 1.269365e+00 -6.474630e-02 -8.125193e-02 -9.874234e-01 2.972977e-01 -2.743125e+00
<VARIANCE> 25
 3.879641e+01 6.159163e+01 3.584187e+01 1.892004e+01 5.623155e+01 3.075115e+01 4.207095e+01 3.539824e+01 4.480906e+01 1.263271e+01 2.228600e+01 1.749726e+01 1.002169e+00 2.981831e+00 1.613429e+00 3.262425e+00 3.745750e+00 1.791230e+00 2.164948e+00 2.706089e+00 2.309150e+00 1.886492e+00 2.580198e+00 9.048930e-01 1.849680e+00
<GCONST> 9.667276e+01
<STATE> 3
<MEAN> 25
 4.924603e+00 7.872965e+00 7.767797e+00 7.094204e+00 -4.162288e-01 -4.832622e+00 -6.014094e+00 -2.825543e+00 -3.894585e+00 -2.310188e+00 -6.342397e+00 -2.125921e+00 -2.016866e+00 1.805502e+00 -3.822520e-02 7.530363e-02 2.670127e+00 5.671486e-01 -6.569085e-02 1.571832e+00 -8.272286e-02 -2.459788e-01 9.118000e-02 4.764114e-02 -2.482578e+00
<VARIANCE> 25
 2.972919e+01 4.967800e+01 2.231577e+01 2.425903e+01 4.431380e+01 2.750413e+01 3.354048e+01 3.034095e+01 3.166507e+01 2.163731e+01 2.277652e+01 1.046931e+01 1.012121e+00 5.894810e+00 2.575985e+00 2.726171e+00 3.210501e+00 1.884439e+00 2.303091e+00 2.445452e+00 1.858184e+00 1.659138e+00 2.428970e+00 1.854943e+00 2.436429e+00
<GCONST> 9.635895e+01
<STATE> 4
<MEAN> 25
 -6.280534e-01 3.214872e+00 4.882504e+00 4.388109e+00 2.229012e+00 -1.963780e+00 -1.670939e+00 -1.062343e-01 -3.560916e+00 -2.619504e+00 -2.161375e+00 -1.870568e-01 -1.135819e+00 -2.033169e+00 -1.378838e+00 -9.541205e-01 1.428776e-01 6.668469e-01 1.184413e+00 1.245168e-02 9.572789e-01 7.547093e-02 1.120196e+00 6.877121e-01 7.266835e-01
<VARIANCE> 25
 2.739031e+01 7.251912e+01 2.457957e+01 3.454440e+01 3.128378e+01 2.391859e+01 3.479647e+01 4.227907e+01 2.451302e+01 2.180542e+01 3.422045e+01 2.301236e+01 3.027436e+00 6.147364e+00 3.717818e+00 4.673919e+00 4.839770e+00 3.332994e+00 4.352065e+00 4.154415e+00 3.240975e+00 2.002738e+00 3.113036e+00 1.677981e+00 4.643124e+00
<GCONST> 1.036603e+02
<TRANSP> 5
 0.000000e+00 1.000000e+00 0.000000e+00 0.000000e+00 0.000000e+00
 0.000000e+00 2.200322e-01 7.799678e-01 0.000000e+00 0.000000e+00
 0.000000e+00 0.000000e+00 3.837415e-01 6.162584e-01 0.000000e+00
 0.000000e+00 0.000000e+00 0.000000e+00 6.179162e-01 3.820838e-01
 0.000000e+00 0.000000e+00 0.000000e+00 0.000000e+00 0.000000e+00
<ENDHMM>
~h "f"
<BEGINHMM>
<NUMSTATES> 5
<STATE> 2
<MEAN> 25
 4.521047e+00 1.666739e+00 3.175575e-01 1.833112e+00 -3.802049e-01 3.902604e-01 1.747389e+00 -6.048039e-01 -1.154125e+00 -2.205045e+00 -4.522417e+00 -1.381927e+00 -3.136271e+00 -2.222276e+00 3.069551e-01 2.151234e+00 1.611274e+00 4.757528e-01 5.553446e-01 5.735132e-01 1.410265e+00 9.145174e-02 9.044260e-01 6.416004e-01 -1.200687e+00
<VARIANCE> 25
 4.508693e+01 5.719869e+01 3.636083e+01 5.042376e+01 4.830159e+01 2.243564e+01 2.179022e+01 2.445207e+01 2.997069e+01 1.198784e+01 1.515263e+01 1.116658e+01 2.753917e+00 6.596975e+00 3.275054e+00 7.136067e+00 3.384885e+00 3.222697e+00 1.994846e+00 2.996829e+00 3.014965e+00 1.698917e+00 1.306603e+00 1.533118e+00 1.021130e+00
<GCONST> 9.817554e+01
<STATE> 3
<MEAN> 25
 -4.691730e+00 -7.584036e+00 -4.955565e-01 4.791221e+00 -9.185899e-01 6.290703e-01 3.321818e+00 -2.591544e+00 2.805683e+00 -3.100296e+00 -5.625224e-01 2.991835e-01 -1.769476e+00 -1.557504e+00 -7.736365e-01 -9.974443e-02 -5.713268e-02 3.221282e-01 1.775115e-01 -3.955444e-01 9.425836e-01 1.953597e-01 1.136209e+00 4.480454e-01 -4.196675e-01
<VARIANCE> 25
 6.876653e+00 1.662753e+01 1.345780e+01 9.053958e+00 1.537875e+01 1.552220e+01 1.450952e+01 1.968506e+01 1.438045e+01 1.657191e+01 1.385339e+01 1.524935e+01 1.921526e+00 2.475593e+00 1.195397e+00 1.848798e+00 1.611693e+00 1.870239e+00 1.951518e+00 1.784738e+00 8.736578e-01 1.344217e+00 1.557052e+00 9.908406e-01 5.693969e-01
<GCONST> 8.218047e+01
<STATE> 4
<MEAN> 25
 -7.627489e+00 -5.542379e+00 -1.957763e+00 2.251747e+00 1.880031e+00 2.924618e+00 3.570170e+00 7.672586e-01 4.586919e+00 -5.088363e-01 1.918083e+00 2.780416e+00 6.708797e-01 5.000800e-02 1.285721e-01 6.006474e-02 -1.494930e-01 -1.229282e-01 -1.054077e-01 -1.492415e-01 -3.013053e-02 -6.334566e-02 -4.388189e-01 -3.765098e-01 5.627748e-01
<VARIANCE> 25
 6.552459e+00 5.997318e+01 9.221635e+00 1.778605e+01 2.574920e+01 1.208968e+01 2.271337e+01 3.711280e+01 1.395144e+01 1.787460e+01 1.237627e+01 1.661352e+01 2.687802e+00 2.399040e+00 8.055134e-01 1.260973e+00 1.761724e+00 1.299689e+00 1.967267e+00 1.833244e+00 2.079960e+00 1.976110e+00 1.743571e+00 1.438025e+00 1.276735e+00
<GCONST> 8.691079e+01
<TRANSP> 5
 0.000000e+00 1.000000e+00 0.000000e+00 0.000000e+00 0.000000e+00
 0.000000e+00 5.400282e-01 4.599718e-01 0.000000e+00 0.000000e+00
 0.000000e+00 0.000000e+00 6.220910e-01 3.779090e-01 0.000000e+00
 0.000000e+00 0.000000e+00 0.000000e+00 8.252884e-01 1.747117e-01
 0.000000e+00 0.000000e+00 0.000000e+00 0.000000e+00 0.000000e+00
<ENDHMM>
~h "g"
<BEGINHMM>
<NUMSTATES> 5
<STATE> 2
<MEAN> 25
 -3.477072e+00 -2.789075e+00 -1.802785e+00 7.306937e-01 6.112319e+00 3.779325e+00 -2.020306e+00 2.485491e+00 2.295314e+00 4.114910e-01 1.612701e+00 2.374361e+00 2.071639e+00 -1.899161e+00 -1.076062e+00 -8.564107e-02 -1.926209e+00 1.577074e-03 -1.490013e-01 -1.726026e+00 -1.990648e-01 7.685283e-01 -9.047274e-02 -3.458320e-01 1.862400e+00
<VARIANCE> 25
 4.006091e+01 5.466460e+01 5.115167e+01 1.732713e+01 6.803933e+01 4.056638e+01 2.602927e+01 4.785251e+01 2.971257e+01 4.138182e+01 1.973920e+01 2.273221e+01 4.285367e+00 9.443006e+00 5.766203e+00 3.408584e+00 5.206171e+00 6.161221e+00 4.810113e+00 8.052612e+00 4.781197e+00 4.787895e+00 1.240305e+00 4.175442e+00 1.299489e+01
<GCONST> 1.098403e+02
<STATE> 3
<MEAN> 25
 1.086622e+01 -1.078233e+01 -1.081988e+00 4.531122e+00 -6.446968e+00 -4.283530e+00 -8.052275e+00 -7.525481e+00 -1.334935e+00 2.438838e+00 -9.117969e-01 -6.200200e+00 1.340046e+00 -2.012892e-01 2.307279e-02 1.947703e-01 -8.287405e-01 -7.859602e-01 -4.442703e-01 -8.816648e-01 -6.184042e-01 4.825179e-01 7.012954e-02 -1.319455e+00 1.068592e+00
<VARIANCE> 25
 2.533146e+01 1.961026e+01 8.025830e+01 1.315601e+01 1.677901e+01 3.312282e+01 4.160752e+01 3.639502e+01 1.555075e+01 2.890467e+01 1.964602e+01 2.893791e+01 4.246659e+00 2.401858e+00 1.045210e+00 1.825252e+00 2.734766e+00 7.126056e+00 4.976398e+00 5.236032e+00 5.077027e+00 2.174335e+00 1.492828e+00 2.364739e+00 3.750887e+00
<GCONST> 9.939452e+01
<STATE> 4
<MEAN> 25
 9.852326e+00 -4.208621e+00 -2.389614e+00 1.012636e+00 -3.570418e+00 -4.148643e-01 -4.164680e+00 -1.044338e+01 -2.725818e+00 3.243379e+00 4.238723e-01 -4.702347e+00 -4.534247e-01 2.328735e+00 8.113360e-01 1.671118e-01 4.775299e-01 -5.219538e-01 9.759253e-01 -1.099924e-01 -1.412587e+00 -1.093792e+00 8.508247e-01 1.149723e+00 -5.896296e-01
<VARIANCE> 25
 4.749099e+01 3.964411e+01 5.418544e+01 6.276552e+01 3.382394e+01 8.159012e+01 4.852507e+01 6.355433e+01 3.305129e+01 3.921554e+01 1.091934e+01 3.646401e+01 6.036137e+00 2.096271e+00 1.338134e+00 3.097502e+00 3.179150e+00 6.537274e+00 5.348496e+00 7.435383e+00 3.292658e+00 3.793592e+00 6.231948e-01 4.095514e+00 3.918541e+00
<GCONST> 1.062348e+02
<TRANSP> 5
 0.000000e+00 1.000000e+00 0.000000e+00 0.000000e+00 0.000000e+00
 0.000000e+00 7.289675e-01 2.710326e-01 0.000000e+00 0.000000e+00
 0.000000e+00 0.000000e+00 6.233680e-01 3.766320e-01 0.000000e+00
 0.000000e+00 0.000000e+00 0.000000e+00 4.022077e-01 5.977923e-01
 0.000000e+00 0.000000e+00 0.000000e+00 0.000000e+00 0.000000e+00
<ENDHMM>
~h "k"
<BEGINHMM>
<NUMSTATES> 5
<STATE> 2
<MEAN> 25
 5.431700e+00 -6.399464e+00 2.373632e+00 1.346142e+00 -6.506259e+00 -2.234123e+00 -7.378588e-01 -5.576677e+00 -2.692998e-01 1.413280e+00 -1.806503e+00 -2.764089e+00 5.326290e-01 -1.767644e+00 7.996989e-01 -7.129951e-01 -1.499884e+00 7.554108e-01 1.410578e+00 -6.477686e-01 6.570889e-01 8.715225e-01 5.837033e-01 1.978213e-01 1.801279e+00
<VARIANCE> 25
 4.785032e+01 8.581842e+01 2.071523e+01 2.998337e+01 6.319992e+01 4.731332e+01 3.304411e+01 5.671267e+01 6.668501e+01 2.712173e+01 2.357081e+01 3.910637e+01 3.857741e+00 1.102586e+01 3.248752e+00 3.339277e+00 6.474981e+00 3.231216e+00 5.880998e+00 6.105150e+00 9.474690e+00 3.623428e+00 3.338493e+00 3.997021e+00 7.047727e+00
<GCONST> 1.114001e+02
<STATE> 3
<MEAN> 25
 6.159475e+00 -3.472675e+00 7.389331e+00 1.606053e+00 -1.092513e+01 -4.509361e+00 2.878955e+00 -6.371003e+00 -7.310299e+00 2.658015e+00 1.001462e+00 -3.854080e+00 -8.986017e-01 2.337898e+00 3.864938e-01 8.374084e-01 1.566991e+00 8.337005e-01 1.300830e-01 2.851080e-01 -1.609122e+00 -6.060243e-03 1.139904e-01 -1.636799e-01 -2.425039e+00
<VARIANCE> 25
 3.644203e+01 6.112721e+01 4.493074e+01 3.145900e+01 6.334343e+01 5.636520e+01 3.640898e+01 4.566109e+01 1.062128e+02 2.044286e+01 2.099234e+01 3.989381e+01 1.947672e+00 2.384861e+00 2.935953e+00 2.899803e+00 5.665203e+00 2.922734e+00 2.905653e+00 3.172746e+00 6.740352e+00 5.752420e+00 3.188833e+00 3.291212e+00 3.274529e+00
<GCONST> 1.068197e+02
<STATE> 4
<MEAN> 25
 1.586334e+00 -2.447276e+00 3.477933e+00 2.007432e+00 -1.967186e+00 8.028017e-01 1.218395e+00 -2.197542e+00 -3.794332e+00 1.273862e+00 -7.146444e-01 -1.223023e+00 -6.270278e-02 -4.833931e-01 -5.820959e-01 -4.190245e-01 5.604183e-01 1.892393e-01 -3.547139e-01 1.110702e+00 4.034640e-01 -8.266394e-01 -1.991696e-01 -1.085199e-01 8.159742e-02
<VARIANCE> 25
 2.449887e+01 7.885523e+01 3.487831e+01 2.182795e+01 4.481031e+01 3.150986e+01 4.700609e+01 4.394814e+01 4.222707e+01 4.234044e+01 2.249442e+01 1.565408e+01 4.804834e+00 1.163999e+01 4.024308e+00 2.541997e+00 4.918435e+00 3.120973e+00 3.457848e+00 5.506502e+00 6.174562e+00 5.086340e+00 2.407061e+00 2.794897e+00 6.870177e+00
<GCONST> 1.076945e+02
<TRANSP> 5
 0.000000e+00 1.000000e+00 0.000000e+00 0.000000e+00 0.000000e+00
 0.000000e+00 5.661574e-01 4.338426e-01 0.000000e+00 0.000000e+00
 0.000000e+00 0.000000e+00 5.251958e-01 4.748042e-01 0.000000e+00
 0.000000e+00 0.000000e+00 0.000000e+00 6.514629e-01 3.485371e-01
 0.000000e+00 0.000000e+00 0.000000e+00 0.000000e+00 0.000000e+00
<ENDHMM>
~h "l"
<BEGINHMM>
<NUMSTATES> 5
<STATE> 2
<MEAN> 25
 1.306152e+01 -4.012498e+00 -3.936759e+00 -3.731063e+00 -5.605553e+00 -9.251485e-01 -7.220827e+00 -1.138884e+01 1.035696e+00 4.022975e+00 -2.556782e+00 -7.210755e+00 8.711456e-01 7.663007e-01 -8.116349e-01 -1.485500e+00 1.502031e-01 1.289534e+00 -7.891394e-01 -1.358908e+00 -4.713202e-01 6.227615e-01 5.386050e-01 1.937602e-01 5.410973e-02
<VARIANCE> 25
 1.099516e+01 4.650447e+01 2.472556e+01 2.387100e+01 3.576656e+01 4.144235e+01 3.754597e+01 4.244084e+01 6.464714e+01 3.461997e+01 3.128025e+01 1.513337e+01 2.028363e+00 4.324331e+00 1.607418e+00 1.885551e+00 3.988800e+00 2.938175e+00 4.392797e+00 4.541887e+00 7.468691e+00 2.528996e+00 3.399240e+00 2.460083e+00 2.050054e+00
<GCONST> 1.016278e+02
<STATE> 3
<MEAN> 25
 1.521613e+01 2.890936e+00 -5.099414e+00 -1.190011e+01 -8.647579e+00 3.836230e+00 -3.839358e+00 -1.024150e+01 -3.503843e+00 8.407007e-01 -3.356666e+00 -2.434757e+00 -4.046125e-02 7.268202e-01 2.983090e-01 -1.433786e-01 -2.569759e-01 -3.033813e-01 2.439578e-01 9.046616e-01 -7.130038e-03 -1.006649e+00 -7.988283e-01 4.678736e-01 -4.290196e-01
<VARIANCE> 25
 1.286910e+01 3.156214e+01 3.005243e+01 4.358641e+01 3.200383e+01 2.619423e+01 3.879365e+01 4.650271e+01 5.311787e+01 3.325946e+01 3.119726e+01 2.208203e+01 3.076860e-01 3.312987e+00 1.290936e+00 2.484116e+00 1.974882e+00 1.887904e+00 2.071849e+00 2.469661e+00 2.766834e+00 1.973794e+00 2.242111e+00 1.759313e+00 1.184890e+00
<GCONST> 9.474512e+01
<STATE> 4
<MEAN> 25
 1.037017e+01 4.096575e+00 -5.019771e-01 -3.855819e+00 -3.630100e+00 1.807636e+00 -4.135887e+00 -7.375127e+00 -1.711532e+00 -8.580251e-01 -4.080613e+00 -2.667450e+00 -8.847811e-01 -8.721796e-01 5.107902e-01 1.462982e+00 2.882203e-01 -9.882565e-01 3.732090e-01 1.590396e+00 1.968177e-01 -7.264655e-01 5.235736e-01 6.445221e-01 -1.850418e-01
<VARIANCE> 25
 3.408149e+01 6.389780e+01 3.281972e+01 4.925496e+01 5.453595e+01 3.968490e+01 5.302811e+01 8.539966e+01 5.572061e+01 3.635012e+01 2.647961e+01 1.956140e+01 2.017271e+00 3.388205e+00 2.853806e+00 4.200567e+00 1.086137e+01 5.997191e+00 4.636592e+00 6.864300e+00 3.276019e+00 4.872921e+00 2.962839e+00 2.989369e+00 2.889300e+00
<GCONST> 1.090378e+02
<TRANSP> 5
 0.000000e+00 1.000000e+00 0.000000e+00 0.000000e+00 0.000000e+00
 0.000000e+00 6.750641e-01 3.249359e-01 0.000000e+00 0.000000e+00
 0.000000e+00 0.000000e+00 6.639362e-01 3.360638e-01 0.000000e+00
 0.000000e+00 0.000000e+00 0.000000e+00 5.200367e-01 4.799633e-01
 0.000000e+00 0.000000e+00 0.000000e+00 0.000000e+00 0.000000e+00
<ENDHMM>
~h "m"
<BEGINHMM>
<NUMSTATES> 5
<STATE> 2
<MEAN> 25
 5.336133e+00 4.352848e+00 4.933356e+00 8.032894e+00 2.926092e+00 1.092786e-01 1.609354e-01 -6.873999e+00 -6.202736e+00 5.118629e-02 -3.409233e+00 -5.587433e+00 -8.602706e-01 2.206578e-01 -2.606504e-01 5.245251e-01 8.701221e-01 2.385389e-01 5.677419e-01 4.898936e-01 -2.946553e-01 -2.115103e-01 -7.638693e-02 2.623696e-02 -7.503175e-01
<VARIANCE> 25
 7.886896e+01 2.513913e+01 1.104035e+01 3.673229e+01 6.689700e+01 3.569226e+01 2.124180e+01 9.675188e+01 3.570184e+01 2.472978e+01 1.554773e+01 2.813869e+01 1.492940e+00 8.698624e-01 2.436141e+00 3.059062e+00 2.396076e+00 2.265778e+00 2.594622e+00 4.377322e+00 3.032896e+00 1.801638e+00 1.901454e+00 2.501875e+00 5.785883e-01
<GCONST> 9.691702e+01
<STATE> 3
<MEAN> 25
 5.874388e+00 3.311164e+00 3.205193e+00 7.367180e+00 -1.435651e-01 -1.571219e+00 2.535436e-02 -1.030634e+01 -8.035474e+00 -6.199338e-01 -2.275352e+00 -5.834355e+00 2.614083e-01 -4.351049e-01 -6.783566e-01 -3.475727e-01 -1.238419e-01 7.286850e-02 -6.285635e-02 -4.624979e-01 -2.694087e-01 2.499187e-02 -2.445124e-01 -8.180556e-02 2.940925e-01
<VARIANCE> 25
 9.440337e+01 2.596910e+01 1.110136e+01 3.254728e+01 6.149059e+01 3.516253e+01 2.277149e+01 7.466185e+01 4.692823e+01 1.741482e+01 8.731347e+00 4.464605e+01 1.579937e+00 1.758368e+00 1.297887e+00 2.109371e+00 2.091078e+00 1.697699e+00 2.483034e+00 4.023355e+00 2.655129e+00 1.230098e+00 1.238256e+00 1.615839e+00 9.284476e-01
<GCONST> 9.483048e+01
<STATE> 4
<MEAN> 25
 -4.009531e+00 3.488896e+00 -2.081085e+00 -1.555579e-01 5.650668e+00 1.454145e+00 -1.176086e+00 1.896623e+00 3.737439e-01 -4.795448e-01 1.208867e+00 2.383612e+00 1.376547e-01 -4.510064e-01 -3.709818e-01 -3.670077e-01 -2.027197e-01 1.710375e-02 -2.896861e-02 1.944644e-01 4.450433e-01 9.765048e-02 -1.743003e-01 9.518522e-02 2.742529e-01
<VARIANCE> 25
 8.322252e+01 1.200634e+01 1.756447e+01 3.164999e+01 4.346672e+01 2.533284e+01 3.567756e+01 8.840734e+01 5.252388e+01 1.169553e+01 1.943920e+01 5.058362e+01 1.797456e+00 1.856648e+00 1.329273e+00 2.492434e+00 2.733007e+00 2.028663e+00 2.463286e+00 2.385664e+00 3.383332e+00 1.106956e+00 8.045720e-01 2.076290e+00 1.289727e+00
<GCONST> 9.552131e+01
<TRANSP> 5
 0.000000e+00 1.000000e+00 0.000000e+00 0.000000e+00 0.000000e+00
 0.000000e+00 5.359497e-01 4.640503e-01 0.000000e+00 0.000000e+00
 0.000000e+00 0.000000e+00 4.143810e-01 5.856190e-01 0.000000e+00
 0.000000e+00 0.000000e+00 0.000000e+00 6.345094e-01 3.654906e-01
 0.000000e+00 0.000000e+00 0.000000e+00 0.000000e+00 0.000000e+00
<ENDHMM>
~h "n"
<BEGINHMM>
<NUMSTATES> 5
<STATE> 2
<MEAN> 25
 1.216629e+01 -1.713170e+00 2.834373e+00 3.857026e+00 -8.261097e+00 -4.155720e+00 -1.977861e+00 -5.820692e+00 -2.710825e+00 -3.146610e+00 -4.618617e+00 -3.512691e+00 1.067153e+00 1.112022e+00 1.759471e-01 9.848456e-01 -4.878834e-01 -2.116516e-01 1.746187e-01 -1.817614e+00 -4.655903e-01 1.713361e-01 -1.036147e+00 -4.525369e-01 -4.667529e-02
<VARIANCE> 25
 1.248060e+01 4.374158e+01 2.965525e+01 2.041509e+01 3.224275e+01 1.891167e+01 1.893704e+01 4.300742e+01 4.058731e+01 3.813029e+01 2.228672e+01 1.774735e+01 2.387197e+00 5.015621e+00 2.972532e+00 3.250016e+00 4.051710e+00 1.685565e+00 2.158126e+00 5.535554e+00 3.704076e+00 2.513053e+00 2.589185e+00 1.490718e+00 3.129429e+00
<GCONST> 9.897037e+01
<STATE> 3
<MEAN> 25
 1.355042e+01 4.055763e-01 3.901772e+00 5.119672e+00 -9.662547e+00 -3.296096e+00 3.696902e-01 -1.047187e+01 -3.807102e+00 -1.966701e+00 -6.026823e+00 -4.916890e+00 -5.983945e-02 1.162230e+00 5.919492e-01 6.160418e-01 -1.357715e-01 4.765550e-01 6.321428e-01 -1.543979e+00 -5.169522e-01 5.228388e-01 -5.598166e-01 -3.916958e-01 -7.048075e-01
<VARIANCE> 25
 3.650169e+00 2.191678e+01 2.715837e+01 2.260346e+01 2.698362e+01 2.141891e+01 1.388250e+01 3.192726e+01 2.922268e+01 1.667257e+01 1.028140e+01 1.672971e+01 4.406088e-01 2.409347e+00 2.607119e+00 2.514527e+00 1.544617e+00 2.061178e+00 1.041785e+00 3.003345e+00 1.396555e+00 1.702863e+00 1.711367e+00 1.515173e+00 9.619975e-01
<GCONST> 8.655777e+01
<STATE> 4
<MEAN> 25
 1.084114e+01 5.467288e+00 6.016369e+00 6.128511e+00 -5.703133e+00 -1.322351e+00 -2.640953e-02 -9.382016e+00 -4.724660e+00 -7.170763e-01 -7.647518e+00 -5.344885e+00 -7.999046e-01 7.219434e-01 1.397201e-01 -4.596315e-01 1.016157e+00 5.659629e-01 -3.899916e-01 8.696073e-01 -5.562545e-02 -2.190843e-01 2.771940e-01 1.699491e-01 -8.636204e-01
<VARIANCE> 25
 1.988227e+01 1.969748e+01 1.549736e+01 1.779048e+01 4.798733e+01 3.179893e+01 1.085788e+01 4.909736e+01 1.789803e+01 1.224132e+01 7.596617e+00 9.235896e+00 1.332198e+00 2.134365e+00 1.295416e+00 1.149832e+00 1.997123e+00 1.399623e+00 1.043792e+00 1.721701e+00 1.610582e+00 9.585799e-01 1.221787e+00 7.725177e-01 1.263181e+00
<GCONST> 8.445362e+01
<TRANSP> 5
 0.000000e+00 1.000000e+00 0.000000e+00 0.000000e+00 0.000000e+00
 0.000000e+00 2.992160e-01 7.007840e-01 0.000000e+00 0.000000e+00
 0.000000e+00 0.000000e+00 6.588646e-01 3.411354e-01 0.000000e+00
 0.000000e+00 0.000000e+00 0.000000e+00 6.929522e-01 3.070478e-01
 0.000000e+00 0.000000e+00 0.000000e+00 0.000000e+00 0.000000e+00
<ENDHMM>
~h "p"
<BEGINHMM>
<NUMSTATES> 5
<STATE> 2
<MEAN> 25
 -3.893291e+00 6.110945e+00 -1.051595e+00 1.490525e-01 7.233963e+00 2.359250e-01 -5.758492e+00 1.502309e+00 -1.799258e+00 -3.674574e-01 -5.950759e-01 -4.222620e-02 -9.668412e-01 -1.482259e+00 -3.949900e-01 5.588005e-02 1.807648e-01 1.199960e+00 1.634611e+00 1.227309e+00 1.564244e-01 -2.060872e-01 2.428320e-01 6.775531e-01 -3.817545e-01
<VARIANCE> 25
 2.997870e+01 2.264812e+01 1.081048e+01 9.829466e+00 2.138894e+01 3.293698e+01 5.450061e+01 2.877770e+01 2.621469e+01 1.731059e+01 2.483353e+01 2.053511e+01 1.295782e+00 5.361360e+00 1.790990e+00 1.762163e+00 2.369116e+00 2.654437e+00 4.405775e+00 1.853676e+00 3.126996e+00 3.427099e+00 2.633420e+00 1.421039e+00 4.248753e+00
<GCONST> 9.556522e+01
<STATE> 3
<MEAN> 25
 -5.931653e+00 2.730107e+00 -5.996603e-01 -1.739770e+00 5.763791e+00 1.791467e+00 -2.491944e-01 3.969903e+00 1.381151e+00 1.690833e+00 9.831725e-01 1.504087e+00 2.017825e+00 -3.073268e+00 2.322454e-01 3.782129e-01 -2.254565e+00 2.914318e-01 1.448299e+00 -1.191569e+00 1.199799e+00 1.270306e+00 -8.419402e-02 -2.776037e-01 2.788043e+00
<VARIANCE> 25
 5.518140e+01 3.343640e+01 8.947083e+00 2.037883e+01 4.228115e+01 2.448518e+01 5.108494e+01 4.061040e+01 1.044666e+01 1.127831e+01 1.152324e+01 8.973535e+00 5.032458e+00 3.298090e+00 2.804154e+00 3.051287e+00 6.056822e+00 7.098860e+00 7.519717e+00 5.102865e+00 2.090024e+00 2.797647e+00 2.706787e+00 2.560553e+00 3.182225e+00
<GCONST> 9.988464e+01
<STATE> 4
<MEAN> 25
 1.030430e+00 -4.581131e+00 2.209744e+00 3.602163e+00 1.561040e+00 3.182295e+00 3.239115e+00 1.101930e+00 1.955795e+00 3.154884e+00 -1.444889e+00 -4.651661e-01 1.579460e+00 -1.921221e+00 -3.436514e-01 6.593775e-01 -7.351266e-01 2.427264e-01 5.716231e-02 -1.149228e+00 8.030404e-01 1.459630e-01 -6.885616e-01 -3.160185e-01 2.008747e+00
<VARIANCE> 25
 1.936783e+01 1.830141e+01 2.646262e+01 3.130603e+01 5.113800e+01 4.678704e+01 3.280236e+01 3.263260e+01 1.186331e+01 2.392295e+01 2.143043e+01 1.935032e+01 5.071838e+00 5.934082e+00 2.467800e+00 2.470660e+00 9.987695e+00 6.695306e+00 6.199855e+00 6.452963e+00 2.142439e+00 3.136523e+00 1.578233e+00 2.132227e+00 3.941258e+00
<GCONST> 1.025629e+02
<TRANSP> 5
 0.000000e+00 1.000000e+00 0.000000e+00 0.000000e+00 0.000000e+00
 0.000000e+00 5.638540e-01 4.361461e-01 0.000000e+00 0.000000e+00
 0.000000e+00 0.000000e+00 3.801966e-01 6.198034e-01 0.000000e+00
 0.000000e+00 0.000000e+00 0.000000e+00 5.060335e-01 4.939664e-01
 0.000000e+00 0.000000e+00 0.000000e+00 0.000000e+00 0.000000e+00
<ENDHMM>
~h "r"
<BEGINHMM>
<NUMSTATES> 5
<STATE> 2
<MEAN> 25
 8.809719e+00 -2.806333e+00 -4.784420e+00 1.923750e+00 -1.050141e+00 -1.676149e+00 -4.320673e+00 -5.323916e+00 -3.577495e+00 -2.502743e+00 -2.250399e-01 9.019555e-02 7.059460e-01 -5.359452e-01 -2.123488e-02 8.498788e-01 -3.828122e-02 -1.533483e+00 -1.526767e+00 2.986727e-01 7.614355e-01 3.226095e-01 -6.485648e-01 -6.728198e-01 7.456868e-01
<VARIANCE> 25
 9.845672e+01 3.425394e+01 3.219686e+01 2.429099e+01 3.856086e+01 3.404874e+01 6.016801e+01 3.146727e+01 7.678482e+01 3.105723e+01 2.539810e+01 2.232251e+01 6.885104e+00 4.943099e+00 2.653465e+00 2.455505e+00 3.043167e+00 3.282602e+00 2.586526e+00 4.567386e+00 5.020208e+00 4.180858e+00 2.024402e+00 1.858002e+00 2.788891e+00
<GCONST> 1.051423e+02
<STATE> 3
<MEAN> 25
 1.334546e+01 -5.947817e+00 -2.537526e+00 4.946794e+00 -3.509555e+00 -7.278757e+00 -8.433788e+00 -3.294602e+00 -2.707193e+00 -5.974786e-01 -2.781590e+00 -2.936504e+00 -6.999677e-02 -9.793314e-01 1.321550e+00 3.195201e-01 -1.971302e+00 -1.342588e+00 5.673572e-01 9.499105e-01 1.744063e-01 -7.963507e-03 -6.295683e-01 9.122403e-02 5.011854e-01
<VARIANCE> 25
 2.376465e+01 5.642293e+01 4.775856e+01 2.048011e+01 6.210051e+01 4.851116e+01 6.054469e+01 3.803322e+01 4.067223e+01 3.879239e+01 2.012749e+01 1.204744e+01 4.867666e+00 4.286672e+00 4.053349e+00 1.376368e+00 4.488489e+00 1.987265e+00 4.951108e+00 3.968430e+00 5.626966e+00 2.104139e+00 1.777988e+00 1.214838e+00 2.636518e+00
<GCONST> 1.027751e+02
<STATE> 4
<MEAN> 25
 1.306796e+01 -4.828020e+00 3.846351e-01 3.533209e+00 -7.588341e+00 -6.922839e+00 -5.074445e+00 -3.362957e+00 -3.393749e+00 5.338041e-01 -3.483834e+00 -1.868444e+00 -5.199050e-01 6.862574e-01 4.163849e-01 -9.281821e-02 -8.855168e-02 2.436522e-01 4.281680e-01 -8.549160e-02 -3.013951e-02 3.104177e-01 2.247065e-01 -7.517947e-02 -6.434804e-01
<VARIANCE> 25
 2.911116e+01 3.910273e+01 1.269825e+02 1.786343e+01 9.145314e+01 3.336611e+01 5.050208e+01 6.320656e+01 4.995752e+01 2.088036e+01 1.924899e+01 1.017316e+01 2.275905e+00 3.431340e+00 3.999726e+00 1.572662e+00 5.471080e+00 2.357615e+00 2.908649e+00 3.179474e+00 2.988427e+00 1.268993e+00 1.732169e+00 1.549511e+00 2.308794e+00
<GCONST> 1.008629e+02
<TRANSP> 5
 0.000000e+00 1.000000e+00 0.000000e+00 0.000000e+00 0.000000e+00
 0.000000e+00 5.577276e-01 4.422724e-01 0.000000e+00 0.000000e+00
 0.000000e+00 0.000000e+00 3.728132e-01 6.271868e-01 0.000000e+00
 0.000000e+00 0.000000e+00 0.000000e+00 6.761243e-01 3.238757e-01
 0.000000e+00 0.000000e+00 0.000000e+00 0.000000e+00 0.000000e+00
<ENDHMM>
~h "s"
<BEGINHMM>
<NUMSTATES> 5
<STATE> 2
<MEAN> 25
 -4.185481e+00 4.301598e+00 2.849840e+00 2.857862e+00 3.803191e+00 -6.688352e+00 5.346687e+00 -4.883926e+00 2.716751e+00 -3.955981e+00 -1.140569e+00 -1.179273e+00 -5.133873e+00 2.515321e-01 -1.230413e+00 -6.257547e-01 2.191786e+00 -7.908822e-01 3.286942e+00 3.755588e-01 1.335575e+00 -8.340656e-01 1.499647e+00 4.723140e-01 9.989045e-02
<VARIANCE> 25
 7.326537e+01 3.114427e+01 5.737576e+01 2.914638e+01 5.699417e+01 3.357989e+01 6.467677e+01 3.834254e+01 3.752106e+01 1.404057e+01 2.523101e+01 1.387032e+01 3.703623e+00 4.791711e+00 5.612440e+00 2.988847e+00 7.181760e+00 3.124823e+00 3.458283e+00 3.208180e+00 2.711852e+00 1.866321e+00 2.063054e+00 1.347398e+00 1.230750e+00
<GCONST> 1.026642e+02
<STATE> 3
<MEAN> 25
 -1.661700e+01 2.249131e+00 -4.499965e+00 -1.307142e+00 4.360830e+00 -9.813694e+00 1.260683e+01 -5.865871e+00 6.074547e+00 -4.568233e+00 1.208871e+00 3.471861e-01 -4.001728e-01 -5.721767e-01 -2.463188e-01 -6.226640e-01 -5.522411e-02 -5.700850e-02 4.082669e-02 1.378586e-01 1.485563e-01 2.295966e-01 -2.576764e-01 3.152424e-01 -7.487295e-02
<VARIANCE> 25
 1.032762e+01 1.086222e+01 1.874586e+01 1.618373e+01 2.240620e+01 2.349282e+01 2.045034e+01 2.461039e+01 2.663085e+01 1.933924e+01 1.533030e+01 1.718745e+01 2.525891e+00 1.433519e+00 2.393710e+00 1.440160e+00 1.823131e+00 2.411453e+00 2.977325e+00 2.314974e+00 2.411028e+00 1.679632e+00 1.938151e+00 1.583803e+00 6.399056e-01
<GCONST> 8.869672e+01
<STATE> 4
<MEAN> 25
 -9.959098e+00 -1.743804e-02 4.941338e-01 -1.159868e+00 3.977215e+00 -6.892565e+00 8.014803e+00 -3.838304e+00 4.338002e+00 -2.514216e+00 -1.746575e+00 1.140847e-01 4.291482e+00 -3.677791e-01 1.065470e+00 8.163254e-01 -1.447437e+00 1.326676e+00 -2.884957e+00 4.274972e-03 -6.787025e-01 5.008471e-01 -7.458844e-01 -6.447369e-01 -5.530964e-01
<VARIANCE> 25
 6.151301e+01 2.844653e+01 2.201625e+01 1.764892e+01 3.296322e+01 3.317683e+01 3.563506e+01 4.039814e+01 2.262429e+01 2.122173e+01 2.878553e+01 2.455483e+01 7.170922e+00 2.459255e+00 2.913105e+00 1.572808e+00 4.193584e+00 3.358579e+00 4.539838e+00 4.540637e+00 3.305795e+00 2.245100e+00 2.708092e+00 2.556788e+00 4.174001e+00
<GCONST> 1.018122e+02
<TRANSP> 5
 0.000000e+00 1.000000e+00 0.000000e+00 0.000000e+00 0.000000e+00
 0.000000e+00 6.928585e-01 3.071415e-01 0.000000e+00 0.000000e+00
 0.000000e+00 0.000000e+00 8.042731e-01 1.957269e-01 0.000000e+00
 0.000000e+00 0.000000e+00 0.000000e+00 6.613312e-01 3.386687e-01
 0.000000e+00 0.000000e+00 0.000000e+00 0.000000e+00 0.000000e+00
<ENDHMM>
~h "t"
<BEGINHMM>
<NUMSTATES> 5
<STATE> 2
<MEAN> 25
 2.787120e+00 3.655359e+00 4.384914e+00 3.699611e+00 -2.910526e+00 -2.866045e+00 -3.426839e+00 -2.816368e+00 -2.848440e+00 -3.924036e-01 -3.186868e+00 -3.936801e-01 -2.344978e+00 6.115175e-01 -6.312358e-01 -5.325524e-01 2.032763e+00 3.532316e-01 3.623853e-01 1.072135e+00 1.731443e-01 7.592475e-02 9.080663e-01 6.863343e-01 -1.595088e+00
<VARIANCE> 25
 4.990385e+01 4.296524e+01 2.476524e+01 2.132982e+01 4.955240e+01 3.706395e+01 3.548599e+01 4.268119e+01 4.201973e+01 3.089455e+01 2.666479e+01 2.409515e+01 3.561597e+00 8.732201e+00 3.744016e+00 2.330395e+00 3.378351e+00 3.271039e+00 3.086681e+00 4.229614e+00 2.667525e+00 3.705149e+00 1.944845e+00 2.088905e+00 8.072821e+00
<GCONST> 1.047159e+02
<STATE> 3
<MEAN> 25
 -4.715387e+00 -1.997734e+00 1.030497e-01 -1.095535e+00 1.084296e+00 -1.108600e+00 2.412365e+00 -7.773543e-01 -7.612599e-02 -1.927363e+00 1.749649e+00 2.071720e+00 -1.354719e+00 -2.223006e+00 -1.128678e-01 -1.201235e+00 -9.078451e-02 -3.120631e-01 1.968036e+00 1.632444e-01 1.450861e+00 -9.872953e-01 8.038941e-01 4.855092e-01 3.219491e+00
<VARIANCE> 25
 2.320376e+01 5.627375e+01 1.387207e+01 2.612851e+01 3.157454e+01 4.228122e+01 5.245411e+01 4.350586e+01 2.385515e+01 2.182563e+01 2.723194e+01 1.775465e+01 4.168956e+00 4.014433e+00 3.780632e+00 3.243971e+00 4.403837e+00 4.236601e+00 5.091596e+00 4.646444e+00 3.461587e+00 3.455947e+00 3.553509e+00 1.745143e+00 5.656909e+00
<GCONST> 1.038337e+02
<STATE> 4
<MEAN> 25
 -3.749819e+00 -4.693353e+00 3.304369e+00 5.020287e-01 8.112077e-01 -2.639359e+00 3.230236e+00 2.935885e-02 3.700077e+00 -2.663245e+00 -1.371305e-01 4.719752e-01 2.453048e+00 1.086379e-01 5.170930e-01 9.395992e-01 -6.505013e-01 -5.685091e-04 -1.569918e+00 -1.453941e-01 -2.172961e-01 3.565958e-01 -1.516247e+00 -9.035698e-01 -1.321284e-01
<VARIANCE> 25
 5.422102e+01 3.684624e+01 2.360381e+01 3.454628e+01 3.108314e+01 3.993949e+01 5.398049e+01 4.826051e+01 3.001620e+01 3.504353e+01 4.321649e+01 2.355500e+01 6.097202e+00 4.160567e+00 3.834102e+00 3.068597e+00 4.253948e+00 4.442883e+00 4.941662e+00 4.962331e+00 5.076084e+00 3.847034e+00 3.978793e+00 2.225910e+00 4.193453e+00
<GCONST> 1.075475e+02
<TRANSP> 5
 0.000000e+00 1.000000e+00 0.000000e+00 0.000000e+00 0.000000e+00
 0.000000e+00 5.055429e-01 4.944572e-01 0.000000e+00 0.000000e+00
 0.000000e+00 0.000000e+00 5.912226e-01 4.087774e-01 0.000000e+00
 0.000000e+00 0.000000e+00 0.000000e+00 6.118622e-01 3.881378e-01
 0.000000e+00 0.000000e+00 0.000000e+00 0.000000e+00 0.000000e+00
<ENDHMM>
~h "v"
<BEGINHMM>
<NUMSTATES> 5
<STATE> 2
<MEAN> 25
 2.994591e+00 -1.763433e+00 3.025790e+00 7.679102e+00 -3.041053e-01 -1.560211e+00 -2.235324e+00 -4.638800e+00 -4.001782e-01 1.399712e+00 -2.128345e+00 -2.015442e+00 -2.587269e+00 -2.584291e-01 2.872380e-01 4.104922e-01 1.163447e+00 1.095401e+00 1.325288e+00 6.953192e-01 6.771487e-01 -7.064069e-01 4.547368e-01 5.483786e-01 -1.389462e+00
<VARIANCE> 25
 3.725674e+01 1.609699e+01 1.771998e+01 1.249943e+01 2.181784e+01 2.274064e+01 4.200348e+01 1.810189e+01 1.453041e+01 1.922579e+01 1.370829e+01 1.224908e+01 1.875054e+00 4.076909e+00 2.039449e+00 2.807124e+00 2.609771e+00 1.232568e+00 3.438495e+00 2.472097e+00 2.805202e+00 3.441293e+00 1.331964e+00 1.088575e+00 2.653130e+00
<GCONST> 9.204223e+01
<STATE> 3
<MEAN> 25
 -7.504567e+00 -4.053210e+00 3.409619e+00 1.273276e+00 5.267182e+00 -1.025994e+00 9.537580e-01 -8.977705e-01 3.272647e+00 -2.588423e+00 -3.085702e-01 3.443726e-01 -2.505915e-01 -5.213406e-01 -4.662090e-01 -8.749743e-01 5.346449e-02 -5.521225e-01 1.325045e-01 2.269655e-01 5.679458e-03 1.040887e-03 -1.635596e-01 -1.540541e-01 4.630791e-01
<VARIANCE> 25
 3.682458e+01 2.477114e+01 1.236952e+01 7.001014e+01 5.416670e+01 3.734396e+01 1.933290e+01 1.990515e+01 2.072832e+01 2.619535e+01 1.382237e+01 9.655046e+00 4.750196e+00 4.977642e+00 2.199444e+00 3.253308e+00 4.968717e+00 5.066245e+00 3.067470e+00 1.513616e+00 2.791918e+00 2.051737e+00 2.381713e+00 1.305944e+00 1.990583e+00
<GCONST> 9.774326e+01
<STATE> 4
<MEAN> 25
 3.358078e+00 -5.718709e+00 3.671136e-02 3.429731e+00 -2.154624e+00 -3.180111e+00 -2.925471e+00 -4.428974e+00 2.115755e+00 -8.900490e-02 -2.726742e+00 -3.240166e+00 3.455000e+00 -6.223310e-01 -1.660531e+00 -5.805327e-01 -1.628961e+00 -1.937941e+00 -2.187704e+00 -4.982979e-01 2.874294e-01 4.947959e-01 -6.888805e-01 -7.852182e-01 2.230557e+00
<VARIANCE> 25
 5.134090e+01 2.619752e+01 2.793336e+01 2.393419e+01 3.807516e+01 2.844170e+01 4.166049e+01 2.564887e+01 2.448162e+01 2.076680e+01 1.689911e+01 1.935790e+01 4.847291e+00 2.359886e+00 4.054633e+00 2.285407e+00 6.401459e+00 4.322294e+00 5.309414e+00 2.705657e+00 2.308949e+00 2.974263e+00 1.470097e+00 1.808113e+00 3.654169e+00
<GCONST> 1.004882e+02
<TRANSP> 5
 0.000000e+00 1.000000e+00 0.000000e+00 0.000000e+00 0.000000e+00
 0.000000e+00 7.374865e-01 2.625135e-01 0.000000e+00 0.000000e+00
 0.000000e+00 0.000000e+00 5.078655e-01 4.921345e-01 0.000000e+00
 0.000000e+00 0.000000e+00 0.000000e+00 4.866897e-01 5.133104e-01
 0.000000e+00 0.000000e+00 0.000000e+00 0.000000e+00 0.000000e+00
<ENDHMM>
~h "w"
<BEGINHMM>
<NUMSTATES> 5
<STATE> 2
<MEAN> 25
 8.349837e+00 -2.757938e-01 -1.891649e+00 9.007139e-01 -2.397804e+00 -3.622031e-01 -2.729644e+00 -5.482030e+00 -3.582116e+00 1.454783e-01 -3.620244e+00 -4.579819e+00 2.969285e+00 4.318361e-02 -1.539804e+00 -1.634070e+00 -1.101801e+00 5.117512e-01 -9.024184e-01 -2.232551e+00 -1.669816e+00 9.113590e-01 9.548271e-01 -9.729307e-01 1.948391e+00
<VARIANCE> 25
 4.206594e+01 6.190906e+01 4.174102e+01 5.184883e+01 4.697365e+01 2.974540e+01 4.541278e+01 5.137652e+01 4.996369e+01 1.787643e+01 2.416356e+01 2.752542e+01 2.693645e+00 4.691604e+00 3.236114e+00 2.817675e+00 5.374117e+00 4.236538e+00 6.148310e+00 3.878581e+00 2.719322e+00 2.097031e+00 4.395245e+00 1.954452e+00 4.584488e+00
<GCONST> 1.062418e+02
<STATE> 3
<MEAN> 25
 1.431724e+01 3.593288e+00 -5.852610e+00 -7.614367e+00 -5.422983e+00 2.938558e+00 -3.365186e-01 -8.810449e+00 -1.066004e+01 1.001990e+00 -6.469180e-01 -5.248147e+00 3.469697e-01 8.125347e-02 -5.922407e-01 -8.154231e-01 -1.621401e-02 4.351553e-01 1.288344e-01 -2.959293e-01 -5.237616e-01 4.497821e-01 5.478863e-01 2.139075e-01 1.557507e-01
<VARIANCE> 25
 1.251390e+01 4.652396e+01 1.845083e+01 3.528489e+01 1.907051e+01 1.695305e+01 3.659220e+01 4.496794e+01 4.070267e+01 1.404395e+01 3.119623e+01 1.332119e+01 1.342266e+00 9.006394e+00 1.840942e+00 3.368655e+00 2.651879e+00 3.149746e+00 6.892636e+00 4.860086e+00 6.217073e+00 3.373787e+00 4.867999e+00 1.954555e+00 4.133190e+00
<GCONST> 1.010212e+02
<STATE> 4
<MEAN> 25
 1.493359e+01 -4.235192e+00 -5.414690e+00 -2.273911e+00 -4.613787e+00 -1.506644e-01 -6.848487e+00 -1.189653e+01 -5.236642e+00 7.172373e+00 7.757170e-01 -8.304538e+00 -2.551305e-02 -2.018913e+00 1.015506e+00 1.920407e+00 -1.066689e+00 -2.726813e+00 -1.619392e+00 1.046834e+00 3.091185e+00 1.975390e-01 -1.232804e+00 -1.027136e+00 1.240331e+00
<VARIANCE> 25
 2.301202e+01 3.250761e+01 1.883340e+01 2.416395e+01 1.071789e+01 2.150936e+01 4.431997e+01 4.498748e+01 2.557999e+01 2.575760e+01 1.532148e+01 2.091378e+01 1.402475e+00 5.240631e+00 1.595195e+00 3.058071e+00 2.774457e+00 3.570394e+00 4.788976e+00 3.540165e+00 4.611958e+00 4.280586e+00 1.832534e+00 3.259724e+00 2.624127e+00
<GCONST> 9.842123e+01
<TRANSP> 5
 0.000000e+00 1.000000e+00 0.000000e+00 0.000000e+00 0.000000e+00
 0.000000e+00 5.305994e-01 4.694006e-01 0.000000e+00 0.000000e+00
 0.000000e+00 0.000000e+00 7.425646e-01 2.574355e-01 0.000000e+00
 0.000000e+00 0.000000e+00 0.000000e+00 4.219700e-01 5.780300e-01
 0.000000e+00 0.000000e+00 0.000000e+00 0.000000e+00 0.000000e+00
<ENDHMM>
~h "y"
<BEGINHMM>
<NUMSTATES> 5
<STATE> 2
<MEAN> 25
 2.148500e+00 -6.847337e+00 1.058642e+01 -2.720011e-01 -1.405308e+01 2.166349e-01 1.694412e+00 -7.992780e+00 -2.229710e+00 -2.728468e+00 -5.472992e-01 -1.866748e+00 2.623501e-01 -5.378496e-01 1.814037e-01 4.295079e-01 -1.165300e+00 -1.025119e+00 1.057751e+00 9.159813e-01 -3.624242e-01 -4.467840e-01 4.520189e-01 3.625297e-02 6.229731e-01
<VARIANCE> 25
 1.052367e+02 3.029815e+01 4.800280e+01 1.263236e+01 9.858304e+01 3.903651e+01 1.168572e+01 4.936913e+01 6.534597e+01 1.311532e+01 1.589978e+01 7.860646e+00 2.718524e+00 2.499387e+00 4.402329e+00 3.004779e+00 3.889085e+00 2.638741e+00 1.744343e+00 3.094505e+00 2.245347e+00 1.287264e+00 3.068341e+00 1.021191e+00 1.213775e+00
<GCONST> 9.752666e+01
<STATE> 3
<MEAN> 25
 -1.306660e+00 -8.214869e+00 7.045037e+00 2.238060e+00 -1.021174e+01 6.719983e-01 4.282759e+00 -2.381946e+00 -1.945411e+00 -4.339248e+00 9.857992e-01 -2.953815e-02 2.737386e+00 1.352847e-01 5.523370e-01 1.809458e+00 -1.249562e+00 -1.632507e+00 -7.281535e-01 -5.258802e-02 -1.328711e+00 -8.451009e-01 -7.168032e-01 -5.276395e-01 6.040651e-01
<VARIANCE> 25
 1.062769e+02 7.655247e+01 2.968694e+01 1.345842e+01 1.068996e+02 6.682455e+01 1.391566e+01 2.193618e+01 4.090378e+01 1.562259e+01 1.333620e+01 6.075458e+00 2.635721e+00 1.851712e+00 1.041417e+01 2.128243e+00 7.604992e+00 1.636227e+00 1.905619e+00 8.662760e+00 5.318854e+00 1.779674e+00 1.818934e+00 8.982304e-01 2.728774e+00
<GCONST> 1.001423e+02
<STATE> 4
<MEAN> 25
 8.003957e+00 -4.575449e+00 1.167165e+01 5.572406e+00 -1.424192e+01 -4.577996e+00 -6.293824e-01 -5.971770e+00 -6.331552e+00 -6.412389e+00 -2.344192e+00 -3.420694e+00 2.940260e+00 -4.306345e-01 4.797365e-01 5.180824e-01 -1.529462e+00 -2.016656e+00 -1.871006e+00 -7.020665e-01 -8.953447e-01 -2.801697e-01 -2.366777e-01 -8.037122e-01 1.887444e+00
<VARIANCE> 25
 3.162416e+01 7.325935e+01 4.226506e+01 1.380403e+01 4.291708e+01 5.773161e+01 2.318223e+01 2.495549e+01 1.907624e+01 1.117252e+01 1.150728e+01 6.708236e+00 3.596998e+00 2.110672e+00 1.257037e+01 2.057740e+00 1.026373e+01 5.121048e+00 5.711687e+00 7.862286e+00 6.705178e+00 1.908563e+00 2.350622e+00 9.092203e-01 3.157402e+00
<GCONST> 1.014527e+02
<TRANSP> 5
 0.000000e+00 1.000000e+00 0.000000e+00 0.000000e+00 0.000000e+00
 0.000000e+00 5.926698e-01 4.073303e-01 0.000000e+00 0.000000e+00
 0.000000e+00 0.000000e+00 2.650548e-01 7.349452e-01 0.000000e+00
 0.000000e+00 0.000000e+00 0.000000e+00 5.122411e-01 4.877588e-01
 0.000000e+00 0.000000e+00 0.000000e+00 0.000000e+00 0.000000e+00
<ENDHMM>
~h "z"
<BEGINHMM>
<NUMSTATES> 5
<STATE> 2
<MEAN> 25
 1.114206e+01 -2.085396e+00 3.736991e+00 2.556678e+00 -9.294717e+00 -8.708220e+00 -5.956625e+00 -6.953819e+00 -8.827797e-01 -1.602005e+00 -5.366636e+00 -9.538124e-01 -1.947732e+00 2.454733e+00 -3.493504e-02 -4.318262e-01 3.431748e+00 -1.385484e+00 6.402206e-01 -2.488561e-01 6.267264e-01 -5.678898e-01 -7.002010e-01 7.826673e-01 -7.570884e-01
<VARIANCE> 25
 2.866498e+01 2.108689e+01 3.692452e+01 1.803363e+01 4.636671e+01 2.168035e+01 6.196481e+01 2.713513e+01 3.350076e+01 3.338787e+01 1.548636e+01 1.685303e+01 4.238565e+00 3.227987e+00 2.294998e+00 2.553721e+00 5.580552e+00 3.459555e+00 4.127183e+00 2.663419e+00 1.466271e+00 2.284325e+00 1.415302e+00 8.927882e-01 6.883098e-01
<GCONST> 9.658822e+01
<STATE> 3
<MEAN> 25
 3.602601e+00 5.475718e+00 4.436309e+00 9.984202e-01 2.882032e+00 -1.429299e+01 -1.385326e+00 -1.030562e+01 5.449405e-01 -2.512013e+00 -6.766686e+00 1.913041e-01 -4.833350e+00 2.976802e+00 2.649735e-01 -3.337472e-01 4.727543e+00 -1.708063e+00 2.425732e+00 3.432517e-01 1.666006e+00 -1.181250e+00 6.779574e-01 5.228380e-01 -7.320367e-01
<VARIANCE> 25
 3.320117e+01 2.646465e+01 3.416203e+01 3.663186e+01 7.464589e+01 4.298207e+01 5.768448e+01 4.574564e+01 3.901670e+01 4.002656e+01 3.373046e+01 1.140744e+01 4.440931e+00 3.756778e+00 2.240763e+00 2.482164e+00 5.122581e+00 4.294006e+00 3.017838e+00 4.072200e+00 2.877384e+00 2.152111e+00 1.596443e+00 2.378701e+00 6.554261e-01
<GCONST> 1.019804e+02
<STATE> 4
<MEAN> 25
 -9.196396e+00 7.121478e+00 3.659592e+00 3.109879e+00 7.776118e+00 -1.155257e+01 5.893020e+00 -6.004496e+00 4.463217e+00 -5.319614e+00 -3.001750e+00 -1.414537e+00 -6.466773e-01 -1.303314e+00 -5.380000e-01 2.163254e-01 -4.682201e-01 1.287905e+00 4.259613e-01 8.251216e-01 2.459011e-01 1.212244e-02 4.873884e-01 -1.891873e-01 -4.453859e-01
<VARIANCE> 25
 4.173713e+01 3.609090e+01 3.107120e+01 3.011662e+01 3.679352e+01 4.786470e+01 5.262771e+01 3.973180e+01 2.263338e+01 2.938546e+01 1.575314e+01 1.487920e+01 1.416226e+01 4.100239e+00 2.059693e+00 2.876143e+00 6.124046e+00 3.700498e+00 6.591170e+00 4.079500e+00 3.127882e+00 3.211381e+00 2.244715e+00 1.565847e+00 1.358967e+00
<GCONST> 1.033056e+02
<TRANSP> 5
 0.000000e+00 1.000000e+00 0.000000e+00 0.000000e+00 0.000000e+00
 0.000000e+00 3.365030e-01 6.634970e-01 0.000000e+00 0.000000e+00
 0.000000e+00 0.000000e+00 4.380801e-01 5.619199e-01 0.000000e+00
 0.000000e+00 0.000000e+00 0.000000e+00 7.555209e-01 2.444792e-01
 0.000000e+00 0.000000e+00 0.000000e+00 0.000000e+00 0.000000e+00
<ENDHMM>
~h "aa"
<BEGINHMM>
<NUMSTATES> 5
<STATE> 2
<MEAN> 25
 6.367647e+00 -8.290421e-01 2.517372e-01 2.973430e+00 -1.354652e+00 -3.484770e+00 -5.728436e+00 -4.709411e+00 -1.336583e+00 2.012052e+00 -1.905888e+00 -2.928096e+00 1.799323e-01 7.730351e-01 -7.561037e-02 4.244528e-01 1.261709e+00 -6.908293e-02 -8.240533e-01 4.091215e-01 5.584136e-01 -5.163217e-01 -6.112745e-01 -5.048039e-01 -4.849398e-01
<VARIANCE> 25
 6.437425e+01 5.596475e+01 3.038137e+01 7.083300e+01 3.010375e+01 6.733778e+01 4.338659e+01 5.989458e+01 6.207376e+01 3.484814e+01 1.354612e+01 3.101313e+01 7.024746e+00 7.760699e+00 3.429219e+00 3.520188e+00 4.440594e+00 4.184552e+00 6.103955e+00 4.213194e+00 8.416282e+00 2.496386e+00 1.365190e+00 2.288737e+00 5.873389e+00
<GCONST> 1.096209e+02
<STATE> 3
<MEAN> 25
 9.398676e+00 -3.862948e+00 -8.017249e-01 3.942844e+00 -2.699395e+00 -3.499867e+00 -6.863767e+00 -7.887132e+00 -9.750908e-01 1.038428e+00 -2.011799e+00 -5.062143e+00 1.494025e+00 -2.822649e-01 -1.028549e+00 -1.737816e+00 -8.293419e-01 5.490624e-01 -9.849470e-01 -1.044397e+00 6.690167e-01 -2.703310e-01 -2.624658e-01 -9.825281e-01 1.661796e+00
<VARIANCE> 25
 4.749952e+01 4.919381e+01 2.894839e+01 3.650867e+01 5.123916e+01 4.506918e+01 3.403127e+01 4.739682e+01 3.849659e+01 2.221257e+01 3.071128e+01 2.509624e+01 5.232435e+00 7.016036e+00 4.859798e+00 3.758505e+00 6.335411e+00 6.434424e+00 6.596201e+00 7.436094e+00 7.452131e+00 5.240475e+00 3.902871e+00 4.302543e+00 3.158595e+00
<GCONST> 1.109403e+02
<STATE> 4
<MEAN> 25
 1.187740e+01 -5.160498e+00 -5.759661e+00 -4.882001e+00 -3.750965e+00 2.405859e+00 -2.671665e+00 -8.795447e+00 3.715305e-01 5.191548e-01 -8.764616e-01 -4.040440e+00 -2.563560e-01 7.825446e-02 2.578017e-01 7.735679e-02 8.485489e-02 -1.458688e-01 2.742671e-01 -1.196341e-02 -1.060305e-02 -9.925219e-02 -2.219206e-01 -7.819432e-02 -3.632009e-02
<VARIANCE> 25
 2.690932e+01 4.203487e+01 2.841179e+01 3.759720e+01 3.354222e+01 4.108929e+01 5.497943e+01 3.017909e+01 5.116481e+01 4.376176e+01 2.611514e+01 2.917118e+01 3.148337e+00 5.761335e+00 2.330851e+00 4.082170e+00 4.953652e+00 3.529929e+00 3.575377e+00 2.686015e+00 4.411908e+00 5.221260e+00 2.737294e+00 2.997880e+00 3.111227e+00
<GCONST> 1.055952e+02
<TRANSP> 5
 0.000000e+00 1.000000e+00 0.000000e+00 0.000000e+00 0.000000e+00
 0.000000e+00 2.805543e-01 7.194457e-01 0.000000e+00 0.000000e+00
 0.000000e+00 0.000000e+00 4.136322e-01 5.863677e-01 0.000000e+00
 0.000000e+00 0.000000e+00 0.000000e+00 8.770249e-01 1.229751e-01
 0.000000e+00 0.000000e+00 0.000000e+00 0.000000e+00 0.000000e+00
<ENDHMM>
~h "ae"
<BEGINHMM>
<NUMSTATES> 5
<STATE> 2
<MEAN> 25
 7.220946e+00 -2.706613e+00 6.538512e+00 3.150182e+00 -5.218729e+00 -2.028859e-01 3.548248e+00 2.199263e-01 -2.406196e+00 -3.990554e+00 -1.915449e+00 -2.584217e+00 1.525525e+00 -9.407808e-01 4.815470e-01 2.432064e-02 -1.898652e+00 -7.806076e-01 4.316053e-01 -1.191059e-01 -3.253539e-01 -2.413436e-01 2.463756e-02 -6.426678e-01 1.745548e+00
<VARIANCE> 25
 3.456873e+01 3.390466e+01 4.052651e+01 1.749420e+01 8.311324e+01 6.223953e+01 4.811192e+01 5.981227e+01 2.324796e+01 2.803681e+01 2.725419e+01 1.453676e+01 6.113111e+00 3.766958e+00 2.948616e+00 2.761793e+00 8.878671e+00 6.533261e+00 3.731325e+00 5.362932e+00 1.790872e+00 3.580302e+00 3.509504e+00 2.904724e+00 4.328676e+00
<GCONST> 1.064908e+02
<STATE> 3
<MEAN> 25
 1.157356e+01 -4.031588e+00 6.062340e+00 2.326940e+00 -1.454091e+01 -5.882195e+00 3.777448e+00 -4.350675e+00 -2.855793e+00 -3.338923e+00 -8.542548e-01 -4.748887e+00 6.874678e-01 -1.546459e+00 -7.996109e-01 -6.188939e-01 -1.469311e+00 -7.196727e-01 -7.854620e-02 3.073123e-01 7.347090e-01 -7.559261e-01 4.564001e-01 8.222532e-01 1.563009e+00
<VARIANCE> 25
 6.256825e+00 2.685163e+01 2.609074e+01 2.613625e+01 3.465564e+01 2.784195e+01 3.353430e+01 3.957275e+01 2.659547e+01 1.827332e+01 2.348452e+01 2.716673e+01 1.638903e+00 1.920897e+00 3.932594e+00 2.773440e+00 2.547388e+00 2.079346e+00 2.380568e+00 3.693051e+00 1.543682e+00 2.574338e+00 2.108489e+00 2.476257e+00 1.220658e+00
<GCONST> 9.491205e+01
<STATE> 4
<MEAN> 25
 1.249087e+01 -7.996553e+00 4.809586e+00 -4.810050e-01 -1.687075e+01 -4.620796e+00 4.297952e+00 -4.213340e+00 -2.874053e+00 -3.529603e+00 1.645253e-01 -2.503860e+00 7.949017e-02 2.403881e-01 -2.852236e-01 3.742024e-01 4.070330e-01 -1.635487e-01 -4.852863e-01 -7.815798e-02 2.636383e-02 1.926588e-01 -2.400846e-01 1.376341e-01 -3.246363e-01
<VARIANCE> 25
 7.347469e+00 7.630449e+00 1.701910e+01 1.139162e+01 1.554408e+01 1.834929e+01 2.015594e+01 2.051511e+01 2.776217e+01 2.502552e+01 1.490937e+01 7.039651e+00 3.511337e-01 1.315885e+00 1.382058e+00 1.550874e+00 1.404775e+00 1.512283e+00 1.575934e+00 2.503168e+00 1.008006e+00 1.420725e+00 1.361086e+00 6.705068e-01 1.136572e+00
<GCONST> 8.062762e+01
<TRANSP> 5
 0.000000e+00 1.000000e+00 0.000000e+00 0.000000e+00 0.000000e+00
 0.000000e+00 5.253496e-01 4.746504e-01 0.000000e+00 0.000000e+00
 0.000000e+00 0.000000e+00 4.699005e-01 5.300995e-01 0.000000e+00
 0.000000e+00 0.000000e+00 0.000000e+00 7.653584e-01 2.346416e-01
 0.000000e+00 0.000000e+00 0.000000e+00 0.000000e+00 0.000000e+00
<ENDHMM>
~h "ah"
<BEGINHMM>
<NUMSTATES> 5
<STATE> 2
<MEAN> 25
 1.114180e+01 -2.192248e+00 7.619588e+00 3.847617e+00 -8.445288e+00 -6.052408e+00 -4.635643e+00 -7.379166e+00 -4.202201e+00 -1.265002e+00 -3.738203e+00 -5.236655e+00 1.825969e+00 -8.322591e-01 -1.091030e+00 9.284693e-02 -9.262856e-01 1.415258e-01 -1.294158e+00 -4.373502e-01 3.002990e-01 1.124012e+00 -8.828912e-01 -6.945406e-01 4.554236e-01
<VARIANCE> 25
 1.217943e+01 3.309163e+01 7.372700e+01 2.525911e+01 4.175542e+01 3.769505e+01 2.258334e+01 5.415656e+01 4.273132e+01 2.367547e+01 1.972799e+01 1.837168e+01 5.519923e+00 3.137458e+00 8.315192e+00 2.406158e+00 8.294214e+00 5.663438e+00 3.527913e+00 2.415190e+00 3.643586e+00 3.085763e+00 1.947891e+00 2.109540e+00 1.906940e+00
<GCONST> 1.030766e+02
<STATE> 3
<MEAN> 25
 1.630706e+01 -7.400056e+00 -6.203528e+00 -2.075538e+00 -3.965279e+00 -1.359919e+00 -5.554142e+00 -7.657825e+00 -7.063741e-01 4.654995e+00 -4.704770e+00 -1.008581e+01 -2.985708e-02 7.042000e-01 -2.836999e-01 2.833590e-01 5.594922e-01 3.839611e-01 -2.803865e-01 -8.303930e-01 -4.570805e-01 7.494932e-01 3.018306e-01 1.544770e-02 -7.209463e-01
<VARIANCE> 25
 5.181236e+00 3.827813e+01 2.126525e+01 1.841048e+01 8.961018e+00 1.805607e+01 2.157113e+01 4.530060e+01 4.240952e+01 1.866442e+01 1.872418e+01 2.678959e+01 7.633582e-01 5.212037e+00 3.283207e+00 3.000496e+00 1.746478e+00 1.729755e+00 1.391047e+00 5.106023e+00 3.869508e+00 1.544867e+00 2.983931e+00 2.077651e+00 2.176950e+00
<GCONST> 9.319479e+01
<STATE> 4
<MEAN> 25
 1.090267e+01 5.433553e-01 -3.110848e-01 4.220599e+00 -4.486788e-01 -1.332687e+00 -7.510337e+00 -1.192885e+01 -3.084846e+00 5.173588e+00 -4.510678e+00 -5.438903e+00 -2.396174e+00 1.633001e+00 1.390211e+00 1.677421e+00 1.454120e+00 7.636445e-01 1.127320e+00 2.858186e-01 -7.484963e-01 -9.324504e-01 6.815470e-02 1.032313e+00 -2.452943e+00
<VARIANCE> 25
 1.370364e+01 2.044186e+01 1.236825e+01 1.825708e+01 3.097001e+01 2.196287e+01 1.601331e+01 2.437191e+01 3.548591e+01 1.485395e+01 1.821793e+01 1.293978e+01 1.874991e+00 1.355590e+00 1.620065e+00 2.523598e+00 2.426565e+00 2.155292e+00 1.486353e+00 5.238366e+00 2.542045e+00 2.793639e+00 1.492427e+00 1.446859e+00 1.236891e+00
<GCONST> 9.021163e+01
<TRANSP> 5
 0.000000e+00 1.000000e+00 0.000000e+00 0.000000e+00 0.000000e+00
 0.000000e+00 6.526281e-01 3.473719e-01 0.000000e+00 0.000000e+00
 0.000000e+00 0.000000e+00 7.528823e-01 2.471178e-01 0.000000e+00
 0.000000e+00 0.000000e+00 0.000000e+00 4.026008e-01 5.973992e-01
 0.000000e+00 0.000000e+00 0.000000e+00 0.000000e+00 0.000000e+00
<ENDHMM>
~h "ao"
<BEGINHMM>
<NUMSTATES> 5
<STATE> 2
<MEAN> 25
 6.415540e+00 -4.609695e+00 -5.262128e-01 1.421194e+00 -3.016148e+00 -1.951368e-01 -3.426195e+00 -3.519416e+00 1.269096e+00 2.054149e+00 2.158834e-01 -3.455249e+00 2.293055e+00 1.064863e+00 -1.184772e+00 -1.694581e+00 -8.318555e-01 5.427160e-01 -3.407283e-01 -1.569591e+00 -1.629516e+00 6.502978e-01 5.967942e-01 -8.061478e-01 7.733833e-01
<VARIANCE> 25
 8.896832e+01 6.457645e+01 3.148981e+01 4.859348e+01 5.350135e+01 5.910634e+01 3.283590e+01 6.164876e+01 5.339000e+01 3.642907e+01 2.991880e+01 3.175330e+01 3.562453e+00 9.257759e+00 5.221003e+00 7.458753e+00 6.139666e+00 3.812640e+00 4.598309e+00 5.175643e+00 7.352633e+00 6.627791e+00 3.125436e+00 2.295611e+00 4.696908e+00
<GCONST> 1.129223e+02
<STATE> 3
<MEAN> 25
 1.506705e+01 3.975775e+00 -5.160051e+00 -1.435623e+01 -1.139943e+01 5.815863e+00 9.067912e-02 -7.866809e+00 -6.774865e+00 -1.399596e+00 -2.248293e-01 -4.115970e+00 1.937024e-02 1.112810e+00 -1.913209e-02 -1.428591e+00 -5.758269e-01 2.729033e-01 5.653164e-01 7.162088e-01 -3.355959e-01 -9.432483e-01 -5.896726e-01 4.258496e-01 -5.109261e-01
<VARIANCE> 25
 1.007833e+01 2.611270e+01 1.079239e+01 3.625691e+01 2.413461e+01 2.756519e+01 1.944957e+01 2.537027e+01 1.552095e+01 4.835868e+01 2.818680e+01 1.440567e+01 2.605198e-01 1.662483e+00 9.459013e-01 2.849580e+00 2.709152e+00 2.062404e+00 1.947877e+00 3.170052e+00 2.090973e+00 1.908544e+00 2.083766e+00 1.597982e+00 8.087355e-01
<GCONST> 8.888850e+01
<STATE> 4
<MEAN> 25
 1.227329e+01 9.218443e+00 -2.463376e+00 -1.134125e+01 -8.583297e+00 3.207236e+00 -3.291582e+00 -7.180833e+00 -7.503809e+00 -2.173191e+00 -2.142018e+00 -2.450453e+00 -9.828193e-01 -6.234015e-01 5.347930e-01 2.356300e+00 1.604556e+00 -4.983388e-01 -5.763763e-01 -5.021772e-01 4.411701e-01 9.154054e-01 5.269896e-01 1.140442e-01 -5.367904e-01
<VARIANCE> 25
 2.346116e+01 5.361004e+01 1.583072e+01 4.216842e+01 6.799982e+01 5.247017e+01 2.413155e+01 6.241257e+01 1.666838e+01 2.154267e+01 2.704742e+01 2.654163e+01 1.903515e+00 4.853048e+00 2.054917e+00 7.318280e+00 6.161336e+00 5.094691e+00 1.971806e+00 4.852303e+00 3.789192e+00 3.589394e+00 3.561610e+00 2.960565e+00 2.526792e+00
<GCONST> 1.040760e+02
<TRANSP> 5
 0.000000e+00 1.000000e+00 0.000000e+00 0.000000e+00 0.000000e+00
 0.000000e+00 7.469161e-01 2.530839e-01 0.000000e+00 0.000000e+00
 0.000000e+00 0.000000e+00 8.250852e-01 1.749148e-01 0.000000e+00
 0.000000e+00 0.000000e+00 0.000000e+00 8.018857e-01 1.981144e-01
 0.000000e+00 0.000000e+00 0.000000e+00 0.000000e+00 0.000000e+00
<ENDHMM>
~h "aw"
<BEGINHMM>
<NUMSTATES> 5
<STATE> 2
<MEAN> 25
 1.324214e+01 -8.006045e+00 2.772797e+00 9.943297e-01 -1.382953e+01 -6.395805e+00 1.260254e+00 -4.026336e+00 -2.699646e-01 -6.789192e+00 -2.549464e+00 -3.276345e+00 2.399924e-01 -2.398629e+00 -1.477654e+00 -4.916112e-01 -1.918634e-01 6.138034e-01 4.355248e-01 1.566553e+00 1.481053e+00 -1.603963e+00 -3.048815e-01 2.321386e-01 1.350514e+00
<VARIANCE> 25
 6.886730e+00 4.377464e+01 2.045794e+01 6.314163e+00 3.696815e+01 5.474691e+00 2.771391e+01 2.104924e+01 1.976903e+01 3.034659e+01 2.540080e+01 1.162065e+01 4.554752e-01 3.252381e+00 2.228321e+00 1.229178e+00 3.310188e+00 1.746474e+00 1.649054e+00 2.931682e+00 2.524923e+00 1.517121e+00 2.214818e+00 1.048499e+00 1.368730e+00
<GCONST> 8.751049e+01
<STATE> 3
<MEAN> 25
 1.467193e+01 -1.366133e+01 -5.018342e+00 1.169682e+00 -9.141758e+00 -1.619137e+00 1.056580e+00 -4.025623e+00 4.342634e+00 -6.869685e+00 -8.527886e+00 -5.174722e+00 4.069894e-01 2.115078e-02 -9.608346e-01 -2.050142e-01 1.102234e+00 1.025915e+00 -9.118772e-01 -7.793496e-01 2.792083e-01 9.095534e-01 -4.094427e-01 -9.642104e-01 -2.252285e-01
<VARIANCE> 25
 5.299309e+00 3.434702e+00 5.934552e+00 2.012871e+00 1.579939e+01 1.639798e+01 1.984017e+01 1.511423e+01 2.014785e+01 1.977949e+01 9.750422e+00 1.028921e+01 9.317636e-02 3.972453e-01 2.956304e-01 4.592496e-01 8.035893e-01 3.176942e-01 9.296695e-01 6.950235e-01 1.015384e+00 7.594493e-01 7.887883e-01 6.834386e-01 1.230710e-01
<GCONST> 6.311731e+01
<STATE> 4
<MEAN> 25
 1.586254e+01 -5.982626e+00 -9.316480e+00 -5.305236e+00 -2.899391e+00 5.698582e+00 -1.830081e+00 -1.028214e+01 1.853806e+00 -5.657516e-01 -3.420578e+00 -7.018715e+00 6.992617e-02 1.207917e+00 4.798934e-02 -6.479317e-01 1.149075e-01 2.945583e-01 -7.513620e-02 -3.822897e-01 -5.802994e-01 4.697963e-01 5.491911e-01 5.006752e-01 -6.022713e-01
<VARIANCE> 25
 4.391022e+00 2.770005e+01 5.853227e+00 1.346509e+01 1.188153e+01 2.224802e+01 1.501383e+01 1.928511e+01 4.260484e+01 2.850148e+01 3.117957e+01 2.318600e+01 1.347130e-01 1.213805e+00 6.398980e-01 1.246016e+00 1.429264e+00 1.385814e+00 1.971770e+00 1.440247e+00 3.451699e+00 1.183456e+00 2.398983e+00 1.862522e+00 3.111333e-01
<GCONST> 8.147240e+01
<TRANSP> 5
 0.000000e+00 1.000000e+00 0.000000e+00 0.000000e+00 0.000000e+00
 0.000000e+00 7.370791e-01 2.629209e-01 0.000000e+00 0.000000e+00
 0.000000e+00 0.000000e+00 8.230878e-01 1.769122e-01 0.000000e+00
 0.000000e+00 0.000000e+00 0.000000e+00 8.576617e-01 1.423383e-01
 0.000000e+00 0.000000e+00 0.000000e+00 0.000000e+00 0.000000e+00
<ENDHMM>
~h "ax"
<BEGINHMM>
<NUMSTATES> 5
<STATE> 2
<MEAN> 25
 4.817702e+00 1.457412e+00 3.305919e+00 2.686317e+00 -2.446748e+00 -5.106012e+00 -3.195072e+00 -4.261179e+00 -1.614472e+00 -4.364755e-01 -3.783319e+00 -3.050652e+00 4.918876e-01 7.642836e-01 -3.827564e-01 3.148694e-02 4.558650e-01 -4.999683e-02 -1.460892e+00 3.808963e-01 -4.696792e-01 -1.264533e-01 -4.628400e-01 1.080168e-01 -9.206719e-01
<VARIANCE> 25
 4.655633e+01 4.864378e+01 3.603995e+01 2.742379e+01 7.733133e+01 4.493576e+01 4.749871e+01 4.246915e+01 4.588089e+01 4.153738e+01 2.322711e+01 2.013203e+01 1.093364e+01 6.702210e+00 2.159100e+00 2.770993e+00 5.961257e+00 2.028057e+00 3.913863e+00 4.401001e+00 4.005193e+00 2.927203e+00 2.466604e+00 3.168072e+00 7.092472e+00
<GCONST> 1.079298e+02
<STATE> 3
<MEAN> 25
 5.296034e+00 1.604063e+00 2.208127e+00 2.851310e+00 -1.637890e+00 -5.164721e+00 -4.906500e+00 -3.287744e+00 -1.204962e+00 -1.367430e+00 -4.547658e+00 -2.027507e+00 1.162250e+00 -5.519912e-01 -7.463137e-01 -4.047305e-01 -4.923725e-01 1.056742e-02 -1.095103e+00 7.331527e-02 8.173558e-02 2.121700e-01 -3.859916e-01 1.008489e-01 3.727710e-01
<VARIANCE> 25
 4.837408e+01 4.857368e+01 2.944675e+01 2.371137e+01 6.138220e+01 3.583162e+01 4.818864e+01 4.713388e+01 3.500756e+01 2.568081e+01 2.452378e+01 2.962395e+01 8.315939e+00 6.807631e+00 2.255776e+00 2.896180e+00 6.958164e+00 3.099661e+00 3.683318e+00 5.273751e+00 3.942472e+00 2.984326e+00 1.865786e+00 2.784378e+00 4.586229e+00
<GCONST> 1.066579e+02
<STATE> 4
<MEAN> 25
 6.867876e+00 2.915356e-01 7.678561e-01 1.795748e+00 -2.746597e+00 -5.403504e+00 -5.466691e+00 -3.445118e+00 -5.065843e-01 -5.338255e-01 -4.827171e+00 -2.220219e+00 9.590889e-01 -1.125576e+00 -6.107574e-01 -4.212998e-01 -6.935360e-01 4.267865e-01 7.858474e-03 -3.971031e-01 4.081811e-01 4.380627e-01 2.849508e-02 -2.233887e-01 1.064006e+00
<VARIANCE> 25
 4.974408e+01 5.714680e+01 3.023616e+01 1.920216e+01 5.041666e+01 3.080098e+01 3.199252e+01 4.631080e+01 3.903247e+01 2.667483e+01 2.245121e+01 2.602859e+01 6.136090e+00 7.641910e+00 2.178805e+00 3.196921e+00 7.282943e+00 3.487780e+00 5.362916e+00 4.991203e+00 3.999529e+00 3.293436e+00 2.485894e+00 1.870271e+00 5.222613e+00
<GCONST> 1.063095e+02
<TRANSP> 5
 0.000000e+00 1.000000e+00 0.000000e+00 0.000000e+00 0.000000e+00
 0.000000e+00 1.698524e-01 8.301476e-01 0.000000e+00 0.000000e+00
 0.000000e+00 0.000000e+00 3.591386e-02 9.640861e-01 0.000000e+00
 0.000000e+00 0.000000e+00 0.000000e+00 1.284315e-01 8.715685e-01
 0.000000e+00 0.000000e+00 0.000000e+00 0.000000e+00 0.000000e+00
<ENDHMM>
~h "ay"
<BEGINHMM>
<NUMSTATES> 5
<STATE> 2
<MEAN> 25
 1.195132e+01 -6.318187e+00 -6.246156e+00 -3.288278e+00 -3.377109e+00 4.717158e+00 -5.234610e-01 -6.353193e+00 -7.814504e-01 -1.729204e-01 -2.890141e+00 -6.255666e+00 2.399794e+00 -1.052764e+00 -1.894889e+00 -1.334930e+00 -9.219017e-03 1.040442e+00 -6.885842e-01 -6.661896e-01 2.397558e-01 4.644249e-01 -1.356243e-01 -1.639014e+00 1.849488e+00
<VARIANCE> 25
 4.354512e+01 3.037481e+01 2.939863e+01 2.737200e+01 2.203876e+01 2.961743e+01 1.772751e+01 3.054716e+01 3.053045e+01 3.093580e+01 2.738885e+01 1.801443e+01 4.916896e+00 5.082460e+00 2.490390e+00 3.504045e+00 3.081061e+00 2.866482e+00 2.780394e+00 5.438926e+00 5.326231e+00 2.654034e+00 2.889912e+00 2.158743e+00 2.708148e+00
<GCONST> 1.014074e+02
<STATE> 3
<MEAN> 25
 1.611588e+01 -1.112588e+01 -9.969351e+00 -3.660570e+00 -1.184233e+00 3.925999e+00 -3.694371e+00 -6.608566e+00 2.563256e+00 3.201080e-01 -5.246134e+00 -1.061214e+01 -1.144059e-01 -6.227331e-01 3.111817e-01 8.220772e-01 -1.440360e-01 -1.057534e+00 -6.870808e-02 9.251837e-01 6.979555e-01 -9.087020e-01 -1.060553e+00 2.161367e-01 2.554110e-01
<VARIANCE> 25
 2.914930e+00 1.213007e+01 3.926191e+00 1.076391e+01 1.067767e+01 1.302523e+01 9.726459e+00 8.814131e+00 1.545092e+01 1.468960e+01 1.167862e+01 1.445002e+01 1.298896e-01 1.051609e+00 7.909261e-01 6.893954e-01 1.303261e+00 1.215730e+00 7.781712e-01 1.182083e+00 9.540984e-01 1.125026e+00 1.375658e+00 1.545505e+00 1.794409e-01
<GCONST> 7.008247e+01
<STATE> 4
<MEAN> 25
 1.398912e+01 -1.215265e+01 -2.966718e+00 -3.448186e-01 -9.415978e+00 -4.134500e+00 3.477790e-01 8.741263e-01 1.573218e+00 -5.741305e+00 -6.309786e+00 -3.472241e+00 -5.064583e-01 7.470986e-01 1.823292e+00 2.037872e-01 -1.781172e+00 -1.165083e+00 7.522733e-01 6.831779e-01 -9.355888e-01 -3.169318e-01 9.293925e-01 1.281964e+00 -3.717876e-01
<VARIANCE> 25
 5.607876e+00 1.553473e+01 1.588342e+01 5.434644e+00 2.464341e+01 1.193135e+01 1.106900e+01 1.158788e+01 1.776635e+01 1.607368e+01 1.542746e+01 1.908612e+01 1.844479e-01 1.151364e+00 8.508698e-01 6.388793e-01 1.447806e+00 1.187296e+00 1.654244e+00 1.820435e+00 1.856787e+00 1.832019e+00 1.163597e+00 1.242604e+00 3.648403e-01
<GCONST> 7.681950e+01
<TRANSP> 5
 0.000000e+00 1.000000e+00 0.000000e+00 0.000000e+00 0.000000e+00
 0.000000e+00 6.785005e-01 3.214995e-01 0.000000e+00 0.000000e+00
 0.000000e+00 0.000000e+00 7.958299e-01 2.041702e-01 0.000000e+00
 0.000000e+00 0.000000e+00 0.000000e+00 8.122864e-01 1.877135e-01
 0.000000e+00 0.000000e+00 0.000000e+00 0.000000e+00 0.000000e+00
<ENDHMM>
~h "ch"
<BEGINHMM>
<NUMSTATES> 5
<STATE> 2
<MEAN> 25
 1.022643e+01 -3.421172e+00 7.470624e+00 4.673907e-01 -1.475309e+01 -5.699149e+00 3.621354e+00 -3.295969e+00 -4.017979e+00 -1.395307e+00 -4.060580e+00 -1.370870e+00 -4.492878e-01 1.562988e+00 -4.113433e-01 8.782826e-01 1.986727e+00 5.477408e-01 1.207613e-01 9.703693e-01 5.766044e-02 -6.373014e-01 -3.989046e-01 -2.815638e-02 -1.531627e+00
<VARIANCE> 25
 4.558256e+00 1.472084e+01 4.449545e+01 1.495924e+01 4.217893e+01 3.612078e+01 4.035775e+01 4.327778e+01 2.975575e+01 2.383940e+01 1.267571e+01 1.049264e+01 6.692900e-01 2.871263e+00 1.774345e+00 1.586757e+00 3.223714e+00 1.136293e+00 1.113745e+00 1.258194e+00 8.788749e-01 1.071936e+00 7.684427e-01 4.528024e-01 2.591863e+00
<GCONST> 8.606387e+01
<STATE> 3
<MEAN> 25
 4.865728e+00 8.316973e+00 9.673972e+00 5.738021e+00 -4.410697e+00 -3.407850e+00 -4.507909e+00 -5.059675e+00 -8.511160e+00 -4.116187e+00 -6.382363e+00 -3.687880e+00 -2.185220e+00 5.123852e-01 -1.904068e+00 2.560861e-01 3.596699e+00 1.257993e+00 -7.296548e-01 1.174650e+00 6.074035e-01 -3.413089e-01 5.156129e-02 3.075144e-01 -2.248721e+00
<VARIANCE> 25
 1.650031e+01 1.394370e+01 4.757835e+01 1.598066e+01 3.965092e+01 3.065085e+01 6.953490e+01 4.788138e+01 7.427364e+01 1.368819e+01 2.435265e+01 3.666057e+01 6.009519e-01 8.900607e+00 2.105606e+00 1.584708e+00 2.298900e+00 2.697635e+00 2.205983e+00 1.024993e+00 4.899976e+00 1.054468e+00 8.649933e-01 1.526449e+00 4.001576e+00
<GCONST> 9.578048e+01
<STATE> 4
<MEAN> 25
 -2.079451e+00 -5.789330e+00 5.495591e+00 3.870191e-01 -4.207159e+00 2.045272e+00 9.303335e-01 -6.259487e+00 6.713821e-01 -5.860016e+00 -1.909532e+00 3.819618e-01 -2.499207e+00 -4.301206e+00 8.747775e-02 -1.035327e+00 -1.142999e+00 1.148159e+00 3.288877e+00 -3.127399e-01 3.722276e+00 -8.189723e-01 2.064210e+00 1.802001e-01 3.290536e+00
<VARIANCE> 25
 3.752288e+01 1.136521e+02 1.764880e+01 1.659535e+01 7.007861e+01 3.866771e+01 6.563519e+01 3.880897e+01 7.032353e+01 1.449552e+01 1.929189e+01 1.484699e+01 6.298774e-01 9.589082e+00 3.017533e+00 2.993005e+00 8.260294e+00 3.288321e+00 6.500638e+00 3.009091e+00 6.560732e+00 1.777832e+00 1.816029e+00 3.854063e+00 7.383547e+00
<GCONST> 1.049927e+02
<TRANSP> 5
 0.000000e+00 1.000000e+00 0.000000e+00 0.000000e+00 0.000000e+00
 0.000000e+00 7.400660e-01 2.599340e-01 0.000000e+00 0.000000e+00
 0.000000e+00 0.000000e+00 5.118717e-01 4.881283e-01 0.000000e+00
 0.000000e+00 0.000000e+00 0.000000e+00 6.168423e-01 3.831577e-01
 0.000000e+00 0.000000e+00 0.000000e+00 0.000000e+00 0.000000e+00
<ENDHMM>
~h "dh"
<BEGINHMM>
<NUMSTATES> 5
<STATE> 2
<MEAN> 25
 4.272462e+00 -3.173697e+00 5.168447e-01 4.124331e+00 -4.916423e+00 -6.495854e+00 -8.131673e-01 -4.291373e+00 2.154069e+00 -3.135669e+00 -4.490470e+00 -1.689786e+00 2.345759e+00 -9.267176e-01 1.876629e-01 2.061635e-02 -2.228673e+00 -1.714659e+00 -1.200264e+00 -1.862188e+00 4.150571e-01 3.995985e-01 -2.437491e-01 -4.435953e-01 2.689034e+00
<VARIANCE> 25
 4.214286e+01 2.913524e+01 1.825257e+01 1.452089e+01 2.872782e+01 2.808684e+01 6.479687e+01 3.763591e+01 2.226791e+01 1.324724e+01 1.654361e+01 1.430457e+01 4.553329e+00 5.007231e+00 4.189021e+00 3.002945e+00 4.220523e+00 3.766748e+00 9.348953e+00 5.055356e+00 5.323292e+00 2.809439e+00 2.708806e+00 2.197141e+00 5.610207e+00
<GCONST> 1.027797e+02
<STATE> 3
<MEAN> 25
 1.031389e+01 -3.910599e+00 1.701292e+00 3.297714e+00 -8.146144e+00 -8.003788e+00 -6.078116e+00 -9.590558e+00 2.528773e+00 1.860873e-01 -4.000513e+00 -3.814317e+00 9.661581e-02 1.195080e+00 6.529982e-01 3.929126e-01 8.983194e-01 7.872301e-01 -6.510068e-01 -5.403695e-01 -1.836830e+00 4.961599e-01 6.181062e-01 -5.678704e-01 -8.623658e-01
<VARIANCE> 25
 1.813491e+01 2.929273e+01 2.284229e+01 3.291145e+01 4.172254e+01 3.171416e+01 4.675145e+01 2.663494e+01 6.335058e+01 2.331761e+01 1.974356e+01 1.412270e+01 2.385468e+00 4.928444e+00 3.158816e+00 3.039153e+00 4.839071e+00 2.868681e+00 2.857600e+00 3.360022e+00 7.753346e+00 2.516943e+00 2.112234e+00 1.493308e+00 4.208299e+00
<GCONST> 1.012636e+02
<STATE> 4
<MEAN> 25
 8.145252e+00 3.345804e+00 4.673451e+00 7.202650e+00 -2.484145e+00 -5.625342e+00 -5.804425e+00 -7.766925e+00 -5.699638e+00 4.996272e-02 -3.437315e+00 -5.772051e+00 -1.235329e+00 1.748138e+00 2.630023e-01 -3.113468e-01 1.720783e+00 6.396644e-01 -2.310737e-01 1.321481e+00 -3.525275e-01 -3.394948e-01 -1.451585e-01 2.673790e-01 -2.008110e+00
<VARIANCE> 25
 2.073484e+01 3.327164e+01 3.632752e+01 4.573974e+01 5.543550e+01 3.025376e+01 5.279642e+01 4.657748e+01 4.828824e+01 1.799693e+01 3.330530e+01 1.366351e+01 3.175726e+00 7.520057e+00 2.290058e+00 3.051095e+00 5.218692e+00 1.979648e+00 2.938896e+00 3.315676e+00 3.013850e+00 2.544234e+00 2.291171e+00 1.984695e+00 5.648282e+00
<GCONST> 1.030312e+02
<TRANSP> 5
 0.000000e+00 1.000000e+00 0.000000e+00 0.000000e+00 0.000000e+00
 0.000000e+00 5.585788e-01 4.414212e-01 0.000000e+00 0.000000e+00
 0.000000e+00 0.000000e+00 4.919200e-01 5.080801e-01 0.000000e+00
 0.000000e+00 0.000000e+00 0.000000e+00 4.864934e-01 5.135066e-01
 0.000000e+00 0.000000e+00 0.000000e+00 0.000000e+00 0.000000e+00
<ENDHMM>
~h "dx"
<BEGINHMM>
<NUMSTATES> 5
<STATE> 2
<MEAN> 25
 1.037839e+01 -5.660192e+00 8.177009e+00 3.390993e+00 -1.563375e+01 -6.940458e+00 -6.299410e+00 -5.718964e+00 -3.471708e+00 -3.862374e+00 2.491256e-01 2.947419e-02 -5.560189e-01 1.054680e+00 4.860085e-01 -2.557529e-01 6.819776e-01 3.267390e-01 3.277139e-01 -6.007677e-02 -1.889659e-01 -4.342995e-02 -3.136691e-01 3.671161e-01 -7.140642e-01
<VARIANCE> 25
 7.275152e+00 8.394451e+00 3.617830e+01 3.445488e+00 3.125877e+01 1.443477e+01 1.605933e+01 7.753493e+00 1.959463e+01 5.400909e+00 1.544493e+01 9.271995e+00 3.522753e+00 2.270005e+00 2.021759e+00 6.413512e-01 3.766102e+00 1.109405e+00 1.087262e+00 2.076515e+00 3.594341e+00 2.438668e+00 2.637549e+00 7.688186e-01 1.919783e+00
<GCONST> 8.355996e+01
<STATE> 3
<MEAN> 25
 4.284026e+00 4.444613e-01 9.303391e+00 3.058127e+00 -6.518708e+00 -7.852878e+00 -6.046375e+00 -5.381043e+00 -2.097809e+00 -3.709253e+00 -3.585115e+00 1.749661e+00 -2.786623e+00 2.175476e+00 1.307392e-02 -7.738777e-01 3.000926e+00 2.985635e-01 7.598711e-01 1.269013e+00 3.269826e-01 -3.537423e-01 4.927302e-02 2.775350e-01 -2.271908e+00
<VARIANCE> 25
 2.328933e+01 4.092129e+01 1.241939e+01 8.964213e+00 4.299057e+01 4.450878e+01 3.282846e+01 1.507984e+01 2.895173e+01 1.368531e+01 1.048088e+01 7.657693e+00 3.016099e+00 2.617011e+00 6.167662e+00 1.274830e+00 4.368239e+00 1.571515e+00 1.926272e+00 2.647408e+00 3.563191e+00 3.535431e+00 2.269788e+00 6.116095e-01 4.408861e+00
<GCONST> 9.367645e+01
<STATE> 4
<MEAN> 25
 -6.707221e+00 5.322869e-01 2.478149e+00 -1.546934e+00 1.493898e+00 -5.767536e+00 3.170503e+00 -2.130030e+00 5.673198e-01 -3.705540e+00 2.417405e-01 1.379309e+00 4.705335e-02 -2.912968e-01 1.504283e-01 -9.832501e-02 3.545813e-01 -4.056233e-01 8.249047e-01 -2.383574e-02 -8.145802e-02 -2.378418e-01 -3.851075e-01 -2.253343e-01 8.199216e-01
<VARIANCE> 25
 4.988461e+01 3.167919e+01 3.476390e+01 1.866063e+01 3.176331e+01 2.276765e+01 6.263459e+01 1.892475e+01 3.427113e+01 1.489886e+01 2.321323e+01 1.425724e+01 1.118539e+01 2.533827e+00 5.070890e+00 4.063985e+00 6.060872e+00 2.985284e+00 9.498607e+00 2.080351e+00 4.226091e+00 1.691551e+00 3.025007e+00 1.438192e+00 4.725350e+00
<GCONST> 1.027257e+02
<TRANSP> 5
 0.000000e+00 1.000000e+00 0.000000e+00 0.000000e+00 0.000000e+00
 0.000000e+00 5.722872e-01 4.277128e-01 0.000000e+00 0.000000e+00
 0.000000e+00 0.000000e+00 5.397805e-01 4.602195e-01 0.000000e+00
 0.000000e+00 0.000000e+00 0.000000e+00 7.131503e-01 2.868498e-01
 0.000000e+00 0.000000e+00 0.000000e+00 0.000000e+00 0.000000e+00
<ENDHMM>
~h "eh"
<BEGINHMM>
<NUMSTATES> 5
<STATE> 2
<MEAN> 25
 4.432209e+00 -1.005891e+00 5.634914e+00 4.276386e+00 -2.774795e+00 -4.905632e+00 1.255703e+00 -1.962689e+00 -1.742126e+00 -1.182122e+00 -2.794298e+00 -1.703954e+00 2.380752e+00 8.594081e-03 1.877723e-01 6.631944e-01 -1.454348e+00 2.289102e-01 -1.664790e+00 -3.987768e-01 2.352279e-01 1.355944e-01 -3.464800e-01 -8.501049e-01 2.777114e-01
<VARIANCE> 25
 5.735016e+01 4.060492e+01 5.354691e+01 2.892418e+01 1.211096e+02 4.123941e+01 3.503650e+01 6.410622e+01 5.671487e+01 2.621090e+01 2.788869e+01 2.436302e+01 1.599291e+01 4.144421e+00 4.576361e+00 2.260365e+00 1.676307e+01 3.474659e+00 8.191710e+00 3.843461e+00 3.672168e+00 3.376622e+00 2.542170e+00 2.485503e+00 5.931522e+00
<GCONST> 1.112897e+02
<STATE> 3
<MEAN> 25
 7.267279e+00 -1.883673e+00 4.029838e+00 3.689192e+00 -7.102079e+00 -5.779896e+00 5.599357e-01 -4.642876e+00 -1.541503e+00 -1.371133e+00 -3.126542e+00 -1.949583e+00 2.170094e+00 -7.779134e-01 7.315265e-02 -2.444354e-01 -2.591543e+00 -8.253799e-01 -1.048322e+00 -1.448608e+00 -3.230889e-01 -3.393590e-02 -8.894648e-02 -9.027284e-01 1.742944e+00
<VARIANCE> 25
 3.844156e+01 3.564145e+01 4.621122e+01 3.193310e+01 8.149980e+01 3.970489e+01 3.263972e+01 4.157700e+01 4.382016e+01 2.029735e+01 2.737336e+01 1.209937e+01 8.834549e+00 3.716701e+00 6.478799e+00 2.111465e+00 1.589649e+01 6.626041e+00 6.398740e+00 5.069323e+00 3.377898e+00 2.922922e+00 2.374612e+00 2.037830e+00 8.865395e+00
<GCONST> 1.086474e+02
<STATE> 4
<MEAN> 25
 9.029004e+00 -3.667979e+00 5.878524e+00 2.457417e+00 -1.362666e+01 -5.866643e+00 -2.749197e-01 -7.364011e+00 -2.110556e+00 -5.877547e-01 -1.736213e+00 -3.861564e+00 6.013185e-01 -9.749798e-01 -1.140431e+00 -2.969334e-01 -2.882647e-01 4.618243e-02 -4.313122e-01 5.963823e-02 4.343785e-01 2.599777e-01 2.559457e-01 -4.388469e-01 6.108401e-01
<VARIANCE> 25
 2.644831e+01 4.562975e+01 4.823508e+01 2.171425e+01 7.814760e+01 3.655494e+01 2.154513e+01 3.922385e+01 3.972726e+01 1.982943e+01 2.001904e+01 1.232610e+01 2.825953e+00 3.458081e+00 3.908780e+00 2.137165e+00 7.538435e+00 2.833577e+00 1.829563e+00 1.884569e+00 2.180056e+00 2.080996e+00 2.089041e+00 1.565962e+00 2.765053e+00
<GCONST> 9.928726e+01
<TRANSP> 5
 0.000000e+00 1.000000e+00 0.000000e+00 0.000000e+00 0.000000e+00
 0.000000e+00 7.245502e-02 9.275450e-01 0.000000e+00 0.000000e+00
 0.000000e+00 0.000000e+00 2.220221e-01 7.779780e-01 0.000000e+00
 0.000000e+00 0.000000e+00 0.000000e+00 4.686286e-01 5.313715e-01
 0.000000e+00 0.000000e+00 0.000000e+00 0.000000e+00 0.000000e+00
<ENDHMM>
~h "er"
<BEGINHMM>
<NUMSTATES> 5
<STATE> 2
<MEAN> 25
 1.230363e+01 -5.737031e+00 7.513049e-01 2.126092e+00 -8.377589e+00 -8.290950e+00 -6.592082e+00 -5.120697e+00 -1.269786e-01 -1.158292e+00 -3.538233e+00 -2.562251e+00 1.398828e+00 -1.078955e+00 -6.289409e-01 3.085466e-01 -1.160984e+00 -1.043283e+00 -1.571088e+00 2.793711e-02 8.169976e-01 -1.794879e-01 3.382339e-01 1.447194e-01 1.129342e+00
<VARIANCE> 25
 2.488717e+01 2.462668e+01 4.490359e+01 1.753599e+01 5.368795e+01 2.479307e+01 4.221708e+01 1.898037e+01 3.220042e+01 1.165399e+01 1.620872e+01 1.447606e+01 3.515831e+00 3.503560e+00 2.481105e+00 2.535542e+00 5.561222e+00 4.303246e+00 5.131326e+00 6.407530e+00 2.140727e+00 3.090382e+00 1.577892e+00 2.123989e+00 2.333191e+00
<GCONST> 9.926379e+01
<STATE> 3
<MEAN> 25
 1.362049e+01 -7.869934e+00 -1.771239e+00 2.549995e+00 -9.382368e+00 -9.421437e+00 -9.396523e+00 -4.436172e+00 1.751374e+00 -3.680983e-01 -2.480016e+00 -3.803534e+00 3.358036e-01 3.950586e-01 -6.210549e-01 2.808357e-01 5.383786e-01 3.468710e-01 -5.618422e-01 -8.962700e-03 3.544321e-01 -2.608579e-01 1.042320e-02 4.111626e-01 -3.529559e-01
<VARIANCE> 25
 2.089318e+01 1.737751e+01 3.833496e+01 2.577844e+01 4.800399e+01 3.199457e+01 4.234022e+01 3.641967e+01 2.166249e+01 2.226544e+01 1.753480e+01 1.349695e+01 1.287264e+00 1.858221e+00 3.039071e+00 1.902191e+00 2.701303e+00 2.688196e+00 2.675193e+00 4.446039e+00 3.837359e+00 2.573470e+00 1.318974e+00 3.152561e+00 9.458231e-01
<GCONST> 9.580513e+01
<STATE> 4
<MEAN> 25
 1.426542e+01 -5.365468e+00 -4.525287e+00 4.272371e+00 -3.166945e+00 -7.058075e+00 -9.774203e+00 -2.929697e+00 3.829309e-01 -2.492516e+00 -3.581090e+00 -6.004241e-02 -9.247840e-01 5.202914e-01 1.058638e+00 1.321059e-01 3.924313e-01 5.268362e-01 9.898370e-01 5.786595e-01 -3.451018e-01 -1.906764e-01 1.344127e-01 8.200645e-03 -6.410263e-01
<VARIANCE> 25
 3.632199e+01 3.939003e+01 5.134180e+01 1.880875e+01 5.903104e+01 5.593483e+01 5.965443e+01 4.904359e+01 2.839458e+01 2.914600e+01 2.115792e+01 3.048389e+01 1.897501e+00 3.446495e+00 3.001619e+00 1.594066e+00 6.306460e+00 2.268679e+00 2.946780e+00 3.591177e+00 3.107020e+00 2.350111e+00 2.188082e+00 2.987873e+00 2.108329e+00
<GCONST> 1.024319e+02
<TRANSP> 5
 0.000000e+00 1.000000e+00 0.000000e+00 0.000000e+00 0.000000e+00
 0.000000e+00 3.081467e-01 6.918533e-01 0.000000e+00 0.000000e+00
 0.000000e+00 0.000000e+00 4.743750e-01 5.256251e-01 0.000000e+00
 0.000000e+00 0.000000e+00 0.000000e+00 5.435753e-01 4.564247e-01
 0.000000e+00 0.000000e+00 0.000000e+00 0.000000e+00 0.000000e+00
<ENDHMM>
~h "ey"
<BEGINHMM>
<NUMSTATES> 5
<STATE> 2
<MEAN> 25
 1.328428e+01 -9.573872e+00 -2.936581e+00 9.844657e-01 -1.001271e+01 -6.094271e+00 -5.244498e-01 -2.957528e+00 4.055360e+00 -2.838671e-03 -4.666264e+00 -7.845723e+00 6.980870e-01 -1.295291e+00 -4.666907e-01 -4.167286e-01 -1.291626e+00 -1.102728e+00 5.750868e-01 1.466911e+00 1.143523e+00 -1.062325e+00 -9.111962e-01 2.413406e-01 1.239165e+00
<VARIANCE> 25
 1.256791e+01 1.764235e+01 2.467477e+01 6.608303e+00 2.256371e+01 1.248595e+01 1.457281e+01 2.357125e+01 2.253747e+01 3.358451e+01 2.171965e+01 2.478169e+01 2.877730e+00 1.632625e+00 3.154371e+00 2.374405e+00 1.916113e+00 1.458154e+00 3.149195e+00 3.034994e+00 2.889493e+00 3.237299e+00 2.218493e+00 4.232468e+00 1.339570e+00
<GCONST> 9.245352e+01
<STATE> 3
<MEAN> 25
 1.347821e+01 -1.055480e+01 -7.863818e-01 9.243270e-01 -1.440761e+01 -6.689698e+00 3.944978e+00 -1.912684e-01 1.961781e+00 -3.997544e+00 -3.587208e+00 -3.609334e+00 -1.422309e-01 2.970013e-01 1.047522e+00 6.461130e-02 -1.006489e+00 -2.123773e-01 3.824819e-01 -3.085828e-01 -9.989142e-01 6.313197e-02 1.103706e+00 5.682560e-01 -2.207301e-01
<VARIANCE> 25
 7.487849e+00 8.855542e+00 1.355188e+01 5.327917e+00 2.001553e+01 8.849894e+00 1.040760e+01 1.304236e+01 1.995809e+01 1.731621e+01 1.339213e+01 1.307971e+01 1.727283e-01 5.515593e-01 1.139329e+00 2.621369e-01 9.007765e-01 5.352627e-01 5.800633e-01 1.386349e+00 1.046015e+00 1.001153e+00 1.345813e+00 8.295887e-01 1.431784e-01
<GCONST> 6.922511e+01
<STATE> 4
<MEAN> 25
 1.128895e+01 -5.313179e+00 9.150392e+00 1.215966e+00 -1.978959e+01 -6.685810e+00 3.807549e+00 -7.385468e+00 -5.824319e+00 -2.777218e-01 1.852186e+00 -2.907767e+00 -5.421517e-01 1.520345e+00 1.420694e+00 9.144564e-01 5.279305e-01 3.294348e-01 -5.053464e-01 -1.048492e+00 -1.385409e+00 4.566551e-01 -2.610123e-01 -2.514813e-01 -1.315715e+00
<VARIANCE> 25
 6.287943e+00 2.630373e+01 2.339838e+01 1.533661e+01 1.068532e+01 2.033023e+01 1.133748e+01 2.435611e+01 1.820996e+01 9.199022e+00 1.397011e+01 7.276165e+00 7.951610e-01 1.225509e+00 1.852630e+00 1.749707e+00 3.368310e+00 8.850758e-01 1.256101e+00 1.320188e+00 1.885848e+00 1.129090e+00 1.778133e+00 1.172212e+00 9.414738e-01
<GCONST> 8.186089e+01
<TRANSP> 5
 0.000000e+00 1.000000e+00 0.000000e+00 0.000000e+00 0.000000e+00
 0.000000e+00 6.745877e-01 3.254123e-01 0.000000e+00 0.000000e+00
 0.000000e+00 0.000000e+00 8.336374e-01 1.663626e-01 0.000000e+00
 0.000000e+00 0.000000e+00 0.000000e+00 7.737823e-01 2.262176e-01
 0.000000e+00 0.000000e+00 0.000000e+00 0.000000e+00 0.000000e+00
<ENDHMM>
~h "hh"
<BEGINHMM>
<NUMSTATES> 5
<STATE> 2
<MEAN> 25
 -3.302402e+00 -6.365854e+00 6.688320e+00 1.235545e+00 -5.201396e+00 3.168777e-01 6.041769e+00 -3.927797e-01 1.620976e-01 -3.427921e+00 -8.560500e-01 -7.166051e-01 2.208472e+00 -3.800850e-01 1.245896e+00 7.369988e-01 -1.549298e+00 -3.509920e-01 -5.979167e-01 -5.239956e-01 -6.183574e-01 -2.020323e-01 -8.761288e-01 -8.697748e-01 1.121408e+00
<VARIANCE> 25
 4.621428e+01 3.996906e+01 4.587910e+01 2.485146e+01 3.890663e+01 4.092634e+01 4.844936e+01 6.796515e+01 2.981497e+01 3.978624e+01 3.169147e+01 1.582684e+01 3.813956e+00 5.435202e+00 4.601518e+00 2.036733e+00 3.189974e+00 2.793119e+00 4.867545e+00 4.693345e+00 2.836587e+00 3.385454e+00 2.006738e+00 1.914050e+00 3.457129e+00
<GCONST> 1.047095e+02
<STATE> 3
<MEAN> 25
 1.065066e+01 -3.177195e+00 7.775726e+00 2.328014e+00 -1.077440e+01 -3.778966e+00 -5.823891e-01 -4.391731e+00 -1.863155e+00 -3.545305e+00 -4.125144e+00 -4.466924e+00 2.548390e+00 -1.573585e-01 -6.039926e-01 4.686700e-01 -1.721682e+00 -1.388835e+00 -8.186412e-01 -2.104003e+00 -5.828732e-01 8.593085e-01 4.149494e-02 -1.170317e+00 1.875962e+00
<VARIANCE> 25
 1.624859e+01 3.006174e+01 8.086504e+01 2.359286e+01 3.397763e+01 2.754059e+01 2.831271e+01 7.139689e+01 2.507841e+01 1.968624e+01 2.345041e+01 1.329779e+01 3.209183e+00 3.931731e+00 6.093907e+00 2.661764e+00 3.702707e+00 1.926665e+00 3.478613e+00 2.794371e+00 2.988742e+00 2.590321e+00 1.938758e+00 1.548983e+00 3.864610e+00
<GCONST> 1.001479e+02
<STATE> 4
<MEAN> 25
 1.311328e+01 -4.522032e-01 4.353781e+00 7.291486e+00 -8.477457e+00 -4.381990e+00 -1.712504e+00 -1.207061e+01 -4.853077e+00 1.157094e+00 -3.679904e+00 -9.861468e+00 6.388957e-02 5.417481e-01 3.188599e-01 -8.729003e-02 1.555256e-02 1.824678e-02 -1.993856e-01 -3.793391e-01 -3.254988e-01 3.759258e-01 -7.358114e-02 -1.971180e-01 -9.148801e-02
<VARIANCE> 25
 6.561926e+00 2.368832e+01 3.793324e+01 2.336345e+01 3.225578e+01 1.183411e+01 3.103452e+01 3.820467e+01 2.626227e+01 1.928700e+01 1.263674e+01 1.716000e+01 8.762071e-01 3.425244e+00 2.427683e+00 1.678337e+00 2.187956e+00 1.707371e+00 1.866431e+00 3.935737e+00 3.102099e+00 1.949183e+00 1.315880e+00 2.363274e+00 1.978386e+00
<GCONST> 9.184184e+01
<TRANSP> 5
 0.000000e+00 1.000000e+00 0.000000e+00 0.000000e+00 0.000000e+00
 0.000000e+00 6.932485e-01 3.067515e-01 0.000000e+00 0.000000e+00
 0.000000e+00 0.000000e+00 5.185353e-01 4.814648e-01 0.000000e+00
 0.000000e+00 0.000000e+00 0.000000e+00 6.674117e-01 3.325883e-01
 0.000000e+00 0.000000e+00 0.000000e+00 0.000000e+00 0.000000e+00
<ENDHMM>
~h "ih"
<BEGINHMM>
<NUMSTATES> 5
<STATE> 2
<MEAN> 25
 9.441537e+00 -1.253544e+00 7.563258e-01 1.841326e+00 -5.432470e+00 -4.564905e+00 -4.713315e+00 -7.081674e+00 -7.843344e-01 1.566988e+00 -3.745386e+00 -4.579918e+00 1.178352e+00 -1.029497e+00 9.147706e-01 2.020454e-01 -1.767966e+00 -1.430637e+00 -1.038587e+00 2.985220e-01 1.077592e+00 -3.061580e-01 -6.363863e-01 -3.115416e-03 1.481683e+00
<VARIANCE> 25
 5.299696e+01 2.694925e+01 4.830023e+01 2.639131e+01 5.159334e+01 2.889640e+01 3.095002e+01 4.334021e+01 4.184621e+01 2.658334e+01 2.087342e+01 2.431716e+01 1.079727e+01 4.643467e+00 4.036717e+00 2.923734e+00 8.249488e+00 3.353725e+00 4.894933e+00 4.813128e+00 5.774214e+00 3.402199e+00 2.600458e+00 3.608131e+00 7.710923e+00
<GCONST> 1.082363e+02
<STATE> 3
<MEAN> 25
 4.948797e+00 -3.783650e+00 3.083689e+00 9.319345e-01 -5.605864e+00 -6.236025e+00 -2.420865e+00 -5.221947e+00 1.788370e+00 7.352353e-01 -3.351369e+00 -1.882354e+00 4.739787e-02 -4.346564e-01 6.526027e-01 3.134741e-02 -7.361266e-01 -5.259711e-01 -8.161327e-02 2.838672e-01 2.701680e-01 -4.202358e-01 7.472517e-02 4.214193e-01 6.038654e-01
<VARIANCE> 25
 1.237764e+02 2.746015e+01 4.102369e+01 2.329610e+01 8.738068e+01 2.292757e+01 6.566020e+01 2.644925e+01 4.211998e+01 2.927487e+01 2.363142e+01 2.587601e+01 6.584014e+00 3.961224e+00 2.792812e+00 2.471360e+00 6.065832e+00 3.217456e+00 4.339179e+00 3.766979e+00 3.080526e+00 2.795885e+00 2.249945e+00 2.095612e+00 7.251034e+00
<GCONST> 1.061794e+02
<STATE> 4
<MEAN> 25
 9.400642e+00 -4.263639e+00 3.942469e+00 1.652198e+00 -9.126402e+00 -7.509899e+00 -4.039028e+00 -5.713558e+00 7.568839e-01 -3.679109e-01 -3.053331e+00 -2.889323e+00 -3.682429e-01 7.943643e-01 -1.688752e-01 3.536732e-01 7.477145e-01 2.115732e-02 -3.243134e-02 5.163330e-01 -1.924132e-01 -5.694886e-01 3.047206e-02 3.188563e-01 -7.793640e-01
<VARIANCE> 25
 3.174176e+01 4.149178e+01 4.269126e+01 1.204336e+01 6.027944e+01 2.373727e+01 3.964750e+01 2.225964e+01 4.776593e+01 4.049874e+01 1.967839e+01 1.649882e+01 4.845058e+00 3.991757e+00 2.510227e+00 2.102824e+00 3.633503e+00 3.062380e+00 2.277089e+00 2.545026e+00 2.488473e+00 1.570121e+00 2.032047e+00 1.831361e+00 4.732593e+00
<GCONST> 9.979548e+01
<TRANSP> 5
 0.000000e+00 1.000000e+00 0.000000e+00 0.000000e+00 0.000000e+00
 0.000000e+00 2.745326e-01 7.254674e-01 0.000000e+00 0.000000e+00
 0.000000e+00 0.000000e+00 2.562740e-01 7.437261e-01 0.000000e+00
 0.000000e+00 0.000000e+00 0.000000e+00 4.022834e-01 5.977166e-01
 0.000000e+00 0.000000e+00 0.000000e+00 0.000000e+00 0.000000e+00
<ENDHMM>
~h "ix"
<BEGINHMM>
<NUMSTATES> 5
<STATE> 2
<MEAN> 25
 1.770977e-01 3.938752e-02 3.867286e+00 4.696320e-01 -6.823223e-01 -3.898641e-02 -1.655377e+00 -8.521641e-01 -6.116446e-01 -3.454983e+00 -1.026830e+00 -6.627946e-01 9.093358e-01 -5.863879e-01 1.138468e+00 -6.806713e-01 -1.254456e+00 -6.690632e-01 -1.185645e+00 -3.646060e-01 -4.033165e-01 -1.168867e+00 -7.178574e-01 -8.888013e-01 1.812902e+00
<VARIANCE> 25
 6.774991e+01 6.616724e+01 2.811317e+01 3.135086e+01 6.407700e+01 4.745025e+01 4.705411e+01 6.563919e+01 4.371836e+01 2.173251e+01 3.668076e+01 1.822737e+01 1.184968e+01 6.398539e+00 2.548643e+00 3.769828e+00 8.499545e+00 4.599023e+00 5.008043e+00 6.979540e+00 4.319328e+00 3.445258e+00 7.281806e+00 3.369981e+00 6.434912e+00
<GCONST> 1.121264e+02
<STATE> 3
<MEAN> 25
 5.574627e+00 -2.150562e+00 5.620816e+00 1.952995e+00 -5.143517e+00 -3.903846e+00 -4.294782e+00 -3.093923e+00 -1.491846e-01 -3.833886e+00 -3.197117e+00 -2.952218e+00 1.708704e+00 -1.247289e+00 1.039664e-01 -4.257008e-01 -1.796279e+00 -1.426953e+00 -1.552183e+00 -1.780757e-01 3.241004e-01 2.703868e-01 -4.690850e-01 -5.159246e-02 2.202023e+00
<VARIANCE> 25
 4.550946e+01 4.845839e+01 3.325283e+01 3.113950e+01 5.720013e+01 4.217749e+01 5.770147e+01 2.081094e+01 4.270442e+01 2.789511e+01 2.995942e+01 1.313885e+01 1.233523e+01 6.185881e+00 2.338034e+00 2.787637e+00 6.340488e+00 3.567583e+00 7.869846e+00 6.298547e+00 3.613629e+00 2.594910e+00 4.635312e+00 1.981359e+00 7.091434e+00
<GCONST> 1.081716e+02
<STATE> 4
<MEAN> 25
 8.300419e+00 -5.384588e+00 4.339602e+00 5.075153e-02 -8.805027e+00 -5.979302e+00 -7.149282e+00 -3.012270e+00 2.196941e+00 -3.823873e+00 -4.015244e+00 -1.238192e+00 2.118295e-03 4.427249e-01 -3.806274e-01 7.312366e-02 -2.407347e-01 -8.801029e-01 3.972447e-01 -2.857811e-01 1.375740e-01 2.738780e-01 -4.341518e-01 5.831610e-01 -2.409475e-02
<VARIANCE> 25
 4.275497e+01 3.473471e+01 2.151677e+01 2.195333e+01 4.332567e+01 2.977947e+01 5.836913e+01 2.812690e+01 3.614105e+01 2.862647e+01 3.939595e+01 1.425460e+01 5.844666e+00 5.167885e+00 3.540511e+00 3.144575e+00 6.370923e+00 3.130338e+00 6.246276e+00 3.376189e+00 3.494424e+00 3.035744e+00 3.271132e+00 1.754666e+00 6.038825e+00
<GCONST> 1.050133e+02
<TRANSP> 5
 0.000000e+00 1.000000e+00 0.000000e+00 0.000000e+00 0.000000e+00
 0.000000e+00 3.118908e-01 6.881092e-01 0.000000e+00 0.000000e+00
 0.000000e+00 0.000000e+00 1.954549e-01 8.045451e-01 0.000000e+00
 0.000000e+00 0.000000e+00 0.000000e+00 3.906870e-01 6.093130e-01
 0.000000e+00 0.000000e+00 0.000000e+00 0.000000e+00 0.000000e+00
<ENDHMM>
~h "iy"
<BEGINHMM>
<NUMSTATES> 5
<STATE> 2
<MEAN> 25
 1.053415e+01 -4.750662e+00 6.954419e+00 3.934483e+00 -1.448043e+01 -9.631572e+00 -2.860087e+00 -5.276906e+00 -3.448112e+00 -5.217960e+00 -9.788617e-01 -4.388518e-01 4.347321e-01 -4.802022e-01 2.518612e+00 -2.016143e-01 -3.729358e+00 -2.318202e-01 1.489410e+00 -7.731497e-01 -2.085017e+00 4.706588e-02 1.156003e+00 -1.720095e-01 9.347625e-01
<VARIANCE> 25
 1.620963e+01 2.629510e+01 4.476464e+01 1.623747e+01 4.217894e+01 3.880926e+01 3.398137e+01 4.990077e+01 4.854000e+01 2.423183e+01 2.274598e+01 2.021279e+01 3.701852e+00 2.892031e+00 2.770001e+00 2.597012e+00 3.427124e+00 6.232924e+00 5.926834e+00 6.587837e+00 3.589001e+00 3.860382e+00 3.020768e+00 2.224839e+00 1.769555e+00
<GCONST> 1.028027e+02
<STATE> 3
<MEAN> 25
 9.573731e+00 -2.792263e+00 1.497030e+01 9.960845e-01 -2.077602e+01 -4.290615e+00 1.201665e+00 -1.347725e+01 -9.382024e+00 3.564450e-01 -1.148708e+00 -4.488318e+00 -2.514160e-01 6.830640e-01 8.533866e-01 -2.648711e-01 -1.464444e-02 1.091006e+00 3.005226e-01 -1.300014e+00 -6.133937e-01 9.080696e-01 -6.663939e-01 -8.313161e-01 -4.935914e-01
<VARIANCE> 25
 6.392368e+00 1.550214e+01 1.972533e+01 1.671517e+01 1.283111e+01 2.801150e+01 7.958064e+00 3.116539e+01 1.430782e+01 1.050623e+01 1.659217e+01 9.340438e+00 5.078673e-01 1.311991e+00 1.679809e+00 1.452313e+00 1.143224e+00 2.273646e+00 1.128230e+00 2.100045e+00 1.733101e+00 1.334661e+00 9.807487e-01 1.005692e+00 6.462323e-01
<GCONST> 8.048718e+01
<STATE> 4
<MEAN> 25
 5.786852e+00 1.680169e+00 1.033387e+01 1.743887e+00 -1.063812e+01 -2.737243e-01 6.508957e-01 -9.311257e+00 -7.801409e+00 -7.755333e-02 -2.188927e+00 -4.136745e+00 -4.066746e-01 2.628669e-01 -1.219579e+00 5.890312e-01 1.632551e+00 -3.007147e-01 -1.066973e-01 1.070195e+00 4.720593e-01 -4.255589e-01 8.007193e-02 4.187061e-01 -7.957818e-01
<VARIANCE> 25
 3.818395e+01 3.560973e+01 6.352927e+01 2.436921e+01 1.121227e+02 5.367815e+01 2.124523e+01 8.947169e+01 3.177783e+01 2.298762e+01 1.660107e+01 2.625533e+01 1.464079e+00 1.806780e+00 2.156579e+00 2.091849e+00 4.002247e+00 2.853364e+00 2.222172e+00 2.472252e+00 2.101072e+00 1.867698e+00 1.857732e+00 1.328837e+00 1.910532e+00
<GCONST> 9.896700e+01
<TRANSP> 5
 0.000000e+00 1.000000e+00 0.000000e+00 0.000000e+00 0.000000e+00
 0.000000e+00 5.942611e-01 4.057389e-01 0.000000e+00 0.000000e+00
 0.000000e+00 0.000000e+00 7.498462e-01 2.501538e-01 0.000000e+00
 0.000000e+00 0.000000e+00 0.000000e+00 7.608534e-01 2.391467e-01
 0.000000e+00 0.000000e+00 0.000000e+00 0.000000e+00 0.000000e+00
<ENDHMM>
~h "jh"
<BEGINHMM>
<NUMSTATES> 5
<STATE> 2
<MEAN> 25
 9.739729e+00 6.003312e-01 1.085688e+01 2.870171e+00 -1.413478e+01 -1.961048e+00 -1.107134e+00 -9.688965e+00 -9.664356e+00 -6.187471e-01 -2.828624e-01 -3.100043e+00 -5.376431e-01 1.706396e+00 -7.439174e-01 8.989094e-01 2.489937e+00 -3.493302e-01 -2.511740e-01 9.979292e-01 -1.324138e-01 -5.901688e-01 -5.294558e-01 3.869756e-01 -1.613082e+00
<VARIANCE> 25
 8.034552e+00 2.426576e+01 2.588481e+01 2.824956e+01 5.192622e+01 1.812859e+01 5.124492e+00 2.673979e+01 8.879357e+00 8.939200e+00 9.687890e+00 1.107873e+01 1.387881e+00 3.719996e+00 1.168553e+00 1.058930e+00 4.454316e+00 1.597546e+00 6.240259e-01 1.510428e+00 1.013942e+00 4.908518e-01 1.404322e+00 6.875514e-01 3.432420e+00
<GCONST> 8.289020e+01
<STATE> 3
<MEAN> 25
 -9.809703e-01 5.821871e+00 4.119357e+00 4.783605e+00 1.580748e+00 -1.262650e+00 -2.385379e+00 1.412911e+00 -6.905514e+00 -1.571306e+00 -5.634620e-01 7.791085e-02 -1.740967e+00 -2.456558e+00 -6.470699e-01 -1.012597e+00 5.066621e-02 1.758912e+00 1.182545e+00 -8.192785e-01 1.744358e+00 -4.030460e-02 2.819386e-01 4.961542e-01 4.503917e-01
<VARIANCE> 25
 3.384523e+01 8.321041e+01 1.867348e+01 2.571771e+01 2.748289e+01 5.048314e+01 2.710435e+01 5.932574e+01 2.151987e+01 3.931208e+01 2.768379e+01 9.813249e+00 1.305323e+00 1.407604e+01 3.027240e+00 2.391289e+00 9.355351e+00 2.424847e+00 4.728413e+00 8.991794e+00 1.866289e+00 1.959766e+00 2.856449e+00 8.464873e-01 8.204623e+00
<GCONST> 1.030738e+02
<STATE> 4
<MEAN> 25
 -9.425163e+00 -1.242405e+01 1.088989e+01 5.454114e+00 -8.751119e+00 2.183956e-01 9.169596e+00 -9.373416e+00 4.083325e+00 -5.285133e+00 5.164938e-01 3.528625e-01 6.933387e-01 6.449395e-02 8.375728e-01 4.461063e-01 -1.018184e+00 -1.086720e+00 -2.778423e-01 3.071622e-01 1.139279e-01 -4.160162e-01 -7.976000e-02 1.164433e-01 7.603005e-01
<VARIANCE> 25
 5.750735e+01 1.933313e+01 1.931777e+01 1.477395e+01 2.005338e+01 1.996842e+01 3.087782e+01 2.384795e+01 2.169196e+01 1.085933e+01 1.892119e+01 2.083726e+01 1.513693e+01 8.266549e+00 3.437474e+00 1.530936e+00 3.133044e+00 3.578464e+00 7.806417e+00 3.286916e+00 5.317168e+00 1.851035e+00 2.437650e+00 1.911343e+00 2.970377e+00
<GCONST> 9.971387e+01
<TRANSP> 5
 0.000000e+00 1.000000e+00 0.000000e+00 0.000000e+00 0.000000e+00
 0.000000e+00 7.595285e-01 2.404716e-01 0.000000e+00 0.000000e+00
 0.000000e+00 0.000000e+00 8.281736e-01 1.718263e-01 0.000000e+00
 0.000000e+00 0.000000e+00 0.000000e+00 8.629354e-01 1.370646e-01
 0.000000e+00 0.000000e+00 0.000000e+00 0.000000e+00 0.000000e+00
<ENDHMM>
~h "ng"
<BEGINHMM>
<NUMSTATES> 5
<STATE> 2
<MEAN> 25
 5.451863e+00 -5.589341e+00 1.089035e+01 4.574695e+00 -1.193229e+01 -5.139863e+00 3.949235e+00 -6.811517e+00 -4.960928e+00 -1.677987e+00 -1.568581e+00 -2.173714e+00 4.721411e-01 -1.391483e-01 7.742563e-02 -6.576860e-02 -4.943277e-01 -1.962785e-01 -2.284041e-01 -1.456189e-01 1.442637e-03 -2.990205e-02 5.084456e-02 -4.153861e-02 2.865795e-01
<VARIANCE> 25
 5.870658e+01 6.379760e+01 4.904998e+01 2.877803e+01 5.142775e+01 1.494544e+01 4.085254e+01 4.757035e+01 5.057271e+01 2.287467e+01 1.343740e+01 1.865736e+01 5.938190e+00 1.031819e+01 4.587112e+00 2.588617e+00 5.064623e+00 1.487831e+00 5.352655e+00 2.645798e+00 4.993948e+00 2.695843e+00 1.348474e+00 1.313420e+00 4.798686e+00
<GCONST> 1.042219e+02
<STATE> 3
<MEAN> 25
 1.343589e+01 -9.709518e+00 -4.016988e-01 2.990849e+00 -1.139717e+01 -9.142333e+00 -3.696266e+00 -1.523716e+00 -1.021605e+00 -1.557696e+00 -1.392970e+00 -1.267810e+00 2.268978e-01 8.057377e-01 -1.342254e-01 2.095008e-01 -2.301785e-01 6.421990e-01 4.820431e-01 -1.083180e+00 -5.666566e-01 6.542227e-01 -2.337340e-01 -5.084800e-01 -6.102909e-01
<VARIANCE> 25
 2.456684e+01 1.758598e+01 6.379298e+01 1.564339e+01 4.359683e+01 2.131812e+01 7.339169e+01 5.816003e+01 3.027548e+01 2.298117e+01 1.585736e+01 1.239151e+01 7.656659e-01 2.040789e+00 4.704634e+00 1.339609e+00 2.870224e+00 8.675010e-01 2.957220e+00 4.158071e+00 5.275624e+00 2.778134e+00 2.516302e+00 1.255983e+00 6.047070e-01
<GCONST> 9.498171e+01
<STATE> 4
<MEAN> 25
 1.466427e+01 2.777553e+00 1.491678e+00 1.158925e+00 -1.311102e+01 -3.127208e+00 3.115916e+00 -1.080221e+01 -7.036508e+00 1.009238e+00 -4.754579e+00 -7.208545e+00 3.074654e-01 8.458655e-01 -4.616591e-01 1.958720e-01 4.038332e-01 -1.701809e-01 -4.864085e-01 9.600022e-02 -1.226960e-01 2.506792e-02 -3.962771e-01 -1.570252e-01 -4.829628e-01
<VARIANCE> 25
 1.844056e+01 1.600754e+01 1.893767e+01 2.798525e+01 3.942683e+01 1.470399e+01 1.410149e+01 2.089734e+01 2.781903e+01 2.062553e+01 1.320913e+01 1.477118e+01 7.822355e-01 1.396299e+00 2.687876e+00 2.317349e+00 3.010723e+00 1.220108e+00 1.259140e+00 2.173783e+00 2.151911e+00 2.383502e+00 1.149548e+00 1.156402e+00 9.508471e-01
<GCONST> 8.767630e+01
<TRANSP> 5
 0.000000e+00 1.000000e+00 0.000000e+00 0.000000e+00 0.000000e+00
 0.000000e+00 8.180949e-01 1.819051e-01 0.000000e+00 0.000000e+00
 0.000000e+00 0.000000e+00 6.886774e-01 3.113226e-01 0.000000e+00
 0.000000e+00 0.000000e+00 0.000000e+00 8.407093e-01 1.592907e-01
 0.000000e+00 0.000000e+00 0.000000e+00 0.000000e+00 0.000000e+00
<ENDHMM>
~h "ow"
<BEGINHMM>
<NUMSTATES> 5
<STATE> 2
<MEAN> 25
 1.542875e+01 -5.833644e+00 -4.671184e+00 -2.788841e+00 -6.707393e+00 3.158919e-01 -6.312645e+00 -9.562284e+00 4.023155e+00 2.183806e+00 -2.870834e+00 -6.067245e+00 9.287530e-02 3.177587e-01 2.411870e-01 5.237234e-01 2.959755e-02 -2.307643e-01 -4.935354e-01 -1.323203e-01 -2.629588e-01 3.143232e-02 7.761262e-02 3.210022e-02 -2.630507e-01
<VARIANCE> 25
 3.311733e+00 2.163708e+01 1.621134e+01 3.148020e+01 9.196231e+00 1.846354e+01 2.494287e+01 1.826250e+01 4.997109e+01 2.851865e+01 2.914915e+01 1.972111e+01 2.861500e-01 2.182579e+00 1.534813e+00 1.991187e+00 1.268931e+00 1.789008e+00 1.403817e+00 1.904412e+00 3.921882e+00 1.839340e+00 2.255889e+00 1.904182e+00 7.833381e-01
<GCONST> 8.696500e+01
<STATE> 3
<MEAN> 25
 1.253404e+01 2.497381e+00 1.686897e+00 3.369408e+00 -4.685188e+00 -1.405998e+00 -4.479171e+00 -7.536661e+00 -1.994502e+00 9.631283e-01 -4.787433e+00 -6.818776e+00 -1.301776e+00 1.069276e+00 1.199465e+00 1.052383e+00 1.521656e+00 3.521700e-01 4.679605e-01 1.203469e+00 -4.971787e-01 -9.866948e-01 -1.116956e-01 9.015038e-01 -1.321854e+00
<VARIANCE> 25
 1.412547e+01 4.094232e+01 2.196850e+01 3.289101e+01 3.064429e+01 4.155724e+01 3.555017e+01 1.708758e+01 2.738733e+01 1.497673e+01 7.067269e+00 1.918690e+01 1.820302e+00 1.769558e+00 3.306823e+00 3.338429e+00 4.034566e+00 3.755685e+00 1.558596e+00 2.899337e+00 2.745019e+00 1.626519e+00 2.429171e+00 9.385242e-01 9.966872e-01
<GCONST> 9.348965e+01
<STATE> 4
<MEAN> 25
 -1.673576e+00 4.470672e+00 -7.837526e-01 -6.283238e-01 5.821319e+00 3.905181e+00 -7.075533e-01 3.703090e+00 -2.786138e-01 -1.048178e+00 -6.988984e-01 1.149790e+00 -8.751663e-01 -9.400467e-02 -1.148710e-01 -1.419777e-01 3.595238e-01 -4.148935e-02 4.298573e-01 3.472369e-01 1.495543e-01 -1.716417e-02 3.392735e-01 5.465672e-01 -4.204577e-01
<VARIANCE> 25
 8.964419e+01 2.844010e+01 2.058188e+01 2.788368e+01 4.069315e+01 4.767623e+01 2.506987e+01 5.816132e+01 2.334877e+01 1.848695e+01 2.638503e+01 2.922670e+01 2.807628e+00 1.665849e+00 2.147509e+00 1.476035e+00 2.627119e+00 1.108324e+00 2.331882e+00 2.085754e+00 2.912608e+00 2.722102e+00 2.532472e+00 1.750835e+00 5.394411e-01
<GCONST> 9.600330e+01
<TRANSP> 5
 0.000000e+00 1.000000e+00 0.000000e+00 0.000000e+00 0.000000e+00
 0.000000e+00 8.119816e-01 1.880184e-01 0.000000e+00 0.000000e+00
 0.000000e+00 0.000000e+00 6.092432e-01 3.907568e-01 0.000000e+00
 0.000000e+00 0.000000e+00 0.000000e+00 7.215657e-01 2.784342e-01
 0.000000e+00 0.000000e+00 0.000000e+00 0.000000e+00 0.000000e+00
<ENDHMM>
~h "sh"
<BEGINHMM>
<NUMSTATES> 5
<STATE> 2
<MEAN> 25
 -1.281645e+01 -1.342667e+01 1.432527e+01 4.144679e+00 -5.666057e+00 -5.184693e+00 9.844316e+00 -9.608377e+00 7.879185e+00 -6.808715e+00 5.349398e-01 6.353486e-01 -4.323534e-01 -6.960322e-01 -1.878126e-01 -4.045106e-01 -2.169258e-01 -1.012018e-01 3.556031e-02 -4.130163e-01 4.316075e-01 -1.803631e-01 1.462616e-02 2.280096e-01 7.716723e-02
<VARIANCE> 25
 2.044453e+01 1.382350e+01 1.047377e+01 2.776137e+01 1.677141e+01 1.099464e+01 1.169127e+01 1.950741e+01 1.207221e+01 1.510307e+01 9.244432e+00 1.168834e+01 8.628242e+00 2.075302e+00 1.639426e+00 2.019464e+00 2.193857e+00 1.231555e+00 3.640775e+00 2.056985e+00 2.960476e+00 1.414685e+00 1.079313e+00 1.166808e+00 3.553475e-01
<GCONST> 8.551657e+01
<STATE> 3
<MEAN> 25
 7.090478e+00 -6.844761e+00 3.126503e+00 1.229739e+00 -8.596312e+00 -1.462661e+00 -5.061074e+00 -9.503626e+00 8.697551e-01 -8.139070e-01 -6.676793e-01 -2.652496e+00 3.866936e+00 1.045128e+00 -1.653696e+00 -4.375859e-01 -3.429276e-01 6.387277e-01 -2.293112e+00 1.179192e+00 -7.933547e-01 1.521256e+00 -1.245516e+00 -9.667846e-01 5.011005e-01
<VARIANCE> 25
 8.427095e+01 3.566677e+01 6.102225e+01 3.350798e+01 1.223156e+01 2.298126e+01 5.533329e+01 3.739265e+01 7.504258e+01 8.648980e+01 3.018310e+01 1.647322e+01 9.609157e+00 3.306523e+00 3.576000e+00 2.194897e+00 1.501512e+00 2.824015e+00 4.089386e+00 5.484491e+00 8.609335e+00 3.110921e+00 3.047249e+00 1.955284e+00 1.098850e+00
<GCONST> 1.050796e+02
<STATE> 4
<MEAN> 25
 1.328195e+01 -8.708352e+00 -1.052394e+00 -2.739845e+00 -9.693250e+00 -3.907678e+00 -5.623662e+00 1.750506e-01 7.727339e+00 -9.368845e-01 -5.503731e+00 -4.056212e+00 9.004773e-01 1.751484e-01 -6.023498e-01 -3.993009e-01 5.475497e-01 -1.108737e-01 5.878687e-01 6.731425e-01 -5.644805e-01 -3.878745e-01 -4.993894e-01 1.927342e-01 2.698233e-01
<VARIANCE> 25
 3.582488e+00 8.601357e+00 1.578414e+01 1.015373e+01 7.418759e+00 6.566509e+00 1.488268e+01 1.780205e+01 1.950779e+01 2.974159e+01 1.200189e+01 2.511310e+01 2.746124e+00 1.781875e+00 3.193259e+00 5.646504e-01 1.350238e+00 1.464711e+00 1.837378e+00 4.359862e+00 2.973726e+00 5.745880e+00 3.187317e-01 2.883108e+00 1.103976e+00
<GCONST> 8.378182e+01
<TRANSP> 5
 0.000000e+00 1.000000e+00 0.000000e+00 0.000000e+00 0.000000e+00
 0.000000e+00 9.076052e-01 9.239480e-02 0.000000e+00 0.000000e+00
 0.000000e+00 0.000000e+00 7.816252e-01 2.183749e-01 0.000000e+00
 0.000000e+00 0.000000e+00 0.000000e+00 6.782938e-01 3.217062e-01
 0.000000e+00 0.000000e+00 0.000000e+00 0.000000e+00 0.000000e+00
<ENDHMM>
~h "th"
<BEGINHMM>
<NUMSTATES> 5
<STATE> 2
<MEAN> 25
 1.335379e+01 -7.132701e+00 -5.705010e+00 -4.369881e+00 -8.975507e+00 1.116449e-01 -9.362381e-01 -1.188142e+01 4.231663e+00 3.559431e+00 -6.656216e-01 -6.819493e+00 -8.155820e-02 8.652051e-02 2.719864e-02 -3.702822e-01 2.536871e-01 5.707381e-01 4.713605e-01 2.645252e-01 -2.814870e-01 -4.656170e-01 1.151054e-02 6.246682e-01 -2.768196e-01
<VARIANCE> 25
 1.170125e+00 1.446162e+01 1.621510e+01 1.373776e+01 9.374657e+00 2.461792e+01 1.032332e+01 4.412602e+01 1.276454e+01 7.574019e+00 2.648049e+01 5.175396e+00 1.828182e-01 7.773337e-01 1.361998e+00 2.095374e+00 4.465984e-01 2.688542e+00 8.035032e-01 3.481915e+00 2.567709e+00 1.761764e+00 3.625577e+00 7.416278e-01 1.743949e-01
<GCONST> 7.629753e+01
<STATE> 3
<MEAN> 25
 1.069674e+01 -5.631721e+00 2.412346e-01 -6.107023e-01 -1.281995e+01 -5.409727e+00 3.460168e+00 -5.002534e+00 -2.426336e+00 6.197127e-02 -9.254275e-02 -4.301921e+00 -4.678522e-01 2.288486e+00 1.093773e+00 5.276762e-01 1.431771e-01 2.799941e-01 2.776608e-01 -9.583772e-01 -3.174854e+00 1.107441e+00 9.675823e-01 -7.498202e-01 -1.463568e+00
<VARIANCE> 25
 1.170125e+00 2.178098e+01 6.250729e+01 2.755108e+01 3.005212e+01 2.066345e+01 2.188494e+01 3.487402e+01 6.499059e+01 5.180751e+01 1.973654e+01 1.605830e+01 6.561613e-01 1.254773e+00 2.226871e+00 1.433684e+00 3.187271e+00 1.079299e+00 3.774463e+00 5.126426e+00 3.116754e+00 5.658416e+00 3.529663e+00 3.897138e+00 9.542893e-01
<GCONST> 9.419489e+01
<STATE> 4
<MEAN> 25
 8.017822e+00 6.620544e+00 1.531801e+00 2.735850e+00 -2.514815e+00 -1.020050e+00 -2.962418e-02 -8.658405e+00 -9.545985e+00 3.344017e+00 -3.889153e+00 -7.501136e+00 -8.765258e-01 3.803605e-01 -1.265986e-01 5.304762e-02 1.716267e+00 4.393992e-01 -6.328627e-01 9.572120e-01 3.660547e-01 -1.420277e-01 -5.564521e-01 4.888024e-01 -9.053277e-01
<VARIANCE> 25
 2.098155e+01 6.317049e+00 4.976553e+00 5.971973e+00 3.694422e+01 7.375069e+00 5.336449e+00 1.900067e+01 5.360193e+00 9.093184e+00 4.803393e+00 8.053484e+00 1.142671e+00 3.424409e+00 2.532118e+00 6.746298e-01 1.951118e+00 9.496384e-01 7.162493e-01 1.345315e+00 8.700761e-01 1.337589e+00 1.484476e+00 1.077064e+00 9.543230e-01
<GCONST> 7.504778e+01
<TRANSP> 5
 0.000000e+00 1.000000e+00 0.000000e+00 0.000000e+00 0.000000e+00
 0.000000e+00 8.406382e-01 1.593618e-01 0.000000e+00 0.000000e+00
 0.000000e+00 0.000000e+00 7.884823e-01 2.115177e-01 0.000000e+00
 0.000000e+00 0.000000e+00 0.000000e+00 8.333272e-01 1.666728e-01
 0.000000e+00 0.000000e+00 0.000000e+00 0.000000e+00 0.000000e+00
<ENDHMM>
~h "uh"
<BEGINHMM>
<NUMSTATES> 5
<STATE> 2
<MEAN> 25
 1.332359e+01 -1.130835e+01 1.295783e+00 5.585813e+00 -7.424004e+00 -1.054692e+01 -1.308109e+01 1.862504e+00 -2.763757e+00 -6.832826e+00 -9.201429e-02 -3.151968e+00 1.481629e+00 -5.345160e-01 -2.685972e+00 1.530591e-01 1.344904e+00 -5.278259e-01 -1.950994e+00 3.304972e-01 2.060600e+00 5.756869e-01 -2.376539e-01 5.361814e-02 3.386093e-01
<VARIANCE> 25
 1.724396e+01 5.140368e+01 5.542884e+01 1.680734e+01 4.407034e+01 4.965949e+01 3.020600e+01 6.557094e+01 4.130841e+01 2.504428e+01 1.442906e+01 1.267033e+01 1.988658e+00 5.084734e+00 2.991598e+00 3.603307e+00 5.587227e+00 2.334714e+00 2.179982e+00 5.086832e+00 2.303389e+00 2.510218e+00 1.669721e+00 1.106558e+00 2.430184e+00
<GCONST> 9.992574e+01
<STATE> 3
<MEAN> 25
 1.396857e+01 -6.759779e+00 -1.184451e+00 2.251142e+00 -5.537086e+00 -5.195908e+00 -1.248702e+01 -5.419940e+00 2.891147e+00 3.877364e-01 -2.719041e+00 -3.837415e+00 8.055748e-01 -3.657057e-01 -5.333104e-01 -3.437054e-01 -5.798734e-01 -1.657715e-02 -6.706985e-01 -4.557940e-01 8.793384e-01 1.973042e+00 -1.237342e-02 -2.363122e-01 3.255981e-01
<VARIANCE> 25
 1.334986e+01 5.019299e+01 3.714053e+01 3.046022e+01 3.530056e+01 1.853744e+01 2.701568e+01 4.528073e+01 1.373736e+01 2.977461e+01 2.507719e+00 8.033548e+00 2.782277e+00 2.192924e+00 4.508118e+00 4.436182e+00 5.101248e+00 2.572163e+00 1.324077e+00 4.026121e+00 1.436720e+00 6.276370e+00 2.772496e+00 1.483651e+00 1.947787e+00
<GCONST> 9.542724e+01
<STATE> 4
<MEAN> 25
 1.294527e+01 -6.814462e+00 -1.401342e+00 5.289920e+00 -4.897462e+00 -6.567346e+00 -1.037646e+01 -5.267129e+00 2.802503e+00 2.183247e+00 -3.305102e+00 -3.413150e+00 -2.915657e-02 1.119346e+00 1.186274e+00 2.622803e-01 -7.137105e-01 4.351541e-03 1.457287e-01 -1.026337e+00 -7.917198e-01 -7.502379e-02 -4.205469e-01 1.272932e-01 -3.552840e-01
<VARIANCE> 25
 3.239386e+01 4.256422e+01 3.637093e+01 5.561839e+01 7.888818e+01 2.783994e+01 3.376360e+01 3.679069e+01 2.054138e+01 2.667155e+01 5.844007e+00 1.172704e+01 2.548228e+00 3.556602e+00 3.091029e+00 3.169358e+00 8.168209e+00 8.387551e-01 8.865118e-01 2.381686e+00 2.312634e+00 4.606615e+00 8.316354e-01 1.953782e+00 3.387536e+00
<GCONST> 9.737007e+01
<TRANSP> 5
 0.000000e+00 1.000000e+00 0.000000e+00 0.000000e+00 0.000000e+00
 0.000000e+00 5.670618e-01 4.329381e-01 0.000000e+00 0.000000e+00
