~o
<STREAMINFO> 1 25
<VECSIZE> 25<NULLD><MFCC_D_N_Z_0><DIAGC>
~s "silst"
<MEAN> 25
 -4.010941e+00 2.625879e+00 -1.427775e+00 6.174756e+00 5.458138e+00 5.760401e+00 5.116460e+00 4.323924e+00 2.991529e+00 3.230741e+00 2.639119e+00 3.874388e+00 -1.134976e-02 1.209153e-03 -2.567222e-02 9.123908e-03 -1.107067e-02 3.101725e-02 9.056009e-03 -9.141833e-03 8.342635e-03 3.976848e-02 2.918031e-02 1.512256e-02 -1.161573e-01
<VARIANCE> 25
 2.065299e+01 2.305659e+01 2.248327e+01 2.301728e+01 2.180406e+01 2.903739e+01 2.094870e+01 2.243932e+01 2.156274e+01 2.191903e+01 1.884501e+01 1.594307e+01 3.172643e-01 4.718515e-01 5.825660e-01 7.562606e-01 9.402622e-01 1.130252e+00 1.237356e+00 1.350871e+00 1.372115e+00 1.372846e+00 1.274097e+00 1.134738e+00 2.424020e-01
<GCONST> 8.026943e+01
~h "b"
<BEGINHMM>
<NUMSTATES> 5
<STATE> 2
<MEAN> 25
 3.334586e+00 5.290932e+00 2.007095e+00 4.470846e+00 3.046413e+00 1.499586e+00 -8.469149e-01 -2.789135e+00 -2.527040e+00 -6.234432e-01 -6.526523e-01 -1.010205e+00 -4.250250e-01 4.573571e-01 1.786846e-01 7.201680e-01 6.106365e-01 2.244216e-01 4.419903e-01 -3.480196e-03 3.727406e-02 -1.055210e-01 -6.447277e-02 8.038384e-02 -7.413014e-01
<VARIANCE> 25
 5.082869e+01 3.783006e+01 3.462967e+01 4.645987e+01 3.815227e+01 4.064262e+01 4.132233e+01 4.263013e+01 4.159581e+01 3.435732e+01 2.804888e+01 2.635786e+01 3.631706e+00 4.631126e+00 3.211091e+00 5.225558e+00 4.080569e+00 3.766307e+00 3.923954e+00 3.851853e+00 4.044139e+00 3.316221e+00 2.833871e+00 2.483662e+00 8.063333e+00
<GCONST> 1.073081e+02
<STATE> 3
<MEAN> 25
 1.456023e+00 2.719927e+00 9.625261e-01 2.772198e+00 2.259736e+00 4.571268e-01 -1.601610e-01 -2.223850e+00 -7.224091e-01 -3.417758e-02 -3.287768e-01 -6.574851e-01 5.045319e-01 -1.655213e+00 -6.211157e-01 -1.877720e+00 -1.447760e+00 -9.397991e-01 -7.466818e-01 -8.876332e-02 6.033783e-01 3.866817e-01 3.094271e-01 -1.536744e-01 3.243481e+00
<VARIANCE> 25
 3.606721e+01 3.519265e+01 3.201099e+01 4.608949e+01 3.783270e+01 3.873850e+01 3.828656e+01 3.793647e+01 3.713634e+01 3.275725e+01 2.754723e+01 2.439183e+01 5.655864e+00 5.204935e+00 5.147244e+00 7.210013e+00 5.474634e+00 5.788374e+00 5.792189e+00 5.662631e+00 5.599870e+00 5.027395e+00 4.164468e+00 3.795041e+00 1.022703e+01
<GCONST> 1.109403e+02
<STATE> 4
<MEAN> 25
 1.931366e+00 4.029084e-01 -2.621694e-01 2.381147e-01 4.916852e-01 -2.167988e-01 -8.185982e-01 -1.814493e+00 1.452898e-01 3.994952e-01 1.060031e-01 -7.623326e-01 5.551455e-01 -8.962852e-01 -1.854975e-01 -1.123593e+00 -1.154577e+00 -5.159141e-01 -6.373355e-01 2.264107e-02 1.209569e-01 1.175929e-01 1.295695e-01 -8.950128e-02 1.739495e+00
<VARIANCE> 25
 4.046646e+01 3.508348e+01 4.130798e+01 5.805238e+01 4.732734e+01 4.540693e+01 4.323886e+01 4.002246e+01 3.917926e+01 3.515196e+01 2.989365e+01 2.716035e+01 3.215166e+00 3.329725e+00 4.420739e+00 5.312184e+00 4.971804e+00 4.408287e+00 4.269480e+00 3.913818e+00 3.857677e+00 3.384387e+00 3.026964e+00 2.806669e+00 5.616954e+00
<GCONST> 1.079086e+02
<TRANSP> 5
 0.000000e+00 1.000000e+00 0.000000e+00 0.000000e+00 0.000000e+00
 0.000000e+00 6.126514e-01 3.873486e-01 0.000000e+00 0.000000e+00
 0.000000e+00 0.000000e+00 3.412369e-01 6.587631e-01 0.000000e+00
 0.000000e+00 0.000000e+00 0.000000e+00 4.372177e-01 5.627823e-01
 0.000000e+00 0.000000e+00 0.000000e+00 0.000000e+00 0.000000e+00
<ENDHMM>
~h "d"
<BEGINHMM>
<NUMSTATES> 5
<STATE> 2
<MEAN> 25
 5.081852e+00 2.086713e+00 5.441362e+00 2.406344e+00 -3.902084e+00 -4.439544e+00 -4.260901e+00 -2.677791e+00 -2.704585e+00 -1.925689e+00 -2.317571e+00 -1.640643e+00 -6.747141e-01 8.188682e-01 2.203930e-01 9.530458e-01 1.281925e+00 6.620165e-01 5.621353e-01 1.677200e-03 7.493864e-02 -1.321759e-01 -1.307081e-01 1.333421e-01 -1.461978e+00
<VARIANCE> 25
 2.620901e+01 5.051318e+01 5.091121e+01 6.036334e+01 6.542348e+01 5.362576e+01 5.486596e+01 5.676672e+01 5.179415e+01 4.080881e+01 3.805983e+01 3.099849e+01 2.649210e+00 5.629239e+00 3.669949e+00 6.400674e+00 5.847440e+00 4.766110e+00 5.193278e+00 5.542523e+00 4.606458e+00 3.805942e+00 3.725685e+00 2.975642e+00 6.040329e+00
<GCONST> 1.117161e+02
<STATE> 3
<MEAN> 25
 3.400240e-01 1.898573e+00 4.050522e+00 2.380520e+00 1.989214e-01 -1.742618e+00 -1.251553e+00 -1.107563e+00 -8.532230e-01 -1.325766e+00 -1.301817e+00 -1.446262e-01 -1.188760e+00 -6.966277e-01 -4.728009e-01 -6.443965e-01 3.797391e-01 2.142172e-01 5.200833e-01 6.674656e-01 7.446223e-01 2.462664e-01 4.292188e-01 3.713968e-01 5.706611e-01
<VARIANCE> 25
 4.778329e+01 4.948932e+01 3.963760e+01 5.630571e+01 5.033740e+01 5.065283e+01 4.526026e+01 4.454162e+01 4.202161e+01 3.413329e+01 3.165191e+01 2.777199e+01 5.563483e+00 5.872540e+00 4.019919e+00 6.686297e+00 6.440799e+00 6.180388e+00 5.562952e+00 5.214139e+00 4.878475e+00 4.035490e+00 3.804472e+00 3.276382e+00 9.669938e+00
<GCONST> 1.125271e+02
<STATE> 4
<MEAN> 25
 -9.417666e-01 1.211423e+00 1.230574e+00 2.383330e+00 1.702919e+00 -1.613373e-01 7.930177e-01 5.175142e-01 6.613373e-01 -3.202538e-01 -3.179500e-01 6.982145e-01 -2.958833e-01 -1.479982e-01 -2.846420e-01 -1.642069e-01 1.312166e-01 1.648706e-01 1.994931e-01 1.476279e-01 1.504508e-01 1.468826e-01 1.516341e-01 9.495255e-02 -3.826897e-02
<VARIANCE> 25
 3.366922e+01 2.926857e+01 2.943414e+01 3.209394e+01 3.548303e+01 3.681062e+01 3.547886e+01 3.449854e+01 3.089524e+01 2.730038e+01 2.615565e+01 2.305888e+01 1.737638e+00 1.663434e+00 1.716401e+00 2.037061e+00 2.385605e+00 2.602144e+00 2.575652e+00 2.488232e+00 2.405519e+00 2.147104e+00 2.046815e+00 1.814118e+00 2.071884e+00
<GCONST> 9.679401e+01
<TRANSP> 5
 0.000000e+00 1.000000e+00 0.000000e+00 0.000000e+00 0.000000e+00
 0.000000e+00 4.814555e-01 5.185445e-01 0.000000e+00 0.000000e+00
 0.000000e+00 0.000000e+00 4.946929e-01 5.053071e-01 0.000000e+00
 0.000000e+00 0.000000e+00 0.000000e+00 7.273967e-01 2.726033e-01
 0.000000e+00 0.000000e+00 0.000000e+00 0.000000e+00 0.000000e+00
<ENDHMM>
~h "f"
<BEGINHMM>
<NUMSTATES> 5
<STATE> 2
<MEAN> 25
 -1.343437e+00 1.450353e+00 7.437693e-01 2.159731e+00 1.722517e+00 -3.263437e-01 1.228954e+00 -6.778662e-01 3.263741e-01 -5.054236e-01 -8.644114e-01 -3.906381e-01 -2.680672e+00 -7.394701e-04 -2.688452e-01 1.095290e+00 1.178797e+00 6.283118e-01 1.150728e+00 7.075731e-01 9.649590e-01 3.722531e-01 5.571442e-01 6.304057e-01 -7.490999e-01
<VARIANCE> 25
 6.005750e+01 3.082042e+01 4.263775e+01 5.064626e+01 4.167445e+01 4.978126e+01 4.037656e+01 3.930265e+01 3.739261e+01 3.151373e+01 2.802286e+01 2.514062e+01 5.118126e+00 3.892775e+00 4.237288e+00 5.370610e+00 4.487895e+00 4.584190e+00 4.508663e+00 4.349994e+00 4.416316e+00 3.682995e+00 3.442594e+00 2.792643e+00 2.799831e+00
<GCONST> 1.079832e+02
<STATE> 3
<MEAN> 25
 -8.479376e+00 -2.911065e-01 -1.180861e+00 2.961491e+00 3.032712e+00 7.759017e-01 3.119708e+00 1.443035e+00 3.208393e+00 1.421944e+00 1.325496e+00 1.681274e+00 -1.293915e+00 -6.644025e-01 -5.833395e-01 -1.143421e-01 -1.107318e-01 6.258003e-04 1.545662e-01 2.258938e-01 4.245676e-01 3.623615e-01 4.035820e-01 3.631600e-01 6.210220e-02
<VARIANCE> 25
 4.683589e+01 2.721168e+01 2.922255e+01 3.277848e+01 3.111117e+01 3.482277e+01 3.198295e+01 3.005848e+01 2.735031e+01 2.579210e+01 2.408298e+01 2.102180e+01 4.389808e+00 2.121705e+00 2.291698e+00 2.626839e+00 2.462098e+00 2.903729e+00 2.579947e+00 2.606037e+00 2.555085e+00 2.465997e+00 2.315991e+00 2.060282e+00 3.717276e+00
<GCONST> 9.921953e+01
<STATE> 4
<MEAN> 25
 -7.975893e+00 -1.439121e+00 -2.078318e+00 2.318491e+00 2.521260e+00 1.091974e+00 2.304324e+00 1.209012e+00 2.461107e+00 1.321855e+00 1.096265e+00 1.610994e+00 4.374603e-01 -4.272468e-02 -7.624865e-02 -1.736923e-01 -1.375225e-01 -6.819645e-02 -1.295057e-01 -1.366426e-01 -1.396842e-01 -6.100328e-02 -7.542954e-02 -1.011898e-01 6.888410e-02
<VARIANCE> 25
 3.134609e+01 1.931311e+01 1.886931e+01 1.988720e+01 2.030072e+01 2.365038e+01 2.278658e+01 2.279089e+01 2.138436e+01 2.026125e+01 1.905755e+01 1.669865e+01 2.931191e+00 1.087456e+00 1.146149e+00 1.482288e+00 1.544272e+00 1.772322e+00 1.801975e+00 1.781139e+00 1.805127e+00 1.704229e+00 1.619079e+00 1.492629e+00 1.085241e+00
<GCONST> 8.849131e+01
<TRANSP> 5
 0.000000e+00 1.000000e+00 0.000000e+00 0.000000e+00 0.000000e+00
 0.000000e+00 5.572475e-01 4.427526e-01 0.000000e+00 0.000000e+00
 0.000000e+00 0.000000e+00 4.282946e-01 5.717053e-01 0.000000e+00
 0.000000e+00 0.000000e+00 0.000000e+00 8.779089e-01 1.220911e-01
 0.000000e+00 0.000000e+00 0.000000e+00 0.000000e+00 0.000000e+00
<ENDHMM>
~h "g"
<BEGINHMM>
<NUMSTATES> 5
<STATE> 2
<MEAN> 25
 1.964435e+00 2.616246e+00 4.981856e+00 3.620887e+00 -1.471461e+00 -2.942754e+00 -1.207584e+00 -9.925977e-01 -4.748033e+00 -6.358130e-01 1.487406e-01 -1.497936e+00 -5.494694e-01 2.538222e-02 -2.576686e-01 4.011324e-01 7.590021e-01 2.958735e-01 2.477483e-01 -6.321782e-02 2.793580e-03 2.436760e-01 -7.539238e-02 2.170222e-01 -5.328603e-01
<VARIANCE> 25
 5.111915e+01 5.556533e+01 6.506751e+01 6.001802e+01 8.148412e+01 6.886584e+01 5.563667e+01 6.193927e+01 6.781792e+01 4.699891e+01 4.177091e+01 3.512654e+01 3.891074e+00 7.865506e+00 5.594099e+00 6.586672e+00 7.142060e+00 5.996558e+00 5.556621e+00 5.657408e+00 6.267923e+00 4.515228e+00 4.032179e+00 3.262067e+00 1.035036e+01
<GCONST> 1.167940e+02
<STATE> 3
<MEAN> 25
 8.850837e-02 -1.710795e+00 1.425778e+00 1.344899e+00 1.607640e-01 -2.988033e+00 -2.541645e+00 -8.048128e-01 -3.440254e+00 9.665154e-01 3.211930e-01 -4.885589e-01 3.706228e-01 -1.310733e+00 -5.851123e-01 -1.316205e+00 -1.011919e+00 -7.708200e-01 -1.071272e+00 4.434172e-02 2.759910e-01 3.214129e-01 3.847957e-01 -6.669369e-02 2.292203e+00
<VARIANCE> 25
 3.311868e+01 5.169397e+01 8.666363e+01 4.869963e+01 8.888131e+01 6.436262e+01 5.344365e+01 5.407378e+01 4.787065e+01 4.070099e+01 3.327597e+01 2.741878e+01 4.910966e+00 6.503160e+00 8.290523e+00 5.640359e+00 9.775068e+00 6.938393e+00 6.285009e+00 6.632819e+00 5.948160e+00 5.345273e+00 4.588040e+00 3.735844e+00 6.320985e+00
<GCONST> 1.161522e+02
<STATE> 4
<MEAN> 25
 2.667543e+00 -2.144920e+00 1.874256e+00 -5.507559e-01 -3.629786e+00 -4.295779e+00 -3.657299e+00 -7.196833e-01 -2.715919e+00 3.742641e-01 1.128219e+00 -1.380148e+00 4.467153e-01 -2.714863e-01 -4.194436e-01 -5.115635e-01 -3.305095e-01 -9.373663e-02 -2.859946e-01 3.158057e-02 5.791669e-01 6.654036e-02 -1.960486e-03 -1.327846e-01 6.936748e-01
<VARIANCE> 25
 2.999846e+01 4.310716e+01 8.533127e+01 4.933899e+01 9.926112e+01 6.514167e+01 5.742235e+01 6.133480e+01 5.050686e+01 4.422302e+01 3.834273e+01 2.978236e+01 2.674405e+00 2.931055e+00 3.866146e+00 3.247310e+00 5.202491e+00 4.148679e+00 4.030675e+00 4.436110e+00 3.987475e+00 3.330970e+00 3.202979e+00 2.666415e+00 2.550123e+00
<GCONST> 1.093621e+02
<TRANSP> 5
 0.000000e+00 1.000000e+00 0.000000e+00 0.000000e+00 0.000000e+00
 0.000000e+00 6.700453e-01 3.299547e-01 0.000000e+00 0.000000e+00
 0.000000e+00 0.000000e+00 4.961349e-01 5.038651e-01 0.000000e+00
 0.000000e+00 0.000000e+00 0.000000e+00 4.994731e-01 5.005268e-01
 0.000000e+00 0.000000e+00 0.000000e+00 0.000000e+00 0.000000e+00
<ENDHMM>
~h "k"
<BEGINHMM>
<NUMSTATES> 5
<STATE> 2
<MEAN> 25
 5.146381e-01 9.281550e-01 2.533545e+00 2.626435e+00 -5.755993e-01 -2.793668e+00 1.737052e-01 1.053754e+00 -2.552344e+00 3.530191e-01 5.712780e-01 -4.284122e-01 -1.093841e+00 1.396187e-01 -6.222357e-01 7.832308e-01 1.307826e+00 8.143855e-01 7.572362e-01 4.296407e-01 7.056789e-01 7.214575e-01 3.843532e-01 6.935685e-01 -1.763378e+00
<VARIANCE> 25
 4.833965e+01 4.752366e+01 6.757207e+01 5.842929e+01 8.151420e+01 7.595878e+01 6.262703e+01 6.743861e+01 6.473590e+01 4.708296e+01 4.154693e+01 3.504210e+01 3.894552e+00 5.935005e+00 5.596677e+00 5.815356e+00 6.553735e+00 6.030983e+00 5.665839e+00 5.828772e+00 6.553740e+00 4.580457e+00 4.178267e+00 3.381957e+00 8.869094e+00
<GCONST> 1.163825e+02
<STATE> 3
<MEAN> 25
 -3.800784e+00 -3.172422e+00 -2.706608e+00 1.767266e+00 3.437058e+00 -2.070361e-02 1.442186e+00 2.688648e+00 9.459711e-01 3.614101e+00 1.780154e+00 2.111193e+00 -6.944797e-01 -1.318876e+00 -8.044578e-01 -1.106290e+00 -6.914178e-02 -3.303981e-01 -2.386761e-01 -2.273001e-02 2.322779e-01 4.417564e-01 -2.955060e-02 1.096656e-01 2.089320e+00
<VARIANCE> 25
 3.319722e+01 4.845069e+01 5.392096e+01 4.872691e+01 5.345945e+01 5.580233e+01 5.249943e+01 4.527950e+01 4.237122e+01 3.589147e+01 3.033068e+01 2.597706e+01 3.559671e+00 4.734430e+00 5.499628e+00 5.012169e+00 5.778264e+00 6.176635e+00 5.503803e+00 5.091541e+00 5.265583e+00 4.106549e+00 3.674919e+00 3.164463e+00 1.106613e+01
<GCONST> 1.119546e+02
<STATE> 4
<MEAN> 25
 -4.583698e+00 -2.948276e+00 -1.620597e+00 -1.290235e-01 2.287494e+00 -3.258662e-01 1.966077e+00 1.671816e+00 1.284510e+00 2.716705e+00 1.265754e+00 1.477434e+00 3.796183e-01 4.226719e-01 3.905280e-01 -8.317738e-02 -2.493831e-01 1.462763e-02 4.715241e-02 -2.968826e-01 -1.429740e-01 -4.785295e-01 -2.423494e-01 -2.812694e-01 2.511312e-01
<VARIANCE> 25
 3.326693e+01 3.039001e+01 4.797837e+01 3.867986e+01 4.868047e+01 4.731791e+01 4.393884e+01 4.091125e+01 3.640897e+01 3.279052e+01 2.846304e+01 2.386211e+01 3.580256e+00 2.551700e+00 2.729850e+00 2.812270e+00 3.408394e+00 3.530229e+00 3.436950e+00 3.257428e+00 3.315099e+00 3.139174e+00 2.625432e+00 2.362540e+00 3.030698e+00
<GCONST> 1.036637e+02
<TRANSP> 5
 0.000000e+00 1.000000e+00 0.000000e+00 0.000000e+00 0.000000e+00
 0.000000e+00 6.619196e-01 3.380804e-01 0.000000e+00 0.000000e+00
 0.000000e+00 0.000000e+00 5.941032e-01 4.058969e-01 0.000000e+00
 0.000000e+00 0.000000e+00 0.000000e+00 7.537625e-01 2.462375e-01
 0.000000e+00 0.000000e+00 0.000000e+00 0.000000e+00 0.000000e+00
<ENDHMM>
~h "l"
<BEGINHMM>
<NUMSTATES> 5
<STATE> 2
<MEAN> 25
 6.693438e+00 3.751988e-01 -2.755343e+00 -9.095806e+00 -1.791608e+00 1.459031e+00 -5.090836e+00 -5.661663e+00 -4.673879e-01 8.962065e-01 -3.505282e-01 -2.801218e+00 8.989697e-01 6.351401e-01 -4.805996e-01 -1.745529e+00 4.216549e-02 1.182650e+00 -4.121550e-01 -9.922180e-01 -7.019699e-01 8.457765e-02 5.753749e-01 2.080206e-01 5.345792e-02
<VARIANCE> 25
 2.389828e+01 4.960280e+01 4.861853e+01 8.002567e+01 5.202973e+01 6.329252e+01 6.773173e+01 6.006566e+01 6.075422e+01 5.404877e+01 4.295632e+01 4.158109e+01 2.520115e+00 2.732383e+00 2.797609e+00 4.893477e+00 4.027223e+00 4.334894e+00 5.372131e+00 4.836698e+00 4.574415e+00 4.275388e+00 3.551876e+00 3.603244e+00 2.049476e+00
<GCONST> 1.101899e+02
<STATE> 3
<MEAN> 25
 8.227862e+00 2.200394e+00 -3.656509e+00 -1.393851e+01 -1.955426e+00 4.646318e+00 -5.277347e+00 -6.459545e+00 -2.350847e+00 2.458228e-02 1.001596e+00 -1.214062e+00 -1.050457e-01 -2.379944e-01 2.776905e-02 3.644042e-01 1.901804e-01 -2.785031e-01 -1.252860e-01 3.611850e-01 4.593319e-01 1.011649e-01 -3.129973e-01 -2.145333e-01 -3.112367e-02
<VARIANCE> 25
 1.803647e+01 4.172125e+01 4.986122e+01 9.307265e+01 5.753244e+01 6.450840e+01 7.315696e+01 6.530756e+01 6.346711e+01 6.514546e+01 4.572213e+01 4.658760e+01 8.011327e-01 3.725724e+00 2.117347e+00 4.896674e+00 3.064381e+00 3.933904e+00 4.206504e+00 4.530545e+00 5.253552e+00 4.741613e+00 3.717602e+00 3.643509e+00 2.147473e+00
<GCONST> 1.091497e+02
<STATE> 4
<MEAN> 25
 7.296477e+00 2.612938e+00 -3.485206e+00 -1.095678e+01 -1.671276e+00 2.908973e+00 -2.663109e+00 -3.697321e+00 -1.103449e+00 -5.190054e-01 -4.425991e-01 -9.236536e-01 -3.062729e-01 2.419210e-02 3.634571e-01 8.642734e-01 1.229079e-01 -4.828922e-01 1.167120e-01 3.605360e-01 9.242187e-02 -1.645664e-01 -2.090946e-01 4.228797e-02 -3.510753e-01
<VARIANCE> 25
 1.994758e+01 4.138410e+01 4.023186e+01 9.328735e+01 5.339870e+01 5.828680e+01 6.710426e+01 5.444705e+01 5.145433e+01 4.729818e+01 3.723514e+01 3.704305e+01 6.308575e-01 1.415765e+00 1.381883e+00 2.926794e+00 2.268209e+00 2.401710e+00 2.218656e+00 2.693974e+00 2.368894e+00 2.323086e+00 2.057724e+00 1.871131e+00 8.401794e-01
<GCONST> 9.981318e+01
<TRANSP> 5
 0.000000e+00 1.000000e+00 0.000000e+00 0.000000e+00 0.000000e+00
 0.000000e+00 5.734084e-01 4.265916e-01 0.000000e+00 0.000000e+00
 0.000000e+00 0.000000e+00 5.884101e-01 4.115899e-01 0.000000e+00
 0.000000e+00 0.000000e+00 0.000000e+00 7.429668e-01 2.570332e-01
 0.000000e+00 0.000000e+00 0.000000e+00 0.000000e+00 0.000000e+00
<ENDHMM>
~h "m"
<BEGINHMM>
<NUMSTATES> 5
<STATE> 2
<MEAN> 25
 6.908176e+00 2.326461e-01 1.293701e+00 1.091721e+00 -1.125698e+00 -1.358193e+00 -3.860367e+00 -4.004311e+00 -3.701098e+00 -1.789243e+00 -1.037411e+00 -3.573396e+00 4.362235e-01 1.419364e+00 6.665425e-01 1.901207e+00 8.349260e-01 -4.960763e-01 -1.006719e-01 -1.790258e+00 -1.859027e+00 1.887140e-01 5.562537e-01 -5.114117e-01 -1.176827e+00
<VARIANCE> 25
 2.365309e+01 3.949599e+01 4.212441e+01 5.314098e+01 4.973075e+01 5.094136e+01 5.116175e+01 5.336480e+01 6.016958e+01 4.190492e+01 3.887916e+01 3.381664e+01 2.194921e+00 2.386581e+00 3.817378e+00 3.803579e+00 4.021381e+00 3.898474e+00 4.622978e+00 4.451084e+00 5.131584e+00 4.145453e+00 3.935324e+00 3.299447e+00 2.473196e+00
<GCONST> 1.078982e+02
<STATE> 3
<MEAN> 25
 7.181870e+00 3.131842e+00 3.136642e+00 4.922406e+00 -2.120460e-02 -2.736997e+00 -3.651965e+00 -7.894816e+00 -8.086586e+00 -1.126300e+00 1.671762e-01 -4.517172e+00 -3.388448e-02 2.927953e-01 2.351795e-01 4.611824e-01 2.016784e-01 -2.882051e-02 1.434189e-01 -3.869514e-01 -4.045026e-01 -5.805658e-02 -4.990049e-02 -6.631710e-02 -2.715847e-01
<VARIANCE> 25
 1.855285e+01 2.791683e+01 3.395179e+01 4.699792e+01 4.510864e+01 4.709136e+01 5.099503e+01 5.465998e+01 6.219751e+01 4.736532e+01 4.627640e+01 4.050023e+01 1.111433e+00 2.197379e+00 2.231611e+00 3.106414e+00 2.630287e+00 2.762207e+00 3.106521e+00 3.750277e+00 4.563212e+00 2.977446e+00 3.053552e+00 2.514892e+00 1.859521e+00
<GCONST> 1.032255e+02
<STATE> 4
<MEAN> 25
 5.635806e+00 3.505304e+00 3.041998e+00 4.633625e+00 8.253095e-01 -1.663582e+00 -2.242563e+00 -6.104376e+00 -6.060942e+00 -1.655840e+00 -8.477689e-01 -3.008005e+00 -1.659260e-01 -1.312039e-01 -1.862256e-01 -2.768322e-01 -4.087593e-02 1.992987e-01 1.339646e-01 3.649213e-01 4.134895e-01 -4.791060e-02 -1.252153e-01 1.792072e-01 -3.200505e-02
<VARIANCE> 25
 1.937653e+01 2.044375e+01 2.572691e+01 3.224342e+01 3.387741e+01 3.691213e+01 3.977684e+01 4.401500e+01 4.858207e+01 3.414611e+01 3.241692e+01 3.119591e+01 5.815542e-01 1.106486e+00 1.228688e+00 1.790876e+00 1.634283e+00 1.630016e+00 1.785388e+00 2.154364e+00 2.472004e+00 1.789182e+00 1.773608e+00 1.543388e+00 7.916217e-01
<GCONST> 9.251630e+01
<TRANSP> 5
 0.000000e+00 1.000000e+00 0.000000e+00 0.000000e+00 0.000000e+00
 0.000000e+00 5.386591e-01 4.613409e-01 0.000000e+00 0.000000e+00
 0.000000e+00 0.000000e+00 3.821130e-01 6.178871e-01 0.000000e+00
 0.000000e+00 0.000000e+00 0.000000e+00 7.693754e-01 2.306246e-01
 0.000000e+00 0.000000e+00 0.000000e+00 0.000000e+00 0.000000e+00
<ENDHMM>
~h "n"
<BEGINHMM>
<NUMSTATES> 5
<STATE> 2
<MEAN> 25
 6.160156e+00 -2.129179e+00 3.642738e+00 -1.142936e+00 -4.903469e+00 -3.142640e+00 -4.099819e+00 -1.256875e-01 -2.360071e+00 -3.056334e+00 -3.396165e+00 -3.270610e+00 4.115338e-01 1.608720e+00 4.740848e-01 1.723018e+00 3.898045e-01 -3.784059e-01 2.743319e-01 -1.710323e+00 -1.046502e+00 4.771757e-01 -2.437195e-01 -1.137132e-01 -1.513935e+00
<VARIANCE> 25
 1.768702e+01 4.057813e+01 5.404473e+01 4.856120e+01 5.810632e+01 5.361443e+01 5.536706e+01 6.616978e+01 6.134674e+01 4.750705e+01 4.178678e+01 3.504369e+01 1.257909e+00 2.589751e+00 3.571697e+00 3.522499e+00 4.122103e+00 4.158240e+00 4.357705e+00 5.347913e+00 4.350680e+00 3.891349e+00 3.248156e+00 2.769455e+00 1.992752e+00
<GCONST> 1.073312e+02
<STATE> 3
<MEAN> 25
 6.763016e+00 2.580363e+00 4.440630e+00 3.408231e+00 -3.884574e+00 -3.940379e+00 -2.156182e+00 -5.603919e+00 -4.871558e+00 -1.354183e+00 -3.976832e+00 -3.236657e+00 5.192005e-02 1.139458e+00 1.444223e-01 1.054335e+00 4.314565e-01 3.711906e-02 4.999542e-01 -1.244174e+00 -5.541599e-01 3.079124e-01 -1.216695e-01 6.438956e-02 -1.056878e+00
<VARIANCE> 25
 1.635114e+01 2.974423e+01 3.500313e+01 4.016990e+01 4.221082e+01 4.096221e+01 4.569951e+01 6.152209e+01 5.192363e+01 4.380766e+01 3.797002e+01 3.416441e+01 1.140666e+00 3.322616e+00 2.951297e+00 3.518692e+00 3.793122e+00 3.566697e+00 3.965004e+00 6.458175e+00 4.767814e+00 3.637038e+00 3.017860e+00 2.600535e+00 2.436226e+00
<GCONST> 1.050009e+02
<STATE> 4
<MEAN> 25
 5.549992e+00 4.095770e+00 4.176787e+00 4.172438e+00 -1.803587e+00 -2.723530e+00 -1.294795e+00 -5.440308e+00 -4.336432e+00 -1.376478e+00 -3.427413e+00 -2.350871e+00 -3.148092e-01 1.620839e-01 -1.045365e-01 3.891234e-02 3.817418e-01 2.762971e-01 1.165719e-01 1.796260e-01 1.523519e-01 -2.210102e-02 1.280783e-01 1.404152e-01 -3.783868e-01
<VARIANCE> 25
 1.760771e+01 2.257293e+01 2.560585e+01 2.886826e+01 3.597010e+01 3.326542e+01 3.645190e+01 4.698613e+01 4.038120e+01 3.383512e+01 2.982099e+01 2.749631e+01 6.775362e-01 1.269685e+00 1.191309e+00 1.408338e+00 1.795029e+00 1.698257e+00 1.906688e+00 2.431982e+00 2.117045e+00 1.844816e+00 1.686206e+00 1.511260e+00 7.193354e-01
<GCONST> 9.198380e+01
<TRANSP> 5
 0.000000e+00 1.000000e+00 0.000000e+00 0.000000e+00 0.000000e+00
 0.000000e+00 4.816898e-01 5.183102e-01 0.000000e+00 0.000000e+00
 0.000000e+00 0.000000e+00 3.657072e-01 6.342928e-01 0.000000e+00
 0.000000e+00 0.000000e+00 0.000000e+00 7.740951e-01 2.259049e-01
 0.000000e+00 0.000000e+00 0.000000e+00 0.000000e+00 0.000000e+00
<ENDHMM>
~h "p"
<BEGINHMM>
<NUMSTATES> 5
<STATE> 2
<MEAN> 25
 1.944592e+00 2.838783e+00 7.295997e-01 2.191133e+00 1.528589e+00 1.427745e-01 -4.679306e-01 -1.182739e+00 -6.325389e-01 4.968843e-01 1.568794e-03 -4.749779e-01 -1.165715e+00 4.721271e-01 -7.698692e-02 1.128044e+00 1.107062e+00 8.597363e-01 1.229067e+00 7.144681e-01 7.564433e-01 5.773950e-01 5.480680e-01 7.404032e-01 -2.244191e+00
<VARIANCE> 25
 5.831527e+01 3.964328e+01 4.517562e+01 5.479587e+01 4.476678e+01 5.001485e+01 4.617322e+01 4.326379e+01 4.313656e+01 3.562611e+01 3.126034e+01 2.844150e+01 4.566792e+00 4.908378e+00 4.137464e+00 5.460073e+00 4.459632e+00 4.365168e+00 4.479701e+00 4.532699e+00 4.592730e+00 3.730938e+00 3.333729e+00 2.835716e+00 8.620310e+00
<GCONST> 1.103966e+02
<STATE> 3
<MEAN> 25
 -2.990484e+00 8.626865e-01 -6.666712e-01 3.169810e+00 3.437912e+00 1.962803e+00 3.361340e+00 1.828032e+00 3.006392e+00 2.875774e+00 2.370356e+00 2.321038e+00 -6.997927e-01 -1.175359e+00 -4.292013e-01 -4.897785e-01 -4.898734e-02 -7.745718e-02 4.566330e-01 3.390107e-01 6.733878e-01 2.099248e-01 2.933001e-01 2.902064e-01 1.416569e+00
<VARIANCE> 25
 3.149468e+01 3.002263e+01 2.722518e+01 3.408261e+01 3.181257e+01 3.918956e+01 3.512013e+01 3.423685e+01 3.132821e+01 2.908466e+01 2.500418e+01 2.261483e+01 3.599346e+00 3.425986e+00 3.403745e+00 3.820603e+00 3.625037e+00 4.497648e+00 3.982013e+00 4.030962e+00 3.819079e+00 3.494478e+00 3.018015e+00 2.775541e+00 1.256337e+01
<GCONST> 1.048964e+02
<STATE> 4
<MEAN> 25
 -2.751669e+00 -8.734794e-01 -1.549324e+00 1.622693e+00 3.188861e+00 1.952063e+00 2.861364e+00 1.363031e+00 2.489881e+00 1.817415e+00 1.612933e+00 1.584480e+00 3.019359e-01 -2.370744e-01 -7.987248e-02 -3.081979e-01 -1.912553e-01 -1.529995e-01 -2.433284e-01 -2.167561e-01 -1.673671e-01 -2.007413e-01 -2.271113e-01 -2.127643e-01 7.687553e-01
<VARIANCE> 25
 1.961828e+01 2.202140e+01 2.041254e+01 2.385728e+01 2.300102e+01 2.638286e+01 2.613745e+01 2.535577e+01 2.369249e+01 2.203793e+01 2.083455e+01 1.812517e+01 2.513127e+00 1.867362e+00 1.919214e+00 2.267870e+00 2.372239e+00 2.607232e+00 2.686444e+00 2.535023e+00 2.445069e+00 2.274939e+00 2.122561e+00 1.912288e+00 3.989600e+00
<GCONST> 9.455811e+01
<TRANSP> 5
 0.000000e+00 1.000000e+00 0.000000e+00 0.000000e+00 0.000000e+00
 0.000000e+00 5.991775e-01 4.008225e-01 0.000000e+00 0.000000e+00
 0.000000e+00 0.000000e+00 4.794706e-01 5.205294e-01 0.000000e+00
 0.000000e+00 0.000000e+00 0.000000e+00 8.031221e-01 1.968779e-01
 0.000000e+00 0.000000e+00 0.000000e+00 0.000000e+00 0.000000e+00
<ENDHMM>
~h "r"
<BEGINHMM>
<NUMSTATES> 5
<STATE> 2
<MEAN> 25
 7.090623e+00 -2.668243e+00 -6.042602e+00 2.779256e-01 2.090596e-01 -3.393475e+00 -5.926056e+00 -1.884974e+00 -1.508474e-01 -6.823265e-01 8.148565e-01 3.464453e-01 1.648138e+00 -3.461328e-01 -9.335075e-01 4.682477e-01 1.894848e-01 -1.154020e+00 -1.990377e+00 2.184040e-01 5.608925e-01 -1.369498e-01 -4.913955e-01 1.800706e-02 4.629741e-01
<VARIANCE> 25
 6.639438e+01 4.200232e+01 7.541734e+01 5.498111e+01 6.301289e+01 6.293546e+01 7.345022e+01 7.140850e+01 5.771492e+01 4.486965e+01 3.946117e+01 3.622847e+01 5.911175e+00 3.283885e+00 4.172792e+00 4.461701e+00 5.341484e+00 4.700665e+00 5.914535e+00 5.260374e+00 5.473596e+00 4.238849e+00 3.416429e+00 3.064210e+00 2.329823e+00
<GCONST> 1.130744e+02
<STATE> 3
<MEAN> 25
 1.064840e+01 -5.764288e+00 -7.466135e+00 1.667936e+00 -7.007149e-01 -7.324764e+00 -1.153029e+01 1.757684e+00 2.618521e+00 -1.503935e+00 -1.051653e+00 -6.714515e-02 1.532662e-02 -5.793002e-01 6.712000e-01 5.455322e-01 -7.136204e-01 -6.792109e-01 3.053625e-02 9.681013e-01 1.779917e-01 -4.199508e-01 -2.989594e-01 -4.919314e-02 1.695548e-01
<VARIANCE> 25
 2.807591e+01 3.676249e+01 6.837482e+01 5.285234e+01 6.410522e+01 6.803915e+01 8.905666e+01 8.030001e+01 6.194664e+01 4.951031e+01 3.841813e+01 3.743818e+01 2.199207e+00 3.323896e+00 4.747020e+00 3.723195e+00 6.015899e+00 4.555544e+00 6.021250e+00 6.350453e+00 4.894847e+00 4.100850e+00 3.493871e+00 3.038728e+00 2.299554e+00
<GCONST> 1.116446e+02
<STATE> 4
<MEAN> 25
 9.452924e+00 -6.067453e+00 -5.062076e+00 2.328660e+00 -2.269485e+00 -7.981642e+00 -8.525713e+00 3.678672e+00 2.012832e+00 -2.398885e+00 -1.154195e+00 -9.362544e-02 -5.209799e-01 2.788205e-01 1.010261e+00 -4.934415e-02 -4.011648e-01 3.804193e-01 9.384162e-01 -1.836001e-01 -5.573958e-01 2.299920e-03 1.135240e-01 -1.487494e-01 -3.326231e-01
<VARIANCE> 25
 2.526906e+01 3.943932e+01 6.649108e+01 4.513150e+01 6.598367e+01 6.646777e+01 8.331739e+01 7.349683e+01 6.117136e+01 4.693680e+01 3.767677e+01 3.484199e+01 1.083262e+00 1.696250e+00 2.862458e+00 2.274070e+00 3.351789e+00 2.848697e+00 3.689122e+00 3.383452e+00 3.060098e+00 2.515457e+00 2.316998e+00 2.063875e+00 1.129641e+00
<GCONST> 1.040962e+02
<TRANSP> 5
 0.000000e+00 1.000000e+00 0.000000e+00 0.000000e+00 0.000000e+00
 0.000000e+00 5.581012e-01 4.418988e-01 0.000000e+00 0.000000e+00
 0.000000e+00 0.000000e+00 4.339593e-01 5.660407e-01 0.000000e+00
 0.000000e+00 0.000000e+00 0.000000e+00 6.750761e-01 3.249239e-01
 0.000000e+00 0.000000e+00 0.000000e+00 0.000000e+00 0.000000e+00
<ENDHMM>
~h "s"
<BEGINHMM>
<NUMSTATES> 5
<STATE> 2
<MEAN> 25
 -4.957972e+00 4.540437e+00 2.090472e+00 1.693485e-01 2.603189e+00 -4.254425e+00 7.448083e-01 -5.412176e-01 1.164085e-01 -1.085992e+00 -1.454421e+00 2.278209e-03 -3.986300e+00 1.316517e+00 -7.314718e-01 -1.985494e-01 1.984648e+00 3.584419e-01 1.575195e+00 6.583671e-01 6.151326e-01 1.237488e-01 7.284200e-01 7.143357e-01 2.308053e-01
<VARIANCE> 25
 7.069181e+01 4.011942e+01 4.731347e+01 4.659794e+01 5.382627e+01 5.564850e+01 5.355383e+01 4.721490e+01 4.336423e+01 3.596797e+01 3.301336e+01 2.736729e+01 3.952909e+00 3.958607e+00 4.645452e+00 5.151740e+00 4.565223e+00 5.066533e+00 5.077770e+00 4.668504e+00 4.201685e+00 3.837377e+00 3.617916e+00 2.890002e+00 2.116120e+00
<GCONST> 1.097036e+02
<STATE> 3
<MEAN> 25
 -1.692037e+01 7.933697e+00 -2.957426e+00 -3.714326e-01 7.184756e+00 -3.235337e+00 5.221536e+00 1.047453e+00 2.494743e+00 1.789932e-01 1.690041e+00 2.442400e+00 -1.051200e+00 1.138331e-01 -4.360133e-01 -2.437754e-01 3.256952e-01 2.332521e-01 2.142136e-01 2.585302e-01 1.523514e-01 2.228132e-01 2.614116e-01 2.283851e-01 -4.763982e-02
<VARIANCE> 25
 3.739969e+01 3.480013e+01 4.589761e+01 5.372987e+01 4.518021e+01 4.653145e+01 4.551442e+01 3.985936e+01 3.441904e+01 2.917506e+01 2.868708e+01 2.264856e+01 2.658221e+00 1.874310e+00 2.046406e+00 1.934386e+00 1.943012e+00 2.384830e+00 2.221596e+00 2.204402e+00 2.175676e+00 2.090416e+00 1.907091e+00 1.604141e+00 1.566259e+00
<GCONST> 9.865661e+01
<STATE> 4
<MEAN> 25
 -1.408496e+01 4.780126e+00 -1.795236e+00 -1.464382e+00 6.343727e+00 -1.337205e+00 3.073295e+00 2.309486e+00 1.749920e+00 7.981356e-01 8.860763e-01 1.895001e+00 1.013000e+00 -4.206442e-01 2.097039e-01 1.019030e-01 -4.055317e-01 5.559629e-02 -2.974221e-01 -1.657499e-01 -1.166595e-02 8.476527e-03 -1.514172e-01 -1.805491e-01 -3.964991e-01
<VARIANCE> 25
 4.932885e+01 2.534346e+01 2.798033e+01 3.814082e+01 2.928441e+01 3.684656e+01 3.528480e+01 2.947593e+01 2.718369e+01 2.324082e+01 2.215826e+01 1.852641e+01 3.333282e+00 1.350628e+00 1.391431e+00 1.589019e+00 1.937248e+00 2.122287e+00 2.327722e+00 2.059199e+00 1.947013e+00 1.804037e+00 1.729983e+00 1.570419e+00 1.463342e+00
<GCONST> 9.436298e+01
<TRANSP> 5
 0.000000e+00 1.000000e+00 0.000000e+00 0.000000e+00 0.000000e+00
 0.000000e+00 6.737723e-01 3.262278e-01 0.000000e+00 0.000000e+00
 0.000000e+00 0.000000e+00 6.972744e-01 3.027256e-01 0.000000e+00
 0.000000e+00 0.000000e+00 0.000000e+00 8.522112e-01 1.477887e-01
 0.000000e+00 0.000000e+00 0.000000e+00 0.000000e+00 0.000000e+00
<ENDHMM>
~h "t"
<BEGINHMM>
<NUMSTATES> 5
<STATE> 2
<MEAN> 25
 -3.091263e-01 1.935650e+00 1.873868e+00 1.677371e+00 1.949235e-01 -9.394584e-01 -4.055237e-01 -6.233218e-01 -2.331995e-01 3.098604e-01 -2.629786e-01 -8.728421e-02 -1.237662e+00 -9.765774e-03 -2.387609e-01 2.748311e-01 8.180418e-01 5.220330e-01 7.291991e-01 3.860447e-01 4.920771e-01 3.284339e-01 5.009521e-01 6.043946e-01 -8.197884e-01
<VARIANCE> 25
 6.142355e+01 4.747405e+01 5.801892e+01 6.269084e+01 6.388314e+01 6.212109e+01 5.531156e+01 5.173774e+01 5.068025e+01 4.020210e+01 3.587057e+01 3.123774e+01 5.159147e+00 5.993930e+00 4.901107e+00 7.078168e+00 5.994702e+00 5.401803e+00 5.166421e+00 5.273055e+00 4.856853e+00 4.120226e+00 3.849116e+00 3.060458e+00 1.032120e+01
<GCONST> 1.145675e+02
<STATE> 3
<MEAN> 25
 -6.866792e+00 -7.789844e-01 3.575676e-01 -1.055069e+00 1.701551e+00 -1.022957e-01 2.064364e+00 1.277374e+00 1.905138e+00 1.261797e+00 1.933547e+00 2.411125e+00 -1.069045e+00 -5.139268e-01 5.839568e-02 -8.045724e-01 -2.996748e-01 -7.312599e-01 7.924078e-02 1.758984e-01 1.961406e-01 -2.209646e-01 1.153467e-01 2.112517e-01 1.970373e+00
<VARIANCE> 25
 6.204536e+01 4.285445e+01 3.830841e+01 5.181122e+01 4.528907e+01 5.070072e+01 4.468688e+01 3.943407e+01 3.543245e+01 3.284632e+01 2.926372e+01 2.537566e+01 6.440451e+00 4.270276e+00 4.007973e+00 5.762030e+00 4.896599e+00 5.442020e+00 4.833687e+00 4.418118e+00 4.065332e+00 3.646674e+00 3.290835e+00 2.902030e+00 1.163438e+01
<GCONST> 1.105135e+02
<STATE> 4
<MEAN> 25
 -6.646313e+00 -5.630965e-01 4.040880e-01 -6.453824e-02 1.806452e+00 -1.141589e+00 2.274441e+00 1.834573e+00 2.159715e+00 4.863660e-01 8.731825e-01 1.789482e+00 9.177896e-01 5.827409e-02 1.463420e-01 3.334420e-01 -2.226710e-01 -2.457636e-01 -3.623843e-01 -1.890173e-01 -1.909624e-01 -2.025343e-01 -3.783325e-01 -3.337379e-01 -6.059952e-02
<VARIANCE> 25
 5.601915e+01 3.139008e+01 3.229132e+01 3.717435e+01 3.818415e+01 4.237285e+01 3.950517e+01 3.503881e+01 3.187122e+01 2.906756e+01 2.711099e+01 2.331598e+01 4.888456e+00 2.312811e+00 2.537077e+00 2.794176e+00 3.239143e+00 3.548836e+00 3.627264e+00 3.053100e+00 2.900017e+00 2.672570e+00 2.598374e+00 2.247541e+00 3.015487e+00
<GCONST> 1.025584e+02
<TRANSP> 5
 0.000000e+00 1.000000e+00 0.000000e+00 0.000000e+00 0.000000e+00
 0.000000e+00 6.041628e-01 3.958373e-01 0.000000e+00 0.000000e+00
 0.000000e+00 0.000000e+00 4.973562e-01 5.026438e-01 0.000000e+00
 0.000000e+00 0.000000e+00 0.000000e+00 6.966423e-01 3.033577e-01
 0.000000e+00 0.000000e+00 0.000000e+00 0.000000e+00 0.000000e+00
<ENDHMM>
~h "v"
<BEGINHMM>
<NUMSTATES> 5
<STATE> 2
<MEAN> 25
 4.925430e+00 -4.617321e-01 3.548706e-01 -1.627094e+00 -2.232018e+00 -2.115620e+00 -3.747661e+00 -2.281501e+00 -1.062406e+00 5.656784e-01 -4.025977e-01 -1.842296e+00 -5.995294e-01 1.081060e+00 5.050386e-02 1.178649e+00 1.007017e+00 2.438542e-01 4.180474e-01 -4.584408e-01 -9.128709e-02 -9.906156e-02 1.823908e-01 1.597372e-01 -1.100978e+00
<VARIANCE> 25
 5.104857e+01 5.462649e+01 6.941935e+01 7.362071e+01 6.248650e+01 7.141956e+01 6.493447e+01 6.371117e+01 5.900893e+01 5.045919e+01 4.279791e+01 3.647304e+01 3.859344e+00 4.810034e+00 4.164172e+00 6.323060e+00 5.543949e+00 4.939671e+00 5.281660e+00 5.652907e+00 4.956003e+00 4.266546e+00 3.839034e+00 3.081640e+00 5.071004e+00
<GCONST> 1.145464e+02
<STATE> 3
<MEAN> 25
 3.297439e+00 2.589531e+00 5.402475e-01 1.884922e+00 9.075457e-01 -1.573804e+00 -2.685511e+00 -3.592986e+00 -6.347411e-01 -6.432195e-02 -4.000160e-01 -1.884527e+00 -1.977552e+00 1.133340e+00 2.606085e-01 1.481528e+00 1.362583e+00 5.952111e-01 1.239040e+00 5.471819e-02 2.081904e-01 -3.627893e-01 4.715083e-02 3.328483e-01 -1.236361e+00
<VARIANCE> 25
 3.327911e+01 2.891829e+01 3.027553e+01 3.851560e+01 3.239718e+01 4.030168e+01 3.900843e+01 3.576597e+01 3.145502e+01 3.059035e+01 2.679554e+01 2.335696e+01 4.849469e+00 4.272203e+00 3.330262e+00 5.242745e+00 4.264728e+00 4.548584e+00 4.524712e+00 4.773487e+00 4.206768e+00 3.648159e+00 3.256681e+00 2.612339e+00 3.362828e+00
<GCONST> 1.056147e+02
<STATE> 4
<MEAN> 25
 -1.983520e+00 2.398830e+00 2.686643e-01 3.090700e+00 2.579816e+00 9.661949e-02 3.246596e-01 -1.449252e+00 5.339315e-01 -2.621370e-02 -9.490231e-02 -4.595643e-01 -5.324920e-01 -1.140475e-01 -8.642629e-02 4.175664e-02 8.187333e-02 4.378954e-02 2.812175e-01 2.514991e-01 1.092701e-01 -3.855713e-02 2.755523e-02 1.795927e-01 -1.504599e-01
<VARIANCE> 25
 5.023663e+01 2.803016e+01 2.758844e+01 3.268902e+01 2.979454e+01 3.268333e+01 3.445882e+01 3.371176e+01 2.930336e+01 2.616313e+01 2.273601e+01 2.115402e+01 3.814161e+00 1.845859e+00 1.729491e+00 2.454620e+00 2.332075e+00 2.462995e+00 2.649245e+00 2.456857e+00 2.304841e+00 2.124075e+00 1.949190e+00 1.708069e+00 1.769057e+00
<GCONST> 9.713834e+01
<TRANSP> 5
 0.000000e+00 1.000000e+00 0.000000e+00 0.000000e+00 0.000000e+00
 0.000000e+00 5.031397e-01 4.968603e-01 0.000000e+00 0.000000e+00
 0.000000e+00 0.000000e+00 3.032348e-01 6.967652e-01 0.000000e+00
 0.000000e+00 0.000000e+00 0.000000e+00 7.228875e-01 2.771125e-01
 0.000000e+00 0.000000e+00 0.000000e+00 0.000000e+00 0.000000e+00
<ENDHMM>
~h "w"
<BEGINHMM>
<NUMSTATES> 5
<STATE> 2
<MEAN> 25
 4.764437e+00 3.763824e+00 -6.522659e-01 -5.364402e-01 -6.483933e-01 7.540104e-02 -1.508326e+00 -2.680247e+00 -2.825444e+00 -1.056119e+00 -2.695987e-01 -5.137445e-01 1.822483e+00 9.618431e-01 -4.662847e-01 -1.591398e+00 -1.208454e+00 2.089356e-01 -2.852395e-01 -7.334011e-01 -1.207572e+00 -5.174251e-01 5.743302e-02 1.856766e-02 5.361712e-01
<VARIANCE> 25
 4.507491e+01 3.992879e+01 2.914359e+01 4.402349e+01 4.617872e+01 3.980930e+01 4.618055e+01 3.807014e+01 3.925195e+01 3.284507e+01 2.781263e+01 2.437856e+01 3.585690e+00 3.088797e+00 3.043276e+00 4.298474e+00 5.133449e+00 4.463463e+00 4.609906e+00 4.305737e+00 4.420438e+00 3.642549e+00 3.406756e+00 2.932279e+00 3.467533e+00
<GCONST> 1.066886e+02
<STATE> 3
<MEAN> 25
 1.074423e+01 4.155504e+00 -2.867606e+00 -8.533997e+00 -6.126994e+00 2.354761e+00 -3.115196e+00 -4.534539e+00 -7.258950e+00 -2.058245e+00 1.340184e+00 -1.249281e-01 6.912584e-01 -9.819174e-01 -4.901664e-01 -1.349696e+00 -5.398846e-01 6.474176e-01 -9.567849e-01 -5.042335e-01 -3.415779e-01 5.903020e-01 7.642809e-01 -1.132980e-01 1.456551e+00
<VARIANCE> 25
 2.366773e+01 3.646846e+01 3.387989e+01 6.168622e+01 5.243830e+01 5.273757e+01 5.427148e+01 5.434247e+01 5.606657e+01 4.848577e+01 4.582892e+01 3.555042e+01 2.141892e+00 5.009380e+00 3.138287e+00 6.196146e+00 5.668484e+00 6.227742e+00 7.446206e+00 5.458021e+00 5.943268e+00 6.270017e+00 5.254349e+00 4.108679e+00 4.433572e+00
<GCONST> 1.123591e+02
<STATE> 4
<MEAN> 25
 1.052892e+01 1.757772e+00 -3.496055e+00 -9.308382e+00 -6.246331e+00 1.857269e+00 -4.397627e+00 -4.269817e+00 -4.801114e+00 -4.181491e-01 1.336644e+00 -1.533803e+00 -2.162386e-01 -9.846098e-01 5.505568e-02 2.929009e-01 1.734557e-01 -4.359845e-01 -6.572508e-01 3.201124e-01 9.334607e-01 5.050784e-01 -1.715931e-01 -4.541265e-01 7.204404e-01
<VARIANCE> 25
 1.647678e+01 4.738457e+01 3.727420e+01 6.220943e+01 5.225538e+01 6.088428e+01 6.698412e+01 5.419279e+01 5.447755e+01 5.982442e+01 5.000119e+01 4.012100e+01 7.089882e-01 2.357035e+00 2.156622e+00 3.628712e+00 3.346578e+00 4.834406e+00 4.028797e+00 4.077783e+00 4.189084e+00 3.964368e+00 3.587904e+00 3.015127e+00 1.311242e+00
<GCONST> 1.059269e+02
<TRANSP> 5
 0.000000e+00 1.000000e+00 0.000000e+00 0.000000e+00 0.000000e+00
 0.000000e+00 6.226795e-01 3.773205e-01 0.000000e+00 0.000000e+00
 0.000000e+00 0.000000e+00 4.923043e-01 5.076957e-01 0.000000e+00
 0.000000e+00 0.000000e+00 0.000000e+00 7.004430e-01 2.995570e-01
 0.000000e+00 0.000000e+00 0.000000e+00 0.000000e+00 0.000000e+00
<ENDHMM>
~h "y"
<BEGINHMM>
<NUMSTATES> 5
<STATE> 2
<MEAN> 25
 -1.964433e+00 2.769648e+00 9.660818e+00 3.526408e-01 -2.970332e+00 -8.393809e-01 -1.787812e+00 -2.964372e+00 -3.654173e+00 -1.949664e+00 -5.448945e-01 -8.158488e-01 8.581389e-01 3.172176e-01 2.428968e+00 -2.556550e-01 -1.906682e+00 -5.221775e-01 -1.085167e+00 -7.742772e-01 -1.500967e+00 -8.786048e-01 1.040299e-01 -4.616133e-01 1.075439e+00
<VARIANCE> 25
 5.264139e+01 4.209113e+01 6.516747e+01 4.567135e+01 5.904917e+01 5.819837e+01 5.574706e+01 4.825114e+01 4.531366e+01 4.104667e+01 3.051952e+01 2.799746e+01 5.570233e+00 3.427716e+00 4.768049e+00 5.414215e+00 5.734042e+00 6.500315e+00 5.608708e+00 4.793783e+00 4.891126e+00 4.513491e+00 3.478562e+00 2.998170e+00 3.400292e+00
<GCONST> 1.117402e+02
<STATE> 3
<MEAN> 25
 1.550373e+00 2.181254e+00 1.765380e+01 -1.444384e+00 -1.176946e+01 -2.479819e+00 -5.526984e+00 -4.927324e+00 -9.073462e+00 -3.952985e+00 9.738744e-01 -2.951562e+00 5.251504e-01 -9.075114e-01 1.681381e-02 3.618407e-01 -1.304455e+00 -9.789769e-01 -9.994845e-02 5.511175e-01 -4.768613e-01 -1.738812e-01 5.395023e-01 2.443804e-02 7.434675e-01
<VARIANCE> 25
 1.795220e+01 3.609930e+01 5.863384e+01 5.566808e+01 5.668766e+01 5.952776e+01 4.593971e+01 5.230406e+01 4.960751e+01 5.372844e+01 4.161073e+01 3.437961e+01 1.602609e+00 2.439494e+00 4.167149e+00 2.965693e+00 4.321322e+00 5.017790e+00 4.180252e+00 4.361649e+00 3.686061e+00 3.205341e+00 2.502888e+00 2.183980e+00 1.356464e+00
<GCONST> 1.059043e+02
<STATE> 4
<MEAN> 25
 3.393735e+00 -4.656963e-01 1.379229e+01 1.948052e+00 -1.225296e+01 -6.544255e+00 -5.325145e+00 -2.309433e+00 -8.603142e+00 -5.062975e+00 1.916733e+00 -1.432765e+00 3.944500e-01 -3.306501e-01 -1.007072e+00 3.026204e-01 4.205665e-01 -6.580628e-01 -4.126018e-01 5.494365e-01 5.680093e-01 -5.155728e-02 -1.381124e-01 1.703395e-01 7.910602e-02
<VARIANCE> 25
 1.455309e+01 2.862726e+01 5.236422e+01 4.637662e+01 4.777327e+01 5.428959e+01 4.711621e+01 5.120398e+01 5.112597e+01 5.248474e+01 3.390264e+01 3.066870e+01 4.814653e-01 8.411130e-01 2.315607e+00 1.314235e+00 2.314159e+00 2.354524e+00 2.543665e+00 2.375068e+00 2.700718e+00 1.975896e+00 1.780595e+00 1.457231e+00 4.264544e-01
<GCONST> 9.574367e+01
<TRANSP> 5
 0.000000e+00 1.000000e+00 0.000000e+00 0.000000e+00 0.000000e+00
 0.000000e+00 6.641378e-01 3.358622e-01 0.000000e+00 0.000000e+00
 0.000000e+00 0.000000e+00 6.492016e-01 3.507984e-01 0.000000e+00
 0.000000e+00 0.000000e+00 0.000000e+00 7.702601e-01 2.297400e-01
 0.000000e+00 0.000000e+00 0.000000e+00 0.000000e+00 0.000000e+00
<ENDHMM>
~h "z"
<BEGINHMM>
<NUMSTATES> 5
<STATE> 2
<MEAN> 25
 -7.745188e-01 6.245194e+00 4.163820e+00 -1.814426e-01 7.823745e-01 -7.710854e+00 -4.321937e+00 -3.468803e+00 -1.030041e+00 -1.113824e+00 -2.355308e+00 -6.110294e-01 -3.523957e+00 2.192179e+00 -5.303946e-01 2.600093e-01 2.578468e+00 2.225817e-01 1.643491e+00 3.913712e-01 5.461061e-01 -1.642217e-01 1.943874e-01 5.381843e-01 -3.073844e-01
<VARIANCE> 25
 4.409161e+01 4.428967e+01 4.237252e+01 4.746690e+01 5.883056e+01 5.768156e+01 5.853735e+01 4.494892e+01 4.289483e+01 4.006483e+01 3.139932e+01 2.896801e+01 3.307393e+00 3.822153e+00 3.870744e+00 5.090669e+00 4.215177e+00 5.450964e+00 4.797384e+00 5.151185e+00 4.101034e+00 3.707128e+00 3.498280e+00 2.856337e+00 1.188127e+00
<GCONST> 1.084528e+02
<STATE> 3
<MEAN> 25
 -1.271556e+01 9.429150e+00 1.031940e+00 -7.033619e-02 7.466059e+00 -3.994342e+00 1.910711e+00 -2.712476e-01 1.248087e+00 -6.725395e-01 5.842540e-02 1.273749e+00 -1.866938e+00 -3.875013e-01 -7.516618e-01 -2.964705e-01 5.307276e-01 7.943740e-01 7.836357e-01 7.969100e-01 4.597194e-01 3.269486e-01 5.144474e-01 3.162704e-01 -1.441824e-01
<VARIANCE> 25
 5.187361e+01 4.746696e+01 5.102459e+01 5.913524e+01 5.393206e+01 6.276327e+01 5.760701e+01 4.837636e+01 3.908205e+01 3.476801e+01 3.067028e+01 2.536624e+01 5.922449e+00 2.878355e+00 3.030550e+00 3.241321e+00 3.417181e+00 4.083281e+00 3.974443e+00 3.321189e+00 3.156175e+00 2.941974e+00 2.578281e+00 2.165474e+00 2.340290e+00
<GCONST> 1.068338e+02
<STATE> 4
<MEAN> 25
 -1.173435e+01 5.026200e+00 -5.905085e-01 -1.048382e+00 6.532907e+00 -1.717951e+00 2.064815e+00 1.693674e+00 1.780663e+00 6.293854e-01 6.171660e-01 1.566842e+00 9.048839e-01 -5.770245e-01 -2.961052e-02 1.465082e-01 -4.263467e-01 1.518897e-01 -1.419384e-01 -1.011243e-01 -5.351030e-03 7.424881e-02 -4.629742e-02 -8.940799e-02 -4.832363e-01
<VARIANCE> 25
 5.495836e+01 3.386220e+01 3.239243e+01 4.154774e+01 3.390052e+01 4.373132e+01 4.284967e+01 3.571965e+01 3.132533e+01 2.629020e+01 2.448682e+01 2.054863e+01 3.287643e+00 1.618957e+00 1.582162e+00 1.824607e+00 2.186580e+00 2.429420e+00 2.610200e+00 2.356953e+00 2.207679e+00 2.018483e+00 1.836022e+00 1.634611e+00 1.491427e+00
<GCONST> 9.746194e+01
<TRANSP> 5
 0.000000e+00 1.000000e+00 0.000000e+00 0.000000e+00 0.000000e+00
 0.000000e+00 6.768948e-01 3.231052e-01 0.000000e+00 0.000000e+00
 0.000000e+00 0.000000e+00 5.903106e-01 4.096894e-01 0.000000e+00
 0.000000e+00 0.000000e+00 0.000000e+00 8.342961e-01 1.657039e-01
 0.000000e+00 0.000000e+00 0.000000e+00 0.000000e+00 0.000000e+00
<ENDHMM>
~h "aa"
<BEGINHMM>
<NUMSTATES> 5
<STATE> 2
<MEAN> 25
 4.117172e+00 -1.478639e+00 -2.266237e+00 -4.101900e+00 -1.292891e+00 4.390117e-01 -2.522914e+00 -2.081721e+00 -1.770397e-01 3.661453e-01 -8.095316e-01 -2.133923e+00 1.479622e+00 -1.190030e+00 -1.229116e+00 -1.969335e+00 -4.539103e-01 8.873568e-01 -6.812490e-01 -4.348348e-02 3.745895e-01 -4.147716e-03 -3.959917e-01 -9.136798e-01 1.708628e+00
<VARIANCE> 25
 5.060060e+01 4.202095e+01 5.204058e+01 6.848909e+01 6.512792e+01 7.062041e+01 6.785648e+01 5.743697e+01 5.516367e+01 4.475957e+01 4.228884e+01 3.430319e+01 5.802630e+00 4.173854e+00 4.728633e+00 6.640446e+00 6.459718e+00 6.913153e+00 6.343446e+00 6.486526e+00 6.872797e+00 5.063213e+00 4.405002e+00 3.897865e+00 4.685823e+00
<GCONST> 1.156683e+02
<STATE> 3
<MEAN> 25
 8.092068e+00 -4.684748e+00 -5.784318e+00 -9.540217e+00 -2.234291e+00 3.569363e+00 -3.659127e+00 -2.413238e+00 -1.777047e-01 1.611650e-01 -1.101544e+00 -3.851872e+00 2.921577e-01 -7.146637e-01 -5.785117e-01 -7.210513e-01 3.086206e-01 8.668153e-01 8.646030e-02 -9.993465e-02 9.628089e-02 -1.247557e-01 -1.673575e-01 -3.074856e-01 6.183501e-01
<VARIANCE> 25
 2.987966e+01 4.962167e+01 6.040131e+01 7.646803e+01 7.153782e+01 8.978173e+01 9.071973e+01 7.035831e+01 6.516591e+01 6.489528e+01 5.882542e+01 4.563682e+01 1.835515e+00 2.748680e+00 3.512706e+00 4.559670e+00 4.485388e+00 5.988130e+00 5.079314e+00 4.863216e+00 4.637134e+00 4.080835e+00 3.734244e+00 3.383587e+00 1.893955e+00
<GCONST> 1.124655e+02
<STATE> 4
<MEAN> 25
 8.471920e+00 -6.157553e+00 -8.048119e+00 -1.092947e+01 -2.431466e-01 6.905830e+00 -1.722828e+00 -3.094239e+00 -2.140377e-01 -9.134122e-01 -1.980391e+00 -4.293495e+00 -1.186899e-01 2.301109e-01 1.555303e-01 4.897645e-01 1.995683e-01 -4.136018e-01 -7.597382e-02 1.123238e-01 6.810662e-02 -6.999604e-03 -9.860407e-02 5.963214e-02 -3.344885e-01
<VARIANCE> 25
 1.491521e+01 4.094773e+01 3.516274e+01 5.879583e+01 5.617585e+01 7.080537e+01 6.859479e+01 5.151644e+01 4.895116e+01 4.987022e+01 4.366981e+01 3.866465e+01 5.623288e-01 1.306627e+00 1.356900e+00 2.145556e+00 1.909275e+00 2.832233e+00 2.279816e+00 2.300262e+00 2.111022e+00 2.050875e+00 1.926804e+00 1.750390e+00 7.858704e-01
<GCONST> 9.823149e+01
<TRANSP> 5
 0.000000e+00 1.000000e+00 0.000000e+00 0.000000e+00 0.000000e+00
 0.000000e+00 5.605487e-01 4.394513e-01 0.000000e+00 0.000000e+00
 0.000000e+00 0.000000e+00 4.756349e-01 5.243651e-01 0.000000e+00
 0.000000e+00 0.000000e+00 0.000000e+00 8.507017e-01 1.492982e-01
 0.000000e+00 0.000000e+00 0.000000e+00 0.000000e+00 0.000000e+00
<ENDHMM>
~h "ae"
<BEGINHMM>
<NUMSTATES> 5
<STATE> 2
<MEAN> 25
 5.553144e-01 -1.889460e+00 7.791758e-03 -1.749814e-01 -1.798764e+00 -1.965650e+00 9.668493e-01 1.331227e+00 8.875682e-01 -4.952313e-01 -1.602379e+00 -8.624173e-01 1.357061e+00 -1.450639e+00 -6.282207e-02 -1.141119e+00 -1.294237e+00 -6.871870e-01 -5.734352e-01 6.480492e-01 1.409463e-01 -6.426569e-01 -9.703193e-01 -7.901502e-01 2.221708e+00
<VARIANCE> 25
 4.784277e+01 4.700111e+01 4.726754e+01 4.818628e+01 6.234751e+01 6.454330e+01 6.541742e+01 5.438520e+01 4.814124e+01 4.314247e+01 3.914381e+01 3.524268e+01 5.217642e+00 4.695271e+00 4.351405e+00 4.857043e+00 5.674441e+00 5.774277e+00 6.115109e+00 5.974909e+00 5.731773e+00 4.814179e+00 4.360562e+00 3.748522e+00 7.489628e+00
<GCONST> 1.142033e+02
<STATE> 3
<MEAN> 25
 5.062185e+00 -7.288800e+00 -7.923004e-02 -4.304449e+00 -5.885524e+00 -3.437960e+00 -7.292890e-01 3.745993e+00 7.315730e-01 -2.749352e+00 -4.678429e+00 -3.785015e+00 5.607328e-01 -1.159818e+00 -2.258823e-01 -5.629003e-01 -3.519283e-01 2.284934e-01 -1.385122e-01 5.752745e-01 7.448200e-02 -5.072098e-01 -5.452005e-01 -3.968796e-01 1.126500e+00
<VARIANCE> 25
 1.922645e+01 4.146548e+01 5.529302e+01 3.927460e+01 5.919854e+01 5.960957e+01 6.627358e+01 5.958761e+01 5.680374e+01 4.724415e+01 4.093816e+01 3.314243e+01 1.701633e+00 2.670100e+00 2.777519e+00 2.687174e+00 3.599286e+00 3.542195e+00 4.283967e+00 3.962057e+00 3.305677e+00 3.084491e+00 2.849188e+00 2.443920e+00 2.118781e+00
<GCONST> 1.057835e+02
<STATE> 4
<MEAN> 25
 5.638755e+00 -9.069026e+00 -1.887536e+00 -3.921088e+00 -4.403248e+00 -1.777547e+00 1.497262e-01 3.789533e+00 9.488723e-01 -4.086711e+00 -5.711344e+00 -4.031660e+00 3.524044e-02 4.182930e-01 4.896883e-02 2.471885e-01 2.379587e-01 -6.419936e-02 -1.806138e-01 -1.908558e-01 -2.425922e-02 1.078474e-01 7.632262e-02 5.086723e-02 -3.965842e-01
<VARIANCE> 25
 1.487557e+01 3.790723e+01 4.876585e+01 3.451744e+01 5.463593e+01 5.481673e+01 5.571606e+01 5.315554e+01 5.081275e+01 4.470887e+01 3.787241e+01 3.332759e+01 4.932857e-01 1.466388e+00 1.297733e+00 1.326782e+00 1.726532e+00 1.822781e+00 2.091814e+00 2.088752e+00 1.824333e+00 1.816204e+00 1.646066e+00 1.400488e+00 9.416637e-01
<GCONST> 9.539104e+01
<TRANSP> 5
 0.000000e+00 1.000000e+00 0.000000e+00 0.000000e+00 0.000000e+00
 0.000000e+00 6.302225e-01 3.697775e-01 0.000000e+00 0.000000e+00
 0.000000e+00 0.000000e+00 4.641788e-01 5.358212e-01 0.000000e+00
 0.000000e+00 0.000000e+00 0.000000e+00 8.358421e-01 1.641579e-01
 0.000000e+00 0.000000e+00 0.000000e+00 0.000000e+00 0.000000e+00
<ENDHMM>
~h "ah"
<BEGINHMM>
<NUMSTATES> 5
<STATE> 2
<MEAN> 25
 2.653475e+00 -1.061445e+00 -1.886923e+00 -3.445913e+00 -8.113891e-01 -9.218920e-01 -2.646289e+00 -1.471971e+00 9.895986e-01 4.538002e-01 -1.279332e+00 -1.811252e+00 1.661264e+00 -1.263255e+00 -7.547929e-01 -1.578197e+00 -5.831631e-01 3.651381e-01 -1.186917e+00 -1.082810e-01 5.683503e-01 2.367566e-01 -6.679361e-01 -1.055532e+00 1.592467e+00
<VARIANCE> 25
 6.030378e+01 4.792685e+01 5.338589e+01 6.887444e+01 6.557545e+01 7.420960e+01 6.119542e+01 5.842318e+01 5.656403e+01 4.912195e+01 4.160471e+01 3.553668e+01 6.918118e+00 4.416838e+00 4.395840e+00 6.556899e+00 5.878244e+00 6.389212e+00 6.666323e+00 6.422656e+00 6.233071e+00 5.197852e+00 4.631087e+00 3.966154e+00 5.686217e+00
<GCONST> 1.163164e+02
<STATE> 3
<MEAN> 25
 7.130916e+00 -5.469854e+00 -4.507227e+00 -8.304106e+00 -2.129879e+00 1.504514e+00 -5.688121e+00 -1.653672e+00 2.006424e+00 8.965058e-01 -2.765148e+00 -4.985384e+00 4.449539e-01 -7.289789e-01 -3.223305e-01 -4.787708e-01 1.469863e-01 5.487043e-01 -3.379446e-01 -4.806863e-02 2.907552e-01 2.043483e-01 -3.436384e-01 -5.892008e-01 5.447135e-01
<VARIANCE> 25
 2.089378e+01 4.234303e+01 4.551707e+01 6.090282e+01 5.521323e+01 8.266574e+01 6.190366e+01 5.783356e+01 5.579810e+01 5.989498e+01 5.106231e+01 4.060686e+01 1.891281e+00 3.067857e+00 2.964846e+00 4.659835e+00 3.811858e+00 5.036312e+00 4.010203e+00 4.606987e+00 4.063606e+00 3.697901e+00 3.616318e+00 2.960863e+00 2.309506e+00
<GCONST> 1.091931e+02
<STATE> 4
<MEAN> 25
 7.621259e+00 -5.327213e+00 -5.193828e+00 -8.512997e+00 -8.631092e-01 2.566231e+00 -4.779030e+00 -2.177731e+00 2.078143e+00 7.440428e-01 -3.248595e+00 -5.175250e+00 -1.527748e-01 7.506049e-01 4.475786e-01 7.558305e-01 1.671596e-01 -2.856669e-01 2.235015e-01 -2.024401e-01 -3.298361e-01 -1.035023e-01 1.545940e-01 3.104693e-01 -7.933872e-01
<VARIANCE> 25
 1.562712e+01 3.847940e+01 3.615067e+01 5.241080e+01 4.813832e+01 7.075169e+01 5.822495e+01 5.111079e+01 5.008364e+01 5.770887e+01 4.751187e+01 3.606420e+01 8.206891e-01 1.858650e+00 1.746331e+00 2.703413e+00 2.275552e+00 2.990010e+00 2.533587e+00 2.758419e+00 2.544014e+00 2.408530e+00 2.332004e+00 2.019765e+00 1.430266e+00
<GCONST> 1.009962e+02
<TRANSP> 5
 0.000000e+00 1.000000e+00 0.000000e+00 0.000000e+00 0.000000e+00
 0.000000e+00 5.641227e-01 4.358773e-01 0.000000e+00 0.000000e+00
 0.000000e+00 0.000000e+00 4.416929e-01 5.583071e-01 0.000000e+00
 0.000000e+00 0.000000e+00 0.000000e+00 7.762207e-01 2.237793e-01
 0.000000e+00 0.000000e+00 0.000000e+00 0.000000e+00 0.000000e+00
<ENDHMM>
~h "ao"
<BEGINHMM>
<NUMSTATES> 5
<STATE> 2
<MEAN> 25
 4.621306e+00 6.238693e-01 -3.614273e+00 -5.605593e+00 -2.205529e+00 1.183612e+00 -1.711169e+00 -2.721904e+00 -8.748971e-01 2.069819e-01 7.628840e-02 -1.483147e+00 2.433486e+00 -2.411589e-03 -1.018234e+00 -2.854656e+00 -1.674216e+00 8.873324e-01 -3.281177e-01 -3.570668e-01 -5.714782e-01 -3.226802e-01 2.871484e-02 -3.475534e-01 1.332349e+00
<VARIANCE> 25
 4.826162e+01 4.103085e+01 4.147717e+01 7.647987e+01 6.209254e+01 6.147896e+01 6.516737e+01 4.881520e+01 5.038191e+01 4.487286e+01 3.878118e+01 3.448180e+01 5.832065e+00 4.423799e+00 4.096976e+00 6.056638e+00 6.772551e+00 6.148005e+00 6.531280e+00 6.107183e+00 6.283016e+00 5.076347e+00 4.462151e+00 3.937245e+00 3.688481e+00
<GCONST> 1.143448e+02
<STATE> 3
<MEAN> 25
 9.990577e+00 8.305623e-02 -6.083550e+00 -1.361177e+01 -7.264790e+00 4.312602e+00 -1.143715e+00 -1.694135e+00 -3.240550e+00 -1.694053e+00 9.413334e-01 -1.504426e+00 4.317549e-01 -4.633524e-01 -6.841664e-01 -9.223767e-01 -9.817140e-02 7.969217e-01 3.072274e-01 2.670155e-01 -2.305008e-01 -4.377263e-01 1.781963e-01 4.136769e-01 4.466375e-01
<VARIANCE> 25
 2.122206e+01 4.688367e+01 4.409027e+01 6.595504e+01 7.524243e+01 6.719909e+01 6.819141e+01 6.745554e+01 6.162328e+01 5.572705e+01 5.109529e+01 4.608865e+01 8.128896e-01 1.902185e+00 2.004590e+00 3.319750e+00 3.862196e+00 3.276071e+00 4.025688e+00 3.383584e+00 3.460835e+00 3.172131e+00 3.152129e+00 2.809186e+00 1.006932e+00
<GCONST> 1.057572e+02
<STATE> 4
<MEAN> 25
 9.744110e+00 -1.083133e-01 -6.977504e+00 -1.508936e+01 -5.588415e+00 6.521832e+00 2.416665e-01 -2.266584e+00 -2.013317e+00 -2.695295e+00 -5.387126e-01 -4.581366e-01 -3.112104e-02 -4.465003e-02 -6.249528e-02 4.382519e-01 3.498651e-01 -2.447729e-01 -1.939207e-01 1.563407e-02 6.802062e-02 9.656982e-02 3.107272e-02 7.672018e-03 -1.430131e-01
<VARIANCE> 25
 1.482598e+01 4.329405e+01 3.768441e+01 6.862234e+01 7.498601e+01 6.324401e+01 5.844447e+01 5.013546e+01 4.602664e+01 4.773302e+01 4.140934e+01 3.852348e+01 2.701658e-01 9.018840e-01 9.678327e-01 1.718556e+00 1.642787e+00 1.763041e+00 1.967743e+00 1.723606e+00 1.764551e+00 1.736562e+00 1.643570e+00 1.473171e+00 3.656892e-01
<GCONST> 9.416557e+01
<TRANSP> 5
 0.000000e+00 1.000000e+00 0.000000e+00 0.000000e+00 0.000000e+00
 0.000000e+00 6.472095e-01 3.527905e-01 0.000000e+00 0.000000e+00
 0.000000e+00 0.000000e+00 5.814372e-01 4.185628e-01 0.000000e+00
 0.000000e+00 0.000000e+00 0.000000e+00 8.684697e-01 1.315304e-01
 0.000000e+00 0.000000e+00 0.000000e+00 0.000000e+00 0.000000e+00
<ENDHMM>
~h "aw"
<BEGINHMM>
<NUMSTATES> 5
<STATE> 2
<MEAN> 25
 5.231551e+00 -8.824843e+00 -3.512073e+00 -3.742624e+00 -2.598606e+00 -1.331613e+00 -1.540467e-01 2.585763e+00 1.515006e+00 -2.694442e+00 -5.382158e+00 -4.115903e+00 6.610377e-01 -1.218876e+00 -9.793758e-01 -7.157608e-01 4.013532e-01 8.988496e-01 -1.802833e-01 -7.409981e-02 2.905207e-01 -2.823665e-01 -7.149608e-01 -6.832874e-01 9.727585e-01
<VARIANCE> 25
 2.287129e+01 4.362786e+01 3.868058e+01 3.972681e+01 5.662840e+01 5.581980e+01 5.591058e+01 5.498415e+01 4.917852e+01 5.185051e+01 4.131009e+01 3.542148e+01 1.968467e+00 2.757170e+00 2.242820e+00 3.043565e+00 3.539861e+00 3.349125e+00 3.823338e+00 4.177322e+00 3.416405e+00 3.137444e+00 2.902329e+00 2.679263e+00 2.022997e+00
<GCONST> 1.053950e+02
<STATE> 3
<MEAN> 25
 7.805711e+00 -1.099330e+01 -7.431359e+00 -6.993769e+00 6.576968e-01 4.610499e+00 -2.583988e+00 -1.430408e+00 2.089958e+00 -1.702634e+00 -5.597565e+00 -6.596272e+00 3.021856e-01 5.223660e-01 -3.426796e-01 -6.429539e-01 1.294874e-01 7.514160e-01 -1.306080e-01 -6.604448e-01 -2.826962e-01 4.008282e-01 6.285407e-01 1.080571e-01 -3.712992e-01
<VARIANCE> 25
 1.326305e+01 3.159324e+01 2.963963e+01 4.411896e+01 4.411011e+01 6.384560e+01 5.368980e+01 5.208327e+01 4.618674e+01 5.428644e+01 4.428120e+01 3.628643e+01 3.321753e-01 1.108758e+00 8.918718e-01 1.451051e+00 1.730324e+00 1.819295e+00 1.995179e+00 1.998131e+00 1.930766e+00 1.907115e+00 1.896353e+00 1.694376e+00 4.263176e-01
<GCONST> 9.365594e+01
<STATE> 4
<MEAN> 25
 8.767900e+00 -2.411049e+00 -6.934028e+00 -9.949129e+00 -1.979435e+00 5.821502e+00 -1.587716e-01 -3.069173e+00 -1.292927e+00 -6.784260e-03 -3.215987e-01 -2.101582e+00 -5.875522e-02 6.802891e-01 3.771496e-01 3.738309e-01 -2.043385e-01 -4.823205e-01 -8.942070e-02 1.069750e-02 -2.019199e-01 9.705320e-03 1.985879e-01 3.635675e-01 -5.980084e-01
<VARIANCE> 25
 1.888449e+01 3.555704e+01 2.742279e+01 6.123011e+01 5.156632e+01 5.233484e+01 5.163531e+01 4.294489e+01 4.324572e+01 4.490086e+01 3.741349e+01 3.465677e+01 3.950953e-01 1.084213e+00 9.925615e-01 1.895789e+00 1.834046e+00 1.933367e+00 2.008026e+00 1.927546e+00 1.927628e+00 1.910635e+00 1.777986e+00 1.742298e+00 4.658815e-01
<GCONST> 9.430013e+01
<TRANSP> 5
 0.000000e+00 1.000000e+00 0.000000e+00 0.000000e+00 0.000000e+00
 0.000000e+00 7.515031e-01 2.484969e-01 0.000000e+00 0.000000e+00
 0.000000e+00 0.000000e+00 8.077720e-01 1.922279e-01 0.000000e+00
 0.000000e+00 0.000000e+00 0.000000e+00 8.448661e-01 1.551339e-01
 0.000000e+00 0.000000e+00 0.000000e+00 0.000000e+00 0.000000e+00
<ENDHMM>
~h "ax"
<BEGINHMM>
<NUMSTATES> 5
<STATE> 2
<MEAN> 25
 1.912342e-01 6.778312e-01 1.248369e+00 -1.779368e-01 -1.105394e+00 -3.412856e+00 -1.958929e+00 -1.157393e+00 5.415620e-01 -4.322908e-01 -1.057105e+00 -7.829162e-01 1.620154e+00 -5.660138e-01 3.290784e-01 -9.033577e-01 -1.173237e+00 -8.213028e-01 -1.356432e+00 -2.105485e-01 -1.926519e-03 -9.020770e-02 -5.199655e-01 -5.546099e-01 1.399031e+00
<VARIANCE> 25
 6.037637e+01 4.363693e+01 4.952814e+01 4.871222e+01 5.691875e+01 6.101318e+01 5.896209e+01 5.003308e+01 4.512847e+01 3.928828e+01 3.375810e+01 3.019794e+01 7.188650e+00 4.864175e+00 4.734412e+00 6.036874e+00 6.189685e+00 6.101052e+00 6.814126e+00 5.969086e+00 5.671348e+00 4.676541e+00 4.167079e+00 3.592357e+00 7.113426e+00
<GCONST> 1.143517e+02
<STATE> 3
<MEAN> 25
 5.186514e+00 -1.449793e+00 2.239405e+00 -2.581448e+00 -4.369907e+00 -4.872910e+00 -5.839229e+00 -1.518482e+00 1.755869e-02 -3.496498e-01 -2.163347e+00 -2.607788e+00 7.817488e-01 -7.106723e-02 9.889218e-02 -2.896101e-01 -3.130108e-01 1.828842e-01 -3.771897e-01 -5.605887e-02 -1.260090e-01 7.663968e-02 -1.289755e-01 -1.762037e-01 2.385074e-02
<VARIANCE> 25
 2.478753e+01 4.298782e+01 5.709999e+01 5.509573e+01 5.792002e+01 6.197833e+01 5.910741e+01 5.854865e+01 5.612321e+01 4.831145e+01 3.985604e+01 3.323705e+01 3.548136e+00 4.142081e+00 3.673638e+00 5.540408e+00 5.266918e+00 4.639089e+00 5.278796e+00 5.412295e+00 4.738741e+00 4.044116e+00 3.603772e+00 3.015883e+00 3.996872e+00
<GCONST> 1.113749e+02
<STATE> 4
<MEAN> 25
 4.818593e+00 -6.935002e-01 2.262652e+00 -2.255010e+00 -3.720214e+00 -3.505934e+00 -4.346469e+00 -1.426325e+00 -8.889731e-02 -4.243802e-01 -1.853834e+00 -1.983885e+00 -1.103125e-01 3.592402e-01 -3.745358e-02 2.031144e-01 4.160522e-01 3.966041e-01 3.394794e-01 -8.544980e-02 -2.002728e-01 -4.075256e-02 7.430718e-02 1.420823e-01 -5.597363e-01
<VARIANCE> 25
 2.473966e+01 4.249777e+01 6.247554e+01 5.566558e+01 6.206627e+01 6.076314e+01 5.672901e+01 5.620200e+01 5.312098e+01 4.491110e+01 3.896976e+01 3.233725e+01 1.491102e+00 1.801873e+00 1.870122e+00 2.574481e+00 2.638533e+00 2.600688e+00 2.781763e+00 2.814367e+00 2.636979e+00 2.314217e+00 2.130046e+00 1.850462e+00 1.561974e+00
<GCONST> 1.024477e+02
<TRANSP> 5
 0.000000e+00 1.000000e+00 0.000000e+00 0.000000e+00 0.000000e+00
 0.000000e+00 5.116593e-01 4.883407e-01 0.000000e+00 0.000000e+00
 0.000000e+00 0.000000e+00 3.271694e-01 6.728306e-01 0.000000e+00
 0.000000e+00 0.000000e+00 0.000000e+00 6.482736e-01 3.517264e-01
 0.000000e+00 0.000000e+00 0.000000e+00 0.000000e+00 0.000000e+00
<ENDHMM>
~h "ay"
<BEGINHMM>
<NUMSTATES> 5
<STATE> 2
<MEAN> 25
 5.617574e+00 -4.235410e+00 -6.545723e+00 -7.412512e+00 9.790674e-01 5.171135e+00 -4.908927e-01 -2.822085e+00 8.227408e-01 1.937230e-01 -2.182741e+00 -3.400256e+00 8.720797e-01 -1.613040e+00 -8.623271e-01 -1.148021e+00 4.181435e-02 8.236179e-01 -3.646882e-01 2.322868e-04 5.303355e-01 -1.237303e-01 -7.909707e-01 -9.530177e-01 1.657180e+00
<VARIANCE> 25
 3.876957e+01 4.266481e+01 4.212495e+01 7.688441e+01 5.494124e+01 7.292430e+01 5.679265e+01 5.271635e+01 5.022392e+01 4.656014e+01 4.188738e+01 3.962757e+01 3.470131e+00 3.340729e+00 3.383263e+00 5.610038e+00 4.271784e+00 5.351528e+00 4.427822e+00 5.032574e+00 4.863480e+00 3.903827e+00 3.714927e+00 3.407271e+00 3.772216e+00
<GCONST> 1.113493e+02
<STATE> 3
<MEAN> 25
 7.588657e+00 -1.072890e+01 -7.101405e+00 -8.182926e+00 7.566280e-01 5.517709e+00 -2.870762e+00 -1.521902e+00 3.147571e+00 -1.406447e+00 -6.272791e+00 -6.892670e+00 -2.342003e-01 -4.113463e-01 8.047662e-01 8.515571e-01 -6.177867e-01 -1.313238e+00 4.319680e-02 1.194692e+00 2.796616e-01 -5.798830e-01 -5.622841e-01 2.226522e-01 1.733168e-01
<VARIANCE> 25
 1.403485e+01 3.180957e+01 3.156696e+01 3.938620e+01 4.730141e+01 7.033001e+01 5.228416e+01 5.742778e+01 4.667033e+01 5.199380e+01 3.976488e+01 3.422436e+01 3.814968e-01 9.797060e-01 1.560607e+00 1.681408e+00 2.435203e+00 3.452019e+00 2.245896e+00 2.985209e+00 2.226959e+00 1.952549e+00 2.169583e+00 1.974923e+00 4.247037e-01
<GCONST> 9.638168e+01
<STATE> 4
<MEAN> 25
 5.313751e+00 -7.779798e+00 6.544772e-01 -3.133827e+00 -6.319856e+00 -4.078238e+00 1.364080e-02 4.437907e+00 7.576137e-01 -3.054609e+00 -3.778835e+00 -2.807325e+00 -2.042154e-01 7.771653e-01 1.119308e+00 3.265888e-01 -8.371062e-01 -7.155620e-01 6.939206e-02 -5.748551e-02 -7.002400e-01 1.574372e-01 8.079443e-01 4.350039e-01 -4.970133e-01
<VARIANCE> 25
 1.584018e+01 3.567752e+01 5.367044e+01 3.132934e+01 6.676579e+01 5.317004e+01 4.884451e+01 4.933563e+01 4.765075e+01 4.136551e+01 4.311633e+01 2.920008e+01 3.443478e-01 9.838907e-01 1.874132e+00 1.324517e+00 2.620281e+00 2.176735e+00 2.254087e+00 2.687260e+00 2.423184e+00 2.117487e+00 2.382556e+00 1.742733e+00 4.014072e-01
<GCONST> 9.591319e+01
<TRANSP> 5
 0.000000e+00 1.000000e+00 0.000000e+00 0.000000e+00 0.000000e+00
 0.000000e+00 7.424306e-01 2.575693e-01 0.000000e+00 0.000000e+00
 0.000000e+00 0.000000e+00 7.788180e-01 2.211820e-01 0.000000e+00
 0.000000e+00 0.000000e+00 0.000000e+00 8.261287e-01 1.738713e-01
 0.000000e+00 0.000000e+00 0.000000e+00 0.000000e+00 0.000000e+00
<ENDHMM>
~h "ch"
<BEGINHMM>
<NUMSTATES> 5
<STATE> 2
<MEAN> 25
 -2.406515e+00 5.036068e-01 3.662057e+00 1.202365e+00 7.777441e-03 9.513652e-02 -8.671309e-01 -5.234659e-01 8.188165e-01 -4.102060e-01 -7.153434e-02 5.573919e-01 -2.674819e+00 -2.971079e-01 2.345815e-01 -5.239211e-01 5.227677e-01 1.312557e+00 9.608784e-01 5.194515e-02 8.869911e-01 3.268844e-01 7.456995e-01 5.786176e-01 7.121295e-02
<VARIANCE> 25
 5.304905e+01 4.659484e+01 4.759622e+01 5.173764e+01 4.991924e+01 5.524757e+01 4.607999e+01 4.349336e+01 4.275758e+01 3.576785e+01 3.111953e+01 2.545389e+01 5.177607e+00 6.018581e+00 5.279331e+00 6.544263e+00 6.054159e+00 4.949137e+00 5.262656e+00 4.878321e+00 4.451889e+00 4.067573e+00 3.495918e+00 2.842828e+00 1.153863e+01
<GCONST> 1.123665e+02
<STATE> 3
<MEAN> 25
 -1.560991e+01 -9.005710e-01 6.415407e+00 -2.979221e+00 -6.025392e-01 3.870952e+00 3.035126e+00 -1.096375e+00 4.211890e+00 -1.588683e-02 2.792772e+00 2.027469e+00 -1.869420e+00 -1.512439e-01 8.524971e-01 -4.658688e-02 -6.911164e-01 -3.248698e-01 8.629401e-01 -5.226950e-02 7.225998e-02 -2.086862e-01 1.317451e-01 -1.013592e-03 1.491174e+00
<VARIANCE> 25
 5.538762e+01 3.511718e+01 4.046019e+01 3.974314e+01 4.177611e+01 3.644433e+01 3.988167e+01 3.866906e+01 2.864123e+01 2.795332e+01 2.427975e+01 1.896618e+01 5.191255e+00 2.357695e+00 2.509278e+00 2.918243e+00 2.474517e+00 3.018035e+00 2.784332e+00 2.769521e+00 2.296315e+00 2.211359e+00 1.981753e+00 1.688497e+00 3.655689e+00
<GCONST> 1.010675e+02
<STATE> 4
<MEAN> 25
 -1.325149e+01 -3.150599e+00 6.975756e+00 7.047867e-01 -3.373824e+00 -6.787058e-01 4.637202e+00 -1.932091e-01 2.928874e+00 -1.235004e+00 1.660955e+00 1.165873e+00 2.172804e+00 5.312584e-02 -5.313413e-01 5.211299e-01 -8.449343e-02 -9.329717e-01 -6.953681e-01 2.032090e-01 -3.911424e-01 -2.357739e-01 -3.782285e-01 -2.659718e-01 -4.735028e-01
<VARIANCE> 25
 5.720745e+01 2.878126e+01 3.233040e+01 3.515993e+01 3.849400e+01 4.638021e+01 3.876536e+01 3.364985e+01 3.057706e+01 2.764575e+01 2.422036e+01 2.003415e+01 5.188102e+00 1.781800e+00 2.085519e+00 2.094419e+00 2.743022e+00 3.350624e+00 3.531414e+00 2.762737e+00 2.619267e+00 2.429283e+00 2.241990e+00 1.825946e+00 1.666232e+00
<GCONST> 9.993945e+01
<TRANSP> 5
 0.000000e+00 1.000000e+00 0.000000e+00 0.000000e+00 0.000000e+00
 0.000000e+00 7.438262e-01 2.561738e-01 0.000000e+00 0.000000e+00
 0.000000e+00 0.000000e+00 7.159480e-01 2.840519e-01 0.000000e+00
 0.000000e+00 0.000000e+00 0.000000e+00 8.011627e-01 1.988373e-01
 0.000000e+00 0.000000e+00 0.000000e+00 0.000000e+00 0.000000e+00
<ENDHMM>
~h "dh"
<BEGINHMM>
<NUMSTATES> 5
<STATE> 2
<MEAN> 25
 -7.520355e-01 4.262420e+00 7.130744e-01 3.930680e+00 2.165950e+00 -6.528444e-01 5.738348e-02 -1.555892e+00 4.411422e-01 3.224878e-01 -6.810694e-01 -4.848230e-01 -7.407764e-01 3.763288e-01 -1.320732e-01 4.689161e-01 6.074967e-01 3.835627e-01 4.897711e-01 1.323401e-01 1.857006e-01 -7.980018e-02 1.121304e-01 1.668189e-01 -5.296075e-01
<VARIANCE> 25
 5.999211e+01 3.196859e+01 3.324846e+01 3.855220e+01 3.943916e+01 5.148647e+01 4.619262e+01 4.771436e+01 3.653011e+01 3.139713e+01 2.977987e+01 2.979778e+01 4.310353e+00 3.600739e+00 2.998271e+00 3.977277e+00 3.622712e+00 4.136433e+00 4.138789e+00 3.953686e+00 3.709007e+00 3.161118e+00 2.960651e+00 2.635518e+00 5.733523e+00
<GCONST> 1.067946e+02
<STATE> 3
<MEAN> 25
 -6.971487e-01 3.263372e+00 5.974095e-01 2.934346e+00 1.596040e+00 -1.447531e+00 -2.949050e-01 -1.763529e+00 5.907789e-01 -2.375653e-01 -8.718091e-01 -6.840293e-01 -1.951649e-01 -5.450799e-01 -2.241828e-01 -5.401281e-01 -3.962657e-01 -4.753932e-01 -7.906654e-02 2.017671e-01 3.870407e-01 -8.341841e-02 8.709058e-02 1.387548e-01 1.138708e+00
<VARIANCE> 25
 4.969983e+01 3.727485e+01 3.201156e+01 4.077510e+01 4.090936e+01 4.747471e+01 4.578920e+01 4.183432e+01 3.671516e+01 3.078351e+01 2.860908e+01 2.845003e+01 4.092243e+00 3.391061e+00 2.792304e+00 3.874153e+00 3.952654e+00 4.829801e+00 4.455316e+00 4.009750e+00 3.789671e+00 3.163617e+00 2.863815e+00 2.738889e+00 8.006015e+00
<GCONST> 1.069741e+02
<STATE> 4
<MEAN> 25
 -2.161702e+00 1.305582e+00 -8.447626e-01 2.956846e+00 2.743671e+00 1.632332e+00 1.933204e+00 1.041191e+00 1.385388e+00 8.363188e-01 6.605840e-01 1.380504e+00 1.353212e-02 -9.837054e-02 -5.204064e-03 -1.134863e-01 -1.483174e-01 -1.138685e-01 -6.425373e-02 1.682049e-02 4.421951e-02 -1.323571e-02 -5.610424e-03 8.448623e-03 2.149421e-01
<VARIANCE> 25
 2.573684e+01 2.193917e+01 1.907687e+01 2.298065e+01 2.310663e+01 3.317064e+01 2.687154e+01 2.688711e+01 2.226131e+01 2.233037e+01 2.041483e+01 1.928312e+01 8.632761e-01 9.431425e-01 9.727579e-01 1.230367e+00 1.527361e+00 1.817769e+00 1.793155e+00 1.785543e+00 1.756072e+00 1.648326e+00 1.535020e+00 1.403824e+00 1.373955e+00
<GCONST> 8.808231e+01
<TRANSP> 5
 0.000000e+00 1.000000e+00 0.000000e+00 0.000000e+00 0.000000e+00
 0.000000e+00 4.359828e-01 5.640172e-01 0.000000e+00 0.000000e+00
 0.000000e+00 0.000000e+00 3.635257e-01 6.364743e-01 0.000000e+00
 0.000000e+00 0.000000e+00 0.000000e+00 8.252327e-01 1.747672e-01
 0.000000e+00 0.000000e+00 0.000000e+00 0.000000e+00 0.000000e+00
<ENDHMM>
~h "dx"
<BEGINHMM>
<NUMSTATES> 5
<STATE> 2
<MEAN> 25
 4.306299e+00 -2.000287e+00 3.027752e+00 -4.487339e-01 -4.755979e+00 -3.626550e+00 -3.579477e+00 -8.305258e-01 -5.222702e-01 -1.042922e+00 -1.153634e+00 -1.489278e+00 -5.927640e-01 6.543375e-01 5.009103e-01 8.761251e-01 5.276678e-01 3.926496e-02 4.071456e-01 -1.250208e-01 6.849244e-04 -4.146665e-02 3.721434e-02 3.039745e-01 -1.010490e+00
<VARIANCE> 25
 6.247746e+01 7.608585e+01 1.136062e+02 9.213932e+01 1.175056e+02 9.770444e+01 9.829620e+01 8.983454e+01 8.956730e+01 6.718562e+01 6.180466e+01 5.151153e+01 3.240940e+00 4.713186e+00 5.312180e+00 6.882867e+00 7.495091e+00 6.091514e+00 6.635833e+00 6.503916e+00 5.927256e+00 4.908205e+00 4.766277e+00 3.793510e+00 5.441732e+00
<GCONST> 1.207430e+02
<STATE> 3
<MEAN> 25
 1.190444e+00 -2.654643e-01 4.767485e+00 1.843774e+00 -2.876393e+00 -3.357893e+00 -2.060717e+00 -5.823056e-01 -5.344868e-01 -1.227327e+00 -6.414508e-01 -2.289238e-01 -1.432309e+00 3.303801e-01 4.884152e-02 -1.049860e-01 7.828884e-01 2.646484e-01 7.523571e-01 1.649715e-01 1.554285e-01 1.522397e-01 4.711687e-01 4.992766e-01 -3.665938e-01
<VARIANCE> 25
 4.515274e+01 4.057162e+01 4.792419e+01 5.115380e+01 6.249791e+01 4.865170e+01 5.011675e+01 4.131406e+01 4.011488e+01 3.370971e+01 3.084711e+01 2.596124e+01 4.332086e+00 4.915451e+00 5.136415e+00 6.705742e+00 7.864997e+00 5.806639e+00 5.522000e+00 5.155382e+00 4.735440e+00 3.933895e+00 3.895036e+00 2.983432e+00 8.626786e+00
<GCONST> 1.121154e+02
<STATE> 4
<MEAN> 25
 -1.137926e+00 -5.614984e-01 4.765551e+00 2.631352e-01 -3.319309e+00 -3.829723e+00 -1.019951e+00 1.375640e-01 -4.012875e-01 -8.719914e-01 5.925439e-01 4.393023e-01 -3.088824e-01 6.278099e-02 1.536935e-01 -1.324197e-01 -1.808837e-03 -1.574396e-01 1.530749e-01 3.918532e-02 -1.230839e-01 5.849419e-02 1.806202e-01 1.439348e-01 6.228644e-02
<VARIANCE> 25
 6.773530e+01 3.914606e+01 5.108746e+01 4.739350e+01 7.161663e+01 4.961845e+01 5.897879e+01 4.449063e+01 4.168963e+01 3.474334e+01 3.176186e+01 2.673242e+01 2.499258e+00 2.088392e+00 2.891711e+00 3.014506e+00 3.754611e+00 3.377190e+00 3.260154e+00 3.137047e+00 2.995914e+00 2.498920e+00 2.436714e+00 2.046592e+00 2.499979e+00
<GCONST> 1.049114e+02
<TRANSP> 5
 0.000000e+00 1.000000e+00 0.000000e+00 0.000000e+00 0.000000e+00
 0.000000e+00 5.868856e-01 4.131144e-01 0.000000e+00 0.000000e+00
 0.000000e+00 0.000000e+00 4.352612e-01 5.647388e-01 0.000000e+00
 0.000000e+00 0.000000e+00 0.000000e+00 5.254228e-01 4.745772e-01
 0.000000e+00 0.000000e+00 0.000000e+00 0.000000e+00 0.000000e+00
<ENDHMM>
~h "eh"
<BEGINHMM>
<NUMSTATES> 5
<STATE> 2
<MEAN> 25
 2.201931e+00 -1.433796e+00 1.377084e+00 -7.842321e-01 -3.952272e+00 -5.127263e+00 -2.324289e+00 1.364746e-01 7.193083e-01 -6.592160e-01 -1.643091e+00 -1.665767e+00 1.717031e+00 -1.780353e+00 2.319679e-01 -1.209758e+00 -2.036176e+00 -1.135321e+00 -1.106378e+00 1.066150e+00 4.771224e-01 -3.405992e-01 -7.217836e-01 -6.686663e-01 2.224971e+00
<VARIANCE> 25
 4.639521e+01 4.663076e+01 4.638078e+01 4.305850e+01 6.201347e+01 5.518508e+01 6.457672e+01 5.000494e+01 4.617126e+01 3.965823e+01 3.573460e+01 3.310946e+01 6.427036e+00 4.288627e+00 4.256475e+00 4.617567e+00 5.751060e+00 5.637552e+00 6.958270e+00 6.182658e+00 5.641406e+00 4.543957e+00 4.353510e+00 3.842434e+00 4.482197e+00
<GCONST> 1.131289e+02
<STATE> 3
<MEAN> 25
 5.600259e+00 -7.210609e+00 1.792152e+00 -4.287643e+00 -8.903268e+00 -6.380935e+00 -3.946977e+00 4.363122e+00 1.552574e+00 -1.499975e+00 -2.927618e+00 -3.249382e+00 3.080534e-01 -1.209477e+00 -9.603859e-02 -5.619546e-01 -5.509127e-01 1.745998e-01 2.044884e-01 1.090390e+00 1.599702e-01 -3.828989e-01 -3.976688e-01 -2.840039e-01 7.957071e-01
<VARIANCE> 25
 1.765599e+01 3.781501e+01 5.157670e+01 3.637011e+01 5.595277e+01 5.251089e+01 6.220866e+01 5.231769e+01 5.660294e+01 4.607076e+01 4.194381e+01 3.387594e+01 1.397743e+00 2.285202e+00 2.868385e+00 2.615973e+00 3.431886e+00 3.401728e+00 3.952773e+00 3.744634e+00 3.289541e+00 3.062785e+00 2.856617e+00 2.445316e+00 1.408405e+00
<GCONST> 1.041113e+02
<STATE> 4
<MEAN> 25
 5.872413e+00 -7.998022e+00 7.087492e-01 -3.759341e+00 -8.135567e+00 -5.675491e+00 -2.360281e+00 5.529199e+00 1.581026e+00 -2.584675e+00 -3.618997e+00 -3.261251e+00 7.712676e-02 2.964423e-01 -1.460685e-01 2.599682e-01 4.505257e-01 1.272734e-01 -7.270664e-02 -2.163365e-01 -9.809233e-02 1.029355e-02 1.570879e-02 4.558071e-02 -4.400643e-01
<VARIANCE> 25
 1.531376e+01 3.428622e+01 4.631609e+01 3.284602e+01 5.447883e+01 5.267603e+01 5.824016e+01 4.987852e+01 5.388344e+01 4.483876e+01 4.124876e+01 3.339409e+01 4.941575e-01 1.272514e+00 1.489283e+00 1.355333e+00 1.730445e+00 1.852120e+00 2.124751e+00 2.203718e+00 1.884678e+00 1.757652e+00 1.658309e+00 1.413272e+00 7.136027e-01
<GCONST> 9.515073e+01
<TRANSP> 5
 0.000000e+00 1.000000e+00 0.000000e+00 0.000000e+00 0.000000e+00
 0.000000e+00 5.783663e-01 4.216338e-01 0.000000e+00 0.000000e+00
 0.000000e+00 0.000000e+00 3.835908e-01 6.164092e-01 0.000000e+00
 0.000000e+00 0.000000e+00 0.000000e+00 8.011188e-01 1.988812e-01
 0.000000e+00 0.000000e+00 0.000000e+00 0.000000e+00 0.000000e+00
<ENDHMM>
~h "er"
<BEGINHMM>
<NUMSTATES> 5
<STATE> 2
<MEAN> 25
 7.188981e+00 -3.648908e+00 -3.670730e+00 -1.621896e-01 -1.844242e+00 -5.814489e+00 -7.476928e+00 1.724458e-02 1.370449e+00 -7.019651e-01 -4.311589e-01 -9.681523e-01 1.931558e+00 -8.313105e-01 -1.256271e+00 -8.633230e-02 -4.743895e-02 -1.097899e+00 -2.263572e+00 5.058289e-01 7.810114e-01 -2.150423e-02 -3.049162e-01 -4.478055e-02 6.900909e-01
<VARIANCE> 25
 4.157518e+01 3.442646e+01 6.476136e+01 4.462135e+01 5.915812e+01 6.015759e+01 7.197246e+01 5.973198e+01 4.834528e+01 4.326239e+01 3.716320e+01 3.465068e+01 4.647251e+00 2.855054e+00 3.488662e+00 3.710833e+00 4.998277e+00 4.497265e+00 5.840693e+00 5.101433e+00 4.307285e+00 3.697812e+00 3.208797e+00 3.047247e+00 1.829743e+00
<GCONST> 1.098372e+02
<STATE> 3
<MEAN> 25
 1.074822e+01 -5.701336e+00 -8.124578e+00 6.194783e-01 7.527923e-01 -8.243660e+00 -1.370066e+01 2.666944e+00 4.727470e+00 -1.085087e+00 -1.660335e+00 -3.141635e-01 -1.209577e-01 6.476325e-02 2.402593e-01 4.266487e-01 2.502735e-02 -1.675333e-01 1.977028e-01 2.268764e-01 6.856780e-02 -1.431182e-01 -2.186510e-01 1.161425e-01 -3.924700e-01
<VARIANCE> 25
 2.459302e+01 3.178311e+01 6.567960e+01 5.156237e+01 7.163937e+01 7.312337e+01 9.499399e+01 8.476107e+01 6.328953e+01 5.452683e+01 4.068672e+01 3.832599e+01 9.344809e-01 1.542121e+00 2.535806e+00 2.006138e+00 2.879650e+00 2.833677e+00 3.935333e+00 3.276582e+00 2.791276e+00 2.677613e+00 2.269266e+00 1.908614e+00 1.076545e+00
<GCONST> 1.039909e+02
<STATE> 4
<MEAN> 25
 7.099470e+00 -3.392906e+00 -4.058133e+00 1.611295e+00 -8.598589e-01 -5.856906e+00 -6.799052e+00 1.635032e+00 3.573413e+00 -2.492602e-01 -2.013838e+00 -3.026851e-01 -3.765314e-01 3.025236e-01 4.483690e-01 1.724912e-01 4.492790e-02 3.048317e-01 5.724055e-01 -1.204488e-01 -3.073260e-01 -5.518116e-02 3.403516e-02 4.485746e-02 -4.577318e-01
<VARIANCE> 25
 3.251867e+01 3.028075e+01 4.075117e+01 3.983970e+01 4.946087e+01 6.386005e+01 7.130924e+01 4.890535e+01 4.192204e+01 4.128809e+01 3.409581e+01 3.073542e+01 6.518889e-01 9.458165e-01 1.488331e+00 1.307215e+00 1.762896e+00 1.911945e+00 2.385767e+00 1.987651e+00 1.861726e+00 1.736195e+00 1.612763e+00 1.399741e+00 5.438248e-01
<GCONST> 9.518919e+01
<TRANSP> 5
 0.000000e+00 1.000000e+00 0.000000e+00 0.000000e+00 0.000000e+00
 0.000000e+00 6.418274e-01 3.581727e-01 0.000000e+00 0.000000e+00
 0.000000e+00 0.000000e+00 6.898890e-01 3.101111e-01 0.000000e+00
 0.000000e+00 0.000000e+00 0.000000e+00 8.038691e-01 1.961309e-01
 0.000000e+00 0.000000e+00 0.000000e+00 0.000000e+00 0.000000e+00
<ENDHMM>
~h "ey"
<BEGINHMM>
<NUMSTATES> 5
<STATE> 2
<MEAN> 25
 4.716211e+00 -5.071157e+00 4.314427e+00 -2.110428e+00 -9.605358e+00 -7.603493e+00 -2.961553e+00 2.968420e+00 2.765350e-01 -1.949437e+00 -1.530692e+00 -1.477036e+00 3.851079e-01 -9.104202e-01 1.498341e+00 -7.519103e-01 -2.451818e+00 -6.582024e-01 1.064184e-01 7.472066e-01 -7.778238e-01 -3.191447e-01 6.378881e-01 1.759402e-01 1.144717e+00
<VARIANCE> 25
 2.075021e+01 4.361796e+01 4.369607e+01 3.728592e+01 5.402051e+01 4.820014e+01 5.722377e+01 5.318998e+01 5.161498e+01 3.843924e+01 3.991299e+01 2.975756e+01 3.047489e+00 3.099121e+00 2.919535e+00 3.323965e+00 4.146792e+00 4.182022e+00 5.442822e+00 4.757511e+00 4.169631e+00 3.484342e+00 3.316777e+00 2.868616e+00 2.386157e+00
<GCONST> 1.071328e+02
<STATE> 3
<MEAN> 25
 4.243590e+00 -6.483291e+00 1.019012e+01 -4.493621e+00 -1.609309e+01 -7.366885e+00 -2.351979e+00 3.181818e+00 -4.238920e+00 -1.371699e+00 2.523966e+00 -1.380153e+00 -2.441137e-01 5.320607e-01 9.793124e-01 -1.579053e-01 -4.921552e-01 4.258472e-01 1.078872e-01 -8.782755e-01 -8.785080e-01 3.355157e-01 4.349810e-01 -2.053500e-01 -2.996583e-01
<VARIANCE> 25
 1.327378e+01 2.927331e+01 4.479291e+01 3.790686e+01 4.278259e+01 4.543824e+01 5.075130e+01 4.862270e+01 4.829063e+01 4.294318e+01 3.984708e+01 2.987536e+01 3.524911e-01 1.035252e+00 1.313262e+00 1.241424e+00 1.393226e+00 1.636616e+00 1.808894e+00 2.182340e+00 2.020663e+00 1.750423e+00 1.610186e+00 1.318216e+00 4.873082e-01
<GCONST> 9.242439e+01
<STATE> 4
<MEAN> 25
 2.894345e+00 -4.520898e-01 1.217900e+01 -3.215740e+00 -1.412345e+01 -4.268235e+00 -1.648735e+00 -3.597036e+00 -6.067848e+00 8.828434e-02 1.812161e+00 -2.129045e+00 -4.303045e-02 5.052864e-01 -2.304400e-01 5.154723e-01 8.640320e-01 2.066060e-01 -2.215877e-02 -2.959368e-01 4.056937e-02 -7.613052e-02 -2.817905e-01 1.238661e-02 -7.355439e-01
<VARIANCE> 25
 1.253906e+01 2.503688e+01 4.416293e+01 4.799227e+01 4.749053e+01 5.327494e+01 4.585860e+01 4.931737e+01 4.575872e+01 4.132561e+01 3.664056e+01 2.883732e+01 4.866512e-01 9.763164e-01 1.658255e+00 1.430968e+00 2.139824e+00 1.811493e+00 1.961757e+00 2.088449e+00 1.944933e+00 1.692473e+00 1.548014e+00 1.319923e+00 6.816289e-01
<GCONST> 9.383036e+01
<TRANSP> 5
 0.000000e+00 1.000000e+00 0.000000e+00 0.000000e+00 0.000000e+00
 0.000000e+00 6.748055e-01 3.251945e-01 0.000000e+00 0.000000e+00
 0.000000e+00 0.000000e+00 7.424179e-01 2.575821e-01 0.000000e+00
 0.000000e+00 0.000000e+00 0.000000e+00 8.280602e-01 1.719399e-01
 0.000000e+00 0.000000e+00 0.000000e+00 0.000000e+00 0.000000e+00
<ENDHMM>
~h "hh"
<BEGINHMM>
<NUMSTATES> 5
<STATE> 2
<MEAN> 25
 -2.148558e+00 -3.811014e-01 1.687436e+00 1.017021e+00 1.266399e+00 7.516953e-01 3.345858e+00 1.729849e+00 4.523759e-01 -1.234066e-01 -5.589406e-01 9.153845e-01 -5.653272e-01 -6.638047e-01 1.745673e-01 -3.036139e-01 1.476745e-01 4.824461e-01 6.955684e-01 3.925330e-01 2.097856e-01 -1.249446e-01 -1.030616e-01 1.782106e-01 3.677065e-01
<VARIANCE> 25
 5.457260e+01 3.605347e+01 4.914779e+01 4.297829e+01 5.427971e+01 5.607011e+01 4.979473e+01 4.643433e+01 4.222666e+01 4.039750e+01 3.584510e+01 2.936024e+01 3.280732e+00 2.904131e+00 3.543990e+00 3.929169e+00 4.387313e+00 4.208898e+00 4.167028e+00 4.379311e+00 3.851187e+00 3.504857e+00 3.191047e+00 2.638438e+00 3.461672e+00
<GCONST> 1.080370e+02
<STATE> 3
<MEAN> 25
 -2.641691e+00 -2.792609e+00 2.207971e+00 -8.572935e-01 5.032308e-02 1.019510e+00 4.720127e+00 1.965454e+00 1.449897e-01 -1.049879e+00 -1.205056e+00 6.274613e-01 -6.577183e-02 -3.290175e-01 -5.886488e-03 -2.001202e-01 -1.509933e-01 9.947915e-02 1.117946e-01 -7.348147e-02 -8.808054e-03 -4.625557e-02 -9.345756e-02 -2.092391e-02 1.965623e-01
<VARIANCE> 25
 4.748006e+01 4.073478e+01 5.619857e+01 4.322476e+01 6.013073e+01 5.614709e+01 6.397823e+01 5.233012e+01 4.576406e+01 4.331406e+01 3.720694e+01 3.085746e+01 1.549839e+00 1.644169e+00 2.155343e+00 2.233821e+00 2.770234e+00 2.811733e+00 2.838744e+00 3.029527e+00 2.773535e+00 2.599136e+00 2.412917e+00 2.035475e+00 1.436260e+00
<GCONST> 1.028286e+02
<STATE> 4
<MEAN> 25
 -2.589056e+00 -1.295239e+00 8.894408e-02 1.061816e+00 2.015607e+00 1.980790e+00 3.085486e+00 1.723324e+00 1.054644e+00 4.332284e-01 2.596763e-01 1.464057e+00 1.214474e-01 2.664595e-02 5.281876e-02 -2.537107e-02 -1.161775e-01 -1.777658e-02 -8.116971e-02 -1.056143e-01 -7.287426e-02 -2.462751e-02 -5.243005e-02 -6.748152e-02 5.431038e-02
<VARIANCE> 25
 2.195693e+01 2.321017e+01 2.885701e+01 2.519116e+01 3.212082e+01 3.007497e+01 3.067087e+01 2.856229e+01 2.607645e+01 2.574681e+01 2.418526e+01 2.002039e+01 6.530756e-01 7.298638e-01 9.807339e-01 1.069570e+00 1.385256e+00 1.513197e+00 1.634479e+00 1.721015e+00 1.704858e+00 1.647308e+00 1.557786e+00 1.387471e+00 4.620565e-01
<GCONST> 8.722239e+01
<TRANSP> 5
 0.000000e+00 1.000000e+00 0.000000e+00 0.000000e+00 0.000000e+00
 0.000000e+00 5.241776e-01 4.758224e-01 0.000000e+00 0.000000e+00
 0.000000e+00 0.000000e+00 3.875192e-01 6.124809e-01 0.000000e+00
 0.000000e+00 0.000000e+00 0.000000e+00 8.346361e-01 1.653639e-01
 0.000000e+00 0.000000e+00 0.000000e+00 0.000000e+00 0.000000e+00
<ENDHMM>
~h "ih"
<BEGINHMM>
<NUMSTATES> 5
<STATE> 2
<MEAN> 25
 -3.727876e-01 4.926029e-01 3.897317e+00 6.806133e-01 -2.910561e+00 -3.984156e+00 -1.084408e+00 -7.340339e-01 -1.133796e+00 -6.645263e-01 -3.901464e-01 9.250745e-03 1.463526e+00 -5.126476e-01 1.619266e+00 -5.251250e-01 -2.336482e+00 -1.701883e+00 -1.368075e+00 -1.160910e-01 -7.476821e-01 -6.176958e-01 -1.666376e-01 -3.543800e-01 1.867327e+00
<VARIANCE> 25
 5.390833e+01 3.640932e+01 4.723621e+01 4.044138e+01 5.705547e+01 5.929568e+01 6.550601e+01 4.639328e+01 4.194018e+01 3.691694e+01 3.147849e+01 2.844825e+01 6.523748e+00 4.221677e+00 4.711247e+00 5.172875e+00 6.608452e+00 5.618108e+00 6.753776e+00 5.744761e+00 5.440359e+00 4.267671e+00 3.946039e+00 3.394696e+00 5.975478e+00
<GCONST> 1.126815e+02
<STATE> 3
<MEAN> 25
 4.100114e+00 -1.936191e+00 8.535049e+00 -1.626523e+00 -1.047531e+01 -7.841933e+00 -5.318970e+00 -7.708291e-01 -4.050853e+00 -2.198329e+00 1.371907e-01 -1.317720e+00 5.484524e-01 -5.195353e-01 6.491349e-01 -3.788058e-01 -1.270348e+00 -5.314929e-01 -5.673326e-01 2.640119e-01 -3.213468e-01 -2.363867e-01 2.332078e-01 -5.312137e-02 7.536238e-01
<VARIANCE> 25
 2.100777e+01 3.881963e+01 6.182896e+01 4.680730e+01 6.311903e+01 5.373703e+01 5.961139e+01 5.670815e+01 5.892245e+01 4.667817e+01 3.891588e+01 3.121465e+01 2.799197e+00 3.339061e+00 3.512015e+00 3.724990e+00 5.871389e+00 4.380018e+00 5.635788e+00 4.619809e+00 4.166072e+00 3.636966e+00 3.287878e+00 2.714545e+00 3.256674e+00
<GCONST> 1.092984e+02
<STATE> 4
<MEAN> 25
 3.925684e+00 -1.686817e+00 7.987841e+00 -1.092656e+00 -1.040582e+01 -7.758788e+00 -4.747917e+00 -3.665982e-01 -3.467246e+00 -2.254557e+00 4.145795e-01 -6.876402e-01 -1.321657e-01 3.302217e-01 -3.554915e-01 2.364881e-01 6.895479e-01 1.627264e-01 1.632470e-01 -6.658409e-02 1.726323e-01 3.584899e-02 -1.839684e-01 3.383217e-02 -4.478488e-01
<VARIANCE> 25
 1.677919e+01 3.428799e+01 5.239547e+01 3.883237e+01 5.952474e+01 5.006532e+01 5.461950e+01 5.235392e+01 5.316254e+01 4.134907e+01 3.558296e+01 2.920802e+01 9.345024e-01 1.523365e+00 1.639089e+00 1.682401e+00 2.732965e+00 2.323505e+00 2.512144e+00 2.447349e+00 2.302998e+00 2.006113e+00 1.867659e+00 1.593447e+00 1.173815e+00
<GCONST> 9.833320e+01
<TRANSP> 5
 0.000000e+00 1.000000e+00 0.000000e+00 0.000000e+00 0.000000e+00
 0.000000e+00 5.312252e-01 4.687748e-01 0.000000e+00 0.000000e+00
 0.000000e+00 0.000000e+00 4.510274e-01 5.489726e-01 0.000000e+00
 0.000000e+00 0.000000e+00 0.000000e+00 7.436914e-01 2.563086e-01
 0.000000e+00 0.000000e+00 0.000000e+00 0.000000e+00 0.000000e+00
<ENDHMM>
~h "ix"
<BEGINHMM>
<NUMSTATES> 5
<STATE> 2
<MEAN> 25
 2.576976e-01 7.580855e-02 3.843925e+00 -1.281541e-01 -3.060163e+00 -4.206639e+00 -2.070114e+00 -4.495156e-01 -1.159929e+00 -8.936251e-01 -3.294223e-01 -1.797755e-01 9.559727e-01 -5.503679e-01 1.416233e+00 -5.359111e-01 -1.870566e+00 -9.808843e-01 -6.960116e-01 1.901632e-01 -7.333347e-01 -4.671119e-01 -1.584402e-02 -2.884510e-01 1.301936e+00
<VARIANCE> 25
 6.818974e+01 5.049587e+01 6.622854e+01 5.804589e+01 7.245428e+01 7.137845e+01 7.078776e+01 5.804055e+01 5.437529e+01 4.591641e+01 3.947601e+01 3.414595e+01 6.791017e+00 4.459200e+00 5.294283e+00 5.988855e+00 7.427033e+00 6.166976e+00 6.947932e+00 6.299361e+00 5.908692e+00 4.689563e+00 4.361437e+00 3.599550e+00 6.503566e+00
<GCONST> 1.166644e+02
<STATE> 3
<MEAN> 25
 4.011232e+00 -2.071282e+00 8.266164e+00 -1.564978e+00 -9.535817e+00 -6.852626e+00 -4.165538e+00 3.180566e-01 -3.974688e+00 -2.427246e+00 2.397576e-02 -1.387879e+00 5.135732e-01 -7.054104e-02 9.367346e-01 -3.097396e-01 -1.245740e+00 9.247123e-02 4.924986e-02 1.556298e-02 -8.371351e-01 -6.392624e-02 3.348768e-01 -3.384660e-01 3.015151e-01
<VARIANCE> 25
 1.930653e+01 3.688325e+01 5.816286e+01 4.626619e+01 6.032475e+01 5.196471e+01 5.438538e+01 5.666119e+01 5.497779e+01 4.497149e+01 3.795773e+01 2.926638e+01 3.031467e+00 3.140004e+00 3.499279e+00 3.999387e+00 5.303024e+00 4.376815e+00 5.177688e+00 4.866670e+00 4.827702e+00 3.872799e+00 3.509362e+00 2.780610e+00 2.796159e+00
<GCONST> 1.088202e+02
<STATE> 4
<MEAN> 25
 3.725592e+00 -9.804887e-01 9.623275e+00 -1.441198e+00 -1.042139e+01 -5.926180e+00 -3.144706e+00 -5.581949e-01 -5.014188e+00 -2.039009e+00 6.549293e-01 -1.630126e+00 -7.064797e-03 4.792081e-01 -3.236463e-01 3.156253e-01 6.739863e-01 4.699832e-01 3.641006e-01 -2.100438e-01 -5.525912e-02 1.149149e-01 -1.213070e-01 -1.453122e-01 -6.075065e-01
<VARIANCE> 25
 1.623885e+01 3.295110e+01 5.540839e+01 4.681831e+01 5.915460e+01 4.983815e+01 5.348758e+01 5.906029e+01 5.446023e+01 4.442826e+01 3.776667e+01 2.954656e+01 1.255208e+00 1.785015e+00 2.279693e+00 2.245772e+00 3.330559e+00 2.717699e+00 2.902602e+00 3.120443e+00 3.088721e+00 2.543023e+00 2.245983e+00 1.936523e+00 1.579203e+00
<GCONST> 1.017804e+02
<TRANSP> 5
 0.000000e+00 1.000000e+00 0.000000e+00 0.000000e+00 0.000000e+00
 0.000000e+00 5.792485e-01 4.207515e-01 0.000000e+00 0.000000e+00
 0.000000e+00 0.000000e+00 3.020017e-01 6.979984e-01 0.000000e+00
 0.000000e+00 0.000000e+00 0.000000e+00 6.471167e-01 3.528833e-01
 0.000000e+00 0.000000e+00 0.000000e+00 0.000000e+00 0.000000e+00
<ENDHMM>
~h "iy"
<BEGINHMM>
<NUMSTATES> 5
<STATE> 2
<MEAN> 25
 7.935170e-01 7.028564e-01 1.026671e+01 3.122846e-01 -7.644871e+00 -5.111728e+00 -2.861969e+00 -3.003248e+00 -4.955167e+00 -2.581159e+00 4.642512e-01 -7.915874e-01 8.624741e-01 1.107025e-01 2.665453e+00 -5.644148e-01 -2.762504e+00 -2.387412e-01 -7.382094e-01 -8.594477e-01 -1.780182e+00 -4.927480e-01 3.703457e-01 -5.857622e-01 9.970582e-01
<VARIANCE> 25
 4.176194e+01 3.971385e+01 5.980051e+01 4.499510e+01 6.665606e+01 6.185962e+01 6.099508e+01 5.630911e+01 5.201038e+01 4.357230e+01 3.384455e+01 2.853406e+01 5.069048e+00 3.221473e+00 3.845009e+00 4.793487e+00 5.139575e+00 5.723157e+00 7.187338e+00 5.749619e+00 4.687096e+00 4.745412e+00 3.780315e+00 3.127201e+00 2.448014e+00
<GCONST> 1.116002e+02
<STATE> 3
<MEAN> 25
 2.076447e+00 8.402758e-01 1.699245e+01 -3.261311e+00 -1.412215e+01 -3.102890e+00 -5.686478e+00 -5.725566e+00 -9.603086e+00 -2.350002e+00 1.175353e+00 -3.701422e+00 -2.544524e-03 3.034690e-01 -2.848686e-02 -1.399219e-02 1.511341e-01 3.840720e-01 1.664047e-01 -3.020335e-01 9.698644e-03 2.401884e-01 -8.930058e-02 -1.235478e-01 -4.098727e-01
<VARIANCE> 25
 1.610232e+01 3.446548e+01 5.802825e+01 6.345515e+01 5.334140e+01 5.813220e+01 5.238820e+01 6.032065e+01 5.582681e+01 6.188651e+01 5.021064e+01 3.662190e+01 9.209461e-01 1.758429e+00 3.197737e+00 2.809457e+00 3.658875e+00 3.404457e+00 3.066883e+00 3.199395e+00 2.970193e+00 2.570943e+00 2.253594e+00 1.950203e+00 1.458358e+00
<GCONST> 1.036134e+02
<STATE> 4
<MEAN> 25
 1.808482e+00 2.733476e+00 1.273799e+01 -7.855413e-01 -9.854243e+00 -2.117213e+00 -2.785309e+00 -5.898308e+00 -6.239674e+00 -1.640635e+00 4.476074e-01 -1.772328e+00 -2.581988e-02 -3.497257e-03 -7.931696e-01 2.779574e-01 7.351117e-01 -1.406374e-02 3.155122e-01 3.550537e-01 4.071712e-01 9.555855e-02 -1.179068e-01 1.587212e-01 -4.259907e-01
<VARIANCE> 25
 1.438895e+01 2.609535e+01 5.589647e+01 4.299493e+01 6.081603e+01 4.993824e+01 4.605381e+01 4.971838e+01 4.214558e+01 4.080569e+01 3.237311e+01 2.618581e+01 5.833096e-01 1.005817e+00 1.903265e+00 1.464993e+00 2.482348e+00 2.135295e+00 2.055406e+00 2.283165e+00 2.129233e+00 1.798807e+00 1.650242e+00 1.399717e+00 6.742125e-01
<GCONST> 9.509894e+01
<TRANSP> 5
 0.000000e+00 1.000000e+00 0.000000e+00 0.000000e+00 0.000000e+00
 0.000000e+00 6.553375e-01 3.446626e-01 0.000000e+00 0.000000e+00
 0.000000e+00 0.000000e+00 7.103295e-01 2.896705e-01 0.000000e+00
 0.000000e+00 0.000000e+00 0.000000e+00 8.205836e-01 1.794164e-01
 0.000000e+00 0.000000e+00 0.000000e+00 0.000000e+00 0.000000e+00
<ENDHMM>
~h "jh"
<BEGINHMM>
<NUMSTATES> 5
<STATE> 2
<MEAN> 25
 -1.947023e+00 2.286060e+00 6.842463e+00 2.512975e+00 -2.504052e-01 9.863002e-01 -6.379999e-01 -2.484873e+00 -4.609752e-01 -2.123393e+00 -1.093927e+00 -1.762926e-01 -2.924852e+00 -4.979186e-01 4.743035e-01 -7.338710e-01 3.075392e-01 1.068168e+00 9.931431e-01 -1.336406e-01 9.404479e-01 1.089521e-01 4.861882e-01 3.511536e-01 9.342844e-01
<VARIANCE> 25
 6.390053e+01 4.897026e+01 4.578241e+01 5.105950e+01 4.934719e+01 4.876683e+01 4.244295e+01 4.137952e+01 4.071910e+01 3.188441e+01 2.834789e+01 2.311786e+01 6.116097e+00 6.032979e+00 4.322217e+00 6.015323e+00 5.592239e+00 4.540915e+00 4.420358e+00 4.352966e+00 4.023747e+00 3.458251e+00 3.224462e+00 2.591884e+00 8.171163e+00
<GCONST> 1.105778e+02
<STATE> 3
<MEAN> 25
 -1.352666e+01 1.374159e-03 1.023352e+01 -6.032257e-01 -3.201949e+00 4.306042e-01 3.190612e+00 -3.277167e+00 2.471078e+00 -2.417049e+00 1.268926e+00 1.097000e+00 5.103117e-01 -8.407973e-02 3.768962e-01 3.074983e-01 -1.103926e+00 -1.742588e+00 -4.183949e-01 1.856879e-01 -2.610438e-01 -3.446994e-01 7.638931e-02 6.044894e-02 9.527999e-01
<VARIANCE> 25
 6.923923e+01 3.595835e+01 4.442713e+01 4.590127e+01 4.699686e+01 6.424876e+01 5.151695e+01 3.862220e+01 3.616507e+01 3.123933e+01 2.577354e+01 2.133644e+01 1.299782e+01 2.905679e+00 3.705884e+00 3.396892e+00 3.718684e+00 5.035428e+00 5.697828e+00 3.366669e+00 3.187859e+00 2.673632e+00 2.335901e+00 1.969922e+00 2.361005e+00
<GCONST> 1.069117e+02
<STATE> 4
<MEAN> 25
 -9.175017e+00 -8.173269e-01 6.319417e+00 9.891940e-01 -1.866834e+00 -4.148906e-01 2.366872e+00 -4.103851e-01 2.307251e+00 -1.333023e+00 1.104707e+00 1.505205e+00 1.352842e+00 -1.055850e-01 -5.410568e-01 1.010870e-01 -6.182617e-02 -3.934990e-01 -5.321711e-01 1.618362e-01 -1.061142e-01 7.588872e-02 -1.183898e-01 -1.144964e-01 -3.606169e-01
<VARIANCE> 25
 7.654068e+01 3.176262e+01 4.863325e+01 3.598614e+01 4.960479e+01 5.661867e+01 4.566753e+01 3.526999e+01 3.100494e+01 2.898633e+01 2.344479e+01 1.991403e+01 4.588206e+00 1.779709e+00 2.252481e+00 1.927068e+00 2.564314e+00 3.089551e+00 3.167340e+00 2.509268e+00 2.307981e+00 2.157311e+00 1.905596e+00 1.700265e+00 1.830333e+00
<GCONST> 1.005783e+02
<TRANSP> 5
 0.000000e+00 1.000000e+00 0.000000e+00 0.000000e+00 0.000000e+00
 0.000000e+00 7.617227e-01 2.382773e-01 0.000000e+00 0.000000e+00
 0.000000e+00 0.000000e+00 6.547855e-01 3.452146e-01 0.000000e+00
 0.000000e+00 0.000000e+00 0.000000e+00 7.566795e-01 2.433204e-01
 0.000000e+00 0.000000e+00 0.000000e+00 0.000000e+00 0.000000e+00
<ENDHMM>
~h "ng"
<BEGINHMM>
<NUMSTATES> 5
<STATE> 2
<MEAN> 25
 4.714315e+00 -9.363288e-02 9.645531e+00 -4.011912e+00 -1.148431e+01 -2.218007e-01 2.565840e-01 -3.288148e+00 -9.537448e+00 -2.385991e-01 1.208825e+00 -5.971430e+00 4.400620e-01 1.141760e+00 -6.363244e-01 1.010344e+00 9.647439e-01 2.061289e-01 2.585192e-01 -1.395579e+00 -5.214719e-01 8.545978e-01 -3.166141e-01 -5.744432e-01 -1.217003e+00
<VARIANCE> 25
 1.659626e+01 2.601508e+01 5.694283e+01 5.328708e+01 6.405221e+01 5.886370e+01 5.227293e+01 6.474881e+01 5.401775e+01 5.071794e+01 5.183467e+01 3.614515e+01 7.995257e-01 1.429941e+00 3.330379e+00 3.248792e+00 3.632140e+00 4.178096e+00 3.124155e+00 3.754572e+00 3.498501e+00 3.109583e+00 2.837043e+00 2.598167e+00 8.535748e-01
<GCONST> 1.037688e+02
<STATE> 3
<MEAN> 25
 6.942894e+00 3.898293e+00 4.370042e+00 2.507837e+00 -5.726654e+00 -2.654184e+00 6.045434e-01 -6.964545e+00 -8.483223e+00 6.904783e-01 -1.086146e+00 -5.493992e+00 1.723574e-01 6.411755e-01 -9.105238e-01 1.170067e+00 1.225094e+00 -2.633727e-01 -5.213487e-02 -2.546641e-01 6.407737e-01 -2.853057e-01 -4.058219e-01 5.220952e-01 -1.035406e+00
<VARIANCE> 25
 1.752735e+01 2.202395e+01 3.267986e+01 4.443410e+01 4.233335e+01 4.268015e+01 4.745564e+01 5.384563e+01 4.787946e+01 4.478913e+01 4.328996e+01 3.391290e+01 1.343413e+00 1.505608e+00 2.893789e+00 2.968684e+00 3.844980e+00 3.570232e+00 3.360845e+00 4.150476e+00 3.441660e+00 3.061460e+00 2.824260e+00 2.331781e+00 9.891122e-01
<GCONST> 1.018299e+02
<STATE> 4
<MEAN> 25
 4.209106e+00 3.818866e+00 2.487864e+00 3.154661e+00 -1.226214e+00 -9.792265e-01 6.432781e-01 -3.959287e+00 -4.217832e+00 -6.307159e-01 -1.121989e+00 -2.033884e+00 -3.381110e-01 -1.143760e-02 -1.805490e-01 9.246732e-02 4.608561e-01 1.643201e-01 3.196096e-02 3.066323e-01 3.252096e-01 -5.329901e-02 -5.829928e-03 2.275151e-01 -3.414570e-01
<VARIANCE> 25
 2.410412e+01 1.859318e+01 2.202361e+01 2.485817e+01 3.662206e+01 3.079370e+01 3.458630e+01 4.138096e+01 3.765218e+01 2.775394e+01 2.564653e+01 2.532833e+01 6.569088e-01 9.011821e-01 1.062620e+00 1.244435e+00 1.785425e+00 1.680703e+00 1.778746e+00 2.092198e+00 1.996918e+00 1.762463e+00 1.616394e+00 1.446639e+00 4.638110e-01
<GCONST> 8.958736e+01
<TRANSP> 5
 0.000000e+00 1.000000e+00 0.000000e+00 0.000000e+00 0.000000e+00
 0.000000e+00 6.589546e-01 3.410454e-01 0.000000e+00 0.000000e+00
 0.000000e+00 0.000000e+00 5.808533e-01 4.191467e-01 0.000000e+00
 0.000000e+00 0.000000e+00 0.000000e+00 8.312921e-01 1.687079e-01
 0.000000e+00 0.000000e+00 0.000000e+00 0.000000e+00 0.000000e+00
<ENDHMM>
~h "ow"
<BEGINHMM>
<NUMSTATES> 5
<STATE> 2
<MEAN> 25
 6.690877e+00 -3.462930e+00 -2.848225e+00 -5.836226e+00 -3.377439e+00 -2.903283e-01 -6.275697e+00 -2.316479e+00 1.424691e+00 1.890831e+00 -1.268427e+00 -4.424379e+00 1.075731e+00 -4.490931e-01 -8.998252e-01 -1.883820e+00 -6.287749e-01 1.222237e+00 -4.779779e-01 -5.401329e-01 -8.239174e-02 5.204585e-01 4.770553e-01 -3.689860e-01 8.541136e-01
<VARIANCE> 25
 2.279604e+01 4.147890e+01 3.945999e+01 5.747672e+01 5.079013e+01 6.405987e+01 6.394430e+01 5.478897e+01 5.638607e+01 5.408247e+01 5.387143e+01 3.973934e+01 2.734226e+00 3.168143e+00 2.867527e+00 4.238583e+00 4.822774e+00 4.289001e+00 4.957209e+00 5.227566e+00 5.562106e+00 4.262912e+00 3.901564e+00 3.436329e+00 2.643358e+00
<GCONST> 1.101407e+02
<STATE> 3
<MEAN> 25
 9.472063e+00 -2.632094e+00 -5.297704e+00 -1.230269e+01 -5.439213e+00 5.521312e+00 -5.416151e+00 -5.281057e+00 -2.200185e+00 2.356482e+00 2.560440e+00 -2.673614e+00 2.305475e-01 6.673836e-01 4.923864e-02 -5.047461e-01 -4.117179e-01 4.638377e-01 4.662432e-01 -1.290965e-01 -6.804730e-01 -5.952076e-01 1.166517e-01 6.876663e-01 -4.494639e-01
<VARIANCE> 25
 1.523608e+01 3.580098e+01 3.358613e+01 5.762607e+01 5.205603e+01 6.449120e+01 6.261715e+01 5.209319e+01 6.159441e+01 6.570806e+01 5.832114e+01 4.474197e+01 4.049945e-01 1.358170e+00 1.154168e+00 2.255184e+00 1.961389e+00 2.303121e+00 2.563284e+00 2.448938e+00 2.918148e+00 2.945725e+00 2.694853e+00 2.320149e+00 7.656388e-01
<GCONST> 9.961919e+01
<STATE> 4
<MEAN> 25
 9.061360e+00 1.923953e+00 -3.184020e+00 -1.082552e+01 -6.097005e+00 3.244539e+00 -3.006526e+00 -3.854013e+00 -2.765987e+00 -7.815012e-01 4.601789e-01 -3.614590e-01 -1.927745e-01 2.913169e-01 3.474794e-01 6.670927e-01 2.854166e-01 -3.937653e-01 -5.735223e-02 3.088198e-02 -4.258249e-04 -1.165987e-01 -1.835455e-01 -3.585133e-02 -4.538241e-01
<VARIANCE> 25
 1.552041e+01 3.553838e+01 2.825921e+01 7.434812e+01 5.233471e+01 5.760995e+01 5.776564e+01 4.943228e+01 4.961891e+01 5.086102e+01 4.217401e+01 3.364082e+01 3.679794e-01 8.740882e-01 8.879014e-01 1.807450e+00 1.654458e+00 1.732633e+00 1.804120e+00 1.876898e+00 1.975244e+00 2.014198e+00 1.821310e+00 1.561769e+00 4.309005e-01
<GCONST> 9.416518e+01
<TRANSP> 5
 0.000000e+00 1.000000e+00 0.000000e+00 0.000000e+00 0.000000e+00
 0.000000e+00 6.995342e-01 3.004657e-01 0.000000e+00 0.000000e+00
 0.000000e+00 0.000000e+00 6.975967e-01 3.024033e-01 0.000000e+00
 0.000000e+00 0.000000e+00 0.000000e+00 8.462967e-01 1.537033e-01
 0.000000e+00 0.000000e+00 0.000000e+00 0.000000e+00 0.000000e+00
<ENDHMM>
~h "oy"
<BEGINHMM>
<NUMSTATES> 5
<STATE> 2
<MEAN> 25
 1.040575e+01 2.123280e+00 -4.000999e+00 -1.485888e+01 -9.836187e+00 5.119241e+00 -7.838518e-01 -3.982024e+00 -2.789470e+00 -1.987983e+00 2.830557e-01 4.919722e-01 6.101398e-01 -3.698832e-01 -5.051539e-01 -1.210904e+00 -4.517192e-01 9.354445e-01 1.092149e-02 -3.854322e-01 -3.749014e-01 2.932619e-01 4.284279e-01 8.563174e-02 4.649791e-01
<VARIANCE> 25
 1.604529e+01 3.290740e+01 3.120475e+01 6.754861e+01 6.059124e+01 5.822684e+01 5.325222e+01 4.717208e+01 4.446193e+01 4.043441e+01 4.321886e+01 3.266490e+01 1.715385e+00 1.837101e+00 1.747200e+00 4.924680e+00 4.389882e+00 3.024829e+00 3.192262e+00 2.892176e+00 3.047881e+00 3.164404e+00 3.177269e+00 2.144598e+00 9.040492e-01
<GCONST> 1.028072e+02
<STATE> 3
<MEAN> 25
 9.771251e+00 -5.688854e+00 -4.661842e+00 -9.009464e+00 -5.043620e+00 1.820108e+00 -7.459056e+00 -4.346450e+00 -1.534433e-01 4.326986e+00 2.059548e+00 -4.462891e+00 -5.780903e-01 -9.413898e-01 1.241048e+00 2.237077e+00 1.039133e-01 -2.633648e+00 -1.268487e+00 1.466285e+00 1.080273e+00 3.176014e-02 -7.612267e-01 -7.431925e-01 2.531219e-01
<VARIANCE> 25
 1.407263e+01 3.061771e+01 3.569378e+01 5.798783e+01 4.452465e+01 8.230800e+01 5.960675e+01 6.010723e+01 5.711885e+01 5.297004e+01 6.364121e+01 4.113464e+01 3.589439e-01 1.254395e+00 2.316416e+00 2.372571e+00 3.448878e+00 3.930279e+00 4.402716e+00 4.298244e+00 3.995356e+00 5.971407e+00 3.471405e+00 4.353422e+00 3.409365e-01
<GCONST> 1.031882e+02
<STATE> 4
<MEAN> 25
 5.156101e+00 -3.971320e+00 5.830100e+00 -9.833190e-01 -9.360668e+00 -8.420266e+00 -4.640934e+00 1.656962e+00 -2.149336e+00 -7.106504e-01 9.038594e-01 -1.075608e+00 -4.050174e-01 5.911056e-01 7.781091e-01 3.222597e-01 -1.394212e-01 -8.552144e-02 5.449361e-01 -1.681419e-01 -6.333794e-01 -3.244974e-01 1.417033e-01 3.285635e-01 -5.023918e-01
<VARIANCE> 25
 1.650037e+01 3.360057e+01 5.650983e+01 4.006466e+01 5.491003e+01 5.119080e+01 5.806276e+01 4.946352e+01 5.484809e+01 4.303234e+01 3.816331e+01 2.872751e+01 4.636883e-01 9.496630e-01 2.812200e+00 1.432426e+00 2.779068e+00 2.439558e+00 2.373796e+00 2.618525e+00 3.184139e+00 2.479281e+00 2.161564e+00 1.874444e+00 4.085281e-01
<GCONST> 9.754430e+01
<TRANSP> 5
 0.000000e+00 1.000000e+00 0.000000e+00 0.000000e+00 0.000000e+00
 0.000000e+00 8.611709e-01 1.388292e-01 0.000000e+00 0.000000e+00
 0.000000e+00 0.000000e+00 7.953181e-01 2.046819e-01 0.000000e+00
 0.000000e+00 0.000000e+00 0.000000e+00 8.439361e-01 1.560639e-01
 0.000000e+00 0.000000e+00 0.000000e+00 0.000000e+00 0.000000e+00
<ENDHMM>
~h "sh"
<BEGINHMM>
<NUMSTATES> 5
<STATE> 2
<MEAN> 25
 -5.651772e+00 -3.446760e-01 8.164932e+00 1.404168e+00 -2.743837e+00 -1.213856e+00 1.190108e+00 -6.354910e-01 2.858866e-01 -2.012741e+00 3.564453e-02 3.284374e-01 -3.830792e+00 -1.307659e-01 6.542007e-01 -1.284249e-02 6.794312e-01 8.884321e-01 1.382069e+00 1.875911e-02 1.160843e+00 1.028649e-01 5.933989e-01 4.182333e-01 6.766083e-01
<VARIANCE> 25
 7.205590e+01 3.712941e+01 5.217548e+01 4.237529e+01 5.037010e+01 4.879461e+01 4.513886e+01 4.506820e+01 4.479051e+01 3.404027e+01 3.046946e+01 2.458741e+01 4.005248e+00 3.907047e+00 4.233717e+00 4.103554e+00 5.012666e+00 4.414347e+00 4.593785e+00 4.417353e+00 4.092506e+00 3.696184e+00 3.306113e+00 2.610738e+00 2.284332e+00
<GCONST> 1.083237e+02
<STATE> 3
<MEAN> 25
 -1.818873e+01 -2.738239e+00 9.955727e+00 -2.968503e-01 -2.641453e+00 4.174856e-01 5.675529e+00 -1.375235e+00 3.813920e+00 -1.326258e+00 2.361376e+00 1.335936e+00 -7.032161e-01 -3.043393e-01 -7.780034e-02 -1.101575e-01 -1.032545e-01 1.229052e-02 3.702153e-01 -4.909623e-03 1.793520e-01 1.111223e-01 1.466695e-01 8.778533e-02 1.661398e-01
<VARIANCE> 25
 3.393720e+01 3.800399e+01 3.151479e+01 4.001064e+01 3.785278e+01 5.084222e+01 4.176093e+01 3.680386e+01 3.096750e+01 2.968135e+01 2.614923e+01 2.177914e+01 1.884659e+00 8.874553e-01 1.118947e+00 1.333956e+00 1.420969e+00 1.876029e+00 1.700559e+00 1.872368e+00 1.686547e+00 1.671762e+00 1.531314e+00 1.364174e+00 6.788972e-01
<GCONST> 9.275645e+01
<STATE> 4
<MEAN> 25
 -1.359367e+01 -2.927156e+00 6.422981e+00 7.311029e-01 -2.463771e+00 2.984433e-01 4.409797e+00 8.184443e-02 2.861398e+00 -8.661837e-01 1.421004e+00 1.346805e+00 1.670537e+00 2.383355e-01 -2.682673e-01 1.979203e-01 -1.207513e-01 -4.822925e-01 -6.316004e-01 -4.230296e-02 -2.900548e-01 -2.063437e-01 -3.555097e-01 -2.160794e-01 -4.760846e-01
<VARIANCE> 25
 5.299111e+01 2.704562e+01 3.389433e+01 2.963634e+01 3.740447e+01 4.004489e+01 3.145551e+01 2.972352e+01 2.629193e+01 2.583444e+01 2.208801e+01 1.888515e+01 4.679360e+00 1.222329e+00 1.411579e+00 1.339793e+00 1.776331e+00 2.273894e+00 2.518348e+00 2.016303e+00 2.032393e+00 1.901492e+00 1.745492e+00 1.506269e+00 9.076341e-01
<GCONST> 9.445718e+01
<TRANSP> 5
 0.000000e+00 1.000000e+00 0.000000e+00 0.000000e+00 0.000000e+00
 0.000000e+00 7.119066e-01 2.880934e-01 0.000000e+00 0.000000e+00
 0.000000e+00 0.000000e+00 7.882631e-01 2.117368e-01 0.000000e+00
 0.000000e+00 0.000000e+00 0.000000e+00 8.012962e-01 1.987038e-01
 0.000000e+00 0.000000e+00 0.000000e+00 0.000000e+00 0.000000e+00
<ENDHMM>
~h "th"
<BEGINHMM>
<NUMSTATES> 5
<STATE> 2
<MEAN> 25
 -9.343207e-01 3.907577e+00 1.030965e+00 2.526978e+00 1.313403e+00 -1.595798e+00 1.271864e+00 -1.815596e+00 2.874406e-01 -8.003156e-01 -1.023964e+00 -7.067876e-01 -2.308475e+00 4.484959e-01 -5.341254e-01 8.266598e-01 1.331643e+00 7.263259e-01 1.387719e+00 6.670955e-01 8.943220e-01 3.500765e-01 6.051368e-01 7.891609e-01 -1.084428e+00
<VARIANCE> 25
 5.141790e+01 3.538685e+01 4.443213e+01 4.952557e+01 4.994110e+01 5.445731e+01 4.913626e+01 4.492538e+01 4.635937e+01 3.728153e+01 3.345351e+01 2.859022e+01 4.180310e+00 4.393006e+00 4.473969e+00 5.518070e+00 4.890080e+00 4.945854e+00 4.925820e+00 4.919130e+00 4.590660e+00 4.023589e+00 3.890367e+00 3.025464e+00 3.964397e+00
<GCONST> 1.103249e+02
<STATE> 3
<MEAN> 25
 -7.874449e+00 2.123326e+00 -2.100578e+00 2.216379e+00 3.033447e+00 1.081058e-01 4.006623e+00 8.087398e-01 3.230279e+00 1.189922e+00 1.397388e+00 2.268098e+00 -7.137828e-01 -6.906652e-01 -4.378030e-01 -4.398604e-01 -2.944581e-01 -1.661201e-01 9.274983e-02 2.657117e-01 3.799084e-01 1.445688e-01 2.310298e-01 2.985667e-01 6.378242e-01
<VARIANCE> 25
 5.702346e+01 3.428888e+01 3.546302e+01 4.244453e+01 3.928420e+01 4.594621e+01 3.958218e+01 3.596714e+01 3.309242e+01 3.034504e+01 2.855777e+01 2.475161e+01 5.591457e+00 3.025414e+00 3.437760e+00 4.003307e+00 3.605425e+00 4.401711e+00 3.741824e+00 3.557191e+00 3.376549e+00 3.223000e+00 3.157406e+00 2.733966e+00 8.899516e+00
<GCONST> 1.066058e+02
<STATE> 4
<MEAN> 25
 -6.637928e+00 6.506042e-01 -2.183747e+00 1.987466e+00 2.476972e+00 5.795015e-01 3.141258e+00 1.102744e+00 2.649302e+00 7.351648e-01 1.088193e+00 1.796854e+00 2.904027e-01 -1.432788e-01 7.099664e-02 -8.093599e-02 -1.617675e-01 -1.159700e-01 -1.708188e-01 -4.583156e-02 -6.403194e-02 -3.252383e-02 -1.017016e-01 -1.104631e-01 9.789142e-02
<VARIANCE> 25
 3.321406e+01 2.002954e+01 2.000291e+01 2.204589e+01 2.408331e+01 2.819280e+01 2.464316e+01 2.419901e+01 2.299338e+01 2.188327e+01 2.065633e+01 1.822814e+01 2.253689e+00 1.289643e+00 1.430229e+00 1.611629e+00 1.807308e+00 2.127557e+00 2.140722e+00 2.048074e+00 1.983761e+00 1.900969e+00 1.838958e+00 1.710137e+00 1.827736e+00
<GCONST> 9.140252e+01
<TRANSP> 5
 0.000000e+00 1.000000e+00 0.000000e+00 0.000000e+00 0.000000e+00
 0.000000e+00 6.195183e-01 3.804817e-01 0.000000e+00 0.000000e+00
 0.000000e+00 0.000000e+00 5.334342e-01 4.665658e-01 0.000000e+00
