~o
<STREAMINFO> 1 25
<VECSIZE> 25<NULLD><MFCC_D_N_Z_0><DIAGC>
~s "silst"
<MEAN> 25
 -9.632973e+00 3.729428e+00 -3.245992e+00 -2.704909e+00 8.566512e+00 5.206880e+00 4.351032e-01 8.820006e+00 2.695758e+00 1.610594e+00 3.799667e+00 5.097373e+00 -1.936758e-02 1.025923e-02 -1.248289e-02 -3.819786e-02 6.029008e-03 1.761119e-02 -9.776633e-03 9.570908e-03 2.770341e-02 4.688329e-03 2.176560e-02 2.628692e-02 -1.711868e-02
<VARIANCE> 25
 3.390037e+00 3.904963e+00 4.573107e+00 6.476636e+00 1.060644e+01 1.197697e+01 1.160593e+01 1.307045e+01 1.354540e+01 1.296004e+01 1.141555e+01 1.214557e+01 9.515348e-02 2.342125e-01 3.870605e-01 5.812527e-01 7.796978e-01 9.804087e-01 1.104110e+00 1.217383e+00 1.300751e+00 1.349554e+00 1.212392e+00 1.091227e+00 3.195978e-02
<GCONST> 6.401550e+01
~h "b"
<BEGINHMM>
<NUMSTATES> 5
<STATE> 2
<MEAN> 25
 8.360046e+00 -3.102884e-01 -3.058911e+00 -2.443361e+00 -4.918944e+00 -1.343174e+00 -3.695619e-02 -3.993343e+00 -4.310431e+00 3.098513e+00 1.067065e+00 -6.704832e-01 -2.038251e+00 2.007238e+00 -1.730294e-01 -4.960178e-01 1.634145e+00 5.523979e-01 -3.827842e-01 1.442744e+00 2.732543e-01 -5.244076e-01 2.241830e-01 6.236297e-01 -2.700308e+00
<VARIANCE> 25
 6.543975e+01 5.501339e+01 6.720294e+01 1.028367e+02 5.668046e+01 3.588337e+01 2.210510e+01 3.458577e+01 6.779242e+01 2.785903e+01 3.928652e+01 2.233614e+01 2.393207e+00 3.898803e+00 1.297714e+00 2.754687e+00 5.591811e+00 8.812240e-01 2.383194e+00 2.355886e+00 3.134671e+00 2.154650e+00 2.414193e+00 9.616921e-01 3.936941e+00
<GCONST> 1.025044e+02
<STATE> 3
<MEAN> 25
 2.544822e+00 3.473877e+00 2.813879e-01 4.183934e-01 -2.739872e+00 -2.902646e+00 -1.280929e+00 -7.300656e-01 -1.540564e+00 -1.920580e+00 4.596207e-01 1.213266e+00 -1.411174e+00 -1.327246e-01 -3.745536e-01 -7.418213e-01 6.358260e-01 4.919515e-01 -2.066432e-01 1.550702e+00 2.354537e-01 -7.194596e-01 -1.060221e-01 2.786101e-01 -1.161342e+00
<VARIANCE> 25
 6.417656e+01 5.448765e+01 5.000691e+01 6.083940e+01 6.368718e+01 3.023780e+01 2.075760e+01 4.945464e+01 5.778947e+01 2.654003e+01 4.387073e+01 3.859571e+01 1.689683e+00 2.603395e+00 2.167297e+00 8.439920e-01 2.599615e+00 2.099828e+00 8.649703e-01 1.039485e+00 1.820262e+00 7.360075e-01 1.196983e+00 1.291349e+00 8.253564e-01
<GCONST> 9.560597e+01
<STATE> 4
<MEAN> 25
 -9.946840e-01 3.190253e+00 -8.347864e-01 -1.480911e+00 -3.458021e-01 -5.203160e-01 -1.844797e+00 2.027569e+00 3.044254e-01 -1.940841e+00 3.040350e+00 2.200337e+00 -4.539687e-01 -5.904015e-01 -2.128171e-01 1.865905e-02 8.001912e-01 9.423578e-01 2.681265e-02 2.763557e-01 5.904582e-01 6.991313e-02 -4.034578e-01 -6.496050e-01 -9.663507e-02
<VARIANCE> 25
 6.896709e+01 5.069726e+01 3.859993e+01 5.623444e+01 5.873516e+01 2.163927e+01 9.872568e+00 4.155328e+01 4.684627e+01 3.049054e+01 2.837966e+01 2.487597e+01 1.389137e+00 2.539434e+00 2.066098e+00 3.605921e+00 1.955665e+00 1.675989e+00 1.962976e+00 1.115751e+00 3.356785e+00 1.912575e+00 1.511691e+00 1.351967e+00 1.012455e+00
<GCONST> 9.660394e+01
<TRANSP> 5
 0.000000e+00 1.000000e+00 0.000000e+00 0.000000e+00 0.000000e+00
 0.000000e+00 5.660712e-01 4.339288e-01 0.000000e+00 0.000000e+00
 0.000000e+00 0.000000e+00 1.146482e-01 8.853518e-01 0.000000e+00
 0.000000e+00 0.000000e+00 0.000000e+00 3.132134e-01 6.867866e-01
 0.000000e+00 0.000000e+00 0.000000e+00 0.000000e+00 0.000000e+00
<ENDHMM>
~h "d"
<BEGINHMM>
<NUMSTATES> 5
<STATE> 2
<MEAN> 25
 9.876671e+00 7.823825e-01 6.145978e+00 5.528941e+00 -8.381360e+00 -4.709180e+00 -2.307050e+00 -8.732121e+00 -4.903296e+00 -9.401864e-01 -4.700581e+00 -2.616036e+00 -9.616855e-01 2.113519e+00 3.857221e-01 5.554144e-01 2.102054e+00 2.933134e-01 -7.024261e-01 7.418531e-01 -7.865603e-02 2.605487e-02 -8.213455e-01 1.027031e-01 -2.098388e+00
<VARIANCE> 25
 2.824413e+01 4.866853e+01 2.837456e+01 1.774567e+01 4.201114e+01 3.192063e+01 3.159004e+01 2.959371e+01 4.098444e+01 1.539943e+01 1.965661e+01 1.623736e+01 1.310834e+00 3.120506e+00 1.281411e+00 2.798031e+00 4.079388e+00 1.551949e+00 1.578223e+00 2.074958e+00 1.822391e+00 1.364657e+00 2.236859e+00 8.133044e-01 2.427603e+00
<GCONST> 9.376294e+01
<STATE> 3
<MEAN> 25
 5.785646e+00 6.214427e+00 7.451618e+00 7.066281e+00 -2.398271e+00 -5.087087e+00 -5.153238e+00 -4.407163e+00 -4.094629e+00 -2.023888e+00 -5.832108e+00 -1.745644e+00 -1.804807e+00 2.196247e+00 7.627580e-02 1.075224e-01 2.700902e+00 3.203730e-01 -2.373838e-01 1.561972e+00 -2.005693e-01 -2.151574e-01 -5.923747e-02 5.417517e-02 -2.518319e+00
<VARIANCE> 25
 3.175099e+01 4.941090e+01 2.597356e+01 2.118538e+01 5.135912e+01 3.132729e+01 4.199250e+01 3.232720e+01 3.410261e+01 2.063685e+01 2.753123e+01 1.349338e+01 1.581326e+00 5.220110e+00 2.159709e+00 2.698564e+00 3.236812e+00 2.649854e+00 1.767530e+00 2.237850e+00 1.945790e+00 1.254618e+00 2.291028e+00 1.709844e+00 2.920391e+00
<GCONST> 9.741339e+01
<STATE> 4
<MEAN> 25
 1.143681e+00 5.438903e+00 5.605527e+00 4.357120e+00 1.691047e+00 -2.815573e+00 -3.191363e+00 -6.577888e-01 -3.981667e+00 -2.722983e+00 -3.310825e+00 -5.781357e-01 -1.477533e+00 -1.768915e+00 -1.281217e+00 -7.885804e-01 5.680990e-01 5.417608e-01 1.033904e+00 6.378286e-01 8.664309e-01 6.846239e-02 1.158759e+00 6.768197e-01 1.714889e-01
<VARIANCE> 25
 3.089413e+01 8.172443e+01 1.571337e+01 3.095833e+01 3.778829e+01 2.355111e+01 3.696806e+01 3.969034e+01 2.499997e+01 1.831171e+01 3.372233e+01 2.120523e+01 2.249750e+00 6.759415e+00 2.537353e+00 4.515960e+00 4.152536e+00 2.958163e+00 3.509365e+00 4.027596e+00 2.817184e+00 1.533468e+00 3.050584e+00 1.676770e+00 4.353756e+00
<GCONST> 1.016330e+02
<TRANSP> 5
 0.000000e+00 1.000000e+00 0.000000e+00 0.000000e+00 0.000000e+00
 0.000000e+00 4.042782e-01 5.957218e-01 0.000000e+00 0.000000e+00
 0.000000e+00 0.000000e+00 3.261160e-01 6.738839e-01 0.000000e+00
 0.000000e+00 0.000000e+00 0.000000e+00 5.833409e-01 4.166591e-01
 0.000000e+00 0.000000e+00 0.000000e+00 0.000000e+00 0.000000e+00
<ENDHMM>
~h "f"
<BEGINHMM>
<NUMSTATES> 5
<STATE> 2
<MEAN> 25
 5.985892e+00 2.983243e+00 -3.746045e-02 -6.819558e-02 -2.535290e+00 1.517627e-01 1.656752e+00 -1.728895e+00 -2.675730e+00 -2.864619e+00 -4.516685e+00 -1.355008e+00 -2.761893e+00 -1.550205e+00 4.291562e-01 2.314328e+00 1.774032e+00 2.552358e-01 6.271724e-01 7.296383e-01 1.198294e+00 1.227491e-01 5.504318e-01 3.489946e-01 -1.291167e+00
<VARIANCE> 25
 5.748209e+01 6.967731e+01 4.065441e+01 7.354652e+01 4.886121e+01 2.520217e+01 1.936049e+01 2.963464e+01 3.203501e+01 1.610382e+01 1.688703e+01 1.327617e+01 2.662739e+00 6.060625e+00 3.195475e+00 7.298277e+00 3.625867e+00 3.847925e+00 1.682206e+00 3.403354e+00 2.679428e+00 1.963937e+00 1.325545e+00 1.630964e+00 9.799502e-01
<GCONST> 1.000941e+02
<STATE> 3
<MEAN> 25
 -3.506050e+00 -5.820716e+00 2.706424e-01 5.107599e+00 2.591802e-01 1.001914e+00 3.757764e+00 -1.400223e+00 2.274354e+00 -2.804815e+00 -1.555820e+00 1.891369e-01 -2.457422e+00 -2.270923e+00 -5.376315e-01 4.810645e-01 1.884922e-01 4.905609e-01 4.976842e-01 -2.622226e-01 1.350927e+00 2.262052e-01 1.540908e+00 5.963938e-01 -4.896251e-01
<VARIANCE> 25
 1.586413e+01 2.632845e+01 1.597936e+01 1.433098e+01 1.532704e+01 1.453679e+01 1.328518e+01 2.036280e+01 1.844131e+01 1.371838e+01 1.283854e+01 1.455122e+01 2.587765e+00 4.551687e+00 1.832465e+00 3.987806e+00 1.881833e+00 2.167070e+00 2.100797e+00 2.042868e+00 1.394407e+00 1.155241e+00 1.442250e+00 1.020137e+00 7.512082e-01
<GCONST> 8.707980e+01
<STATE> 4
<MEAN> 25
 -7.036138e+00 -6.088637e+00 -1.773094e+00 2.645623e+00 1.232309e+00 2.491410e+00 3.492507e+00 1.242958e-01 4.373735e+00 -8.987180e-01 1.527938e+00 2.341705e+00 6.204901e-01 -1.056556e-02 -2.860594e-02 -5.680171e-02 -1.636467e-01 -1.613203e-01 -2.448941e-01 -1.698107e-01 1.090302e-03 -1.688405e-02 -3.883536e-01 -3.602394e-01 5.053028e-01
<VARIANCE> 25
 8.608943e+00 5.417900e+01 9.768929e+00 1.711509e+01 2.630872e+01 1.367557e+01 2.110046e+01 3.494173e+01 1.393641e+01 1.932880e+01 1.426638e+01 1.687356e+01 3.163580e+00 2.469975e+00 9.855441e-01 1.247399e+00 1.757170e+00 1.305423e+00 2.102719e+00 1.757357e+00 1.933557e+00 1.879841e+00 1.738716e+00 1.581687e+00 1.287671e+00
<GCONST> 8.773413e+01
<TRANSP> 5
 0.000000e+00 1.000000e+00 0.000000e+00 0.000000e+00 0.000000e+00
 0.000000e+00 4.792804e-01 5.207196e-01 0.000000e+00 0.000000e+00
 0.000000e+00 0.000000e+00 5.514439e-01 4.485561e-01 0.000000e+00
 0.000000e+00 0.000000e+00 0.000000e+00 8.513390e-01 1.486610e-01
 0.000000e+00 0.000000e+00 0.000000e+00 0.000000e+00 0.000000e+00
<ENDHMM>
~h "g"
<BEGINHMM>
<NUMSTATES> 5
<STATE> 2
<MEAN> 25
 -3.246246e+00 -3.332687e+00 -1.603324e+00 6.445221e-01 5.624972e+00 3.574183e+00 -1.934231e+00 1.901424e+00 2.399113e+00 9.370434e-02 1.597927e+00 2.171011e+00 2.442990e+00 -2.103482e+00 -1.063878e+00 1.783805e-01 -2.220048e+00 -3.095645e-01 -2.570765e-01 -2.006356e+00 -2.950238e-01 8.004710e-01 -1.399893e-01 -5.012337e-01 2.198319e+00
<VARIANCE> 25
 4.690259e+01 5.503885e+01 5.500629e+01 1.804222e+01 7.119143e+01 4.378061e+01 2.601945e+01 5.097458e+01 2.846755e+01 4.254126e+01 1.994283e+01 2.415475e+01 3.806054e+00 7.928840e+00 5.935843e+00 2.897817e+00 4.535951e+00 6.062497e+00 5.325202e+00 7.438939e+00 5.215355e+00 4.680571e+00 1.248254e+00 4.517395e+00 1.176010e+01
<GCONST> 1.098493e+02
<STATE> 3
<MEAN> 25
 1.124523e+01 -1.072334e+01 -1.457052e+00 4.449597e+00 -6.471583e+00 -4.185890e+00 -8.265907e+00 -7.462681e+00 -1.484817e+00 2.722852e+00 -7.395338e-01 -6.423388e+00 1.181081e+00 2.694651e-02 7.916097e-02 1.808685e-01 -6.669163e-01 -6.722015e-01 -3.580381e-01 -7.691825e-01 -5.866232e-01 3.394749e-01 1.620792e-01 -1.116856e+00 9.022563e-01
<VARIANCE> 25
 2.333629e+01 1.805928e+01 8.049850e+01 1.402713e+01 1.899562e+01 3.393755e+01 3.811208e+01 3.470341e+01 1.702278e+01 3.184016e+01 1.843383e+01 2.785288e+01 3.735679e+00 2.573811e+00 1.090493e+00 1.817003e+00 2.538398e+00 6.921241e+00 4.544768e+00 5.153534e+00 4.833028e+00 2.503499e+00 1.512053e+00 2.615696e+00 3.434984e+00
<GCONST> 9.928141e+01
<STATE> 4
<MEAN> 25
 1.116933e+01 -2.630648e+00 -2.318368e+00 3.869811e-01 -3.807848e+00 -8.864403e-02 -4.049829e+00 -1.086738e+01 -4.034069e+00 1.920939e+00 8.346064e-01 -3.448805e+00 -3.428418e-01 1.810308e+00 5.276847e-01 3.196192e-01 4.741320e-01 -8.055039e-01 6.373235e-01 -8.969262e-03 -9.831643e-01 -7.566988e-01 4.908940e-01 7.488807e-01 -3.927023e-01
<VARIANCE> 25
 4.270970e+01 4.120897e+01 4.190813e+01 6.401782e+01 3.106311e+01 7.996692e+01 4.915441e+01 5.454482e+01 4.009322e+01 3.334091e+01 1.082096e+01 4.012695e+01 5.479861e+00 3.467188e+00 1.549143e+00 3.042046e+00 2.754081e+00 6.329967e+00 5.732520e+00 6.340054e+00 4.758641e+00 3.932598e+00 1.078192e+00 4.805783e+00 3.617281e+00
<GCONST> 1.071040e+02
<TRANSP> 5
 0.000000e+00 1.000000e+00 0.000000e+00 0.000000e+00 0.000000e+00
 0.000000e+00 7.240287e-01 2.759713e-01 0.000000e+00 0.000000e+00
 0.000000e+00 0.000000e+00 6.412753e-01 3.587247e-01 0.000000e+00
 0.000000e+00 0.000000e+00 0.000000e+00 4.429490e-01 5.570509e-01
 0.000000e+00 0.000000e+00 0.000000e+00 0.000000e+00 0.000000e+00
<ENDHMM>
~h "k"
<BEGINHMM>
<NUMSTATES> 5
<STATE> 2
<MEAN> 25
 7.080748e+00 -5.730446e+00 1.349526e+00 1.109960e+00 -5.957126e+00 -1.667499e+00 -5.545852e-01 -6.285951e+00 -2.668500e-04 -2.050716e-01 -1.279591e+00 -3.804348e+00 8.620278e-01 -1.018089e+00 3.224588e-01 -6.261175e-01 -1.633885e+00 3.652570e-01 9.864231e-01 -7.297515e-01 -1.693047e-01 2.202314e-01 5.953668e-01 5.737543e-02 1.366307e+00
<VARIANCE> 25
 5.497322e+01 7.368880e+01 2.968893e+01 3.197213e+01 8.003207e+01 5.637806e+01 3.742239e+01 4.571973e+01 6.975758e+01 3.202516e+01 2.583715e+01 3.277512e+01 4.643337e+00 1.044587e+01 3.181276e+00 4.038293e+00 7.002602e+00 3.301706e+00 4.769738e+00 5.541461e+00 1.079093e+01 4.315239e+00 3.078368e+00 4.495974e+00 6.728396e+00
<GCONST> 1.126464e+02
<STATE> 3
<MEAN> 25
 8.047262e+00 -3.225754e+00 5.834438e+00 1.058413e+00 -1.216587e+01 -4.557702e+00 2.853981e+00 -7.572775e+00 -7.343678e+00 1.070114e+00 2.435432e-01 -3.982481e+00 -9.771433e-01 1.813859e+00 3.416741e-01 6.432321e-01 1.319516e+00 6.077691e-01 1.834513e-02 4.203942e-01 -1.218680e+00 6.269593e-01 5.986280e-02 1.072326e-01 -2.160010e+00
<VARIANCE> 25
 3.856395e+01 5.239365e+01 5.016406e+01 3.627020e+01 5.269162e+01 4.945259e+01 3.344565e+01 4.292067e+01 8.559431e+01 3.142625e+01 2.303750e+01 3.309330e+01 1.555964e+00 3.663778e+00 3.085374e+00 2.439209e+00 5.979704e+00 2.527029e+00 4.086963e+00 2.699967e+00 6.556883e+00 5.144045e+00 3.021967e+00 2.944843e+00 4.799766e+00
<GCONST> 1.068811e+02
<STATE> 4
<MEAN> 25
 4.286135e+00 -3.730411e+00 2.061116e+00 1.278870e+00 -3.569186e+00 -2.326322e-02 9.897947e-03 -2.762262e+00 -2.890274e+00 1.505534e+00 -8.083575e-01 -2.335862e+00 -1.776106e-01 -1.945481e-01 -4.401729e-01 -4.501114e-01 6.957766e-01 2.923748e-01 -4.735440e-01 6.490016e-01 5.712382e-01 -2.959880e-01 -1.421125e-01 -1.365596e-01 2.704392e-02
<VARIANCE> 25
 5.953955e+01 7.587669e+01 4.622571e+01 2.666641e+01 4.674359e+01 3.358241e+01 4.559772e+01 5.585741e+01 4.505180e+01 4.804321e+01 2.480408e+01 2.945104e+01 4.314002e+00 8.663516e+00 4.887407e+00 2.935600e+00 4.175198e+00 2.724948e+00 3.783735e+00 5.720642e+00 5.142065e+00 6.442451e+00 2.556719e+00 2.560121e+00 6.579197e+00
<GCONST> 1.100086e+02
<TRANSP> 5
 0.000000e+00 1.000000e+00 0.000000e+00 0.000000e+00 0.000000e+00
 0.000000e+00 5.925989e-01 4.074012e-01 0.000000e+00 0.000000e+00
 0.000000e+00 0.000000e+00 5.932755e-01 4.067245e-01 0.000000e+00
 0.000000e+00 0.000000e+00 0.000000e+00 6.959739e-01 3.040262e-01
 0.000000e+00 0.000000e+00 0.000000e+00 0.000000e+00 0.000000e+00
<ENDHMM>
~h "l"
<BEGINHMM>
<NUMSTATES> 5
<STATE> 2
<MEAN> 25
 1.313905e+01 -4.394939e+00 -4.684267e+00 -4.916844e+00 -5.406912e+00 -5.158628e-01 -6.315189e+00 -1.009461e+01 9.447907e-01 4.509169e+00 -2.328670e+00 -7.093948e+00 4.699971e-01 5.805492e-01 -6.309644e-01 -1.216795e+00 -3.976637e-02 8.427107e-01 -3.989192e-01 -8.100265e-01 -2.727614e-01 4.137420e-01 4.498719e-01 2.894042e-01 -1.245781e-02
<VARIANCE> 25
 1.441485e+01 4.101374e+01 2.282857e+01 2.420834e+01 3.679570e+01 5.271740e+01 3.458894e+01 4.208158e+01 6.138684e+01 3.880772e+01 2.928129e+01 1.947258e+01 9.489707e-01 4.523456e+00 1.483939e+00 2.013901e+00 3.883686e+00 3.375690e+00 2.773883e+00 4.821983e+00 7.223334e+00 2.858786e+00 3.641556e+00 2.441701e+00 1.654671e+00
<GCONST> 1.010540e+02
<STATE> 3
<MEAN> 25
 1.460325e+01 1.885431e+00 -4.729605e+00 -1.101458e+01 -8.659660e+00 2.985034e+00 -4.099741e+00 -1.006382e+01 -2.417146e+00 1.221907e+00 -3.306039e+00 -2.491521e+00 -2.381341e-02 8.076637e-01 3.590907e-01 2.311289e-02 -1.949200e-01 -2.351189e-01 3.071648e-01 7.324936e-01 -1.941205e-01 -8.745432e-01 -6.655346e-01 4.780858e-01 -5.267706e-01
<VARIANCE> 25
 1.788045e+01 3.523361e+01 2.938851e+01 4.731293e+01 3.070607e+01 3.006106e+01 3.461911e+01 5.233258e+01 5.987243e+01 3.783891e+01 3.314139e+01 2.028470e+01 2.855196e-01 2.648335e+00 1.136272e+00 2.637067e+00 2.156105e+00 2.172663e+00 2.401644e+00 2.719510e+00 2.994933e+00 2.240495e+00 2.167454e+00 1.981752e+00 8.761520e-01
<GCONST> 9.566365e+01
<STATE> 4
<MEAN> 25
 1.041530e+01 3.844465e+00 -8.097842e-01 -4.567068e+00 -4.418562e+00 1.717717e+00 -3.000567e+00 -6.390082e+00 -2.249866e+00 -7.744300e-01 -3.696403e+00 -2.175510e+00 -8.580265e-01 -1.614920e-01 6.316161e-01 1.516718e+00 6.213687e-01 -9.010378e-01 2.426519e-01 1.389744e+00 -3.264273e-01 -5.257852e-01 3.927177e-01 3.369103e-01 -6.843943e-01
<VARIANCE> 25
 4.209866e+01 6.160156e+01 3.562075e+01 5.424173e+01 6.030073e+01 4.601894e+01 4.023888e+01 7.576324e+01 5.328903e+01 3.950691e+01 2.895458e+01 2.166115e+01 2.116281e+00 3.449074e+00 2.850063e+00 3.637035e+00 8.659041e+00 5.624911e+00 4.422338e+00 6.928695e+00 2.942250e+00 4.249385e+00 2.972861e+00 2.419935e+00 1.898070e+00
<GCONST> 1.081928e+02
<TRANSP> 5
 0.000000e+00 1.000000e+00 0.000000e+00 0.000000e+00 0.000000e+00
 0.000000e+00 7.010657e-01 2.989343e-01 0.000000e+00 0.000000e+00
 0.000000e+00 0.000000e+00 6.362651e-01 3.637349e-01 0.000000e+00
 0.000000e+00 0.000000e+00 0.000000e+00 4.831792e-01 5.168207e-01
 0.000000e+00 0.000000e+00 0.000000e+00 0.000000e+00 0.000000e+00
<ENDHMM>
~h "m"
<BEGINHMM>
<NUMSTATES> 5
<STATE> 2
<MEAN> 25
 2.904435e+00 4.718610e+00 4.999868e+00 5.907542e+00 2.980088e+00 1.534693e-01 4.155978e-01 -2.736403e+00 -3.694449e+00 -2.433555e+00 -2.523622e+00 -4.628862e+00 -9.041634e-01 -4.990339e-02 -5.382152e-01 4.291948e-01 1.037304e+00 1.349945e-02 4.538556e-01 5.324985e-01 -2.301787e-01 -5.153314e-01 -3.094698e-02 3.872616e-01 -7.119672e-01
<VARIANCE> 25
 8.265245e+01 2.831565e+01 1.566213e+01 4.045202e+01 8.107153e+01 3.691780e+01 2.217242e+01 6.479789e+01 2.397578e+01 1.537637e+01 1.876544e+01 2.412466e+01 2.301921e+00 5.803791e-01 3.239134e+00 4.455269e+00 3.337727e+00 3.029904e+00 3.402785e+00 2.843332e+00 2.943655e+00 1.558474e+00 1.970408e+00 2.197710e+00 8.340272e-01
<GCONST> 9.780560e+01
<STATE> 3
<MEAN> 25
 2.993609e+00 3.574908e+00 3.158609e+00 5.525204e+00 2.715414e+00 -3.620551e-01 -3.364498e-01 -6.294179e+00 -5.855953e+00 -2.188290e+00 -2.011338e+00 -3.132661e+00 3.435203e-01 -5.321474e-01 -8.085398e-01 8.055350e-02 -1.219009e-01 -3.296739e-01 -3.569207e-02 -6.992341e-01 -4.168524e-01 1.804286e-01 -4.391879e-01 -1.228146e-01 2.098872e-01
<VARIANCE> 25
 8.966003e+01 3.355601e+01 1.578060e+01 3.579417e+01 5.739562e+01 3.752246e+01 2.908504e+01 7.424916e+01 5.015106e+01 1.056004e+01 1.172004e+01 3.079282e+01 2.993799e+00 1.753138e+00 2.319475e+00 3.878343e+00 3.428835e+00 2.650370e+00 3.102946e+00 3.587648e+00 3.115458e+00 1.367049e+00 1.159075e+00 2.146942e+00 1.351500e+00
<GCONST> 9.893938e+01
<STATE> 4
<MEAN> 25
 -4.074730e+00 3.354752e+00 -2.207888e+00 -1.595361e-01 5.839962e+00 1.668056e+00 -1.394401e+00 2.429066e+00 1.068018e+00 -7.110238e-01 1.103066e+00 2.735050e+00 1.699905e-01 -3.400097e-01 -2.909611e-01 1.655284e-02 -1.687291e-01 -7.026043e-02 -1.103519e-02 -1.774484e-01 9.933792e-02 2.293911e-01 -2.690011e-01 -9.689035e-02 2.136653e-01
<VARIANCE> 25
 7.119587e+01 1.364208e+01 1.736863e+01 3.122564e+01 3.905262e+01 2.073191e+01 2.980923e+01 7.654087e+01 4.863113e+01 1.124979e+01 2.062789e+01 4.495399e+01 2.381844e+00 1.598785e+00 1.622896e+00 2.193725e+00 2.540814e+00 2.392104e+00 2.776410e+00 2.446729e+00 2.482678e+00 1.317913e+00 1.137308e+00 2.158093e+00 1.258119e+00
<GCONST> 9.532794e+01
<TRANSP> 5
 0.000000e+00 1.000000e+00 0.000000e+00 0.000000e+00 0.000000e+00
 0.000000e+00 3.538014e-01 6.461986e-01 0.000000e+00 0.000000e+00
 0.000000e+00 0.000000e+00 2.363838e-01 7.636162e-01 0.000000e+00
 0.000000e+00 0.000000e+00 0.000000e+00 6.356058e-01 3.643942e-01
 0.000000e+00 0.000000e+00 0.000000e+00 0.000000e+00 0.000000e+00
<ENDHMM>
~h "n"
<BEGINHMM>
<NUMSTATES> 5
<STATE> 2
<MEAN> 25
 9.957607e+00 -5.676462e-02 3.898987e+00 3.754256e+00 -6.763723e+00 -2.577977e+00 -7.601755e-01 -6.252881e+00 -2.203507e+00 -3.200601e+00 -5.058024e+00 -3.175462e+00 3.839807e-01 3.471658e-02 1.651330e-01 -1.406328e-01 -7.675856e-01 1.701822e-01 3.485529e-02 -1.001191e+00 2.186407e-01 -2.414281e-01 -5.542370e-01 6.371467e-02 2.971365e-01
<VARIANCE> 25
 4.105240e+01 4.205073e+01 2.633666e+01 2.703408e+01 5.902870e+01 2.255866e+01 2.468378e+01 5.998746e+01 4.021883e+01 3.357996e+01 2.280535e+01 1.327788e+01 2.717562e+00 5.530797e+00 3.331567e+00 2.664899e+00 2.916572e+00 2.036408e+00 2.524432e+00 7.354495e+00 3.636261e+00 2.507473e+00 2.839092e+00 1.642607e+00 3.227909e+00
<GCONST> 1.019029e+02
<STATE> 3
<MEAN> 25
 1.168599e+01 3.950429e-02 3.173099e+00 3.697409e+00 -7.946891e+00 -2.740630e+00 -8.693169e-01 -8.107838e+00 -1.800338e+00 -3.729575e+00 -5.630348e+00 -3.521133e+00 2.315447e-03 5.636039e-01 2.476938e-01 1.581258e-01 -3.042984e-01 3.345726e-01 1.879208e-01 -1.017326e+00 -1.727394e-01 3.030672e-01 -2.097261e-01 -1.173402e-01 -3.807271e-01
<VARIANCE> 25
 3.290209e+01 3.030145e+01 2.951372e+01 2.080858e+01 3.787466e+01 2.218234e+01 1.616705e+01 5.617966e+01 3.942952e+01 2.016889e+01 1.493308e+01 2.056198e+01 7.145568e-01 3.817319e+00 2.636533e+00 2.395094e+00 2.415110e+00 1.937980e+00 1.358498e+00 3.664438e+00 2.010430e+00 1.538185e+00 1.825178e+00 1.435058e+00 1.640927e+00
<GCONST> 9.380455e+01
<STATE> 4
<MEAN> 25
 7.498153e+00 3.856453e+00 3.340824e+00 3.341216e+00 -3.562723e+00 -1.742402e-01 -9.308555e-01 -5.575925e+00 -2.313956e+00 -1.210748e+00 -5.497621e+00 -3.574199e+00 -5.214728e-01 5.158871e-01 1.013081e-02 -2.082852e-01 5.711653e-01 3.677530e-01 -1.499241e-01 4.504840e-01 -2.960561e-01 1.119083e-01 1.833051e-01 1.703687e-01 -6.829941e-01
<VARIANCE> 25
 7.578207e+01 2.879978e+01 2.733028e+01 2.733045e+01 8.062366e+01 2.532239e+01 1.491568e+01 8.645236e+01 2.903181e+01 1.574537e+01 2.477492e+01 2.974919e+01 1.019777e+00 1.780043e+00 1.405426e+00 1.205137e+00 1.804988e+00 1.144945e+00 1.193304e+00 2.035542e+00 1.178953e+00 1.284242e+00 1.356986e+00 1.245540e+00 9.940665e-01
<GCONST> 9.143244e+01
<TRANSP> 5
 0.000000e+00 1.000000e+00 0.000000e+00 0.000000e+00 0.000000e+00
 0.000000e+00 2.625314e-01 7.374686e-01 0.000000e+00 0.000000e+00
 0.000000e+00 0.000000e+00 4.202197e-01 5.797802e-01 0.000000e+00
 0.000000e+00 0.000000e+00 0.000000e+00 6.201114e-01 3.798886e-01
 0.000000e+00 0.000000e+00 0.000000e+00 0.000000e+00 0.000000e+00
<ENDHMM>
~h "p"
<BEGINHMM>
<NUMSTATES> 5
<STATE> 2
<MEAN> 25
 -4.532214e+00 4.301232e+00 -6.057523e-01 1.163055e+00 7.448314e+00 1.284370e+00 -2.524429e+00 1.348512e+00 -1.337055e+00 -1.375198e+00 -3.046993e-01 2.776635e-01 -5.437470e-01 -2.255327e+00 -4.867942e-01 6.522197e-02 -2.849023e-01 7.040541e-01 1.744353e+00 5.917236e-01 8.756270e-01 2.104520e-01 8.363448e-01 1.095970e+00 4.438452e-01
<VARIANCE> 25
 3.770172e+01 5.185348e+01 2.293110e+01 1.187329e+01 2.134618e+01 2.432927e+01 7.459753e+01 4.695585e+01 2.220672e+01 1.625181e+01 2.206676e+01 2.149001e+01 2.483063e+00 6.344267e+00 3.045590e+00 1.768214e+00 3.465194e+00 6.307699e+00 5.361127e+00 4.285323e+00 2.627553e+00 2.964175e+00 2.525949e+00 1.362722e+00 6.713533e+00
<GCONST> 1.014485e+02
<STATE> 3
<MEAN> 25
 -5.987866e+00 8.435463e-01 -6.495696e-01 -7.957895e-01 5.706252e+00 6.806424e-01 1.226960e+00 4.703448e-01 1.281138e+00 2.182395e-01 1.403576e+00 1.464978e+00 1.735245e+00 -2.198545e+00 4.604315e-01 3.762862e-01 -1.802700e+00 2.826182e-01 9.305448e-01 -8.888396e-01 8.125069e-01 1.248294e+00 -3.300732e-01 -6.126437e-01 2.186224e+00
<VARIANCE> 25
 5.727418e+01 5.420471e+01 1.019747e+01 2.523300e+01 2.422660e+01 3.665285e+01 5.246546e+01 5.862307e+01 1.884226e+01 2.044243e+01 1.263340e+01 1.374567e+01 5.245923e+00 4.204868e+00 2.672085e+00 2.893950e+00 5.378562e+00 5.656291e+00 7.301759e+00 5.478873e+00 2.673922e+00 2.782940e+00 1.791123e+00 1.999298e+00 4.997536e+00
<GCONST> 1.026039e+02
<STATE> 4
<MEAN> 25
 2.294161e+00 -4.546572e+00 2.424254e+00 3.579987e+00 1.195276e+00 2.533943e+00 2.766885e+00 9.493351e-02 2.031383e+00 2.929022e+00 -1.614725e+00 -6.627127e-01 2.439718e+00 -1.475875e+00 -6.373304e-01 1.560163e-02 -1.701842e+00 -3.797646e-02 -5.048385e-01 -1.193347e+00 5.458119e-01 3.216344e-01 -7.224766e-01 -4.524831e-01 2.134377e+00
<VARIANCE> 25
 3.615012e+01 2.165662e+01 2.613429e+01 3.108250e+01 4.403460e+01 4.032895e+01 3.922799e+01 5.105717e+01 1.393104e+01 1.950269e+01 2.899239e+01 2.249106e+01 6.021549e+00 6.294689e+00 3.363503e+00 2.719755e+00 9.031282e+00 7.364563e+00 6.650687e+00 6.990247e+00 4.431050e+00 2.771897e+00 1.754376e+00 2.070549e+00 4.435839e+00
<GCONST> 1.056520e+02
<TRANSP> 5
 0.000000e+00 1.000000e+00 0.000000e+00 0.000000e+00 0.000000e+00
 0.000000e+00 4.643988e-01 5.356013e-01 0.000000e+00 0.000000e+00
 0.000000e+00 0.000000e+00 4.624642e-01 5.375358e-01 0.000000e+00
 0.000000e+00 0.000000e+00 0.000000e+00 5.236211e-01 4.763789e-01
 0.000000e+00 0.000000e+00 0.000000e+00 0.000000e+00 0.000000e+00
<ENDHMM>
~h "r"
<BEGINHMM>
<NUMSTATES> 5
<STATE> 2
<MEAN> 25
 6.702094e+00 -2.284915e+00 -3.246847e+00 1.445026e+00 -3.940013e-01 -2.232902e+00 -3.696455e+00 -4.560606e+00 -2.566032e+00 -1.413054e+00 -1.368043e+00 -1.160746e+00 1.105857e+00 -5.205454e-01 2.590123e-01 4.516247e-01 -6.552833e-01 -1.344672e+00 -1.480547e+00 7.331898e-02 5.234597e-01 2.303765e-01 -7.007202e-01 -7.260623e-01 9.090257e-01
<VARIANCE> 25
 9.900400e+01 3.998863e+01 4.303495e+01 3.041892e+01 4.408720e+01 2.419687e+01 5.253222e+01 3.162704e+01 9.295860e+01 4.403197e+01 3.152636e+01 2.084598e+01 1.114940e+01 6.441560e+00 3.103876e+00 3.568261e+00 4.730553e+00 4.364651e+00 3.714879e+00 6.409758e+00 5.916198e+00 5.507919e+00 2.203877e+00 1.662239e+00 4.178791e+00
<GCONST> 1.096896e+02
<STATE> 3
<MEAN> 25
 1.182784e+01 -4.013713e+00 -9.307939e-01 3.073739e+00 -4.113590e+00 -6.541989e+00 -9.081440e+00 -5.634988e+00 -8.296226e-01 -6.037939e-02 -4.109673e+00 -2.550850e+00 4.177351e-01 -5.292906e-01 1.316008e+00 4.189901e-01 -2.054307e+00 -6.696904e-01 5.642678e-01 3.164291e-02 -4.461152e-01 -2.139017e-02 -3.576694e-01 9.816122e-02 4.691586e-01
<VARIANCE> 25
 2.583144e+01 6.753260e+01 4.918863e+01 1.867905e+01 5.660885e+01 3.755832e+01 6.088599e+01 4.841529e+01 7.609580e+01 3.145465e+01 2.611630e+01 1.740579e+01 5.015705e+00 6.132824e+00 3.457826e+00 1.550310e+00 5.712124e+00 3.551222e+00 5.901585e+00 6.571494e+00 5.317863e+00 2.563174e+00 1.932687e+00 1.676358e+00 3.332831e+00
<GCONST> 1.065498e+02
<STATE> 4
<MEAN> 25
 1.233335e+01 -4.980479e+00 2.520629e+00 3.673856e+00 -9.272137e+00 -6.638809e+00 -4.399875e+00 -5.722801e+00 -4.173560e+00 1.122320e+00 -3.545945e+00 -1.984622e+00 -5.493879e-01 1.010703e+00 4.145715e-01 1.579867e-02 2.260987e-01 2.480084e-01 4.476719e-01 1.168170e-01 -3.222505e-01 5.709238e-02 3.199123e-01 -8.696169e-02 -8.380241e-01
<VARIANCE> 25
 2.689437e+01 3.780379e+01 1.265714e+02 1.674675e+01 7.845196e+01 2.266449e+01 4.428735e+01 5.673823e+01 4.770945e+01 1.438255e+01 2.173963e+01 1.228935e+01 2.944922e+00 4.029313e+00 4.781538e+00 2.255189e+00 5.613487e+00 2.005978e+00 2.698907e+00 3.558204e+00 4.075801e+00 1.737209e+00 1.815781e+00 1.648922e+00 3.184936e+00
<GCONST> 1.017092e+02
<TRANSP> 5
 0.000000e+00 1.000000e+00 0.000000e+00 0.000000e+00 0.000000e+00
 0.000000e+00 5.631008e-01 4.368992e-01 0.000000e+00 0.000000e+00
 0.000000e+00 0.000000e+00 4.713710e-01 5.286290e-01 0.000000e+00
 0.000000e+00 0.000000e+00 0.000000e+00 7.464281e-01 2.535719e-01
 0.000000e+00 0.000000e+00 0.000000e+00 0.000000e+00 0.000000e+00
<ENDHMM>
~h "s"
<BEGINHMM>
<NUMSTATES> 5
<STATE> 2
<MEAN> 25
 -4.761122e+00 4.167529e+00 2.117806e+00 2.712682e+00 3.362538e+00 -6.875312e+00 6.082896e+00 -5.637113e+00 2.625038e+00 -3.837309e+00 -8.036008e-01 -1.066390e+00 -4.859681e+00 2.847907e-01 -1.402582e+00 -4.966625e-01 1.957396e+00 -7.368021e-01 3.142249e+00 2.982471e-01 1.171067e+00 -7.345219e-01 1.372863e+00 4.445615e-01 -8.909315e-03
<VARIANCE> 25
 8.146864e+01 3.178971e+01 5.524218e+01 2.735939e+01 5.790427e+01 3.646001e+01 6.724855e+01 3.667922e+01 3.768436e+01 1.483297e+01 2.438576e+01 1.520411e+01 4.205088e+00 4.546459e+00 5.763822e+00 2.652377e+00 7.115531e+00 3.266274e+00 3.841080e+00 3.344243e+00 2.966000e+00 1.770920e+00 2.212423e+00 1.349262e+00 1.067248e+00
<GCONST> 1.030284e+02
<STATE> 3
<MEAN> 25
 -1.648389e+01 2.320144e+00 -4.784606e+00 -1.151712e+00 4.195139e+00 -9.946512e+00 1.239305e+01 -6.076055e+00 6.014521e+00 -4.696023e+00 1.185069e+00 1.246047e-01 -4.229957e-01 -6.440245e-01 -3.699722e-01 -6.700037e-01 -7.254770e-02 -1.266660e-01 5.539322e-02 1.270563e-01 2.307132e-01 2.397707e-01 -2.009294e-01 3.692746e-01 -1.900578e-02
<VARIANCE> 25
 1.530288e+01 1.150647e+01 1.694312e+01 1.620414e+01 2.325178e+01 2.288778e+01 2.278261e+01 2.258359e+01 2.622354e+01 1.859575e+01 1.577097e+01 1.683156e+01 2.147722e+00 1.209950e+00 2.076474e+00 1.350778e+00 1.791255e+00 2.276468e+00 2.591464e+00 2.328710e+00 2.334171e+00 1.675340e+00 1.880640e+00 1.516054e+00 5.072203e-01
<GCONST> 8.794624e+01
<STATE> 4
<MEAN> 25
 -9.754794e+00 -5.557428e-02 -6.429590e-01 -1.110629e+00 3.870473e+00 -7.151479e+00 8.192600e+00 -4.202209e+00 4.922162e+00 -2.354009e+00 -1.819842e+00 2.786114e-01 3.965917e+00 -3.903394e-01 9.988027e-01 5.968415e-01 -1.087947e+00 1.259766e+00 -2.777996e+00 4.985849e-02 -5.654835e-01 4.820948e-01 -8.593460e-01 -6.298791e-01 -4.214071e-01
<VARIANCE> 25
 7.526398e+01 2.510723e+01 2.034219e+01 1.671966e+01 2.882176e+01 3.476201e+01 4.827203e+01 4.342668e+01 2.302166e+01 2.170288e+01 2.752345e+01 2.340270e+01 7.868045e+00 2.337672e+00 2.837785e+00 1.756028e+00 3.849011e+00 3.193283e+00 5.623950e+00 4.125494e+00 3.063500e+00 2.187070e+00 2.632235e+00 2.613919e+00 3.812750e+00
<GCONST> 1.019000e+02
<TRANSP> 5
 0.000000e+00 1.000000e+00 0.000000e+00 0.000000e+00 0.000000e+00
 0.000000e+00 6.959005e-01 3.040995e-01 0.000000e+00 0.000000e+00
 0.000000e+00 0.000000e+00 7.768706e-01 2.231294e-01 0.000000e+00
 0.000000e+00 0.000000e+00 0.000000e+00 6.931360e-01 3.068640e-01
 0.000000e+00 0.000000e+00 0.000000e+00 0.000000e+00 0.000000e+00
<ENDHMM>
~h "t"
<BEGINHMM>
<NUMSTATES> 5
<STATE> 2
<MEAN> 25
 2.228221e+00 3.288437e+00 4.447270e+00 3.251775e+00 -3.030709e+00 -2.061694e+00 -2.794942e+00 -2.463307e+00 -2.617926e+00 -8.503923e-01 -2.382510e+00 1.613349e-01 -1.980137e+00 5.775703e-01 -4.572017e-01 -4.311736e-01 1.885226e+00 5.396979e-01 2.226795e-01 1.106595e+00 2.240112e-01 1.857809e-01 6.910019e-01 6.475154e-01 -1.534071e+00
<VARIANCE> 25
 6.060066e+01 4.593307e+01 2.713948e+01 2.101903e+01 5.627563e+01 3.941883e+01 3.796431e+01 5.242711e+01 3.657121e+01 2.032105e+01 2.933949e+01 2.316452e+01 4.144052e+00 9.066265e+00 3.469765e+00 2.230673e+00 4.651315e+00 3.067155e+00 2.939861e+00 3.700565e+00 3.022398e+00 2.930034e+00 2.223420e+00 2.119956e+00 8.461747e+00
<GCONST> 1.052423e+02
<STATE> 3
<MEAN> 25
 -4.229685e+00 -1.224747e+00 9.007419e-01 -8.318634e-01 1.105408e+00 -6.182135e-01 1.341390e+00 -5.191219e-01 -3.159374e-01 -1.766343e+00 1.521291e+00 1.817293e+00 -1.216604e+00 -2.512397e+00 -2.176337e-01 -1.107944e+00 -3.361735e-01 -4.421680e-01 1.935520e+00 1.095927e-01 1.230967e+00 -9.015380e-01 7.109387e-01 3.943954e-01 3.301231e+00
<VARIANCE> 25
 2.680104e+01 5.159927e+01 1.860307e+01 2.871206e+01 2.884959e+01 3.917600e+01 5.139134e+01 4.470632e+01 2.666078e+01 2.407716e+01 2.655379e+01 1.587659e+01 5.326648e+00 3.837683e+00 3.924601e+00 3.930477e+00 4.971571e+00 4.283343e+00 5.447165e+00 4.601030e+00 3.706672e+00 3.027677e+00 4.349269e+00 2.013130e+00 6.112366e+00
<GCONST> 1.051692e+02
<STATE> 4
<MEAN> 25
 -2.768385e+00 -4.932662e+00 2.337637e+00 3.097528e-01 -3.899091e-01 -2.550126e+00 2.792358e+00 -7.125263e-01 4.060280e+00 -2.427406e+00 -2.688617e-01 6.983380e-01 1.996330e+00 -1.687653e-01 2.378413e-01 7.103505e-01 -7.933680e-01 -3.901034e-01 -8.592842e-01 -3.065001e-01 1.557396e-01 3.556009e-01 -1.236084e+00 -9.052657e-01 5.695230e-01
<VARIANCE> 25
 5.731080e+01 3.999041e+01 2.580808e+01 3.508076e+01 3.750145e+01 4.291956e+01 5.166938e+01 4.651262e+01 3.179383e+01 3.633680e+01 3.913388e+01 2.687556e+01 6.622631e+00 4.453038e+00 4.115433e+00 3.617943e+00 4.849677e+00 5.055996e+00 6.652168e+00 5.189908e+00 5.291025e+00 4.078807e+00 5.087110e+00 2.576738e+00 5.820465e+00
<GCONST> 1.099033e+02
<TRANSP> 5
 0.000000e+00 1.000000e+00 0.000000e+00 0.000000e+00 0.000000e+00
 0.000000e+00 5.480945e-01 4.519055e-01 0.000000e+00 0.000000e+00
 0.000000e+00 0.000000e+00 5.453750e-01 4.546250e-01 0.000000e+00
 0.000000e+00 0.000000e+00 0.000000e+00 5.531117e-01 4.468883e-01
 0.000000e+00 0.000000e+00 0.000000e+00 0.000000e+00 0.000000e+00
<ENDHMM>
~h "v"
<BEGINHMM>
<NUMSTATES> 5
<STATE> 2
<MEAN> 25
 3.613885e+00 -2.427693e+00 2.748281e+00 6.469218e+00 -1.145702e+00 -2.087386e+00 -2.748187e+00 -4.817882e+00 -5.718859e-01 6.928465e-01 -2.424284e+00 -1.942655e+00 -1.835537e+00 -5.272905e-01 1.333421e-01 9.823109e-02 8.168186e-01 9.469069e-01 1.385461e+00 7.249355e-01 6.521879e-01 -4.632678e-01 1.755745e-01 3.628214e-01 -8.430975e-01
<VARIANCE> 25
 5.333213e+01 2.006758e+01 1.541377e+01 1.636520e+01 3.661984e+01 2.018411e+01 4.936443e+01 1.971864e+01 1.656793e+01 2.379116e+01 1.270479e+01 1.406612e+01 2.715545e+00 4.869721e+00 2.164694e+00 3.294999e+00 3.605700e+00 1.250827e+00 3.321063e+00 2.389875e+00 2.968617e+00 3.883949e+00 1.469769e+00 1.173216e+00 3.510618e+00
<GCONST> 9.547195e+01
<STATE> 3
<MEAN> 25
 -3.196497e+00 -4.423126e+00 2.207664e+00 6.530552e-01 2.248295e+00 -2.930265e+00 7.226185e-01 -1.846585e+00 1.876417e+00 -2.400090e+00 -1.063918e+00 -4.632757e-01 4.169794e-01 -6.894586e-01 -4.023947e-01 -8.878816e-01 -4.225076e-01 -6.512088e-01 -4.912068e-01 3.017713e-02 3.165458e-01 3.946528e-01 -1.544209e-01 -2.809146e-01 8.134394e-01
<VARIANCE> 25
 8.884449e+01 2.209280e+01 1.595479e+01 5.382720e+01 9.612982e+01 4.009406e+01 3.624399e+01 2.983736e+01 1.850417e+01 2.495422e+01 1.797488e+01 1.421751e+01 5.602189e+00 3.160908e+00 3.482713e+00 2.387640e+00 5.481314e+00 5.134776e+00 4.173102e+00 2.086778e+00 2.004336e+00 2.372816e+00 1.656449e+00 1.064338e+00 3.200538e+00
<GCONST> 1.009896e+02
<STATE> 4
<MEAN> 25
 4.272492e+00 -6.497657e+00 1.051560e+00 1.263842e+00 -4.800035e+00 -4.492719e+00 -2.218121e+00 -3.674458e+00 2.889994e+00 1.106892e+00 -1.902684e+00 -3.014733e+00 2.158310e+00 -5.039812e-01 -2.395992e-01 -1.968844e-01 -1.504906e+00 -7.021869e-01 -1.127516e+00 -6.774856e-01 4.810323e-01 7.112166e-01 -5.145414e-01 -9.501832e-01 1.566388e+00
<VARIANCE> 25
 7.415607e+01 2.861603e+01 3.070315e+01 2.485137e+01 6.903832e+01 2.919081e+01 4.351978e+01 3.020594e+01 2.317450e+01 1.715562e+01 1.109753e+01 2.791144e+01 6.407832e+00 2.237633e+00 3.714583e+00 3.236227e+00 5.397501e+00 8.064506e+00 4.658661e+00 1.766183e+00 2.018975e+00 1.807535e+00 1.619141e+00 1.784558e+00 5.467310e+00
<GCONST> 1.018402e+02
<TRANSP> 5
 0.000000e+00 1.000000e+00 0.000000e+00 0.000000e+00 0.000000e+00
 0.000000e+00 6.731446e-01 3.268554e-01 0.000000e+00 0.000000e+00
 0.000000e+00 0.000000e+00 4.638920e-01 5.361080e-01 0.000000e+00
 0.000000e+00 0.000000e+00 0.000000e+00 2.845317e-01 7.154682e-01
 0.000000e+00 0.000000e+00 0.000000e+00 0.000000e+00 0.000000e+00
<ENDHMM>
~h "w"
<BEGINHMM>
<NUMSTATES> 5
<STATE> 2
<MEAN> 25
 6.764857e+00 2.990007e-01 -1.093478e+00 1.324373e+00 -2.088975e+00 -1.047499e+00 -1.943201e+00 -3.390300e+00 -2.541038e+00 -3.349677e-01 -3.671999e+00 -3.319338e+00 3.136010e+00 -3.290917e-01 -1.352094e+00 -1.476376e+00 -1.726465e+00 -3.057755e-01 -1.037364e+00 -1.950101e+00 -1.280081e+00 8.249555e-01 3.472161e-01 -1.314676e+00 2.311692e+00
<VARIANCE> 25
 5.113091e+01 5.874831e+01 5.338539e+01 5.094585e+01 5.767304e+01 3.085845e+01 3.127430e+01 4.683783e+01 5.551077e+01 1.535881e+01 2.273777e+01 2.471660e+01 3.015042e+00 4.863006e+00 4.374193e+00 3.394135e+00 6.825691e+00 4.637466e+00 6.769086e+00 4.089117e+00 2.940307e+00 2.291591e+00 4.275276e+00 1.718345e+00 5.724427e+00
<GCONST> 1.075217e+02
<STATE> 3
<MEAN> 25
 1.458563e+01 2.283527e+00 -5.152975e+00 -6.278961e+00 -5.761609e+00 1.735971e+00 -1.589263e+00 -9.239166e+00 -9.493216e+00 1.933370e+00 -1.245213e+00 -6.204178e+00 5.004273e-01 -2.776372e-01 -5.016088e-01 -5.380221e-01 -1.163282e-01 1.827505e-01 -7.383071e-02 -3.450547e-01 -1.905582e-01 6.759204e-01 5.905473e-01 -1.828027e-01 4.590144e-01
<VARIANCE> 25
 1.401195e+01 5.948069e+01 2.631809e+01 4.741650e+01 2.191136e+01 2.209902e+01 4.933006e+01 5.030902e+01 4.111237e+01 2.407368e+01 2.812816e+01 1.556784e+01 1.485769e+00 9.546191e+00 2.382687e+00 4.826212e+00 2.529263e+00 4.832623e+00 7.221032e+00 5.252823e+00 8.097638e+00 3.382766e+00 4.973717e+00 2.559545e+00 3.994109e+00
<GCONST> 1.052529e+02
<STATE> 4
<MEAN> 25
 1.322449e+01 -2.481324e+00 -2.202892e-01 1.191675e+00 -6.508633e+00 -2.669999e+00 -4.359333e+00 -9.757367e+00 -5.834900e+00 2.899987e+00 -2.688103e+00 -7.629392e+00 -4.866658e-01 9.366818e-02 7.624154e-01 7.446309e-01 -2.426565e-01 -9.311560e-01 -3.226224e-01 6.775817e-01 1.020626e+00 -4.893358e-01 -7.577427e-01 -8.482066e-02 -2.671414e-01
<VARIANCE> 25
 2.089303e+01 5.288682e+01 4.621552e+01 2.700588e+01 2.979078e+01 5.264227e+01 4.721420e+01 3.247882e+01 4.781284e+01 3.664713e+01 1.682843e+01 2.099161e+01 2.197407e+00 6.966940e+00 3.707726e+00 2.969681e+00 4.513979e+00 7.520699e+00 4.517287e+00 4.591714e+00 6.059604e+00 4.135814e+00 2.264065e+00 1.814980e+00 4.231997e+00
<GCONST> 1.058743e+02
<TRANSP> 5
 0.000000e+00 1.000000e+00 0.000000e+00 0.000000e+00 0.000000e+00
 0.000000e+00 4.517753e-01 5.482247e-01 0.000000e+00 0.000000e+00
 0.000000e+00 0.000000e+00 7.650720e-01 2.349279e-01 0.000000e+00
 0.000000e+00 0.000000e+00 0.000000e+00 5.211120e-01 4.788879e-01
 0.000000e+00 0.000000e+00 0.000000e+00 0.000000e+00 0.000000e+00
<ENDHMM>
~h "y"
<BEGINHMM>
<NUMSTATES> 5
<STATE> 2
<MEAN> 25
 3.958994e+00 -6.786670e+00 8.246058e+00 -6.042464e-01 -1.401969e+01 -7.893828e-01 2.098265e+00 -6.887799e+00 -2.015813e+00 -2.806631e+00 6.193953e-01 -2.347790e+00 2.846519e-01 -2.051877e-01 -3.090568e-01 8.505250e-01 -1.786109e-01 -1.131146e+00 7.876696e-01 1.362414e+00 -4.546333e-01 -4.399210e-01 -1.228854e-01 9.270887e-02 1.393316e-01
<VARIANCE> 25
 1.256587e+02 2.595353e+01 6.065408e+01 1.606045e+01 9.812499e+01 4.154635e+01 8.946950e+00 4.973057e+01 6.633508e+01 1.248596e+01 1.088502e+01 9.905329e+00 1.389583e+00 1.842245e+00 3.291198e+00 1.716186e+00 2.994507e+00 1.828296e+00 2.054371e+00 2.640059e+00 2.157829e+00 1.255054e+00 2.485562e+00 1.422478e+00 5.604460e-01
<GCONST> 9.447157e+01
<STATE> 3
<MEAN> 25
 -1.022615e-01 -7.931633e+00 5.551723e+00 1.050222e+00 -9.136411e+00 2.841744e-01 4.127458e+00 -1.301190e+00 -2.212466e+00 -3.580565e+00 -1.848563e-01 -3.352661e-01 1.936689e+00 1.066359e-01 5.895879e-01 2.039772e+00 -1.003838e+00 -1.203880e+00 -5.621509e-01 2.229063e-01 -1.051157e+00 -8.166480e-01 -1.056508e+00 -6.697147e-01 2.713479e-01
<VARIANCE> 25
 1.234568e+02 6.806789e+01 3.580655e+01 1.548945e+01 1.159301e+02 6.727409e+01 1.780669e+01 2.406754e+01 4.127893e+01 1.743144e+01 1.599743e+01 5.488463e+00 2.536648e+00 1.242058e+00 7.873944e+00 1.735150e+00 5.254670e+00 1.843206e+00 2.618795e+00 7.767641e+00 3.625881e+00 1.986451e+00 1.663796e+00 1.030156e+00 2.363618e+00
<GCONST> 9.979655e+01
<STATE> 4
<MEAN> 25
 6.646317e+00 -5.623260e+00 8.185973e+00 4.429789e+00 -1.313319e+01 -4.611473e+00 -4.273236e-01 -3.494506e+00 -3.476421e+00 -6.207368e+00 -2.306611e+00 -2.174409e+00 2.694398e+00 5.411034e-01 3.426086e-01 5.905751e-01 -7.986401e-01 -1.522452e+00 -1.949671e+00 -7.629807e-01 -9.737343e-01 8.156137e-02 -4.169786e-01 -8.479506e-01 1.013051e+00
<VARIANCE> 25
 5.036412e+01 6.897860e+01 3.371097e+01 1.342701e+01 5.574079e+01 5.902993e+01 2.479475e+01 1.941974e+01 2.373982e+01 9.242223e+00 1.395226e+01 6.297319e+00 4.700384e+00 1.975277e+00 1.060457e+01 2.622850e+00 1.207545e+01 4.631367e+00 3.503062e+00 5.821780e+00 5.495378e+00 2.455360e+00 1.533215e+00 8.714006e-01 4.677823e+00
<GCONST> 1.013854e+02
<TRANSP> 5
 0.000000e+00 1.000000e+00 0.000000e+00 0.000000e+00 0.000000e+00
 0.000000e+00 5.648919e-01 4.351081e-01 0.000000e+00 0.000000e+00
 0.000000e+00 0.000000e+00 1.815960e-01 8.184040e-01 0.000000e+00
 0.000000e+00 0.000000e+00 0.000000e+00 6.153279e-01 3.846722e-01
 0.000000e+00 0.000000e+00 0.000000e+00 0.000000e+00 0.000000e+00
<ENDHMM>
~h "z"
<BEGINHMM>
<NUMSTATES> 5
<STATE> 2
<MEAN> 25
 9.308505e+00 -2.857581e+00 4.380796e+00 2.604869e+00 -8.197031e+00 -6.503556e+00 -5.347785e+00 -6.111241e+00 -1.769409e+00 -8.560776e-01 -4.728561e+00 -1.734398e+00 -1.061301e+00 1.235705e+00 -3.492635e-01 1.585827e-01 2.027137e+00 -1.093266e+00 2.802092e-01 1.950111e-01 2.982625e-01 -1.008846e+00 -8.173684e-01 6.790899e-01 -5.249506e-01
<VARIANCE> 25
 5.697361e+01 2.390340e+01 3.108017e+01 1.725274e+01 6.771951e+01 2.764776e+01 5.611073e+01 3.971020e+01 2.953311e+01 2.473920e+01 1.427774e+01 1.886176e+01 3.512221e+00 5.240842e+00 2.896150e+00 3.493501e+00 6.756225e+00 3.575345e+00 3.404289e+00 2.809113e+00 1.742974e+00 2.454761e+00 1.837995e+00 1.024438e+00 1.240014e+00
<GCONST> 9.985269e+01
<STATE> 3
<MEAN> 25
 8.433841e+00 5.462514e-01 3.305568e+00 3.508822e+00 -4.653869e+00 -9.273649e+00 -4.385674e+00 -7.561752e+00 -1.702190e+00 -2.528463e+00 -7.131513e+00 -1.083712e+00 -3.114312e+00 2.571853e+00 -7.156658e-02 -4.812263e-01 4.149004e+00 -1.776425e+00 1.597177e+00 -9.674254e-02 9.879048e-01 -8.257825e-01 -2.467773e-01 7.630879e-01 -6.417903e-01
<VARIANCE> 25
 4.270336e+01 2.731796e+01 3.589478e+01 2.628520e+01 6.257512e+01 2.887041e+01 5.088622e+01 3.804231e+01 3.270290e+01 2.575028e+01 2.109335e+01 1.432545e+01 5.394470e+00 5.550908e+00 2.301644e+00 2.592454e+00 6.473994e+00 5.238444e+00 4.776827e+00 3.534447e+00 1.864239e+00 1.656357e+00 2.057401e+00 1.544647e+00 9.414268e-01
<GCONST> 1.011318e+02
<STATE> 4
<MEAN> 25
 -5.942047e+00 6.981330e+00 4.239551e+00 1.949395e+00 7.059219e+00 -1.266775e+01 3.433403e+00 -7.359461e+00 3.826656e+00 -4.996724e+00 -4.389239e+00 -1.028868e+00 -1.881711e+00 -3.663517e-01 -3.144962e-01 1.331650e-01 6.981047e-01 6.015382e-01 1.222324e+00 8.227688e-01 7.796193e-01 -5.364867e-01 8.196775e-01 -1.905045e-01 -3.658248e-01
<VARIANCE> 25
 6.538116e+01 3.675779e+01 2.732846e+01 3.604832e+01 5.562489e+01 4.988567e+01 6.503623e+01 4.783569e+01 2.615040e+01 2.878545e+01 2.127020e+01 1.377030e+01 1.472186e+01 7.578600e+00 1.860428e+00 3.200211e+00 9.880322e+00 4.969749e+00 7.149841e+00 4.038469e+00 3.249689e+00 2.818436e+00 1.951001e+00 1.613239e+00 1.205487e+00
<GCONST> 1.062027e+02
<TRANSP> 5
 0.000000e+00 1.000000e+00 0.000000e+00 0.000000e+00 0.000000e+00
 0.000000e+00 2.419262e-01 7.580739e-01 0.000000e+00 0.000000e+00
 0.000000e+00 0.000000e+00 2.654024e-01 7.345976e-01 0.000000e+00
 0.000000e+00 0.000000e+00 0.000000e+00 7.571952e-01 2.428048e-01
 0.000000e+00 0.000000e+00 0.000000e+00 0.000000e+00 0.000000e+00
<ENDHMM>
~h "aa"
<BEGINHMM>
<NUMSTATES> 5
<STATE> 2
<MEAN> 25
 1.182245e+00 -4.626541e+00 2.755879e+00 2.403985e+00 -2.578928e+00 -1.481711e+00 -1.458695e+00 -2.760203e+00 7.244750e-01 -1.286692e+00 -1.157850e+00 -1.083791e+00 1.428787e+00 -1.698836e+00 -2.677681e-01 1.086478e+00 3.479433e-01 -9.697759e-01 -9.552348e-01 -1.005958e-01 6.049045e-01 -3.971151e-01 -8.263925e-01 -2.408464e-01 1.579852e+00
<VARIANCE> 25
 7.531379e+01 6.769908e+01 5.069323e+01 2.977728e+01 4.824925e+01 5.940953e+01 4.679895e+01 6.847818e+01 6.102992e+01 5.503587e+01 2.352882e+01 2.442402e+01 8.249064e+00 1.069263e+01 4.286645e+00 3.060938e+00 4.009443e+00 5.822381e+00 5.540216e+00 7.153900e+00 9.164994e+00 4.351867e+00 1.556107e+00 2.109851e+00 5.411258e+00
<GCONST> 1.127568e+02
<STATE> 3
<MEAN> 25
 9.290815e+00 -5.555877e+00 7.188951e-01 5.462272e+00 -4.020994e+00 -5.495446e+00 -4.060175e+00 -5.783309e+00 -2.644809e+00 4.204347e-01 -3.584752e+00 -3.540620e+00 1.615791e+00 -8.872721e-02 -1.021716e+00 -1.007451e+00 -3.932498e-01 7.263536e-01 -7.388847e-01 -1.544821e+00 1.754818e-01 6.450927e-01 -2.926029e-03 -7.740810e-01 1.254308e+00
<VARIANCE> 25
 3.423727e+01 5.374061e+01 2.618803e+01 3.943154e+01 7.065244e+01 6.997656e+01 2.401851e+01 4.865784e+01 6.086654e+01 2.885299e+01 2.224813e+01 2.092804e+01 4.789478e+00 6.839269e+00 3.708207e+00 3.690668e+00 5.005555e+00 6.112780e+00 5.443716e+00 5.221574e+00 7.512753e+00 4.035342e+00 2.361514e+00 3.058856e+00 3.629768e+00
<GCONST> 1.091400e+02
<STATE> 4
<MEAN> 25
 1.103176e+01 -4.355745e+00 -5.118117e+00 -4.724091e+00 -3.881884e+00 2.324837e+00 -3.496273e+00 -9.163578e+00 -2.971120e-01 1.722241e+00 -3.535854e-01 -4.132452e+00 -3.982649e-01 -4.799808e-02 3.009046e-01 1.722160e-01 1.464890e-01 -1.361979e-01 -7.071733e-02 2.418112e-01 2.374230e-01 9.790119e-03 -2.647506e-01 5.757797e-02 -2.231137e-01
<VARIANCE> 25
 3.034565e+01 4.939977e+01 2.803570e+01 4.034345e+01 2.864868e+01 4.012925e+01 4.293340e+01 3.360196e+01 5.802885e+01 3.571870e+01 2.934764e+01 3.025883e+01 3.034226e+00 5.504370e+00 2.513134e+00 4.610061e+00 4.041841e+00 3.255611e+00 3.513885e+00 3.425807e+00 5.011593e+00 4.514542e+00 2.987054e+00 2.835070e+00 3.628845e+00
<GCONST> 1.059122e+02
<TRANSP> 5
 0.000000e+00 1.000000e+00 0.000000e+00 0.000000e+00 0.000000e+00
 0.000000e+00 4.957013e-01 5.042987e-01 0.000000e+00 0.000000e+00
 0.000000e+00 0.000000e+00 6.507571e-01 3.492429e-01 0.000000e+00
 0.000000e+00 0.000000e+00 0.000000e+00 8.944326e-01 1.055674e-01
 0.000000e+00 0.000000e+00 0.000000e+00 0.000000e+00 0.000000e+00
<ENDHMM>
~h "ae"
<BEGINHMM>
<NUMSTATES> 5
<STATE> 2
<MEAN> 25
 5.769983e+00 -1.990276e+00 6.243244e+00 3.279084e+00 -3.951754e+00 3.945922e-01 4.343651e+00 8.377453e-01 -2.738856e+00 -3.063012e+00 -1.257415e+00 -2.341620e+00 1.364167e+00 -6.212240e-01 7.414817e-01 2.348888e-01 -1.562625e+00 -4.370775e-01 7.443587e-01 -4.737442e-01 -6.220810e-01 -1.612812e-01 -2.997903e-01 -6.901128e-01 1.343683e+00
<VARIANCE> 25
 5.091517e+01 2.935757e+01 4.140115e+01 1.755244e+01 9.096743e+01 7.226400e+01 4.181115e+01 6.930103e+01 2.612263e+01 2.777669e+01 2.598631e+01 1.645111e+01 6.185701e+00 4.353584e+00 2.296669e+00 2.603915e+00 9.555327e+00 6.412529e+00 3.751547e+00 5.280843e+00 2.114481e+00 3.550162e+00 3.991936e+00 2.596319e+00 5.973404e+00
<GCONST> 1.075773e+02
<STATE> 3
<MEAN> 25
 1.071746e+01 -3.561552e+00 6.587549e+00 2.470374e+00 -1.282671e+01 -4.071653e+00 4.276079e+00 -3.605350e+00 -4.350440e+00 -2.055786e+00 -1.853332e+00 -5.294716e+00 1.044479e+00 -8.426996e-01 -2.809698e-01 -2.308351e-01 -1.833246e+00 -5.128537e-01 1.379278e-01 -5.007077e-01 1.230905e-01 -3.843719e-01 1.896596e-01 2.102810e-02 1.123139e+00
<VARIANCE> 25
 2.076575e+01 3.357134e+01 3.855811e+01 3.143597e+01 4.396054e+01 4.846841e+01 2.774674e+01 5.050861e+01 2.780829e+01 1.795399e+01 1.748802e+01 2.784855e+01 2.531251e+00 3.320330e+00 2.132326e+00 1.825060e+00 4.695687e+00 2.306648e+00 2.177266e+00 2.582114e+00 1.609101e+00 3.480467e+00 2.132093e+00 1.974638e+00 4.079529e+00
<GCONST> 9.906796e+01
<STATE> 4
<MEAN> 25
 1.219346e+01 -4.406841e+00 5.887999e+00 2.467266e+00 -1.513085e+01 -4.436210e+00 4.619142e+00 -6.224200e+00 -3.856757e+00 -4.349637e+00 -1.344732e+00 -2.935268e+00 7.567973e-02 2.745033e-01 -3.631387e-01 3.603430e-01 4.112681e-01 -2.409929e-01 -4.436189e-01 -1.945451e-01 2.539979e-01 -1.305781e-02 -2.541446e-01 2.315444e-01 -2.458407e-01
<VARIANCE> 25
 1.051974e+01 2.948010e+01 1.555984e+01 2.610930e+01 2.588216e+01 1.852399e+01 1.550072e+01 3.745390e+01 2.393528e+01 2.144168e+01 2.003970e+01 9.291605e+00 4.924271e-01 2.366183e+00 1.896499e+00 2.906818e+00 1.487469e+00 1.832916e+00 1.456811e+00 3.619082e+00 1.144488e+00 2.049973e+00 2.314468e+00 1.263698e+00 1.632450e+00
<GCONST> 8.863648e+01
<TRANSP> 5
 0.000000e+00 1.000000e+00 0.000000e+00 0.000000e+00 0.000000e+00
 0.000000e+00 4.640819e-01 5.359181e-01 0.000000e+00 0.000000e+00
 0.000000e+00 0.000000e+00 3.932337e-01 6.067663e-01 0.000000e+00
 0.000000e+00 0.000000e+00 0.000000e+00 8.214423e-01 1.785578e-01
 0.000000e+00 0.000000e+00 0.000000e+00 0.000000e+00 0.000000e+00
<ENDHMM>
~h "ah"
<BEGINHMM>
<NUMSTATES> 5
<STATE> 2
<MEAN> 25
 1.152102e+01 3.733877e-01 5.980350e+00 4.747897e+00 -5.992973e+00 -4.405105e+00 -4.767424e+00 -1.093245e+01 -6.123601e+00 8.254191e-01 -4.684207e+00 -4.841652e+00 7.941608e-01 -3.306286e-01 -1.255675e-01 3.527074e-01 -5.021966e-01 6.035095e-02 -5.231382e-01 -4.696882e-01 -4.085047e-01 6.460070e-01 -1.819472e-01 -2.551842e-01 1.290463e-01
<VARIANCE> 25
 1.573134e+01 1.889288e+01 7.219418e+01 2.768622e+01 5.978510e+01 4.561771e+01 2.268332e+01 4.338159e+01 6.167143e+01 2.292830e+01 1.677512e+01 1.312117e+01 5.510821e+00 3.345815e+00 7.033079e+00 3.443290e+00 7.650636e+00 5.531497e+00 4.820823e+00 3.298628e+00 3.438399e+00 3.051346e+00 2.374090e+00 2.541477e+00 2.392745e+00
<GCONST> 1.043262e+02
<STATE> 3
<MEAN> 25
 1.286589e+01 -6.279838e+00 -2.572683e+00 2.271212e+00 -3.490212e+00 -3.578661e+00 -7.042213e+00 -6.608357e+00 -2.940340e-01 3.574142e+00 -3.125747e+00 -7.538498e+00 -1.648482e-01 9.597873e-02 1.352337e-01 6.777131e-01 3.353491e-01 -6.780158e-02 -1.910516e-01 2.279243e-02 -1.270345e-01 -4.884541e-03 -3.229252e-02 1.439719e-01 -4.938916e-01
<VARIANCE> 25
 3.477152e+01 3.527034e+01 2.904219e+01 3.584022e+01 2.383923e+01 3.818013e+01 2.845654e+01 5.146264e+01 3.356704e+01 2.887175e+01 1.762741e+01 4.032050e+01 4.961210e+00 4.555646e+00 3.213894e+00 3.042527e+00 3.825097e+00 2.339614e+00 3.348766e+00 5.507658e+00 4.891006e+00 2.715740e+00 2.307429e+00 2.181322e+00 3.846608e+00
<GCONST> 1.036064e+02
<STATE> 4
<MEAN> 25
 5.378567e+00 1.899355e+00 3.494223e+00 7.381445e+00 1.240216e+00 -5.607558e+00 -4.435571e+00 -5.026034e+00 -3.466629e+00 -5.883480e-01 -3.496883e+00 -1.866649e+00 -2.487882e+00 4.078103e-01 2.797282e-01 -9.577875e-02 8.991030e-01 9.409300e-01 1.242827e+00 8.432532e-01 4.832543e-01 -7.346562e-01 7.710332e-02 9.099267e-01 -1.443058e+00
<VARIANCE> 25
 4.670285e+01 3.712999e+01 2.019581e+01 3.503988e+01 6.657002e+01 7.431202e+01 4.192900e+01 7.766774e+01 2.144691e+01 4.747242e+01 1.730358e+01 2.710919e+01 4.527712e+00 7.508298e+00 3.046854e+00 4.023766e+00 8.871754e+00 3.911035e+00 3.081799e+00 6.996181e+00 2.784442e+00 3.783848e+00 2.039999e+00 1.660831e+00 3.016305e+00
<GCONST> 1.069678e+02
<TRANSP> 5
 0.000000e+00 1.000000e+00 0.000000e+00 0.000000e+00 0.000000e+00
 0.000000e+00 7.452349e-01 2.547651e-01 0.000000e+00 0.000000e+00
 0.000000e+00 0.000000e+00 7.545469e-01 2.454531e-01 0.000000e+00
 0.000000e+00 0.000000e+00 0.000000e+00 5.628843e-01 4.371157e-01
 0.000000e+00 0.000000e+00 0.000000e+00 0.000000e+00 0.000000e+00
<ENDHMM>
~h "ao"
<BEGINHMM>
<NUMSTATES> 5
<STATE> 2
<MEAN> 25
 6.542532e+00 -4.064911e+00 5.966129e-01 2.605308e+00 -2.410043e+00 -9.267700e-01 -4.141894e+00 -4.448310e+00 1.147758e+00 2.475136e+00 -1.114863e+00 -4.594830e+00 2.538777e+00 9.827936e-01 -9.427198e-01 -9.394665e-01 -7.145932e-01 6.730317e-01 -3.817949e-01 -2.517903e+00 -1.948140e+00 1.004166e+00 5.190205e-01 -1.092157e+00 8.625524e-01
<VARIANCE> 25
 7.871813e+01 5.995604e+01 3.373879e+01 4.427942e+01 4.706587e+01 5.008135e+01 3.015672e+01 7.206416e+01 4.924611e+01 3.566871e+01 3.386098e+01 3.277543e+01 4.046605e+00 7.792778e+00 5.080800e+00 7.334664e+00 5.109970e+00 3.290347e+00 4.446080e+00 5.372197e+00 6.494671e+00 6.100746e+00 3.729681e+00 2.166756e+00 4.543694e+00
<GCONST> 1.119951e+02
<STATE> 3
<MEAN> 25
 1.472875e+01 2.350606e+00 -4.084757e+00 -1.002683e+01 -9.847038e+00 5.759470e+00 -1.696166e-01 -1.060911e+01 -7.756347e+00 -1.662015e-01 -3.425907e-01 -4.249053e+00 2.048940e-01 8.427622e-01 -2.359725e-01 -1.790890e+00 -9.023982e-01 5.549409e-01 7.377207e-01 6.458336e-01 -3.333065e-01 -1.210092e+00 -4.819257e-01 6.875052e-01 -1.881828e-01
<VARIANCE> 25
 1.009823e+01 2.593883e+01 1.898075e+01 9.304619e+01 2.549580e+01 2.519094e+01 2.387032e+01 4.995677e+01 1.890590e+01 4.360387e+01 3.072188e+01 1.587006e+01 4.600201e-01 2.221304e+00 1.138737e+00 3.028314e+00 2.741134e+00 1.703652e+00 1.853270e+00 2.912046e+00 2.662563e+00 1.881818e+00 2.258398e+00 1.537481e+00 1.246698e+00
<GCONST> 9.300769e+01
<STATE> 4
<MEAN> 25
 1.184320e+01 8.222074e+00 -2.108064e+00 -1.134441e+01 -9.099235e+00 3.251558e+00 -2.442210e+00 -6.777222e+00 -6.475935e+00 -2.843065e+00 -2.261877e+00 -2.681874e+00 -1.081622e+00 -3.049598e-01 5.518098e-01 1.850774e+00 1.426688e+00 -6.160492e-01 -4.598613e-01 -9.536773e-03 5.381001e-01 6.588259e-01 2.556477e-01 -4.702415e-03 -5.534676e-01
<VARIANCE> 25
 3.612141e+01 5.820985e+01 1.629043e+01 5.220080e+01 6.460557e+01 4.757306e+01 2.409533e+01 5.528106e+01 2.524139e+01 2.295367e+01 2.374623e+01 2.573619e+01 2.381092e+00 4.631277e+00 1.929257e+00 7.531253e+00 5.633969e+00 4.597116e+00 2.127758e+00 5.623868e+00 4.078745e+00 3.996248e+00 3.395880e+00 2.783165e+00 2.464476e+00
<GCONST> 1.050980e+02
<TRANSP> 5
 0.000000e+00 1.000000e+00 0.000000e+00 0.000000e+00 0.000000e+00
 0.000000e+00 7.658303e-01 2.341696e-01 0.000000e+00 0.000000e+00
 0.000000e+00 0.000000e+00 8.358841e-01 1.641159e-01 0.000000e+00
 0.000000e+00 0.000000e+00 0.000000e+00 8.456030e-01 1.543969e-01
 0.000000e+00 0.000000e+00 0.000000e+00 0.000000e+00 0.000000e+00
<ENDHMM>
~h "aw"
<BEGINHMM>
<NUMSTATES> 5
<STATE> 2
<MEAN> 25
 1.262364e+01 -8.681640e+00 2.267822e+00 1.117912e+00 -1.513768e+01 -6.181916e+00 3.296731e+00 -3.461725e+00 5.041786e-01 -7.134454e+00 -1.298269e+00 -4.445914e+00 5.208322e-01 -1.232733e+00 -1.971662e+00 -4.726905e-02 9.120489e-01 3.544293e-01 2.792553e-01 9.344102e-01 8.696126e-01 -1.503202e+00 -9.754214e-01 1.670570e-01 6.569930e-01
<VARIANCE> 25
 5.073601e+00 5.360028e+01 2.044752e+01 6.683638e+00 3.630799e+01 5.032796e+00 2.146581e+01 2.079829e+01 1.821721e+01 3.374244e+01 2.341343e+01 7.744740e+00 3.611752e-01 1.128854e+00 1.822520e+00 8.191977e-01 1.658781e+00 7.218598e-01 1.177331e+00 1.460469e+00 1.775071e+00 1.536012e+00 1.509034e+00 1.075186e+00 6.176416e-01
<GCONST> 8.063174e+01
<STATE> 3
<MEAN> 25
 1.444932e+01 -1.273544e+01 -3.712742e+00 1.302397e+00 -9.343391e+00 -3.045135e+00 1.491768e+00 -3.088904e+00 2.984473e+00 -7.451539e+00 -8.436367e+00 -3.610255e+00 4.324296e-01 -7.511858e-01 -1.112880e+00 -1.923153e-01 7.290935e-01 1.049321e+00 -5.995028e-01 -5.757313e-01 5.698063e-01 7.393018e-01 -6.574447e-01 -6.649854e-01 1.662738e-01
<VARIANCE> 25
 5.042074e+00 1.566224e+01 9.045443e+00 2.313960e+00 1.437898e+01 1.024322e+01 2.021275e+01 1.514925e+01 2.485711e+01 1.856259e+01 9.645551e+00 8.210494e+00 8.818359e-02 2.910140e+00 2.808063e-01 5.691954e-01 1.901915e+00 4.225074e-01 1.071327e+00 1.424538e+00 1.696118e+00 1.060689e+00 6.637181e-01 8.674940e-01 8.528761e-01
<GCONST> 7.146645e+01
<STATE> 4
<MEAN> 25
 1.584200e+01 -7.678364e+00 -8.734053e+00 -3.790737e+00 -3.649488e+00 4.941692e+00 -2.019110e+00 -9.205994e+00 2.821283e+00 -1.268160e+00 -4.938526e+00 -7.608303e+00 1.150218e-01 1.086254e+00 -1.513895e-01 -7.061110e-01 3.763315e-01 6.006853e-01 -2.732745e-01 -6.113610e-01 -3.705561e-01 6.134493e-01 6.660259e-01 1.241949e-01 -5.493939e-01
<VARIANCE> 25
 4.373230e+00 3.107774e+01 6.653913e+00 1.615963e+01 1.679955e+01 2.483748e+01 1.453513e+01 2.024456e+01 3.829492e+01 2.401753e+01 2.929715e+01 1.718338e+01 1.268003e-01 1.108423e+00 5.242306e-01 9.331992e-01 1.234119e+00 9.402930e-01 1.650846e+00 9.439117e-01 2.827394e+00 1.088790e+00 1.839717e+00 2.013371e+00 2.556156e-01
<GCONST> 7.928530e+01
<TRANSP> 5
 0.000000e+00 1.000000e+00 0.000000e+00 0.000000e+00 0.000000e+00
 0.000000e+00 5.990189e-01 4.009812e-01 0.000000e+00 0.000000e+00
 0.000000e+00 0.000000e+00 7.852978e-01 2.147022e-01 0.000000e+00
 0.000000e+00 0.000000e+00 0.000000e+00 8.755629e-01 1.244371e-01
 0.000000e+00 0.000000e+00 0.000000e+00 0.000000e+00 0.000000e+00
<ENDHMM>
~h "ax"
<BEGINHMM>
<NUMSTATES> 5
<STATE> 2
<MEAN> 25
 4.923152e+00 1.931259e+00 2.223264e+00 3.134176e+00 -1.221356e+00 -5.217746e+00 -2.565779e+00 -3.671877e+00 -9.429344e-01 2.828522e-01 -4.616959e+00 -3.572349e+00 -2.328652e-01 1.319173e+00 7.446555e-02 2.471624e-01 1.008733e+00 1.315309e-01 -8.077143e-01 3.619429e-01 -6.470180e-01 -2.102703e-02 -2.029329e-01 -8.471890e-02 -1.207808e+00
<VARIANCE> 25
 7.761703e+01 4.851686e+01 3.330100e+01 2.647018e+01 6.680338e+01 3.813032e+01 5.706773e+01 4.469182e+01 3.863092e+01 3.742422e+01 2.978295e+01 2.463049e+01 6.594304e+00 5.180067e+00 2.739470e+00 2.237487e+00 4.822935e+00 2.014300e+00 3.260475e+00 3.888126e+00 3.483721e+00 2.474852e+00 2.119121e+00 2.793826e+00 5.251334e+00
<GCONST> 1.062721e+02
<STATE> 3
<MEAN> 25
 3.134341e+00 3.846609e+00 2.822095e+00 3.377982e+00 7.018569e-01 -4.803803e+00 -3.175561e+00 -2.697863e+00 -1.553163e+00 -1.286025e+00 -4.118410e+00 -2.533178e+00 5.127299e-01 -4.287378e-01 -4.785360e-01 -3.567713e-01 -2.717132e-01 2.867487e-01 -6.795371e-01 -1.070779e-01 5.596541e-02 -6.872945e-02 -9.567791e-02 1.989137e-01 9.331916e-02
<VARIANCE> 25
 6.371832e+01 4.108551e+01 3.360801e+01 2.856577e+01 6.032202e+01 3.720416e+01 6.568159e+01 4.656011e+01 3.848232e+01 2.060163e+01 2.586312e+01 2.985592e+01 9.421506e+00 5.452430e+00 2.441426e+00 2.397106e+00 6.720041e+00 2.866892e+00 5.038334e+00 5.690176e+00 3.737919e+00 3.492401e+00 2.295456e+00 2.707870e+00 4.766188e+00
<GCONST> 1.077283e+02
<STATE> 4
<MEAN> 25
 4.450818e+00 1.762244e+00 1.541200e+00 1.891966e+00 -9.636281e-01 -4.391673e+00 -3.789315e+00 -4.176696e+00 -4.297620e-01 -1.036239e+00 -4.122271e+00 -2.231452e+00 1.232525e+00 -1.794672e+00 -5.452164e-01 -5.594910e-01 -1.441867e+00 4.503694e-01 1.936443e-02 -7.011355e-01 6.925519e-01 1.239841e-01 8.866191e-03 1.203077e-01 1.479461e+00
<VARIANCE> 25
 6.209511e+01 5.153358e+01 2.767073e+01 1.972460e+01 5.397912e+01 3.936300e+01 4.981773e+01 5.400484e+01 3.964887e+01 2.159563e+01 2.433850e+01 1.949880e+01 9.286807e+00 6.204568e+00 2.150345e+00 3.339888e+00 7.757130e+00 4.117478e+00 7.358855e+00 5.421634e+00 3.879201e+00 4.069761e+00 3.234486e+00 2.286466e+00 4.964910e+00
<GCONST> 1.083320e+02
<TRANSP> 5
 0.000000e+00 1.000000e+00 0.000000e+00 0.000000e+00 0.000000e+00
 0.000000e+00 3.409881e-01 6.590119e-01 0.000000e+00 0.000000e+00
 0.000000e+00 0.000000e+00 1.763843e-01 8.236158e-01 0.000000e+00
 0.000000e+00 0.000000e+00 0.000000e+00 3.316743e-01 6.683257e-01
 0.000000e+00 0.000000e+00 0.000000e+00 0.000000e+00 0.000000e+00
<ENDHMM>
~h "ay"
<BEGINHMM>
<NUMSTATES> 5
<STATE> 2
<MEAN> 25
 1.079189e+01 -5.257094e+00 -5.667701e+00 -2.973589e+00 -3.192428e+00 4.281617e+00 -2.779706e-01 -5.573766e+00 -1.522267e+00 -2.999103e-01 -2.468714e+00 -5.356534e+00 2.659317e+00 -1.197563e+00 -2.045395e+00 -1.362245e+00 -1.744339e-01 1.232921e+00 -5.927606e-01 -7.749470e-01 9.479212e-02 4.699658e-01 -1.339880e-01 -1.610199e+00 2.050632e+00
<VARIANCE> 25
 5.894615e+01 3.458634e+01 3.110216e+01 3.285826e+01 3.066344e+01 3.433757e+01 2.109554e+01 4.460912e+01 4.019852e+01 2.981466e+01 2.946146e+01 1.600061e+01 5.124135e+00 5.580349e+00 2.387145e+00 4.034477e+00 3.354797e+00 2.400378e+00 3.303321e+00 5.480769e+00 5.310777e+00 2.798207e+00 2.736246e+00 2.563711e+00 2.871581e+00
<GCONST> 1.038493e+02
<STATE> 3
<MEAN> 25
 1.614375e+01 -1.052533e+01 -1.032914e+01 -4.499805e+00 -8.874802e-01 4.723869e+00 -3.449752e+00 -7.126171e+00 1.615952e+00 9.151919e-01 -3.991610e+00 -1.068273e+01 3.728569e-04 -8.654934e-01 -2.602164e-02 6.970184e-01 3.216011e-01 -7.330661e-01 -2.745273e-01 5.585228e-01 8.694292e-01 -6.133813e-01 -1.006639e+00 -3.886591e-01 3.956639e-01
<VARIANCE> 25
 3.238665e+00 1.270386e+01 3.757051e+00 9.248477e+00 1.143868e+01 1.167949e+01 1.109939e+01 8.925506e+00 1.740175e+01 1.508247e+01 1.323919e+01 1.485964e+01 1.915283e-01 1.332653e+00 1.002487e+00 1.115218e+00 1.246127e+00 1.947081e+00 9.425899e-01 1.742578e+00 1.361495e+00 1.204025e+00 1.899824e+00 1.400404e+00 2.519381e-01
<GCONST> 7.377746e+01
<STATE> 4
<MEAN> 25
 1.432925e+01 -1.229012e+01 -3.987467e+00 -4.008289e-01 -8.225824e+00 -3.342865e+00 -2.779130e-01 -1.868420e-01 1.988141e+00 -4.950322e+00 -6.654949e+00 -4.552670e+00 -4.532877e-01 5.843165e-01 1.627572e+00 3.284350e-01 -1.605033e+00 -1.261734e+00 6.636566e-01 8.404328e-01 -6.733058e-01 -5.262268e-01 5.351389e-01 1.334184e+00 -2.905949e-01
<VARIANCE> 25
 5.468756e+00 1.390444e+01 1.893014e+01 5.771265e+00 2.883846e+01 1.623145e+01 1.190939e+01 1.578565e+01 1.775706e+01 1.651437e+01 1.489503e+01 2.316888e+01 1.922450e-01 1.224855e+00 9.474855e-01 6.612358e-01 1.380042e+00 1.035850e+00 1.437137e+00 1.836154e+00 1.798428e+00 1.843258e+00 1.591682e+00 1.115354e+00 3.655425e-01
<GCONST> 7.806171e+01
<TRANSP> 5
 0.000000e+00 1.000000e+00 0.000000e+00 0.000000e+00 0.000000e+00
 0.000000e+00 6.504477e-01 3.495523e-01 0.000000e+00 0.000000e+00
 0.000000e+00 0.000000e+00 7.741038e-01 2.258961e-01 0.000000e+00
 0.000000e+00 0.000000e+00 0.000000e+00 8.450806e-01 1.549195e-01
 0.000000e+00 0.000000e+00 0.000000e+00 0.000000e+00 0.000000e+00
<ENDHMM>
~h "ch"
<BEGINHMM>
<NUMSTATES> 5
<STATE> 2
<MEAN> 25
 9.358957e+00 -1.869227e+00 9.210933e+00 1.022821e+00 -1.406537e+01 -5.967201e+00 1.500728e+00 -4.797808e+00 -5.102509e+00 -1.942220e+00 -5.096879e+00 -1.910219e+00 -6.595888e-01 1.916621e+00 -5.449620e-01 1.062831e+00 2.289570e+00 6.309142e-01 -1.471736e-02 1.011581e+00 -3.251658e-01 -6.843978e-01 -3.557328e-01 -3.470857e-02 -2.087356e+00
<VARIANCE> 25
 9.224409e+00 2.293998e+01 6.931161e+01 2.121894e+01 4.093924e+01 3.477647e+01 5.622512e+01 5.408935e+01 4.973237e+01 1.978373e+01 1.290635e+01 2.302676e+01 5.927800e-01 3.064831e+00 2.011812e+00 1.372299e+00 3.187559e+00 1.710209e+00 1.378047e+00 1.247909e+00 1.004635e+00 1.109407e+00 9.359987e-01 9.348835e-01 3.341278e+00
<GCONST> 9.149400e+01
<STATE> 3
<MEAN> 25
 5.236837e+00 8.550137e+00 7.368156e+00 4.559706e+00 -3.696707e+00 -2.642689e+00 -4.118370e+00 -3.836573e+00 -8.416547e+00 -4.503405e+00 -6.805018e+00 -3.194424e+00 -2.245384e+00 -3.727263e-01 -1.409277e+00 3.889151e-02 3.224305e+00 1.613388e+00 -4.968104e-01 8.644753e-01 8.954093e-01 -2.805044e-01 2.995158e-01 6.146230e-01 -1.508829e+00
<VARIANCE> 25
 3.188908e+01 1.146914e+01 4.300316e+01 2.939661e+01 2.858346e+01 2.970620e+01 1.013917e+02 4.363224e+01 5.935732e+01 1.533193e+01 1.880861e+01 2.300797e+01 6.867090e-01 8.374870e+00 4.111956e+00 2.138742e+00 1.770988e+00 2.302917e+00 2.356866e+00 6.706085e-01 5.319225e+00 1.065561e+00 9.724404e-01 1.339471e+00 3.369459e+00
<GCONST> 9.601453e+01
<STATE> 4
<MEAN> 25
 -3.442145e+00 -5.119822e+00 6.822447e+00 7.639782e-01 -4.310569e+00 -4.373097e-02 3.182183e+00 -6.109061e+00 1.010783e+00 -6.543429e+00 -1.295498e+00 3.584898e-01 -1.978517e+00 -3.721249e+00 -2.675695e-01 -6.381423e-01 -9.565190e-01 7.114494e-01 2.726780e+00 3.379826e-01 3.194216e+00 -7.509453e-01 2.021784e+00 6.870009e-01 2.578058e+00
<VARIANCE> 25
 6.010955e+01 9.837711e+01 1.820863e+01 1.496557e+01 6.407133e+01 2.673104e+01 9.834950e+01 4.247496e+01 7.121458e+01 8.504421e+00 2.493736e+01 1.363367e+01 1.310987e+00 1.099507e+01 1.548422e+00 4.606949e+00 8.043875e+00 3.398071e+00 8.330588e+00 2.845860e+00 8.347881e+00 1.835013e+00 1.509007e+00 2.046052e+00 8.534256e+00
<GCONST> 1.053655e+02
<TRANSP> 5
 0.000000e+00 1.000000e+00 0.000000e+00 0.000000e+00 0.000000e+00
 0.000000e+00 7.823318e-01 2.176682e-01 0.000000e+00 0.000000e+00
 0.000000e+00 0.000000e+00 3.329491e-01 6.670510e-01 0.000000e+00
 0.000000e+00 0.000000e+00 0.000000e+00 6.242855e-01 3.757145e-01
 0.000000e+00 0.000000e+00 0.000000e+00 0.000000e+00 0.000000e+00
<ENDHMM>
~h "dh"
<BEGINHMM>
<NUMSTATES> 5
<STATE> 2
<MEAN> 25
 4.983684e+00 -2.679118e+00 9.738859e-01 3.963211e+00 -4.113620e+00 -5.973331e+00 -1.512657e+00 -4.669203e+00 1.477762e+00 -1.995653e+00 -4.957917e+00 -2.550250e+00 2.224300e+00 -8.783516e-01 -3.557008e-03 6.308733e-02 -2.076486e+00 -9.562979e-01 -9.955836e-01 -1.655634e+00 3.359098e-01 5.445904e-01 -3.149050e-01 -7.526692e-01 2.177418e+00
<VARIANCE> 25
 4.694970e+01 3.235777e+01 2.651048e+01 1.747344e+01 3.946327e+01 3.102551e+01 5.951532e+01 3.468397e+01 3.029628e+01 2.372084e+01 1.589036e+01 1.557735e+01 6.415697e+00 6.685865e+00 4.005147e+00 4.456775e+00 6.529214e+00 5.056025e+00 7.219023e+00 5.698907e+00 5.549615e+00 2.842206e+00 3.229608e+00 2.372636e+00 6.773200e+00
<GCONST> 1.068049e+02
<STATE> 3
<MEAN> 25
 9.478933e+00 -2.829329e+00 2.059776e+00 3.056077e+00 -7.274274e+00 -6.534611e+00 -4.517966e+00 -9.815263e+00 1.505843e+00 1.386861e-01 -3.540309e+00 -4.323945e+00 -2.040598e-01 1.570638e+00 8.106212e-01 2.924640e-01 1.113470e+00 8.248926e-01 -3.246965e-01 -3.179818e-01 -1.785944e+00 1.675110e-01 6.849968e-01 -6.337060e-01 -1.009478e+00
<VARIANCE> 25
 3.378111e+01 2.990294e+01 3.145903e+01 3.718178e+01 4.810856e+01 3.398242e+01 6.304232e+01 3.514593e+01 6.864407e+01 3.239059e+01 2.290593e+01 1.672972e+01 3.559397e+00 5.693240e+00 2.738420e+00 2.946487e+00 7.050786e+00 2.906550e+00 3.033417e+00 3.947902e+00 7.983984e+00 2.632299e+00 2.008249e+00 1.534772e+00 4.557388e+00
<GCONST> 1.049748e+02
<STATE> 4
<MEAN> 25
 7.260050e+00 4.019328e+00 5.505585e+00 6.164735e+00 -2.407454e+00 -3.450612e+00 -3.061565e+00 -7.830590e+00 -5.517850e+00 -1.190755e-02 -3.112701e+00 -5.858785e+00 -1.226863e+00 1.861650e+00 2.287129e-01 2.045262e-02 1.950234e+00 4.266529e-01 -1.650297e-01 1.647526e+00 -3.359708e-01 -3.423156e-01 1.045379e-01 2.531329e-01 -1.994521e+00
<VARIANCE> 25
 3.550531e+01 3.388808e+01 5.043061e+01 4.486996e+01 6.392886e+01 5.495346e+01 7.506247e+01 4.628856e+01 4.721489e+01 2.791829e+01 2.430477e+01 1.300999e+01 3.961257e+00 5.535886e+00 2.259287e+00 3.073145e+00 4.436164e+00 2.488772e+00 3.085012e+00 3.121853e+00 2.882229e+00 2.778106e+00 2.115456e+00 1.884334e+00 4.909149e+00
<GCONST> 1.047683e+02
<TRANSP> 5
 0.000000e+00 1.000000e+00 0.000000e+00 0.000000e+00 0.000000e+00
 0.000000e+00 5.716668e-01 4.283332e-01 0.000000e+00 0.000000e+00
 0.000000e+00 0.000000e+00 4.408126e-01 5.591874e-01 0.000000e+00
 0.000000e+00 0.000000e+00 0.000000e+00 4.773412e-01 5.226588e-01
 0.000000e+00 0.000000e+00 0.000000e+00 0.000000e+00 0.000000e+00
<ENDHMM>
~h "dx"
<BEGINHMM>
<NUMSTATES> 5
<STATE> 2
<MEAN> 25
 1.019146e+01 -5.790108e+00 4.871032e+00 4.231752e+00 -1.210692e+01 -8.932569e+00 -7.968440e+00 -4.477930e+00 -1.270572e+00 -3.738412e+00 -1.100317e+00 -6.316456e-01 -1.119512e-01 5.550252e-01 1.072252e+00 -2.150563e-01 -4.765458e-01 3.802958e-01 4.452674e-01 -2.153186e-01 -7.085794e-01 2.691578e-01 -4.867569e-02 1.653649e-02 -5.516419e-01
<VARIANCE> 25
 2.562265e+01 8.142551e+00 5.558889e+01 1.354647e+01 8.972501e+01 1.459759e+01 2.818195e+01 1.355630e+01 2.624258e+01 7.498059e+00 2.061416e+01 8.535254e+00 2.267411e+00 3.484848e+00 3.244097e+00 1.126176e+00 1.046191e+01 1.473887e+00 3.133488e+00 1.628407e+00 1.162143e+00 1.158338e+00 3.847313e+00 9.266624e-01 1.832529e+00
<GCONST> 9.138923e+01
<STATE> 3
<MEAN> 25
 5.691911e+00 8.175024e-01 9.005439e+00 2.688483e+00 -4.712436e+00 -5.830574e+00 -6.954942e+00 -4.783347e+00 -3.018668e+00 -3.026955e+00 -3.482334e+00 -6.768767e-01 -1.701699e+00 2.098683e+00 5.109413e-01 -8.049524e-02 2.326201e+00 1.101221e-01 2.691449e-01 4.138929e-01 -5.964141e-02 -6.856627e-02 -4.397164e-01 1.725720e-01 -1.949234e+00
<VARIANCE> 25
 2.817014e+01 3.440235e+01 2.609004e+01 1.257262e+01 6.364724e+01 2.280664e+01 2.029257e+01 1.526627e+01 2.302987e+01 1.392662e+01 1.084554e+01 2.188998e+01 5.696080e+00 3.530355e+00 5.539474e+00 1.187026e+00 4.809836e+00 1.342602e+00 1.532366e+00 1.894839e+00 2.811145e+00 1.484565e+00 1.552327e+00 1.498593e+00 3.220345e+00
<GCONST> 9.413129e+01
<STATE> 4
<MEAN> 25
 -5.507463e+00 3.307198e+00 3.133506e+00 -3.172752e-01 2.567585e+00 -7.209646e+00 1.034021e+00 -2.304454e+00 -5.052695e-01 -2.729155e+00 -3.292620e-02 8.199535e-01 -1.210149e+00 -6.037569e-01 -4.817577e-01 -3.729575e-01 6.925150e-01 1.168795e-01 2.080206e+00 1.366812e-02 3.605610e-01 -7.531285e-02 4.072061e-01 2.987643e-01 9.042602e-01
<VARIANCE> 25
 5.969690e+01 3.194537e+01 3.540772e+01 2.870357e+01 4.575576e+01 2.740073e+01 8.413043e+01 1.771129e+01 2.246178e+01 1.480020e+01 2.566131e+01 1.579194e+01 9.023140e+00 3.370417e+00 4.554090e+00 4.887463e+00 4.621942e+00 2.734194e+00 7.325267e+00 3.060998e+00 2.744719e+00 2.126766e+00 3.091250e+00 1.273886e+00 6.779104e+00
<GCONST> 1.038886e+02
<TRANSP> 5
 0.000000e+00 1.000000e+00 0.000000e+00 0.000000e+00 0.000000e+00
 0.000000e+00 6.709934e-01 3.290066e-01 0.000000e+00 0.000000e+00
 0.000000e+00 0.000000e+00 6.638370e-01 3.361630e-01 0.000000e+00
 0.000000e+00 0.000000e+00 0.000000e+00 7.091602e-01 2.908398e-01
 0.000000e+00 0.000000e+00 0.000000e+00 0.000000e+00 0.000000e+00
<ENDHMM>
~h "eh"
<BEGINHMM>
<NUMSTATES> 5
<STATE> 2
<MEAN> 25
 4.384964e+00 6.460234e-01 3.781868e+00 4.809092e+00 -1.064361e+00 -4.538269e+00 1.289628e+00 -1.607130e+00 -1.106822e+00 -1.750579e+00 -3.646660e+00 -1.560996e+00 1.346647e+00 8.519877e-02 1.338368e-01 2.125629e-01 -6.689128e-01 2.988887e-01 -1.267908e+00 -2.414156e-01 1.370182e-01 2.956795e-01 -1.459697e-01 -6.832414e-01 6.207764e-03
<VARIANCE> 25
 7.183123e+01 5.909247e+01 4.629736e+01 2.788340e+01 9.633115e+01 5.283627e+01 3.933563e+01 5.428835e+01 5.622645e+01 1.816105e+01 3.063691e+01 2.318328e+01 1.638789e+01 3.332350e+00 3.884926e+00 1.030102e+00 1.651015e+01 3.216791e+00 7.187056e+00 2.556948e+00 2.935863e+00 2.110147e+00 2.386200e+00 1.783287e+00 5.017184e+00
<GCONST> 1.083144e+02
<STATE> 3
<MEAN> 25
 5.682759e+00 -4.430212e-01 2.149864e+00 3.642630e+00 -3.668014e+00 -5.044425e+00 5.001348e-01 -3.335961e+00 -3.529495e-01 -1.780446e+00 -3.385774e+00 -2.038318e+00 1.394621e+00 -9.205039e-01 -1.308163e-01 -4.200596e-01 -1.781810e+00 -1.743619e-01 -1.117006e+00 -1.061714e+00 -2.774256e-02 3.389423e-01 1.036237e-01 -7.051646e-01 1.042125e+00
<VARIANCE> 25
 7.017556e+01 4.774334e+01 4.747915e+01 3.245968e+01 9.173586e+01 5.551718e+01 5.090013e+01 4.309976e+01 4.011668e+01 1.625630e+01 2.536975e+01 1.816015e+01 1.044792e+01 3.723599e+00 5.285432e+00 1.253544e+00 1.453071e+01 7.615259e+00 5.338029e+00 4.321728e+00 3.591718e+00 2.431607e+00 2.308298e+00 1.567224e+00 8.396858e+00
<GCONST> 1.092239e+02
<STATE> 4
<MEAN> 25
 5.881958e+00 -2.429924e+00 2.017018e+00 2.864691e+00 -6.749769e+00 -5.757300e+00 -6.475397e-01 -5.216905e+00 3.247578e-01 -1.398748e+00 -1.864152e+00 -3.462391e+00 3.296479e-01 -1.499333e+00 -5.762329e-01 -9.785115e-01 -1.143006e+00 5.809522e-01 -4.107894e-01 -4.990898e-01 5.501803e-01 9.507070e-01 1.891818e-01 -8.093357e-01 4.749739e-01
<VARIANCE> 25
 9.487463e+01 6.312913e+01 4.681112e+01 2.760006e+01 1.398247e+02 4.434643e+01 4.537257e+01 3.656101e+01 4.011310e+01 1.686610e+01 2.316371e+01 1.933252e+01 4.040930e+00 3.898028e+00 5.915561e+00 1.592006e+00 7.119001e+00 3.254870e+00 1.622213e+00 3.981547e+00 3.313469e+00 2.006057e+00 2.647579e+00 1.650059e+00 4.377209e+00
<GCONST> 1.054293e+02
<TRANSP> 5
 0.000000e+00 1.000000e+00 0.000000e+00 0.000000e+00 0.000000e+00
 0.000000e+00 1.023562e-01 8.976439e-01 0.000000e+00 0.000000e+00
 0.000000e+00 0.000000e+00 1.779368e-01 8.220632e-01 0.000000e+00
 0.000000e+00 0.000000e+00 0.000000e+00 1.800349e-01 8.199651e-01
 0.000000e+00 0.000000e+00 0.000000e+00 0.000000e+00 0.000000e+00
<ENDHMM>
~h "er"
<BEGINHMM>
<NUMSTATES> 5
<STATE> 2
<MEAN> 25
 1.232383e+01 -4.775332e+00 2.794584e+00 1.912242e+00 -1.058245e+01 -6.785764e+00 -5.245111e+00 -6.645699e+00 -7.595885e-01 -4.207736e-01 -3.372271e+00 -4.482549e+00 5.121536e-01 -6.639013e-01 -4.471535e-01 5.000471e-02 -5.766718e-01 -3.939655e-01 -8.492143e-01 1.361737e-01 7.356839e-01 -9.525245e-02 3.902367e-01 1.351954e-01 4.536484e-01
<VARIANCE> 25
 1.965073e+01 3.184060e+01 4.027516e+01 2.306030e+01 5.584358e+01 3.142706e+01 3.213449e+01 2.663301e+01 2.170879e+01 1.375916e+01 1.966774e+01 1.070933e+01 2.325147e+00 2.139153e+00 3.575605e+00 2.706638e+00 3.650622e+00 3.683532e+00 3.451888e+00 3.834971e+00 1.823195e+00 2.575917e+00 1.846408e+00 1.708580e+00 1.288071e+00
<GCONST> 9.649619e+01
<STATE> 3
<MEAN> 25
 1.266821e+01 -6.381737e+00 -2.539473e-01 1.811843e+00 -9.347090e+00 -7.825903e+00 -8.061554e+00 -5.385057e+00 1.651687e+00 -1.197713e-02 -3.559268e+00 -4.322162e+00 8.394647e-02 4.763945e-01 -5.153077e-01 1.751037e-01 4.664010e-01 5.935345e-01 -4.669076e-01 -2.006332e-01 5.701720e-01 -3.510092e-01 1.289604e-01 4.049006e-01 -4.397582e-01
<VARIANCE> 25
 2.676540e+01 3.261016e+01 4.077984e+01 2.798323e+01 5.500846e+01 4.010846e+01 4.115369e+01 3.663308e+01 1.856744e+01 2.196227e+01 2.075149e+01 1.364145e+01 1.721731e+00 1.544369e+00 3.410983e+00 1.926400e+00 2.872134e+00 1.797934e+00 3.073754e+00 3.017812e+00 2.969870e+00 2.080400e+00 1.419715e+00 3.077349e+00 7.336647e-01
<GCONST> 9.614788e+01
<STATE> 4
<MEAN> 25
 1.413849e+01 -5.414775e+00 -5.105609e+00 3.452158e+00 -3.701368e+00 -6.274227e+00 -9.036405e+00 -2.822647e+00 5.400320e-01 -2.622439e+00 -2.501805e+00 -1.409179e-01 -5.297694e-01 4.905081e-01 4.205582e-01 -5.365136e-02 3.834995e-01 6.496412e-01 7.626674e-01 1.255083e-01 -1.415978e-01 -7.217439e-02 -7.612024e-02 2.925280e-01 -5.112460e-01
<VARIANCE> 25
 4.264991e+01 3.285746e+01 5.944350e+01 2.066218e+01 8.178014e+01 5.868136e+01 6.178619e+01 5.482069e+01 2.844839e+01 1.987220e+01 1.812259e+01 2.788966e+01 1.638271e+00 2.549338e+00 2.422946e+00 1.325256e+00 3.863506e+00 1.675581e+00 2.333571e+00 2.877725e+00 2.133422e+00 1.728524e+00 1.729737e+00 2.963470e+00 1.318231e+00
<GCONST> 9.905600e+01
<TRANSP> 5
 0.000000e+00 1.000000e+00 0.000000e+00 0.000000e+00 0.000000e+00
 0.000000e+00 4.218638e-01 5.781363e-01 0.000000e+00 0.000000e+00
 0.000000e+00 0.000000e+00 3.289119e-01 6.710880e-01 0.000000e+00
 0.000000e+00 0.000000e+00 0.000000e+00 6.070261e-01 3.929739e-01
 0.000000e+00 0.000000e+00 0.000000e+00 0.000000e+00 0.000000e+00
<ENDHMM>
~h "ey"
<BEGINHMM>
<NUMSTATES> 5
<STATE> 2
<MEAN> 25
 1.402915e+01 -8.605934e+00 -2.880523e+00 1.624429e+00 -9.599831e+00 -5.420291e+00 -4.792625e-01 -4.983593e+00 1.946147e+00 1.332409e+00 -4.733542e+00 -9.188481e+00 3.273442e-01 -1.437180e+00 -3.979987e-01 -3.911425e-01 -1.114887e+00 -1.116340e+00 5.026517e-01 1.577092e+00 1.443704e+00 -1.359195e+00 -6.142793e-01 4.296704e-01 1.353657e+00
<VARIANCE> 25
 1.193556e+01 2.551433e+01 3.090767e+01 2.262428e+01 2.215885e+01 1.182499e+01 1.394275e+01 3.829561e+01 4.287368e+01 3.871315e+01 1.942651e+01 2.547191e+01 1.778584e+00 1.771606e+00 2.707243e+00 2.876813e+00 1.251801e+00 1.559422e+00 2.891510e+00 2.726144e+00 3.338476e+00 3.186892e+00 2.248139e+00 3.866717e+00 1.279140e+00
<GCONST> 9.439025e+01
<STATE> 3
<MEAN> 25
 1.328038e+01 -1.058821e+01 -1.162341e-01 9.542662e-01 -1.488122e+01 -7.166638e+00 3.513959e+00 -2.058301e-01 1.490565e+00 -3.416950e+00 -3.085404e+00 -3.695605e+00 -1.368397e-01 1.256626e-01 1.174985e+00 6.639773e-02 -1.053873e+00 -2.925028e-01 3.121789e-01 -2.052196e-01 -1.116229e+00 1.338165e-01 1.081012e+00 6.392316e-01 -1.504358e-01
<VARIANCE> 25
 9.040043e+00 9.488205e+00 1.861791e+01 6.018817e+00 2.379025e+01 8.983083e+00 9.081893e+00 1.324536e+01 2.493176e+01 2.069825e+01 1.728119e+01 1.496067e+01 2.703693e-01 7.831100e-01 1.415635e+00 3.344454e-01 9.906566e-01 4.781015e-01 7.211188e-01 1.780653e+00 1.246174e+00 1.044749e+00 1.743918e+00 9.066413e-01 2.616481e-01
<GCONST> 7.365723e+01
<STATE> 4
<MEAN> 25
 1.172963e+01 -6.248897e+00 8.517046e+00 2.161909e+00 -1.896746e+01 -7.896473e+00 3.145457e+00 -6.676867e+00 -6.744431e+00 -1.320145e-01 2.097386e+00 -3.303699e+00 -4.130726e-01 1.563850e+00 9.823084e-01 1.103540e+00 8.494736e-01 9.473063e-02 -5.945045e-01 -9.038123e-01 -1.237666e+00 2.636299e-01 -2.553400e-01 -3.065082e-01 -1.306588e+00
<VARIANCE> 25
 6.705729e+00 1.944457e+01 2.571927e+01 1.940096e+01 1.939724e+01 1.256339e+01 1.081288e+01 2.208732e+01 1.841903e+01 9.816777e+00 1.196270e+01 1.456830e+01 9.911271e-01 1.400758e+00 2.360052e+00 1.534934e+00 3.576274e+00 8.700853e-01 1.455678e+00 1.588559e+00 2.154768e+00 1.154158e+00 1.719045e+00 1.578967e+00 1.137303e+00
<GCONST> 8.398679e+01
<TRANSP> 5
 0.000000e+00 1.000000e+00 0.000000e+00 0.000000e+00 0.000000e+00
 0.000000e+00 6.330965e-01 3.669035e-01 0.000000e+00 0.000000e+00
 0.000000e+00 0.000000e+00 8.295362e-01 1.704638e-01 0.000000e+00
 0.000000e+00 0.000000e+00 0.000000e+00 7.351068e-01 2.648931e-01
 0.000000e+00 0.000000e+00 0.000000e+00 0.000000e+00 0.000000e+00
<ENDHMM>
~h "hh"
<BEGINHMM>
<NUMSTATES> 5
<STATE> 2
<MEAN> 25
 -3.606438e+00 -5.668624e+00 5.571041e+00 9.306525e-01 -3.890068e+00 -4.409632e-01 5.408979e+00 7.200598e-01 6.882554e-01 -3.832209e+00 -4.011087e-01 1.039446e-01 2.173707e+00 -8.296288e-01 1.040540e+00 6.421556e-01 -1.604172e+00 -9.629092e-02 -3.595358e-01 -4.041680e-01 -7.047852e-01 -2.532750e-03 -7.958391e-01 -8.492872e-01 9.762994e-01
<VARIANCE> 25
 5.208857e+01 4.395636e+01 4.130454e+01 2.338835e+01 3.818159e+01 4.074171e+01 4.485264e+01 6.792307e+01 2.663728e+01 3.980413e+01 3.183978e+01 1.564615e+01 3.801259e+00 5.366560e+00 5.379275e+00 1.906525e+00 3.703166e+00 2.848659e+00 5.330642e+00 5.428167e+00 2.946533e+00 3.535577e+00 2.035827e+00 2.012198e+00 3.879015e+00
<GCONST> 1.052785e+02
<STATE> 3
<MEAN> 25
 9.084343e+00 -3.981004e+00 7.473572e+00 2.581313e+00 -1.023415e+01 -3.003799e+00 -4.030663e-01 -4.489509e+00 -2.240613e+00 -2.838321e+00 -3.599891e+00 -4.299032e+00 2.569811e+00 2.665516e-01 -1.362747e-01 6.405080e-01 -1.510192e+00 -1.109710e+00 -8.564962e-01 -2.198592e+00 -6.713902e-01 8.309225e-01 -2.138713e-01 -1.340233e+00 1.719816e+00
<VARIANCE> 25
 3.946983e+01 2.434441e+01 7.604198e+01 2.169355e+01 3.202911e+01 3.284985e+01 3.261195e+01 5.566189e+01 2.600231e+01 2.029473e+01 2.323507e+01 1.211503e+01 3.321773e+00 4.120969e+00 6.234086e+00 2.891839e+00 4.040170e+00 2.738171e+00 3.400890e+00 2.773736e+00 3.320675e+00 3.281469e+00 1.744520e+00 1.506948e+00 4.374568e+00
<GCONST> 1.015814e+02
<STATE> 4
<MEAN> 25
 1.287595e+01 -1.606676e-01 4.625502e+00 7.447545e+00 -8.047292e+00 -4.247502e+00 -1.711234e+00 -1.179716e+01 -4.921911e+00 1.262778e+00 -4.041326e+00 -9.952500e+00 9.675711e-02 5.952440e-01 3.427078e-01 -1.695542e-01 4.959664e-02 1.463711e-02 -1.907057e-01 -2.013906e-01 -2.793802e-01 2.911069e-01 -8.332174e-02 -6.333645e-02 -6.418081e-02
<VARIANCE> 25
 7.701529e+00 2.333831e+01 3.352134e+01 2.149680e+01 3.356817e+01 1.137014e+01 3.264392e+01 3.698972e+01 2.345513e+01 1.875722e+01 1.363417e+01 1.677710e+01 1.233520e+00 3.131840e+00 2.682116e+00 1.608814e+00 2.499697e+00 1.638585e+00 1.786923e+00 4.079449e+00 2.941645e+00 1.715052e+00 1.090964e+00 2.301897e+00 2.170703e+00
<GCONST> 9.180298e+01
<TRANSP> 5
 0.000000e+00 1.000000e+00 0.000000e+00 0.000000e+00 0.000000e+00
 0.000000e+00 7.080156e-01 2.919844e-01 0.000000e+00 0.000000e+00
 0.000000e+00 0.000000e+00 5.334898e-01 4.665103e-01 0.000000e+00
 0.000000e+00 0.000000e+00 0.000000e+00 6.817380e-01 3.182620e-01
 0.000000e+00 0.000000e+00 0.000000e+00 0.000000e+00 0.000000e+00
<ENDHMM>
~h "ih"
<BEGINHMM>
<NUMSTATES> 5
<STATE> 2
<MEAN> 25
 4.662620e+00 -3.287315e-03 1.467399e-01 1.386239e+00 -1.214288e+00 -4.792857e+00 -3.469281e+00 -4.201773e+00 2.909791e-02 1.472872e+00 -2.988090e+00 -3.019938e+00 1.005721e-01 -5.077434e-01 4.847430e-01 -4.114428e-02 -1.031680e+00 -9.190031e-01 -6.138429e-01 2.032116e-01 8.339025e-01 -2.317633e-01 -2.000670e-01 3.118400e-01 4.418185e-01
<VARIANCE> 25
 9.506996e+01 3.101091e+01 2.944403e+01 2.462669e+01 5.541021e+01 2.992450e+01 3.763387e+01 4.018443e+01 4.067031e+01 2.660573e+01 2.320979e+01 2.522733e+01 9.855870e+00 3.614436e+00 2.968574e+00 2.291548e+00 5.727914e+00 3.267677e+00 5.927169e+00 4.817762e+00 4.336153e+00 3.059420e+00 1.984695e+00 2.678819e+00 4.928592e+00
<GCONST> 1.062389e+02
<STATE> 3
<MEAN> 25
 4.275185e+00 -1.777021e+00 9.939264e-01 1.758627e+00 -3.170951e+00 -5.483851e+00 -3.219632e+00 -4.423795e+00 1.387589e+00 1.051173e+00 -2.751269e+00 -2.693217e+00 3.355346e-01 -6.432728e-01 7.740032e-01 2.720383e-01 -9.305738e-01 -2.368938e-01 -4.241976e-01 5.701477e-02 2.490476e-01 -3.599755e-01 -1.717567e-01 2.885404e-01 5.844104e-01
<VARIANCE> 25
 1.172989e+02 3.365945e+01 3.112518e+01 2.515658e+01 6.704115e+01 2.539702e+01 6.939326e+01 3.834367e+01 4.001352e+01 2.335628e+01 2.334267e+01 2.852011e+01 5.569928e+00 4.256186e+00 3.338458e+00 2.235662e+00 5.479848e+00 2.451788e+00 4.832854e+00 3.527584e+00 4.064664e+00 2.869825e+00 1.872021e+00 2.350818e+00 5.669668e+00
<GCONST> 1.058416e+02
<STATE> 4
<MEAN> 25
 5.807012e+00 -4.036356e+00 3.552199e+00 2.204667e+00 -6.700109e+00 -5.976166e+00 -2.939309e+00 -4.264810e+00 1.399531e+00 -5.117573e-01 -2.194286e+00 -1.579729e+00 5.631565e-01 1.958132e-01 6.513179e-01 2.542494e-01 -4.076982e-01 1.365542e-03 -1.250168e-01 -8.255651e-02 -8.142905e-02 -6.997954e-01 -3.178122e-01 4.282920e-01 6.044143e-01
<VARIANCE> 25
 7.148164e+01 3.810298e+01 4.239726e+01 1.586876e+01 7.173296e+01 2.361380e+01 5.520087e+01 3.431077e+01 3.422961e+01 3.521891e+01 1.893416e+01 2.371952e+01 7.076748e+00 4.785538e+00 2.723428e+00 2.142355e+00 6.812067e+00 2.812065e+00 3.800308e+00 3.622937e+00 3.511260e+00 1.969387e+00 2.384608e+00 2.366918e+00 7.557384e+00
<GCONST> 1.050993e+02
<TRANSP> 5
 0.000000e+00 1.000000e+00 0.000000e+00 0.000000e+00 0.000000e+00
 0.000000e+00 2.634299e-01 7.365701e-01 0.000000e+00 0.000000e+00
 0.000000e+00 0.000000e+00 1.750364e-01 8.249636e-01 0.000000e+00
 0.000000e+00 0.000000e+00 0.000000e+00 3.237596e-01 6.762404e-01
 0.000000e+00 0.000000e+00 0.000000e+00 0.000000e+00 0.000000e+00
<ENDHMM>
~h "ix"
<BEGINHMM>
<NUMSTATES> 5
<STATE> 2
<MEAN> 25
 -5.744622e-01 3.586121e-01 3.854071e+00 -1.356022e+00 -9.888154e-02 4.888622e-01 -1.228917e+00 -1.964599e+00 5.859827e-01 -3.400564e+00 -1.367284e+00 -6.985570e-01 4.262860e-01 1.245240e-01 1.093513e+00 -5.269980e-01 -2.689428e-01 -8.080714e-01 -1.296480e+00 -2.329378e-01 -6.993130e-01 -7.421178e-01 -3.820442e-01 -9.529609e-01 1.044617e+00
<VARIANCE> 25
 9.539612e+01 6.579357e+01 2.964360e+01 2.765874e+01 6.963029e+01 3.573846e+01 4.635235e+01 5.419963e+01 5.179302e+01 2.107142e+01 3.608894e+01 1.515079e+01 1.158605e+01 6.212602e+00 2.623020e+00 4.481286e+00 1.013291e+01 5.031319e+00 3.943797e+00 5.200403e+00 4.350987e+00 3.709521e+00 7.053955e+00 3.171787e+00 7.800139e+00
<GCONST> 1.119846e+02
<STATE> 3
<MEAN> 25
 4.846887e+00 -1.312098e-01 6.085817e+00 8.929205e-02 -4.675472e+00 -3.567084e+00 -3.500167e+00 -3.344346e+00 -1.243926e+00 -4.177655e+00 -3.191374e+00 -3.070313e+00 1.519129e+00 -9.400530e-01 1.495672e-01 -7.954296e-02 -1.643489e+00 -1.162655e+00 -1.328031e+00 -2.782693e-01 3.093995e-02 4.466763e-02 -1.243479e-01 -8.055939e-02 1.641601e+00
<VARIANCE> 25
 5.757533e+01 5.501899e+01 3.658772e+01 3.191484e+01 7.317632e+01 4.237709e+01 5.944637e+01 2.725586e+01 3.993511e+01 1.463146e+01 2.726944e+01 1.277024e+01 1.216572e+01 5.216254e+00 2.426797e+00 2.882771e+00 6.758358e+00 2.227913e+00 6.727680e+00 3.918071e+00 3.271790e+00 2.625209e+00 4.605310e+00 1.571551e+00 5.349057e+00
<GCONST> 1.066097e+02
<STATE> 4
<MEAN> 25
 7.177150e+00 -3.012500e+00 4.459878e+00 2.810617e-01 -7.360921e+00 -5.205849e+00 -5.713723e+00 -3.802786e+00 3.586006e-02 -3.215739e+00 -2.736673e+00 -2.465989e+00 2.816222e-01 -1.279064e-02 -4.024737e-01 3.693511e-01 -7.628394e-01 -6.596102e-01 4.368050e-01 -1.004407e+00 2.859004e-01 6.602567e-01 -4.224806e-01 4.210964e-01 3.010576e-01
<VARIANCE> 25
 5.503263e+01 4.556215e+01 2.899754e+01 2.540800e+01 6.728371e+01 4.029728e+01 5.355849e+01 3.018745e+01 2.839620e+01 2.732235e+01 3.075396e+01 9.782396e+00 6.570735e+00 6.360758e+00 4.036466e+00 3.788688e+00 6.471013e+00 3.115196e+00 6.513777e+00 4.037427e+00 4.100631e+00 2.330656e+00 3.122881e+00 1.862467e+00 5.002170e+00
<GCONST> 1.063913e+02
<TRANSP> 5
 0.000000e+00 1.000000e+00 0.000000e+00 0.000000e+00 0.000000e+00
 0.000000e+00 4.626599e-01 5.373402e-01 0.000000e+00 0.000000e+00
 0.000000e+00 0.000000e+00 2.363659e-01 7.636341e-01 0.000000e+00
 0.000000e+00 0.000000e+00 0.000000e+00 2.704635e-01 7.295365e-01
 0.000000e+00 0.000000e+00 0.000000e+00 0.000000e+00 0.000000e+00
<ENDHMM>
~h "iy"
<BEGINHMM>
<NUMSTATES> 5
<STATE> 2
<MEAN> 25
 9.308884e+00 -3.730300e+00 6.918508e+00 2.932651e+00 -1.317987e+01 -7.603353e+00 -4.843761e-01 -6.261425e+00 -4.463006e+00 -3.443016e+00 -9.495670e-01 -1.280772e+00 9.335352e-01 -2.487748e-01 2.145242e+00 3.522789e-02 -3.220451e+00 -2.178159e-01 5.305878e-01 -8.702948e-01 -1.862205e+00 -1.494483e-01 6.709836e-01 -3.606687e-01 7.863981e-01
<VARIANCE> 25
 2.777768e+01 2.611284e+01 4.647518e+01 1.699168e+01 6.236301e+01 4.285671e+01 3.629319e+01 4.443065e+01 3.544409e+01 2.702419e+01 1.836820e+01 1.936251e+01 5.335295e+00 3.517823e+00 2.848961e+00 2.838266e+00 5.719225e+00 5.801494e+00 7.062913e+00 5.003035e+00 4.467436e+00 3.898990e+00 3.430936e+00 2.475360e+00 2.255705e+00
<GCONST> 1.051197e+02
<STATE> 3
<MEAN> 25
 8.969112e+00 -2.425743e+00 1.364938e+01 2.104935e+00 -1.899888e+01 -4.684496e+00 1.242051e+00 -1.208854e+01 -8.821246e+00 -1.423795e+00 -4.275824e-01 -4.254268e+00 -2.635856e-01 4.449183e-01 9.386874e-01 -3.274788e-01 -3.270143e-01 8.008728e-01 1.077724e-01 -1.423227e+00 -6.596352e-01 9.437476e-01 -4.791136e-01 -6.539875e-01 -2.485379e-01
<VARIANCE> 25
 1.235504e+01 2.185769e+01 2.723176e+01 1.587809e+01 3.652657e+01 3.613901e+01 1.158619e+01 2.958807e+01 1.778239e+01 2.035887e+01 1.438916e+01 1.239606e+01 1.074534e+00 2.210016e+00 2.967599e+00 1.468467e+00 3.698445e+00 4.051932e+00 1.763758e+00 2.660513e+00 2.422571e+00 1.948894e+00 1.387227e+00 1.661913e+00 1.668260e+00
<GCONST> 9.120213e+01
<STATE> 4
<MEAN> 25
 6.668778e+00 1.232221e+00 1.153931e+01 1.089989e+00 -1.328089e+01 -8.992189e-01 9.239948e-01 -1.079119e+01 -7.968584e+00 1.186820e+00 -2.632581e+00 -4.277260e+00 -3.379862e-01 3.206726e-01 -7.241080e-01 3.311124e-01 1.193232e+00 1.166631e-01 -1.307749e-01 6.108205e-01 2.796923e-01 -2.130383e-01 -1.635194e-01 1.001540e-01 -7.011120e-01
<VARIANCE> 25
 3.199776e+01 3.611728e+01 5.901471e+01 1.806804e+01 1.135471e+02 3.946210e+01 1.566319e+01 8.343298e+01 2.534414e+01 1.597984e+01 1.747947e+01 2.126599e+01 1.158603e+00 1.314977e+00 1.883152e+00 1.712497e+00 3.100587e+00 1.990637e+00 1.475625e+00 2.715595e+00 1.600505e+00 1.725178e+00 1.690188e+00 1.055196e+00 1.174128e+00
<GCONST> 9.403104e+01
<TRANSP> 5
 0.000000e+00 1.000000e+00 0.000000e+00 0.000000e+00 0.000000e+00
 0.000000e+00 5.471841e-01 4.528159e-01 0.000000e+00 0.000000e+00
 0.000000e+00 0.000000e+00 5.840595e-01 4.159404e-01 0.000000e+00
 0.000000e+00 0.000000e+00 0.000000e+00 8.092400e-01 1.907600e-01
 0.000000e+00 0.000000e+00 0.000000e+00 0.000000e+00 0.000000e+00
<ENDHMM>
~h "jh"
<BEGINHMM>
<NUMSTATES> 5
<STATE> 2
<MEAN> 25
 1.035605e+01 -5.467063e-01 1.098205e+01 -4.504385e-01 -1.711982e+01 -9.309153e-01 3.083547e-01 -1.146517e+01 -6.800257e+00 -6.948546e-01 1.326010e+00 -3.458550e+00 -2.034910e-01 8.434939e-01 -9.337373e-01 9.265848e-01 1.541314e+00 -7.308440e-01 7.954708e-02 1.010464e+00 -8.027065e-02 -5.408510e-01 -6.193690e-03 1.612614e-01 -9.807174e-01
<VARIANCE> 25
 6.607399e+00 1.600447e+01 2.024904e+01 2.535710e+01 3.153080e+01 2.650325e+01 1.365408e+01 2.330204e+01 2.340061e+01 6.488474e+00 9.636527e+00 7.860612e+00 8.714263e-01 3.364558e+00 1.187231e+00 8.181482e-01 4.613780e+00 2.700779e+00 1.489552e+00 1.998358e+00 7.938468e-01 4.232624e-01 2.001822e+00 6.904957e-01 2.832320e+00
<GCONST> 8.362434e+01
<STATE> 3
<MEAN> 25
 -2.504320e-01 6.075919e+00 4.449674e+00 3.503019e+00 8.953269e-02 2.895481e-01 -1.034247e+00 -1.594736e+00 -7.873484e+00 -1.592667e+00 2.567288e-02 -5.812179e-01 -1.688182e+00 -2.075372e+00 -9.473925e-01 -7.074242e-01 6.193954e-01 1.352318e+00 9.965682e-01 -9.680849e-02 1.475233e+00 -5.300110e-02 1.700395e-01 4.458481e-01 1.065781e-01
<VARIANCE> 25
 5.152761e+01 9.504794e+01 2.080470e+01 1.488393e+01 3.780041e+01 2.587144e+01 2.795781e+01 4.476447e+01 1.969526e+01 3.540686e+01 3.391257e+01 1.323130e+01 1.494752e+00 1.509885e+01 2.413368e+00 1.249305e+00 7.584763e+00 1.198710e+00 4.967767e+00 6.969047e+00 2.233126e+00 1.487035e+00 2.995900e+00 9.588019e-01 7.601789e+00
<GCONST> 1.011059e+02
<STATE> 4
<MEAN> 25
 1.533299e+00 -6.766969e+00 9.952809e+00 3.101362e+00 -1.242278e+01 -1.438619e+00 5.733325e+00 -9.193970e+00 -8.664295e-02 -3.297467e+00 -1.852258e+00 -1.576156e+00 5.298327e-01 1.983534e-01 -4.028782e-02 5.717573e-02 -2.828255e-01 -5.452176e-01 -3.529004e-01 5.631253e-01 2.317159e-01 -3.532808e-02 -1.740906e-01 1.446575e-01 1.130592e-01
<VARIANCE> 25
 1.325382e+02 4.880726e+01 4.013022e+01 2.587994e+01 3.962696e+01 3.644984e+01 3.403368e+01 4.951955e+01 3.284152e+01 2.198849e+01 1.694540e+01 1.752558e+01 6.900480e+00 5.963473e+00 4.139577e+00 1.679479e+00 3.563552e+00 3.509444e+00 4.634055e+00 2.631801e+00 2.998657e+00 1.760790e+00 2.179745e+00 1.573746e+00 1.982693e+00
<GCONST> 1.029130e+02
<TRANSP> 5
 0.000000e+00 1.000000e+00 0.000000e+00 0.000000e+00 0.000000e+00
 0.000000e+00 8.244036e-01 1.755963e-01 0.000000e+00 0.000000e+00
 0.000000e+00 0.000000e+00 7.927781e-01 2.072218e-01 0.000000e+00
 0.000000e+00 0.000000e+00 0.000000e+00 9.076968e-01 9.230324e-02
 0.000000e+00 0.000000e+00 0.000000e+00 0.000000e+00 0.000000e+00
<ENDHMM>
~h "ng"
<BEGINHMM>
<NUMSTATES> 5
<STATE> 2
<MEAN> 25
 3.670781e+00 -6.056269e+00 1.000006e+01 5.680228e+00 -9.768925e+00 -5.806719e+00 1.813667e+00 -5.626649e+00 -3.785657e+00 -2.532461e+00 -5.583414e-01 -1.327308e+00 5.149888e-01 -2.824056e-01 4.974715e-02 -1.009663e-01 -5.012168e-01 -3.722381e-01 -1.823896e-01 9.713270e-03 4.342420e-03 -7.515192e-02 8.572974e-02 -1.128929e-01 5.670019e-01
<VARIANCE> 25
 6.745216e+01 5.430727e+01 5.517368e+01 2.788314e+01 6.372644e+01 2.898146e+01 5.664154e+01 5.047603e+01 5.413976e+01 1.783728e+01 1.290158e+01 1.404988e+01 8.220490e+00 8.737483e+00 5.720225e+00 2.426868e+00 5.893755e+00 3.908288e+00 6.513785e+00 5.504235e+00 5.291128e+00 2.257933e+00 1.323214e+00 1.487357e+00 5.570481e+00
<GCONST> 1.075402e+02
<STATE> 3
<MEAN> 25
 1.325186e+01 -1.039677e+01 -1.434128e-01 2.653137e+00 -1.190310e+01 -9.782412e+00 -2.184264e+00 -8.193914e-01 -3.007858e-01 -1.653401e+00 -1.834987e+00 -1.856583e+00 4.342968e-01 5.031116e-01 -9.416403e-01 9.575383e-02 2.305867e-01 6.273828e-01 4.234670e-01 -9.512895e-01 -1.200257e-01 5.648769e-01 -5.251589e-01 -7.072688e-01 -3.822390e-01
<VARIANCE> 25
 1.950607e+01 1.636778e+01 5.657113e+01 1.147874e+01 4.384737e+01 1.664932e+01 5.844265e+01 4.251725e+01 3.561372e+01 1.440363e+01 2.008579e+01 1.170680e+01 9.557911e-01 3.066305e+00 5.484663e+00 1.543397e+00 3.703690e+00 8.857095e-01 2.683890e+00 4.842003e+00 5.328579e+00 2.409527e+00 2.856993e+00 8.928021e-01 8.307777e-01
<GCONST> 9.456766e+01
<STATE> 4
<MEAN> 25
 1.428702e+01 1.033791e+00 8.067294e-01 1.231390e+00 -1.236745e+01 -3.274471e+00 3.569707e+00 -9.963446e+00 -6.128123e+00 8.078870e-01 -4.622145e+00 -6.612586e+00 2.233038e-01 7.701665e-01 -1.941684e-01 -3.735299e-02 1.410300e-01 6.076954e-02 -3.364381e-01 -1.461602e-01 -1.125248e-01 2.885059e-02 -2.301837e-01 -1.043503e-01 -4.228652e-01
<VARIANCE> 25
 1.674272e+01 3.100187e+01 2.249115e+01 2.398044e+01 3.603868e+01 1.480573e+01 1.398887e+01 2.590129e+01 3.820911e+01 2.143345e+01 1.232730e+01 1.459657e+01 7.154214e-01 1.420025e+00 2.540058e+00 1.784882e+00 2.557654e+00 1.268145e+00 1.101461e+00 2.352945e+00 1.974920e+00 2.098841e+00 1.332859e+00 9.659727e-01 8.619682e-01
<GCONST> 8.774445e+01
<TRANSP> 5
 0.000000e+00 1.000000e+00 0.000000e+00 0.000000e+00 0.000000e+00
 0.000000e+00 8.836007e-01 1.163993e-01 0.000000e+00 0.000000e+00
 0.000000e+00 0.000000e+00 7.783529e-01 2.216471e-01 0.000000e+00
 0.000000e+00 0.000000e+00 0.000000e+00 8.647745e-01 1.352256e-01
 0.000000e+00 0.000000e+00 0.000000e+00 0.000000e+00 0.000000e+00
<ENDHMM>
~h "ow"
<BEGINHMM>
<NUMSTATES> 5
<STATE> 2
<MEAN> 25
 1.499230e+01 -4.521023e+00 -3.942494e+00 -1.250800e+00 -6.710642e+00 -3.621165e-01 -5.654033e+00 -9.677160e+00 2.817943e+00 2.451251e+00 -3.185702e+00 -6.784861e+00 2.506942e-03 6.535870e-01 4.639401e-01 7.403873e-01 1.832924e-01 -2.059999e-01 -2.981518e-01 -4.541211e-02 -5.656745e-01 -1.279042e-01 3.805342e-02 1.714496e-01 -5.204148e-01
<VARIANCE> 25
 9.741014e+00 3.184814e+01 1.830899e+01 3.687577e+01 1.236203e+01 2.105524e+01 2.309102e+01 1.938761e+01 4.106354e+01 1.961712e+01 2.815053e+01 1.935837e+01 4.596062e-01 1.830312e+00 1.709356e+00 1.952354e+00 1.847681e+00 1.715611e+00 1.431447e+00 2.050079e+00 3.262964e+00 2.052422e+00 2.452100e+00 1.733548e+00 6.139328e-01
<GCONST> 8.898069e+01
<STATE> 3
<MEAN> 25
 1.196795e+01 2.035217e+00 1.998440e+00 3.857925e+00 -3.527948e+00 -8.080671e-01 -5.061116e+00 -6.345155e+00 -1.413416e+00 1.824598e-01 -4.653305e+00 -5.134487e+00 -1.703901e+00 1.192594e+00 1.525526e+00 9.637011e-01 1.832580e+00 4.847621e-01 8.883358e-01 1.491249e+00 -5.637244e-01 -1.039628e+00 -8.959082e-02 8.575530e-01 -1.433122e+00
<VARIANCE> 25
 2.725896e+01 4.133094e+01 2.723813e+01 4.371090e+01 4.181421e+01 5.007975e+01 2.963490e+01 3.549698e+01 2.331074e+01 2.043956e+01 1.666733e+01 2.667540e+01 2.384220e+00 2.353987e+00 3.137123e+00 3.151269e+00 4.116131e+00 4.249422e+00 2.069272e+00 2.587445e+00 4.136268e+00 2.287555e+00 2.339484e+00 1.310144e+00 1.065893e+00
<GCONST> 9.891178e+01
<STATE> 4
<MEAN> 25
 1.380853e+00 3.071401e+00 1.211070e+00 2.284594e+00 4.017880e+00 2.118986e+00 -6.134653e-01 1.029117e+00 4.105351e-02 -1.436261e+00 -1.839313e+00 -6.188450e-01 -1.648891e+00 -1.300100e-01 -2.275825e-02 -2.883185e-01 6.101897e-01 -1.201819e-01 9.789671e-01 7.108432e-01 2.350019e-01 -3.577190e-01 4.342192e-01 5.445320e-01 -5.262088e-01
<VARIANCE> 25
 9.950400e+01 3.819800e+01 3.436633e+01 3.223258e+01 5.361203e+01 5.721567e+01 2.922143e+01 5.862507e+01 2.887013e+01 1.892779e+01 2.646650e+01 2.434574e+01 5.100447e+00 2.421217e+00 2.361951e+00 2.540625e+00 3.329611e+00 1.635949e+00 2.824166e+00 2.136054e+00 4.677056e+00 2.534455e+00 3.260651e+00 1.838015e+00 9.167171e-01
<GCONST> 1.014204e+02
<TRANSP> 5
 0.000000e+00 1.000000e+00 0.000000e+00 0.000000e+00 0.000000e+00
 0.000000e+00 8.178609e-01 1.821391e-01 0.000000e+00 0.000000e+00
 0.000000e+00 0.000000e+00 4.790171e-01 5.209829e-01 0.000000e+00
 0.000000e+00 0.000000e+00 0.000000e+00 5.094419e-01 4.905581e-01
 0.000000e+00 0.000000e+00 0.000000e+00 0.000000e+00 0.000000e+00
<ENDHMM>
~h "sh"
<BEGINHMM>
<NUMSTATES> 5
<STATE> 2
<MEAN> 25
 -1.280225e+01 -1.331465e+01 1.428775e+01 4.048163e+00 -5.681174e+00 -5.160794e+00 9.711385e+00 -9.539069e+00 7.877574e+00 -6.900386e+00 5.861284e-01 6.783408e-01 -3.674201e-01 -6.840683e-01 -1.677630e-01 -3.608844e-01 -2.662591e-01 -8.876702e-02 -8.518502e-03 -4.278303e-01 4.385234e-01 -1.897457e-01 2.495300e-02 2.229818e-01 7.560789e-02
<VARIANCE> 25
 2.097788e+01 1.490294e+01 1.041264e+01 2.833064e+01 1.694172e+01 1.091461e+01 1.260104e+01 1.957092e+01 1.210040e+01 1.561284e+01 9.292892e+00 1.169976e+01 8.913190e+00 2.165679e+00 1.715599e+00 2.083858e+00 2.327844e+00 1.253938e+00 3.756658e+00 2.191400e+00 3.150165e+00 1.436228e+00 1.138287e+00 1.176070e+00 3.541030e-01
<GCONST> 8.621334e+01
<STATE> 3
<MEAN> 25
 7.912652e+00 -6.856534e+00 2.667827e+00 1.306062e+00 -8.572238e+00 -1.559375e+00 -4.949322e+00 -8.997240e+00 9.779505e-01 -7.281633e-01 -1.356594e+00 -3.077245e+00 3.811051e+00 9.745203e-01 -1.710543e+00 -4.992245e-01 -2.885401e-01 5.781491e-01 -2.163761e+00 9.372659e-01 -8.403388e-01 1.565758e+00 -1.150118e+00 -1.143222e+00 6.063402e-01
<VARIANCE> 25
 8.102723e+01 3.384578e+01 5.740794e+01 3.144453e+01 1.169464e+01 2.171730e+01 5.014713e+01 3.976326e+01 7.124020e+01 8.009200e+01 3.381448e+01 1.534409e+01 8.912916e+00 3.251343e+00 3.313640e+00 2.050313e+00 1.410155e+00 2.843343e+00 3.933295e+00 6.131863e+00 8.048782e+00 3.407467e+00 2.973511e+00 2.184005e+00 1.262854e+00
<GCONST> 1.046680e+02
<STATE> 4
<MEAN> 25
 1.309183e+01 -8.388170e+00 -4.118242e-01 -2.104068e+00 -1.013848e+01 -4.552207e+00 -5.728763e+00 -5.904822e-01 7.300054e+00 -4.497030e-01 -5.446539e+00 -2.942977e+00 5.443016e-01 3.067432e-01 -3.171964e-01 -3.118068e-03 4.832370e-01 -4.211941e-01 7.926224e-01 9.426978e-01 -5.949699e-01 -7.244179e-01 -3.938371e-01 3.697306e-01 1.626839e-02
<VARIANCE> 25
 4.334844e+00 9.363685e+00 2.145464e+01 2.139090e+01 7.100799e+00 8.136581e+00 2.132754e+01 3.243828e+01 2.819593e+01 3.534150e+01 1.694274e+01 2.012029e+01 2.334235e+00 1.862656e+00 3.050388e+00 7.223374e-01 1.384624e+00 1.624943e+00 1.662451e+00 3.784959e+00 3.882396e+00 4.538157e+00 5.979370e-01 2.165063e+00 7.367245e-01
<GCONST> 8.684263e+01
<TRANSP> 5
 0.000000e+00 1.000000e+00 0.000000e+00 0.000000e+00 0.000000e+00
 0.000000e+00 9.090314e-01 9.096860e-02 0.000000e+00 0.000000e+00
 0.000000e+00 0.000000e+00 7.901017e-01 2.098983e-01 0.000000e+00
 0.000000e+00 0.000000e+00 0.000000e+00 6.474940e-01 3.525060e-01
 0.000000e+00 0.000000e+00 0.000000e+00 0.000000e+00 0.000000e+00
<ENDHMM>
~h "th"
<BEGINHMM>
<NUMSTATES> 5
<STATE> 2
<MEAN> 25
 1.325658e+01 -7.392730e+00 -5.580700e+00 -4.119847e+00 -9.285980e+00 -4.586173e-01 -9.145621e-01 -1.132330e+01 4.415079e+00 3.353444e+00 -9.174401e-01 -6.861200e+00 -5.536197e-02 8.190497e-02 -3.594026e-03 -4.067885e-01 2.596902e-01 6.498520e-01 4.698268e-01 1.544309e-01 -2.569712e-01 -4.286082e-01 7.194902e-02 5.863310e-01 -2.684354e-01
<VARIANCE> 25
 1.170125e+00 1.517576e+01 1.570632e+01 1.451836e+01 1.068102e+01 2.916286e+01 1.016737e+01 4.910342e+01 1.342752e+01 8.269105e+00 2.646877e+01 5.543902e+00 1.940614e-01 8.557254e-01 1.460683e+00 2.051657e+00 4.887621e-01 2.728138e+00 8.460793e-01 3.647397e+00 2.781054e+00 1.700836e+00 3.524917e+00 8.598673e-01 2.126038e-01
<GCONST> 7.773746e+01
<STATE> 3
<MEAN> 25
 1.073604e+01 -5.998088e+00 -4.460576e-01 -4.345187e-01 -1.235106e+01 -5.697566e+00 3.103970e+00 -4.936602e+00 -1.681971e+00 -9.013695e-02 -1.361762e-01 -4.207135e+00 -5.651450e-01 2.221866e+00 1.359033e+00 6.574670e-01 -1.164274e-01 2.428453e-01 2.859556e-01 -7.506545e-01 -3.292082e+00 1.034048e+00 1.051477e+00 -6.649843e-01 -1.495641e+00
<VARIANCE> 25
 1.170125e+00 1.531834e+01 5.974926e+01 2.923371e+01 3.134945e+01 1.820595e+01 2.261079e+01 3.489085e+01 5.912453e+01 5.658368e+01 1.889757e+01 1.718545e+01 6.128886e-01 1.204489e+00 1.478962e+00 1.400699e+00 2.497927e+00 1.222717e+00 4.101527e+00 5.152797e+00 3.361094e+00 6.003241e+00 3.675994e+00 3.763931e+00 1.045584e+00
<GCONST> 9.348329e+01
<STATE> 4
<MEAN> 25
 8.107641e+00 6.414394e+00 2.014566e+00 2.398814e+00 -3.305070e+00 -8.983706e-01 4.011216e-01 -8.720391e+00 -9.788702e+00 3.316130e+00 -3.491633e+00 -7.417302e+00 -7.945735e-01 5.595186e-01 -2.493516e-01 8.844033e-03 1.826658e+00 4.454867e-01 -6.191000e-01 7.117494e-01 2.674617e-01 9.227306e-03 -5.697016e-01 3.124832e-01 -9.321529e-01
<VARIANCE> 25
 2.003876e+01 6.776103e+00 8.980285e+00 8.040443e+00 4.614916e+01 7.404437e+00 8.324451e+00 1.809236e+01 6.177057e+00 8.779431e+00 7.257930e+00 7.962792e+00 1.206013e+00 3.759306e+00 2.630918e+00 6.867027e-01 2.000266e+00 8.987134e-01 6.853017e-01 2.333669e+00 1.011248e+00 1.677354e+00 1.428327e+00 1.578656e+00 9.060117e-01
<GCONST> 7.843813e+01
<TRANSP> 5
 0.000000e+00 1.000000e+00 0.000000e+00 0.000000e+00 0.000000e+00
 0.000000e+00 8.494909e-01 1.505091e-01 0.000000e+00 0.000000e+00
 0.000000e+00 0.000000e+00 7.654866e-01 2.345134e-01 0.000000e+00
 0.000000e+00 0.000000e+00 0.000000e+00 8.417935e-01 1.582065e-01
 0.000000e+00 0.000000e+00 0.000000e+00 0.000000e+00 0.000000e+00
<ENDHMM>
~h "uh"
<BEGINHMM>
<NUMSTATES> 5
<STATE> 2
<MEAN> 25
 1.470844e+01 -9.522053e+00 -2.663660e-01 6.404909e+00 -5.642936e+00 -1.262124e+01 -1.393731e+01 2.113316e+00 -2.920356e+00 -6.631739e+00 -4.166375e-01 -1.670245e+00 7.637242e-01 -1.135051e-02 -2.560281e-01 2.330142e-01 -2.633786e-01 -5.869633e-01 -6.368936e-01 3.175564e-01 1.096547e-01 5.081362e-02 -3.779601e-02 5.913451e-03 1.185562e-01
<VARIANCE> 25
 3.018345e+01 3.515866e+01 8.399516e+01 2.918447e+01 6.786539e+01 4.438735e+01 2.976682e+01 3.754478e+01 3.030136e+01 1.510517e+01 1.284397e+01 1.313527e+01 3.276692e+00 2.314801e+00 9.796392e+00 2.069753e+00 8.174159e+00 3.736976e+00 6.343322e+00 3.990373e+00 5.141428e+00 1.825186e+00 2.198817e+00 7.540433e-01 9.862003e-01
<GCONST> 1.014192e+02
<STATE> 3
<MEAN> 25
 1.173881e+01 -5.892480e+00 5.810172e+00 2.465617e+00 -1.017583e+01 -3.531082e+00 -1.140647e+01 -6.340499e+00 3.606608e+00 -3.001517e+00 -3.836155e+00 -3.993569e-01 6.408111e-01 2.726124e-01 -8.874883e-02 -3.320566e-02 -6.300286e-01 2.128182e-01 1.974201e-01 -5.269706e-01 1.078221e-01 2.158532e-01 -3.439012e-01 -2.469349e-01 -5.193244e-02
<VARIANCE> 25
 9.187287e+00 1.724299e+01 7.786479e+00 2.596544e+01 1.829980e+01 2.234063e+01 2.236900e+01 2.409072e+01 3.678501e+01 4.769943e+01 1.185046e+01 2.533479e+01 4.641227e+00 2.492560e+00 3.410114e+00 3.089567e+00 3.534592e+00 3.815144e+00 4.306363e+00 4.457194e+00 2.013373e+00 7.314814e+00 2.271411e+00 1.755705e+00 1.846990e+00
<GCONST> 9.684445e+01
<STATE> 4
<MEAN> 25
 1.344976e+01 -3.196635e+00 4.602112e+00 4.169419e+00 -1.228655e+01 -5.310037e+00 -6.194221e+00 -8.147652e+00 -1.126082e+00 -1.942207e+00 -3.904999e+00 -3.397770e+00 -2.152007e-01 1.465734e+00 5.340362e-01 1.708897e-01 -2.444935e-01 2.161923e-01 1.088294e+00 -1.562122e+00 -1.400573e+00 9.368614e-01 -3.481445e-01 -4.405939e-01 -8.093604e-01
<VARIANCE> 25
 7.704983e+00 3.774624e+01 2.793067e+01 5.891253e+01 4.877841e+01 2.767207e+01 2.326610e+01 1.917878e+01 3.999027e+01 2.308680e+01 1.396824e+01 1.248184e+01 1.569689e+00 4.277045e+00 3.772440e+00 2.853297e+00 7.344464e+00 1.689764e+00 2.803377e+00 3.128334e+00 2.357139e+00 5.822495e+00 3.602569e-01 3.247375e+00 3.271348e+00
<GCONST> 9.725443e+01
<TRANSP> 5
 0.000000e+00 1.000000e+00 0.000000e+00 0.000000e+00 0.000000e+00
 0.000000e+00 7.776611e-01 2.223389e-01 0.000000e+00 0.000000e+00
