~o
<STREAMINFO> 1 25
<VECSIZE> 25<NULLD><MFCC_D_N_Z_0><DIAGC>
~h "b"
<BEGINHMM>
<NUMSTATES> 5
<STATE> 2
<MEAN> 25
 2.813518e+00 4.155165e+00 1.516288e+00 3.779382e+00 2.390848e+00 1.151941e+00 -7.836045e-01 -2.299981e+00 -1.882477e+00 -2.036224e-01 -3.857341e-01 -7.258173e-01 -1.178153e-01 2.067221e-01 8.836011e-02 3.380122e-01 2.581810e-01 -1.007349e-02 1.329355e-01 -1.534795e-01 3.232536e-02 -3.008579e-02 -7.383116e-04 8.838624e-04 -4.062414e-02
<VARIANCE> 25
 4.833879e+01 4.093645e+01 3.756640e+01 5.092508e+01 4.260035e+01 4.403112e+01 4.384428e+01 4.381767e+01 4.293026e+01 3.486570e+01 2.857411e+01 2.700773e+01 4.043373e+00 5.573175e+00 3.851465e+00 6.678674e+00 5.273264e+00 4.571524e+00 4.544859e+00 4.292288e+00 4.564618e+00 3.768333e+00 3.157513e+00 2.804317e+00 1.224173e+01
<GCONST> 1.101973e+02
<STATE> 3
<MEAN> 25
 2.859510e+00 2.028211e+00 1.000355e+00 1.471752e+00 8.088838e-01 -2.688804e-01 -1.259470e+00 -2.574350e+00 -1.018629e+00 5.670843e-02 -2.885132e-01 -1.159224e+00 5.384415e-01 -1.314914e+00 -3.455555e-01 -1.511619e+00 -1.238318e+00 -5.829196e-01 -5.919278e-01 8.621695e-03 3.425967e-01 2.188298e-01 1.554451e-01 -2.534663e-01 2.515000e+00
<VARIANCE> 25
 3.796819e+01 4.194760e+01 4.248077e+01 5.958427e+01 4.834706e+01 4.622262e+01 4.353622e+01 4.180563e+01 4.306862e+01 3.688248e+01 3.077619e+01 2.720092e+01 5.099944e+00 6.261642e+00 5.632551e+00 8.483152e+00 7.010553e+00 6.217697e+00 6.036274e+00 5.600254e+00 5.732946e+00 5.035036e+00 4.210336e+00 3.779205e+00 1.180240e+01
<GCONST> 1.136993e+02
<STATE> 4
<MEAN> 25
 2.875448e+00 8.647882e-01 3.677948e-01 3.008336e-01 1.928853e-01 1.797757e-01 -1.070813e+00 -1.990047e+00 -5.741447e-01 1.447466e-02 -2.197676e-01 -1.213599e+00 2.296794e-01 -6.344383e-01 -1.170548e-01 -6.929994e-01 -6.995640e-01 -2.647609e-01 -3.128016e-01 1.161851e-01 1.102953e-01 4.070945e-02 4.196103e-02 -4.026990e-02 1.055198e+00
<VARIANCE> 25
 3.654428e+01 4.315697e+01 4.953987e+01 6.604678e+01 5.642006e+01 4.810828e+01 4.475734e+01 4.261832e+01 4.225581e+01 3.715423e+01 3.114027e+01 2.868538e+01 2.430048e+00 2.669232e+00 3.404607e+00 4.115533e+00 4.244425e+00 3.576940e+00 3.611072e+00 3.340954e+00 3.366567e+00 2.911745e+00 2.686747e+00 2.404657e+00 4.314408e+00
<GCONST> 1.063473e+02
<TRANSP> 5
 0.000000e+00 1.000000e+00 0.000000e+00 0.000000e+00 0.000000e+00
 0.000000e+00 5.196553e-01 4.803447e-01 0.000000e+00 0.000000e+00
 0.000000e+00 0.000000e+00 4.560913e-01 5.439087e-01 0.000000e+00
 0.000000e+00 0.000000e+00 0.000000e+00 5.189850e-01 4.810150e-01
 0.000000e+00 0.000000e+00 0.000000e+00 0.000000e+00 0.000000e+00
<ENDHMM>
~h "d"
<BEGINHMM>
<NUMSTATES> 5
<STATE> 2
<MEAN> 25
 4.192303e+00 1.446669e+00 4.918003e+00 2.005063e+00 -3.379282e+00 -4.023008e+00 -3.576690e+00 -2.014694e+00 -2.166576e+00 -1.780887e+00 -2.027308e+00 -1.302123e+00 -6.395768e-01 3.763007e-01 2.655629e-01 5.021489e-01 7.779548e-01 3.477934e-01 3.097503e-01 9.457798e-02 1.413186e-01 -7.819854e-02 2.034601e-03 2.035620e-01 -7.926154e-01
<VARIANCE> 25
 3.106952e+01 5.169781e+01 4.826715e+01 5.861548e+01 6.695832e+01 5.521451e+01 5.546153e+01 5.594941e+01 4.976294e+01 3.899471e+01 3.634670e+01 3.006446e+01 3.043229e+00 6.250037e+00 3.686936e+00 6.867327e+00 6.212043e+00 5.083118e+00 5.289966e+00 5.601129e+00 4.694120e+00 3.792760e+00 3.698053e+00 2.988300e+00 7.666081e+00
<GCONST> 1.124359e+02
<STATE> 3
<MEAN> 25
 1.408708e+00 1.383019e+00 4.324079e+00 2.061970e+00 -1.036581e+00 -2.673009e+00 -2.041956e+00 -1.083232e+00 -8.723414e-01 -1.419418e+00 -1.479489e+00 -4.183331e-01 -7.699371e-01 -3.130700e-01 -3.775170e-01 -3.013999e-01 4.092448e-01 2.462319e-01 4.313029e-01 4.516341e-01 5.381975e-01 2.027627e-01 2.513582e-01 2.091472e-01 1.427940e-01
<VARIANCE> 25
 4.189893e+01 4.739534e+01 4.079577e+01 5.429596e+01 5.559412e+01 5.088197e+01 4.855747e+01 4.683736e+01 4.371516e+01 3.477848e+01 3.261637e+01 2.852334e+01 4.583552e+00 5.830254e+00 3.738323e+00 6.326933e+00 6.639861e+00 5.810609e+00 5.451392e+00 5.151736e+00 4.704773e+00 3.871620e+00 3.704376e+00 3.175303e+00 9.206085e+00
<GCONST> 1.121070e+02
<STATE> 4
<MEAN> 25
 2.261337e-01 1.249983e+00 1.958719e+00 2.255009e+00 6.776563e-01 -1.028984e+00 -1.224385e-01 5.483264e-02 2.293938e-01 -6.626728e-01 -7.570788e-01 1.849019e-01 -3.065256e-01 -1.005696e-01 -3.273425e-01 -1.292861e-01 2.226534e-01 2.496323e-01 2.588087e-01 1.383895e-01 1.449494e-01 1.594843e-01 1.650298e-01 9.224577e-02 -1.190874e-01
<VARIANCE> 25
 3.408515e+01 3.336411e+01 3.241747e+01 3.614598e+01 4.338766e+01 4.028706e+01 4.008250e+01 3.853651e+01 3.465125e+01 2.880909e+01 2.789139e+01 2.470551e+01 1.814917e+00 1.863691e+00 1.879220e+00 2.223158e+00 2.715801e+00 2.800583e+00 2.797773e+00 2.693356e+00 2.574121e+00 2.262179e+00 2.157052e+00 1.922575e+00 2.175292e+00
<GCONST> 9.895797e+01
<TRANSP> 5
 0.000000e+00 1.000000e+00 0.000000e+00 0.000000e+00 0.000000e+00
 0.000000e+00 4.677911e-01 5.322090e-01 0.000000e+00 0.000000e+00
 0.000000e+00 0.000000e+00 4.785325e-01 5.214674e-01 0.000000e+00
 0.000000e+00 0.000000e+00 0.000000e+00 6.727132e-01 3.272868e-01
 0.000000e+00 0.000000e+00 0.000000e+00 0.000000e+00 0.000000e+00
<ENDHMM>
~h "f"
<BEGINHMM>
<NUMSTATES> 5
<STATE> 2
<MEAN> 25
 -3.340942e+00 9.968837e-01 1.082186e-01 2.314188e+00 2.148232e+00 1.607634e-01 1.796811e+00 2.073007e-02 1.188738e+00 1.185952e-01 -1.474097e-01 2.997634e-01 -2.314178e+00 -1.813400e-01 -3.181871e-01 7.451113e-01 7.982466e-01 4.555548e-01 8.539867e-01 5.518772e-01 7.943605e-01 3.429473e-01 4.923882e-01 5.188034e-01 -4.485073e-01
<VARIANCE> 25
 6.664460e+01 3.065809e+01 3.886495e+01 4.785246e+01 3.888145e+01 4.493937e+01 3.774283e+01 3.662127e+01 3.480310e+01 2.982917e+01 2.704496e+01 2.423770e+01 6.095150e+00 3.404461e+00 3.679028e+00 5.132036e+00 4.173799e+00 4.174999e+00 4.090453e+00 3.899137e+00 3.979500e+00 3.303983e+00 3.127735e+00 2.624925e+00 3.200808e+00
<GCONST> 1.066684e+02
<STATE> 3
<MEAN> 25
 -7.773226e+00 -5.997071e-01 -1.343132e+00 2.394422e+00 2.620732e+00 5.839467e-01 2.626284e+00 1.032740e+00 2.791856e+00 1.141388e+00 9.562883e-01 1.294546e+00 -8.763944e-01 -5.349464e-01 -4.995836e-01 -2.133328e-01 -1.693916e-01 -3.546623e-02 4.173665e-02 1.049250e-01 2.617668e-01 2.096359e-01 2.379344e-01 1.824813e-01 1.850075e-01
<VARIANCE> 25
 5.144881e+01 2.660223e+01 2.976013e+01 3.468547e+01 3.168703e+01 3.407352e+01 3.206520e+01 2.968431e+01 2.766995e+01 2.566306e+01 2.384124e+01 2.121233e+01 6.971080e+00 2.373249e+00 2.546472e+00 3.394311e+00 2.977486e+00 3.272033e+00 3.054619e+00 2.933662e+00 2.939459e+00 2.678744e+00 2.561161e+00 2.341159e+00 3.227388e+00
<GCONST> 1.012008e+02
<STATE> 4
<MEAN> 25
 -7.821869e+00 -1.520333e+00 -2.246194e+00 2.055311e+00 2.377796e+00 9.658635e-01 2.210602e+00 1.021798e+00 2.427109e+00 1.262203e+00 1.006487e+00 1.449395e+00 6.885780e-01 -2.624945e-02 -8.109840e-02 -2.759140e-01 -2.332956e-01 -9.260277e-02 -1.980978e-01 -1.577732e-01 -1.822546e-01 -8.440771e-02 -8.953381e-02 -1.323769e-01 1.344471e-01
<VARIANCE> 25
 3.841674e+01 2.097378e+01 2.162388e+01 2.403908e+01 2.325086e+01 2.627295e+01 2.459470e+01 2.439126e+01 2.266089e+01 2.119472e+01 1.995935e+01 1.779543e+01 4.076800e+00 1.346761e+00 1.404010e+00 1.934375e+00 1.933335e+00 2.057138e+00 2.112877e+00 1.976282e+00 2.022874e+00 1.869364e+00 1.758592e+00 1.633289e+00 1.268223e+00
<GCONST> 9.188564e+01
<TRANSP> 5
 0.000000e+00 1.000000e+00 0.000000e+00 0.000000e+00 0.000000e+00
 0.000000e+00 5.472907e-01 4.527093e-01 0.000000e+00 0.000000e+00
 0.000000e+00 0.000000e+00 4.195285e-01 5.804715e-01 0.000000e+00
 0.000000e+00 0.000000e+00 0.000000e+00 8.692918e-01 1.307082e-01
 0.000000e+00 0.000000e+00 0.000000e+00 0.000000e+00 0.000000e+00
<ENDHMM>
~h "g"
<BEGINHMM>
<NUMSTATES> 5
<STATE> 2
<MEAN> 25
 1.895897e+00 1.192801e+00 4.716321e+00 2.688439e+00 -1.969689e+00 -3.446487e+00 -1.820795e+00 -8.110894e-01 -4.641721e+00 -4.379691e-01 1.909440e-01 -1.416433e+00 -2.426961e-01 -2.080814e-01 2.428811e-02 1.206619e-01 1.292931e-01 -1.747715e-01 -1.394955e-01 -6.019267e-02 -3.163826e-01 1.762825e-01 5.158223e-02 5.557127e-02 1.748074e-01
<VARIANCE> 25
 4.537836e+01 6.076484e+01 7.239401e+01 6.196058e+01 9.085159e+01 7.288287e+01 5.924733e+01 6.359826e+01 6.771912e+01 4.908971e+01 4.270427e+01 3.497494e+01 3.985582e+00 8.232979e+00 6.383613e+00 7.096549e+00 8.548519e+00 6.653124e+00 6.195781e+00 6.028913e+00 6.651186e+00 4.886978e+00 4.314965e+00 3.465720e+00 1.195712e+01
<GCONST> 1.183611e+02
<STATE> 3
<MEAN> 25
 1.644620e+00 -1.401001e+00 2.977306e+00 1.138336e+00 -2.147825e+00 -4.386158e+00 -3.465288e+00 -8.682710e-01 -4.180261e+00 4.254792e-01 6.243562e-01 -1.260699e+00 4.018551e-01 -8.287183e-01 -5.344599e-01 -8.920913e-01 -6.490164e-01 -3.586178e-01 -6.571306e-01 2.740826e-02 4.285102e-01 1.899075e-01 2.281972e-01 -1.003439e-01 1.457618e+00
<VARIANCE> 25
 3.306187e+01 5.275354e+01 9.102393e+01 5.375780e+01 1.020477e+02 6.729561e+01 5.653904e+01 5.910258e+01 5.433244e+01 4.628029e+01 3.821236e+01 3.091337e+01 4.556501e+00 6.581790e+00 7.345220e+00 5.988683e+00 1.001233e+01 7.001024e+00 6.357419e+00 6.639762e+00 6.121043e+00 5.326374e+00 4.634900e+00 3.773982e+00 7.166000e+00
<GCONST> 1.172523e+02
<STATE> 4
<MEAN> 25
 3.474934e+00 -2.060805e+00 2.354304e+00 -4.796947e-01 -4.393467e+00 -4.638238e+00 -3.904680e+00 -7.442594e-01 -2.886804e+00 -2.429762e-02 9.591004e-01 -1.831604e+00 3.292320e-01 -2.602937e-01 -5.820690e-01 -4.325625e-01 -5.195733e-02 1.325481e-01 -1.123538e-01 3.912825e-02 5.768833e-01 5.613042e-02 -7.932570e-02 -7.533108e-02 4.749705e-01
<VARIANCE> 25
 2.796903e+01 4.445810e+01 7.866747e+01 5.087046e+01 9.490345e+01 6.266804e+01 5.745274e+01 6.136197e+01 5.089874e+01 4.470948e+01 3.893525e+01 3.118524e+01 2.377140e+00 2.853663e+00 3.684315e+00 3.163458e+00 5.101000e+00 4.265485e+00 3.919148e+00 4.282565e+00 3.819588e+00 3.313754e+00 3.143264e+00 2.611364e+00 2.462885e+00
<GCONST> 1.088728e+02
<TRANSP> 5
 0.000000e+00 1.000000e+00 0.000000e+00 0.000000e+00 0.000000e+00
 0.000000e+00 6.766681e-01 3.233320e-01 0.000000e+00 0.000000e+00
 0.000000e+00 0.000000e+00 5.663677e-01 4.336322e-01 0.000000e+00
 0.000000e+00 0.000000e+00 0.000000e+00 5.378649e-01 4.621352e-01
 0.000000e+00 0.000000e+00 0.000000e+00 0.000000e+00 0.000000e+00
<ENDHMM>
~h "k"
<BEGINHMM>
<NUMSTATES> 5
<STATE> 2
<MEAN> 25
 -2.429569e-01 3.768915e-01 1.642126e+00 2.447833e+00 6.838197e-02 -2.071462e+00 3.747026e-01 1.431237e+00 -1.721275e+00 8.986809e-01 7.530279e-01 9.224894e-02 -8.699893e-01 -1.999057e-01 -4.787825e-01 4.129020e-01 8.665915e-01 4.232008e-01 4.808354e-01 3.790584e-01 4.020438e-01 6.347244e-01 3.086708e-01 5.287699e-01 -8.777121e-01
<VARIANCE> 25
 5.393034e+01 5.232515e+01 6.878922e+01 6.172052e+01 8.183170e+01 7.821145e+01 6.247427e+01 6.461311e+01 6.446434e+01 4.746287e+01 4.022409e+01 3.515571e+01 4.491617e+00 6.872941e+00 6.042540e+00 6.808274e+00 7.291702e+00 6.779778e+00 6.096499e+00 6.014725e+00 6.770469e+00 4.799065e+00 4.268945e+00 3.572735e+00 1.311325e+01
<GCONST> 1.180220e+02
<STATE> 3
<MEAN> 25
 -3.567372e+00 -3.213572e+00 -1.829475e+00 1.158869e+00 2.467962e+00 -9.555470e-01 1.254797e+00 2.414036e+00 3.788227e-01 3.320354e+00 1.523701e+00 1.685441e+00 -4.431672e-01 -8.522707e-01 -5.389513e-01 -8.424360e-01 -1.082312e-01 -2.231020e-01 -1.487857e-01 -7.966107e-02 2.350813e-01 2.227693e-01 -6.042134e-02 2.541231e-02 1.646288e+00
<VARIANCE> 25
 3.931001e+01 4.796800e+01 6.207478e+01 5.182045e+01 6.288422e+01 6.054269e+01 5.530430e+01 4.968289e+01 4.734442e+01 4.023919e+01 3.323959e+01 2.869492e+01 4.507694e+00 5.358723e+00 6.033376e+00 5.525097e+00 6.508317e+00 6.519831e+00 5.798928e+00 5.358652e+00 5.806822e+00 4.583148e+00 3.921439e+00 3.466241e+00 1.152049e+01
<GCONST> 1.143515e+02
<STATE> 4
<MEAN> 25
 -3.871932e+00 -3.147144e+00 -1.387166e+00 -2.402709e-01 1.737934e+00 -9.457947e-01 1.648582e+00 1.654513e+00 8.950932e-01 2.494205e+00 1.074829e+00 1.132671e+00 4.286339e-01 3.299546e-01 2.830923e-01 -1.860285e-01 -2.691174e-01 2.998223e-02 -3.129851e-02 -3.131035e-01 -9.245808e-02 -4.952927e-01 -2.522906e-01 -3.090490e-01 3.920666e-01
<VARIANCE> 25
 3.712059e+01 3.232232e+01 5.244765e+01 3.985489e+01 5.571827e+01 4.978646e+01 4.677161e+01 4.333302e+01 3.892332e+01 3.531760e+01 2.991519e+01 2.555100e+01 4.045392e+00 2.870475e+00 3.205789e+00 3.159553e+00 4.037799e+00 3.980832e+00 3.818816e+00 3.621399e+00 3.741567e+00 3.480915e+00 2.866116e+00 2.612213e+00 3.582406e+00
<GCONST> 1.061166e+02
<TRANSP> 5
 0.000000e+00 1.000000e+00 0.000000e+00 0.000000e+00 0.000000e+00
 0.000000e+00 6.719813e-01 3.280187e-01 0.000000e+00 0.000000e+00
 0.000000e+00 0.000000e+00 5.918892e-01 4.081108e-01 0.000000e+00
 0.000000e+00 0.000000e+00 0.000000e+00 6.998958e-01 3.001042e-01
 0.000000e+00 0.000000e+00 0.000000e+00 0.000000e+00 0.000000e+00
<ENDHMM>
~h "l"
<BEGINHMM>
<NUMSTATES> 5
<STATE> 2
<MEAN> 25
 7.010710e+00 6.845058e-01 -3.049047e+00 -1.053378e+01 -2.039229e+00 2.315557e+00 -4.937068e+00 -5.716411e+00 -8.577743e-01 6.007742e-01 -2.225114e-01 -2.391102e+00 6.912189e-01 4.521835e-01 -4.201264e-01 -1.648161e+00 4.012328e-02 1.043097e+00 -3.390600e-01 -7.098654e-01 -4.966598e-01 7.759996e-02 4.350950e-01 1.740139e-01 1.129411e-01
<VARIANCE> 25
 2.433832e+01 5.031503e+01 4.716742e+01 8.739500e+01 5.485785e+01 6.568784e+01 6.911387e+01 6.222692e+01 6.231533e+01 5.738940e+01 4.435719e+01 4.401888e+01 2.127486e+00 2.908540e+00 2.595600e+00 5.313218e+00 3.717793e+00 4.342119e+00 4.951199e+00 4.873795e+00 4.581863e+00 4.310382e+00 3.530494e+00 3.531667e+00 2.043105e+00
<GCONST> 1.103290e+02
<STATE> 3
<MEAN> 25
 7.918909e+00 2.000861e+00 -3.669865e+00 -1.383335e+01 -1.785183e+00 4.412172e+00 -5.043497e+00 -5.934085e+00 -1.881342e+00 6.289395e-02 5.038519e-01 -1.417636e+00 -1.249312e-01 -2.202459e-01 5.197586e-02 4.442040e-01 1.786078e-01 -2.510767e-01 -4.036497e-02 3.428518e-01 3.672962e-01 5.413187e-02 -2.624032e-01 -1.678828e-01 -7.819744e-02
<VARIANCE> 25
 1.972266e+01 4.434612e+01 4.895352e+01 9.549471e+01 5.677951e+01 6.697807e+01 7.456135e+01 6.578618e+01 6.272268e+01 6.387297e+01 4.535266e+01 4.625290e+01 9.618139e-01 3.576950e+00 2.181293e+00 5.332712e+00 3.130447e+00 4.068341e+00 4.134942e+00 4.594807e+00 5.045768e+00 4.482985e+00 3.652707e+00 3.561961e+00 2.094278e+00
<GCONST> 1.094585e+02
<STATE> 4
<MEAN> 25
 6.926191e+00 2.006688e+00 -3.483391e+00 -1.038836e+01 -1.367386e+00 2.943325e+00 -2.716153e+00 -3.612872e+00 -7.682754e-01 -2.193003e-01 -4.598923e-01 -1.164358e+00 -3.245375e-01 -5.177823e-02 3.588075e-01 9.202757e-01 1.163659e-01 -4.896499e-01 1.148810e-01 3.599308e-01 1.226531e-01 -1.217281e-01 -2.001738e-01 2.492553e-02 -3.250704e-01
<VARIANCE> 25
 2.246753e+01 4.233704e+01 4.049950e+01 8.923145e+01 5.274390e+01 5.942850e+01 6.652669e+01 5.365403e+01 5.121748e+01 4.746091e+01 3.756911e+01 3.744099e+01 7.231179e-01 1.494286e+00 1.452552e+00 2.987897e+00 2.364875e+00 2.508370e+00 2.375996e+00 2.793181e+00 2.605412e+00 2.460877e+00 2.199299e+00 2.000187e+00 8.947645e-01
<GCONST> 1.007191e+02
<TRANSP> 5
 0.000000e+00 1.000000e+00 0.000000e+00 0.000000e+00 0.000000e+00
 0.000000e+00 6.098934e-01 3.901065e-01 0.000000e+00 0.000000e+00
 0.000000e+00 0.000000e+00 6.036799e-01 3.963201e-01 0.000000e+00
 0.000000e+00 0.000000e+00 0.000000e+00 7.505534e-01 2.494465e-01
 0.000000e+00 0.000000e+00 0.000000e+00 0.000000e+00 0.000000e+00
<ENDHMM>
~h "m"
<BEGINHMM>
<NUMSTATES> 5
<STATE> 2
<MEAN> 25
 6.763556e+00 5.583734e-01 1.642030e+00 1.499915e+00 -1.013770e+00 -1.504337e+00 -3.743773e+00 -4.644911e+00 -4.509021e+00 -1.773294e+00 -8.923253e-01 -3.885434e+00 3.579550e-01 1.034325e+00 5.111204e-01 1.459074e+00 6.266440e-01 -3.166234e-01 -5.887009e-02 -1.480944e+00 -1.545104e+00 1.021840e-01 4.310423e-01 -4.371981e-01 -8.331651e-01
<VARIANCE> 25
 2.341843e+01 4.007880e+01 4.169489e+01 5.581182e+01 4.964518e+01 5.036317e+01 5.080296e+01 5.909748e+01 6.481310e+01 4.408000e+01 4.137564e+01 3.526155e+01 1.787630e+00 2.562194e+00 3.360492e+00 4.086341e+00 3.575335e+00 3.523863e+00 4.051561e+00 4.590126e+00 5.393477e+00 3.777498e+00 3.724914e+00 3.034661e+00 2.486266e+00
<GCONST> 1.075663e+02
<STATE> 3
<MEAN> 25
 7.079022e+00 2.468665e+00 2.593811e+00 3.999914e+00 -1.458387e-01 -2.209437e+00 -3.470162e+00 -7.350433e+00 -7.357841e+00 -1.542707e+00 -2.153697e-01 -4.367152e+00 -6.250930e-02 8.343355e-02 6.842697e-02 1.305668e-01 1.087420e-01 8.354474e-02 1.545753e-01 -9.278300e-02 -5.967008e-02 -8.854376e-02 -1.415287e-01 1.923652e-02 -1.091865e-01
<VARIANCE> 25
 1.960287e+01 3.127426e+01 3.630333e+01 5.250659e+01 4.411680e+01 4.656034e+01 4.864960e+01 5.654112e+01 6.657098e+01 4.521159e+01 4.461566e+01 3.851587e+01 1.082687e+00 2.688269e+00 2.594011e+00 4.309905e+00 2.783878e+00 2.967970e+00 3.172770e+00 4.573352e+00 5.760876e+00 3.172252e+00 3.312695e+00 2.618274e+00 2.159486e+00
<GCONST> 1.050289e+02
<STATE> 4
<MEAN> 25
 5.378113e+00 2.834581e+00 2.354257e+00 3.741228e+00 6.628354e-01 -1.241047e+00 -1.975163e+00 -5.348893e+00 -5.202452e+00 -1.714582e+00 -1.060340e+00 -2.823305e+00 -1.852957e-01 -1.477664e-01 -1.800896e-01 -3.014693e-01 -6.063370e-02 1.805969e-01 1.360220e-01 4.161198e-01 4.504758e-01 -2.530590e-02 -1.117859e-01 1.986634e-01 -2.588534e-02
<VARIANCE> 25
 2.180954e+01 2.547048e+01 2.998687e+01 3.942850e+01 3.642424e+01 3.770077e+01 4.028862e+01 4.717728e+01 5.198135e+01 3.456236e+01 3.282108e+01 3.100212e+01 6.564785e-01 1.251182e+00 1.412520e+00 2.070170e+00 1.815364e+00 1.780436e+00 1.910564e+00 2.434601e+00 2.785866e+00 1.926037e+00 1.916989e+00 1.643872e+00 8.927431e-01
<GCONST> 9.483665e+01
<TRANSP> 5
 0.000000e+00 1.000000e+00 0.000000e+00 0.000000e+00 0.000000e+00
 0.000000e+00 5.302396e-01 4.697604e-01 0.000000e+00 0.000000e+00
 0.000000e+00 0.000000e+00 4.493498e-01 5.506501e-01 0.000000e+00
 0.000000e+00 0.000000e+00 0.000000e+00 7.818374e-01 2.181626e-01
 0.000000e+00 0.000000e+00 0.000000e+00 0.000000e+00 0.000000e+00
<ENDHMM>
~h "n"
<BEGINHMM>
<NUMSTATES> 5
<STATE> 2
<MEAN> 25
 5.946877e+00 -1.425686e+00 3.934041e+00 -5.725327e-01 -4.939915e+00 -3.256859e+00 -3.464862e+00 -1.136213e+00 -2.903870e+00 -2.759529e+00 -3.611154e+00 -3.290608e+00 3.253508e-01 1.209777e+00 4.588487e-01 1.283227e+00 2.261910e-01 -2.542128e-01 1.883441e-01 -1.344978e+00 -8.462797e-01 2.868977e-01 -2.488942e-01 -1.149825e-01 -1.084699e+00
<VARIANCE> 25
 1.991380e+01 4.468991e+01 5.246590e+01 5.237912e+01 5.763814e+01 5.161735e+01 5.419715e+01 7.287250e+01 6.033226e+01 4.782042e+01 4.100249e+01 3.441862e+01 1.294268e+00 3.142210e+00 3.236587e+00 3.852257e+00 3.933820e+00 3.838843e+00 4.117123e+00 5.962556e+00 4.426384e+00 3.734497e+00 3.072495e+00 2.602646e+00 2.574465e+00
<GCONST> 1.078270e+02
<STATE> 3
<MEAN> 25
 6.406062e+00 1.701333e+00 4.545239e+00 2.601209e+00 -4.099820e+00 -3.687414e+00 -2.514102e+00 -4.656114e+00 -4.437172e+00 -1.838518e+00 -4.087614e+00 -3.254973e+00 -2.606168e-02 7.797511e-01 5.346612e-02 7.092862e-01 3.799076e-01 9.987861e-02 3.240329e-01 -7.633064e-01 -2.977358e-01 1.917161e-01 -5.104820e-02 7.264578e-02 -7.705923e-01
<VARIANCE> 25
 1.815526e+01 3.671852e+01 3.819650e+01 4.560410e+01 4.582807e+01 4.222260e+01 4.754397e+01 6.901162e+01 5.500989e+01 4.504234e+01 3.834444e+01 3.363778e+01 1.186212e+00 3.960016e+00 2.899381e+00 4.078381e+00 3.589739e+00 3.435133e+00 3.948933e+00 7.275609e+00 4.942297e+00 3.678227e+00 2.944324e+00 2.537138e+00 2.818377e+00
<GCONST> 1.063877e+02
<STATE> 4
<MEAN> 25
 5.358441e+00 3.317337e+00 3.967936e+00 3.545458e+00 -2.027902e+00 -2.580798e+00 -1.377471e+00 -4.703517e+00 -3.940631e+00 -1.643989e+00 -3.516257e+00 -2.397043e+00 -3.362603e-01 1.399837e-01 -1.704209e-01 4.572660e-03 4.052163e-01 2.831390e-01 1.307523e-01 2.067386e-01 1.966513e-01 1.778644e-02 1.748169e-01 1.597675e-01 -3.693568e-01
<VARIANCE> 25
 1.929089e+01 2.983916e+01 2.973105e+01 3.430764e+01 4.034176e+01 3.503433e+01 3.843910e+01 5.282297e+01 4.356675e+01 3.533120e+01 3.118262e+01 2.796573e+01 8.289824e-01 1.515748e+00 1.407575e+00 1.688868e+00 1.988285e+00 1.879105e+00 2.086737e+00 2.832618e+00 2.373791e+00 2.036979e+00 1.840167e+00 1.630747e+00 9.080154e-01
<GCONST> 9.497708e+01
<TRANSP> 5
 0.000000e+00 1.000000e+00 0.000000e+00 0.000000e+00 0.000000e+00
 0.000000e+00 4.934112e-01 5.065887e-01 0.000000e+00 0.000000e+00
 0.000000e+00 0.000000e+00 4.434188e-01 5.565812e-01 0.000000e+00
 0.000000e+00 0.000000e+00 0.000000e+00 7.681298e-01 2.318702e-01
 0.000000e+00 0.000000e+00 0.000000e+00 0.000000e+00 0.000000e+00
<ENDHMM>
~h "p"
<BEGINHMM>
<NUMSTATES> 5
<STATE> 2
<MEAN> 25
 7.708820e-01 2.575414e+00 1.915692e-01 2.600184e+00 1.918312e+00 7.786341e-01 3.257442e-01 -2.572311e-01 1.786267e-01 1.128354e+00 5.585333e-01 2.761177e-01 -9.598310e-01 1.735561e-01 -7.506517e-02 8.173968e-01 8.044975e-01 6.245477e-01 9.435999e-01 5.899717e-01 6.916946e-01 5.308222e-01 4.732976e-01 6.167238e-01 -1.472595e+00
<VARIANCE> 25
 5.991846e+01 4.009384e+01 4.193753e+01 5.290286e+01 4.286802e+01 5.074359e+01 4.642833e+01 4.236831e+01 4.090071e+01 3.516121e+01 3.036451e+01 2.866662e+01 5.051763e+00 5.398890e+00 4.154475e+00 5.844198e+00 4.734436e+00 4.730265e+00 4.782110e+00 4.535866e+00 4.542552e+00 3.768940e+00 3.349126e+00 2.946854e+00 1.263839e+01
<GCONST> 1.110929e+02
<STATE> 3
<MEAN> 25
 -2.618411e+00 3.201286e-01 -6.579314e-01 2.667616e+00 3.137151e+00 1.517688e+00 2.908387e+00 1.432500e+00 2.766829e+00 2.504871e+00 1.954031e+00 1.883306e+00 -3.596377e-01 -1.054614e+00 -2.868347e-01 -5.625817e-01 -1.824445e-01 -1.970015e-01 2.023954e-01 1.405343e-01 4.472373e-01 3.265126e-02 1.045628e-01 7.055737e-02 1.697334e+00
<VARIANCE> 25
 3.427117e+01 3.150717e+01 2.942855e+01 3.698306e+01 3.377948e+01 4.093333e+01 3.803743e+01 3.533276e+01 3.249224e+01 3.005128e+01 2.633584e+01 2.376913e+01 4.870530e+00 3.933001e+00 3.848552e+00 4.546890e+00 4.437179e+00 5.125491e+00 4.886268e+00 4.456129e+00 4.192950e+00 3.783375e+00 3.319732e+00 3.106748e+00 1.317010e+01
<GCONST> 1.073774e+02
<STATE> 4
<MEAN> 25
 -2.485751e+00 -1.187439e+00 -1.596883e+00 1.275466e+00 2.922205e+00 1.670242e+00 2.705706e+00 1.122149e+00 2.522983e+00 1.751863e+00 1.473551e+00 1.326960e+00 4.442424e-01 -2.527617e-01 -9.382267e-02 -4.338026e-01 -2.979945e-01 -1.819201e-01 -3.393143e-01 -2.366603e-01 -2.210979e-01 -2.453811e-01 -2.595733e-01 -2.647620e-01 8.869294e-01
<VARIANCE> 25
 2.675117e+01 2.468530e+01 2.498547e+01 2.895016e+01 2.774549e+01 3.139202e+01 3.111251e+01 2.853545e+01 2.621020e+01 2.427645e+01 2.287476e+01 2.004405e+01 3.186347e+00 2.214624e+00 2.380472e+00 2.689850e+00 2.939715e+00 3.048539e+00 3.274670e+00 2.911748e+00 2.826290e+00 2.550995e+00 2.379221e+00 2.147582e+00 4.256051e+00
<GCONST> 9.847920e+01
<TRANSP> 5
 0.000000e+00 1.000000e+00 0.000000e+00 0.000000e+00 0.000000e+00
 0.000000e+00 5.992834e-01 4.007166e-01 0.000000e+00 0.000000e+00
 0.000000e+00 0.000000e+00 5.136960e-01 4.863041e-01 0.000000e+00
 0.000000e+00 0.000000e+00 0.000000e+00 7.636811e-01 2.363189e-01
 0.000000e+00 0.000000e+00 0.000000e+00 0.000000e+00 0.000000e+00
<ENDHMM>
~h "r"
<BEGINHMM>
<NUMSTATES> 5
<STATE> 2
<MEAN> 25
 6.885063e+00 -3.381831e+00 -5.787117e+00 5.833440e-01 -1.022251e-01 -4.069970e+00 -6.413325e+00 -9.003333e-01 2.990849e-01 -8.021606e-01 7.156259e-01 2.159671e-01 1.420897e+00 -4.116603e-01 -7.787051e-01 5.140449e-01 1.148323e-01 -1.148186e+00 -1.812242e+00 4.008881e-01 5.662242e-01 -2.144174e-01 -4.570011e-01 4.230243e-02 4.300789e-01
<VARIANCE> 25
 7.006788e+01 4.413961e+01 8.295490e+01 5.358889e+01 6.954582e+01 6.625906e+01 8.262545e+01 7.678360e+01 6.227308e+01 4.631911e+01 4.000220e+01 3.620115e+01 5.776298e+00 3.315046e+00 4.485755e+00 4.226636e+00 5.377802e+00 4.721764e+00 6.295948e+00 5.495539e+00 5.277903e+00 4.154470e+00 3.408851e+00 3.002666e+00 2.400059e+00
<GCONST> 1.137813e+02
<STATE> 3
<MEAN> 25
 9.912002e+00 -5.739574e+00 -6.439528e+00 1.888688e+00 -1.168046e+00 -7.513058e+00 -1.072481e+01 2.169684e+00 2.178525e+00 -1.831848e+00 -8.321368e-01 -3.105628e-02 3.253642e-02 -3.914146e-01 6.505407e-01 3.260425e-01 -6.530722e-01 -4.536242e-01 1.146173e-01 6.849400e-01 -1.095081e-02 -3.247200e-01 -1.969290e-01 -7.141757e-02 1.169132e-01
<VARIANCE> 25
 3.437790e+01 4.082983e+01 7.488433e+01 5.194797e+01 6.845780e+01 7.190089e+01 9.379356e+01 8.434005e+01 6.502194e+01 5.068488e+01 3.932908e+01 3.724919e+01 2.999059e+00 3.323857e+00 5.222576e+00 3.831451e+00 6.046015e+00 4.749008e+00 6.751826e+00 6.328463e+00 5.163277e+00 4.108347e+00 3.519237e+00 3.025302e+00 2.329914e+00
<GCONST> 1.130009e+02
<STATE> 4
<MEAN> 25
 8.948131e+00 -5.954312e+00 -4.444427e+00 1.934629e+00 -2.647332e+00 -7.576464e+00 -8.168354e+00 3.323444e+00 1.692796e+00 -2.196283e+00 -9.619167e-01 -2.535724e-01 -4.936753e-01 2.788346e-01 9.235475e-01 -9.561561e-02 -3.410425e-01 3.901700e-01 8.587155e-01 -1.938847e-01 -4.911286e-01 2.495381e-02 8.438851e-02 -1.461658e-01 -3.012304e-01
<VARIANCE> 25
 2.953664e+01 4.099807e+01 7.036811e+01 4.547289e+01 6.838914e+01 6.807326e+01 8.327616e+01 7.297032e+01 6.102790e+01 4.642332e+01 3.741130e+01 3.459917e+01 1.260892e+00 1.716419e+00 2.882089e+00 2.288198e+00 3.288197e+00 2.906408e+00 3.683512e+00 3.439649e+00 3.107431e+00 2.547869e+00 2.338711e+00 2.074970e+00 1.105628e+00
<GCONST> 1.045937e+02
<TRANSP> 5
 0.000000e+00 1.000000e+00 0.000000e+00 0.000000e+00 0.000000e+00
 0.000000e+00 5.612110e-01 4.387890e-01 0.000000e+00 0.000000e+00
 0.000000e+00 0.000000e+00 4.913412e-01 5.086588e-01 0.000000e+00
 0.000000e+00 0.000000e+00 0.000000e+00 6.883054e-01 3.116946e-01
 0.000000e+00 0.000000e+00 0.000000e+00 0.000000e+00 0.000000e+00
<ENDHMM>
~h "s"
<BEGINHMM>
<NUMSTATES> 5
<STATE> 2
<MEAN> 25
 -6.857600e+00 5.122561e+00 1.384222e+00 2.685007e-01 3.487390e+00 -4.098131e+00 1.583639e+00 -1.970474e-01 5.598735e-01 -8.559339e-01 -8.813419e-01 5.263298e-01 -3.745761e+00 1.175059e+00 -7.829366e-01 -2.762136e-01 1.772312e+00 3.482117e-01 1.407062e+00 6.319264e-01 5.723000e-01 1.624422e-01 7.054332e-01 6.718974e-01 2.847132e-01
<VARIANCE> 25
 7.669450e+01 4.139275e+01 4.827385e+01 4.733691e+01 5.247366e+01 5.422461e+01 5.285270e+01 4.566314e+01 4.133915e+01 3.435545e+01 3.262397e+01 2.654344e+01 4.704189e+00 3.835369e+00 4.338913e+00 4.654731e+00 4.474186e+00 4.691347e+00 4.840830e+00 4.284161e+00 3.924585e+00 3.577564e+00 3.391562e+00 2.706320e+00 2.104584e+00
<GCONST> 1.090859e+02
<STATE> 3
<MEAN> 25
 -1.626353e+01 7.275725e+00 -2.205043e+00 -8.277056e-01 7.114899e+00 -2.894297e+00 4.560702e+00 1.452343e+00 2.370476e+00 2.787334e-01 1.478718e+00 2.375613e+00 -8.613608e-01 2.043073e-02 -3.547620e-01 -2.271219e-01 2.022738e-01 2.095204e-01 1.124288e-01 1.965776e-01 1.376408e-01 1.915172e-01 2.001032e-01 1.603565e-01 -7.184346e-02
<VARIANCE> 25
 4.710895e+01 3.658509e+01 4.493080e+01 5.169538e+01 4.369362e+01 4.669138e+01 4.674137e+01 3.914555e+01 3.392479e+01 2.876572e+01 2.825659e+01 2.248411e+01 4.376480e+00 2.257725e+00 2.389975e+00 2.338936e+00 2.480546e+00 2.854777e+00 2.824519e+00 2.508101e+00 2.414066e+00 2.300539e+00 2.172362e+00 1.804267e+00 2.243922e+00
<GCONST> 1.014352e+02
<STATE> 4
<MEAN> 25
 -1.383979e+01 4.922482e+00 -1.906531e+00 -1.202423e+00 6.207694e+00 -1.514216e+00 3.219923e+00 2.011821e+00 1.904272e+00 7.478373e-01 9.090677e-01 1.871717e+00 1.067801e+00 -4.223802e-01 1.784977e-01 6.475174e-02 -4.411975e-01 3.238817e-02 -3.279337e-01 -1.741211e-01 -2.645845e-02 2.530085e-02 -1.456846e-01 -1.912583e-01 -3.315737e-01
<VARIANCE> 25
 5.268059e+01 2.772233e+01 2.983383e+01 3.883340e+01 3.158986e+01 3.831903e+01 3.725888e+01 3.066190e+01 2.783146e+01 2.376099e+01 2.320160e+01 1.916850e+01 3.944285e+00 1.502569e+00 1.530343e+00 1.730078e+00 2.185300e+00 2.275242e+00 2.592431e+00 2.204825e+00 2.051744e+00 1.891151e+00 1.819451e+00 1.669375e+00 1.626419e+00
<GCONST> 9.607314e+01
<TRANSP> 5
 0.000000e+00 1.000000e+00 0.000000e+00 0.000000e+00 0.000000e+00
 0.000000e+00 6.938110e-01 3.061890e-01 0.000000e+00 0.000000e+00
 0.000000e+00 0.000000e+00 6.251209e-01 3.748791e-01 0.000000e+00
 0.000000e+00 0.000000e+00 0.000000e+00 8.715966e-01 1.284034e-01
 0.000000e+00 0.000000e+00 0.000000e+00 0.000000e+00 0.000000e+00
<ENDHMM>
~h "t"
<BEGINHMM>
<NUMSTATES> 5
<STATE> 2
<MEAN> 25
 -1.609021e+00 1.552576e+00 1.520149e+00 1.479309e+00 6.277825e-01 -5.454485e-01 2.078029e-01 3.732145e-03 2.668805e-01 6.419933e-01 2.264284e-01 5.218930e-01 -1.136836e+00 -1.571054e-01 -9.271772e-02 2.623320e-02 5.118372e-01 2.112911e-01 5.085894e-01 2.968190e-01 3.768502e-01 2.156911e-01 3.975550e-01 5.098638e-01 -1.655827e-01
<VARIANCE> 25
 6.717114e+01 4.792265e+01 5.331403e+01 5.987963e+01 6.045272e+01 5.965274e+01 5.317626e+01 4.840413e+01 4.644265e+01 3.758453e+01 3.448935e+01 3.013399e+01 5.853803e+00 6.103827e+00 4.818923e+00 7.446107e+00 6.096702e+00 5.709163e+00 5.204913e+00 5.135062e+00 4.708027e+00 4.026473e+00 3.773796e+00 3.056066e+00 1.329966e+01
<GCONST> 1.145139e+02
<STATE> 3
<MEAN> 25
 -6.082497e+00 -5.992520e-01 8.556509e-01 -8.082544e-01 1.162546e+00 -1.044491e+00 1.502725e+00 1.035123e+00 1.651997e+00 8.363606e-01 1.301767e+00 1.910371e+00 -5.173950e-01 -3.743176e-01 6.408404e-02 -5.044740e-01 -2.840462e-01 -6.167191e-01 -4.618592e-02 9.583580e-02 1.278393e-01 -2.026913e-01 -1.429821e-02 4.659666e-02 1.480228e+00
<VARIANCE> 25
 6.801716e+01 4.320041e+01 4.059513e+01 5.209150e+01 4.865472e+01 5.276323e+01 4.890393e+01 4.164291e+01 3.813890e+01 3.423941e+01 3.134002e+01 2.752877e+01 8.037010e+00 4.610898e+00 4.323553e+00 6.074846e+00 5.601044e+00 5.983335e+00 5.598648e+00 4.730444e+00 4.423622e+00 3.935086e+00 3.723251e+00 3.247527e+00 1.142623e+01
<GCONST> 1.124480e+02
<STATE> 4
<MEAN> 25
 -5.544723e+00 -6.512654e-01 6.054689e-01 -2.181102e-01 1.249434e+00 -1.505012e+00 1.680325e+00 1.413263e+00 1.851571e+00 3.289661e-01 5.811874e-01 1.374842e+00 9.036944e-01 2.425756e-02 9.999951e-02 2.324005e-01 -2.525273e-01 -2.105893e-01 -3.609410e-01 -1.759783e-01 -1.868011e-01 -1.830958e-01 -3.036837e-01 -3.040779e-01 1.938184e-02
<VARIANCE> 25
 5.999733e+01 3.259379e+01 3.429848e+01 3.849142e+01 4.201945e+01 4.385020e+01 4.310277e+01 3.709522e+01 3.376928e+01 3.030157e+01 2.846199e+01 2.473124e+01 5.267509e+00 2.508397e+00 2.767751e+00 3.030170e+00 3.562455e+00 3.765344e+00 3.979445e+00 3.298991e+00 3.112831e+00 2.820859e+00 2.744645e+00 2.413063e+00 3.304226e+00
<GCONST> 1.042315e+02
<TRANSP> 5
 0.000000e+00 1.000000e+00 0.000000e+00 0.000000e+00 0.000000e+00
 0.000000e+00 5.913954e-01 4.086046e-01 0.000000e+00 0.000000e+00
 0.000000e+00 0.000000e+00 5.280547e-01 4.719453e-01 0.000000e+00
 0.000000e+00 0.000000e+00 0.000000e+00 6.421044e-01 3.578956e-01
 0.000000e+00 0.000000e+00 0.000000e+00 0.000000e+00 0.000000e+00
<ENDHMM>
~h "v"
<BEGINHMM>
<NUMSTATES> 5
<STATE> 2
<MEAN> 25
 3.852879e+00 -2.608198e-02 5.638630e-01 -1.290278e+00 -1.727663e+00 -1.778387e+00 -3.256557e+00 -2.292219e+00 -9.812238e-01 3.836497e-01 -5.765959e-01 -1.728831e+00 -3.626560e-01 6.140246e-01 5.445427e-02 6.861597e-01 5.127808e-01 5.802661e-04 1.633646e-01 -2.977911e-01 -3.921269e-02 -6.197294e-02 1.512960e-01 9.525825e-02 -5.064002e-01
<VARIANCE> 25
 6.001693e+01 5.975648e+01 7.139520e+01 7.957273e+01 6.871269e+01 7.335488e+01 6.731992e+01 6.406230e+01 5.890123e+01 5.042062e+01 4.260123e+01 3.631749e+01 5.176788e+00 5.604118e+00 4.404342e+00 7.376664e+00 6.351597e+00 5.410580e+00 5.847138e+00 5.837752e+00 5.094431e+00 4.414243e+00 3.934673e+00 3.212928e+00 6.418088e+00
<GCONST> 1.164368e+02
<STATE> 3
<MEAN> 25
 2.853914e+00 1.279501e+00 4.023490e-01 7.720351e-01 -7.149637e-02 -1.959306e+00 -2.800931e+00 -2.877173e+00 -3.908031e-01 1.011620e-01 -4.135622e-01 -1.800019e+00 -1.073094e+00 4.908268e-01 6.498423e-02 7.206826e-01 6.502346e-01 2.024147e-01 6.404379e-01 1.003938e-01 2.031972e-01 -1.747321e-01 8.006474e-02 2.158803e-01 -5.409434e-01
<VARIANCE> 25
 4.791348e+01 4.039673e+01 4.130978e+01 5.245103e+01 4.638704e+01 4.928187e+01 4.890603e+01 4.386306e+01 3.837987e+01 3.533125e+01 3.055425e+01 2.649352e+01 6.929963e+00 5.559995e+00 3.776762e+00 7.029146e+00 5.810878e+00 4.981025e+00 5.514290e+00 5.275732e+00 4.429927e+00 3.871693e+00 3.402126e+00 2.826669e+00 4.873002e+00
<GCONST> 1.108658e+02
<STATE> 4
<MEAN> 25
 1.553798e-01 1.428499e+00 3.952537e-01 1.633394e+00 9.349512e-01 -1.034207e+00 -1.120661e+00 -1.960023e+00 2.000374e-01 -6.753945e-02 -2.936193e-01 -1.217638e+00 -5.735856e-01 -4.627777e-02 -5.948353e-02 1.496390e-01 1.613682e-01 7.423556e-02 3.537412e-01 3.037047e-01 1.222564e-01 -8.151856e-02 3.148250e-02 2.177195e-01 -1.962042e-01
<VARIANCE> 25
 5.563098e+01 3.665209e+01 3.935406e+01 4.753395e+01 4.626616e+01 4.225634e+01 4.419486e+01 4.057238e+01 3.527295e+01 3.113823e+01 2.667109e+01 2.403011e+01 3.947186e+00 2.397327e+00 2.089365e+00 3.076563e+00 2.953342e+00 2.851048e+00 3.139452e+00 2.939874e+00 2.626073e+00 2.388056e+00 2.188136e+00 1.870578e+00 2.007355e+00
<GCONST> 1.020386e+02
<TRANSP> 5
 0.000000e+00 1.000000e+00 0.000000e+00 0.000000e+00 0.000000e+00
 0.000000e+00 5.367661e-01 4.632338e-01 0.000000e+00 0.000000e+00
 0.000000e+00 0.000000e+00 3.798900e-01 6.201100e-01 0.000000e+00
 0.000000e+00 0.000000e+00 0.000000e+00 5.846555e-01 4.153445e-01
 0.000000e+00 0.000000e+00 0.000000e+00 0.000000e+00 0.000000e+00
<ENDHMM>
~h "w"
<BEGINHMM>
<NUMSTATES> 5
<STATE> 2
<MEAN> 25
 5.229316e+00 3.426581e+00 -9.458889e-01 -1.265348e+00 -1.210979e+00 2.378127e-01 -1.633990e+00 -2.691096e+00 -3.173821e+00 -1.023280e+00 -2.746984e-03 -3.678983e-01 1.654685e+00 7.921052e-01 -4.868771e-01 -1.540538e+00 -1.084504e+00 2.909330e-01 -3.563886e-01 -7.396203e-01 -1.133944e+00 -3.888891e-01 1.537697e-01 2.095578e-02 5.849466e-01
<VARIANCE> 25
 4.675742e+01 4.078376e+01 3.184461e+01 5.078844e+01 4.964375e+01 4.270839e+01 4.959309e+01 4.151476e+01 4.345205e+01 3.556656e+01 2.999505e+01 2.650829e+01 3.401333e+00 3.368112e+00 3.078086e+00 4.434221e+00 5.258105e+00 4.639870e+00 4.830451e+00 4.423389e+00 4.679301e+00 4.001051e+00 3.687760e+00 3.045977e+00 3.526819e+00
<GCONST> 1.081169e+02
<STATE> 3
<MEAN> 25
 9.911342e+00 3.345182e+00 -2.580143e+00 -7.383716e+00 -5.280363e+00 1.795124e+00 -3.768060e+00 -4.491772e+00 -6.427299e+00 -1.192584e+00 1.422910e+00 -6.115255e-01 6.113545e-01 -8.463688e-01 -2.685969e-01 -9.978603e-01 -5.870885e-01 1.844636e-01 -9.289530e-01 -2.567529e-01 -9.325697e-02 4.467933e-01 4.218619e-01 -2.842181e-01 1.309457e+00
<VARIANCE> 25
 2.917768e+01 4.223107e+01 3.642400e+01 6.527222e+01 5.488407e+01 5.601785e+01 6.078698e+01 5.513757e+01 5.899835e+01 5.379394e+01 4.771391e+01 3.720963e+01 2.540525e+00 5.190077e+00 3.354845e+00 6.603330e+00 5.854989e+00 6.877516e+00 7.304033e+00 5.791638e+00 6.699396e+00 6.274692e+00 5.355098e+00 4.163246e+00 4.209923e+00
<GCONST> 1.139277e+02
<STATE> 4
<MEAN> 25
 9.863338e+00 1.473274e+00 -2.580809e+00 -8.125355e+00 -6.413657e+00 5.371788e-01 -4.704302e+00 -3.663731e+00 -4.395271e+00 -7.060503e-01 7.725446e-01 -1.809111e+00 -1.965239e-01 -7.515905e-01 1.058001e-01 2.257977e-01 3.361549e-02 -3.985450e-01 -3.786857e-01 3.635279e-01 7.226686e-01 2.465704e-01 -1.788694e-01 -2.501586e-01 5.777389e-01
<VARIANCE> 25
 2.029541e+01 5.131889e+01 4.243524e+01 6.385830e+01 5.328215e+01 6.426777e+01 6.722073e+01 5.458663e+01 5.699256e+01 5.723192e+01 4.895948e+01 3.924080e+01 8.723120e-01 2.404378e+00 2.412768e+00 3.625357e+00 3.592385e+00 4.786321e+00 4.209832e+00 4.184934e+00 4.196324e+00 4.069702e+00 3.627973e+00 2.953738e+00 1.404987e+00
<GCONST> 1.069697e+02
<TRANSP> 5
 0.000000e+00 1.000000e+00 0.000000e+00 0.000000e+00 0.000000e+00
 0.000000e+00 5.682197e-01 4.317802e-01 0.000000e+00 0.000000e+00
 0.000000e+00 0.000000e+00 5.527891e-01 4.472109e-01 0.000000e+00
 0.000000e+00 0.000000e+00 0.000000e+00 7.053018e-01 2.946982e-01
 0.000000e+00 0.000000e+00 0.000000e+00 0.000000e+00 0.000000e+00
<ENDHMM>
~h "y"
<BEGINHMM>
<NUMSTATES> 5
<STATE> 2
<MEAN> 25
 -9.991866e-01 2.515180e+00 1.008179e+01 2.804294e-01 -3.721511e+00 -1.171651e+00 -2.304730e+00 -2.956636e+00 -4.154360e+00 -2.226376e+00 -4.149439e-01 -1.036138e+00 6.957433e-01 2.821586e-01 2.438857e+00 -2.318129e-01 -1.900820e+00 -4.045007e-01 -9.760196e-01 -6.808795e-01 -1.499578e+00 -8.276948e-01 2.040383e-01 -4.101014e-01 9.810018e-01
<VARIANCE> 25
 4.525026e+01 4.155547e+01 6.830618e+01 4.570131e+01 6.185730e+01 5.989816e+01 5.551439e+01 4.903603e+01 4.697363e+01 4.205233e+01 3.107676e+01 2.868049e+01 4.644544e+00 3.199265e+00 4.793739e+00 4.936262e+00 5.610389e+00 6.221456e+00 5.451770e+00 4.709514e+00 4.799136e+00 4.444808e+00 3.338568e+00 2.910527e+00 3.020573e+00
<GCONST> 1.111403e+02
<STATE> 3
<MEAN> 25
 1.867900e+00 1.621112e+00 1.699049e+01 -8.939592e-01 -1.166915e+01 -3.176402e+00 -5.540961e+00 -4.159949e+00 -9.051162e+00 -4.241469e+00 1.276103e+00 -2.673880e+00 5.135595e-01 -7.502464e-01 -3.667144e-02 2.940978e-01 -1.080690e+00 -8.525534e-01 -2.423498e-01 4.559329e-01 -3.620661e-01 -1.924974e-01 4.263740e-01 4.306942e-03 6.567777e-01
<VARIANCE> 25
 2.060503e+01 3.769357e+01 6.670724e+01 5.519572e+01 6.167072e+01 6.308372e+01 4.873356e+01 5.497015e+01 5.392469e+01 5.432394e+01 4.137589e+01 3.494151e+01 1.647621e+00 2.551535e+00 4.926309e+00 3.056333e+00 4.976599e+00 5.244759e+00 4.288341e+00 4.499092e+00 4.198748e+00 3.339484e+00 2.637458e+00 2.247516e+00 1.534587e+00
<GCONST> 1.074496e+02
<STATE> 4
<MEAN> 25
 3.252821e+00 1.714277e-01 1.246215e+01 1.566934e+00 -1.070837e+01 -5.556356e+00 -5.166061e+00 -2.632524e+00 -7.573479e+00 -4.372959e+00 1.364426e+00 -1.463960e+00 2.976981e-01 -2.472448e-01 -8.103708e-01 2.280959e-01 3.348470e-01 -4.472268e-01 -2.548125e-01 3.611998e-01 4.346417e-01 2.929397e-02 -9.670927e-02 1.068144e-01 3.639011e-02
<VARIANCE> 25
 1.670934e+01 2.961666e+01 6.234092e+01 4.341054e+01 5.611423e+01 5.480151e+01 4.781253e+01 4.993278e+01 5.219406e+01 4.987228e+01 3.357081e+01 2.953296e+01 4.960729e-01 8.888545e-01 2.203052e+00 1.348397e+00 2.405050e+00 2.445840e+00 2.344573e+00 2.412177e+00 2.544759e+00 1.994219e+00 1.780379e+00 1.473689e+00 4.716180e-01
<GCONST> 9.623901e+01
<TRANSP> 5
 0.000000e+00 1.000000e+00 0.000000e+00 0.000000e+00 0.000000e+00
 0.000000e+00 6.526753e-01 3.473246e-01 0.000000e+00 0.000000e+00
 0.000000e+00 0.000000e+00 6.357409e-01 3.642591e-01 0.000000e+00
 0.000000e+00 0.000000e+00 0.000000e+00 8.215854e-01 1.784147e-01
 0.000000e+00 0.000000e+00 0.000000e+00 0.000000e+00 0.000000e+00
<ENDHMM>
~h "z"
<BEGINHMM>
<NUMSTATES> 5
<STATE> 2
<MEAN> 25
 -2.040290e+00 6.583276e+00 4.047608e+00 -1.070963e-01 1.484098e+00 -7.381543e+00 -3.510871e+00 -2.999457e+00 -8.018904e-01 -1.128446e+00 -2.062654e+00 -2.839910e-01 -3.472795e+00 1.950607e+00 -5.711981e-01 1.337763e-01 2.397005e+00 2.612051e-01 1.546347e+00 4.457493e-01 5.419670e-01 -1.062217e-01 2.448319e-01 5.305467e-01 -2.213272e-01
<VARIANCE> 25
 5.706148e+01 4.811081e+01 4.445636e+01 4.976743e+01 6.482344e+01 6.178314e+01 6.191579e+01 4.721017e+01 4.309578e+01 3.920557e+01 3.200651e+01 2.843580e+01 4.029232e+00 4.413462e+00 3.932791e+00 5.124805e+00 4.662224e+00 5.385507e+00 4.987649e+00 5.079965e+00 4.062704e+00 3.675967e+00 3.453007e+00 2.807356e+00 1.399157e+00
<GCONST> 1.097361e+02
<STATE> 3
<MEAN> 25
 -1.217630e+01 8.870065e+00 9.725021e-01 -3.594146e-01 6.976378e+00 -4.219509e+00 1.455425e+00 -2.322857e-01 1.268592e+00 -4.368275e-01 -8.560681e-02 1.296940e+00 -1.252076e+00 -3.939670e-01 -5.980767e-01 -2.157221e-01 3.016403e-01 6.057305e-01 5.452048e-01 5.665267e-01 3.566235e-01 2.622198e-01 3.583523e-01 1.942822e-01 -1.590778e-01
<VARIANCE> 25
 6.422634e+01 4.840221e+01 4.829665e+01 5.550975e+01 5.500226e+01 6.223185e+01 5.862646e+01 4.780493e+01 3.875243e+01 3.424028e+01 3.036717e+01 2.509178e+01 8.357062e+00 3.482795e+00 3.162490e+00 3.464556e+00 4.282462e+00 4.462994e+00 4.743146e+00 3.711595e+00 3.337066e+00 3.019691e+00 2.724434e+00 2.290496e+00 2.515864e+00
<GCONST> 1.084332e+02
<STATE> 4
<MEAN> 25
 -1.127888e+01 5.269269e+00 -3.021895e-01 -1.096659e+00 6.274813e+00 -2.222117e+00 1.596263e+00 1.229520e+00 1.612188e+00 4.752030e-01 3.620861e-01 1.307517e+00 1.000879e+00 -6.407394e-01 -6.320126e-02 1.239225e-01 -4.850696e-01 1.955031e-01 -1.434330e-01 -7.863946e-02 -3.265990e-03 9.552700e-02 -2.354832e-02 -1.029105e-01 -4.677950e-01
<VARIANCE> 25
 6.121365e+01 3.585331e+01 3.382063e+01 4.257330e+01 3.811938e+01 4.644740e+01 4.592791e+01 3.860819e+01 3.300457e+01 2.772411e+01 2.557996e+01 2.159576e+01 3.941678e+00 1.902229e+00 1.783616e+00 2.038009e+00 2.520585e+00 2.705803e+00 2.964140e+00 2.603418e+00 2.421761e+00 2.176506e+00 1.981912e+00 1.762930e+00 1.618244e+00
<GCONST> 9.966900e+01
<TRANSP> 5
 0.000000e+00 1.000000e+00 0.000000e+00 0.000000e+00 0.000000e+00
 0.000000e+00 6.842310e-01 3.157690e-01 0.000000e+00 0.000000e+00
 0.000000e+00 0.000000e+00 5.897660e-01 4.102340e-01 0.000000e+00
 0.000000e+00 0.000000e+00 0.000000e+00 8.243150e-01 1.756851e-01
 0.000000e+00 0.000000e+00 0.000000e+00 0.000000e+00 0.000000e+00
<ENDHMM>
~h "aa"
<BEGINHMM>
<NUMSTATES> 5
<STATE> 2
<MEAN> 25
 4.673661e+00 -1.740094e+00 -2.934170e+00 -4.873810e+00 -1.341262e+00 1.240635e+00 -2.485572e+00 -2.224799e+00 -3.242579e-01 3.280950e-01 -7.505049e-01 -2.206047e+00 1.277754e+00 -1.124202e+00 -1.175028e+00 -1.895300e+00 -2.991019e-01 1.041679e+00 -5.801620e-01 -1.776083e-01 2.650427e-01 3.149973e-02 -2.761858e-01 -8.112233e-01 1.580368e+00
<VARIANCE> 25
 4.966348e+01 4.532697e+01 5.288272e+01 7.359063e+01 6.679156e+01 7.204077e+01 6.867894e+01 5.824700e+01 5.792144e+01 4.714879e+01 4.424223e+01 3.683531e+01 5.182110e+00 4.129516e+00 4.520394e+00 6.596897e+00 6.187664e+00 6.781488e+00 6.250185e+00 6.180408e+00 6.592441e+00 5.055493e+00 4.352968e+00 3.959479e+00 4.662627e+00
<GCONST> 1.157564e+02
<STATE> 3
<MEAN> 25
 7.757730e+00 -4.164661e+00 -5.343163e+00 -9.012968e+00 -1.748863e+00 3.497016e+00 -3.647197e+00 -2.869754e+00 -5.314860e-01 1.987107e-01 -9.685478e-01 -3.531211e+00 2.572437e-01 -5.941682e-01 -4.080424e-01 -5.592665e-01 2.255979e-01 5.681928e-01 -5.904857e-02 -5.718419e-02 1.406938e-01 -5.975619e-02 -1.730489e-01 -3.128107e-01 5.797367e-01
<VARIANCE> 25
 3.944043e+01 5.643674e+01 6.837545e+01 8.597074e+01 7.631390e+01 9.926901e+01 9.367435e+01 7.434364e+01 6.948602e+01 6.652397e+01 6.001102e+01 4.745076e+01 2.570107e+00 3.435564e+00 3.830781e+00 5.452471e+00 4.897973e+00 6.393578e+00 5.504873e+00 5.268217e+00 5.198415e+00 4.480876e+00 4.010977e+00 3.607749e+00 2.763907e+00
<GCONST> 1.153736e+02
<STATE> 4
<MEAN> 25
 8.394427e+00 -5.989320e+00 -7.689160e+00 -1.060737e+01 -2.678795e-01 6.405276e+00 -2.220763e+00 -3.213408e+00 -2.457839e-01 -7.282819e-01 -2.064421e+00 -4.431526e+00 -1.805074e-01 2.896920e-01 2.240350e-01 5.900729e-01 2.180980e-01 -4.917160e-01 -4.381933e-02 1.339017e-01 7.378637e-02 -1.287333e-02 -1.090293e-01 8.044439e-02 -3.810757e-01
<VARIANCE> 25
 1.676784e+01 4.302497e+01 4.017298e+01 5.964480e+01 5.670471e+01 7.551358e+01 7.185645e+01 5.353096e+01 5.057019e+01 5.176709e+01 4.508910e+01 3.938045e+01 7.914515e-01 1.577615e+00 1.606904e+00 2.545067e+00 2.167900e+00 3.110019e+00 2.567796e+00 2.605138e+00 2.397857e+00 2.280879e+00 2.132348e+00 1.934974e+00 1.006525e+00
<GCONST> 1.008413e+02
<TRANSP> 5
 0.000000e+00 1.000000e+00 0.000000e+00 0.000000e+00 0.000000e+00
 0.000000e+00 5.671197e-01 4.328804e-01 0.000000e+00 0.000000e+00
 0.000000e+00 0.000000e+00 5.110311e-01 4.889689e-01 0.000000e+00
 0.000000e+00 0.000000e+00 0.000000e+00 8.556169e-01 1.443831e-01
 0.000000e+00 0.000000e+00 0.000000e+00 0.000000e+00 0.000000e+00
<ENDHMM>
~h "ae"
<BEGINHMM>
<NUMSTATES> 5
<STATE> 2
<MEAN> 25
 1.258618e+00 -2.902446e+00 -3.367464e-01 -6.430658e-01 -2.147252e+00 -1.837417e+00 8.529254e-01 1.925587e+00 1.158709e+00 -7.414131e-01 -2.016124e+00 -1.236196e+00 1.110972e+00 -1.489094e+00 -1.223857e-01 -1.027311e+00 -1.071771e+00 -4.954180e-01 -4.217595e-01 7.226549e-01 1.647271e-01 -6.860807e-01 -1.020732e+00 -7.455208e-01 2.084885e+00
<VARIANCE> 25
 4.394336e+01 4.807250e+01 4.569021e+01 4.812677e+01 6.257310e+01 6.391763e+01 6.569335e+01 5.493296e+01 4.799461e+01 4.397352e+01 3.979322e+01 3.662861e+01 4.310161e+00 4.500781e+00 3.977618e+00 4.558479e+00 5.358624e+00 5.399927e+00 5.690985e+00 5.622885e+00 5.234421e+00 4.504895e+00 4.114081e+00 3.554271e+00 7.195741e+00
<GCONST> 1.132327e+02
<STATE> 3
<MEAN> 25
 4.761490e+00 -7.345887e+00 -4.804134e-01 -3.754984e+00 -5.019639e+00 -3.013796e+00 -5.543272e-01 3.664779e+00 9.821172e-01 -2.903395e+00 -4.855704e+00 -3.578792e+00 5.630912e-01 -9.100065e-01 -7.773396e-02 -4.690697e-01 -3.721131e-01 8.337017e-02 -1.816663e-01 3.892177e-01 -2.724465e-02 -4.663728e-01 -5.210167e-01 -3.677045e-01 1.064008e+00
<VARIANCE> 25
 2.289791e+01 4.637421e+01 5.184544e+01 4.145438e+01 5.831547e+01 6.013859e+01 6.474451e+01 5.976648e+01 5.476544e+01 4.792825e+01 4.098092e+01 3.456619e+01 2.034756e+00 3.348639e+00 2.836765e+00 3.123519e+00 3.852630e+00 3.739178e+00 4.298744e+00 4.148428e+00 3.448371e+00 3.288847e+00 2.989694e+00 2.590701e+00 3.538161e+00
<GCONST> 1.075281e+02
<STATE> 4
<MEAN> 25
 5.456459e+00 -8.875707e+00 -1.794254e+00 -3.555792e+00 -4.242600e+00 -1.991032e+00 1.420698e-01 3.928684e+00 1.018384e+00 -4.033325e+00 -5.820914e+00 -3.955955e+00 1.499451e-02 4.944913e-01 9.565996e-02 2.758521e-01 2.345857e-01 -5.598652e-02 -1.639303e-01 -2.366499e-01 -6.003451e-02 1.364347e-01 1.152437e-01 5.460440e-02 -4.485035e-01
<VARIANCE> 25
 1.636603e+01 3.964725e+01 4.624211e+01 3.417654e+01 5.337592e+01 5.215323e+01 5.497390e+01 5.211861e+01 4.976500e+01 4.460172e+01 3.774157e+01 3.338229e+01 6.591493e-01 1.740533e+00 1.410023e+00 1.515665e+00 1.879235e+00 1.949613e+00 2.235176e+00 2.315127e+00 1.985218e+00 1.946755e+00 1.778599e+00 1.510922e+00 1.264550e+00
<GCONST> 9.693768e+01
<TRANSP> 5
 0.000000e+00 1.000000e+00 0.000000e+00 0.000000e+00 0.000000e+00
 0.000000e+00 5.940098e-01 4.059902e-01 0.000000e+00 0.000000e+00
 0.000000e+00 0.000000e+00 4.230497e-01 5.769504e-01 0.000000e+00
 0.000000e+00 0.000000e+00 0.000000e+00 8.401874e-01 1.598126e-01
 0.000000e+00 0.000000e+00 0.000000e+00 0.000000e+00 0.000000e+00
<ENDHMM>
~h "ah"
<BEGINHMM>
<NUMSTATES> 5
<STATE> 2
<MEAN> 25
 3.139953e+00 -1.435226e+00 -2.404701e+00 -3.969924e+00 -7.932413e-01 -7.283938e-02 -2.872585e+00 -1.467538e+00 1.115570e+00 5.238216e-01 -1.369363e+00 -2.059299e+00 1.314273e+00 -1.099104e+00 -6.881157e-01 -1.390758e+00 -3.269635e-01 4.505115e-01 -1.001470e+00 -1.817824e-01 4.994355e-01 2.608899e-01 -5.686941e-01 -9.414206e-01 1.393034e+00
<VARIANCE> 25
 6.033231e+01 5.164266e+01 5.147899e+01 7.693417e+01 6.319526e+01 7.604178e+01 6.242086e+01 5.828739e+01 5.712016e+01 5.129902e+01 4.399630e+01 3.881997e+01 6.606771e+00 4.768383e+00 4.212576e+00 7.116901e+00 5.752353e+00 6.328745e+00 6.439090e+00 6.067294e+00 5.966859e+00 5.052067e+00 4.586650e+00 4.047532e+00 6.203675e+00
<GCONST> 1.166410e+02
<STATE> 3
<MEAN> 25
 6.613340e+00 -4.798404e+00 -4.285004e+00 -7.656717e+00 -1.346822e+00 1.603632e+00 -5.403781e+00 -2.064844e+00 2.008950e+00 1.008976e+00 -2.675493e+00 -4.736604e+00 3.774319e-01 -3.828261e-01 -1.030575e-01 -1.744431e-01 1.095480e-01 2.610838e-01 -2.591597e-01 -1.277418e-01 1.261367e-01 1.238181e-01 -2.781786e-01 -4.242428e-01 2.842770e-01
<VARIANCE> 25
 2.818793e+01 4.694899e+01 4.498157e+01 6.836185e+01 5.375813e+01 8.097894e+01 6.312413e+01 5.651227e+01 5.521133e+01 5.968261e+01 5.113419e+01 4.223094e+01 2.867392e+00 4.234658e+00 3.261826e+00 6.111342e+00 4.151117e+00 5.440787e+00 4.651478e+00 4.920753e+00 4.522281e+00 4.109625e+00 3.904106e+00 3.359318e+00 3.930928e+00
<GCONST> 1.121041e+02
<STATE> 4
<MEAN> 25
 7.139220e+00 -4.693328e+00 -4.751063e+00 -7.769917e+00 -5.550537e-01 2.313194e+00 -4.604562e+00 -2.298790e+00 2.000706e+00 9.612519e-01 -3.209304e+00 -5.050171e+00 -2.302770e-01 7.335716e-01 4.821258e-01 8.056270e-01 1.641895e-01 -2.824544e-01 2.787193e-01 -1.760064e-01 -3.465743e-01 -1.251601e-01 1.689889e-01 3.135206e-01 -7.803499e-01
<VARIANCE> 25
 2.049199e+01 4.152144e+01 3.705939e+01 5.744962e+01 4.591224e+01 6.758797e+01 5.699314e+01 5.030886e+01 5.026843e+01 5.546452e+01 4.707254e+01 3.618308e+01 1.269684e+00 2.166177e+00 1.931320e+00 3.122296e+00 2.445532e+00 3.215571e+00 2.802667e+00 2.990123e+00 2.811024e+00 2.595692e+00 2.496585e+00 2.180876e+00 1.730075e+00
<GCONST> 1.029582e+02
<TRANSP> 5
 0.000000e+00 1.000000e+00 0.000000e+00 0.000000e+00 0.000000e+00
 0.000000e+00 5.648115e-01 4.351884e-01 0.000000e+00 0.000000e+00
 0.000000e+00 0.000000e+00 4.624895e-01 5.375106e-01 0.000000e+00
 0.000000e+00 0.000000e+00 0.000000e+00 7.594571e-01 2.405428e-01
 0.000000e+00 0.000000e+00 0.000000e+00 0.000000e+00 0.000000e+00
<ENDHMM>
~h "ao"
<BEGINHMM>
<NUMSTATES> 5
<STATE> 2
<MEAN> 25
 5.912871e+00 6.054033e-01 -4.389693e+00 -7.516829e+00 -3.136334e+00 2.304440e+00 -1.544379e+00 -2.900003e+00 -1.299806e+00 9.093720e-02 3.829519e-01 -1.551979e+00 1.934890e+00 -3.532741e-02 -9.953563e-01 -2.754095e+00 -1.487477e+00 1.131983e+00 4.606978e-02 -1.991519e-01 -5.929545e-01 -4.250411e-01 9.318933e-02 -1.060100e-01 1.134749e+00
<VARIANCE> 25
 4.247758e+01 4.271279e+01 4.017474e+01 7.828692e+01 6.645095e+01 6.036735e+01 6.480753e+01 5.113738e+01 5.235753e+01 4.805988e+01 4.128004e+01 3.750415e+01 4.854338e+00 3.617339e+00 3.539502e+00 5.992287e+00 6.475389e+00 5.410471e+00 5.854440e+00 5.457520e+00 5.674305e+00 4.625113e+00 4.139948e+00 3.723279e+00 2.966774e+00
<GCONST> 1.131131e+02
<STATE> 3
<MEAN> 25
 9.664440e+00 -4.580989e-02 -6.499659e+00 -1.361264e+01 -6.499366e+00 5.044082e+00 -7.971290e-01 -2.035496e+00 -3.036360e+00 -1.871664e+00 7.836200e-01 -1.108815e+00 4.161672e-01 -3.697696e-01 -5.720127e-01 -7.729596e-01 -8.603515e-02 5.798345e-01 1.658213e-01 2.155524e-01 -1.662268e-01 -3.637768e-01 1.178188e-01 3.170853e-01 3.967478e-01
<VARIANCE> 25
 2.610382e+01 4.570018e+01 4.591611e+01 7.300491e+01 8.051225e+01 6.991615e+01 6.841996e+01 6.561614e+01 6.040454e+01 5.626872e+01 5.030664e+01 4.597376e+01 1.033906e+00 1.961647e+00 2.013189e+00 3.649762e+00 3.915757e+00 3.264565e+00 3.936677e+00 3.302654e+00 3.390972e+00 3.183953e+00 3.077932e+00 2.754432e+00 1.182686e+00
<GCONST> 1.065703e+02
<STATE> 4
<MEAN> 25
 9.552948e+00 -4.457528e-02 -7.053640e+00 -1.449389e+01 -5.184909e+00 6.300203e+00 1.379008e-01 -2.179273e+00 -2.015273e+00 -2.505946e+00 -3.747593e-01 -4.147521e-01 -5.370031e-02 -5.250797e-02 -3.754029e-02 5.204360e-01 3.795438e-01 -2.926829e-01 -2.215191e-01 3.289328e-02 8.792491e-02 1.051199e-01 2.319269e-02 5.626585e-05 -1.657905e-01
<VARIANCE> 25
 1.750361e+01 4.197934e+01 3.806957e+01 7.396040e+01 7.581293e+01 6.162156e+01 5.913585e+01 5.033944e+01 4.686161e+01 4.836441e+01 4.157851e+01 3.866454e+01 3.465836e-01 9.780296e-01 1.064093e+00 1.933448e+00 1.788064e+00 1.886969e+00 2.108031e+00 1.833472e+00 1.905262e+00 1.842341e+00 1.746370e+00 1.575899e+00 4.441592e-01
<GCONST> 9.570993e+01
<TRANSP> 5
 0.000000e+00 1.000000e+00 0.000000e+00 0.000000e+00 0.000000e+00
 0.000000e+00 6.362686e-01 3.637315e-01 0.000000e+00 0.000000e+00
 0.000000e+00 0.000000e+00 5.098931e-01 4.901070e-01 0.000000e+00
 0.000000e+00 0.000000e+00 0.000000e+00 8.812907e-01 1.187093e-01
 0.000000e+00 0.000000e+00 0.000000e+00 0.000000e+00 0.000000e+00
<ENDHMM>
~h "aw"
<BEGINHMM>
<NUMSTATES> 5
<STATE> 2
<MEAN> 25
 5.559219e+00 -9.830987e+00 -4.571380e+00 -4.235064e+00 -1.831571e+00 -3.026912e-01 -3.290538e-01 2.397735e+00 2.012212e+00 -2.714683e+00 -5.873192e+00 -4.648441e+00 5.242582e-01 -9.120743e-01 -8.563341e-01 -6.121950e-01 5.502982e-01 1.016250e+00 -1.447608e-01 -3.868182e-01 1.292910e-01 -1.239101e-01 -5.180557e-01 -6.152555e-01 6.872225e-01
<VARIANCE> 25
 2.337555e+01 4.243367e+01 3.480849e+01 3.967482e+01 5.265425e+01 5.580739e+01 5.464194e+01 5.460027e+01 4.849714e+01 5.419207e+01 4.318712e+01 3.736267e+01 1.428356e+00 2.354800e+00 1.853035e+00 2.511745e+00 2.882766e+00 2.912912e+00 3.271440e+00 3.401090e+00 2.837954e+00 2.824721e+00 2.730278e+00 2.418530e+00 1.706195e+00
<GCONST> 1.031152e+02
<STATE> 3
<MEAN> 25
 7.859409e+00 -1.062481e+01 -7.566013e+00 -7.588415e+00 1.233150e-01 4.900550e+00 -2.343930e+00 -1.545998e+00 1.669797e+00 -1.600581e+00 -5.127796e+00 -6.372542e+00 2.937958e-01 5.066139e-01 -3.008839e-01 -5.895656e-01 8.624315e-02 6.719870e-01 -1.228536e-01 -5.680236e-01 -2.709830e-01 3.165950e-01 5.613116e-01 1.382576e-01 -3.717752e-01
<VARIANCE> 25
 1.601405e+01 3.814662e+01 3.117455e+01 4.937753e+01 4.712974e+01 6.857001e+01 5.754419e+01 5.533057e+01 5.040155e+01 5.800337e+01 4.856549e+01 3.990338e+01 4.703823e-01 1.430589e+00 1.076548e+00 1.859924e+00 2.044368e+00 2.203061e+00 2.281239e+00 2.350028e+00 2.176633e+00 2.215808e+00 2.175419e+00 1.968537e+00 6.865962e-01
<GCONST> 9.753162e+01
<STATE> 4
<MEAN> 25
 7.893064e+00 -3.374985e+00 -6.741823e+00 -8.337939e+00 -8.700874e-01 5.323270e+00 -3.221170e-01 -2.554197e+00 -4.628668e-01 -1.509440e-01 -1.122480e+00 -2.539175e+00 -4.131864e-02 5.972924e-01 2.646549e-01 2.465869e-01 -1.220837e-01 -2.982419e-01 -8.263248e-02 -6.527728e-02 -1.784162e-01 8.267114e-02 2.529412e-01 2.988598e-01 -5.312090e-01
<VARIANCE> 25
 2.283257e+01 3.983933e+01 2.681493e+01 6.244934e+01 4.817025e+01 5.050599e+01 4.828293e+01 4.149100e+01 4.132673e+01 4.302237e+01 3.888261e+01 3.556400e+01 4.091217e-01 1.004547e+00 9.625472e-01 1.794184e+00 1.665222e+00 1.892727e+00 1.846766e+00 1.841405e+00 1.824842e+00 1.787650e+00 1.726270e+00 1.625968e+00 4.439231e-01
<GCONST> 9.372925e+01
<TRANSP> 5
 0.000000e+00 1.000000e+00 0.000000e+00 0.000000e+00 0.000000e+00
 0.000000e+00 7.293701e-01 2.706299e-01 0.000000e+00 0.000000e+00
 0.000000e+00 0.000000e+00 7.443792e-01 2.556208e-01 0.000000e+00
 0.000000e+00 0.000000e+00 0.000000e+00 8.817331e-01 1.182669e-01
 0.000000e+00 0.000000e+00 0.000000e+00 0.000000e+00 0.000000e+00
<ENDHMM>
~h "ax"
<BEGINHMM>
<NUMSTATES> 5
<STATE> 2
<MEAN> 25
 1.240563e+00 2.750943e-01 1.429947e+00 -3.792030e-01 -1.546600e+00 -3.566437e+00 -2.717825e+00 -1.101205e+00 5.523939e-01 -3.560712e-01 -1.242993e+00 -1.103685e+00 1.189297e+00 -2.290265e-01 2.363438e-01 -5.620621e-01 -6.825935e-01 -4.874730e-01 -9.425655e-01 -2.724327e-01 -4.656334e-02 -2.986244e-02 -4.103653e-01 -4.097033e-01 8.321891e-01
<VARIANCE> 25
 5.582444e+01 4.335685e+01 4.923434e+01 5.010831e+01 5.679327e+01 6.050060e+01 6.123328e+01 5.067578e+01 4.635143e+01 4.058581e+01 3.497276e+01 3.093120e+01 6.790607e+00 4.877660e+00 4.320064e+00 6.106036e+00 6.254474e+00 5.852258e+00 6.858786e+00 5.521622e+00 5.200713e+00 4.375362e+00 3.981487e+00 3.453852e+00 7.442657e+00
<GCONST> 1.140178e+02
<STATE> 3
<MEAN> 25
 4.288159e+00 -2.808088e-01 2.028852e+00 -1.585803e+00 -2.985586e+00 -4.179902e+00 -4.763098e+00 -1.847622e+00 1.249256e-01 -2.595783e-01 -1.962672e+00 -2.110255e+00 5.451877e-01 1.548304e-01 5.334432e-02 -1.358161e-01 -8.624571e-02 2.284893e-01 -1.270996e-01 -1.685090e-01 -1.724513e-01 3.773645e-02 -8.116986e-02 -9.897847e-02 -1.500251e-01
<VARIANCE> 25
 3.279799e+01 4.215046e+01 5.155012e+01 5.566931e+01 5.647620e+01 6.042423e+01 5.812130e+01 5.392224e+01 5.084676e+01 4.470649e+01 3.749025e+01 3.204719e+01 4.530754e+00 4.267489e+00 3.479944e+00 5.676430e+00 5.390684e+00 4.754787e+00 5.726418e+00 5.034906e+00 4.564257e+00 3.925032e+00 3.555178e+00 3.033290e+00 4.903121e+00
<GCONST> 1.115501e+02
<STATE> 4
<MEAN> 25
 3.810601e+00 4.215082e-01 1.764615e+00 -1.150319e+00 -2.236450e+00 -2.956135e+00 -3.454473e+00 -1.690494e+00 1.401271e-02 -1.470365e-01 -1.569885e+00 -1.521032e+00 -1.623502e-01 2.637585e-01 -4.373463e-02 1.050681e-01 3.177412e-01 3.968950e-01 3.505534e-01 -5.295911e-02 -1.960254e-01 -2.693107e-02 1.073742e-01 1.463497e-01 -4.431598e-01
<VARIANCE> 25
 3.441497e+01 3.948336e+01 5.091832e+01 5.517295e+01 5.693208e+01 5.726498e+01 5.491729e+01 5.058133e+01 4.728217e+01 4.066351e+01 3.581809e+01 3.095148e+01 2.139079e+00 2.060307e+00 1.963127e+00 2.904331e+00 2.859233e+00 2.764291e+00 3.052114e+00 3.010208e+00 2.826838e+00 2.451490e+00 2.263366e+00 1.988728e+00 1.830766e+00
<GCONST> 1.032474e+02
<TRANSP> 5
 0.000000e+00 1.000000e+00 0.000000e+00 0.000000e+00 0.000000e+00
 0.000000e+00 4.648387e-01 5.351613e-01 0.000000e+00 0.000000e+00
 0.000000e+00 0.000000e+00 3.471697e-01 6.528303e-01 0.000000e+00
 0.000000e+00 0.000000e+00 0.000000e+00 5.524514e-01 4.475486e-01
 0.000000e+00 0.000000e+00 0.000000e+00 0.000000e+00 0.000000e+00
<ENDHMM>
~h "ay"
<BEGINHMM>
<NUMSTATES> 5
<STATE> 2
<MEAN> 25
 5.722257e+00 -5.574204e+00 -7.041233e+00 -7.904072e+00 1.360761e+00 6.117702e+00 -6.460581e-01 -2.709201e+00 1.429422e+00 2.944038e-01 -2.652538e+00 -3.983996e+00 5.132960e-01 -1.402031e+00 -5.549446e-01 -6.201583e-01 1.436598e-01 5.200294e-01 -2.897196e-01 1.011197e-01 4.979187e-01 -2.160636e-01 -8.314626e-01 -7.969970e-01 1.317941e+00
<VARIANCE> 25
 3.774702e+01 4.155840e+01 3.890220e+01 7.122669e+01 5.296248e+01 7.289969e+01 5.508966e+01 5.245101e+01 4.751706e+01 4.653051e+01 4.162577e+01 4.182882e+01 2.391277e+00 2.926833e+00 3.007938e+00 4.961297e+00 3.526797e+00 5.173346e+00 3.690524e+00 4.421245e+00 3.951867e+00 3.323968e+00 3.335315e+00 3.080723e+00 3.498213e+00
<GCONST> 1.091250e+02
<STATE> 3
<MEAN> 25
 7.031043e+00 -1.074070e+01 -6.270259e+00 -7.464942e+00 -1.066475e-01 4.345183e+00 -2.594811e+00 -6.602178e-01 3.039793e+00 -1.833387e+00 -6.329609e+00 -6.504518e+00 -2.038976e-01 -3.514464e-01 8.839213e-01 7.475858e-01 -7.491403e-01 -1.316260e+00 1.002592e-01 1.176092e+00 1.120198e-01 -5.423104e-01 -3.998322e-01 2.474319e-01 1.917847e-01
<VARIANCE> 25
 1.862321e+01 3.794690e+01 3.873296e+01 4.192739e+01 5.329125e+01 7.907613e+01 5.419706e+01 6.322239e+01 4.944403e+01 5.426616e+01 4.230145e+01 3.755001e+01 6.022366e-01 1.433001e+00 2.078655e+00 2.110304e+00 3.013080e+00 4.075523e+00 2.623577e+00 3.597626e+00 2.772814e+00 2.384111e+00 2.792190e+00 2.296178e+00 8.892595e-01
<GCONST> 1.013643e+02
<STATE> 4
<MEAN> 25
 4.940104e+00 -7.425741e+00 -1.253189e+00 -3.139348e+00 -3.583896e+00 -1.675082e+00 6.570214e-02 3.235661e+00 1.529339e+00 -2.344857e+00 -3.995497e+00 -3.051629e+00 -1.755581e-01 5.119909e-01 8.401055e-01 3.488274e-01 -6.322124e-01 -6.707187e-01 6.578740e-02 1.572597e-01 -3.974723e-01 1.747298e-02 4.784482e-01 3.715523e-01 -3.650006e-01
<VARIANCE> 25
 2.109723e+01 3.821304e+01 4.928778e+01 3.416040e+01 6.766385e+01 6.029071e+01 4.491309e+01 4.878413e+01 4.188448e+01 3.982003e+01 4.142125e+01 3.228045e+01 3.525361e-01 9.956946e-01 1.676695e+00 1.237309e+00 2.333369e+00 2.205748e+00 1.959908e+00 2.526002e+00 2.141846e+00 1.898121e+00 2.218694e+00 1.600381e+00 4.437359e-01
<GCONST> 9.546931e+01
<TRANSP> 5
 0.000000e+00 1.000000e+00 0.000000e+00 0.000000e+00 0.000000e+00
 0.000000e+00 7.200435e-01 2.799565e-01 0.000000e+00 0.000000e+00
 0.000000e+00 0.000000e+00 6.631359e-01 3.368640e-01 0.000000e+00
 0.000000e+00 0.000000e+00 0.000000e+00 8.653958e-01 1.346042e-01
 0.000000e+00 0.000000e+00 0.000000e+00 0.000000e+00 0.000000e+00
<ENDHMM>
~h "ch"
<BEGINHMM>
<NUMSTATES> 5
<STATE> 2
<MEAN> 25
 -4.338011e+00 2.470479e-01 3.934047e+00 5.729428e-01 -1.069534e-02 7.494590e-01 -3.365543e-01 -5.791501e-01 1.296990e+00 -1.630158e-01 5.303603e-01 9.534372e-01 -2.645958e+00 -3.130385e-01 4.652936e-01 -5.432334e-01 2.357324e-01 9.768537e-01 8.946985e-01 -3.910993e-02 7.540901e-01 1.852918e-01 6.339798e-01 4.614247e-01 5.962696e-01
<VARIANCE> 25
 7.580280e+01 5.008206e+01 5.085704e+01 5.643935e+01 5.234640e+01 5.822558e+01 4.992746e+01 4.553359e+01 4.412713e+01 3.591279e+01 3.165513e+01 2.548964e+01 6.424511e+00 5.907622e+00 5.218139e+00 6.482986e+00 5.910707e+00 5.386067e+00 5.342571e+00 4.803292e+00 4.394806e+00 3.988244e+00 3.449851e+00 2.813289e+00 1.185359e+01
<GCONST> 1.134358e+02
<STATE> 3
<MEAN> 25
 -1.473823e+01 -1.219024e+00 6.471600e+00 -1.918979e+00 -1.073765e+00 2.377158e+00 3.315883e+00 -9.037719e-01 3.819401e+00 -1.854960e-01 2.657039e+00 1.941704e+00 -1.158692e+00 -1.550421e-01 5.706283e-01 4.567821e-02 -5.961997e-01 -5.099881e-01 5.712296e-01 2.904407e-02 -4.102005e-03 -2.459537e-01 4.163192e-02 -5.430775e-02 1.185316e+00
<VARIANCE> 25
 6.912927e+01 3.857290e+01 4.418648e+01 4.761701e+01 4.623088e+01 4.857940e+01 4.582243e+01 4.060512e+01 3.302271e+01 3.048708e+01 2.661581e+01 2.072548e+01 8.737306e+00 2.888533e+00 3.227136e+00 3.725465e+00 3.345464e+00 4.207233e+00 3.999589e+00 3.326717e+00 2.921935e+00 2.719453e+00 2.527956e+00 2.013896e+00 4.849967e+00
<GCONST> 1.061868e+02
<STATE> 4
<MEAN> 25
 -1.238267e+01 -2.657653e+00 6.798301e+00 2.037416e-01 -3.276906e+00 -7.017959e-01 3.773187e+00 -3.774856e-01 2.836146e+00 -1.410238e+00 1.529466e+00 1.047235e+00 2.042010e+00 4.868209e-05 -4.843459e-01 3.601446e-01 -1.906018e-01 -8.513193e-01 -6.893169e-01 1.353634e-01 -3.831765e-01 -2.099793e-01 -3.454776e-01 -2.755587e-01 -2.594098e-01
<VARIANCE> 25
 7.275259e+01 2.935416e+01 3.440439e+01 3.570334e+01 4.092108e+01 4.963849e+01 4.258520e+01 3.365089e+01 3.132146e+01 2.748658e+01 2.451952e+01 1.991388e+01 5.989322e+00 1.933012e+00 2.331096e+00 2.225592e+00 2.829735e+00 3.395178e+00 4.068659e+00 2.840985e+00 2.684156e+00 2.473744e+00 2.274833e+00 1.884588e+00 1.934617e+00
<GCONST> 1.013738e+02
<TRANSP> 5
 0.000000e+00 1.000000e+00 0.000000e+00 0.000000e+00 0.000000e+00
 0.000000e+00 7.615018e-01 2.384982e-01 0.000000e+00 0.000000e+00
 0.000000e+00 0.000000e+00 6.466081e-01 3.533919e-01 0.000000e+00
 0.000000e+00 0.000000e+00 0.000000e+00 8.243585e-01 1.756415e-01
 0.000000e+00 0.000000e+00 0.000000e+00 0.000000e+00 0.000000e+00
<ENDHMM>
~h "dh"
<BEGINHMM>
<NUMSTATES> 5
<STATE> 2
<MEAN> 25
 -1.040920e+00 3.542157e+00 3.540689e-01 3.529596e+00 2.140636e+00 -4.094451e-01 3.736169e-01 -1.155068e+00 7.203827e-01 4.410462e-01 -4.343648e-01 -2.284662e-01 -4.823118e-01 1.380241e-01 -1.238337e-01 2.019102e-01 2.678761e-01 6.573401e-02 2.290301e-01 8.163729e-02 2.176439e-01 -8.372999e-02 4.435218e-02 1.100763e-01 -4.098855e-02
<VARIANCE> 25
 5.414182e+01 3.126449e+01 3.065698e+01 3.694538e+01 3.783988e+01 4.832028e+01 4.439178e+01 4.414529e+01 3.390492e+01 3.011855e+01 2.834519e+01 2.838084e+01 3.747247e+00 3.307986e+00 2.717227e+00 3.668124e+00 3.469702e+00 4.128955e+00 3.948776e+00 3.770628e+00 3.515930e+00 2.993072e+00 2.780096e+00 2.551180e+00 6.310126e+00
<GCONST> 1.054581e+02
<STATE> 3
<MEAN> 25
 -5.062521e-01 2.876679e+00 4.761401e-01 2.582844e+00 1.177243e+00 -1.695311e+00 -4.773562e-01 -1.605803e+00 8.612316e-01 -1.521142e-01 -7.861283e-01 -6.339126e-01 1.988129e-02 -4.279791e-01 -9.355269e-02 -4.449653e-01 -4.657595e-01 -5.150682e-01 -2.203179e-01 1.218948e-01 2.887744e-01 -8.173279e-02 4.277039e-03 3.504555e-02 1.040191e+00
<VARIANCE> 25
 4.911851e+01 3.633516e+01 3.129912e+01 4.019752e+01 4.249447e+01 4.770676e+01 4.688914e+01 4.107375e+01 3.555631e+01 3.057154e+01 2.836842e+01 2.819697e+01 3.752033e+00 3.134046e+00 2.570367e+00 3.571841e+00 3.975329e+00 4.762218e+00 4.405963e+00 3.724956e+00 3.491339e+00 3.023101e+00 2.695935e+00 2.613441e+00 7.653706e+00
<GCONST> 1.061894e+02
<STATE> 4
<MEAN> 25
 -1.747381e+00 1.140485e+00 -6.786215e-01 2.621155e+00 2.276781e+00 1.055049e+00 1.455191e+00 8.039569e-01 1.338744e+00 6.621977e-01 4.296312e-01 1.141095e+00 4.361859e-02 -9.219844e-02 1.264256e-02 -1.071010e-01 -1.556616e-01 -1.156374e-01 -8.355768e-02 1.139965e-02 2.696654e-02 -1.868757e-02 -1.709584e-02 -6.132465e-03 2.105999e-01
<VARIANCE> 25
 2.778008e+01 2.307603e+01 2.019859e+01 2.411215e+01 2.607193e+01 3.574535e+01 2.993013e+01 2.832884e+01 2.354856e+01 2.286052e+01 2.108088e+01 2.033448e+01 1.019897e+00 1.038171e+00 1.056607e+00 1.334952e+00 1.714369e+00 1.980796e+00 1.976930e+00 1.872759e+00 1.827454e+00 1.721359e+00 1.594295e+00 1.463900e+00 1.520872e+00
<GCONST> 8.987302e+01
<TRANSP> 5
 0.000000e+00 1.000000e+00 0.000000e+00 0.000000e+00 0.000000e+00
 0.000000e+00 3.967522e-01 6.032478e-01 0.000000e+00 0.000000e+00
 0.000000e+00 0.000000e+00 3.789058e-01 6.210942e-01 0.000000e+00
 0.000000e+00 0.000000e+00 0.000000e+00 8.463796e-01 1.536205e-01
 0.000000e+00 0.000000e+00 0.000000e+00 0.000000e+00 0.000000e+00
<ENDHMM>
~h "dx"
<BEGINHMM>
<NUMSTATES> 5
<STATE> 2
<MEAN> 25
 3.907603e+00 -2.292657e+00 3.864170e+00 -3.426043e-01 -5.206261e+00 -4.192179e+00 -3.732373e+00 -5.682682e-01 -6.457528e-01 -1.278617e+00 -1.064575e+00 -1.238396e+00 -4.200979e-01 3.857639e-01 6.424572e-01 5.253200e-01 1.001347e-01 -1.448279e-01 1.493166e-01 -8.785060e-02 -8.971737e-02 -6.005575e-02 8.954255e-02 2.483428e-01 -5.405735e-01
<VARIANCE> 25
 6.017362e+01 7.323174e+01 1.033201e+02 8.760924e+01 1.117654e+02 8.993698e+01 9.487374e+01 8.634608e+01 8.329182e+01 6.197967e+01 5.813179e+01 4.727308e+01 3.919614e+00 5.123796e+00 5.604597e+00 7.497354e+00 8.296800e+00 6.364796e+00 6.967305e+00 6.652246e+00 6.036631e+00 4.943368e+00 4.944207e+00 3.789311e+00 6.522330e+00
<GCONST> 1.208851e+02
<STATE> 3
<MEAN> 25
 2.163659e+00 -1.451676e+00 5.713400e+00 9.261372e-01 -5.041644e+00 -4.591932e+00 -3.422978e+00 -5.284336e-01 -9.573532e-01 -1.446447e+00 -4.811289e-01 -4.996558e-01 -6.584225e-01 2.396890e-01 2.921826e-01 -6.790712e-02 2.155416e-01 -2.046842e-02 2.567687e-01 8.912524e-02 -3.384502e-02 9.696569e-02 3.579071e-01 2.945771e-01 -2.017209e-01
<VARIANCE> 25
 4.312307e+01 4.248173e+01 5.505142e+01 5.518102e+01 7.000912e+01 5.239605e+01 5.913443e+01 4.821716e+01 4.757730e+01 3.807108e+01 3.464121e+01 2.850213e+01 4.684775e+00 4.681914e+00 5.166221e+00 6.629409e+00 8.585312e+00 5.877453e+00 6.244406e+00 5.527670e+00 5.023763e+00 4.073230e+00 4.067686e+00 3.117109e+00 6.925356e+00
<GCONST> 1.136169e+02
<STATE> 4
<MEAN> 25
 1.832263e+00 -1.469748e+00 6.152790e+00 -1.744541e-01 -6.041786e+00 -5.220511e+00 -3.385620e+00 -2.024773e-01 -1.066385e+00 -1.087476e+00 2.859876e-01 -1.931736e-01 -2.331533e-01 2.189291e-01 1.683774e-02 -8.481333e-03 2.049778e-01 -4.885018e-03 1.611243e-01 -4.920277e-02 -1.140687e-01 7.799415e-02 1.400787e-01 1.023437e-01 -1.894758e-01
<VARIANCE> 25
 4.845381e+01 3.923881e+01 5.813857e+01 4.882728e+01 7.351263e+01 5.209047e+01 6.528614e+01 4.901350e+01 4.874418e+01 3.796381e+01 3.421734e+01 2.844855e+01 2.286576e+00 2.155300e+00 2.999112e+00 3.018039e+00 4.308780e+00 3.458899e+00 3.571676e+00 3.337603e+00 3.163548e+00 2.614109e+00 2.538817e+00 2.103876e+00 2.413130e+00
<GCONST> 1.058205e+02
<TRANSP> 5
 0.000000e+00 1.000000e+00 0.000000e+00 0.000000e+00 0.000000e+00
 0.000000e+00 6.190622e-01 3.809378e-01 0.000000e+00 0.000000e+00
 0.000000e+00 0.000000e+00 4.381838e-01 5.618163e-01 0.000000e+00
 0.000000e+00 0.000000e+00 0.000000e+00 5.222673e-01 4.777327e-01
 0.000000e+00 0.000000e+00 0.000000e+00 0.000000e+00 0.000000e+00
<ENDHMM>
~h "eh"
<BEGINHMM>
<NUMSTATES> 5
<STATE> 2
<MEAN> 25
 2.753733e+00 -2.633126e+00 1.224697e+00 -1.261403e+00 -4.690911e+00 -5.268885e+00 -2.359046e+00 1.246754e+00 1.083485e+00 -8.502446e-01 -1.937683e+00 -1.864864e+00 1.308577e+00 -1.598193e+00 1.415734e-01 -9.748907e-01 -1.622648e+00 -8.305414e-01 -7.256352e-01 1.118071e+00 4.579470e-01 -3.706521e-01 -7.170504e-01 -5.401746e-01 1.801705e+00
<VARIANCE> 25
 4.267900e+01 4.939730e+01 4.384391e+01 4.135493e+01 6.256932e+01 5.441601e+01 6.413518e+01 5.135667e+01 4.556654e+01 3.968172e+01 3.653936e+01 3.327439e+01 5.539344e+00 4.226799e+00 3.760417e+00 4.218862e+00 5.732657e+00 5.125179e+00 6.511488e+00 5.511913e+00 4.859903e+00 4.049663e+00 3.934564e+00 3.533591e+00 4.373019e+00
<GCONST> 1.119048e+02
<STATE> 3
<MEAN> 25
 5.273620e+00 -6.905763e+00 1.325066e+00 -3.693236e+00 -8.005572e+00 -6.198431e+00 -3.392143e+00 4.331778e+00 1.772239e+00 -1.720327e+00 -3.239296e+00 -3.080765e+00 3.788834e-01 -8.986799e-01 -4.534857e-02 -4.313833e-01 -4.841738e-01 9.363180e-02 5.070567e-02 7.339591e-01 1.014795e-01 -2.842236e-01 -3.274225e-01 -2.467096e-01 6.304693e-01
<VARIANCE> 25
 2.190121e+01 4.187881e+01 4.555900e+01 3.670360e+01 5.657079e+01 5.253138e+01 6.130846e+01 5.272274e+01 5.262046e+01 4.439116e+01 4.029392e+01 3.358810e+01 1.874767e+00 2.995513e+00 2.745714e+00 2.845035e+00 3.834038e+00 3.437216e+00 4.123832e+00 3.965173e+00 3.255516e+00 2.983809e+00 2.798191e+00 2.500144e+00 2.292710e+00
<GCONST> 1.054373e+02
<STATE> 4
<MEAN> 25
 5.456588e+00 -7.435508e+00 5.767890e-01 -3.283866e+00 -7.488873e+00 -5.455483e+00 -2.011148e+00 5.298736e+00 1.853416e+00 -2.346708e+00 -3.608155e+00 -2.967367e+00 4.856269e-02 3.136092e-01 -1.008295e-01 2.477999e-01 4.338720e-01 1.633778e-01 -7.296563e-02 -2.498495e-01 -1.251760e-01 3.360491e-02 5.669678e-02 3.521911e-02 -4.516416e-01
<VARIANCE> 25
 1.906552e+01 3.688736e+01 4.188746e+01 3.337743e+01 5.722548e+01 5.172818e+01 5.569164e+01 4.878184e+01 4.997100e+01 4.326992e+01 3.985950e+01 3.339212e+01 6.840765e-01 1.488948e+00 1.511786e+00 1.496200e+00 1.881624e+00 1.951849e+00 2.221396e+00 2.345625e+00 1.972145e+00 1.821176e+00 1.725049e+00 1.491297e+00 9.295131e-01
<GCONST> 9.645493e+01
<TRANSP> 5
 0.000000e+00 1.000000e+00 0.000000e+00 0.000000e+00 0.000000e+00
 0.000000e+00 5.064406e-01 4.935594e-01 0.000000e+00 0.000000e+00
 0.000000e+00 0.000000e+00 3.629779e-01 6.370221e-01 0.000000e+00
 0.000000e+00 0.000000e+00 0.000000e+00 7.860830e-01 2.139170e-01
 0.000000e+00 0.000000e+00 0.000000e+00 0.000000e+00 0.000000e+00
<ENDHMM>
~h "er"
<BEGINHMM>
<NUMSTATES> 5
<STATE> 2
<MEAN> 25
 8.105993e+00 -4.486861e+00 -5.203462e+00 -1.250803e-01 -1.167821e+00 -6.315917e+00 -9.021298e+00 8.130013e-01 2.281047e+00 -7.312692e-01 -4.238108e-01 -7.525173e-01 1.417022e+00 -5.571910e-01 -1.081716e+00 1.149971e-01 2.524031e-01 -9.081289e-01 -1.913533e+00 4.856597e-01 7.651054e-01 -5.237852e-02 -3.207033e-01 5.063202e-02 3.780381e-01
<VARIANCE> 25
 4.262774e+01 3.407320e+01 6.774471e+01 4.445181e+01 6.190814e+01 6.409599e+01 8.536394e+01 6.663418e+01 5.210667e+01 4.536494e+01 3.803407e+01 3.607816e+01 4.055012e+00 2.430361e+00 3.229810e+00 3.023236e+00 4.013326e+00 3.937564e+00 5.836900e+00 4.405197e+00 3.687809e+00 3.263539e+00 2.831278e+00 2.653886e+00 1.621650e+00
<GCONST> 1.087244e+02
<STATE> 3
<MEAN> 25
 9.959954e+00 -5.252909e+00 -7.210551e+00 1.051039e+00 5.296735e-01 -8.266163e+00 -1.286242e+01 2.598974e+00 4.595546e+00 -1.136131e+00 -1.727050e+00 -2.493436e-01 -1.902610e-01 1.162504e-01 3.175425e-01 4.066059e-01 1.729971e-02 -6.947280e-02 3.256406e-01 1.679678e-01 -1.104148e-02 -1.207445e-01 -1.621502e-01 1.185309e-01 -4.398189e-01
<VARIANCE> 25
 3.116182e+01 3.280999e+01 6.543907e+01 4.939853e+01 6.781241e+01 7.298920e+01 1.011958e+02 7.980342e+01 5.964935e+01 5.344251e+01 3.947245e+01 3.683023e+01 1.396169e+00 1.761781e+00 2.783702e+00 2.154746e+00 3.035804e+00 3.125744e+00 4.551762e+00 3.481193e+00 2.909833e+00 2.795933e+00 2.359358e+00 1.997368e+00 1.281314e+00
<GCONST> 1.054095e+02
<STATE> 4
<MEAN> 25
 6.671855e+00 -3.191612e+00 -4.264295e+00 1.864934e+00 -1.245290e-01 -5.552359e+00 -6.855149e+00 1.717882e+00 3.649212e+00 -2.124430e-01 -1.761162e+00 -3.863841e-03 -4.035436e-01 2.794520e-01 4.675463e-01 1.587343e-01 8.885721e-03 3.080295e-01 6.085117e-01 -1.027430e-01 -3.060673e-01 -4.996332e-02 4.034275e-02 4.339463e-02 -4.425617e-01
<VARIANCE> 25
 3.983152e+01 3.020660e+01 4.244613e+01 3.815702e+01 4.891868e+01 6.516143e+01 7.884023e+01 4.921425e+01 4.171693e+01 4.029112e+01 3.336557e+01 2.968934e+01 8.035572e-01 1.028461e+00 1.548957e+00 1.374520e+00 1.837856e+00 2.015881e+00 2.543967e+00 2.085073e+00 1.943829e+00 1.824489e+00 1.676800e+00 1.451630e+00 6.181116e-01
<GCONST> 9.630324e+01
<TRANSP> 5
 0.000000e+00 1.000000e+00 0.000000e+00 0.000000e+00 0.000000e+00
 0.000000e+00 6.454529e-01 3.545472e-01 0.000000e+00 0.000000e+00
 0.000000e+00 0.000000e+00 6.161191e-01 3.838809e-01 0.000000e+00
 0.000000e+00 0.000000e+00 0.000000e+00 8.223307e-01 1.776693e-01
 0.000000e+00 0.000000e+00 0.000000e+00 0.000000e+00 0.000000e+00
<ENDHMM>
~h "ey"
<BEGINHMM>
<NUMSTATES> 5
<STATE> 2
<MEAN> 25
 4.497494e+00 -5.834098e+00 5.739289e+00 -2.725842e+00 -1.137349e+01 -7.824116e+00 -2.539001e+00 3.618355e+00 -6.058197e-01 -1.950252e+00 -6.022496e-01 -1.156164e+00 1.683377e-01 -4.651290e-01 1.516627e+00 -5.970339e-01 -2.110526e+00 -3.475372e-01 1.971318e-01 2.380437e-01 -9.900481e-01 -7.169926e-02 8.162620e-01 9.820061e-02 7.350165e-01
<VARIANCE> 25
 2.006841e+01 4.243809e+01 4.415047e+01 3.746457e+01 5.330865e+01 4.840576e+01 5.568671e+01 5.419243e+01 5.128647e+01 3.907242e+01 4.009650e+01 2.900728e+01 2.130480e+00 2.708468e+00 2.522233e+00 2.646938e+00 3.994962e+00 3.500740e+00 4.263845e+00 4.228700e+00 3.508073e+00 3.065483e+00 2.772113e+00 2.421488e+00 2.113088e+00
<GCONST> 1.048436e+02
<STATE> 3
<MEAN> 25
 3.912045e+00 -5.492420e+00 1.081357e+01 -4.541415e+00 -1.566918e+01 -7.185287e+00 -2.432540e+00 1.892556e+00 -4.857470e+00 -9.569831e-01 2.404193e+00 -1.496684e+00 -1.825301e-01 5.330446e-01 8.123357e-01 -5.833814e-02 -3.670393e-01 4.183863e-01 8.180445e-02 -8.172947e-01 -7.313676e-01 2.787660e-01 3.270946e-01 -1.940177e-01 -3.725627e-01
<VARIANCE> 25
 1.523974e+01 3.387047e+01 4.969381e+01 4.441827e+01 4.879361e+01 4.940842e+01 5.157462e+01 5.591740e+01 5.106728e+01 4.618367e+01 4.163468e+01 3.072458e+01 5.654801e-01 1.429461e+00 1.887610e+00 1.727724e+00 2.240571e+00 2.064957e+00 2.257401e+00 2.695350e+00 2.508832e+00 2.057506e+00 1.941109e+00 1.554520e+00 1.011514e+00
<GCONST> 9.763143e+01
<STATE> 4
<MEAN> 25
 3.046938e+00 -9.769993e-01 1.139950e+01 -2.623857e+00 -1.366285e+01 -4.547426e+00 -1.563902e+00 -2.551194e+00 -5.670683e+00 -2.086890e-01 2.026780e+00 -1.892767e+00 -8.691606e-02 4.751739e-01 -1.993524e-01 4.335473e-01 7.963178e-01 2.320692e-01 8.592309e-03 -3.084178e-01 -2.390463e-04 -2.782928e-02 -2.129306e-01 -7.792035e-04 -6.758930e-01
<VARIANCE> 25
 1.341908e+01 2.748892e+01 4.574423e+01 4.390309e+01 5.356318e+01 5.038020e+01 4.417457e+01 5.054461e+01 4.501532e+01 3.938560e+01 3.454810e+01 2.802467e+01 5.369689e-01 9.847611e-01 1.766919e+00 1.419713e+00 2.348936e+00 1.779083e+00 1.898609e+00 2.105461e+00 2.021159e+00 1.677915e+00 1.558062e+00 1.313449e+00 6.928215e-01
<GCONST> 9.409833e+01
<TRANSP> 5
 0.000000e+00 1.000000e+00 0.000000e+00 0.000000e+00 0.000000e+00
 0.000000e+00 6.734732e-01 3.265268e-01 0.000000e+00 0.000000e+00
 0.000000e+00 0.000000e+00 6.281694e-01 3.718306e-01 0.000000e+00
 0.000000e+00 0.000000e+00 0.000000e+00 8.639436e-01 1.360565e-01
 0.000000e+00 0.000000e+00 0.000000e+00 0.000000e+00 0.000000e+00
<ENDHMM>
~h "hh"
<BEGINHMM>
<NUMSTATES> 5
<STATE> 2
<MEAN> 25
 -2.351995e+00 -6.417450e-01 1.480134e+00 8.729656e-01 1.163075e+00 5.826627e-01 3.603369e+00 1.990445e+00 6.353365e-01 -1.741031e-01 -4.831694e-01 9.540825e-01 -4.038169e-01 -5.493588e-01 1.630166e-01 -2.333372e-01 3.728475e-02 3.534701e-01 6.007549e-01 2.716377e-01 1.060412e-01 -9.599619e-02 -9.428325e-02 1.356629e-01 2.884001e-01
<VARIANCE> 25
 5.090758e+01 3.444361e+01 4.536766e+01 3.999833e+01 5.311247e+01 5.232035e+01 5.028958e+01 4.412329e+01 3.923035e+01 3.844361e+01 3.415379e+01 2.782358e+01 2.636538e+00 2.417919e+00 2.947666e+00 3.140397e+00 3.626392e+00 3.541498e+00 3.593382e+00 3.635037e+00 3.218232e+00 2.975940e+00 2.785024e+00 2.308379e+00 2.575151e+00
<GCONST> 1.049962e+02
<STATE> 3
<MEAN> 25
 -2.190525e+00 -2.144111e+00 2.165864e+00 -3.315122e-01 9.854348e-02 6.597229e-01 4.125740e+00 1.901814e+00 2.182902e-01 -7.911127e-01 -1.028812e+00 6.525395e-01 3.709381e-02 -3.136768e-01 7.556480e-02 -2.452542e-01 -2.446187e-01 2.946552e-02 3.861526e-02 -1.038880e-01 -7.178609e-02 -8.711310e-02 -1.258678e-01 -5.941544e-02 2.762285e-01
<VARIANCE> 25
 4.656175e+01 3.703833e+01 5.122514e+01 3.997424e+01 5.774001e+01 5.289367e+01 5.878569e+01 4.761003e+01 4.177578e+01 4.000939e+01 3.482071e+01 2.880061e+01 1.788268e+00 1.780033e+00 2.322253e+00 2.332109e+00 2.933206e+00 2.869199e+00 2.945128e+00 2.988899e+00 2.741999e+00 2.587495e+00 2.394899e+00 2.047722e+00 1.782563e+00
<GCONST> 1.025972e+02
<STATE> 4
<MEAN> 25
 -2.064966e+00 -1.097356e+00 1.323669e-01 1.005908e+00 1.614792e+00 1.603061e+00 2.809633e+00 1.583940e+00 8.984182e-01 2.412809e-01 1.165559e-01 1.238853e+00 1.236264e-01 1.801691e-02 3.993265e-02 -3.860951e-02 -1.175128e-01 -2.834643e-02 -1.004512e-01 -1.023676e-01 -6.690030e-02 -2.539194e-02 -4.634364e-02 -6.868668e-02 5.796215e-02
<VARIANCE> 25
 2.415526e+01 2.337728e+01 2.943436e+01 2.533933e+01 3.477893e+01 3.161804e+01 3.181595e+01 2.933585e+01 2.658414e+01 2.597738e+01 2.436370e+01 2.038960e+01 7.393906e-01 7.945729e-01 1.048858e+00 1.134144e+00 1.494520e+00 1.584930e+00 1.727238e+00 1.770877e+00 1.737046e+00 1.665336e+00 1.571479e+00 1.399913e+00 5.471364e-01
<GCONST> 8.835450e+01
<TRANSP> 5
 0.000000e+00 1.000000e+00 0.000000e+00 0.000000e+00 0.000000e+00
 0.000000e+00 4.492508e-01 5.507492e-01 0.000000e+00 0.000000e+00
 0.000000e+00 0.000000e+00 3.589424e-01 6.410576e-01 0.000000e+00
 0.000000e+00 0.000000e+00 0.000000e+00 8.677910e-01 1.322090e-01
 0.000000e+00 0.000000e+00 0.000000e+00 0.000000e+00 0.000000e+00
<ENDHMM>
~h "ih"
<BEGINHMM>
<NUMSTATES> 5
<STATE> 2
<MEAN> 25
 1.856229e-01 2.320790e-01 4.298867e+00 6.628959e-01 -3.640143e+00 -4.422539e+00 -1.408934e+00 -3.994139e-01 -1.271436e+00 -8.895395e-01 -2.173380e-01 6.396677e-02 9.768754e-01 -2.480174e-01 1.287544e+00 -2.715405e-01 -1.787922e+00 -1.290141e+00 -9.133806e-01 -9.384649e-02 -5.915552e-01 -4.865806e-01 -4.216007e-02 -1.448956e-01 1.285620e+00
<VARIANCE> 25
 5.005605e+01 3.521469e+01 4.765971e+01 3.837422e+01 6.388030e+01 6.018665e+01 6.354026e+01 4.480443e+01 4.297075e+01 3.683686e+01 3.115537e+01 2.740648e+01 6.118838e+00 3.884467e+00 4.523635e+00 4.410494e+00 7.345942e+00 5.499384e+00 6.798784e+00 4.927298e+00 4.789837e+00 3.834814e+00 3.525345e+00 3.090037e+00 5.822785e+00
<GCONST> 1.116908e+02
<STATE> 3
<MEAN> 25
 3.081023e+00 -9.552042e-01 7.736927e+00 -5.502987e-01 -9.004246e+00 -7.475411e+00 -4.342024e+00 -7.375422e-01 -3.269885e+00 -2.063078e+00 1.828654e-01 -6.424393e-01 4.937058e-01 -2.263465e-01 4.769686e-01 -2.189952e-01 -8.828767e-01 -4.371743e-01 -5.127597e-01 2.782129e-02 -2.665744e-01 -1.815152e-01 1.198613e-01 -6.800182e-02 5.227184e-01
<VARIANCE> 25
 2.846569e+01 3.766291e+01 5.758361e+01 4.167923e+01 7.190244e+01 5.480984e+01 5.819551e+01 5.019804e+01 5.303236e+01 4.177529e+01 3.486819e+01 2.884774e+01 3.848229e+00 3.459945e+00 3.674241e+00 3.500081e+00 7.217997e+00 4.746964e+00 5.861978e+00 4.135492e+00 4.008853e+00 3.383215e+00 3.095501e+00 2.608984e+00 4.369009e+00
<GCONST> 1.096193e+02
<STATE> 4
<MEAN> 25
 2.645872e+00 -6.935527e-01 6.526901e+00 -5.891567e-02 -7.984512e+00 -6.541360e+00 -3.551937e+00 -3.976735e-01 -2.578929e+00 -1.763808e+00 4.965706e-01 -3.919181e-02 -1.847904e-01 2.465112e-01 -2.926535e-01 1.277587e-01 5.912921e-01 2.016586e-01 1.406754e-01 -5.182017e-02 1.228233e-01 5.465396e-02 -1.222421e-01 1.241619e-02 -3.394139e-01
<VARIANCE> 25
 2.550247e+01 3.184802e+01 5.289869e+01 3.482770e+01 7.426247e+01 5.557660e+01 5.303007e+01 4.455924e+01 4.709489e+01 3.681395e+01 3.110236e+01 2.626073e+01 1.346069e+00 1.606478e+00 1.644613e+00 1.705370e+00 2.978006e+00 2.444607e+00 2.580217e+00 2.416401e+00 2.303388e+00 2.013132e+00 1.890383e+00 1.621346e+00 1.283374e+00
<GCONST> 9.894331e+01
<TRANSP> 5
 0.000000e+00 1.000000e+00 0.000000e+00 0.000000e+00 0.000000e+00
 0.000000e+00 4.674478e-01 5.325522e-01 0.000000e+00 0.000000e+00
 0.000000e+00 0.000000e+00 4.478748e-01 5.521252e-01 0.000000e+00
 0.000000e+00 0.000000e+00 0.000000e+00 7.108301e-01 2.891700e-01
 0.000000e+00 0.000000e+00 0.000000e+00 0.000000e+00 0.000000e+00
<ENDHMM>
~h "ix"
<BEGINHMM>
<NUMSTATES> 5
<STATE> 2
<MEAN> 25
 1.215701e+00 -1.441693e-01 4.890663e+00 -2.828680e-01 -4.169053e+00 -4.490503e+00 -2.622956e+00 -4.508722e-01 -1.985339e+00 -1.097958e+00 -2.365205e-01 -5.398446e-01 6.351030e-01 -3.440064e-01 1.298644e+00 -3.963473e-01 -1.567249e+00 -7.323031e-01 -4.434856e-01 8.941679e-02 -7.622288e-01 -3.424697e-01 6.260476e-02 -2.644825e-01 1.015334e+00
<VARIANCE> 25
 6.475362e+01 5.372148e+01 7.721772e+01 6.355148e+01 8.470041e+01 7.561575e+01 7.350356e+01 6.434561e+01 6.194532e+01 5.035451e+01 4.326048e+01 3.683323e+01 6.183529e+00 4.708590e+00 5.683949e+00 6.182039e+00 8.202413e+00 6.431457e+00 7.018330e+00 6.416122e+00 6.155166e+00 4.866785e+00 4.459942e+00 3.654675e+00 6.867033e+00
<GCONST> 1.180663e+02
<STATE> 3
<MEAN> 25
 3.451490e+00 -1.043613e+00 8.442203e+00 -1.007292e+00 -8.754290e+00 -6.180656e+00 -3.518875e+00 -4.658127e-01 -4.424644e+00 -1.971311e+00 9.714091e-02 -1.572318e+00 3.578405e-01 2.141702e-01 4.775648e-01 -2.189504e-02 -5.746644e-01 1.671939e-01 2.118344e-01 -1.694928e-01 -5.490102e-01 6.347941e-03 1.245767e-01 -2.915612e-01 -4.142185e-02
<VARIANCE> 25
 2.547419e+01 3.818661e+01 6.133040e+01 4.981667e+01 6.777508e+01 5.426949e+01 5.522773e+01 5.853902e+01 5.774229e+01 4.635998e+01 3.919794e+01 3.067705e+01 3.610645e+00 3.753273e+00 4.341975e+00 4.721554e+00 6.907809e+00 4.866182e+00 5.441033e+00 5.354233e+00 5.251906e+00 4.104140e+00 3.690580e+00 2.984168e+00 4.102767e+00
<GCONST> 1.115228e+02
<STATE> 4
<MEAN> 25
 3.556361e+00 -5.901015e-02 8.873008e+00 -6.256245e-01 -9.085829e+00 -5.498582e+00 -2.652900e+00 -1.201476e+00 -4.963935e+00 -1.770136e+00 3.741786e-01 -1.736624e+00 -6.697671e-02 4.363313e-01 -4.203579e-01 3.075202e-01 7.256797e-01 4.964072e-01 4.027123e-01 -2.182939e-01 2.083210e-03 1.374406e-01 -1.153954e-01 -1.158308e-01 -5.893341e-01
<VARIANCE> 25
 2.064491e+01 3.348569e+01 5.465384e+01 4.712492e+01 6.611237e+01 4.974400e+01 5.157685e+01 5.760532e+01 5.351873e+01 4.214949e+01 3.706707e+01 2.968654e+01 1.718650e+00 2.019727e+00 2.524225e+00 2.516407e+00 3.765227e+00 2.960992e+00 3.100578e+00 3.527281e+00 3.325033e+00 2.711679e+00 2.421077e+00 2.099535e+00 1.753499e+00
<GCONST> 1.034423e+02
<TRANSP> 5
 0.000000e+00 1.000000e+00 0.000000e+00 0.000000e+00 0.000000e+00
 0.000000e+00 6.011785e-01 3.988216e-01 0.000000e+00 0.000000e+00
 0.000000e+00 0.000000e+00 3.976125e-01 6.023875e-01 0.000000e+00
 0.000000e+00 0.000000e+00 0.000000e+00 6.189390e-01 3.810610e-01
 0.000000e+00 0.000000e+00 0.000000e+00 0.000000e+00 0.000000e+00
<ENDHMM>
~h "iy"
<BEGINHMM>
<NUMSTATES> 5
<STATE> 2
<MEAN> 25
 1.182062e+00 5.894849e-01 1.138049e+01 -1.596000e-01 -8.881264e+00 -5.108294e+00 -3.279219e+00 -3.303700e+00 -5.797414e+00 -2.650362e+00 7.087713e-01 -1.110927e+00 6.390404e-01 1.983636e-01 2.448301e+00 -5.632918e-01 -2.422711e+00 2.570564e-02 -6.050925e-01 -8.844084e-01 -1.611698e+00 -3.399609e-01 3.423429e-01 -5.772379e-01 7.834399e-01
<VARIANCE> 25
 3.618162e+01 3.926217e+01 6.158407e+01 4.787604e+01 6.829582e+01 6.104103e+01 5.947089e+01 5.735875e+01 5.420235e+01 4.650565e+01 3.580103e+01 2.987820e+01 4.312212e+00 2.853592e+00 4.011973e+00 4.280911e+00 5.594270e+00 5.303491e+00 6.611602e+00 5.137119e+00 4.600080e+00 4.465237e+00 3.470569e+00 2.894801e+00 2.273652e+00
<GCONST> 1.108923e+02
<STATE> 3
<MEAN> 25
 2.081123e+00 1.384680e+00 1.636490e+01 -2.582639e+00 -1.339439e+01 -3.194748e+00 -5.098102e+00 -5.984909e+00 -9.208207e+00 -2.336686e+00 1.066159e+00 -3.407959e+00 2.186380e-02 2.719989e-01 -1.999053e-01 1.009971e-01 2.706747e-01 3.002777e-01 1.932565e-01 -2.145179e-01 7.009983e-02 1.932760e-01 -7.358636e-02 -6.525534e-02 -4.369189e-01
<VARIANCE> 25
 1.753415e+01 3.341327e+01 6.144966e+01 6.207792e+01 5.913208e+01 5.795923e+01 5.319832e+01 5.896202e+01 5.596234e+01 5.875150e+01 4.689498e+01 3.550429e+01 1.138130e+00 1.864702e+00 3.736567e+00 2.968081e+00 4.490807e+00 3.598208e+00 3.353942e+00 3.409823e+00 3.287379e+00 2.729653e+00 2.365899e+00 2.030840e+00 1.702917e+00
<GCONST> 1.049467e+02
<STATE> 4
<MEAN> 25
 1.752918e+00 2.467185e+00 1.208469e+01 -5.510745e-01 -9.319299e+00 -2.048125e+00 -2.626795e+00 -5.334936e+00 -6.132687e+00 -1.557618e+00 5.246705e-01 -1.759709e+00 -4.233231e-02 -1.294090e-02 -8.199458e-01 2.572077e-01 7.485659e-01 -5.654980e-03 2.990591e-01 3.574422e-01 4.280493e-01 1.025991e-01 -1.286934e-01 1.561197e-01 -4.160955e-01
<VARIANCE> 25
 1.590304e+01 2.640505e+01 6.149252e+01 4.228992e+01 6.639474e+01 4.896698e+01 4.658693e+01 5.090996e+01 4.375327e+01 4.033602e+01 3.229462e+01 2.681297e+01 6.576570e-01 1.056545e+00 1.987904e+00 1.523091e+00 2.594071e+00 2.180255e+00 2.093798e+00 2.353029e+00 2.207883e+00 1.859628e+00 1.714374e+00 1.455634e+00 7.399601e-01
<GCONST> 9.604504e+01
<TRANSP> 5
 0.000000e+00 1.000000e+00 0.000000e+00 0.000000e+00 0.000000e+00
 0.000000e+00 6.687267e-01 3.312733e-01 0.000000e+00 0.000000e+00
 0.000000e+00 0.000000e+00 6.839457e-01 3.160543e-01 0.000000e+00
 0.000000e+00 0.000000e+00 0.000000e+00 8.487836e-01 1.512164e-01
 0.000000e+00 0.000000e+00 0.000000e+00 0.000000e+00 0.000000e+00
<ENDHMM>
~h "jh"
<BEGINHMM>
<NUMSTATES> 5
<STATE> 2
<MEAN> 25
 -3.024805e+00 2.185122e+00 7.200640e+00 2.265976e+00 -4.542987e-01 1.054395e+00 -2.079424e-01 -2.582892e+00 -2.758768e-01 -2.047005e+00 -8.171633e-01 1.526926e-02 -2.839230e+00 -5.058510e-01 5.641938e-01 -7.048906e-01 1.632807e-01 8.640510e-01 9.300427e-01 -1.339406e-01 8.596417e-01 4.609893e-02 4.625044e-01 3.289856e-01 1.065601e+00
<VARIANCE> 25
 7.606382e+01 4.999191e+01 4.880120e+01 5.260931e+01 5.087412e+01 5.012922e+01 4.446656e+01 4.200782e+01 4.167710e+01 3.217345e+01 2.837019e+01 2.312929e+01 6.913316e+00 5.992777e+00 4.362913e+00 5.955596e+00 5.592626e+00 5.032459e+00 4.470624e+00 4.282431e+00 4.086427e+00 3.385349e+00 3.141132e+00 2.538912e+00 7.904526e+00
<GCONST> 1.111469e+02
<STATE> 3
<MEAN> 25
 -1.231955e+01 6.902814e-04 9.674589e+00 -2.033594e-01 -3.166328e+00 -2.375893e-01 2.538036e+00 -2.748123e+00 2.258167e+00 -2.403931e+00 1.181167e+00 1.140314e+00 8.167943e-01 -2.188814e-01 1.040377e-01 1.424842e-01 -9.757264e-01 -1.474298e+00 -5.624866e-01 2.538475e-01 -1.525096e-01 -2.243604e-01 7.145195e-02 3.847922e-02 7.943984e-01
<VARIANCE> 25
 8.231135e+01 3.702121e+01 4.575060e+01 4.555842e+01 5.060413e+01 6.698254e+01 5.337770e+01 3.886295e+01 3.630808e+01 3.111679e+01 2.578321e+01 2.106210e+01 1.399609e+01 3.227082e+00 4.005456e+00 3.667128e+00 4.213500e+00 5.703777e+00 5.933076e+00 3.566333e+00 3.459218e+00 2.859920e+00 2.496688e+00 2.064210e+00 3.185405e+00
<GCONST> 1.085231e+02
<STATE> 4
<MEAN> 25
 -8.186963e+00 -7.179909e-01 6.129448e+00 8.186391e-01 -2.016781e+00 -4.885985e-01 1.984201e+00 -4.645651e-01 2.103593e+00 -1.335519e+00 1.015519e+00 1.391057e+00 1.206903e+00 -1.336860e-01 -5.219854e-01 4.942934e-02 -7.184441e-02 -3.486143e-01 -4.609970e-01 1.683505e-01 -9.729982e-02 8.475339e-02 -1.066778e-01 -1.205625e-01 -2.752540e-01
<VARIANCE> 25
 7.802120e+01 3.088960e+01 4.767487e+01 3.511129e+01 5.093403e+01 5.556905e+01 4.671322e+01 3.535344e+01 3.073138e+01 2.856441e+01 2.308830e+01 1.961124e+01 4.417766e+00 1.744414e+00 2.242771e+00 1.923463e+00 2.503315e+00 3.061484e+00 3.087833e+00 2.479747e+00 2.301936e+00 2.145384e+00 1.897827e+00 1.679516e+00 1.678620e+00
<GCONST> 1.002580e+02
<TRANSP> 5
 0.000000e+00 1.000000e+00 0.000000e+00 0.000000e+00 0.000000e+00
 0.000000e+00 7.545403e-01 2.454598e-01 0.000000e+00 0.000000e+00
 0.000000e+00 0.000000e+00 6.872711e-01 3.127289e-01 0.000000e+00
 0.000000e+00 0.000000e+00 0.000000e+00 7.739837e-01 2.260163e-01
 0.000000e+00 0.000000e+00 0.000000e+00 0.000000e+00 0.000000e+00
<ENDHMM>
~h "ng"
<BEGINHMM>
<NUMSTATES> 5
<STATE> 2
<MEAN> 25
 5.006577e+00 3.505119e-01 8.696097e+00 -3.010809e+00 -1.085274e+01 -1.070635e+00 1.597313e-01 -3.780129e+00 -9.375452e+00 -3.417317e-01 8.455349e-01 -5.921608e+00 3.694417e-01 9.323084e-01 -5.285212e-01 9.106141e-01 7.947364e-01 1.496762e-01 2.411246e-01 -1.110860e+00 -4.301037e-01 6.300927e-01 -2.486103e-01 -4.366429e-01 -1.044819e+00
<VARIANCE> 25
 1.895518e+01 2.893336e+01 5.913932e+01 5.673256e+01 6.732973e+01 5.838072e+01 5.245718e+01 6.886168e+01 5.624035e+01 5.184795e+01 5.236486e+01 3.762833e+01 9.988210e-01 1.609151e+00 3.535221e+00 3.486613e+00 4.045870e+00 4.182751e+00 3.211142e+00 4.170585e+00 3.810627e+00 3.312807e+00 2.957148e+00 2.690178e+00 1.068207e+00
<GCONST> 1.054899e+02
<STATE> 3
<MEAN> 25
 6.322734e+00 3.381065e+00 4.683327e+00 1.932985e+00 -5.854235e+00 -2.307627e+00 6.760602e-01 -6.104228e+00 -8.209306e+00 3.188870e-01 -7.572784e-01 -5.218874e+00 2.689274e-02 5.103259e-01 -7.827193e-01 9.236979e-01 1.155710e+00 -1.409285e-01 1.430236e-03 -1.406114e-01 6.172304e-01 -1.695599e-01 -3.529829e-01 4.532571e-01 -8.956226e-01
<VARIANCE> 25
 2.061106e+01 2.492138e+01 3.663719e+01 4.664575e+01 4.878316e+01 4.425560e+01 4.676591e+01 5.795595e+01 4.999203e+01 4.474425e+01 4.283742e+01 3.412540e+01 1.448616e+00 1.745061e+00 2.863490e+00 3.049166e+00 3.826277e+00 3.503524e+00 3.274165e+00 4.432395e+00 3.603135e+00 3.201925e+00 2.860959e+00 2.407761e+00 1.194063e+00
<GCONST> 1.031324e+02
<STATE> 4
<MEAN> 25
 4.103010e+00 3.542796e+00 2.526432e+00 3.044048e+00 -1.424381e+00 -9.784572e-01 8.746319e-01 -3.761525e+00 -4.291341e+00 -5.671029e-01 -9.885648e-01 -2.140975e+00 -3.497510e-01 -2.970438e-02 -2.342318e-01 9.178481e-02 5.040157e-01 1.535442e-01 1.641183e-02 3.348216e-01 3.988951e-01 -5.622197e-02 -1.272840e-02 2.726647e-01 -3.460484e-01
<VARIANCE> 25
 2.607189e+01 2.091420e+01 2.440386e+01 2.783933e+01 4.025305e+01 3.229979e+01 3.517366e+01 4.395587e+01 4.021384e+01 2.903375e+01 2.692540e+01 2.660883e+01 7.934505e-01 1.050700e+00 1.204885e+00 1.409196e+00 1.975865e+00 1.840705e+00 1.929837e+00 2.314888e+00 2.231599e+00 1.913247e+00 1.738924e+00 1.560056e+00 5.938665e-01
<GCONST> 9.198398e+01
<TRANSP> 5
 0.000000e+00 1.000000e+00 0.000000e+00 0.000000e+00 0.000000e+00
 0.000000e+00 6.828707e-01 3.171293e-01 0.000000e+00 0.000000e+00
 0.000000e+00 0.000000e+00 5.447708e-01 4.552291e-01 0.000000e+00
 0.000000e+00 0.000000e+00 0.000000e+00 8.432733e-01 1.567266e-01
 0.000000e+00 0.000000e+00 0.000000e+00 0.000000e+00 0.000000e+00
<ENDHMM>
~h "ow"
<BEGINHMM>
<NUMSTATES> 5
<STATE> 2
<MEAN> 25
 7.328811e+00 -3.587306e+00 -4.015799e+00 -7.597712e+00 -3.480137e+00 1.271400e+00 -6.161833e+00 -3.145443e+00 9.346495e-01 2.604745e+00 -1.426224e-01 -4.396300e+00 8.494729e-01 -7.885031e-02 -6.829705e-01 -1.737266e+00 -5.895811e-01 1.279371e+00 -1.065952e-01 -6.365569e-01 -4.599331e-01 3.588516e-01 5.892208e-01 -3.061787e-02 5.035377e-01
<VARIANCE> 25
 2.251021e+01 3.972541e+01 3.615982e+01 5.837998e+01 4.985598e+01 6.565341e+01 6.490318e+01 5.382785e+01 5.845967e+01 5.590956e+01 5.634742e+01 4.339226e+01 1.819370e+00 2.431422e+00 2.366603e+00 3.954669e+00 3.873373e+00 3.734894e+00 4.187283e+00 4.061992e+00 4.593431e+00 3.984832e+00 3.519690e+00 3.322487e+00 2.157814e+00
<GCONST> 1.079081e+02
<STATE> 3
<MEAN> 25
 9.282281e+00 -1.938315e+00 -4.966744e+00 -1.245937e+01 -5.630709e+00 5.448708e+00 -5.020247e+00 -4.934267e+00 -2.306321e+00 1.670664e+00 1.968628e+00 -2.274228e+00 1.678147e-01 5.519949e-01 8.595248e-02 -3.249570e-01 -2.959414e-01 3.079301e-01 3.161151e-01 -7.940246e-02 -4.824519e-01 -4.561247e-01 3.887904e-02 4.737560e-01 -4.110532e-01
<VARIANCE> 25
 1.787239e+01 3.853468e+01 3.509453e+01 6.719775e+01 5.534039e+01 6.915291e+01 6.571816e+01 5.449531e+01 6.241829e+01 6.808826e+01 5.943505e+01 4.521642e+01 5.565863e-01 1.614789e+00 1.327940e+00 2.852367e+00 2.327395e+00 2.635829e+00 2.807725e+00 2.747147e+00 3.254827e+00 3.288767e+00 2.868949e+00 2.555110e+00 1.009249e+00
<GCONST> 1.023856e+02
<STATE> 4
<MEAN> 25
 8.739858e+00 1.560379e+00 -3.303829e+00 -1.024415e+01 -5.496944e+00 3.332268e+00 -3.136962e+00 -4.076204e+00 -2.709231e+00 -3.135580e-01 7.344643e-01 -6.267062e-01 -2.029967e-01 2.890813e-01 3.316358e-01 6.532940e-01 2.768631e-01 -3.517455e-01 4.023988e-03 3.790720e-02 -2.522080e-02 -1.443045e-01 -1.655521e-01 2.149941e-02 -4.623275e-01
<VARIANCE> 25
 1.817577e+01 3.533738e+01 2.887761e+01 7.424097e+01 5.336275e+01 5.610335e+01 5.870142e+01 4.855413e+01 5.004566e+01 5.174247e+01 4.300505e+01 3.491126e+01 4.490055e-01 9.572464e-01 9.419925e-01 1.966381e+00 1.746533e+00 1.839837e+00 1.910384e+00 1.972266e+00 2.132180e+00 2.133372e+00 1.924454e+00 1.672532e+00 4.849750e-01
<GCONST> 9.544112e+01
<TRANSP> 5
 0.000000e+00 1.000000e+00 0.000000e+00 0.000000e+00 0.000000e+00
 0.000000e+00 6.716717e-01 3.283282e-01 0.000000e+00 0.000000e+00
 0.000000e+00 0.000000e+00 6.296799e-01 3.703202e-01 0.000000e+00
 0.000000e+00 0.000000e+00 0.000000e+00 8.687277e-01 1.312723e-01
 0.000000e+00 0.000000e+00 0.000000e+00 0.000000e+00 0.000000e+00
<ENDHMM>
~h "oy"
<BEGINHMM>
<NUMSTATES> 5
<STATE> 2
<MEAN> 25
 1.018974e+01 2.114306e+00 -3.805524e+00 -1.459044e+01 -9.807546e+00 4.873086e+00 -1.106388e+00 -4.241571e+00 -2.621650e+00 -1.944023e+00 2.208667e-01 3.137970e-01 6.646768e-01 -3.716218e-01 -5.203389e-01 -1.365480e+00 -5.521359e-01 9.810885e-01 -2.861629e-02 -3.565187e-01 -3.558209e-01 3.011721e-01 4.027678e-01 5.387317e-02 4.963271e-01
<VARIANCE> 25
 1.939380e+01 3.450171e+01 3.302265e+01 7.641666e+01 6.514592e+01 6.313697e+01 5.578173e+01 4.834008e+01 4.640328e+01 4.243449e+01 4.510008e+01 3.351176e+01 1.864132e+00 1.998015e+00 2.015154e+00 5.518069e+00 4.664281e+00 3.538545e+00 3.650791e+00 3.129085e+00 3.421465e+00 3.499379e+00 3.450127e+00 2.449322e+00 1.009882e+00
<GCONST> 1.050038e+02
<STATE> 3
<MEAN> 25
 9.603710e+00 -5.145497e+00 -3.612181e+00 -9.784029e+00 -6.614839e+00 1.743591e+00 -6.684482e+00 -3.874200e+00 -1.225600e+00 3.153933e+00 2.010329e+00 -3.515072e+00 -5.161472e-01 -7.542322e-01 1.120324e+00 1.812075e+00 5.369785e-02 -2.046556e+00 -8.795878e-01 1.045320e+00 5.918401e-01 7.573336e-02 -3.758295e-01 -5.159341e-01 1.893147e-01
<VARIANCE> 25
 1.603521e+01 3.477190e+01 4.636955e+01 6.934649e+01 5.063143e+01 9.930821e+01 6.627983e+01 6.438641e+01 5.891809e+01 6.090098e+01 6.207068e+01 4.531894e+01 4.668010e-01 1.606627e+00 2.857335e+00 3.335514e+00 3.670176e+00 5.487642e+00 4.989506e+00 4.953492e+00 4.965907e+00 5.725827e+00 3.933411e+00 4.281689e+00 4.427344e-01
<GCONST> 1.068889e+02
<STATE> 4
<MEAN> 25
 5.490870e+00 -3.027616e+00 3.421395e+00 -2.185077e+00 -7.762063e+00 -6.104784e+00 -3.762949e+00 8.267046e-01 -1.405661e+00 1.370323e-02 1.024552e+00 -1.056580e+00 -3.465503e-01 3.650486e-01 5.569109e-01 3.900732e-01 3.268659e-02 -1.945804e-01 2.874960e-01 1.195590e-02 -2.863552e-01 -2.444038e-01 -3.698314e-02 1.994279e-01 -3.826156e-01
<VARIANCE> 25
 2.091779e+01 3.395135e+01 6.399439e+01 4.917907e+01 5.808875e+01 6.600934e+01 5.656733e+01 4.605311e+01 4.890928e+01 4.090606e+01 3.613004e+01 2.895041e+01 4.553796e-01 9.763009e-01 2.223547e+00 1.560317e+00 2.279586e+00 2.655519e+00 2.322288e+00 2.535627e+00 2.787453e+00 2.365965e+00 2.003000e+00 1.828845e+00 3.952709e-01
<GCONST> 9.750116e+01
<TRANSP> 5
 0.000000e+00 1.000000e+00 0.000000e+00 0.000000e+00 0.000000e+00
 0.000000e+00 8.344690e-01 1.655311e-01 0.000000e+00 0.000000e+00
 0.000000e+00 0.000000e+00 8.105243e-01 1.894757e-01 0.000000e+00
 0.000000e+00 0.000000e+00 0.000000e+00 8.603722e-01 1.396277e-01
 0.000000e+00 0.000000e+00 0.000000e+00 0.000000e+00 0.000000e+00
<ENDHMM>
~h "sh"
<BEGINHMM>
<NUMSTATES> 5
<STATE> 2
<MEAN> 25
 -7.741418e+00 -4.520846e-01 8.541800e+00 1.310298e+00 -2.508946e+00 -7.947089e-01 1.901167e+00 -5.871851e-01 9.184512e-01 -1.878409e+00 5.579047e-01 6.662275e-01 -3.584710e+00 -2.410166e-01 5.532581e-01 -1.186271e-01 5.425930e-01 8.533428e-01 1.286334e+00 2.139639e-02 1.084989e+00 1.407467e-01 5.842850e-01 3.852817e-01 6.951677e-01
<VARIANCE> 25
 7.693200e+01 3.738247e+01 4.874926e+01 4.187390e+01 4.770743e+01 4.765907e+01 4.382214e+01 4.309740e+01 4.185395e+01 3.263979e+01 2.935984e+01 2.385909e+01 4.632303e+00 3.335583e+00 3.743907e+00 3.521529e+00 4.439801e+00 4.022625e+00 4.125305e+00 3.957113e+00 3.770892e+00 3.340215e+00 3.013397e+00 2.397916e+00 1.924701e+00
<GCONST> 1.067344e+02
<STATE> 3
<MEAN> 25
 -1.750783e+01 -2.654119e+00 9.564947e+00 -2.849534e-02 -2.558951e+00 3.384556e-01 5.594284e+00 -1.000657e+00 3.886790e+00 -1.352517e+00 2.405209e+00 1.533959e+00 -5.575308e-01 -2.504145e-01 -1.425007e-01 -1.326836e-01 -1.184451e-01 -4.762509e-02 2.547738e-01 -3.064121e-02 1.576619e-01 6.127663e-02 8.559920e-02 4.890499e-02 1.256761e-01
<VARIANCE> 25
 4.722488e+01 3.864857e+01 3.518640e+01 4.161390e+01 3.958523e+01 5.226263e+01 4.288168e+01 3.788894e+01 3.166306e+01 3.015535e+01 2.694038e+01 2.214874e+01 4.066163e+00 1.260416e+00 1.490825e+00 1.614215e+00 1.783398e+00 2.376144e+00 2.264784e+00 2.141011e+00 1.984030e+00 1.934860e+00 1.805906e+00 1.530959e+00 1.098528e+00
<GCONST> 9.701740e+01
<STATE> 4
<MEAN> 25
 -1.311176e+01 -2.545089e+00 6.458509e+00 6.067560e-01 -2.070140e+00 4.453479e-01 4.349294e+00 -1.533462e-01 2.859349e+00 -8.978301e-01 1.440268e+00 1.306801e+00 1.216522e+00 1.104321e-01 -2.057202e-01 1.230128e-01 -1.360963e-01 -3.672656e-01 -4.443660e-01 -4.113385e-02 -2.087511e-01 -1.290672e-01 -2.406081e-01 -1.589992e-01 -2.952027e-01
<VARIANCE> 25
 6.326928e+01 2.777234e+01 3.723499e+01 2.949221e+01 3.737859e+01 4.019094e+01 3.284349e+01 3.001634e+01 2.608335e+01 2.580977e+01 2.220862e+01 1.862153e+01 4.556605e+00 1.115914e+00 1.298082e+00 1.251115e+00 1.643772e+00 2.111110e+00 2.466191e+00 1.919585e+00 1.941208e+00 1.803489e+00 1.678400e+00 1.446203e+00 8.304916e-01
<GCONST> 9.402906e+01
<TRANSP> 5
 0.000000e+00 1.000000e+00 0.000000e+00 0.000000e+00 0.000000e+00
 0.000000e+00 7.173985e-01 2.826015e-01 0.000000e+00 0.000000e+00
 0.000000e+00 0.000000e+00 6.862736e-01 3.137263e-01 0.000000e+00
 0.000000e+00 0.000000e+00 0.000000e+00 8.640652e-01 1.359348e-01
 0.000000e+00 0.000000e+00 0.000000e+00 0.000000e+00 0.000000e+00
<ENDHMM>
~h "th"
<BEGINHMM>
<NUMSTATES> 5
<STATE> 2
<MEAN> 25
 -2.721588e+00 3.471038e+00 2.136445e-02 2.650661e+00 1.872229e+00 -7.951473e-01 2.140273e+00 -9.728658e-01 1.070786e+00 -2.074515e-01 -2.376953e-01 1.140347e-01 -1.913619e+00 2.210557e-01 -4.768107e-01 5.038115e-01 8.804233e-01 4.245533e-01 1.028282e+00 5.079467e-01 7.618734e-01 2.840626e-01 4.780627e-01 6.454386e-01 -6.283486e-01
<VARIANCE> 25
 6.118041e+01 3.476385e+01 4.211656e+01 4.643699e+01 4.542055e+01 5.065343e+01 4.639119e+01 4.232542e+01 4.270115e+01 3.573887e+01 3.241925e+01 2.889776e+01 5.239967e+00 4.311141e+00 4.160714e+00 5.449521e+00 4.965941e+00 4.829848e+00 4.890208e+00 4.603786e+00 4.333354e+00 3.765527e+00 3.714037e+00 2.994080e+00 5.655245e+00
<GCONST> 1.101481e+02
<STATE> 3
<MEAN> 25
 -6.627711e+00 1.757632e+00 -1.798635e+00 1.815907e+00 2.304151e+00 -5.727785e-01 3.284340e+00 3.288231e-01 2.964032e+00 7.472743e-01 8.208508e-01 1.576459e+00 -3.602833e-01 -6.297324e-01 -3.215429e-01 -4.603142e-01 -3.527927e-01 -2.473668e-01 -1.005018e-01 1.955523e-01 3.125898e-01 8.372980e-02 9.135363e-02 1.049940e-01 7.798797e-01
<VARIANCE> 25
 5.673024e+01 3.234887e+01 3.379681e+01 3.886221e+01 3.997799e+01 4.432373e+01 4.202763e+01 3.575552e+01 3.387055e+01 3.105386e+01 2.920378e+01 2.677271e+01 7.265824e+00 3.266527e+00 3.595464e+00 4.301955e+00 4.157994e+00 4.781548e+00 4.680310e+00 4.049112e+00 3.792765e+00 3.517943e+00 3.605817e+00 3.296040e+00 8.023160e+00
<GCONST> 1.080429e+02
<STATE> 4
<MEAN> 25
 -6.760574e+00 5.764490e-01 -2.184894e+00 1.702490e+00 2.207624e+00 1.802564e-02 2.940798e+00 8.095931e-01 2.793617e+00 6.123015e-01 8.798827e-01 1.548552e+00 4.857959e-01 -1.963289e-01 1.025515e-01 -1.200664e-01 -2.410717e-01 -1.519440e-01 -2.723514e-01 -5.744849e-02 -1.025825e-01 -3.585281e-02 -1.123112e-01 -1.548061e-01 1.640697e-01
<VARIANCE> 25
 4.069974e+01 2.316546e+01 2.342273e+01 2.631453e+01 2.935289e+01 3.185645e+01 2.977141e+01 2.780977e+01 2.577492e+01 2.412563e+01 2.296468e+01 2.118214e+01 3.040328e+00 1.571113e+00 1.768399e+00 2.003885e+00 2.212681e+00 2.563453e+00 2.667676e+00 2.409303e+00 2.291389e+00 2.151333e+00 2.081603e+00 1.979949e+00 2.085558e+00
<GCONST> 9.557052e+01
<TRANSP> 5
 0.000000e+00 1.000000e+00 0.000000e+00 0.000000e+00 0.000000e+00
 0.000000e+00 6.054286e-01 3.945714e-01 0.000000e+00 0.000000e+00
 0.000000e+00 0.000000e+00 5.387414e-01 4.612586e-01 0.000000e+00
 0.000000e+00 0.000000e+00 0.000000e+00 8.436095e-01 1.563905e-01
 0.000000e+00 0.000000e+00 0.000000e+00 0.000000e+00 0.000000e+00
<ENDHMM>
~h "uh"
<BEGINHMM>
<NUMSTATES> 5
<STATE> 2
<MEAN> 25
 3.127730e+00 3.072612e-01 9.886780e-01 -1.249347e+00 -2.202121e+00 -2.621886e+00 -5.099140e+00 -3.983083e+00 -2.294678e+00 -8.798071e-01 5.293610e-01 -9.508778e-01 2.174974e+00 -1.357381e-01 -5.368911e-02 -6.036747e-01 -1.281601e+00 -6.129091e-01 -2.209935e+00 -1.028572e+00 -3.182024e-01 -5.510959e-02 9.537767e-02 -7.332812e-01 1.062012e+00
<VARIANCE> 25
